solver_type L2R_L2LOSS_SVC_DUAL
nr_class 2
label 1 -1
nr_feature 62095
bias -1
w
0.4814828723627518 
0.2601816274933664 
-0.9135000092856191 
2.317481756727028 
0.2157459728049947 
-1.10911234539932 
-0.3034619677409806 
0.04866497253686401 
-2.980210621706984 
-0.4045998996394934 
2.668296157719444 
0.1346783842398575 
-1.068005706025715 
-2.515174689644159 
-0.7642555479367927 
0.01064425717709694 
-0.9246949262987419 
-0.7462565893533889 
-3.396409074710593 
2.735561584375272 
0.4979558146004014 
-0.3628615445910101 
-0.3628615445910101 
0.1037471096008853 
-3.407968794566467 
0.4814828723627518 
-0.637144886545349 
-0.9455152415765503 
-3.057428684555175 
-3.54223343386439 
0.5154704768851062 
1.507555382546717 
-1.377142942532772e-05 
-2.810943362074613 
0.5848482454566621 
1.482329488918763 
-0.5194745713708424 
-0.7449394840694482 
-0.600442242999218 
1.409284418907184 
-2.616445540192402 
-0.2396886217477695 
-3.61640974376196 
0.9967449661498067 
-2.42089012276526 
0.4664800554711713 
0.7138103589019947 
0.3909710020824586 
-0.1032972699659732 
-2.345738110844908 
-0.2396886217477695 
-1.648090993268559 
-0.2396886217477695 
-0.2331994059935997 
-0.9046104758366738 
-0.9680456094399383 
1.367997287682354 
-0.6164422327422389 
-0.2396886217477695 
-1.209704548145965 
0.5902437502560351 
-0.2396886217477695 
-0.8099702354469011 
-1.685103326227172 
-1.656572473655399 
0.2409152828114808 
-0.2477359003076112 
-1.679271325691093 
-1.640093968757651 
-0.7606290825976019 
0.243635931219402 
-0.03593043831418719 
0.2548699598496973 
-3.098972429310841 
-3.873783208788598 
1.064890462835565 
-1.029102928334936 
0.2647062346385338 
0.5766422015556115 
-3.713281527070857 
-0.8738118511110989 
0.8091791407878426 
-1.200528269775212 
-3.272792136350367 
1.033868339574175 
-0.9340821879233066 
-0.1224200902948574 
-0.7293712640898314 
-0.1224200902948574 
-2.106356735138986 
-4.266856932349685 
-1.889870858187082 
-0.6750564725656373 
0.593955433731796 
-3.921654983501957 
1.77909516317362 
1.179364026229803 
1.93804699519473 
-1.245425119026259 
0.4664172166827691 
-1.142585187436513 
0.5274007297118749 
-2.336046053600674 
-1.994158616623398 
-0.9642589584713712 
-5.438771422076312 
-0.1387322071951499 
-1.911169065191885 
-3.239191742558519 
-3.177464893419122 
0.6098787928877581 
1.762400385046083 
-1.100975909884372 
0.05044447844155216 
-1.268711701959255 
-2.410463081681425 
-0.836608449616248 
-3.02080476937744 
-5.256438936766815 
-0.1774693372802077 
-0.1774693372802077 
0.4164458435810001 
-2.452563585467285 
2.065649964978824 
1.663024140199691 
2.196596297582421 
1.898795435872595 
-3.698543646408225 
3.230502482170602 
0.03527832570305155 
-2.506882829325094 
-0.6274822700262455 
-0.6912549516477665 
-0.6912549516477665 
-3.64800043805017 
0.5400416226169154 
-0.3636403874876882 
-0.2187024358949573 
-4.479451839234335 
-2.674509659052732 
-1.859360135243638 
-1.8705823383108 
0.943025534702531 
-0.2539764454422695 
-0.8861715444107729 
-0.803402259851558 
-5.314602033064831 
-3.490985636715414 
-1.904638542942036 
-0.5203234936844852 
-0.9140542132519807 
-2.049229086696599 
0.009596115075445926 
2.136920476234607 
-4.181646460775498 
-0.6322290233053727 
-5.463505102468996 
0.3000481470418753 
-1.669522098665058 
-0.5541249113297123 
-0.5453219275235104 
-2.457935830636626 
0.9124341301094718 
-1.976847955034353 
-0.4269966775760161 
-2.261007872191278 
1.595483449582333 
0.7231879685928755 
-0.4634202095700893 
0.5099985473542651 
-0.02254233945542049 
-0.5160900859661792 
-1.790583237817891 
1.412143894895794 
-1.018655381439636 
-1.167884217811325 
1.298825339774991 
-0.1791296349889934 
1.480568032359469 
-2.148916040361111 
-0.5327405291067125 
-5.451096917308741 
3.911815988159796 
0.7258496133302714 
-0.457867583844677 
1.22606368361498 
-0.5294823644300939 
1.115127921071638 
-0.6660399220999133 
1.703963426982671 
-2.46120602375908 
3.963692660014015 
-0.9030610891749714 
0.6400225315535313 
-2.665728974126393 
-2.151579680923293 
0.8072163409708016 
-0.3308529624714347 
-3.948848819592563 
0 
0 
-1.544241618327656 
-0.93226129069335 
2.188751598382756 
-0.6567467855602444 
-3.14162030484658 
1.004118366778082 
0.5179632139524084 
-0.8795458324791274 
1.781615634033948 
1.351021863185845 
-6.669087921312735 
-0.2465337290135479 
-0.2465337290135479 
-0.2200589849946594 
0.1394983316908371 
-0.2465337290135479 
0.4149754271198767 
-0.24963461987329 
2.453404931175752 
0.05998020150407294 
-1.770976409518078 
1.680730821717469 
-0.3504709407710813 
-0.7009418815421634 
0.8186510771619474 
4.946482274682729 
-0.9289809904698041 
-0.100616624271209 
-1.854769650283194 
-0.7002477214552849 
-0.8788399337888003 
-1.395125300255334 
-1.637119928939059 
-5.383008379578587 
-1.951185031465317 
0.2828172620615181 
-2.089125147913378 
0.226859159707814 
-0.6587246030505146 
-0.9035491707011616 
0 
-1.584969553789446 
-3.277090825065316 
-3.255308279346118 
-0.8131190061274943 
-2.58480677152169 
-5.116045225484173 
-2.87263190922926 
-1.990623412908556 
1.783762647162896 
-1.390178535708847 
-1.028788645551621 
-0.1753510868420008 
0.8210735097754105 
-1.752552564278483 
0.4598233064382688 
-2.042396217923615 
-0.6147418052306564 
2.423335162426552 
0.7483642680332045 
3.408606618849525 
-0.6147418052306564 
0.2827352752827139 
-1.049988802714774 
-0.03612405444569442 
-2.428652117325736 
0.2585306604093284 
0.9361540342027664 
-0.6359275972408318 
1.753704387050415 
-0.6147418052306564 
-3.266743526034493 
1.464534441699464 
-2.545503175282434 
-1.258244852861282 
-1.731458828342088 
-1.762997001699657 
0.2313314567042242 
-0.2388425197837713 
-4.901036795835143 
-1.034780741274049 
-1.322434723054746 
-0.6995555405766014 
0.6214791074573625 
-0.6995555405766014 
-1.436058360353476 
-2.021186290825208 
1.734723475976807e-17 
-3.27628817130751 
-2.454147056166252 
-2.919071706225176 
0.9109061710067989 
-3.445196604039091 
-2.739640062942991 
-0.058291961888157 
-1.011854768743974 
1.506179740220437 
-1.457304227399268 
-0.8860261517399857 
0.5444630947326475 
-1.739445553189257 
1.755121373786857 
-6.454260243291515 
-0.7195528996603873 
-1.782243748652443 
-2.419339710538231 
-0.4519689759487197 
-0.2507334068679079 
-1.202865851766143 
-0.1542571880179722 
-2.630470408100265 
-1.202865851766143 
-1.335365256822725 
-4.963849100566168 
0.6579017884043605 
-0.9272116692503904 
0.3577065675969942 
-0.4325795183996714 
1.382281792154716 
-0.9272116692503904 
0.6064585727396303 
-0.6230939986942173 
0.1447259675719396 
-3.002319259703392 
0.4002970643966786 
-0.3842827067586157 
-0.6411485756131965 
-0.2820130332217616 
1.318831092316779 
-0.6411485756131965 
1.664058638791734 
-0.8695166429275264 
-0.8916852846587637 
-0.9500062988041041 
-0.9520813134590714 
0.3192779140236235 
0.398695147004446 
-0.779647520963977 
-1.577148565470763 
-0.3926036117953175 
-2.601790854075839 
1.3133475299433 
-0.3926036117953175 
-2.472568087855402 
-3.257365504988801 
1.278325459563544 
-0.08406359107220537 
-0.3926036117953175 
-0.09913338976939706 
-0.09913338976939706 
-0.09913338976939706 
-0.5498869344861589 
-0.09913338976939706 
-0.09913338976939706 
-0.3623798829746578 
-0.09913338976939706 
-2.371673262651036 
-1.391273210933949 
-0.1816485715086027 
-1.651914996984198 
-0.45922382215035 
-0.9701575307169358 
-1.526243928468276 
-0.457470979049151 
-0.45922382215035 
-4.944505921738497 
-2.521716694293101 
-0.2291684779921331 
-0.5484567284244971 
-0.7862210592306612 
0.4661047702409875 
-0.8977631038447939 
0.8766148092468574 
-0.4456544581092303 
1.700650890190216 
-0.3089099527592828 
-1.170924659359683 
-0.219383120128484 
-2.337905027169297 
-2.667307237061392 
1.231326353540269 
-1.782510928347015 
2.069916303418516 
1.541446752607621 
-1.416897975983641 
-1.416897975983641 
8.23395152610488 
0.1564140416431532 
1.340659776907434 
0.4927975889068809 
-1.153833753699169 
-0.4057042184955221 
-1.409759467961294 
-0.2509679718298273 
0.8056945746336297 
-2.169088320294067 
-0.6175023977289129 
-0.4057042184955221 
0.009399454459609128 
0.0622296909032066 
-0.4057042184955221 
0.1611887806387555 
-0.4057042184955221 
1.106786350327681 
-0.4057042184955221 
0.164987710265033 
3.01379140806511 
-1.235662675285476 
-0.4057042184955221 
-0.6573699613720718 
-0.7690273937702827 
2.747247197009617 
-0.2832893311639641 
-0.7720742383155573 
-0.1700248454794813 
-0.4988248923536325 
-1.907522703690022 
-0.4988248923536325 
1.518468544903953 
-0.6805253610964046 
-0.652785335598621 
-0.3282491851899661 
-3.838919931773629 
-1.565159857100729 
-0.5570983650212883 
-3.522291954076178 
-0.06785396394939638 
-2.378002371533625 
-2.143990448149887 
1.568298050181514 
-0.3123103044066056 
-0.8662716715719121 
0.1475454891501408 
-0.06785396394939638 
-5.23303032557867 
0.7634700129482802 
0.2426437126735164 
-0.3467475117140494 
-1.259568366391046 
-0.3467475117140494 
-0.7674099924581685 
-0.3467475117140494 
-0.06830552988521862 
-0.3467475117140494 
0.4584219587077031 
3.859236168477916 
-0.2119591644865335 
-3.216990170389242 
-0.5401592301528134 
-4.397015263518405 
-1.131288675982556 
-0.937727080932075 
0.1115149344416411 
-1.423537309579344 
-0.5485078086969661 
-1.604789458329833 
1.335189954468007 
-2.589865945588536 
-1.017480390758853 
-1.06445655259412 
-0.9280539579233821 
-1.085312748005441 
-2.212066462881171 
-3.093189348025701 
-0.8450899061473606 
-1.079823496790252 
-0.4890447043429527 
3.138738584997944 
0.3251786278601905 
-3.994072588823133 
-1.029178815830643 
-4.100651253439788 
3.552980932896201 
-3.223588848311877 
-1.275767190879442 
-4.126093480022185 
-2.930180419385131 
1.122493028103152 
-0.9946936205061161 
-1.514154457212156 
-0.6185819644097387 
-0.2165678436858403 
-3.314035065542524 
0.2945915136843313 
-2.084313007509037 
1.304109185036105 
-0.9642925364667037 
-0.9619299876641344 
2.229556329816881 
-0.2280403087199269 
-0.7252977718888374 
-0.180674524891906 
-0.945448157278403 
-0.7252977718888374 
0.06344771686249984 
-1.617109705320344 
-0.7962644673815132 
-0.7252977718888374 
1.524356414027775 
1.573619364388401 
-1.37995274393743 
-1.202451100370779 
0.9271588540259768 
-1.814266982020542 
1.533617821453891 
-1.033469344456287 
-0.5840370620753854 
-0.5930503298775396 
-1.835574681751003 
-0.2870347476671073 
0.2629845638082243 
-0.4254580871605279 
0.1878099182754946 
0.6559877990381905 
0.1252275496165202 
-0.1421500544312646 
0.3222795017422275 
-0.8113853394613526 
3.49224814211056 
-2.211799864721624 
3.783353479364859 
-1.004955424388121 
-6.334365314090893 
-3.594084990148783 
-0.08258568589074175 
2.397356131459314 
-1.037668352337438 
-4.026966847878464 
-2.455427218447912 
-1.011294312301389 
-2.295996911753225 
0.07762966957435964 
-0.5986288506087345 
-1.098403896242737 
-4.47384843906506 
-2.106443242462467 
-2.527467563421774 
1.973209365706637 
0.765531830611127 
-1.014220086476572 
-0.6537826074250518 
0.03269054757137997 
-0.5264389315742043 
-0.6954067692664683 
-2.500046747760813 
-2.512400979160544 
-1.65670011115168 
-2.092532875890075 
-0.1367283160602739 
-0.6851736796485175 
1.978212930554761 
-4.12673112613605 
-1.687305955220096 
-0.636960224511417 
-1.019711024948817 
-0.07752085017764532 
-0.1367283160602739 
-0.1367283160602739 
-3.752357636698047 
-0.1367283160602739 
-0.1367283160602739 
1.826609879028366 
-0.1825264789854893 
6.459654944418753 
-0.2331230906701532 
-3.812227020984173 
-6.247615655426248 
1.01751643464888 
-1.991916113951266 
0.09711182915141474 
1.269239245998048 
-0.239139581430221 
0.3057596590122988 
-4.873775626212625 
0 
-0.9095577688778171 
-0.1553975029576141 
0.9841613359965814 
-2.867204202742426 
-1.609557868318993 
1.332831499593173 
1.616557772077378 
0.5247743663488174 
-2.625598232336477 
-1.820411741374439 
-0.5439049475057876 
0.7463594430981325 
0.3990372791308618 
-0.6012951943244598 
0.612113815074936 
-3.015266808238788 
1.631000437101916 
3.564192624385927 
-1.690509912524673 
-2.480318635359761 
-3.432330714521162 
0.3664970195055662 
-0.549636519628434 
-3.046159865447533 
0.2566555559132139 
-0.5299994809304258 
-0.5299994809304258 
-1.078148706316499 
-0.8062864982347354 
-1.329691077244216 
-0.5299994809304258 
-0.5299994809304258 
-0.8364616180556074 
2.653729749963999 
0.2388174459490435 
-0.3313172559332742 
0.09588443051099618 
-0.880414576093929 
-1.02371771625973 
-3.472919686644117 
-1.835305813619645 
-0.2496202789557304 
-0.3379176885281529 
2.932078944225289 
-0.5523826128545951 
0.538824485880616 
-4.544682058973932 
-0.1487460686848621 
-1.18254790928749 
-1.468117634229038 
0.5963977750830456 
-0.4597809342967647 
1.009006968776379 
-3.755028574097826 
-3.28247256859334 
-0.2140663550213605 
-1.904140884796512 
0.2797098461553822 
-4.427292272899265 
0 
-2.248575025491069 
-1.644851611061483 
1.312508593052191 
2.348727758368494 
1.592800906829838 
1.992730070321077 
-1.043508417816594 
-5.096225387884055 
-1.043508417816594 
-0.5145932682152424 
2.915689986807865 
-0.3595369078942044 
-0.3851835357312918 
-0.909697358397775 
-1.145606419318245 
-2.407639400504736 
-0.5254994787765668 
-5.192468187325389 
-1.960522966318399 
0.1106537566123897 
-1.63780463546661 
0.7075624182314492 
-0.4768876716351119 
-1.64658982654321 
2.038632503470285 
1.338485159936285 
2.76664951248336 
2.670606739501505 
2.069318133560613 
0.5671857912229989 
-0.7751602371385823 
-1.158927307027642 
-0.4942079516217022 
-0.9160888235899785 
-3.889717257860141 
-0.4942079516217022 
-0.4942079516217022 
1.932347192093451 
-2.562156053315415 
-0.4942079516217022 
0.2410137951347561 
-0.4411052137253869 
-1.163504843772428 
-1.586346793500576 
-1.314349172694706 
-0.396085780959206 
-1.715418883482456 
0.5519967140286033 
-0.1541813901135989 
-2.285956555614379 
-0.3189419944561088 
-0.7834000552857535 
2.307153140966743 
-0.7834000552857535 
-0.7834000552857535 
-0.6497421583313016 
-0.7834000552857535 
-0.7834000552857535 
-0.7834000552857535 
0.3292395802479405 
-0.7834000552857535 
2.811859616314441 
-0.7834000552857535 
-0.7834000552857535 
-0.6529682388453226 
-0.6529682388453226 
1.05568841725097 
1.283664465458079 
-0.7375984599068707 
-0.7375984599068707 
1.354763601794859 
0.2550940567316927 
1.786255146155064 
-1.885460770311578 
0.3491109406768515 
-2.302958127335461 
-1.247710138597948 
-2.495511237548623 
-1.304834811199114 
-2.449611750102299 
-0.9584439476628691 
1.632309676915098 
-0.9584439476628691 
-2.82149542877446 
0.3006097049579297 
-2.649746831172066 
2.488678046608158 
-6.00391643783549 
-0.47816051084447 
0.3085203447288579 
0.4720662939132699 
-1.696408835415726 
1.943371358239584 
1.185276545855993 
-3.946170693698641 
2.090150454350485 
-0.5329730048521619 
-0.6799502166833902 
-0.6201213501464685 
-0.4398842061884221 
-1.416666335993801 
0.6467052342378132 
2.880280256277565 
-1.914443206894618 
0.1878501955910261 
-1.403926823502407 
0.2556578838295927 
-2.187277782006336 
-1.270204310710043 
-0.4398842061884221 
-0.4398842061884221 
-2.015991138087906 
-1.080545445797578 
-1.816009943919103 
-1.781935250000305 
-0.04680452817308246 
-0.1686278916961156 
-0.6302734340652375 
2.606472703422978 
-0.1954563659436073 
-0.1954563659436073 
-1.443905444431834 
-5.565139480610369 
0.1278128318220323 
-1.444956641939741 
1.053146064335347 
2.789660238614239 
-2.292428974576085 
1.980711647442914 
-0.8282315449929362 
0.3524847682300082 
1.52214186870277 
-2.072154371269795 
-0.7021374558502127 
-0.2370334358898948 
5.843284483556395 
-0.8230754939405533 
-1.375054542535268 
-0.2370334358898948 
0.7015126901303431 
-0.2370334358898948 
-1.110656298964362 
0.0322629797093124 
0.1564051982904963 
-0.2756395764923749 
1.383086663357433 
2.011145707626894 
0.4924334116938856 
0.7551524023331747 
-0.5656464972632768 
-0.05984502216220152 
-4.440088152185216 
0.5783365605709075 
-0.5656464972632768 
-0.05410106708537289 
-1.105626058210516 
-2.259078335830893 
3.343456846081124 
-0.8535093136835574 
-0.7147926234685196 
-1.619124468383504 
0.532487576381406 
-3.249567574182611 
4.24832012146144 
-0.9667776183590536 
-2.325790593130942 
0.1524870207402876 
2.389284746795709 
-0.9438019895210391 
3.392836718545768 
-2.014503029202973 
-0.4016494888864394 
-0.4016494888864394 
-1.94446619833384 
-0.3961571278316214 
-1.252999199504124 
-0.08584103369037091 
-0.2061278535109586 
-0.2061278535109586 
-3.340688472454037 
0.06457575040870005 
1.221745089278997 
0.6192706175360018 
-1.378961016318261 
-0.6442109401628786 
0.4610278649111977 
1.572635932625215 
4.116660946808206 
0.3355719506463774 
-0.6695842340611087 
-0.6695842340611087 
-1.491227637401707 
-0.6475400786128346 
-0.6695842340611087 
-0.6695842340611087 
-0.6695842340611087 
0.8723643276110108 
-4.770957905685658 
3.04835937756302 
1.35328226804555 
-2.590716139845626 
-1.274812095600133 
-2.041094627605784 
-1.152940923648935 
-2.628915185865444 
-4.34301453338924 
-0.003167044026500557 
-3.025201786430458 
-0.04645419007795906 
-3.749841083987796 
-1.959940615130014 
-1.96134155253032 
0.725783913085293 
1.746983163006662 
-3.958148559189406 
1.323911901250419 
-3.831137125574958 
-1.71741740068642 
-0.4450232618407685 
-0.459785774083333 
-0.8058329909856333 
-0.6385746398985963 
1.519818042262641 
-3.278976161710776 
-0.4450232618407685 
-0.4450232618407685 
3.793843616623241 
-0.4836719792097948 
-0.05078197501819531 
-0.1250179655942696 
0.9837414352262188 
-0.9714324943899741 
-0.9760271552826524 
-0.6244610622391207 
-0.6273001163980479 
-0.5440049493884472 
-0.149333958768248 
-0.4625305603078058 
-0.149333958768248 
-0.149333958768248 
-2.334537821775255 
-0.149333958768248 
-0.6256793553647201 
-2.236225275466295 
0.152000473596051 
-0.5781602663337668 
-1.216841179069421 
-3.689297157734822 
0.7668066528013044 
-1.852483765143549 
-0.5825724726811875 
-3.803191057552984 
-0.3302555373582419 
0.5368105580044854 
0.2965321184366027 
0.2660561465004673 
-5.431180756206104 
-2.536382469376712 
0.2370575541923451 
0 
-0.4050791519302087 
-0.9626788511680846 
-3.074827245919583 
-2.474542480708145 
6.287929723325354 
-0.3386945139607925 
-2.66330258692057 
-3.212836328156016 
-0.8623526978720415 
-0.5897071257446723 
-0.7404577310291236 
-0.6638180110301635 
-2.609101980784204 
-3.604173157980301 
-0.6286787538619714 
-3.379981487953096 
-0.6286787538619714 
-0.2104463758521916 
-1.568630418847159 
-2.250274232219343 
0.1109143584170834 
-2.215233362080963 
-2.344592886582786 
-0.4856576781328089 
-4.636018135930219 
-0.4856576781328089 
-0.3835178911375889 
-1.568895550719292 
-1.057173604884315 
-6.835071386269669 
-1.444821283396035 
-0.7537234983735247 
1.384790482174678 
0.1287731412854821 
-0.001499209112442567 
-2.529386642743558 
-1.735042173183084 
-0.2915703070194723 
-1.548620057146038 
1.878810652239849 
-2.970194090762315 
-1.468609966892825 
0.1453305751266993 
-0.6686737842726329 
-1.345285601777536 
-2.350070214749886 
-3.209393370981623 
-4.697820691097676 
-1.321388402986973 
-0.538231036818409 
-0.538231036818409 
4.31848327779494 
0.9193980210837244 
-1.181273407389714 
-0.9061928470268874 
1.573158320583679 
-1.709127096866833 
2.266204008325225 
-2.922746919040739 
-2.58647023651698 
-2.146775550799702 
-1.75676027485393 
0.58743831249838 
-0.06838713775659125 
0.08923538770753156 
-0.7278787454360379 
-0.5571131481564701 
-0.7278787454360379 
-0.3911353160193352 
-0.03632486309702276 
-0.3911353160193352 
1.997342779345296 
-2.623615091318721 
-0.9869290001064772 
0.2405078206426944 
2.274618225095975 
-0.8524022541341508 
-0.5229724250712162 
-0.1735745054822675 
-0.8810046730918496 
2.580364465159838 
-1.464553482541066 
-1.502699349408723 
-0.1451694609242604 
-0.8409026144415214 
-1.58140548253882 
-0.1451694609242604 
-0.1925182707441195 
-3.43210210084403 
-0.1451694609242604 
-0.8507569327319191 
-2.613339032091847 
-1.86640619618874 
-0.7972372183965806 
-1.239680589752552 
-1.683972660894243 
-0.5151712754711484 
-0.4388135532562681 
3.421180260994185 
-0.3157700731040116 
-3.719708863464836 
-0.3225946534785264 
-1.708172551478488 
2.732765218606996 
1.624312932183965 
2.747424863276241 
-1.63122113415757 
-2.336907930830554 
-1.424291024603136 
-0.2106557586185514 
-4.639575618641862 
-3.347301148569081 
-0.5906533613055026 
-3.171134557542008 
-0.5472174984187751 
-3.812006979178466 
-1.419975121326458 
1.326403700374551 
-3.533004009765116 
-0.2106557586185514 
-1.040007230309567 
-0.544160103711695 
-0.4830124822360244 
-1.030524638488708 
-0.558275314337158 
3.375484927587719 
2.166457321675302 
2.057065539665733 
1.716678561675534 
-0.4179894826055649 
-4.223292079580926 
0.8002200514764504 
-1.813922668068648 
2.795710460207546 
-1.04969439479636 
-0.003925219477765698 
1.02869266727036 
-0.1662830003998431 
-1.194798708855189 
-0.1662830003998431 
-3.076798651486043 
-0.3403383124706509 
0.5391406398650522 
-0.1701691562353257 
-1.339011588436112 
-0.4963822448327112 
-2.921489916068846 
-0.4963822448327112 
-2.933448716914563 
-1.944145907377095 
-6.114763618389945 
-2.934486728396392 
-2.597575145652472 
-1.319589506621791 
4.281939523830267 
-0.3805976551281151 
-0.5291575402860019 
-2.955127918269393 
-0.05633391854314253 
-0.2975778431511638 
-0.05633391854314253 
-0.05633391854314253 
-0.05633391854314253 
-0.3911706385942114 
-2.502477439055829 
-1.654291079656923 
-1.654291079656923 
-2.003157145708034 
3.35669453659552 
2.265141402529838 
-0.3580821091009955 
-1.072109063753452 
-0.4893178343739387 
0.805759264476402 
0.1655838986852521 
-0.4893178343739387 
-0.4603764627866299 
-1.439558534289255 
-3.986496196262025 
-0.4893178343739387 
-0.2072290611763651 
-0.4893178343739387 
2.323096880326221 
-0.609105164062134 
3.164715011240738 
2.919658604685762 
-0.1095294824131319 
-0.4893178343739387 
2.966997378121995 
-0.4893178343739387 
1.177559388480531 
-0.3884606057108925 
-0.4480632086601536 
1.470042517824784 
1.290385172062263 
0.2805726031676255 
1.642261658528481 
-0.4480632086601536 
-1.540098633590553 
-0.4480632086601536 
1.467330703803554 
-1.891217096662452 
0.6842530825526902 
-0.4480632086601536 
-1.580997790675231 
-0.9568955180070838 
-3.856373681330325 
1.746342133422924 
-0.8962711582384589 
-3.175821037672391 
2.213617976993823 
-0.4962262330642427 
-0.4721614671112768 
-1.523150284521462 
0.4815416054605193 
-1.276096879740787 
-1.725224910454102 
-1.164238877257938 
-0.408034225791391 
-1.234335040891622 
-2.182899448854343 
2.640076007034301 
-1.148328302954089 
-1.555117968016925 
-1.148328302954089 
-0.7626038977378714 
-0.2513886494512345 
4.425223233868939 
-1.925631871823581 
-1.510117043405468 
-0.9462850203698159 
-2.465320049397373 
-0.02553858124285707 
0.4726104073650892 
3.605354218724433 
1.803443097240248 
-0.9173398627940603 
-3.055592699336702 
2.561246192162788 
-1.688814821584244 
-1.700477294597104 
-0.1068822056456243 
-0.5097428679861858 
-0.150092045621475 
-2.726092539679168 
-0.5322389118165612 
1.647584311798811 
2.138529834726756 
3.713167967255993 
1.001346092868409 
0.2334047019845481 
-0.2549079699045844 
-0.6302694840606055 
0.00859626404748709 
-1.178446425695132 
-2.90173730539687 
-0.1789213300352487 
-0.4490283927856373 
-1.006502656369056 
0.227902000302818 
1.003186132083933 
-1.069216982115291 
-2.741918316911533 
-0.4116698559973765 
-0.9939963898076876 
-0.5367363552819987 
1.82951838336824 
0.05224872560828963 
0.3035295365830254 
0.159753085281572 
-2.135312427931914 
-0.5855447137199096 
-0.8797980186749068 
-0.3032299643362849 
-0.9759256077871564 
-0.3829772526621555 
-0.3829772526621555 
-0.3829772526621555 
0.3930504406910281 
0.05007230500103553 
-0.1661321803403451 
-0.1661321803403451 
-0.1661321803403451 
-0.5153182587439105 
-0.1661321803403451 
-1.074503039657808 
-0.1661321803403451 
-0.2278757244630423 
-0.1661321803403451 
-0.1868707825065829 
-0.4216075560856948 
-0.1427213670147907 
-1.51937367693731 
4.613707359708992 
3.934507900425928 
-0.6910086598057735 
-1.833174563869316 
-0.2478240329660436 
-2.361553203261813 
-0.2478240329660436 
-2.16844096819119 
-1.826479943443827 
-2.578070509255479 
-1.251201302848486 
-0.3376579369092186 
-1.716090497672241 
0.6446815734158228 
1.417193459019468 
-0.5029915969966444 
-1.519764858754507 
-2.714554756177118 
1.439830502892396 
-1.396170711502331 
0.5050260619857468 
-0.1846749131164524 
-0.8306639210604393 
0.1413333470497667 
-0.329093807859017 
-0.6629996808828141 
-1.197868172174324 
2.226012194419786 
-1.219418982133248 
-1.530773325009152 
-0.7060174668024265 
-1.365659871697576 
-4.581824086519307 
4.063931805441482 
-1.199593827359066 
-1.394305026919241 
2.878359144442899 
-0.6662123896568805 
1.098706667751701 
-1.164766184164113 
-0.6583866011395545 
-0.5178641989455876 
-1.429370043073872 
-1.384314168633421 
-1.90484904480819 
-5.450162522820099 
-5.450162522820099 
-1.067456694759648 
0.03888919630075131 
-0.6069615504902224 
-3.67285821629127 
-1.414576902160116 
-1.788432070632931 
-3.874911231100232 
-0.1702693897917612 
-0.937906255143733 
-2.714334985925805 
-0.1702693897917612 
-2.401050732283622 
-1.29027443066727 
0.1230192404738132 
0.2416605472680058 
-1.156405271619253 
1.323425903538064 
-2.2897639012165 
0.5473559305153415 
-0.7494205248495114 
-1.104576908828264 
-1.457858257332821 
-0.7494205248495114 
-0.3532814914612463 
0.1089057984975738 
-0.9271204758623707 
-0.1473543375246843 
0.3736057751565282 
0.1851726339926495 
-0.3967174083509173 
-0.2424395750675465 
-0.8937038129030221 
0.1191291326904509 
-3.089493286819356 
-0.8937038129030221 
-0.474107222063723 
1.37750561067752 
2.149503704147155 
-2.115470187660773 
-4.243624765031593 
-4.993889680000497 
0.8950678592687225 
-0.03451527485637699 
3.75503838372444 
-1.261726179062654 
-0.21122915475808 
-0.21122915475808 
0.135550182100472 
0.3054347494836736 
-0.150061297411769 
-1.785924635618142 
1.135259929398494 
-2.525106672483605 
-1.045943293656527 
-0.1904393638662034 
-1.428645747658918 
-0.5247185212106864 
-0.763707851260728 
3.785699664784789 
-2.021443243792614 
-0.1422382697601634 
-0.003549381062434321 
1.797978485001756 
-0.1835078914810283 
-0.9739917200038566 
-0.381853925630364 
-4.788942623160661 
-2.122909375145193 
-0.03812586606241238 
-0.03812586606241238 
1.266418019603517 
-0.03812586606241238 
0.4667740076756405 
-4.260291275713732 
-0.3710481792608203 
-1.060777852055622 
0.5784460860997259 
-0.6071700588588972 
-0.9729534063658036 
-0.8275242738191944 
-0.8275242738191944 
-0.8275242738191944 
-0.4543805975350644 
-0.6776494209951514 
0.05224681562524198 
-0.5452586748639625 
-0.4238672856589195 
-0.5792222400910795 
0.6198748763822283 
-0.9394844292974828 
1.294917892753425 
1.493630821055299 
-0.3551563839787527 
-0.3551563839787527 
-2.246163898731332 
-0.0610134797527631 
-0.521052549409565 
-2.636017444021785 
-0.3551563839787527 
-0.8824672860875686 
0.5748264572164058 
-0.1890792592810097 
-0.1890792592810097 
-0.1890792592810097 
2.187269112866614 
-0.1890792592810097 
1.335364897626067 
0.4554631055794909 
-1.825512017159214 
1.999344843152575 
0.9104959953019572 
-0.3481972079073207 
0.2360696727969171 
-0.6514648775606152 
-1.188665801637279 
-0.3481972079073207 
2.480195092113178 
-0.2517164511870756 
-0.2517164511870756 
-0.2517164511870756 
-0.2517164511870756 
-2.638048901469271 
0.1151448949826077 
-0.912594444424475 
0.9336200911915823 
-0.912594444424475 
0.8857105261216434 
-2.270515361143821 
3.010076009691391 
-0.4493551602921693 
0.8124885289765983 
-1.950809746034407 
-0.0422869399889375 
-1.529344623029629 
-0.1012865877327014 
1.313006728857873 
1.36050497909454 
-0.8949813225580778 
-1.180565731300441 
-3.199265664895611 
0.1360604819404467 
-0.5109416988718432 
-0.1588666976945515 
-0.692776197509642 
-6.189178841301716 
-0.7628987301754739 
2.784259739132573 
-0.3704813412626797 
-2.27621644372227 
-0.8290700573383676 
-1.606651654172798 
1.161058023130551 
-0.6706653995459043 
-0.1624405198753513 
-2.327216870815629 
-1.540328822940763 
-0.8912747106457016 
-4.996351726877911 
-4.037041234824343 
-0.2495945081526622 
0.205382388033709 
-0.9461330288729561 
-3.945203994835024 
-0.2165466281988409 
-0.2078459713599955 
0.4262304480617575 
0.4948418107987154 
-1.679874111460112 
-0.6275490446512996 
1.089222284944711 
-0.5694043220869324 
-0.5242363900965098 
-0.5694043220869324 
1.74857115165488 
-0.5694043220869324 
2.602551996643012 
-1.875084550739299 
-0.7972908526228558 
-0.5694043220869324 
-0.5694043220869324 
0.862499103623809 
2.646749379682121 
-0.1516646854455078 
-2.008438273989595 
-0.5806995687958071 
1.869673749219007 
-1.232738641554189 
0.4589987286547105 
-0.8297257295562246 
-2.099803686541077 
2.135401540773823 
-3.409598681837237 
4.487648542056612 
0.6235000582324302 
-2.821417147873132 
-0.7904906224917203 
1.251477551499476 
1.149236709426902 
-0.2561160574044233 
-2.328893281457632 
0.06109916510116717 
1.877841832900387 
-1.956871693625091 
0.4593137139443945 
-0.399920186542933 
-0.004771269019427373 
0.9167759671610746 
-1.439783906372835 
-2.585907664361554 
-2.854353604846184 
-0.4353945217065486 
-2.056510520725073 
-0.6262901411585488 
-0.6262901411585488 
2.780735423889672 
0.4374627093027669 
-0.6403431537562871 
-0.7639229510119711 
-0.7639229510119711 
1.361259231399955 
3.287416919800625 
-1.145880432073242 
-4.805306196697066 
0.3056566881012119 
-0.7569904288897675 
-3.823305031597518 
-0.5425039639726804 
-3.302232495083202 
-0.5936704810450272 
-0.2962656260508409 
-0.5936704810450272 
-0.0969121752409882 
-1.512932571951372 
-0.5936704810450272 
-1.164712790692303 
0.8759851376815316 
-0.5830897992810512 
-0.5830897992810512 
1.80864528224562 
0.770803392052265 
-3.088180916279235 
-0.2878530157995515 
-0.2878530157995515 
-0.2878530157995515 
-0.2278461261545191 
-3.99884810713054 
-1.92901982895095 
-0.2878530157995515 
-0.3773693920337565 
-3.214710613737705 
-0.1442350145149993 
-2.596999026188225 
-1.393776848078802 
-1.315815857145808 
-2.630452896413296 
-4.66538249301766 
3.064901838167482 
0.5401355431379716 
4.249926419830188 
1.750201053883712 
-0.1102437550677635 
-0.1102437550677635 
-0.2204875101355271 
-0.1102437550677635 
-3.881916441498084 
0.7439463529472098 
-2.632366517842127 
-0.5950382796471079 
-0.5650636133647661 
1.591096465945525 
-1.336415101595747 
-1.411221722675009 
-2.038020738370161 
-1.861789020615448 
-0.09819705884010199 
-1.939476991834434 
-0.09819705884010199 
1.209119113767603 
1.687927406573404 
-4.296973377769358 
1.535097809306176 
-3.513006887051865 
0.9656694825544182 
-0.192214862931343 
0.8637377313325038 
2.731151026314877 
-0.7171230713124843 
-1.174680089135176 
0.7879550392321845 
-0.7671090495887077 
-1.051165792447394 
1.561225938023088 
-3.826356573031481 
-0.1592345430850691 
0.8223062612594725 
-1.579572735266163 
-0.3678423636113 
-0.201867009254874 
-2.501564088816777 
-4.350409140351366 
-1.2606136157697 
-3.057703048142367 
2.516004029237167 
0.1906200607805753 
-1.025825179032416 
-0.9517808956091603 
-4.633855865198957 
-0.4888166320743096 
-2.341859962848125 
-0.8414150844451539 
-6.60101646993249 
-2.149761750967928 
-2.297565796328176 
-3.16326403236497 
-1.921653470918855 
-0.5751387187245069 
-2.233117252145868 
-0.7478672776051992 
-0.9380080423927898 
-1.711954033027019 
-0.6618863513763669 
-0.5640472519334263 
1.483483621653928 
-0.02844727330617557 
-0.5640472519334263 
0 
0 
0 
-1.739378078890411 
-3.288384150625108 
0.4659292088580276 
-2.890235723819887 
-0.3501645686837537 
-0.3501645686837537 
0.03980860480077998 
-1.033558859114787 
2.425930901002257 
-0.3999229067501583 
1.417851594244502 
-1.522235413462189 
1.738364520287291 
-4.725540127358771 
-1.018314157730698 
2.544509907708413 
-4.818985945471644 
2.54068804739268 
-5.30208456390314 
-2.152126323804687 
0.5586193676081098 
-0.719043261311196 
-2.168843124757609 
-2.056776391741447 
-1.418680682879152 
-0.4039705197443039 
-2.672284043868141 
-1.168800317735124 
3.283806282951463 
-2.361572152552418 
0.4789557083765879 
-2.127468277291612 
-0.8537977720894874 
-0.9107974882135523 
-0.9693787070577878 
-0.2149944045900704 
-0.2149944045900704 
0.2704288831627044 
0.05249572291610313 
-0.2149944045900704 
0.6866244189554885 
-0.5620428241493139 
2.056951262643986 
0.9337208888894737 
-2.550006411101915 
3.645578999993166 
-0.6816298068417845 
-0.007787065737259517 
-5.166686344637071 
0.3127989665195387 
-0.007787065737259517 
-2.571315566463663 
-0.007787065737259517 
-2.742956444169874 
-0.2808204801922876 
-0.2808204801922876 
-0.9048463966474277 
-1.423696875643541 
-1.091563429802928 
-1.24039974527459 
-2.29068240923313 
-0.7160388615084119 
-0.04210169493119685 
-0.8387392749337566 
-1.936812163005411 
-0.02542002001436394 
-1.536669554619692 
-0.5521256196377352 
-2.769588909950123 
-0.6929311165292045 
-0.9808210110785259 
-0.1583190868463304 
0 
-0.4986339577064864 
0 
-3.02065953366973 
-3.155233370574174 
-1.654449485054345 
-1.654449485054345 
-1.395739396778003 
-3.324924908962358 
-2.425754939738924 
1.022633354871538 
-1.501380256861779 
-0.4663431036841093 
-0.6586429312735428 
-0.114846206990455 
-2.867197869960745 
-0.5827203128762818 
-0.08196546826875864 
-4.773656058093742 
-0.7042222765118354 
-0.7042222765118354 
1.920470277854643 
-1.010181160256049 
-1.010181160256049 
-1.010181160256049 
-2.429702257636444 
-3.984279263682708 
0.1090167488235785 
-0.2342918199073713 
-0.7891679732602601 
1.070310084018815 
0.2296738260806806 
-0.8732432620449772 
-7.350353025079841 
1.116396763047631 
-4.794374713935504 
-2.230249031716368 
-0.4645505713378441 
1.315385980030836 
-0.4645505713378441 
-0.4645505713378441 
-0.8264110487619555 
-0.7808291787761533 
-0.4645505713378441 
-0.4645505713378441 
6.480738100923544 
-1.953063627877968 
-2.81288761670737 
-0.2840650646269442 
-0.3885428823585063 
-0.2848295474693579 
0.1031631458118803 
2.162378352437717 
-0.3637447933078416 
-1.282389751883414 
-0.9577955910423008 
-0.3637447933078416 
1.117412054148717 
-2.703248942407031 
2.000771844052992 
-2.917001551716555 
-3.084318881687511 
1.071636418918001 
-0.06347689648287023 
0 
0 
0.4271959042539628 
-2.513162861229169 
-0.8829267619683074 
-0.4825008605478328 
-0.1115882681425623 
-3.545313478011903 
-3.545313478011903 
3.800304818558757 
-1.469931609626193 
-1.642505220397611 
0.7193029856238699 
-2.033362938136726 
-2.686119826864426 
-1.096722478359589 
-1.26447879303189 
-0.4785046893813158 
-0.4785046893813158 
0.2241284619120346 
-0.7251873739038597 
-2.385847295751192 
0.9168466227458988 
0.238292694747733 
-1.609151372189364 
-1.19045381036703 
-0.5339398426867943 
-2.657298774141743 
-4.058087528852173 
0.4640129046761658 
0.6193971821795239 
-0.4833530189990806 
-0.4833530189990806 
-1.231760233506881 
-1.326564784862115 
0.9596188772296049 
-0.2211359021049482 
-3.946286464641046 
-0.2617226416195753 
-4.538910125176606 
1.888087443124926 
-1.45144995309506 
-1.45144995309506 
-1.428339005886706 
1.24912442496168 
-0.1054948586061733 
-0.4515279123938137 
-0.4515279123938137 
-0.9154897390296246 
-1.245040752745829 
-3.660496134736293 
0.4439950497772959 
-1.656586848040744 
-1.660007128793773 
-3.350460047352256 
-1.682112329698529 
-3.141807419697035 
-0.3676991295068067 
-0.1894765058444318 
-0.8496968422512443 
-1.681307803726159 
1.196694621474381 
-0.6072777139822478 
-2.048812877458039 
0.7165290258665302 
0.7564959795609622 
-3.683458310870245 
-0.506396672031897 
-0.1543851791832961 
-4.825343045948739 
-0.1376476814657555 
-0.842429378033166 
0.2665008569067557 
-0.4331299871589281 
-0.1625742680654646 
-0.1625742680654646 
-0.3813925233053356 
-0.2420775652856857 
0.6793937729084347 
-2.081941368031036 
-0.1172926125106964 
-0.1172926125106964 
-0.1172926125106964 
-0.1172926125106964 
1.361264282908338 
-1.244393029194969 
-1.963884190631816 
-4.867360219397623 
-0.4022560019383675 
-1.367953149880373 
-1.191362352460655 
0.2005215658311834 
1.236358476207703 
0.06505717173579956 
-1.192209317556491 
-0.6137897930134255 
0 
-1.298309136958876 
-1.269558180454958 
-1.555414319069367 
-0.5012080977217777 
-0.3327655764705194 
0.7279422592405114 
-0.9862566004751653 
-2.815178271144574 
-1.86264240863244 
-2.495895732100033 
2.785908691432183 
-0.5149150080816299 
-0.5149150080816299 
-1.078747031117281 
-0.5149150080816299 
0.1755267014138523 
-0.5149150080816299 
-1.393894272348536 
-0.5149150080816299 
0.7215158078605891 
1.13446806151007 
-0.5149150080816299 
-1.087364144749977 
-0.5149150080816299 
-0.5295580038376539 
-1.07579008865398 
2.437184124677466 
-1.168231806460165 
-1.168231806460165 
-0.3484673058480567 
1.545515290557025 
-1.008730681662375 
-2.980805715903851 
0.3213141068000138 
-1.95300382676587 
-0.4144141276378692 
-0.3477013157078942 
-0.7594307711307327 
-0.5179293172022083 
-0.5179293172022083 
-0.5179293172022083 
-0.6608766295249259 
-3.762948186516119 
-0.2192892487214731 
0.04792409821893965 
1.290441418951786 
-0.6043097931373478 
-3.220942520776075 
0.349988193778523 
-1.455594605041374 
-1.921591304104893 
-0.3837983335612963 
-1.383976008868081 
-0.3837983335612963 
-2.080247607877421 
-0.3837983335612963 
2.191592220740583 
-0.3024155007858828 
-0.3024155007858828 
-0.3024155007858828 
-1.572700205021525 
0.7486543594056527 
-0.2987100815870474 
-1.446472555008991 
-0.3024155007858828 
0.7544232517323733 
2.294568301160177 
-1.388112339856201 
-0.5967414414834402 
-0.5072862034421993 
0 
-1.44867129573429 
0.5092055344966019 
-0.9086903747748668 
-0.8188833481534163 
-2.026292168848487 
-0.2916754269276551 
-7.149760533877725 
0.06911417279973822 
-2.148874210512061 
0.9438014401858666 
-0.1140427316532495 
-1.96855684291596 
-2.568974036800328 
-2.168885894490077 
-2.712348950597486 
-3.206414423580907 
-1.996150489898493 
-2.35343090781294 
2.391741201163441 
4.61963691759856 
1.173933900945988 
-1.94017450466587 
-0.2858163490403436 
0.3723945952710827 
-0.2858163490403436 
-0.695519633766555 
-0.695519633766555 
-0.695519633766555 
-0.04583882724374312 
-2.00011164619416 
-0.3914807905358368 
-0.5438735128611575 
-2.197711119476522 
-0.2569830501278128 
-2.461673490922965 
-0.9036820410969401 
-0.07327999432418264 
-0.3599572321945694 
-0.8812588219339756 
1.822516551199255 
-0.08162949552338493 
3.800852915303842 
-0.305194544029145 
-0.1995709592748539 
-0.1995709592748539 
-0.3689079650982019 
0.9607556328360287 
1.944539165502301 
-0.3689079650982019 
-0.3689079650982019 
3.186623303667714 
-1.703407898844299 
-1.212844291639439 
-0.8786472416628909 
-0.8786472416628909 
2.279498149198226 
-0.1956121869795008 
3.806340651708116 
3.383466387107176 
-2.641820631606673 
0.5137031358455256 
0.2296737539008099 
-1.196805388340312 
-0.7168471344722833 
-0.7168471344722833 
-0.7168471344722833 
-0.7168471344722833 
-0.7168471344722833 
1.800236112887675 
-0.7168471344722833 
-0.7168471344722833 
-1.569505652239801 
-0.7168471344722833 
0.1613292897894554 
1.66465520585323 
-0.4476129434215886 
-0.4805728340178423 
-4.493748663228219 
-0.3243125858300646 
-1.918624450759648 
0.4631761304099305 
0.8530546298487532 
-2.003000848053656 
3.407154599569792 
-0.2587585363671094 
3.867330349968109 
0.3147875570947029 
0.3646804628278277 
1.878329188678278 
-0.6121289703968211 
-0.218484714698435 
-0.9455012978934656 
-0.3480145654975241 
-0.3780862906267534 
-1.777044632310245 
-0.7066248987131128 
2.214874233979313 
-0.53207243325037 
-0.7972988217289398 
1.013446793446611 
-0.3875471030223721 
-1.673468210183802 
2.560804908061505 
-0.1168220487871254 
-0.3622611910512757 
-0.06767999001629676 
0.9691602400535999 
-0.06767999001629676 
0.02792222906100178 
-2.041353457395054 
0.486391810542635 
-0.417470450618913 
1.663087536135707 
-0.3007723095459542 
-0.417470450618913 
-0.8355048431221864 
-0.417470450618913 
-0.8247967897728249 
1.494853837160808 
-0.3034793474006001 
1.224012588593396 
5.697589193533172 
1.039535175377655 
-0.7789827449263597 
2.008539169545045 
2.544395347231672 
0.6313384161416523 
-1.965110436435614 
0.8070307224469532 
-0.6484516377123121 
1.359026982884415 
-3.919118945467539 
0.05224023882608527 
-2.06073029770485 
0.3144879825706942 
0.2706289261820432 
-0.2748074910680968 
0.4733023522128191 
-0.5415247822725566 
-0.8164261740476142 
-1.683082871859994 
-0.02500852770465169 
0.3638741256236456 
-0.5415247822725566 
-0.1117077746996041 
0.04072636410229218 
0 
-0.6084953364591056 
-0.2892394511398602 
-2.318525621524714 
-0.6542174946881664 
-0.6514422174793963 
-1.086126229323066 
-0.6514422174793963 
-1.599485793831575 
-4.317762785283924 
0.935930286171194 
1.781958004080323 
0.2129206363690262 
-1.06637495520291 
-0.02335628693183289 
-0.04593906223926258 
-0.6863464545565512 
-1.707968513870991 
-1.707968513870991 
-0.4232836044243536 
0.9776166273840772 
-0.3716228065561435 
0.9522705330194497 
-1.578276699454208 
1.90257501033056 
-0.8429470664723642 
-0.192481323956952 
-0.192481323956952 
-0.192481323956952 
-0.192481323956952 
-0.192481323956952 
-0.3112042350712875 
-0.2465116287479364 
-1.321360274908139 
0.02716251258039464 
-1.294608205815171 
1.070113317153398 
-0.2433845881137673 
-0.2433845881137673 
-0.03388244983445905 
0.1108271104061556 
0.5272756300531547 
0.6565360927722481 
-0.3630643055183981 
-0.3630643055183981 
-0.9337928066087506 
-1.008714432769495 
-2.422606247100834 
-2.614381524071192 
-0.01526866812661246 
0 
-1.313240301849748 
-0.430386880036645 
1.095548173592608 
-2.518190320869454 
-0.430386880036645 
-2.067647881095675 
2.242622393419148 
1.038327364804495 
-0.3543626860815761 
-0.9924467875947035 
2.375417235651315 
-2.627899328788995 
-0.2991159303118198 
-2.537113834297314 
0.04471481301326496 
6.517692304093949 
-0.7936839603101921 
-0.3466157933940286 
-1.936040621359049 
0.6237004602688611 
-0.2938198137603936 
-0.2938198137603936 
-0.2938198137603936 
-0.2938198137603936 
-1.123225809731491 
0.7749126212549285 
-0.4848988654397557 
-1.765211412034118 
-1.300558058002567 
-1.331478266809461 
4.136333905692825 
-2.229076358288786 
-0.8361380168551118 
0.08373699389913193 
-2.554653891404959 
0.1915291364800622 
-1.707105436111776 
0.05979487735100891 
0.1139350382941653 
-0.2522155900873549 
-0.2522155900873549 
-8.429389646438496 
3.246966683657882 
-0.001176999708847504 
0.3004528269959233 
0.3849504927512505 
-0.3524336567902984 
-0.9313094176533734 
-0.3524336567902984 
-3.209103870312105 
-4.926970354817626 
1.35946583745634 
-1.014124679766646 
1.733114035877506 
-2.733620580713955 
0.05136450716805718 
0.1074321478127557 
-0.7919440751719982 
-0.7425892164044111 
0.02939410283326978 
1.046478694697008 
1.450680674556323 
-0.3667308025109128 
-0.3667308025109128 
-0.3224605145012909 
-0.3156028338672014 
0 
0 
0.5699568975026043 
-1.487387773556983 
13.25963688086987 
-2.102311800700511 
0.381503447223998 
-0.7105564173543996 
-0.2721903545878914 
0.441365650658285 
-1.296232925018768 
-1.296232925018768 
0.7740755534249977 
-0.4975977194184995 
-1.502272759509759 
-1.222642089603014 
-0.9793296867283761 
-0.3922180564975962 
-0.5991696897335714 
-0.1367908432223851 
-0.1367908432223851 
-1.401302149017277 
-0.3092727798911537 
-0.09318919071594266 
-3.876476903671695 
-0.4793862410869495 
0.6513086393585424 
-0.3009710129160253 
0.6248555910977031 
-1.763543540837787 
-0.149612070610131 
-0.149612070610131 
-0.6034606277668921 
-1.501025453188715 
0.9056915801779324 
-3.353672788922755 
0.6270313258061183 
-1.189298861553988 
-0.4754505794943842 
-1.655053667158102 
-1.655053667158102 
-0.1718705894248218 
-0.1750149702784955 
0.7674383912906927 
-1.72120580379366 
-1.925997170541521 
-1.157493789476004 
4.536867289963694 
-1.583612077503603 
-1.405408730795285 
-0.8986996503967704 
0.1523282842931057 
-0.8490058912129058 
0.04290573321307218 
-0.8490058912129058 
2.713184920857955 
-0.2090455098438749 
0.1964258324248274 
0.6162300313825071 
-0.4721907358862639 
-0.4721907358862639 
-0.4721907358862639 
-0.4721907358862639 
-0.4721907358862639 
1.064354937586528 
-1.127737939278633 
0.5972968985209817 
2.092016688630382 
-0.6228805507443431 
-0.1805217824335588 
0.7428984189989158 
-0.1805217824335588 
-3.868598894668992 
-2.514938287740693 
-3.469446951953614e-18 
-4.079297670380983 
-0.1985731190102896 
0.5419655325532987 
-0.1571617891796036 
-1.794681724394274 
-3.743175922512712 
-2.072688183805025 
-0.3530189430348658 
0.4502851577201605 
-1.460122256818388 
-0.3366175293508946 
-0.3327819675092574 
0.4083368893344874 
-0.3378786453475351 
-0.3378786453475351 
0.5839837228848156 
-0.3378786453475351 
-0.3378786453475351 
-1.482987959608367 
-0.3416817616490323 
0.5555038677631557 
-0.7916061616126703 
-0.9432215719180098 
0.1037784915441924 
-1.525072417933544 
0.4628636273604242 
-5.507286864572283 
-3.041001427824035 
-0.3098120457704993 
1.493618017296634 
-0.7479390540838133 
-1.904778200006817 
-0.4266859443575466 
-1.731159168924897 
0.2798598097091083 
-0.4119559181953416 
-1.035986623562086 
3.791579028090145 
-3.9355783563774 
-0.2338690978503951 
-0.06573267344946314 
-0.2396773779531528 
-0.0352529702576635 
-0.4504258764584234 
-4.254238055150272 
-0.8219747116827636 
0.2364865849954938 
-0.1682744676377704 
-1.94217236614255 
-0.1682744676377704 
-1.044403242156999 
-0.1798866134147084 
-1.526308940501443 
-0.238859736438455 
-1.857620547551159 
0.07744662943984766 
-4.973697198116518 
-0.326233690270923 
-0.3772034760443438 
-0.5768146324094185 
-1.041555489343299 
-0.1349321775806183 
-0.4029624130749017 
-2.232456166697279 
3.669868918815264 
-0.08223224216428029 
-0.499784831820229 
-0.529524563236253 
-0.3783201467722463 
1.900250405168353 
-2.659851644835977 
-2.864153906077251 
-1.863161762099871 
-0.6127240441318924 
0.03153149150601149 
-0.3475242276575172 
-0.3475242276575172 
1.969898658531125 
-0.3582274655447707 
1.662041028542979 
-0.3242546783078792 
0.819395749647342 
-0.6326124481686135 
1.18932740835992 
0.5007540718018245 
0.3649444998426962 
-0.474689906204438 
-0.6488049325353825 
-0.6488049325353825 
-0.6488049325353825 
1.169528624847245 
-0.6432022072186649 
-1.000825305369361 
-0.3633483255825115 
-0.6488049325353825 
-3.082841726684752 
1.731227416684925 
-1.794843594580726 
1.903082461223192 
-0.6309219798046322 
-0.2757991313470973 
1.312575526182084 
-0.3479594891994748 
-0.6334987672905634 
-1.621265937358459 
-0.292777566009588 
3.272738041535951 
-0.4967659261433903 
-1.925451495827956 
-0.1490033614201723 
-0.7045177082719281 
-1.316429637595785 
1.100515618833071 
0.06825804630228118 
-1.044643523107775 
-0.7905745407947827 
0.06192049943712463 
0.1617950836781047 
-0.3389258132080548 
0.5016567253673131 
1.160215377358221 
-2.074289044563622 
-2.580618489945929 
4.954670144419172 
2.447082802047088 
-0.4582346525883722 
-1.030198732747 
2.783108385709205 
-0.9142736830584035 
-3.027441933984013 
0.3943578939472331 
1.34290667325623 
-0.05352658484438974 
-2.592079252526149 
-0.881054595044916 
1.794455029555886 
-0.7354711738098827 
-0.6608625562874996 
2.925846105530535 
0.9548178795336203 
-0.4836372126880563 
-1.610412743809423 
-0.9431681655740737 
-3.674364118932991 
1.439243580370818 
-1.643838078637474 
0.5310380800254515 
-3.2747201824224 
0.07957023610591632 
1.629999702947649 
-1.744807018078127 
-1.16404228208794 
0.4467573185382697 
2.33635556912008 
-0.58202114104397 
-0.58202114104397 
-0.58202114104397 
-0.58202114104397 
-0.58202114104397 
-0.7085347299847823 
-0.3686548408837225 
-0.7085347299847823 
-0.5818173777393281 
1.973571590086143 
-0.7085347299847823 
-0.5779456891033421 
3.365443861577885 
-1.679548691615678 
-0.3677812551891387 
-1.496362061149111 
0.7787837559353107 
-1.263436942227671 
-1.025675630914704 
1.261474987585416 
-0.8462125471994378 
-1.747614753764261 
-0.7792807319907472 
-2.5350848241741 
-2.478517061504447 
-0.2431349875419064 
-0.9383171329636754 
-0.1671245362564913 
-0.1671245362564913 
-0.1671245362564913 
-0.8316625695486162 
0 
-1.690785909775902 
0.1511119078777649 
-0.2363175344609819 
0 
-1.433261175708159 
-0.2327490119147216 
-0.2327490119147216 
-2.797479578809183 
0.6533296570870745 
0.01497449959807498 
-0.6473807276394853 
-0.4953876707155589 
-1.174135265184164 
-1.418371580100282 
-2.32476540054249 
-2.013985590522644 
-0.4699738786294504 
-1.726661539582135 
-0.2212874534261597 
-0.2212874534261597 
-0.2212874534261597 
-1.784762821870102 
1.003122226053315 
-0.7614040615394921 
-1.072934797119665 
-0.2874750844447844 
-0.2874750844447844 
0.3924369749019729 
-0.4576637810061277 
-2.218311790502117 
0.7998844532648753 
-0.2874750844447844 
-1.009511128268382 
2.292773308616181 
-3.071446260450654 
-0.2465043211820925 
-3.169297798107446 
-2.797030578602952 
0 
-0.2527682071886801 
-0.2527682071886801 
-0.9822295819559742 
-0.02788571034087351 
-0.2527682071886801 
1.050394791319998 
-0.1237004352186172 
-0.1237004352186172 
-1.630101177541294 
-1.411600483171918 
-1.022550509358136 
0.01205569087680529 
-0.2632478079208337 
0.3876865994926437 
-0.4487449141482109 
0.540288576322443 
0.9489565128953925 
-0.09595526756024883 
1.415863734167338 
-0.8604806290633072 
0.3302873584826619 
0.4332049321598749 
-0.1443851914926599 
-0.1443851914926599 
-1.464934252806129 
0.9054273851758331 
-2.258433720576408 
-1.647846938130308 
-0.199282948991853 
-1.568041749233485 
-1.971267010847059 
-0.199282948991853 
-3.823507475700855 
-0.1992829489918531 
1.412715535985234 
-0.8482198431952211 
-0.8088062998905368 
0.5592002553441995 
0.2966954625513127 
0.2095353920489706 
-1.546655276109509 
-0.4241099215976106 
-0.4241099215976106 
-0.4241099215976106 
-0.4241099215976106 
0.1971320672464824 
2.170344553417757 
-0.5205877375876304 
-1.706450284004243 
-0.03783459200687293 
-0.5205877375876304 
1.087141909114339 
-2.772486773361582 
-2.500071877226674 
-0.7149154783840249 
-0.6145084302198713 
-0.285168277567221 
-1.384927127419325 
-0.6145084302198713 
0.8448908996940799 
0.710688828272545 
-0.9975967741420468 
-0.6145084302198713 
-0.6145084302198713 
-0.6145084302198713 
-1.971683160958427 
1.194465951028289 
-2.201052928958289 
1.489882481659526 
0.9238819879948552 
-3.966441551355599 
-2.131935335945215 
-0.08435430359126077 
1.789773940311225 
-0.8832630129870028 
-0.8832630129870028 
-0.8832630129870028 
-0.8832630129870028 
-1.274923640866199 
-1.146645455642846 
-0.6067270300011514 
3.069387535767789 
2.47528895557481 
1.032089912387658 
-1.529214001108029 
-0.3722050727694096 
-0.3722050727694096 
-0.3722050727694096 
-0.3722050727694096 
0.8375097763839527 
-0.3722050727694096 
-1.404868272285718 
-0.3722050727694096 
-0.5169590973156116 
-0.6746344905672568 
-0.3373172452836288 
-0.3373172452836288 
1.614750742512103 
0.9088115582709484 
-2.535574442099226 
1.53631424837067 
-3.314751958125158 
-1.127947647989191 
2.337624249621623 
-1.127947647989191 
-2.635540008793192 
-0.5427706891509188 
-0.5427706891509188 
-1.377546641678999 
1.317818074561543 
-0.3078886311028213 
-0.3078886311028213 
-0.3078886311028213 
-0.4143164012240131 
-0.3078886311028213 
-0.3078886311028213 
1.022307687717413 
1.375518643873611 
-1.748950243824981 
2.719030686841143 
-2.17204120447373 
-0.2051303703438576 
-0.5322774974236895 
-0.5322774974236895 
1.506955522530607 
-0.5737873139444426 
-0.5322774974236895 
0.3847212087080559 
0.3880023094379277 
-2.158628415987255 
-0.4427861092455402 
-0.9713136021962162 
-1.545889326322453 
-3.675552413818973 
0 
-0.1777631626239686 
0.6192989671585736 
-0.7661715735280547 
-0.467668550158581 
-0.5687136543552477 
-2.221683947734125 
-0.4987670007579831 
1.133621464918483 
0.6771693891151449 
-0.4209632123549149 
0.3499700304674554 
-0.3646455269967985 
-0.1272632013529736 
1.255639076564131 
3.227195041233066 
-0.3135372456737759 
0.3052942538356146 
-0.557396733641439 
-0.2085262235226144 
-0.9858480635640381 
0.09207064349480068 
-2.042425219475048 
-0.7240741351082973 
-0.4946482486925721 
-0.5802442259016278 
0.3395722926170062 
-2.24886222291649 
-0.4946482486925721 
-0.9177755245343897 
-0.3393683161737022 
-0.3393683161737022 
-0.3393683161737022 
-1.344931743563115 
0.2338123139155901 
0.3970479642527811 
-2.773044737247462 
-1.099979839453802 
-3.794335900831715 
7.465589697662885 
-2.0622077003744 
-0.4677936044025693 
0.7385726124865692 
-1.695306665084632 
-0.4677936044025693 
-1.62298585889351 
-3.008048695735367 
-1.895214403144353 
-0.2788729225285415 
-0.4598263167353041 
1.295713791011224 
0.7202980140253675 
-0.322779444343963 
-2.836644512484951 
-2.123496888666832 
-0.4226993693077754 
-1.643749887852694 
-0.9927994247550523 
-0.4255225794958973 
-0.4255225794958973 
-0.4125113732826178 
-0.5292524836982681 
-0.4125113732826178 
-0.6609037836787338 
-0.4125113732826178 
-0.4125113732826178 
-0.4125113732826178 
-0.01410725585136088 
-0.01410725585136088 
-0.3398700811750265 
0.9046360948294889 
-0.01410725585136088 
-0.2198257976496821 
-0.7100747919402495 
-0.4870754602731479 
-0.03139076177550101 
2.360120156844259 
-0.672145576199533 
1.133683829301286 
-2.82023420122242 
-1.370205412258045 
-0.09269887622376957 
-2.104636578290027 
-3.08075728428385 
-1.893220266763954 
-1.390249252583986 
-0.9576572550705102 
-1.431300210611169 
-0.3859660433786709 
0.2434343602949048 
-0.5960642343346424 
0.3740172103393627 
-0.5960642343346424 
-0.8075324722581182 
1.221872477674361 
-0.5960642343346424 
3.530440160767562 
-0.5960642343346424 
-1.810224299052141 
-0.371722773631492 
-0.371722773631492 
-0.371722773631492 
-0.371722773631492 
-0.371722773631492 
-2.68628849201858 
-0.5819825140391891 
-0.6682458164096409 
1.18799949994879 
-0.6247872780200717 
5.017897199322048 
1.225180077135944 
-0.4504311406197437 
2.312560498335241 
-2.853376689960911 
-2.059543930583321 
-1.626843203039713 
0.6625294057568182 
-2.536101457304326 
-0.2321973202641601 
-1.397246329955165 
0.02340874000314173 
-0.2321973202641601 
-0.408449910162008 
0.06178585198176154 
-0.04816965926113165 
0.3957046214949664 
0.1158900963897215 
-1.309143630312884 
-2.435605795030686 
0.628007485168206 
-0.1838385521490708 
-1.57526316180877 
0.4745356515998937 
1.521407746060145 
-0.3105772030241074 
-2.200208940880249 
-1.06008546281634 
1.596768598486335 
-0.08463022106154823 
-0.08463022106154823 
-1.61412635597095 
-0.7066950570893591 
-3.940576096367153 
-0.4983503215651863 
0.783376404130209 
1.842359009516331 
-0.4983503215651863 
-0.4983503215651863 
3.474535419545188 
1.648386885473401 
1.762284942457149 
-0.4983503215651863 
-0.4983503215651863 
-0.9460425526756594 
0.5804218946125508 
0.2767380227274228 
-0.5370574577440634 
-0.7238709551578578 
-0.4851717258886983 
0.5671134374446719 
2.766209714557899 
0.3130108179086432 
-1.436381626420571 
1.90659022927472 
-2.8700338299624 
-0.4058096470000256 
1.546537289525034 
-0.4058096470000256 
-0.08608586144309587 
0.59113591524986 
-0.537943005150861 
-0.537943005150861 
-0.537943005150861 
-3.10894412242343 
0 
0 
0 
-1.398019339012925 
-0.6370045118615653 
-1.960180458827826 
-0.02983108828065247 
-0.8686761572517273 
-3.421910887698113 
-2.030591636162769 
0.07939824472906655 
-3.032255566121721 
-0.8766213016143728 
-2.271515445978195 
2.026803707847032 
-0.3869744318280807 
-2.310749098026661 
-0.3869744318280807 
1.136791037036292 
-0.3270157115691812 
-0.7039520121070365 
-0.06678571452676241 
-0.06678571452676241 
-0.06678571452676241 
-0.06852063181380759 
0.2178514067357605 
0.3570795570446964 
1.441957781002657 
-0.9165970589627648 
-0.1893683263844315 
-0.4089419071072932 
-0.4089419071072932 
-0.4089419071072932 
0.1767994782845075 
-0.4089419071072932 
-0.8135515606988878 
-1.13630078483406 
0.5424696226814988 
-0.1997488513287373 
-0.5918676821281805 
-2.942521903900687 
-0.1997488513287373 
-0.6308378829714972 
-0.6308378829714972 
0.7225063734369565 
-2.205056028863602 
-0.6308378829714972 
1.000358207637474 
0 
-0.264457391464906 
-2.380179405346313 
0.0677594809641256 
-1.988268855526099 
-0.5632320896056283 
-1.146818549206422 
-0.5632320896056282 
0.1146787106270078 
-0.5632320896056283 
-0.5632320896056283 
6.052149009354889 
-0.5632320896056283 
-0.5632320896056283 
-0.4780943802672299 
-1.01009731475786 
-0.4925009625011725 
-0.4925009625011725 
-0.7602309080457098 
-1.271787372011482 
0.2580994830034668 
-0.7602309080457098 
-2.075594951925823 
2.125462896022169 
-0.5468907217697168 
-1.312810399951626 
-1.462864913261951 
0.2775928956653447 
-1.038466802207234 
-0.1650985405052724 
-0.8572072615484939 
-0.3520018406271327 
-1.312469651954537 
-0.9309739895557948 
-0.2100465392786514 
0.81759022635342 
-2.051552258988763 
-3.448811176433176 
-1.053592829603304 
1.509770672020595 
-1.969145908106024 
0.3418063421730451 
2.95005973853256 
-1.920176031521768 
-0.07940666304206627 
-0.07940666304206627 
0.1700552385391048 
-0.1995248458456082 
-0.08763871110387292 
-1.992039961489737 
-0.08763871110387292 
-2.46357666191424 
1.214917259057857 
-1.166943979947819 
-0.6990650071454542 
-0.2940785252609755 
-0.2271506225260818 
-2.580146436013465 
-0.2046738876405261 
0.2925370659633929 
-0.5132029678791467 
-0.3228925881381618 
2.79864104460202 
-1.32735732254684 
-0.8753267351501582 
-0.7234803690274896 
-6.091151436672225 
-1.939284749847668 
-1.939284749847668 
-2.715870602503858 
0.9482155466310641 
0 
0.6355451021721563 
-0.110598974158295 
1.75164113146525 
-0.7155349607051862 
0.4415156722962807 
-0.5800676250660306 
-0.3169163381319972 
-0.05259997673014532 
-1.025863883042875 
-1.025863883042875 
-1.025863883042875 
-1.025863883042875 
-1.025863883042875 
10.95310415296813 
9.126045059090991 
0.1346698120893692 
-1.025863883042875 
-0.3445767753447607 
-0.3445767753447607 
-0.02653016336679017 
-1.447185233798038 
-0.3445767753447607 
-1.840717216291156 
-0.1452058932567528 
-2.409607628207392 
-0.1452058932567528 
-0.1452058932567528 
-1.10384621904356 
-1.10384621904356 
-3.626265030553853 
5.308840807794453 
-0.4623773538838045 
-0.8793573904444975 
0.2031332070874981 
0.9872323626959 
-0.3413995396857917 
-0.3413995396857917 
1.421443241638022 
-0.3747649206382524 
-0.3747649206382524 
0.2304886621415333 
-4.596172014276728 
-1.966960605929816 
1.739362510943935 
-0.993577599369958 
-4.101945973699745 
2.559057083071159 
-1.15990631052304 
2.819784640337978 
-1.349090262302449 
-0.6022693245873458 
0.9151763948028163 
3.610108175591924 
0.8095252983560398 
-1.170316152894281 
0.08441175991639921 
-0.8543951810706603 
-0.7710660085503386 
-3.140360777578027 
0 
0.4507657273525704 
-0.2876074841149117 
-0.08969118062890344 
-0.08969118062890344 
1.953131528309969 
-0.08969118062890344 
-0.9818884527008586 
0.9825398833651099 
0.3301538873827145 
-0.7609996037909006 
-0.4313282259025093 
-0.006681923775428592 
-0.7609996037909006 
-1.199501059381256 
-2.346888624199938 
-2.116598153491123 
-0.3641879414723577 
0.9999832190809244 
0.758685223066592 
-0.4532600493125871 
-0.4532600493125871 
-1.726062579623602 
-0.09793236333723369 
-0.01650809455580161 
-1.029350508167388 
0.1269868247779759 
0.9271345729626702 
-0.2662528697975795 
-0.5548738539076989 
-1.828256328653247 
-1.345043414755761 
2.477210931289431 
-0.5548738539076989 
-0.5548738539076989 
1.471348066863085 
-0.5548738539076989 
0.5119466738106249 
-1.33886722997523 
-0.815522593797807 
-2.637706441126643 
-0.6206917115888778 
-0.02994936308620306 
-1.102219712742219 
-0.4986845106421076 
-0.1598969102672981 
-1.589517359906202 
0.02268753795124842 
-0.3094742446315883 
-1.159465379006337 
-0.3094742446315883 
-0.3094742446315883 
-0.3094742446315883 
-1.140051735484948 
-0.185363755715216 
2.202336503908747 
0.06646060215333612 
-1.313956913780353 
-0.9568404128551494 
1.743580674056656 
3.688279975929234 
-1.350432010397984 
-0.2432047362010261 
-4.160638549648612 
-1.920842176942427 
-0.2169828838910579 
-0.3508796931391859 
-0.147530431558125 
-2.228474384868882 
-0.350879693139186 
-1.218377852804311 
3.693164533464655 
1.6111971805884 
-0.3144040704912713 
-1.734723475976807e-18 
-1.13064948523024 
-0.9298639605616407 
-1.838936016294283 
-0.5783529788235541 
-0.9298639605616407 
-6.059918016669083 
-0.4932613228394639 
0.8397962395263991 
-0.4932613228394639 
-0.2142340526351912 
-0.4932613228394639 
-0.4932613228394639 
0.1990433922180621 
2.073595563192753 
-1.044446533505026 
3.758789950458538 
2.068898144912112 
-2.402738063013901 
-0.2124841305105671 
-0.7488149456054485 
-1.057125144984638 
0.7445628729025161 
-0.5786191939003509 
-0.2280432537668156 
1.156065126000588 
-1.081956259396982 
0.3246041467306587 
-1.12394107115 
-1.051977027929911 
-0.3797780182918813 
-0.694351432920395 
-0.3797780182918813 
0.7401352721327082 
-0.3797780182918813 
-2.659438068765308 
-1.118382252086007 
-0.1933342703891403 
-0.1933342703891403 
-0.1933342703891403 
-0.1933342703891403 
-0.1933342703891403 
-0.1933342703891403 
-0.1933342703891403 
-0.4608412480771746 
0.0560567335776071 
-0.6870582164898542 
0.6025178656669509 
-0.9592552621244607 
-0.6551691352201846 
-0.4396671683310911 
0.71859587790905 
-2.268470810087103 
0.03460974005637949 
-1.626563709235123 
-0.2685028322470136 
-3.329761896909096 
-0.2685028322470136 
0.05807256717364469 
0.9945975896661097 
-2.125720321273741 
-0.7883972413671447 
-0.4570702592140709 
-1.000456827194905 
-0.6424947909060492 
0.3994765434418293 
-0.5553166596711862 
-1.08560538502617 
-2.536442695472424 
-0.2578301191403963 
1.955731283979815 
-0.2578301191403963 
-0.2578301191403963 
-0.2578301191403963 
-1.025732691212588 
-0.2578301191403963 
-2.997503787979442 
0.5627136935877511 
-1.151677909768798 
2.771464909926115 
0.2398022281223174 
-0.9053397725350372 
-1.543995567108339 
1.535963078831521 
-1.704160231595568 
4.355503191563845 
-0.2147121611396397 
-0.2984074935609994 
-0.8534717929388371 
-0.1007345663187534 
2.458246368545893 
-0.4343622467299977 
-0.7247747747433657 
-0.4135434500547468 
0 
0 
0 
0 
0 
1.685731853303275 
1.1715777681003 
-1.88687010449612 
0.1088405249193101 
0.3968688330838348 
-0.1982498616075975 
-0.1982498616075975 
-0.1982498616075975 
-0.2818306564542937 
0.6489975675664652 
0.7834927320589806 
-3.775323726499663 
-0.7687571250868483 
-0.06719068325101805 
-0.6328891601352956 
-0.6938422081740911 
-3.577344311752384 
-0.453255558228785 
-1.810056746964552 
-0.453255558228785 
-0.2951256231365645 
-1.085576277974903 
-0.1428567816792956 
-1.477143623765611 
-0.8287112148235795 
-0.1815063296486644 
-1.230065068193259 
-0.26056482375805 
-0.6890059715083375 
-0.3607749778170831 
-0.3607749778170831 
-0.3144240978306888 
0.3269126069550569 
1.751662003390438 
-0.6121010889695226 
-1.20737907727135 
-0.3520204108132533 
-0.09075118529389813 
-1.031381078884281 
-0.9534765661014952 
-1.390049239225341 
-0.8908102148714445 
-0.8908102148714445 
-0.8908102148714445 
-0.9684901800957927 
-4.912764312740307 
1.461856015407109 
-0.6667892442318887 
-0.7291314236056464 
-0.7291314236056464 
0.1693237280492551 
-0.8840235792152769 
0.1731913235001389 
1.988367102111649 
0.06553777216984241 
0.4556486635766225 
-2.897963792987326 
0.9398541784322338 
1.103210741676546 
1.584950970247577 
-0.3517107927275055 
-0.9941842468615338 
-2.167005035850446 
-0.8982825635645546 
-0.4523592157606431 
-0.4813317844059087 
-0.3396604244950452 
-0.8886497076688779 
-0.885481897450645 
2.671403544082682 
-0.2226337361593916 
-1.832328764585278 
-0.1656957574143011 
-2.827041229087865 
-0.1140312300656024 
-1.33011817834087 
-2.775557561562891e-17 
0.02224659647661691 
-2.775557561562891e-17 
-0.5273109021088159 
-1.16873797158811 
-0.5273109021088159 
-0.5273109021088159 
-0.5273109021088159 
-2.116762756050306 
-0.1964472452594624 
-0.5273109021088159 
-0.5273109021088159 
-0.5507042969161785 
-1.552915637123025 
-0.5844449640405647 
-0.6406989634723593 
-0.8974843386627895 
1.093452605896233 
3.561725881407837 
0.8813086713482446 
-1.330814457654667 
-1.172138761881469 
-1.122990082647629 
-0.5199637371772925 
-0.7696046196523483 
-0.3603785204412884 
-1.48300940005127 
-0.9976633572879655 
-0.6411097349732606 
-0.6411097349732606 
-0.6411097349732606 
1.103816674766336 
-0.6201424359799343 
-1.00523097616739 
-0.96113434801515 
1.210391725728254 
-0.2475766236514965 
-1.603601013098457 
-0.2979077279299724 
-0.1425655322728322 
-1.55461897356163 
-0.6797092616353063 
1.08295039477152 
-0.2849320851690605 
1.397675303410541 
-0.5127617579177145 
-0.314440804223208 
-0.8255164134324509 
-1.821435355287455 
-0.05324694578584478 
-0.1763808736220114 
-0.3780713913838316 
-1.152812358812868 
-1.426678656740402 
-0.5699253318375928 
-3.089505448771974 
0.5672941655945214 
-1.447271889477288 
-3.439178037333804 
0.3171328136264003 
-0.5097147261850983 
-1.537181147107594 
-0.1447339698585309 
-0.5902788002009612 
-0.5902788002009612 
-1.020714858173669 
1.272975842520071 
-0.5902788002009612 
-0.5902788002009612 
-0.5902788002009612 
-0.5902788002009612 
1.738911844127742 
-2.214173820401741 
-0.5902788002009612 
-0.5215908499181169 
-0.5902788002009612 
-0.5890931470658276 
-1.578451124147463 
-0.07504717694978362 
-3.871782887190053 
-1.935593264384956 
-1.173216722365756 
-1.470239342775108 
-1.465556971689474 
-0.4033714335675767 
0.3039721999745538 
-0.9371997492399555 
-0.2688423286715285 
-0.5859137798987641 
-0.2688423286715285 
-0.2688423286715285 
-0.2688423286715285 
-3.329067236301738 
-1.657521550079354 
-1.643020455841664 
-0.2943745848410264 
-2.632300165516391 
-0.2943745848410264 
-0.2251247661127198 
1.762596163176591 
-0.5488427428346672 
-1.12338875318688 
-1.554989701395462 
0.1883473413717772 
-0.7813381296331745 
-1.048077916297724 
-0.2002040585217313 
3.243228590536355 
-0.7813381296331745 
1.729476758978759 
0.1027837373840961 
-0.6175618335189265 
-3.138730716691701 
0.3026811423124126 
-6.759359572982609 
-1.479833578322671 
-0.3780839111733953 
1.048772821401153 
-2.106754693966515 
0.1362557734109343 
-3.000008395501127 
-2.96218150468183 
0.07892073835986732 
3.758859729009044 
-3.381828336953988 
-1.407707257720397 
-2.632262360978936 
0.1083016680704684 
-0.1271376185888429 
0.7024487324010392 
-0.197332981918162 
3.186323301639579 
-2.519258705867117 
-0.8571116156272225 
-0.7393286183111077 
-0.8571116156272225 
-0.7970987963637687 
0.339559544624455 
-0.9073985839427693 
-0.5902087897229819 
2.714392624219684 
0.3011476342715261 
-0.9125454300532951 
4.899937595203244 
-0.8248771581270959 
-3.643234255997341 
-0.407539500781899 
1.680182281054547 
-1.551352772295092 
-0.6759206051678781 
-0.8020726498804509 
-0.6759206051678781 
-0.6759206051678781 
-0.6759206051678781 
-2.358167851881441 
1.785362734414218 
-0.6759206051678781 
-1.295817082028853 
-0.6759206051678781 
0.3912941479016674 
-0.2386770949151067 
-1.536797998111155 
-3.035766082959412e-18 
-3.283934391546666 
-1.547097395141304 
-3.035766082959412e-18 
0.3246893495043021 
-0.3687962982962507 
-0.3205400408558793 
-0.8686522279054907 
0 
-0.01737904522334093 
-0.01737904522334093 
-0.1398143255165493 
-0.1398143255165493 
-0.1398143255165493 
-0.1398143255165493 
-0.1398143255165493 
-0.4229068960592437 
0.5050247984502833 
-1.169958925641376 
-0.4229068960592437 
-1.008626194071507 
-2.719950003815219 
-0.5287205469144707 
-0.5321403143595286 
-0.5321403143595286 
2.179620397248847 
0.5535829903898121 
-0.202750310443261 
-0.01890098306194408 
0.5065924639017687 
-0.2447816282478567 
-0.6124531270037423 
-0.7112130453863499 
-0.3062265635018715 
-0.3062265635018715 
-0.3507169272650156 
-0.3507169272650156 
-2.62416822045 
-0.3507169272650156 
-3.048324624486705 
-0.04516603973855635 
0.1181103654496862 
1.451979810137767 
-2.671094631473175 
0 
-0.9009404586241693 
-1.617660302729151 
0.1579991432981285 
1.008064290581759 
-0.0569786632823711 
-2.08969153010383 
-0.7817416381045671 
-2.381990798795001 
-0.4399346874947078 
-2.441075835669976 
3.516520488841001 
-0.9034578554849693 
-0.3931154099761618 
-0.3931154099761618 
-2.29304921851729 
-0.4247624002633596 
0.1969177997884157 
-1.684719419169145 
3.271935787690024 
-2.147812582119374 
-2.352189463197673 
-0.7251558172974573 
0.4616019388599982 
-0.4268289356205518 
2.773212262506364 
-1.235044731933389 
-0.8507676535394774 
-0.5735916353289972 
3.101175381007827 
1.192624783635136 
-1.750105021718614 
0.1977869557087784 
-1.224045930866624 
-0.281630791757112 
-1.527191016460071 
-0.2136017501997275 
-0.8717919768546624 
-0.6111540756577115 
-2.709472633341577 
1.588457573355804 
1.194984848455823 
-0.8563917439294557 
-0.7991929300870415 
-0.03007454636408058 
-1.089601443390763 
-0.3529924620746067 
-0.3066879267563307 
-0.9606229290303716 
-1.126409796622078 
0.8558403957955313 
5.16896677642348 
-0.4722612021780886 
-0.8196632833250609 
-4.106717407060746 
1.666109195329559 
-2.446277674532901 
0.3965929484225247 
-1.449505870766362 
-0.7819216607321704 
-1.477193045671034 
-0.07079870196705416 
-0.07079870196705416 
-0.07079870196705416 
-1.374770337853116 
-1.396891336303533 
0.1743201139242719 
-0.5803138349658916 
2.31164588859711 
-1.267284367912161 
-0.5803138349658916 
1.348197140073747 
-0.6350175798826646 
-1.278896989689615 
-1.839581886668927 
0.436749882271218 
-0.3979012816963541 
0.4250768416784313 
1.949762860795278 
-0.3979012816963541 
-0.7971678806832536 
-0.7971678806832536 
1.076092844504729 
-1.297041211399916 
-2.310111908475577 
-1.415346942132277 
0.2556347126409146 
-0.5566726592493515 
-2.929182372492209 
-0.6290238247853208 
-0.5425501956038662 
-0.5425501956038662 
-0.2849858578937338 
-1.974726157299761 
-1.318828872864625 
-0.7911618850878038 
-0.1175768595169036 
-0.4288273578434845 
-1.966306740852146 
-0.7812185289001891 
-0.4288273578434845 
-0.4288273578434845 
1.989165357786668 
1.383779900297994 
-4.406819043277967 
-0.07323871982420284 
1.680821564035469 
-0.07323871982420284 
-0.07323871982420284 
-2.686104072494381 
-0.4114231096424512 
-0.6920973276835276 
-0.6920973276835276 
-1.755219463948483 
-0.6428107785941051 
-0.6428107785941051 
1.070052575589868 
-0.8042220630498796 
-0.8042220630498796 
-0.8042220630498796 
-0.8042220630498796 
-2.758678693460728 
-0.8042220630498796 
-0.008420742975423046 
-0.03423838434165938 
-0.2721097638928095 
-1.757132423890858 
0.2108602185784753 
-0.1845099117704264 
2.078351361755788 
-0.2951006477400433 
-1.545927567344477 
-1.502048082699371 
0 
-2.376678093918415 
1.295517917852719 
-1.572863188698157 
-2.265687960289572 
-2.168431656256275 
-1.604892329219985 
-0.5089979752128734 
6.938893903907228e-18 
-1.940547516106258 
6.938893903907228e-18 
6.938893903907228e-18 
6.938893903907228e-18 
1.480759674950684 
-1.084930745786708 
-1.003820050178584 
-1.003820050178584 
5.929998426288294 
0.6029475274426742 
0.1286227891559898 
-0.3798933261501108 
-2.02899672681319 
-2.530826815758651 
0.05814264093001649 
-0.3590027816596935 
-3.38975849596253 
0.06902937752558704 
-0.1795013908298467 
-1.392399246419491 
-2.71497538723853 
-0.04622207131950323 
-0.04622207131950323 
-0.04622207131950323 
-5.724039450746226 
-2.952770812556474 
-0.04622207131950323 
-0.9005441284349868 
-2.041196490835161 
-0.8090753284877243 
-0.391143883161926 
-0.391143883161926 
-1.203370852022231 
2.022207950340486 
-0.391143883161926 
-0.8433106159532875 
-0.391143883161926 
-0.697088862158267 
-3.400761841606128 
-4.375696589438234 
-0.5631223380161492 
0.6207106002147961 
-1.688932981026159 
0.5374186461254346 
-0.3834104037335208 
-0.9567330981409597 
-0.4783665490704794 
0.3523379547182964 
-0.4783665490704794 
0.1273586606674509 
-0.3606946068133569 
-2.064783877507947 
0.4951222578959574 
0.2387494370375424 
-1.260929904929031 
2.52483075247348 
-0.9179616746211251 
-0.3378381527115026 
-0.7969890359950379 
-1.386743666821111 
-2.670369766021571 
-3.98211711743699 
-2.582688340760243 
-0.467206543107366 
-0.8451890866057162 
0.05127908593084501 
1.416779358154095 
-1.031781045534824 
0.2334696463686876 
-1.031781045534824 
-2.72030671905436 
0.9057717260242708 
-0.6232255665109427 
-0.8768656043558566 
-0.7962730257009799 
-1.734723475976807e-18 
-2.902582701207345 
-0.7490961068679595 
2.05199174980886 
-0.5673812936869367 
1.295446771682969 
-1.591012435130414 
-0.7864638663255028 
-1.611047722561644 
1.533757427290656 
-1.433494518767017 
-0.09807263528721789 
-0.7043872936633448 
-0.8759313315345003 
-0.4728255666332496 
-0.4728255666332496 
-0.01929858632404389 
0.7084547945784273 
-0.2750857074097661 
-1.927857855716092 
-0.123161148199868 
-0.2332351015261973 
-0.4846183546474609 
-0.2332351015261973 
-1.590771278147589 
-1.091413468451409 
2.483510200262357 
-1.108350917805268 
-3.373707042961046 
-0.7224146938425418 
1.030075964254669 
1.83690791298583 
-1.012210066687892 
-0.9237750962798303 
-0.5885392339437868 
-1.099723590413928 
-0.6635297504539838 
-1.062720841001493 
-2.544841117682786 
-0.1020716076582641 
0.1095547278026963 
-0.1305788077433711 
1.603101848191665 
-1.55961606311755 
0.3509121012852027 
-0.2417015772559365 
-1.461106428493913 
0.846965945446907 
1.741237031309639 
1.387778780781446e-17 
3.277677010767549 
-0.4420904091555123 
-0.4477410437119436 
-0.4477410437119436 
-2.537787796539882 
-2.12546516613013 
-0.4258948693598293 
-0.4258948693598293 
-1.686186779342499 
1.897995022184654 
1.68350013528291 
-0.3382641523363283 
-0.5533656609259856 
-1.175758914708265 
-0.251795445824167 
-0.251795445824167 
3.580988259219271 
-0.8724795678594055 
-0.4059270287458153 
-1.537886940950794 
-0.6355667965877297 
-0.7493433392656786 
0.9216238929748782 
-1.614812638770605 
-0.7619068395626988 
1.758508968345282 
0.06607445605757917 
-0.3746716696328407 
4.135547756430544 
-1.842120744171728 
-1.154532818659763 
0.3642801313384226 
1.545652090248403 
-0.6040320324809225 
0.4753971698326176 
-0.2238701399307927 
0.9698986695615746 
-0.6040320324809225 
-0.6040320324809225 
0.8336088393684813 
-0.3968711228416814 
1.415367861426997 
-0.547076787301075 
-0.547076787301075 
-0.547076787301075 
-0.547076787301075 
-0.547076787301075 
3.419130960273235 
0.4576139502488604 
-1.579103317396098 
-0.2657608981378245 
-0.2657608981378245 
-3.020446016582405 
0.5267063124164508 
-3.800864784193292 
0.4574824870739012 
0.2988298586393304 
0.8971558049493072 
-1.408168624509584 
0 
0.2637002385526076 
-1.378024064061268 
-0.3007113371076603 
-3.167143232438393 
1.438954270227969 
-2.615879162378356 
-0.3097256973083575 
0 
0.1146694393553522 
0 
0.09154436266594784 
-0.9090761506615962 
-0.2248225031819788 
10.72441774392383 
-0.8092826936275086 
-0.3397945618074725 
-1.273682281516257 
-1.430209069244289 
-1.967639245502744 
1.320116915216395 
-0.8098692528510768 
-0.1781267553712619 
-1.006342749049053 
0.3359298490143026 
-0.1746857552297723 
-0.2703684606910009 
-0.2703684606910009 
0.09050059632127191 
-0.208588655800436 
-0.9937302618444286 
0.8724099869022852 
-1.609566326565318 
-1.609566326565318 
-0.08205639428465983 
-0.08205639428465983 
-0.9884132052784519 
1.629459633994795 
-0.2908963885741438 
-0.2908963885741438 
-0.4167949084262436 
-0.9100790426240819 
-0.3565536223147052 
-1.884790519024836 
1.854081125872915 
-0.3565536223147052 
-0.3565536223147052 
-1.055805227823206 
-0.6084992297094278 
-1.782808671471468 
2.968999566022554 
-4.15068506832309 
-4.482481047197163 
-3.968666459367642 
-0.2762760022890391 
2.100588601356949 
-0.6499919054736871 
0.628818934794078 
-0.9709633340993825 
-0.09331820634162881 
-0.09331820634162881 
3.14879295576636 
0 
-1.900525938694775 
-1.900525938694775 
-0.8315242320888134 
0.4949843229819849 
-0.07780095396443155 
-1.868679002883417 
0.6825930640495367 
-0.4303493750507769 
1.604534633421485 
-2.259685900952448 
-0.8142124388424556 
-0.3460825680172182 
-1.306246261538624 
-0.2892685180366703 
-2.390118730552099 
-1.055745729236236 
2.669107172767421 
-0.2892685180366703 
-0.3096003985732307 
-0.1891033316151694 
-0.1891033316151694 
-0.1891033316151694 
-0.1891033316151694 
-0.2908321351851894 
-0.8407387929233129 
-1.242573312215835 
-0.5407296073177564 
0.0549439582626774 
-0.3446131586850853 
-0.9582268710666263 
-0.9582268710666263 
-0.1438988538958061 
-0.06882538910213538 
-2.568151010711616 
-0.1831305036145002 
-1.7773924523521 
1.236110043842022 
-0.1831305036145002 
0.9264560645809397 
-0.09138518080766596 
-0.3598098002196956 
0.09503871059695974 
-0.5134391401459607 
-0.3598098002196956 
0.2095006794761508 
-0.1517361236356636 
-1.922909043441024 
-0.1517361236356636 
-1.064714932732422 
-0.7981936262947509 
1.628668263601403 
-1.489776543033993 
-0.9906521325958099 
-0.9906521325958099 
1.507043458671617 
-0.9507016702236216 
0.9297290573770365 
-0.5371900050749693 
-0.5371900050749693 
0.3128585217062252 
1.891724018227211 
-0.4384706978626972 
-1.429698870559637 
0.4001745755798347 
-1.944450801335809 
-0.6233210506744968 
2.754955384901545 
0.2119575249819157 
-0.2601455039987027 
-0.3043427132484088 
0.3119910971055706 
2.614182487890336 
-0.612116325922847 
0.1647042493937071 
-3.928148208537761 
-1.457491372988603 
-3.959269975817912 
3.920643027555061 
0.2020274061971802 
0.1162453136181217 
0.4191861778300504 
-1.535367771103366 
-0.2215442652125551 
1.352487927688958 
-1.333396333631095 
-0.5793081730189227 
-0.5793081730189227 
-0.5793081730189227 
-1.078799761040641 
-0.5793081730189227 
3.322044358314699 
-0.5793081730189227 
-0.5793081730189227 
-0.5793081730189227 
-0.5793081730189226 
1.84237723284833 
0.5081572153242915 
-1.64987194684367 
-0.2689587462661785 
-1.149009013964284 
-1.513366150658539 
-0.02859112692834495 
0.176357006754567 
-1.935898275996851 
-0.2533843297256391 
-0.2719215030638264 
-0.2719215030638264 
0.6676615490954771 
-0.3229731626998161 
-1.338128864296433 
-2.038186715938841 
3.963199360052223 
-0.4098886024397617 
-1.66429032804718 
-1.676121887990288 
0.9278982219540367 
1.112810334611075 
-0.4479099251484837 
0.5068252956550693 
-0.1841887547731453 
5.5519021501666 
-2.617225616709256 
-0.6116929981609529 
-0.359552890519286 
-1.670172904957639 
-0.6398610650105956 
-2.875437843783626 
-1.630816324865881 
-1.212335615082064 
-2.01417451418419 
-1.622659044488684 
-1.249320662467138 
-0.3221312491373357 
-0.4481066909023287 
-0.02840471607986239 
-2.783994420637558 
-0.4481066909023287 
-1.771399608633431 
-0.2072385639535251 
-0.6858652973910249 
1.012498757589326 
-0.2480929179936471 
-0.2480929179936471 
-0.2480929179936471 
-0.2480929179936471 
0.269487556292083 
-0.1140620189058254 
-0.4507535447167617 
-0.4507535447167617 
-1.830039104888999 
0.3438118166824977 
1.644605522647501 
-0.4507535447167617 
0.6762146235897688 
-1.090317875801864 
0.2718523816176582 
-0.345321779894653 
-0.345321779894653 
-0.345321779894653 
-0.345321779894653 
-0.4864283033144309 
-1.255086042777484 
-1.193588150109641 
-1.731093176922862 
-0.3148323424808163 
-0.331711768176462 
-0.9369520028901969 
1.669671345627677e-17 
1.669671345627677e-17 
-0.7326321134078978 
-0.7326321134078978 
-0.3921229037688995 
0.09752397476141339 
-0.7644996410209454 
-0.8770703902102533 
1.377902186921848 
-0.3921229037688995 
-2.506140740608409 
2.524088107101119 
-0.650395162855089 
-0.650395162855089 
-1.204997732636337 
-3.618373747467565 
1.049668448406583 
-1.57068817842416 
-0.6712351676388011 
-0.6712351676388011 
-0.6712351676388011 
-1.086867042030619 
-0.2644128946281472 
-1.204254793482492 
-0.293900508485759 
0.4787408221971559 
-0.4746833682686081 
0.8458044186821763 
-0.4746833682686081 
-1.526764667520907 
0 
-0.5045593880095164 
-0.6186117520615676 
0.1108270555604076 
-0.1646928523755858 
-0.1319646578629461 
-0.1319646578629461 
-0.1319646578629461 
0.4947416989688858 
-0.9303514727905376 
-0.4943418175701425 
-1.377557826103919 
1.304730474682102 
-1.876002554835109 
-0.4943418175701425 
-0.4943418175701425 
-0.4943418175701425 
-0.4943418175701425 
-2.336632196189939 
-0.134946103203612 
-0.4958134055825338 
-0.2316101012318345 
-1.293947147980102 
-0.7741596836972641 
-1.062337046748268 
-1.013070990141184 
-0.7311369960845484 
-2.482523598593885 
-0.6934053141654535 
-0.2270013587328714 
-3.398507976655105 
0.3553129275569577 
-0.5919546691355453 
-0.763309346668107 
-1.310161600297682 
0.1224972233981514 
-2.451473886190584 
1.284983979252125 
0.8475505255064022 
0.6507892114743352 
-1.895499770779858 
-1.819816256255808 
-2.791412120319516 
1.232039093786059 
-1.980739963529691 
-1.323729125447048 
-0.9910391107456024 
-0.2175511189370302 
-2.428294887848072 
-0.5778012455571905 
0.9698836102989838 
-0.5778012455571905 
-0.5778012455571905 
-1.734723475976807e-17 
-1.157025366213483 
-1.978844785738796 
1.942603197531729 
0.7260405236291615 
0 
-3.433192206629086 
-0.6342529401944863 
-0.2772973780581969 
-0.5491017055491271 
-0.5491017055491271 
-0.5491017055491271 
0.4292677632634969 
-0.5741698241381695 
2.981288676447422 
-2.797873511216162 
1.703055155386847 
-0.9494044237113669 
0.1720865066547154 
3.782357083667549 
-0.3943080010883006 
-0.4271291757714717 
-0.5945632197474784 
-1.731206822741435 
-0.76139958239053 
-0.5922959048596095 
1.598411484550218 
4.572350817914924 
0 
0 
0 
-0.1186452507064452 
-2.327678444756446 
-0.4312486378369126 
-0.4583529388515009 
-1.076244627997142 
-0.4492355651832061 
-0.2156167098750091 
-0.2273718924919713 
-0.1301270346773266 
-1.7061686629131 
-0.2238543200292126 
-2.535361275192985 
-0.05252160302959973 
-0.05252160302959973 
-2.016076687986791 
-0.9164163709009898 
-0.2844729433116415 
-0.2844729433116415 
0.2430661676740626 
-0.3710322286935317 
-0.3710322286935317 
-0.3710322286935317 
2.209116365124666 
-1.12391067926194 
-1.017555880635868 
0.0438382854550415 
-0.7432823906259125 
-0.7432823906259125 
1.350372413189916 
-0.5355116276354894 
0.9317614952018251 
-1.537208423436671 
0 
1.784735348272864 
-0.630049061252082 
-0.3439312831372439 
2.130415825757427 
-0.2457708977276132 
0.06446355732691594 
-0.3326332576376225 
-0.3326332576376225 
1.952039826063691 
1.239064974273865 
-0.8367116649163086 
-3.236388304432348 
-0.5411927788390725 
0.4969968589390696 
-0.8117926393143299 
0.1615624004481671 
-1.058934174104122 
-1.058934174104122 
3.27863250976898 
-0.8140333319178561 
3.530374230297005 
4.393962559100152 
-1.212791686444742 
0.3665812577296254 
-0.3400673669232228 
0 
0 
2.842371917606536 
-0.2500161861731386 
-0.2500161861731386 
-0.9189662726944204 
0.645803013455682 
-0.4594831363472102 
-0.4594831363472102 
-0.4594831363472102 
-1.214183309436956 
0.2867129160179418 
-0.5322492957477187 
-6.538179748091964 
-2.194016968729709 
0.8309446415450951 
-0.5644633496278576 
-0.5644633496278576 
-0.5644633496278576 
-0.5644633496278576 
1.861392934205307 
-1.219455729870932 
0.3414489612765054 
-0.09359217869830383 
1.253828037720706 
1.325526413404282 
2.116767159426483 
0.0333983327639602 
-0.2861918873977483 
-0.2861918873977483 
-0.2861918873977483 
-0.2861918873977483 
-2.345200905649261 
0.1350526085270858 
0.5225696229640765 
-1.095965818745483 
-0.7581669452085845 
-1.213461548808282 
-1.288652826529205 
-1.1244176451745 
-1.296097118314913 
-0.5878394451722608 
-0.1240900464724309 
0.7153615482081276 
-0.1140720317834801 
0 
0 
0.3685460087877606 
0.05167793146733234 
-0.1074297269085444 
-1.346937118290801 
-2.040316359239946 
-0.2578995582708197 
-0.1070748561595491 
3.903844852250575 
-0.3816801917844971 
-0.3816801917844971 
-0.3070148300967463 
-1.034113683482323 
-0.1325266032805221 
-0.278271616453435 
0 
1.152727178636693 
-0.4085216734563352 
-0.4085216734563352 
-0.8814386535850088 
-0.1358332355067333 
0.3040164053474971 
-1.986719245988023 
-0.3853333556543176 
-0.3633939691038032 
-0.3968516910483592 
1.259003842703719 
-0.3035451578355489 
-1.431434559339062 
-0.3035451578355489 
-0.1754797242821882 
-1.745417044701272 
-0.7026118809194247 
-0.2968674409615991 
-0.4294120185544658 
-0.4294120185544658 
-1.33894683203543 
-0.4294120185544658 
-1.395606552046457 
-0.2928634574467353 
-1.09311988435936 
0 
-2.742386490359042 
-0.6925431090488844 
-0.00192970275715732 
-2.415749775843001 
-0.7081623013581055 
-0.2881065461386875 
2.103662962045743 
-0.05364314073735606 
-0.5804449689071007 
-0.1014310960413609 
0.9149942856926396 
-0.1014310960413609 
-0.1014310960413609 
-0.1014310960413609 
-0.8627409518701478 
-1.116811906745055 
-0.09946787088631796 
-0.2246739622442057 
-0.4681991850130434 
-0.1009561100302887 
-0.2709164641838575 
-0.1009561100302887 
-0.1009561100302887 
-0.4553735033376249 
-0.7945395939011191 
-1.107935374828459 
-0.6017431562125828 
-0.6017431562125828 
-0.3170917269888922 
2.850705355854967 
1.799160232234796 
-1.760060574107426 
-2.387821288380005 
-0.33234288910634 
-0.33234288910634 
-0.33234288910634 
-0.33234288910634 
-0.33234288910634 
2.272839642601451 
1.551515141943404 
0.0446430803120695 
-0.02931019076008451 
-0.02931019076008451 
-0.341999601510532 
1.177706779015065 
-0.5915307231654069 
-0.1347040866216944 
0.5521788694906148 
-1.82355770035623 
-1.091556121222812 
0.3849459486396963 
0.317049055827713 
-0.479276234297128 
-0.1154619208423415 
-2.157613329297423 
-2.856558009983174 
-0.6733571981744062 
-0.9989746770035319 
1.428431456256119 
-1.212765708312878 
-0.3283936132538256 
-0.3283936132538256 
1.099896513102615 
-0.3881376289110878 
1.309027641248832 
-0.3283936132538256 
-0.3996972220667806 
0.04258368532663027 
-0.5152966776467638 
1.313291617884573 
-1.799027590022936 
-1.127506664098788 
0 
-0.5707046842431165 
0.3486616454469077 
-0.08713333369688876 
-0.08713333369688876 
-0.08713333369688876 
-0.1134523675601727 
-0.1134523675601727 
-0.499025482741273 
-1.849237863711684 
-0.501942652612839 
3.219219889453008 
-0.830488395207754 
-2.013529727003043 
1.596336313994293 
0.4697995397394906 
-2.64917911363433 
-0.9338893200011514 
-0.2646861901687979 
-0.2646861901687979 
-0.6949134357672752 
-0.1370214881095708 
-0.1669834364358078 
-3.390340722196351 
-1.084784433432593 
0.2818670572766716 
1.24238050331621 
-1.251668193900135 
-0.5744400909332361 
-0.8387934374703556 
-1.153742076776475 
-1.153742076776475 
-1.153742076776475 
0.8182526979826963 
-1.153742076776475 
-2.100190016809079 
-1.305135323900637 
-1.628262164137141 
-0.1753404563455073 
-0.05057308882456894 
-0.8500945404592335 
-0.4902588986818789 
-0.5579216094917573 
0.2562877468565457 
-1.304651836903629 
-0.2789608047458786 
-0.2789608047458786 
0.1274707113263429 
0.2598550746007109 
-1.153741166556077 
-0.2789608047458786 
-0.2789608047458786 
-0.2789608047458786 
-0.2789608047458786 
-1.278528518857189 
0.9982793529154474 
-0.7655288313974411 
-0.8053312584243866 
0.849172021220326 
0 
0 
0 
0 
-3.573656474806179 
0 
-1.754918596051726 
-0.2321633282394202 
-0.2321633282394202 
-1.850836012852847 
0.5643610315699932 
-0.5672979663352707 
1.734723475976807e-17 
-1.340407371174701 
-1.649372593121331 
-1.976132682184012 
-0.2398025216212717 
3.900543724500798 
1.026862289980266 
0.673044283268626 
-0.0969424599297342 
0.6009302212602899 
-0.247004283507205 
-0.247004283507205 
-0.373696782158558 
-0.373696782158558 
-0.373696782158558 
-2.520777499700078 
-1.486401846823829 
-1.846809293020205 
-0.7145017027797902 
1.184241446047205 
-1.26870625274114 
-0.6944283404860661 
-0.04716870713358921 
-0.6980531948275487 
-0.9003372240174912 
-1.310274359811029 
-0.7269335791897421 
-1.436016240735863 
1.58356356417336 
-0.2962717384332134 
0.3935476027272604 
-0.2962717384332134 
-1.287907762274986 
-0.2962717384332134 
0.9721428666225151 
-1.131555655482868 
-0.6225204038962746 
-1.131555655482868 
-1.131555655482868 
-0.4365437696953829 
-0.4365437696953829 
-0.4365437696953829 
-0.8676829960517629 
-0.5618810255363195 
0.3157445255726742 
-1.061511670283574 
-0.587667579471383 
-2.327838008074108 
-0.2668851558524006 
0.208993762864488 
-0.2668851558524006 
-2.449211263401629 
0.601570973077062 
-1.507086802225441 
-1.008723566727324 
-0.9959071654041753 
2.872201343764743 
-0.9080119768191248 
-0.4770851366273307 
0.6021829156499694 
0.4047614399374354 
-0.3511123527004206 
-0.3511123527004206 
0.3818282349159382 
-0.3511123527004206 
0.1869580268761523 
-1.699235381546915 
-0.4526406630138077 
-1.007825466612018 
-0.002274972413855378 
-1.689326545965582 
-0.426347018996216 
-2.200148685036745 
-0.6913721084109702 
-0.8280862931696803 
-0.446949192743418 
-0.2929247652730347 
-0.2929247652730347 
-0.2798716919371219 
-0.2929247652730347 
0.9995866672795857 
1.162528553681035 
1.424987992743591 
-0.3855822575432766 
-1.164119097389032 
-0.6132320075257579 
-0.6341077278134419 
-0.2051018440271075 
5.2127479628491 
-0.6341077278134419 
-0.6341077278134419 
-0.8092098119216994 
-1.944561595826039 
-0.4301799712280497 
-0.4301799712280497 
-1.808688993721681 
-0.02441333392251541 
-0.1291846430174633 
0.01585276960435718 
-1.620709539447929 
-2.145503425688663 
-0.5581750936870316 
-0.8558701994794073 
1.571192308050791 
-0.2092789718518556 
-0.8398512675596376 
-0.5400262848601903 
0.03243701912816369 
3.958761748452257 
-1.191971670010844 
-1.688699411710536 
-0.2933418317599358 
-0.8337908595263284 
-0.8337908595263284 
-1.013232748613513 
0.3616678925416901 
-0.4076362492155334 
-0.5759491725501962 
0.3867499670780984 
0.6016452396346322 
-0.6236410559556529 
1.239928693922494 
1.897201349167136 
-0.5759491725501962 
-0.5435227885080441 
-0.343765478406561 
-4.336808689942018e-18 
-4.336808689942018e-18 
-2.592472769297907 
-0.4248793879410775 
0.4451301022677905 
-1.745520825626561 
-0.9128811408119865 
-0.1809613894337985 
-2.053410498320077 
-0.1259010653840215 
-0.1458659573035632 
-1.44604582059834 
0.4232319557097819 
-0.3880624691408444 
-0.9599197875462713 
0.7709918348991494 
-0.06999233566390888 
0.03304112316246197 
-0.3250377055346874 
-0.7528149854605266 
1.164605064882426 
-3.101181312641633 
-0.3272623961041735 
1.914400822758792 
-1.486837190090506 
-3.427444420165736 
-1.1443756330841 
-1.088581813090215 
-2.024028350405498 
2.49839357364254 
-3.21647703566091 
-1.082967960247026 
-0.574299431847986 
-0.5884262024448539 
1.07744529859942 
0.2214024301515398 
-2.356412801340055 
1.133756487507115 
0.4340777638485753 
-0.3283715952295377 
-0.3283715952295377 
-0.3283715952295377 
-0.3283715952295377 
-0.3283715952295377 
-0.3283715952295377 
-0.3283715952295377 
0 
-0.6280195494612985 
-0.1446200996412462 
-1.19788353710008 
1.388122831377753 
-0.8701070464253937 
-2.481359970706505 
-1.030518173381224 
-0.6952656288810829 
-0.4325342166747313 
-0.5847379256248891 
1.567973307523739 
-0.3354020025646265 
-0.3354020025646265 
-1.899064760356937 
-1.155215590294713 
0.05008098084989901 
-0.4476951661197627 
-1.333813247214545 
3.302001164067334 
-0.5094649134904428 
-0.08645269887274044 
-0.216273274816126 
-0.216273274816126 
-0.216273274816126 
-0.216273274816126 
-0.216273274816126 
0.7521748908576659 
-2.539479196059166 
1.311821328820347 
-0.825444710605492 
3.522747224749184 
-1.49468605109819 
-2.182572447849583 
-0.2737665978751254 
1.27218248023143 
-1.02026771654607 
-2.909837359405345 
-0.4204764643499744 
-1.760509198136636 
0.4252213571863695 
-1.421575919230057 
0 
0 
3.833967001647652 
-0.8600764385090185 
-0.1801489943234467 
-0.1801489943234467 
-0.1801489943234467 
-0.7978436468858525 
-0.7781866336115201 
-0.7781866336115201 
-0.7781866336115201 
0.03356119693901514 
-0.7781866336115201 
-0.08262979638805881 
-0.7781866336115201 
-0.2124110785539178 
-0.6937624949943325 
1.252509088796395 
-0.6678661386153432 
-0.4647623599373062 
0.1040169248544833 
1.565323362409822 
-0.4647623599373062 
-1.006038816179385 
2.200974191780452 
-0.2588064266728546 
-0.2588064266728546 
-0.995344823331564 
-1.03224542028094 
-0.2588064266728546 
0.8819000960011951 
-1.500703974354904 
0.8057230212369828 
-1.09320152183412 
0.432983398274027 
0.7515946598115185 
-0.5236717652762619 
-1.797219004009617 
-0.7984023268394634 
-0.2051856216350327 
-0.2051856216350327 
-1.300122001247098 
0.2583003911779153 
-0.5329216946648466 
-0.5329216946648466 
-0.9473717621687988 
-1.309853422274615 
-1.134521018924113 
-0.6934943772926997 
0.02675193403373691 
-0.09519394823847629 
1.25307555430005 
0.7250614723267439 
-0.4833432798192542 
-1.501834842335258 
1.332813077855245 
-0.5293963521916459 
-0.6372623004648504 
0 
0.2221238168166783 
-2.169592586499932 
-0.1513542935856124 
1.190545859625407 
1.740417639948679 
-0.4067069615181713 
-0.6232850271953678 
-0.7579891293769506 
-0.2849516285365736 
-0.2849516285365736 
0.9673152252709371 
-0.8830044843578776 
-0.658601775654807 
-0.9335412218728348 
-0.7778507028291205 
-0.3293008878274035 
-0.8127027320482618 
-0.4735339105257604 
1.963971183541325 
-0.6864303371997297 
-0.299215040968612 
-1.302617578767786 
-0.2631935853719122 
-0.7127526725218115 
-0.7127526725218115 
-1.772704216206385 
-0.5086203569630313 
-0.3374549365946445 
-2.535905804839893 
1.108677356453844 
-0.6771470257292098 
0.05518344370720941 
-0.932796928720383 
0 
0 
0 
0 
0.9118996775904958 
-0.09673356693346578 
-0.9538887403672132 
-0.2764646299000012 
-0.2764646299000012 
-0.2764646299000012 
-0.2764646299000012 
-0.2764646299000012 
0.8095979101556126 
0.2591937853522292 
-0.2764646299000012 
-0.2764646299000012 
-1.111529789790257 
-2.207547491419569 
-0.7790247335100176 
-1.737774529797284 
0.722592271614684 
-1.626712900983632 
-1.626712900983632 
-0.072157227466535 
0.5430226176560236 
1.278819043335631 
-0.4423052424733923 
-1.373947366081706 
-0.225369949456626 
-0.225369949456626 
1.124574031960516 
-0.225369949456626 
-0.225369949456626 
-1.337182397160529 
1.267426607564007 
-0.5910673670346792 
-2.46953285303037 
-0.07707446948347528 
-1.368832268167729 
-0.9107833229197466 
-0.05037838025864334 
-1.942217130795079 
-0.9107833229197466 
-1.901109778108268 
1.085661014743729 
0.5064239101685415 
-0.6616859981637757 
-0.9392896298421634 
-2.199587922113991 
-0.9248709365171438 
-2.383945481387291 
-1.224272863136623 
-0.2506706997306052 
-0.2506706997306052 
-0.2506706997306052 
-0.2506706997306052 
-0.2506706997306052 
-0.6847984278572646 
-2.262439896350336 
-0.01161214577693797 
-0.01161214577693797 
-0.01161214577693797 
-1.93538826865496 
2.305447890971657 
-0.5238372179665505 
-0.3036952340637293 
-0.5238372179665505 
-0.7815618420532299 
-0.4886916523331933 
1.955933797055498 
-0.2239476443036774 
-0.2629900466275259 
-0.1528149792069401 
-1.123041854031426 
-0.0193560844117409 
-2.007742666292378 
-0.0193560844117409 
-0.827601433147224 
0.6544125537753696 
-0.8339582938354183 
-1.237887526190766 
0.4688396644906886 
-2.330649092649725 
0.3962819041183056 
-0.5627771115502093 
-1.683829902312449 
-4.240540067414105 
-0.1402855186643719 
-0.1285591815816692 
2.638787477324591 
-1.744977618519567 
-2.085554704958632 
-0.5460015011507408 
-0.5460015011507408 
-0.5460015011507408 
-0.5460015011507408 
-1.741509250837205 
-0.5460015011507408 
-1.235682010895578 
-0.0763726540217234 
-1.082139342690469 
-1.082139342690469 
-1.842596720065367 
-1.329437161623745 
-1.082139342690469 
-1.082139342690469 
-0.2270135707459726 
-0.6731081407759584 
1.098437051662487 
-0.6731081407759584 
-1.327749911087858 
-0.4008859574803838 
-2.638436652382071 
3.631913320137427 
-0.3333098849006625 
-0.3333098849006625 
0.8900645727496038 
-0.3333098849006625 
-0.3333098849006625 
-0.3333098849006625 
-0.3333098849006625 
3.897971436424233 
0.1368578234602835 
-0.176008312361105 
-0.2370389066425917 
-0.4360096552203951 
-1.255301773395319 
0.4218423988315448 
0.5466904649468437 
-0.4360096552203951 
0.538881918021328 
-0.4360096552203951 
-0.4360096552203951 
-0.4360096552203951 
0.4832653457571037 
-0.4360096552203951 
3.532816884847691 
0.7716839096057398 
-1.888691056171034 
-0.2723057776106319 
-0.06646575564006411 
-0.2723057776106319 
-0.2723057776106319 
-1.196056799318203 
-1.089691966857532 
-4.859720658012237 
-0.314730036381265 
-3.04858768011637 
-0.8305033361449395 
-2.834732253061747 
-0.8305033361449395 
-0.5368809613076828 
3.086712455316352 
0.6442121619956945 
-2.443646464958684 
-1.097847258915366 
-0.2352122948950557 
-0.1107180141557059 
-0.9665236260950342 
-0.2281988739405258 
-0.2203441992753762 
0.1764543005210383 
-1.244201127444191 
-0.4506400406259328 
-0.7536924143737811 
4.90408801451966 
0.08527356768011739 
-1.245556873020226 
-1.877275671932013 
0.1226517202534795 
-0.4104196868121284 
-0.2749304522433063 
-0.2776591133595996 
-0.2749304522433063 
-1.535084985692063 
0.180483091114586 
-0.2749304522433063 
4.076161839821566 
-0.01703031239254142 
-0.9947076030696899 
-1.062572444926129 
-0.3967563927565304 
-0.04453098940951721 
-0.3812558366530901 
0.2964288675422665 
0.2294504938881833 
-1.376375813979095 
-0.1693706084473691 
3.281616825677277 
-4.024279820541079 
1.977519089963342 
-1.20307488129597 
-0.4990302826864763 
-0.6365492105130459 
-0.3840981288853786 
-0.4990302826864763 
1.652359258258804 
-2.314216038423362 
0.1779305795346779 
-1.112471341478363 
-0.6511946285211409 
2.434517604837562 
0.048072480275256 
2.859694212523871 
-0.7080422756919499 
-0.3100671037783752 
0 
-0.3037053431296584 
7.950274180153584 
-0.5212247724458404 
-0.1321912219949339 
2.243129703652219 
1.138256452228661 
-0.5457776580877568 
0.2450444225626407 
0.2709390742667845 
-0.8256224494686593 
-2.219430335536824 
-1.428796873073588 
-2.350703213508396 
0.4465160081199357 
-0.06605909697765465 
-2.018015297670496 
-1.169697225316582 
-0.4919203919890192 
-0.8870413535325237 
0 
-0.3467866977354336 
-0.8958620666467693 
-0.8958620666467693 
0.1528991430743356 
-0.8958620666467693 
-0.7157338253788211 
0.3762219861675077 
-0.2493716238110131 
-0.2493716238110131 
-1.526410304646558 
-0.1259503088370578 
-0.1259503088370578 
1.628040143412579 
4.084021467801279 
-0.15274549995969 
0.708005649966694 
-0.15274549995969 
-0.1833117229809574 
-0.6034587902672331 
-0.6034587902672331 
-0.6034587902672331 
-0.6034587902672331 
-0.7058968765988274 
0.5733137889528338 
-1.057584407301268 
1.705439224335094 
-1.086716404935752 
-3.469446951953614e-18 
-0.007494472196275602 
-1.362229993945305 
-1.280928186574116 
-0.8207586171841301 
-0.8207586171841301 
1.00891179579884 
0.1736196996805611 
-0.8207586171841301 
-0.5640965057945103 
0.02312175577314466 
-1.241818014448991 
-1.241818014448991 
0.2850852780240505 
1.181094613599891 
-0.7390817597732134 
0.7177139461059765 
0.3822203198651628 
-0.2530387129842104 
0.79561633780895 
-0.2530387129842104 
-1.470576026419437 
11.31492023788475 
-1.065619963735639 
-1.065619963735639 
4.125671865246253 
-1.045771831946491 
-0.947966588879756 
-0.3256272267904237 
-0.3256272267904237 
-0.3256272267904237 
-0.3256272267904237 
-1.324290002810665 
-2.760175223245263 
-1.961904424089346 
-0.2932390730727621 
-0.2932390730727621 
1.24682629523131 
-0.2932390730727621 
-0.2932390730727621 
0.02657859237861478 
-0.535926778843779 
-3.018589802063798 
-0.535926778843779 
-0.535926778843779 
-0.535926778843779 
1.70405973804601 
-0.719531249061558 
-2.189055350130257 
-2.189055350130257 
-1.676569849207646 
-0.4123511467229311 
2.490974560231197 
-0.5250764731946457 
-0.2689410371286485 
-0.5250764731946457 
-0.5374692813992576 
0.5138819121740666 
3.22010357023042 
-1.269891347069202 
-1.506433808582072 
-0.6789520128967559 
-0.6789520128967559 
0.7297571985937183 
-2.216784346186687 
-0.6789520128967559 
-0.2378025408768114 
-2.856221015034369 
-0.02645187285552755 
-0.475361471563138 
-1.061872554829975 
-0.8044146721287377 
-1.028633491843093 
-0.256377362695734 
-0.256377362695734 
-0.1936919008796594 
-0.1936919008796594 
-0.1936919008796594 
0.04575567138354929 
1.094076998454121 
1.057100116527325 
-0.2150715326825855 
-1.765846725993609 
-0.3760019943869504 
-0.3010136515384761 
-1.177040679755824 
-0.1137572927053744 
-0.9410600527718013 
-0.9410600527718013 
0.2011173202775582 
-1.290485025189706 
-0.7383316430480583 
-0.7383316430480583 
