solver_type L2R_L2LOSS_SVC_DUAL
nr_class 2
label 1 -1
nr_feature 17824
bias -1
w
0.7844721659051448 
2.485667065302716 
-1.344345433660957 
-0.6188782777719313 
1.294741481768036 
-0.7908779506181217 
0.005214450227984517 
-1.438953358069563 
2.808356528161887 
-1.180249803548373 
0.7519104482141605 
3.773053997481517 
0.03351231851273402 
-0.8838656913188874 
-1.363408567813931 
1.617813632501912 
-0.3818395004132404 
0.2021718629300219 
-2.810006905138112 
2.430844938538721 
3.280208884289748 
0 
0 
0 
-0.9330508830700888 
0.7844721659051448 
-0.1105554370916767 
0.1427512547999094 
2.52330194554138 
1.197486892640871 
1.004234276708037 
0.6530315440832198 
-0.3090294431199775 
-0.8092834349124187 
-0.1399210439638165 
1.789051858902319 
0.04263606305450168 
0 
-2.18772533691425 
-2.273739440202009 
-0.3049820229110848 
0 
-0.6801964312157301 
0.768146478118908 
0.7198815753023845 
0.4084905932694885 
0 
0.162495773375176 
-1.590133956989027 
-0.2065017622695235 
0 
-3.311430557591928 
0 
0.2890579424441163 
0 
-0.369448290042973 
0.3161637998540285 
-1.703055229978082 
0 
-2.20276061026166 
-1.313886872732576 
0 
1.059314270885263 
0.07792090387920761 
2.687244333436735 
2.705362155788024 
-2.519546909149038 
0.06741537409988904 
-0.6644836142483448 
3.431876903341799 
-2.198638757987179 
0.5341418301882896 
0.1798161796877384 
-0.2970644835630897 
-2.814854111507873 
0.6239812476819599 
-3.779376896424289 
-2.020597607310664 
-1.66893784078349 
-0.3841841717373395 
-0.4853244422301647 
-0.7373253623754347 
-1.941586729872967 
2.166555625269369 
-1.861884761254076 
-0.0349377639706012 
0 
1.54213598287368 
0 
0.6168223513365271 
1.790206281282966 
-3.196882155962974 
0 
0.4311660745028947 
-0.2463325853212846 
2.160086445242344 
3.216873236253992 
0.9375848130187145 
1.313804395323183 
1.741926883932922 
-0.1405958859946564 
2.446087183902264 
-0.7336139962752067 
-3.659139904224454 
0.395007450313463 
-0.4912544128884737 
0 
-1.307366919556452 
-2.01593876510583 
1.516576100395846 
-0.4557589074890004 
-0.2847014630810802 
0.3814928498167714 
0 
-0.9579113058623954 
-2.382380768862429 
0 
-2.605437062654156 
2.654591118734483 
0 
0 
0 
0 
-1.473916399627814 
-1.140038833789648 
2.124106182503383 
1.020898415776233 
-0.5880971752217168 
0.1994489024053308 
0.5633887479305036 
-1.438976656309437 
-1.462108295524208 
0 
0 
0.2738176764212694 
0 
0.2226376986219861 
0 
-2.637912294446463 
0.9017513591949519 
-1.907465757781539 
-3.965792876599076 
0.6535208538653743 
0 
-0.2969710650131833 
-0.8941772224490034 
-1.868542471573957 
-2.296405597375625 
0.7209863762779825 
-0.7182539203501894 
0 
-0.5322598642751477 
-0.7158882598641336 
5.676847616624046 
-2.138402266207842 
-0.03559627467427259 
-1.278704451149064 
-0.210702678438056 
0.6821399924732894 
0 
0.7120699952079562 
3.166736698146248 
1.504975047297224 
-0.7362405740308631 
-0.2737362475373139 
-1.190549555371719 
0.7660099624444565 
2.918150057953574 
0 
-0.9812218110431382 
0 
0 
0.9355008272570692 
1.247417757955534 
-0.3259696172263526 
1.113419781085259 
1.286941904254001 
-0.9374639576159833 
1.104243650330903 
0 
-0.4251420438272549 
-0.5604707289955855 
0.2612746461490277 
-0.4220125476990502 
0.830055212288075 
0.8063081626936249 
1.457461052527439 
-0.9411859565776428 
1.123015726104024 
1.492356982885539 
-0.3152046685911389 
-1.655515500969844 
0 
-0.8081192570903453 
1.238029267524095 
1.975042082059884 
1.750056441213471 
0 
2.472926369340114 
0 
0 
-0.07446536831862766 
-0.5373766042121169 
0 
0 
-2.010775531746858 
0.9308849041901591 
-1.646554664461202 
-0.5395842989940416 
-0.3456492537757183 
2.54229903590275 
2.855343105441847 
0 
0 
-0.358159587923005 
-0.1548830741437304 
0 
-1.808924002973095 
-1.879209721820546 
0.07549434473496654 
-1.364293070203399 
0.340724125986008 
-0.7322370605486375 
0 
0 
0 
0.3714988103327403 
-0.6455677027355313 
0.245566989503204 
-0.9483494690484108 
0 
-0.4492713407145985 
-1.143274607357148 
0 
-2.296794879465628 
-3.845148517324867 
0.5114427350367938 
-1.160780861914867 
-0.5298876212083624 
-1.028042927176592 
0 
0 
0.2929767574916697 
1.576982313898602 
-0.792898655927349 
-2.208417882914609 
0.4168620969406463 
0.3533408349671131 
-1.711941316625381 
-0.6437144929485363 
-1.897438812851526 
-2.506488599128154 
2.200159186458346 
0.4525474632241887 
-0.4375719796950603 
0.5876842465512431 
0.5894902152418037 
-0.0404012268647994 
0 
-0.7218728949889266 
0 
2.134328767009138 
0 
1.099361842560734 
0 
0 
0.1912160079011181 
-0.5013457808510611 
1.273742320918807 
0 
1.581480156453765 
0 
-2.652830859929241 
0.476608636391013 
-1.174395778131905 
1.32618008009178 
0.1580382348163035 
0.9996163625113136 
-0.06265055631584322 
0 
-0.6783887496679323 
0 
0 
0 
0 
0 
1.266993321360358 
-2.00322071194957 
0 
-2.31250368021959 
0.5855157898253411 
1.238247518973494 
1.708873057795316 
-1.3621470013699 
-0.3790195231933206 
0 
-0.7253955060840269 
0 
0.1833878977511834 
0.2486969908483377 
-0.8112255312382654 
1.390004809205882 
1.807844394608604 
-4.669898808890224 
4.377088436346542 
-0.2755358198694301 
0.470417819800433 
0 
0.02982643539345638 
0 
1.206557245679762 
0 
0 
1.22145861011918 
0.3990906548058434 
-0.5178183461345865 
0 
0 
0.5347276488822013 
0.1825297489977601 
0 
1.684823204966051 
-0.7682606029344721 
0 
-1.243203923938457 
-1.151353691779834 
0 
0 
0.08496872150366598 
-0.9408121906088491 
0 
0.1144813028626925 
-0.2632428150947863 
-0.9132811769167141 
-2.396997759391687 
0.2740581724245706 
-1.471031163232649 
-2.201185619010366 
0 
0.8254369090041137 
0 
-0.3332380582207994 
-1.042653374458628 
0 
0 
-0.9861881327859524 
0.5222512919304366 
0 
0 
0 
0 
0 
0 
0 
0 
0 
0 
2.346561161596796 
0 
0 
-0.6475684295129107 
0 
0 
-0.8278151035815746 
0 
0 
0.1070541525697081 
0.7499868352099297 
-1.281501790002105 
-2.177294256713187 
0 
1.352263373673658 
-0.4727901913270982 
0.8765734044477934 
0 
0.9750460204244035 
0 
-1.321977043558727 
-0.308757740852255 
-0.02258381961535804 
-1.907535247276532 
-0.6002257811492427 
-1.185510841735554 
-1.035044728314372 
1.147895953946233 
0.4118320562953274 
0 
-0.9310362207466156 
0 
-0.4542499653394528 
0.09562372637482212 
-0.4898975930191761 
0 
0 
0 
0.4298373829786386 
0 
-0.282588069727165 
0 
-0.9652121934471923 
0 
0 
2.988091374402543 
0 
0 
0 
1.469123142040154 
0.5160860906705749 
-0.7311455587924305 
0 
0 
-0.9193557953570832 
0.255310675621493 
0 
0 
0.06425245029820187 
0 
-1.976319343469069 
0 
2.657300452302651 
-0.1931182205375531 
1.358482425986657 
0.1060761930278008 
0.5014527484725355 
0.327539727359546 
0 
-2.334626227671449 
0 
-0.6148590347936855 
-2.292213731948777 
-1.35041542363456 
0.725363700104681 
-0.3961174788419183 
-0.3576121077520986 
0 
-0.9984262178407296 
0.8767230655699139 
0 
0 
0.5496500897267705 
0 
0 
0 
7.14654485074553 
0 
-0.5409886412284431 
-1.071185173514625 
0 
-1.856332871232853 
-0.4465661964325168 
-2.755964224778991 
0.3626201641333492 
-0.4792536306963663 
-1.078342832631086 
0.3364194426677258 
2.730215306423481 
-0.6549326698779667 
-1.139235861278254 
1.843284391910821 
5.500369598572036 
0.05695465408076868 
-3.939367880619639 
0 
2.002776079407087 
1.016820112852854 
-0.363667228607326 
-0.4634820324288058 
0 
-2.377159955091152 
0.6322081650507215 
-1.505761960253854 
-0.09368086632434468 
-0.7338536870077557 
2.308306305238191 
-2.226807979769243 
0.883889168482732 
-1.875546963937028 
-4.064913044430009 
0 
1.424150974301257 
-2.469637719108371 
4.555248753895007 
-0.556525583596978 
-2.050098599758245 
-1.082966744014356 
0 
-0.8598591134785717 
0 
1.436395834016077 
1.474032582000554 
-0.5404383299385198 
0 
-0.564460048888628 
-4.409611249895158 
0 
-0.1270525098314482 
-0.3080435684167599 
-0.9821703890022762 
0 
2.626939693507532 
0.9615826958030815 
-0.747301569685102 
0.6773628957951899 
0.2932979342170283 
-1.599603846792056 
-1.803641056707578 
-0.2681400510356353 
2.024447188089977 
0 
-0.5013952349115633 
0 
0.07202266899981385 
0 
0.9160263349874959 
2.917235598901188 
0.6018371321303163 
0.525816530301875 
0.7870871776759907 
0.6615342689132615 
1.937624386403835 
-3.306906793811715 
3.206036240231226 
-1.871493562019113 
2.79203188642014 
-1.030244873272788 
0 
2.201061412198195 
-0.5325790607356327 
0.4118320562953274 
-2.298575289748837 
3.017413506531311 
0.2243504866400781 
1.246312218640039 
0 
3.372252200620135 
2.069220299333646 
-2.394298034864109 
-2.016925418319674 
2.138041993774656 
-1.354158505361073 
0.8332903687997664 
0 
0 
0 
0.5371659873306015 
0.04806941202276954 
0.505182193866758 
-0.3321165376873374 
-0.479781644979875 
0 
1.04220628211395 
1.315749060710373 
-1.253432863893182 
2.752258996023978 
-0.4479092737842315 
0.6593174163648287 
-1.571216502334427 
0 
0 
1.782675250632314 
0 
0 
1.515061284982524 
2.714205784013019 
2.216049969633198 
0 
-0.3238869769266917 
0.1184645168506222 
2.548660567693055 
-1.465910284029738 
0 
0 
1.271723317331381 
-1.685149553406575 
-4.252776502761491 
0 
-2.314119357587219 
0 
-1.036003473029331 
0.9199745015756665 
0.2321237148646307 
0.3861060984043044 
-1.586291776009975 
0.655687029136913 
4.237552017267291 
0 
-0.4491284525126715 
-0.6400634720595991 
-2.871099454359745 
-0.2263087172750387 
-1.110304957944299 
-0.5267565961652024 
-0.4046623860127478 
2.522760450060523 
-1.862730290493966 
-1.235858113115492 
-1.977441246474109 
0.9201983197805441 
0.9910951415834554 
-2.199828820662422 
0 
0 
0 
0.9954464847560625 
0 
0 
0 
0 
1.410096554911068 
-1.596193503441564 
3.522655474276395 
-1.095177906326009 
0.5029643467587014 
3.518823372322136 
-4.989568315046205 
-1.389487511691005 
-0.4194531244889026 
-0.1368185239499878 
0 
-2.862339571519889 
-0.7474680668227065 
0.5608897372426244 
0.2494018140949275 
0 
-1.615328313001479 
-1.269671121425889 
1.195729366992067 
0 
0.6903158381579271 
-4.966800945890355 
0.3494576261006535 
-2.261047728672183 
1.070798121496941 
0.0947783341817531 
-1.522016674319107 
0 
0.2137899516913543 
0 
-1.418205088374257 
0.2496776855244168 
1.435070866019267 
-2.779804048315974 
0 
-1.952786528379396 
0 
1.885617125791846 
0.5754128392879158 
0 
-0.009720147392101522 
-0.7855426042667299 
0.8686050266818016 
0.2858022455162107 
0 
-2.642333545970054 
-0.7578567630155248 
-0.2016215841261285 
-0.3170403384519955 
1.613120476869647 
2.473440853172093 
1.005244026704451 
0.6142936888029116 
-0.6931070451842083 
0.2155812621007013 
1.60621775351951 
3.62216730722938 
0.9285999187532363 
-0.623386146976679 
0 
0 
1.028578407348383 
0 
0 
0 
1.689785505707742 
-3.720254878434017 
0 
0.717676620136979 
0 
0.8979037679382227 
-0.6117422024355935 
-0.1768665265044512 
-0.6108156731730167 
-1.27252138523318 
0 
-1.397768217577935 
-3.533652125355564 
0 
0 
-0.9079012458038218 
0 
0 
0 
0 
0 
0 
0 
0 
3.305793305073635 
0 
0 
0 
0 
0.7080486818552 
-0.622943361774465 
0 
0 
-3.662188013866412 
-3.662982870749092 
-0.06058746299852831 
-1.84307262591767 
0.8572286014126879 
-1.985687722115871 
0 
0 
-0.8192764647296757 
1.960221662605898 
0.9983547138374246 
-0.6940168325758805 
0 
0 
-0.7582244432333902 
-1.849893167833562 
1.396142965840802 
1.148475316383256 
0 
-1.23370435979191 
-0.4026597166715682 
-1.001150808327223 
-2.19767884113491 
-1.93225906790448 
0.1479276767399264 
0.6337640367608028 
1.465286828095414 
0 
0 
0 
-2.000592771829078 
0.9291713264307651 
0 
-0.5942059305326433 
0 
0 
0 
0 
0 
0 
0 
0 
2.094132915847835 
-0.5177397786143322 
0 
0.7210699631843532 
-0.9650382559321058 
0.05631063394884282 
-0.4295796955517002 
0 
0 
0.6307423395963869 
1.723788879002403 
-1.170550357956906 
0.7622545389808933 
0 
2.48215784691287 
0 
-0.2794726039820132 
0 
-2.864535856384556 
-0.4635690480245216 
-0.1592741151669549 
0 
0 
0.4162537550412739 
-0.5703004424635134 
-0.4390191062554836 
0 
0 
0 
-1.671004101686524 
2.78879320918152 
3.430615587836697 
0.9418409914419394 
2.103823126851355 
0.7394614598195259 
1.218489592038232 
-1.560591743164008 
0 
-1.121242236352278 
0.7064126415663452 
0.467708655331759 
0 
2.690048574414146 
1.112606956337697 
-0.2067586533673041 
-1.688871952347718 
-1.308275460977505 
-0.242453532040082 
-1.699212391015903 
-0.3814059849185795 
-0.1182294218496744 
4.535676568313903 
0.5819142683061006 
0 
-2.931033284965145 
0 
-0.5957018157788346 
0.7953939143919979 
-0.09331115271944168 
0 
0.8082350509926808 
0.2704401728896897 
1.250661212866572 
-1.982691412889024 
-0.6712278088752297 
0 
0 
-0.02760820691591098 
0.3740523648158681 
2.510941387511147 
0 
-0.2289467835155822 
0 
-1.900320574595206 
1.824643534400897 
-0.7148697142572891 
0.3974292010724538 
0 
0 
-2.898239673283972 
-0.2453277333453249 
0 
0 
0 
-0.6824184044453289 
-2.374869769222506 
-1.133588040014838 
0.7882525328542794 
-2.300593204851709 
0 
0 
-0.7685189182477784 
1.365747733535105 
-2.659902404429078 
0.723824628673399 
-0.02030263702424721 
0 
0.3077616066478744 
-0.2799163837798251 
4.35053738493785 
0.7585914972396505 
2.783346149203109 
1.447993910058099 
-2.185775801880379 
-0.008030280191840404 
-0.6170536142046269 
0 
-2.463578335776163 
0.4110882699512991 
-3.989863994746656e-17 
1.270588700821219 
-1.178024239287794 
0 
0.7420280659008464 
0.629610506164923 
0 
-0.6084208146088248 
0 
-1.084600202530484 
0 
-2.551049199848773 
0 
-3.199567633331378 
0.39943165547433 
0 
0 
0 
0 
-0.692058047163984 
0.5550703653067524 
0 
-1.422614989546508 
0.3553962890172058 
0 
0 
-0.5976863202997043 
0.8213675416037022 
0 
0 
1.978061809544272 
0 
3.469066738027849 
2.840475570420136 
-2.877175370354075 
0 
0 
0.09002271408136008 
0 
0 
-0.6785718082616337 
-0.6785718082616337 
0 
3.305407412059263 
-2.020288387577437 
0 
2.301035875372935 
-0.2187148298843839 
0 
0.4239031233750951 
1.445628384907034 
-0.7922144368112239 
1.145194068284344 
0 
-2.493045768210467 
0 
-0.5819064073901001 
-3.20610583071139 
-1.844428031051903 
0 
-5.017846270265183 
1.07028497130533 
0 
1.552982590619101 
0 
0 
0 
0 
0.8312390949243064 
-0.1460905209602432 
0 
0.9772323288814471 
-0.573830351062685 
-0.36077858546848 
-0.4458803872579135 
-1.20503197050487 
0 
0 
3.116901252616053 
-2.344774168010058 
0 
0 
-0.8421252262360756 
-2.11059928324303 
0.1217401195201765 
-0.1772195635732666 
-1.841186422599683 
0.4576212432801564 
0 
0 
3.333183525524114 
-0.4696165188629715 
0 
0.4820089439478458 
-1.023182156149752 
-0.8482986407613914 
1.616178792646953 
-0.1821701015275894 
-2.501373469477633 
0.5846366061523488 
-1.05708852096753 
0.2720534660989757 
2.236599374734782 
3.066447166507633 
0 
0.7790285873787204 
0 
0 
-0.359506539935104 
0 
0.5644395249998652 
0.06415014453889699 
-3.038092683960412 
0.9913799560943343 
1.246376253795331 
0 
-2.140478895742382 
2.007608449098471 
0.1615368824773966 
4.069316834447084 
-0.8809829664089802 
-0.8514184562779631 
0 
0 
-1.822995711462562 
0 
-0.2734975585237577 
0 
0 
0 
-1.03914157131009 
-0.4464857414436392 
1.101153377290323 
-0.2167989650736707 
1.038866224646545 
3.515269316226639 
0.1452519446350595 
0.7800528444671673 
0 
0.1433735548055468 
0 
1.347591635255388 
0 
0.4615578064684505 
1.077142905050812 
-0.3853135891987367 
0.984265991662347 
0 
0 
-2.486158544632233 
0.954722250723573 
0 
-1.72746064961631 
0 
-0.3215972593265747 
-0.4404661715060458 
-1.867597553755519 
0.665486053075267 
0 
-0.8278151035815746 
0 
0 
0 
1.70398438210109 
-0.0986772500117821 
3.328910604302745 
3.391977746910173 
0.8307310154568417 
2.010745627485402 
-2.888804016161727 
0.5017409363056173 
3.470667783073374 
-1.69430457306388 
1.642634625319916 
0 
-1.159385922111859 
0 
1.758129893971303 
0 
-2.997522142302151 
0 
0.2032800099777973 
0 
0.3375458656274404 
0 
-0.8284015089461824 
0 
0.05012331389788653 
0 
-3.428901840921603 
-0.8049018316185688 
-1.549777171626603 
1.360967917521205 
0.7754820622729826 
0 
0 
1.688173519841668 
0 
-0.02676175027088395 
0 
0 
0 
-0.6852369227440759 
-0.6379853856783295 
0 
0 
0 
1.322009679163769 
0.7160570193774393 
-0.9504901967529757 
-0.4174175577169285 
0 
0.9979101914316988 
0.4278777082422021 
0 
-0.5417296392613209 
-0.3106384113757787 
-2.02280626944679 
0 
-0.3384759933944829 
0 
0 
0.5502718573760688 
3.064767763735082 
0.716745121943023 
0 
0 
2.486422595652888 
0 
1.665458374585044 
-0.1778506392233739 
0 
-0.8574715349689155 
0.4943940534395173 
0.3502710990868775 
-1.116759906077094 
0 
0 
0 
-1.267110867499109 
-0.7941224542886181 
-0.5979537618298911 
0 
0 
1.251832415712974 
-0.7270195624058807 
1.342491158389365 
-0.464525340248283 
-1.151957445798443 
-0.5604720876294208 
2.625164300207057 
-1.133916899873116 
1.311067465521885 
-0.2798028003930741 
-0.5316056612452895 
-1.41968867396009 
-0.8889777363813643 
-0.2067586533673041 
1.871297221690077 
1.148991079256985 
-0.2997138280927823 
0 
-0.306316146357297 
0 
0 
-0.1073893859693268 
0.1217241401108156 
-2.765515643689268 
0 
0 
-0.6874508831624163 
-0.456227376955451 
0 
1.059796236625614 
0.2638684822111901 
0.3634556329333117 
-0.7987340903930336 
1.097191886389204 
4.963154029904176 
0.01762965546995594 
1.287962723543746 
-0.09114079714595651 
0 
6.341908396026125 
0 
1.921614040510134 
0 
0.7950767369538517 
-1.3346731783627 
1.575267187608004 
2.677721079714523 
0 
-1.659345087522783 
0 
-1.714041451259907 
0 
0 
1.214590670454591 
0 
0 
0 
-0.9965283097366624 
0 
0 
-0.5442256980886619 
0.738595463503514 
0.7672863559201257 
1.859462352687875 
0 
0.08709234935219161 
-0.2566305426311218 
-5.155230584878689 
0.343595174974774 
0.5816366506881562 
0 
0 
0 
0.5105551773935001 
0 
0 
0 
0 
-0.5336366840240406 
0 
0 
0 
0 
0 
-0.5409886412284431 
-0.2337204297308812 
-0.7911061958363688 
2.307910326616836 
-2.959420726260116 
-3.825243180832245 
-0.07708956122596733 
0.001814667577645449 
0 
0 
0 
0.8010057651136515 
0.8128423085210972 
0.4275843244990487 
-0.375420244488234 
0 
-0.6925582424355604 
0 
-0.8166412494028086 
0.4937325793930178 
0.1919622382200691 
-1.730416062752278 
0.5067798572885718 
-1.978280978565717 
0.6320263264143169 
0 
0 
2.188941199914818 
0 
0 
-0.5850556765777817 
-0.4066111532504075 
-1.208371108219379 
0 
0 
0 
-1.583788212403762 
3.504776438913268 
-0.1756778376844967 
-0.895190963609714 
-1.369202782147083 
-0.324695449118685 
-1.663765729063243 
0.1182292180728163 
0 
-1.442281320755524 
0 
-0.2960665884669217 
0 
0 
0 
-0.297660387539704 
-0.99148502856405 
0 
1.010668168351397 
0 
0 
0.17410221740697 
0 
0 
-0.3320657826977837 
0 
-0.352986316253386 
0.2932374153896266 
1.416658827268812 
-0.6861978995683803 
0 
1.268300900238376 
0.7911034082162882 
0.3643160954019565 
0 
0 
-0.3208324221026014 
0 
0 
-1.485930492151196 
0.1494690757731255 
0 
0 
-1.380726579124933 
1.094203259115982 
0 
0 
-1.001425513021329 
1.365128518427781 
0 
0.6440693199587237 
-0.3237064436830714 
-0.1270593386346321 
-1.126007753743388 
-2.491109137984532 
1.396559376774571 
-0.300652353196578 
0 
0.7806897051827894 
0.7919251109297315 
0 
0 
-0.1139397388439628 
-1.011654362257009 
0 
-0.5865708994829679 
-0.6519239302074329 
-0.6417182745334783 
0 
1.240100384408929 
0.4025166384054705 
0 
0 
2.307949883313851 
-0.4874824812963521 
-3.218473458708526 
-3.679632560275595 
0.5743297863783712 
0 
0 
0 
-0.8266250490524277 
-0.4363863890111694 
0 
0 
0 
0 
3.84740465261558 
-2.141061526781947 
-0.3321165376873374 
-1.34349182335477 
0.8583607943704755 
-0.4836450154170592 
0 
0 
0 
0 
-1.730090161525 
0 
0 
0 
0 
0 
0.6584621474015034 
0 
-0.9075137330591677 
0 
0 
0 
-0.8798412457739113 
0 
-0.8338257050195826 
-0.4115736089214718 
0 
0 
-0.8197341296104855 
0 
0 
0 
-0.6816012309019344 
0 
1.120189858801609 
0 
0.04318424552149883 
-1.879262802387555 
-4.090379421256934 
0 
0 
-0.352986316253386 
-0.8342917087706686 
0 
0.3210608032722276 
0 
0 
0 
0 
0.7239634552205725 
0.2572024530172499 
0 
0.982813235289115 
0 
2.258866012313121 
-0.9543628042365586 
-0.6246128537804747 
0 
0 
0.4257651098030908 
0 
0 
0 
-0.7381154713363275 
6.664161935631149 
0 
-0.381157874677468 
-0.4661343485684858 
0.4841743187875079 
-0.08335739703321281 
0 
-1.038939912445211 
2.749785345122774 
0 
0.9004083980935921 
-0.638757844502399 
-0.4035977758829587 
0 
-2.551131235343561 
0.6830998295397156 
0 
0 
-0.4195826801711762 
1.187138093003745 
0.3480547504426824 
-1.095566943870617 
-1.760547601383007 
1.265337411540137 
0.3165409439064236 
0 
1.040953441004061 
0 
0 
0.6838996437541284 
0 
-0.5503387306042132 
0 
1.444689210181354 
0 
0 
0 
2.847072039289722 
0 
0 
1.68647595214543 
0.4545567193366727 
0 
0 
0 
-0.4746908388768103 
0 
-1.925085688780487 
-0.7148504989538337 
0.1412108091793113 
0 
2.279750358508263 
0 
1.222826420834463 
2.523339228273962 
-2.672628330091117 
0.5310114436644776 
0 
-0.9646155022888687 
3.690097297252278 
0 
0 
0 
-1.818096118967408 
-0.8399457099593047 
1.509726633088482 
-0.4782924537622064 
-1.525686243884867 
0 
0.743429356042247 
-1.698764111936253 
0.06916336070107693 
0.9580546760430499 
0 
0 
0 
0 
0 
2.236357072023516 
1.152107143292 
0 
0 
0 
-0.5001216245916146 
1.449727585899961 
1.090878206148157 
0 
0 
-0.1978490724543673 
-0.4863654081446281 
0 
-0.8514529333724452 
0 
2.533197958926215 
0 
-0.4522618602418849 
-2.363508361059209 
1.555965364558737 
2.282385261606097 
0 
0 
0 
3.082496260155868 
-0.3419508069029735 
-3.799887739337595 
0 
0 
0 
0.2464372413865022 
-0.2569418917604194 
0 
0 
0 
-0.417739692301013 
0 
-0.5558261739563792 
1.321305336758742 
0 
0.2647798879043268 
-0.8645581476479665 
0.2440855345045939 
-0.08795328857025782 
0.5325825999507803 
1.323993413966907 
0 
0 
0 
0 
-1.407871333326684 
1.028869821610437 
-0.4015628452378777 
1.948965663956684 
-0.02371440834075274 
1.301210384782184 
0 
-0.2970604247755911 
1.995577412661437 
-1.056121500821128 
0 
-1.89764031587781 
0 
1.799735520799818 
0.3549208162768608 
-1.91916521046479 
-0.5990078220913662 
-1.926647882676322 
0 
1.733723575118115 
1.169561257801278 
-0.09319939006246979 
0 
-1.494354019121763 
0.2768282373530986 
0.4141195176900907 
-2.661773293029743 
0.3713265694932794 
-0.8779555668903753 
0 
0 
-1.478418307621947 
0 
-1.97300374439297 
-0.4284774238736761 
-0.5392906316756149 
-0.482996663770542 
-4.169017405261324 
0 
0.5232403295046898 
-0.7355023590104155 
0 
-3.644212624317648 
0 
0.7707499482143666 
0 
-5.192426539950717 
0 
-0.5397669949182513 
1.13256140382857 
2.587715865302947 
0.9320568159921684 
-0.623414168554753 
0.1760375467386809 
0 
-1.512890660197813 
0 
0 
-0.7641776550733667 
0 
0 
0 
0 
0 
-0.8960119796267406 
-2.754240038270721 
-0.3220598479740294 
-0.8384921030413114 
-0.432203634091941 
0 
1.258482260541335 
0 
-0.9790104007453245 
0.3617040192463536 
0 
0 
-0.06143800214976482 
-2.639943698997358 
0 
0.6648111381252094 
0 
-0.5764275490304203 
-2.792245249857028 
-0.5989127686535706 
0.6239520684460207 
0 
2.573886683904709 
0.3670142544972409 
-1.464624743878047 
0 
-0.8211816005377319 
-2.204864960803125 
-1.493465139064426 
0.09131975409576042 
0 
-0.08148275446494826 
-0.8121931175324383 
0 
-0.719091985533221 
0 
0 
0 
0 
0 
0 
0 
-0.01273194521637934 
1.418627729790754 
-0.5470271947660084 
1.823262975677538 
0.7625864111727054 
0 
-6.223719162112646 
0.8015980861127032 
0 
-0.4129385799378671 
0 
1.085363001788136 
0 
0 
-0.195296767545617 
0 
0 
0 
0 
-4.710526954099882 
0 
0.4878332012056741 
-1.450868827462126 
0 
-0.6067535793476795 
-1.335724247144503 
-0.4737603329199692 
0.8837428124002318 
0 
3.216871430181804 
0 
0.2441000405391299 
0 
3.011023265585187 
1.883938355613157 
0 
0 
0 
0.2301604442449927 
-3.016766374759921 
-0.5881556468341832 
0 
-0.6893067909989706 
0.8245024999362202 
0 
0 
0 
0 
-1.080759009478954 
0 
0 
0.3466774296325457 
0 
0 
0 
-3.171345986788987 
-0.1297054003741633 
0 
0 
0 
1.606797295406797 
-1.405665490772529 
1.330684416237712 
0 
1.826177805780091 
2.349611328166312 
0 
0 
-0.2683411553362478 
0 
0 
0 
0 
0 
0 
2.282852643362235 
-1.136680096705572 
0 
0 
0 
-0.376128391064491 
-0.0670253057831179 
1.625533763830214 
0 
0.1522796861779612 
-0.7218728949889266 
0 
2.78994026711001 
-0.7446383495843605 
0.3386837191232523 
2.380924129412496 
0.4946514576189242 
0 
0 
0 
0 
0 
0.1269626688317939 
0 
0.4000827133277434 
0.2166614225166795 
0 
0 
-0.7947297887671428 
0.2556478466698515 
0 
-0.8327660461090493 
0 
0 
-0.4025122100369201 
1.001378033818783 
0 
0 
0 
0 
0.6431506067247148 
0 
0.3485119916345761 
0.7457836700379101 
0 
-0.6810082151935245 
-2.000615304455332 
1.28555300201145 
-0.2178623654046707 
0 
0 
0 
0.9940945806951929 
1.263448201426968 
0.5426071637872877 
0 
0.4418541104560595 
0 
-1.73899846702676 
2.016808232853023 
0 
0 
0 
0 
0.5618077293953202 
0 
0 
-0.6039693556420977 
-1.847060487425403 
0 
0.5971221357957414 
0 
0 
-0.231837036696362 
-0.7594957162876478 
-0.1055560547394247 
-0.6740614798816945 
0 
-2.265156864874099 
0.4676479610448808 
-0.5127193599883609 
-0.9125542146876046 
0.6365903640455207 
-2.678644560863113 
-3.899927188560292 
0 
0 
0 
-0.817795312156554 
-0.1924458019576302 
0.3137495795644999 
0.5941399069602823 
1.749985337568619 
0 
0 
0 
0 
0 
0 
0 
0 
0 
0 
-1.9172810463491 
0 
1.009559451627566 
-1.257135806617866 
0 
0.4943135971627791 
0 
0 
-1.334836504580582 
0 
-0.08581835323413596 
0 
0 
0 
-0.5509740278602362 
0 
1.084296912654839 
0 
2.117703895046944 
-0.9170666507485811 
-0.8120158086164879 
0 
0 
1.458017314978593 
0 
0 
0 
0 
0 
0 
-0.9355855622154342 
0 
-2.434578609215351 
0 
0 
0 
0 
0 
0 
1.5459799646666 
-0.3887909744343203 
-0.3887909744343203 
0.3838614814796063 
0 
-0.6989413418369423 
1.920420769639168 
-0.6978305177868818 
-0.2452826087482341 
0 
1.072033698758755 
0.9624467061766485 
0 
0 
0 
-0.8664814504452514 
-0.1491864627430243 
-4.023183595135121 
-1.230108085743907 
-1.437229709106321 
0 
-1.778585793331583 
-0.4742857204929938 
0.3430939724983158 
-1.228182913937641 
0 
0.2172351685130698 
0 
-1.138158380581526 
0 
-0.4479092737842315 
0 
0 
0 
0 
-1.762940847459544 
-0.5610790183091618 
0.6415677475823381 
0 
0 
-2.61203458292369 
0 
0 
-1.261839620271692 
0 
-0.2900389545383905 
0.544872804019305 
-0.154380161920711 
0 
1.450434225207059 
2.273932166977667 
-1.544939180174404 
0 
0 
0 
0 
1.564800558296454 
1.716542225530344 
-0.2998128083266048 
-0.4805083534910555 
2.262344190605774 
-0.4563563742859865 
0.384761274265185 
1.760164118850915 
-1.394085472547741 
-0.08400590000457263 
-0.1788900244133834 
0 
-2.996556764647949 
0 
0 
0 
0 
0 
0 
2.792341331024445 
0 
-1.297116985554224 
-0.1699403306140261 
-0.7081798204489952 
-0.6321722855628726 
0 
0 
0 
-1.04200746187872 
2.061384063791726 
-3.045632502505121 
-0.4714540625537549 
0 
0 
0 
1.254165857496208 
2.326514074589484 
0 
0 
2.676540504387058 
1.499786716411975 
1.861918490199377 
0 
0 
-0.2882003837268413 
0 
0.8933766804728962 
-1.211050971166453 
-0.3267331727730657 
-0.6378528227266461 
0 
-1.491303543489172 
0 
0 
0 
0 
0 
0 
0 
0 
-0.2682233907021306 
0 
-0.8243392102306808 
-0.6990611354595274 
0 
0 
0.5440495366168685 
-1.900681984888157 
0.553095560379833 
0 
-4.089536156937004 
0.1213951665648289 
0 
0 
0.08428396299533299 
0 
0 
4.715931239029603 
-2.544164059096713 
-0.1524820265222479 
0 
1.046146258417179 
0 
1.542747817804867 
-0.4851186687333687 
0.5089577190827125 
0 
0 
0.1986279132801796 
-0.3776356382148193 
1.253444865755651 
0.9582591771232911 
-0.6785642065700017 
-0.6259278387178379 
0 
0 
0 
0 
0 
0.6655591627061007 
0 
0 
0 
0 
-0.5636160381681492 
0 
0 
-1.169605174627996 
0 
1.144104611592419 
1.704176450153707 
1.553305484391881 
0 
0 
0.4306311038724478 
0.009912196602855878 
-0.6925521708956438 
3.605613525587896 
0 
0.671020197931814 
1.429348538592627 
3.705017583649899 
-0.07178615354890548 
-0.07437616244933266 
0 
0 
1.221337044535721 
0 
-0.3937601138663359 
-0.9603724825621331 
1.970582976946571 
0 
0 
0 
0 
0 
0.5760457522922593 
-0.3970631545228558 
-1.976200065468239 
0.1476842898859685 
0 
0 
0 
-0.9216200588039669 
0.76237640309481 
-2.158245702933326 
1.314542582600311 
-0.195296767545617 
-1.079883694683607 
0 
0 
-0.5702155834865498 
0 
0 
0 
2.295995814076369 
0 
-1.170502290864055 
1.051601530429292 
-0.4136900935247503 
0 
0 
0 
0 
0 
0 
1.031338956975315 
-0.6513097311287461 
0 
0 
0 
0 
0 
0 
-3.517060991458198 
-0.8842491165771607 
1.172610359175402 
0 
0 
0 
-2.01628596724843 
1.393086759697335 
0.1546601116055277 
-3.6523566160539 
2.256683302766977 
0 
0 
0 
0 
-2.631926318717533 
0.7270488029739303 
-0.5636594977633999 
-0.3045760688687984 
0 
0 
3.203489727417444 
1.113464839610505 
-2.073242529970278 
-2.136898943603055 
1.058389820920794 
-0.02462651898775543 
-3.776573598883595 
0 
0 
-0.02830344829641455 
3.353951900075104 
0 
0 
0 
0 
-1.414666784800104 
0.931208525002201 
0 
0 
0 
0 
0.5782364511684454 
-0.7203559483047529 
0 
0.8109998437998623 
0.8478579003280198 
0.2838099811993587 
-0.2634173574560754 
-1.485591072892796 
-0.2438985338044035 
0 
0 
-10.43690073486455 
-0.4641938698381237 
0 
0.009138581326525041 
0.1522796861779612 
0 
-0.2573091310743637 
0 
0 
-2.366241926538834 
0.7684913646953767 
0.669128831434886 
-0.5043055483245171 
0.4975417264944676 
-0.6558590879011218 
-1.055076149155419 
0 
0.7525702095137544 
-0.787848276231752 
0 
0 
0 
0 
-0.2575502354895693 
0 
0 
0 
0 
0 
0.7675435874072126 
0 
1.559886406830029 
0 
0 
1.52893065022288 
0 
0 
0 
-0.5023933659841738 
0 
0.7518024055379023 
0 
-0.2791888353527806 
0 
0 
0 
-1.056408330640543 
0 
-0.5881161667590055 
-1.226482585552489 
0 
0 
0 
-2.827652725556259 
0.6205886446293888 
0 
0 
-1.243342930635014 
0.2227453751816157 
0 
0.5217637884897851 
-0.1740660256925803 
0.6756335699824969 
0 
0 
0 
0 
0 
0 
0.04608935981294777 
1.658198982699213 
-0.7275289559209223 
2.482912778512911 
0 
-0.2802122535948773 
0 
0 
0 
0 
0 
0.3896813626713807 
0 
0.7080794487716782 
-0.7685565518113406 
0 
0 
0 
0 
0 
1.358288828725592 
2.570464479557771 
-3.689616308885845 
1.371956514636843 
-1.817552793353955 
0 
0 
0 
0.1446079551892706 
0 
0 
0 
0 
0 
0 
1.227200939559005 
-0.6767395881438695 
-2.477217504609009 
0 
0.6168223513365271 
-1.029120595347047 
0 
0.8786416216818572 
0 
0 
0 
-1.261540799456302 
0 
0 
1.071995408563551 
0.4118320562953274 
0.6603125055306576 
-0.4634820324288058 
-0.6367144171423996 
-0.7011314700125788 
0 
-0.3361080407296367 
-1.561999556485867 
-0.0868079118987722 
-0.4025122100369201 
0 
0 
-0.4420347011593911 
0 
1.797145213791598 
0 
-0.7974388634896572 
0 
1.151538645333503 
-2.78552304803695 
2.114967584399307 
0 
0 
0 
0 
1.444261909827367 
1.626868971354081 
0 
0 
4.617272012527685 
0 
-0.535005755484696 
0 
-2.962615059815609 
0 
0 
0.1891251089183587 
-0.9079071794330859 
0.9722532561965078 
0 
0 
0 
0.4901757784082825 
0 
-1.358109261721554 
-1.936064666570274 
0 
1.610740979094004 
0 
-5.625738407225419 
3.309912981975678 
-0.8005276630008291 
-2.456355232211807 
0.4678852800149502 
1.338996933750508 
-0.6167797544547348 
0 
0 
2.284511761592982 
0 
0 
0 
0.3636373890077632 
0.5505811290383725 
0.7066824324523658 
-0.4853244422301647 
0 
0 
0 
0 
0 
1.336121408928657 
0 
0 
0 
0 
0.5538298265627983 
0 
0 
0.1697011000390713 
2.883185752247264 
0 
0 
0 
0.9144017428198491 
0.5549743829333329 
0 
0 
-0.2697413951161826 
1.350640367433899 
0 
0 
1.47698175648754 
0.1968432839327909 
0.8375752868685941 
0 
0 
-1.234777045704377 
0 
0 
0.5658122101989095 
3.513266906860604 
-2.423608315366368 
-2.051377447346477 
-0.5076818799417016 
0 
-0.7614744898931953 
0 
-0.04721613760344031 
-1.478992328865255 
-2.698576844995375 
0.2743329184847426 
0 
-1.299024697411798 
0.588358259976958 
0.765396368763258 
0.1867207146607837 
0 
0 
-0.7195313010709524 
0 
0 
3.723696821217005 
0 
0.3759230426748368 
0 
-0.4771133849380853 
0 
0.5752308002185399 
-1.020008742724798 
0.6764049645080255 
0.1318538723718594 
0 
1.018396215806507 
-0.9297097663491931 
0 
0 
0 
0 
0 
0 
-0.7639988629107071 
0 
0.4520688111314074 
1.143081851694884 
0 
0 
-1.365443949493292 
2.11646502056512 
0.8321331664836105 
0 
0 
3.433675904584114 
0 
-0.9330915579688898 
-0.3988907469077683 
-3.415234894058175 
0 
0 
0.7819270914407193 
0 
0 
0 
0 
0 
0 
0 
-2.848653007132089 
0.3288769700992297 
-0.4782924537622064 
0 
0 
0 
0 
-2.446479777591505 
0.1699871890066231 
0 
1.543941828621009 
-1.531007286163632 
0.5247976429540262 
2.863252675133935 
0 
-0.4511517383618256 
-2.848020166367903 
0.6993354489766092 
0 
0.623225960294134 
0 
-1.571150381627122 
-1.549201409245589 
0 
0 
0 
0 
0.3626371339032635 
0 
0 
0.3116180695784462 
0 
-2.533661041715175 
0.0476189965507036 
4.219563974986327 
0 
-1.209659260161824 
0.4469562284081396 
0 
0 
0 
-0.05256458355886225 
0 
0 
1.105805882093363 
0 
0 
0.5146786080194556 
0.1945029188264219 
-2.40082589447514 
0 
-1.037839762116284 
1.191888249542046 
-0.5607241660032637 
0.6169519772422294 
0.6169519772422294 
0 
0.6817563350563548 
0.1232489375660764 
0.02285366549268695 
0 
0 
0 
0.6164369498211445 
-0.8178664528375785 
0 
0 
0 
0 
-1.316825721510171 
0 
-5.955135871760384 
0 
2.604897224382127 
0 
-0.66068087013356 
1.222612260360271 
0 
0 
-0.2834754462752785 
0 
0 
0 
0 
0 
-0.1323941433305274 
0 
0 
-1.182758842758662 
0 
2.01893411272884 
-0.638757844502399 
0 
0 
0 
0.4431101349410558 
0 
0 
-1.60982064354124 
1.544571135066465 
-0.1452878582499795 
0 
0 
0 
-1.559556048983009 
1.61213500916113 
-0.3625351320869368 
0.9879015290418967 
0.6389030408467752 
0 
0 
0 
0.868107506962133 
0 
0 
0 
0.7952990567918893 
-1.921474648406656 
-0.3662392041084467 
0 
-0.3883036912981663 
-3.62991691968322 
-0.2985490450125163 
-0.4383451605157861 
0 
0 
0 
0 
1.016368130337741 
0 
-0.5370602853459661 
0 
0 
0 
0 
0 
0 
0 
0 
1.012012417736314 
0.2470302529044798 
0 
1.434555253907617 
0 
0 
0 
0 
0.8187239600858834 
0 
0 
0 
0 
0.7201676689553411 
0 
0 
-0.4408197585091675 
-0.06354752510774744 
0 
1.320826493321094 
-1.00577983352426 
0 
0 
0 
-0.8103717818236257 
0 
0 
-0.417546321967635 
0 
2.662663293922539 
0 
0 
0 
-1.741842316541394 
0 
0 
2.047274908222129 
0.4036101532042849 
0 
0 
0.6135348666062991 
0.5166797402550013 
0 
0.9034694319204186 
0 
0 
-0.5565243648866195 
-0.5544836489278566 
1.800862281059653 
0 
0 
0 
0 
0 
0 
0.3380789875352974 
-0.4729146979159249 
0 
0 
0 
-0.5219217669962406 
-2.475020863842801 
0 
0 
0 
0 
0 
0 
1.648248307732011 
-0.4964401416668864 
0 
-0.7271446136752204 
0.5877925497183676 
0.8909299708132595 
-0.01697462888954682 
0 
0 
-0.6505592638583866 
0 
-0.348599553620772 
1.066181717539988 
-0.7515671239423847 
-0.1099536652323412 
-1.108969740068123 
0 
-0.2852407973293303 
0 
-0.6902816781607916 
-0.8629134553951514 
0 
1.690184793929672 
0 
0 
0 
0 
0 
0 
0 
0 
0 
0 
0 
0 
0 
0 
0 
-0.2049942295616034 
-1.391662045070568 
-0.8323075601546506 
0.8019068821189905 
1.698144103427554 
0 
2.0111756614871 
0 
0 
0 
0.3317519911780836 
0 
-0.530108220659364 
0 
0.2091489888468513 
0 
0 
-0.6449687908093756 
0 
2.822235838418963 
0 
-1.500874212375523 
0.2437555553033481 
0 
0.4171050354266583 
0 
0 
0 
0 
0 
0 
0 
0 
0 
0 
0 
0 
2.370045735881926 
0 
0 
-0.4852333549820113 
-1.514682526027217 
-0.2113656693802877 
0.5947875490538291 
0 
0 
0 
-0.4337563913968667 
0 
0 
0 
-0.2258753447017292 
0 
2.267691037200886 
1.359441538788305 
0 
0.2609746617549323 
0 
0 
1.253853252241637 
0 
-0.6548424705822072 
0.9356577124770271 
0 
0 
-1.830230750319039 
0 
0 
0.5346307748394861 
0 
0 
0 
0 
0 
0 
0 
-0.5883278145146377 
0 
-0.3673524097623703 
0 
0 
1.333479495190779 
-0.9211117814682588 
-0.710029600692679 
0 
-1.032897476937018 
-0.3728738652622551 
-0.1202379241167507 
4.145157471516946 
-0.385292956271028 
1.62020880315675 
3.1901432229103 
0.9795457803943857 
0 
0 
0 
0.9308849041901591 
-0.2772622518473682 
0 
0 
0 
-0.3764524758298847 
0 
0 
0 
-1.233135290889776 
0 
0.0890203035184096 
0 
0 
1.703202533761573 
0 
-2.260457518823617 
-0.6776261104186388 
-0.4151389996709349 
0 
-0.40470475815806 
0 
-0.2880483859387222 
0 
0.3803087933257008 
0 
0 
0 
0 
0 
0.2809571552222846 
0 
0.8181806940449033 
-0.4772385330950314 
0 
0.6344736799597689 
0 
0 
0 
0 
0 
0 
0 
-1.427244573082718 
0 
0.411937880651282 
-1.159671085699222 
0 
0 
0 
0.3875580259051777 
0.06713297964932759 
0 
0 
0 
0 
0 
0 
1.860945605903399 
0 
0 
0 
0 
0 
0 
3.25670670845785 
0 
0 
1.466759090846759 
0 
0 
0 
0 
0.8412419197316214 
4.568469577976894 
0 
1.154512336767738 
0 
0 
-0.4418226097788228 
-0.7586941526733596 
-1.981411434229713 
0 
0 
0 
0 
0 
0 
-1.891591537594972 
3.223962370403991 
-1.020403777849121 
0.160771776004261 
0 
0 
-0.677156464308911 
0 
-2.277063398585479 
1.383947350931304 
0 
0 
1.2505669704892 
-0.53707026091549 
0 
-1.001765704056141 
0 
0.2427205636081367 
0 
0 
0 
0 
2.500039576766669 
0.6556321463429149 
0 
0 
0 
-0.9002809605449683 
0 
-0.6398285582414345 
0 
0 
3.602326947937714 
0 
0 
0 
0.9821307734702819 
0 
0 
0 
0.3493899346545707 
0.9397491163046028 
-0.804526281712032 
0 
0 
-0.3784216717868901 
0 
0 
0 
0 
0 
0.7538348147617845 
0 
-0.979044668251591 
0 
0 
0 
-0.7793417272514267 
0 
0 
1.714398655129449 
0 
0.7997577526000715 
0 
0 
0 
0 
-0.3930948917450693 
-1.008187335953537 
0.9213693495908121 
0 
0 
-0.2896358042327449 
0 
0 
-1.43672520640722 
0 
0 
0 
-2.80933169237657 
-0.726731368274962 
0.4214430241131661 
-0.07648133138375086 
-2.123531935142261 
-0.4859318266239568 
0.2120422377863394 
1.276653258445457 
-0.8455420719363402 
0 
-1.303827280273964 
2.551488049183003 
-1.084364720417115 
1.100270210135867 
0 
0.5138940443153291 
0.4427531941539836 
0 
0 
-0.3521238831129139 
-1.094220968434207 
0 
0 
0.4447100846004359 
0 
1.095867038494625 
0.5408404090739435 
0.2967536178734471 
0 
0 
2.273808144679905 
0 
0 
0.01804668091020666 
-0.4648450701775897 
0 
-0.07840040869403404 
0 
0 
0 
-1.605208600770913 
-0.09061504297088194 
0 
0 
0 
1.822373413867818 
0 
0 
0 
0 
-0.4482180749653077 
0 
0 
0.06589634287409042 
0 
0.6440693199587237 
0 
0 
-2.523760946966083 
0 
-0.7425181343840608 
0.8596143903873613 
0 
0 
0.6838996437541284 
0.5201458514814533 
0 
-1.481526049710568 
0 
0 
0 
1.159682102706645 
0 
2.254680087113574 
-0.4012887033072041 
0 
-0.01871680619418191 
-0.5110282839898911 
-0.1617978318446339 
0 
2.439641700324191 
0.9270982151207455 
0 
0.2188506017057651 
-0.5119798871694343 
0.0251081050611397 
0.878256822559672 
0 
0 
2.797299226104236 
0.3769651774654029 
0.6588529310813833 
0 
-2.775279313255063 
0 
-2.210852072091093 
0 
0 
-0.99964943841025 
0 
-0.3640565509070289 
0 
0 
0 
0 
0.2321343580547602 
2.017005931809326 
-0.1972149838196389 
2.008960113725016 
0.2906496528863073 
-0.7957058704579542 
0 
0 
0 
0 
0 
0.6103334114819063 
0 
0 
0.6130234665826718 
-1.610578027649579 
0 
0 
-1.019951026302651 
0 
0.05029915567521336 
0 
-0.591823808096069 
-0.7298761734886449 
0 
0 
0 
0 
0 
0 
0 
0 
0 
0 
0 
0 
0 
0.6365313931200028 
0 
-0.4774191099408343 
2.038289354615311 
-0.1606452519444172 
0 
-0.8224243889924111 
0 
-0.6956202165454489 
0.7363862741915996 
0 
-1.197923785438974 
0 
-0.9553009005570017 
-0.7676995864658487 
1.5901368842518 
0 
0 
0 
0.4467268345116301 
2.65964353393038 
0.4467268345116301 
0.4467268345116301 
0.4467268345116301 
0.4467268345116301 
0 
0 
0.7149728614517997 
0 
0 
-0.4125004902457296 
0 
0 
0.1608593583887544 
1.626756963912082 
0.1458451735481923 
0 
-0.2919907777002917 
-2.798322250688046 
-2.631340973722463 
2.116104226224823 
1.180425555543499 
1.383044237863642 
-1.827626225729356 
0 
0 
0 
0 
0 
0.7403948650619979 
0 
0 
0 
0 
1.25799136795654 
0 
0 
0.7303106050921313 
0.6537079135434651 
-0.7889173060838324 
1.015495101127314 
-0.3496441930131746 
0 
-0.6396627583060104 
0.4937325793930178 
-1.158193405908727 
0 
-0.4850726915920057 
0 
0.4334221447969256 
0 
2.567344203011553 
-0.3908714285008986 
0 
0 
0.4877020047589367 
0.1771858581132099 
-0.6628496870720626 
0 
0 
1.051463140582408 
1.992972245090885 
0 
0 
0 
-2.37333804875528 
0 
0 
-0.7478958731067409 
1.138498269526482 
0 
0 
0 
-0.5901351321733327 
0 
-1.948218013855073 
0.4007617388596888 
0 
0.5170021949052778 
-0.701613618988426 
0 
1.263697649852963 
-1.041853716479415 
-0.8377753673896573 
0.8221765399025968 
0 
0 
-0.7845848774379334 
-0.7570876681047773 
0 
0 
1.190629660790138 
0 
0 
0 
0 
0 
-1.381003263622757 
0 
0 
0 
-4.335972279141959 
-4.260892548550917 
0.8839042715934456 
0 
0 
-0.2490388729518299 
0 
0 
0 
0 
0 
0 
0 
0 
0 
0 
0 
0.3874599936212764 
0 
0 
0 
1.530356835853474 
-0.277636058852155 
0 
0 
0 
-0.4644752026237142 
-1.632608732462757 
-0.5692744773754895 
-1.700056823148663 
1.632888497865095 
0 
0 
0 
0 
0 
1.015542556285132 
0 
0 
0.5731032702729244 
0 
0 
1.071077180397641 
0.8050685936387927 
-0.9197088242663818 
-0.3610583799337702 
0.8029005960089273 
0 
-0.4319917634738676 
0 
0 
0 
-0.2543709009691693 
0 
0.06713297964932759 
-1.288716753603714 
0 
0.004800650223420259 
1.371830345272264 
-0.01864716643159939 
0.4231754433472236 
0.7593913233723687 
-1.962157012887455 
0 
0 
-0.397211179128706 
0 
0 
0 
0 
1.287964542130782 
0 
0 
0 
0 
0.7408542764058973 
-1.620258635494553 
0 
0 
0 
0 
-0.6477278983314215 
0 
-0.04852584924257639 
0 
-1.010971788007064 
0 
0.2315163233368451 
0 
1.603460082752183 
0 
0.7527818345082701 
0 
0 
0 
0 
-0.6033784514432547 
1.666303810125882 
-0.3075101331173981 
0 
0 
0 
0 
4.944885334253147 
0 
0 
-0.9358443594808352 
0 
0 
0.2669985855713179 
0 
-0.1648039788114552 
0 
-0.155938568689883 
-1.026753352161059 
-0.2581559069191727 
1.320523627363551 
-1.610968998236796 
-5.424765234110047 
-0.9322617390450977 
0 
0 
0.659056591375957 
-0.156098743453229 
-0.8592526051199265 
-0.1417478901236593 
0.9352791035191602 
2.836165143900222 
-0.3131929732929605 
0 
0 
-0.3319234327175476 
0 
0 
0 
0.4796163179053078 
0.2327515557931298 
0 
-0.8997293713557984 
0 
0 
-0.4387765966160008 
0 
0 
0.4354435763897942 
0 
0 
1.375424028827599 
0 
0.447041735068491 
0 
0 
0 
0 
-1.559556048983009 
0 
0 
0 
-0.3937601138663359 
-0.6447070967321359 
0 
0 
0 
0.5239045471183459 
0 
0 
0 
-3.394256343429692 
-0.1802249455943041 
0 
-1.512040688834984 
0 
0 
0 
0 
0 
0 
0 
0 
0 
0 
0.4014510435307672 
0 
0.8388582478744717 
0 
0 
0 
-0.8912244966142991 
-0.6248012154642895 
0 
0 
3.76786465187104 
0 
0 
0 
0 
0 
0 
0 
0 
0 
0 
0 
-0.4078898570571303 
0 
-0.5862951018117086 
0.2311705958983971 
-0.3432366485898924 
0.2321343580547602 
-5.551115123125783e-17 
0 
0 
0 
0 
0 
-0.3467784472791831 
-0.08349288042335536 
0 
-1.076615379770056 
0 
0.5127357926954598 
-0.6044513517825797 
0.5695839614811754 
0 
0 
2.046802959090197 
0 
-1.031666777991573 
-0.8242655637001934 
0.01211091518096227 
0 
-1.993693606099821 
3.339426563677777 
0 
0 
0.9870125570835148 
-0.1347921661712453 
0 
0 
0.2058463023104897 
0 
0.0716987361861932 
0 
0.468693229480476 
0.2987998699574423 
-3.29209042919122 
0 
1.799521308234036 
-0.7561324975056877 
0 
-0.3950827367715353 
0.8863267701436345 
0 
0.4136046286126188 
0 
0 
0 
0 
-0.5586773950705287 
-0.3611665749508691 
0 
0 
0 
0 
-2.391285324234 
1.935140111124209 
-1.241521908755292 
0 
0 
0 
0 
0 
0 
0 
-0.6257409044346327 
0 
-1.04170658226263 
0 
0 
0.6310297458121829 
0.3529825201140841 
0.9924451258654631 
0 
0 
0.5941399069602823 
0.4478975065997666 
0 
0 
0 
0 
0 
0 
0 
0.5756086423820671 
0.2621718155943564 
-0.8628219387754864 
0 
0 
0.6567484075965221 
0.9842482810277732 
0 
0 
0 
0 
0 
0 
0.5286862686452466 
0 
-1.648106489545216 
1.087972338290299 
0 
0 
0.1672026740305456 
-0.04178436727659353 
1.142369487566089 
0 
0 
0 
0 
-0.9851544484558912 
0.4388266187782853 
0 
0.1608050919546394 
0 
0 
0 
0.898728198153705 
0 
0 
0 
0 
-0.8168806230007915 
0 
0 
0 
0 
0.9556497615735263 
-0.08722936602706964 
0 
1.827237823476771 
1.511047510232688 
0 
-0.4871765260786559 
0 
0.3337335528754591 
0 
0 
-0.4129385799378671 
0.7364312148947419 
-0.6270055384994635 
0 
0 
-0.4277503635264035 
0 
0 
0 
1.303888881615484 
0 
0 
0 
-2.163558425351635 
-1.567756058402577 
-1.322782720797957 
0 
0 
-1.543127675890951 
0 
0 
-2.969485502238926 
0.07812697856148559 
0 
0 
-0.0647698172512379 
0 
0 
0 
-3.948716625067035 
-0.02186585685913528 
0 
-0.3297438892257151 
-0.8759514011339832 
0 
0 
0 
0 
0 
0 
-0.4806871213035093 
0 
0.06682931438935795 
-1.132603499977648 
-1.743917675868782 
0 
0.5735960234072075 
0.5235976982675101 
-0.820796716911442 
-0.4821333726823591 
0 
0 
0 
0 
-0.2978512677926492 
0 
0 
0 
0.2251420615722295 
-0.06185383697743969 
1.902722140179769 
0.5847865692857972 
0 
0 
0 
0 
-1.16301420693218 
0.3676821466802358 
0 
0 
-0.3647213246276901 
1.374313497309865 
0 
-0.336783463600617 
0 
0 
-0.5865708994829679 
-0.2953183224210391 
1.809835626475549 
0 
0 
0.1151228168959172 
0 
0 
0 
0 
-0.4655134197669406 
0 
0 
-1.27039322383949 
0 
0.4877030350453742 
-1.072747926815572 
-0.3568470795845 
0 
0 
0 
0 
0 
0 
0 
0 
-0.4515230067488255 
0.5697063077767394 
0.2239344980253466 
-0.5620406896783551 
0.62123835173488 
0 
0 
0 
-0.4082348132767005 
0.692771833331998 
-0.3855980283595349 
-1.409903036487112 
0 
0 
0 
0 
0.5396299318011929 
0 
0 
0 
-0.2538138852504737 
-2.07013492887637 
0 
0 
1.247964989284856 
0 
0 
0 
-0.6015541589954533 
0 
0 
0 
0 
0 
0 
0 
0.6460522820471344 
0.2494358371997195 
0 
-0.744093977954561 
0 
-1.018271575527474 
0 
0 
-0.06598887145087544 
0 
0 
-0.2451814430020846 
0 
0 
0.3083142735094909 
-2.327394510374939 
0.4036101532042849 
-1.04386298711966 
0 
0 
0.535344536129198 
3.722906029003519 
-2.782509097750559 
1.115319682421632 
-0.3257363740612106 
0 
0 
-0.2718675630150518 
0.05308606103646586 
0 
0 
-1.289095613966111 
0 
0 
0 
0 
0 
0 
0 
-1.509266241017728 
0.7597565265761279 
0 
0 
0 
0.6819384506852103 
0 
-0.3059920020197882 
0 
0.2262969218101425 
-0.2616269496168681 
-0.5788724797308094 
0 
0 
-0.6218720855765453 
0 
0 
2.050337962295028 
-0.5248752434433176 
0 
0 
0 
0 
0 
2.929636238698902 
0 
-0.5761111679267207 
-0.3334513005072168 
0 
-0.7896251305968427 
0 
0 
-0.3751991187023694 
-0.4746908388768103 
1.465444662413737 
-0.5768991563171596 
-0.8485009625459708 
0.6440693199587237 
0 
0 
-1.035756275926771 
0 
0 
-0.2712324090511342 
0 
0 
0 
0 
0.4268130908824621 
0.6642639167801941 
0 
0 
0 
0 
0 
-0.9842077356463197 
0 
0 
0 
0 
0 
0 
0 
-1.540056020529957 
0 
-1.929161583338575 
0 
1.889418267835906 
0.5646740099776753 
-0.08429059805886994 
0 
0 
0 
0 
0 
0 
0 
0 
-0.1781438781990904 
0 
-1.981411434229713 
-0.6946515489173511 
0 
-0.4205571945234913 
-0.5620406896783551 
0 
1.442885755576391 
-1.028984505660185 
0 
0.216016925056981 
0 
0.549588166539616 
0 
-0.4491284525126715 
0 
0 
0 
0 
0 
0 
0 
0 
1.339823818635636 
0 
0 
0 
0 
0 
0 
0 
-2.305246485194212 
0 
0 
0 
0 
0 
-2.602124388896694 
0 
0 
0 
0 
0 
0 
0 
-0.4124495984988525 
0 
0.4489066829315656 
0 
0 
0.6299712343453864 
0.69667608103191 
0 
0 
0 
-0.2983064357170068 
-0.573830351062685 
0 
0 
0 
-0.5501539798761214 
0 
1.82331863880329 
0 
0 
0 
0 
0.4507784562611584 
0 
-0.6189048761592708 
-1.410501548673131 
-1.43379996392804 
-0.8766654759209103 
3.304416561206121 
0 
-0.5801361257161063 
-1.85159590510751 
0 
1.69691623443684 
0 
0 
0 
0 
0 
-0.638757844502399 
0 
0.06282742887104809 
0 
0 
0 
0 
-0.789527196166442 
0 
0 
-0.8139663233873611 
-0.166942163338219 
-3.025451066769145 
0 
-0.5957309271155933 
1.923202421472061 
0.5408404090739435 
0 
0 
2.184381703400064 
0 
-0.3004176294921864 
0 
0 
0 
0 
0.3140981322736924 
-0.2546290218244939 
0 
0 
0 
0 
-0.8113401390412266 
0 
0 
0 
-0.4264057173102431 
1.047176054859498 
-2.936627358449676 
0 
-0.2612047391312182 
-0.691911661969063 
0 
0 
-0.9808928873436429 
0 
0 
-2.371863217121116 
0 
0 
0 
1.540922729947691 
3.097483084653675 
0 
0 
0 
0 
0 
0.5802308002898955 
0 
0 
0 
0 
-0.3077150828609598 
0 
0.1254816569117633 
0 
-0.6598074752242711 
0 
0 
0 
0 
0 
0 
-0.6786582807314635 
-0.4053522696094233 
-1.507590820999606 
0 
0.4358209742067876 
0 
0 
0 
0 
0.5299988916861206 
-0.4126202990626963 
0 
-0.06259620667720209 
0.4253510783238294 
0 
-2.925452279290488 
-1.131121566289979 
0 
0 
0 
-2.382361940821424 
-0.2334598432638104 
0 
0 
0 
0 
0 
0.5336586820270751 
1.748935333579201 
2.012772671319468 
0 
0 
0 
0 
0.3491239650988633 
0 
0 
-1.055071406694313 
0.4175078364195372 
0 
0 
0 
0 
0 
0 
0 
-0.5124344755536754 
0 
-0.9979722477717017 
0 
0 
0 
0 
0 
-0.410627532659927 
0 
0 
0 
-0.8617747985029388 
0 
-0.861184449125617 
0 
0.3779944513023362 
0 
0 
-1.761954961644564 
0 
-0.7775797771612796 
0 
-0.8597950905769358 
0.3434900819467104 
-1.708403106793831 
-0.6307676566504248 
0.7271654297984596 
0.6565668587084083 
0 
-0.2344926826794166 
-0.07730585899850538 
1.468523123497367 
0.4277440355347104 
0 
0 
0 
-1.34881067214924 
0 
0.04556883148703754 
0 
0 
0 
0 
-1.195198419017876 
0 
-1.066142501622932 
0 
0 
0 
0 
0 
0 
0 
0 
0 
-0.3641499282781874 
0.04056030209801138 
-0.2854485476575497 
1.071664054907651 
0 
0.8628274638290011 
0 
0 
0 
0 
-0.4954711169224281 
0 
-0.3850131625188405 
-1.09047093118303 
0 
0 
0 
0 
0 
0 
0 
0 
0 
0 
0 
-0.6368775625473698 
0.4804195834367742 
0.4011480968327469 
0 
0 
0 
-0.8481227536096224 
-0.6672872723795575 
0 
0 
2.622641534230805 
0 
0 
0 
0.4938886660011543 
2.866456562158287 
0.08274263924166229 
0 
0 
0 
1.888756736046015 
0.8873672119269075 
0.5622980283321195 
-0.02845766974260037 
0 
1.321523528389863 
0.5992771288858233 
0 
0 
0 
1.088230280718674 
0 
0 
-0.3092213352388409 
0.05248578372758077 
0 
0 
0 
-3.109638524527459 
-0.6816465557463112 
0 
0 
0 
2.295463799330201 
0 
0 
-1.132219435964329 
0 
0.7727134451622578 
0 
0 
0 
2.425857519748866 
0 
0 
0 
0 
0 
0 
0 
-1.030244873272788 
-0.2437070215935788 
0 
0 
0 
-0.9784390847878327 
0 
0 
0 
0 
-0.1897063781846385 
-0.2985490450125163 
0 
0 
1.133126521886392 
0 
0.7987404273574844 
0.1354873727221604 
0 
0 
0 
0 
0.6791374804508431 
0 
-0.4525746000658291 
0.4524442285470283 
0 
-1.228182913937641 
-0.3601547893757141 
-0.3648066606189453 
1.036969512836985 
0 
0 
0 
0 
0 
0 
0 
0 
-0.04271917941509916 
0.4847241227909135 
0.4551944230033667 
0 
0 
2.153721472399111 
0 
0 
-1.20119192904566 
-0.5472633660985063 
0 
3.169765143186572 
0 
-1.511995485347823 
0 
0 
0 
0 
0.4881121587011382 
0 
1.373183555664441 
0 
0 
0 
0 
-0.679567093981461 
0 
0 
-0.9325506748128313 
0.8082861149681458 
0 
0 
0 
0 
0 
-0.582754606258323 
-3.302416441405557 
0 
0 
-2.125487573444823 
0 
0 
-2.814940481020201 
0 
0 
-0.9646669864192199 
0 
-0.9019227753467326 
0 
-0.5835756213057682 
0 
0 
0 
0 
0.4272355406124568 
-0.25419573954498 
0 
0 
0 
0 
0 
0 
0 
0 
-1.329743515104303 
0 
0 
0 
1.78335998595343 
1.534681619451477 
-0.1671423759100213 
0 
0 
0 
0 
0 
0 
0.1465762744503101 
0.8174034636740917 
0 
0 
0 
0 
0.7832620442539792 
-0.7663188404359152 
0 
0 
0 
-0.4664058055849372 
0 
2.156319675125077 
0 
0 
-0.8817716769874633 
0 
1.357024478769264 
0 
-0.6020341523528033 
1.334278799201941 
0 
0 
0 
0.5708618130068577 
2.525065488368545 
0 
0 
0.3655553966272206 
0 
0 
0.6462684585832659 
0 
0 
0 
0 
0 
0 
0 
0 
0 
0.9231846878242216 
0.6641451218098559 
0 
0.1890198966910605 
0 
0 
0.3391718048836603 
0.5753483493118509 
0 
-1.168404051929809 
0 
0 
0 
0 
0 
0 
-0.4048910578787616 
-0.3469510022523543 
1.176284294060733 
-0.3533891752121925 
-1.156434163482423 
-0.7848285599516693 
0 
0 
0 
0 
0 
-1.999675930297667 
0.268247157256721 
1.536457608327934 
0 
0 
0.8249412001186687 
0 
0 
0.4785908990115378 
0 
0 
0 
0 
0 
-0.3937601138663359 
0 
0 
0 
0 
-0.7930712157618133 
2.431567737011079 
1.736025478546527 
0 
2.862495426258126 
0 
0 
0 
0 
-4.542823125270827 
0 
-0.3276020683095704 
0 
0 
-1.766265008722739 
0.9453097745768835 
0 
0 
-0.820088222150343 
0 
0.08061207803534561 
0 
-1.842427606298598 
0 
-0.410242883898527 
0 
0 
0 
0 
0 
0 
0 
-2.474121289863448 
-0.622943361774465 
-0.1612564088601591 
0 
0.9231846878242216 
0 
0 
0 
0 
-0.4638536010030855 
0.63022959340115 
0 
0 
2.261549299300837 
0 
0.5658122101989095 
0 
0.1733821466307969 
0 
-1.414939910592275 
0 
0 
0 
0 
0 
0 
0 
0 
0 
-0.4651802104965096 
2.242703859878337 
-0.3089565805109752 
0.04838601282453733 
0 
0 
0 
-0.5493429344801125 
0 
0.8284406781772804 
-0.09219258642322165 
0 
0 
0 
0 
1.046851853107512 
-0.4757114332352511 
0 
0 
-0.6466955790760754 
0 
1.673415667614419 
0 
0 
0 
-0.2872618108010608 
0 
0 
-0.5663871549684062 
0.4521962918008194 
0 
0 
0 
0 
0 
0 
-1.179765034005295 
-1.413545466066961 
1.319455962347964 
2.429148606856464 
0 
0 
0 
0 
0 
0 
0 
0.6238749085397642 
-1.052295025695166 
0 
0 
-0.7673552063976317 
0 
0 
0 
0 
0 
1.289569147908986 
0 
1.239980004296326 
0 
0 
0 
1.003942644782599 
-0.6625484145607169 
0 
0 
-0.2255042112870314 
0 
0 
0 
-0.1672927648681781 
0.4742126844345821 
0 
1.415882269996999 
0 
0 
2.039635830941981 
0.6469591477193813 
0 
-0.4159263989891248 
0 
0 
0 
-0.3862892075295143 
-2.188555396499774 
0 
0 
0.4278087323406043 
-1.019998773734671 
-0.9100237266843673 
0 
0 
-1.414107392896811 
0 
0 
-1.70972884671585 
0 
2.519247961303996 
0.6734143385620205 
0 
1.785750759170592 
0 
-1.587700793402959 
0 
0 
-1.165182735436926 
-2.264815284934699 
2.335117326653218 
-0.7571001688011936 
-1.779698289096661 
0.5644367212809195 
-0.787848276231752 
0 
-2.444468606251726 
0 
0.3915495779216343 
0 
-0.4620032350801349 
-0.7374641378434269 
2.303326388816162 
0 
0 
0 
0 
0 
0 
0 
0 
0.4278777082422021 
0 
-0.5783293739440115 
0 
0 
0 
-0.8405641455231876 
0.4276074098824039 
0 
0 
0 
0 
0 
-1.005194890754965 
0 
1.218884331669799 
0.4124250590064898 
0.4253510783238294 
0.5859801787944774 
0 
0 
0 
0 
0 
0 
0 
0 
0 
0 
0 
1.109050255415566 
0 
0 
0 
0.7270488029739303 
0 
-2.819027242725973 
-0.4064188122492513 
-1.168844013891125 
0.5146307698706828 
-0.6767772117814662 
0 
0 
3.713383831957252 
0 
0.3148566476216365 
0 
0 
0 
0 
0 
0 
0 
0 
0 
0 
0 
-0.5182988159256866 
-0.9237549475214046 
0 
0 
0 
0 
0 
0 
0.8979557513222761 
0 
0 
0 
0 
0 
-0.8086549261869548 
0 
0 
0 
0 
-0.4620761767116272 
0 
0 
-0.5362182956310163 
0 
0 
-0.8838024081610067 
0.8636474521395537 
0 
0 
0 
0 
0 
1.337590955688007 
0 
0 
0 
0.4106707088648587 
0 
0 
0.1263326188579436 
1.208361366437361 
-0.3684387538194852 
0.8720700500295047 
0 
-0.4525746000658291 
0 
0 
2.11269070833797 
-0.2312930619760244 
0 
0 
0 
0 
-4.698111456139146 
0 
0 
0 
0 
0 
0 
0 
-0.5058217122119226 
0 
-0.4077479045954069 
-0.1598017392674433 
-0.1508422697925082 
0 
0 
-0.3488420361683249 
0 
0 
0 
1.613087946655724 
0 
1.710136326918696 
0 
0 
0 
0 
0 
0 
0 
0 
0 
0 
0 
0 
0 
0 
-0.6317528139625472 
0 
0 
0.4981582240131369 
0 
0.1930061971226976 
-1.4636509967372 
-0.5127193599883609 
0 
0 
-1.501502125512749 
-0.3512501280979895 
0.5991846148775634 
0 
0 
0 
0 
0 
0 
0 
0 
0.4350357077989082 
0 
-0.8154958091908139 
0 
0 
0 
1.023782187065248 
-0.6874362354237709 
0 
0 
0 
0.5695839614811754 
0.6271116175374434 
0.09866023536017374 
0 
0 
0.426413005655947 
0 
0 
0 
0 
0 
0 
0 
0 
0 
0 
0 
-0.9100246432526303 
-0.84871634605829 
0 
1.198563547907866 
0 
0 
0.7343411328110085 
-0.4576577381674582 
0 
0 
0 
0 
0 
-0.2972159768661293 
0 
-1.000720842650699 
0 
0 
0 
0 
-2.682141614861088 
-0.545904571599425 
0 
1.075022627437192 
-2.46022195846569 
0 
0 
0 
0.1438897804740782 
0.1557834170366816 
0 
0 
0 
0 
0 
0 
0.6805690252959655 
0 
0 
0 
0 
0 
0 
0 
0 
0 
-0.125172198422714 
0 
0 
0 
0.1900166499317944 
0 
0 
0 
0.8064744276760942 
0 
0 
0 
0 
0.8284406781772804 
0 
-0.1275228308142415 
0 
0 
-2.237298173725402 
0.03057226472826661 
0 
0 
0 
0 
0 
0 
0 
0 
0 
0 
-0.7884769087463287 
0 
0 
0 
0 
-0.464807268694409 
0 
-2.395599933482019 
0.2835964994567181 
0.5664025336536135 
0 
0 
0 
0 
0 
0 
0 
0 
0.7457435304433357 
0.7457435304433357 
0 
0 
0.6052569405233622 
0 
0 
-0.7840074159072622 
1.189645600869865 
0.4756897943790059 
0.3230534537599472 
0 
0 
0 
0 
0 
-1.008902958404037 
0 
0 
0 
0 
-1.017694310255269 
0 
-1.088451396177324 
-0.7166500481138313 
0 
0 
0 
0.5941399069602823 
-0.7191927941402032 
-2.31361026472339 
0 
2.413405527659238 
-2.598775287018861 
-1.190468613936735 
0 
0 
0.4584635878097656 
0 
0 
1.878569382893521 
0 
0 
0 
0 
1.73578398134167 
0.1575817038803554 
2.349725477413287 
0 
0 
0 
-4.064030120617712 
-1.365180848111033 
0 
0 
0.4505107932338259 
-0.1610684772967617 
0 
0.4901757784082825 
-0.03787974454289858 
1.049184779435429 
0 
0.6678110532473286 
0 
2.101027841785941 
0 
0 
0 
0 
0 
0 
0 
0 
0 
0 
0 
0 
0 
0 
0 
-0.4812052687263558 
0 
0 
-4.176268546455371 
-0.4264057173102431 
0 
1.383656703314188 
0 
0 
0 
0 
0 
0 
-0.6092904191150058 
0 
0 
1.618703422665115 
0 
0 
0 
0 
0 
0 
0 
1.836872909503978 
0 
0 
-0.3146075086402804 
0 
0 
0 
1.2266198568117 
0 
0.5926678208307947 
0.8254369090041137 
0 
0 
0 
0 
-1.584458493167611 
0 
0 
0 
1.708235256623664 
0 
0 
0 
0 
0 
0 
0 
0 
-0.07922572445862244 
0 
0 
-0.5890097936951744 
0 
0 
0.5422989935587794 
0 
0 
0 
0 
0 
0 
0 
0 
0 
0 
0 
3.419767159353439 
0 
-0.3543459961532747 
0 
0 
-0.6335802316949326 
-2.285318387678774 
-1.154643820572676 
0 
0 
0 
-0.4244768414704609 
-0.4362563518057584 
0 
0 
0 
0.378666159554908 
0.1384310856808034 
0 
0 
-0.7676995864658487 
0 
0 
0 
0 
0 
-0.8948738092188554 
0 
0 
0 
0 
0 
0 
-0.1879331023621626 
0 
0 
0 
0 
-0.9665948365567636 
0 
0 
0 
0 
0 
0 
-0.8411018915814481 
-0.7793417272514267 
0 
0 
-0.1415533175249921 
0 
0 
-1.647188389178091 
0.7164603889211058 
0 
0 
0 
0 
0.7607517179374813 
0 
0 
0 
0 
0.2314709243492021 
-1.413651687330912 
0 
0 
0 
0 
0 
-0.6859065776630366 
0.4923418700750361 
0.9241213536034973 
-0.306316146357297 
1.10291330573941 
0 
0 
0 
0 
0 
0 
0 
0 
0 
0 
0 
0 
1.752914158496757 
0.3997691734236001 
-2.590071397747425 
-0.5183135033807963 
0 
0 
0 
-0.7190734711793499 
0 
0 
0 
-0.6703861723573007 
0.7952990567918893 
0 
0 
0 
0 
0.4784421392203305 
0.7341057983330455 
0 
0 
0 
0 
0 
0 
0.6794233743795561 
-0.4696118120203165 
1.789679117627356 
0 
0 
0 
0.04811983643998707 
0 
3.237879430470722 
0 
0 
0 
0 
0 
0 
0 
0 
-0.0611369822310106 
-0.6543245785091891 
0 
0 
0 
0 
0 
0 
0 
0 
0 
-0.408260054056616 
-0.2919907777002917 
0 
0 
0 
0 
0.06698271868108045 
0 
0 
0 
0 
0 
0.4640326965850877 
0 
0 
0 
0 
0 
0 
0.5697063077767394 
1.210464915519967 
0 
0 
0 
0 
0 
0 
-0.3622214876926409 
0.3248532890525216 
0 
0 
0 
-0.3288508415777938 
0 
0 
-0.3706295235060287 
0 
0 
0 
0 
0 
-0.6812240303948779 
0 
2.583475878318644 
0 
0 
0 
0 
-3.678093478717916 
0 
0 
0 
0 
0 
0.05308606103646586 
-0.04872078345236911 
0 
0 
0.1956142063015248 
0 
0 
0 
0 
0 
0.1962662647606365 
0 
0 
0 
0 
0 
1.215983383429617 
0.5036002899586538 
-1.982187235962102 
0 
-0.8524575121224788 
0 
0 
0 
0 
0 
0 
-0.7594348786995038 
0 
0 
-1.101827779917338 
0 
0 
0.3568947582431951 
0 
0 
0 
0 
0 
0 
0 
0 
0 
0 
0 
0.9681349889548637 
-0.5537615744406186 
4.188317850080914 
0 
0.1938662549273085 
0 
0.5329924509127572 
-0.544752758783942 
-1.232752047324937 
0.3951449687247161 
0 
0 
0 
0 
-0.7116074312167745 
0 
0 
1.59316942720098 
0 
0 
0 
0 
0 
0 
0.1652205066932561 
0 
0.3229908860980844 
-0.2612047391312182 
0 
-1.024404556437492 
0 
0 
0 
0 
0 
0 
0 
1.081052255392979 
0.1795595599194105 
0 
0 
0 
0 
0 
0 
0 
0.6090403290902009 
0 
0 
0 
0 
1.682032378429513 
0.1177064652505596 
0 
0 
0 
0 
0 
-0.8320626489184546 
0 
0 
0 
0 
-1.068959607431677 
0 
0 
0.8712419516395707 
0 
0 
-0.1508372268495288 
-0.6211282088765131 
0 
1.762723432798177 
-0.2886197354351124 
0.8159781996162629 
0 
0 
0 
0 
0 
0 
0 
1.899297669895862 
0 
0 
0 
0 
0 
0 
0 
0 
0 
0 
-0.04893338838321157 
0 
0 
0 
0 
0 
-0.8816823939651842 
-3.739969774331144 
-0.8986089994604955 
0 
0 
0 
-0.6993054670634832 
0 
0.7592569659451426 
-0.7341790638752701 
0 
0 
-1.399129195950225 
0.8709799300978931 
0 
0 
-0.3106341313804413 
0 
0 
0 
0 
-0.08324309700646858 
0 
0.2358601689243769 
0 
1.071478413707374 
0 
0 
-0.6628724539618651 
-1.923462304930296 
0 
0.4560883530564365 
-0.4631613359676626 
-0.3790195231933206 
0 
0 
0 
0 
0.07649449238463302 
0 
0 
-0.09274381108701739 
2.000479081509452 
0 
0 
0 
0 
0 
0 
1.288492173412969 
0 
0 
0 
1.492358080806452 
0.03078524426151352 
0 
0 
0 
-1.692599048920327 
-1.693312015253001 
-0.8868689172270606 
0 
0 
0 
0 
1.880792394908477 
0 
0 
0 
0 
0 
0 
0 
0 
0.3853568305923095 
0 
0.2766294927842109 
0 
0 
0 
0 
0 
0 
0 
0.7435402071940171 
-0.7131423238956893 
-0.7286847278062901 
0 
0.6252173861688033 
0 
0.2627115280178445 
-0.2378034235637197 
1.542038579139983 
1.571482663112213 
0 
0 
0 
0 
0 
0.8683508978608707 
0 
0 
-0.5831578870588837 
-2.060489746545577 
-0.7248689732320274 
-0.4417073208918958 
0 
0 
0 
0 
0 
0 
-0.3627740262439892 
0.5352034438086988 
0 
0 
0 
0 
-0.2527630496534646 
0 
0 
0 
0.3496099377557184 
0 
0 
0 
0 
0 
-0.1749713472923614 
0 
-1.748217816772001 
0.8103312926639712 
0 
0 
0 
0 
0 
0 
0 
0 
-0.01356613474240887 
0 
-0.4867866963530418 
-1.695966346381894 
0 
0 
0 
2.394606825367534 
0 
3.10836342517542 
1.301182634228834 
0 
-0.2422312432772368 
0 
0.3179813826509122 
0 
0 
0 
0 
0 
0.01750198720568161 
0 
0 
-0.7404482542237256 
0 
0 
0 
0.1149731627523109 
0 
0 
0 
0 
0 
-0.3248261281145637 
0 
-1.254550662565503 
-0.7239366236596311 
0 
0 
-0.4391022694776779 
-0.501511241054873 
0 
0 
0 
0 
0 
0 
0 
0 
-0.5616701474411036 
0 
0.7645531041519789 
0 
0 
0 
0 
-0.0566829516985874 
-0.1777604978731878 
0 
0 
0 
0 
0 
0 
0 
0 
1.306276517934189 
-0.4414421566972537 
0 
-1.031666777991573 
-0.4289519640066551 
0 
0 
0.4992317931179187 
0 
0 
1.288077162811281 
0.7449231134844594 
0 
-0.5256732061734535 
0 
0 
0 
0 
0 
0 
0.6730891716545098 
-2.368472908674569 
0 
0 
1.329258678886932 
0 
0 
0 
-1.349701438954933 
-1.225647540038732 
0 
0 
-0.007417304245133086 
0 
-0.5989127686535706 
0 
0 
0 
0 
1.051628203063837 
4.123376194423259 
-1.159682378107104 
-0.5395285317406687 
0 
-0.7063716953262769 
0 
0 
0 
0 
0 
0 
0 
0 
-0.6385809978656098 
-1.099711868559056 
-1.643807098615548 
-0.7513468483331167 
0 
-0.3624003646027824 
1.146254017507388 
0 
0.5258594726534221 
0 
-0.323468073101724 
0 
0 
0.7270488029739303 
0 
0 
0 
0 
1.384373892585605 
0 
0 
0 
0.7395688586092005 
0 
0 
0 
0 
1.610593501278261 
-0.2800281374158568 
0 
0 
0 
-0.8107418873024458 
0 
0 
0 
0 
0 
0 
-1.699643040539511 
-2.087154324458676 
-2.035364353600907 
0 
0 
0.7970281009383106 
0 
-0.4714540625537549 
0 
0 
0 
0 
0 
-1.20825451950599 
0.7503653785342462 
-0.7851917315600214 
0 
0.6052569405233622 
0 
0 
0 
0 
0 
1.001505479108018 
-0.6496445701674033 
0 
0.1742661021559469 
0.983604490189914 
0 
0 
0.8354531077224474 
-0.5991160720765265 
0 
0 
0.4298373829786386 
1.563228361165211 
0 
0 
0 
0 
0 
0 
0 
0 
0 
0 
0 
0.8421379178998786 
-0.7116944347954443 
0 
0 
0 
0 
-1.686565207150617 
-1.039527449209517 
0.5875843701958244 
0 
0 
0 
0 
0.5731032702729244 
0 
0 
0 
0 
-2.628843946615968 
0.5087879986013421 
0.8633361153895993 
0.1565779747012445 
0 
0 
0 
0 
0 
0 
0.1684449535974242 
0 
0.657412513003708 
0 
0 
0 
-0.6851241090946016 
0 
0 
0 
0 
-1.067267788021676 
1.107885661860095 
0 
0.2839362199930973 
0 
0 
0 
0 
0 
0 
0 
0 
-0.2970604247755911 
1.354241497351337 
0 
1.886929722924294 
0 
-0.1961719765958065 
0 
0 
0 
0 
0 
0 
0 
-0.2179933664010392 
0 
0 
0 
0.1355823145340105 
0 
0 
1.430615437493936 
0 
-2.725218389313026 
0 
1.867724499593539 
0 
0 
0.5121871187611295 
0 
0 
0 
0 
0 
0 
0 
1.478336573154656 
-1.040834085586084e-17 
0.4830343876259068 
1.103779797632386 
0.2608871431822195 
0 
0 
0 
1.36849023556064 
0 
0 
0 
0.7594940706308859 
1.626472868182898 
0 
0 
1.392082832124452 
0 
0 
0 
-0.5336366840240406 
0 
1.056174237571769 
0 
0 
0 
0 
0 
-0.8159547937903322 
0 
0 
0 
0 
0 
0.6201420973469829 
0.6789580703899749 
0 
0 
0 
0 
0 
0 
0.479525879370903 
1.288573988972499 
-1.124592908989204 
-0.6755262253254307 
0 
0 
0 
0 
0 
0 
0 
-2.000313990196848 
0 
0 
0 
0 
0 
0 
0 
0 
0 
0 
0 
0 
0 
1.094203259115982 
0 
0 
-3.04596280181741 
0 
-0.2611090659828055 
0 
0 
-1.071758167712607 
1.605115215212396 
0 
1.316357304974949 
0 
0 
0 
-0.7685189182477784 
0 
-0.4461006637630222 
0 
-0.3602811556157134 
0 
0 
0 
0 
0 
0.461796642858663 
0.6624162420512427 
0 
0 
0.4206913713435836 
2.736365783290692 
0 
0.4106707088648587 
0 
0.4102470633948544 
0.1915814138811392 
0 
0 
0 
-1.299937162015889 
0 
0 
0 
0 
-0.4738784516311513 
0 
0 
-0.5059447635036087 
-1.907323748713904 
0 
0 
0 
0 
0 
0 
0 
-1.129256240281415 
2.155953979802977 
-0.7889773104785341 
0 
0 
0 
0.7772141205492038 
0 
0 
0 
0 
1.231085949687186 
-2.165754433145871 
-0.6989925714555909 
0 
-0.4379327878846311 
0 
0 
0 
0 
-3.257986502038912 
0 
-0.2788152757897242 
0 
0 
0 
0 
2.398264191606877 
0 
0.6171484435209759 
0 
0 
0 
0 
-1.492769805641446 
0 
0 
0 
0.5303428420462222 
3.235172405661349 
0 
-1.692251710325319 
0 
0 
0 
0 
0 
0 
0 
0 
0 
-0.901415174359501 
0 
0 
0 
0 
0 
-3.214446549852496 
0 
1.696981813641934 
-0.6149782854773643 
0 
0 
0 
0 
0 
0 
0 
-0.7793417272514267 
0 
0 
-0.2312930619760244 
0 
-0.2985490450125163 
0 
0 
0 
-0.5391412661368845 
0 
0 
0.7635930028512108 
0 
0 
-0.283447440895222 
0 
-0.7952449585394646 
0 
0 
0 
-0.6717864695249837 
0 
0 
0 
-1.098277099618764 
0 
0 
0.2861530591371652 
0 
0 
0.01843183404172243 
-1.910136044480286 
0 
0 
-0.4454553421172482 
0 
-0.9518674003374575 
0 
0 
1.416801104866672 
-0.6319513121100269 
0 
2.311570763366455 
0.4959439022485385 
0.4222117532108626 
0 
-0.03104449653336438 
1.342356130126972 
0 
0 
0 
-0.7279664871248476 
-0.8867604199323839 
0 
0 
0 
0 
0 
1.001505479108018 
-0.9650382559321058 
2.86704120813814 
0 
0 
0 
0 
0 
0 
0 
0 
0.2990845879031196 
-1.952730351169931 
-0.6859065776630366 
-0.6859065776630366 
-0.2855007621704383 
-0.3937328462570872 
-0.3937328462570872 
-0.3937328462570872 
-1.182532710401431 
-1.407156415440404 
0.4583112593352788 
-0.2589433173986213 
-0.3615148963538197 
-0.3615148963538197 
-0.3615148963538197 
-0.3615148963538197 
-0.3615148963538197 
0.6661645219742348 
0.1661881699484304 
-0.1244614829378771 
0.13018066742524 
1.268457423627537 
-2.2330171255408 
-1.200370125102451 
-0.4096999355795198 
-0.4096999355795198 
-0.75549471917263 
-1.000462609154859 
-2.737230246316212 
-6.922515253974153 
-0.8961244570150363 
-0.8961244570150363 
1.435674423449222 
-1.706393823981641 
-0.8941890315094788 
1.378496324030735 
-1.003050320114417 
0.136716881261755 
-0.4363863890111694 
-1.916369021641861 
-0.7748742631765234 
-0.7748742631765234 
-2.288924268234273 
-0.9263158535795812 
-0.9263158535795812 
0 
-2.667777369287728 
-0.2802122535948774 
0 
-3.593208057680455 
1.354503289943429 
0.604187053802233 
-0.7573579423319822 
-0.3309522250217392 
-1.436972044705899 
-0.8485009625459708 
-0.8485009625459708 
-0.8966878946990644 
-1.390990358906381 
-2.163676257152059 
-0.3200561744593314 
0.2159122514171688 
-0.9435190152579792 
-0.407916779803444 
-0.3784216717868901 
-0.3784216717868901 
0.00446427172217349 
-1.102358295446521 
-0.3784216717868901 
-0.8106165819907207 
-1.881263917783267 
-0.1626195920973792 
-0.8743140268928234 
-2.180093792093576 
-0.4457579020654739 
-1.926866077994046 
-0.4457579020654739 
-0.4457579020654739 
-0.4457579020654739 
-0.4457579020654739 
-0.4457579020654739 
-0.4457579020654739 
2.139198726571461 
-2.685569332864262 
-0.3842334264747767 
-2.433843949426643 
-0.2960039981997922 
-0.9441418680013098 
-0.9441418680013098 
-0.2032930995261065 
-0.2032930995261065 
-0.2032930995261065 
-1.194216261320519 
-0.5913964710622411 
-0.1625869581797608 
-0.1625869581797608 
-0.5008320158412984 
-2.076504424150312 
-1.244364835115669 
-1.244364835115669 
-2.466767890426004 
-2.38738723973756 
-2.414798302584692 
-0.8481227536096224 
-0.09572638843183065 
-1.126415611008572 
-1.126415611008572 
-0.1960189553636832 
-2.089620621733155 
-0.6841931151381887 
-0.388429144946531 
-1.857193761596793 
-1.857193761596793 
-0.4295796955517002 
-1.073423304945867 
-0.4295796955517002 
-0.4295796955517002 
-0.3801839129159184 
0.6782046780565524 
-0.7713842336249261 
0.09282382126058897 
-1.200158082671426 
0.5785226188438459 
-1.348945284582888 
-0.7365295612739895 
1.77408189883986 
0.6991304180730168 
-0.2999198861759105 
-4.397964974842303 
-0.5160063304260494 
-0.5160063304260494 
0 
0 
0.5439196107992521 
-0.3383090170566639 
-0.3383090170566639 
-0.6750156231749763 
-0.4037280529106098 
-1.919210333552047 
-0.4724293882274216 
-0.4724293882274216 
-0.4724293882274216 
-0.5219217669962406 
-0.5219217669962406 
-0.5219217669962406 
-0.5219217669962406 
0.2974312572916945 
0.7076998811032257 
-0.1961719765958065 
-0.1961719765958065 
-0.1961719765958065 
-1.499638277510289 
-2.279701324200749 
-1.787598678313804 
-1.355395044221864 
-1.355395044221864 
-1.355395044221864 
-1.355395044221864 
-1.977416978779732 
-0.9395915572982517 
-0.5453657063270971 
-1.865153779160918 
-0.9395915572982517 
-0.9395915572982517 
-2.853794459838574 
-0.5248752434433176 
-0.4178026792084643 
-1.275820469588025 
-0.3511202401261167 
-0.4178026792084643 
-0.4715963254796816 
0.8450245221432293 
-0.4715963254796816 
-2.419171002170272 
0.5125766741102845 
-1.75654033172608 
-1.75654033172608 
0.0701508933014628 
-0.5850556765777817 
-0.5850556765777817 
-0.482078364112614 
-0.482078364112614 
-0.482078364112614 
-0.6892026635450006 
-0.6892026635450006 
0.68990477375315 
-0.885095962245581 
-1.533745039940418 
-2.071427580737656 
0.3280658725266071 
-0.8375239618651034 
-0.8906462111794221 
-0.8906462111794221 
-0.8906462111794221 
-0.109888568302681 
0.6026607621061925 
-0.2828703334131699 
1.500350451847472 
-1.841524459902329 
-4.413123921452851 
-0.8371530937408298 
-0.8371530937408298 
-0.4482826712172888 
-1.75814240759835 
-1.287220212734457 
-0.4664058055849372 
-0.8416049242873063 
-0.9888561542421037 
-2.140367834116687 
0.569987041580399 
-0.5703645420069421 
-0.2067692153497107 
-1.01605038916317 
-0.03282176268182242 
-0.03282176268182242 
-2.234095904334955 
-2.234095904334955 
3.897131546638775 
-0.9685934247519991 
-1.248364692600806 
-1.249831415441421 
-0.6479970539192071 
-0.04704680181701493 
-1.784378429136329 
-0.02091252939837982 
-0.1223706071748773 
-0.359506539935104 
-1.039897707546347 
-2.178362080446929 
-5.168867252244992 
-0.1006926004085858 
-0.3477224345297379 
-0.3477224345297379 
-0.3477224345297379 
-0.3477224345297379 
-0.9439097681823553 
-0.9439097681823553 
-2.758625678863227 
-0.2413734642948624 
-1.568810695664481 
-0.2413734642948624 
-0.7286847278062901 
-0.1196443987160892 
-0.2891963464848374 
-0.5150716911865668 
-0.2891963464848374 
-0.4853244422301647 
-0.4853244422301647 
-0.4853244422301647 
-0.8626378237205081 
-1.372064654376657 
-1.10590563645571 
-1.10590563645571 
-0.7239722472641191 
-3.008994580800819 
-0.5110385034809553 
-0.5110385034809553 
-0.5110385034809553 
-0.5110385034809553 
-1.199829657668488 
-0.5110385034809553 
-0.9989590896228537 
-1.155192871086912 
-0.3610364183524659 
-0.3610364183524659 
-0.3610364183524659 
0.2153893437129308 
-0.2187428695746885 
-0.2187428695746885 
-0.1851676571467924 
-1.111215353769438 
-1.5346666364135 
-1.488277719680775 
-1.844428031051903 
-1.844428031051903 
-1.844428031051903 
-1.844428031051903 
-1.844428031051903 
-0.9051581405272494 
-1.695291059335818 
-0.5789760122839915 
-0.5789760122839915 
-0.9079012458038218 
-1.37542348049823 
-0.9079012458038218 
-0.9079012458038218 
-0.3381544397581814 
-0.6763088795163614 
-1.967801950370842 
-0.3381544397581814 
-0.4362854495655205 
-0.4362854495655205 
0.9521089189617026 
-0.4227742814337109 
-0.4227742814337109 
-0.4227742814337109 
-0.7080462955278669 
-0.2093482608732752 
-0.7295577022040213 
-0.3534489169774835 
-1.187561227450832 
-0.6946515489173511 
-0.002300900533356819 
-0.7010378526554186 
-2.204149639995835 
-2.19469158744222 
-2.760339145618906 
-0.8230339175005423 
-0.3721936306520481 
-0.02926788975330512 
-0.2056318175531052 
0.6307444962805319 
-0.3721936306520481 
-0.3721936306520481 
-0.3721936306520481 
-0.3060676021758761 
-1.101013620884195 
-1.935848736318051 
-1.101013620884195 
-0.5168149456024151 
-0.4370270448562061 
-0.8478816287893773 
-0.184816399961328 
-0.8478816287893773 
-1.361860695036806 
-0.8478816287893773 
-1.407585506232456 
-1.4142411675308 
-1.774890465348901 
-1.192720373750227 
-0.5890097936951744 
-1.256015573232172 
-0.5890097936951744 
-0.2258753447017292 
-0.2258753447017292 
-0.2258753447017292 
-0.2258753447017292 
-0.2258753447017292 
-0.6050244782520853 
-0.6050244782520853 
-0.3063816189852333 
-1.567478121665199 
-1.567478121665199 
-1.567478121665199 
-0.1144881334581178 
-0.2344926826794166 
-0.2344926826794166 
-0.2344926826794166 
-0.5826142998929617 
-1.872708159716226 
-1.336621490854367 
-0.6462021017864152 
-0.6462021017864152 
-1.477004263593289 
-0.6956202165454489 
-0.6956202165454489 
-0.5069240751820075 
0.2073843731514852 
-0.7670422956265086 
-0.2395356758865594 
-1.442412007412307 
-1.077605346793362 
-0.6913690108838778 
-0.622943361774465 
-0.622943361774465 
0.02828177394833909 
0.3954528540320421 
-0.622943361774465 
-0.7014886578656371 
0.07669016372847436 
-0.7014886578656371 
-0.7014886578656371 
-0.7220532642829242 
-1.433787800311068 
-0.4847494881837369 
-0.5845678261550689 
-0.1524883090400347 
0.04862778657884834 
-0.2955254888509196 
-0.2955254888509196 
-2.083920471195357 
-0.3232570992924058 
-0.336833247843286 
-0.3764067572550101 
-0.5734899649611271 
-0.3764067572550101 
-0.3146075086402804 
-0.3146075086402804 
-0.1562434484499536 
-0.5831578870588837 
-0.5831578870588837 
-0.5831578870588837 
-0.5831578870588837 
-0.5764275490304203 
-0.5764275490304203 
-0.5764275490304203 
-0.3363075554566344 
-2.285686306394341 
-0.74708658696968 
-0.4183936459169839 
-0.4183936459169839 
-0.4183936459169839 
-0.4183936459169839 
-0.5650326400335665 
-0.8383430721697046 
-0.6319886843350639 
-0.6319886843350639 
-0.6319886843350639 
-0.6319886843350639 
-0.6319886843350639 
-0.6319886843350639 
-0.6319886843350639 
-0.353777584728928 
-0.6438385001628587 
-0.9634046627302206 
-1.504902958496484 
-1.271318626021107 
-0.5234828239455308 
-0.1670797212438951 
-0.7785825606331565 
-0.7785825606331565 
-1.508570424544045 
-0.347649280012371 
-1.326440157609018 
-0.3961896011939111 
-0.3961896011939111 
-0.6126322927145949 
-0.306316146357297 
-1.186647148798825 
-1.030381875758844 
-1.357487397126969 
1.90420244213858 
0.7996984498488574 
-0.5429062109728182 
-0.5429062109728182 
-0.5429062109728182 
-2.018181383341675 
-1.506281944758702 
-0.9697919737391091 
-1.810023708306034 
-0.4742857204929938 
-1.469791005031052 
-0.1654466168377439 
-1.311293356812395 
-0.501511241054873 
0.8685658527478883 
-0.501511241054873 
-0.1699403306140261 
-0.1699403306140261 
-0.1699403306140261 
0 
0 
-0.5093298651624213 
-0.9495278381599211 
-0.5093298651624213 
-0.5093298651624213 
-0.5093298651624213 
-0.5093298651624213 
-0.5093298651624213 
-0.5093298651624213 
-0.5093298651624213 
-0.5093298651624213 
-0.5093298651624213 
-0.5093298651624213 
5.171156502826532 
-0.9486929320659961 
-0.4479043157452409 
-0.9486929320659961 
-0.9486929320659961 
-0.5451977445642943 
-0.01993062696238162 
-1.267117497333216 
-1.267117497333216 
-1.267117497333216 
-0.5388986740441438 
-0.5359863518766905 
-0.5359863518766905 
-0.6630456905113227 
-0.5359863518766905 
-0.3720442891004584 
-0.5912726365955193 
-0.5912726365955193 
-0.5912726365955193 
-0.8986073485164843 
-1.394078465438912 
-1.50198579995974 
-0.8986073485164843 
-0.5805064409202698 
-0.1080366531698417 
-0.4943890860047837 
-1.448009647957874 
0.1165175423488824 
-0.5805064409202698 
-0.5805064409202698 
0.3800962488085985 
-1.054445698849435 
-0.4512174304613704 
-0.6170419208966472 
-0.4512174304613704 
0.8318033044035061 
-1.298823972191371 
-1.035249534338861 
-0.6650153128319392 
0.8972986393832779 
-1.919656657504302 
-0.7374641378434269 
-0.7474680668227065 
-0.4078327598872753 
-0.2422516595013632 
-0.6592760527335882 
-0.2422516595013632 
-0.550308051539121 
-0.550308051539121 
-0.7510782002350305 
-0.7510782002350305 
-0.522450348657167 
0.5493981355305474 
-0.5012644121150188 
-0.5012644121150188 
-0.5012644121150188 
-1.153080466109074 
-1.153080466109074 
-1.763624812313707 
-1.763624812313707 
0.4190203022827194 
-1.767261218585533 
-0.4054210477386507 
1.202178532746661 
-0.4054210477386507 
-1.237552930046937 
-1.884332410184393 
-0.4597678653142038 
-0.4597678653142038 
-0.4597678653142038 
0.3127356085926949 
-0.2902598218687045 
-0.2902598218687045 
0.9547143681647636 
-0.3945778203075732 
-1.374872470847543 
-0.6874362354237709 
0.03912373434417425 
-0.05620433637652041 
-0.9616822702259119 
-0.9616822702259119 
-1.023273183381266 
-1.27109117779351 
-0.3231673386918655 
-0.3231673386918655 
2.599317179023765 
-0.3231673386918655 
-0.3993174047069756 
1.041662158402727 
0.5578902385116935 
-0.3701135857036804 
-0.3701135857036804 
-0.3701135857036804 
-0.3701135857036804 
-0.3701135857036804 
-0.3701135857036804 
-1.055408473422815 
0.110810629754485 
-0.6677642877084616 
-0.4940465484186373 
0.08637739517590208 
-0.9662854230760486 
-0.627086497689382 
1.042723038683436 
-0.9369352313557094 
0.5625248038711603 
-0.4408843580161469 
-0.4408843580161469 
-0.4408843580161469 
-1.323684593347648 
-1.323684593347648 
-0.08369997949003341 
0.05331802786148882 
-0.3908714285008986 
-1.852758472299612 
0.2738737148639624 
0.3251855908765404 
-0.1952572221993737 
-0.3908714285008986 
0.555935843296544 
-1.389887723337317 
-0.3200671646621785 
-1.337932975214549 
-1.073559241941309 
-0.5926498746565668 
-0.1105165019742082 
-1.137000574597394 
-0.5124344755536754 
-2.247996461191669 
1.129629979413442 
-0.7600644764087272 
-0.195296767545617 
-0.195296767545617 
-0.6824184044453289 
-0.2677635869677814 
-0.4272612667268467 
-0.2753424797435678 
-0.7597409627432301 
-1.114187187801972 
-0.8473238892807312 
-0.8473238892807312 
-0.193839991930162 
-3.310387641212867 
-0.3433206935034234 
-0.3433206935034234 
-0.2697413951161826 
-0.5394663577848615 
-2.244544795220594 
1.151890918946498 
-0.2073032161474405 
2.770138891806724 
-1.063009396093286 
-0.6154301657219188 
-0.6325412109755237 
-0.3077150828609598 
-0.3077150828609598 
-0.3077150828609598 
-1.002977187875409 
-1.313009634840032 
-1.853223240752635 
-0.9799912368767922 
-0.9799912368767922 
-0.9799912368767922 
-1.027184482074486 
-1.027184482074486 
-1.027184482074486 
-1.027184482074486 
-1.027184482074486 
-1.027184482074486 
-1.395552631669275 
-1.395552631669275 
-0.6729245251271836 
-0.2611886343439833 
-0.6729245251271836 
-0.6729245251271836 
1.575024603849325 
-0.8243392102306808 
-0.05577981705390476 
-0.05577981705390476 
-0.5415452707184245 
-1.951941314398525 
-0.5945922167387534 
-0.6233919825110186 
-0.9300033126887934 
-0.5637641085803468 
-0.5637641085803468 
-0.5637641085803468 
-0.5637641085803468 
-1.307632257075273 
-0.1033942519930634 
-2.171724882379977 
-1.48741528877346 
1.577198428076084 
-2.253374485135462 
-0.8634316816262988 
-0.6717864695249837 
-0.2129699051894591 
-0.2129699051894591 
-0.2791888353527806 
-0.2791888353527806 
-0.2791888353527806 
-0.2791888353527806 
-0.2791888353527806 
-0.5037415183427728 
-0.5037415183427728 
-0.5037415183427728 
-1.154346903975233 
-1.154346903975233 
-1.154346903975233 
-0.7467422734066741 
-0.5585979652662776 
-0.5585979652662776 
-0.8725921463376182 
-0.0323686853680861 
-0.504666038063426 
-0.9196126229857851 
-0.4760332894589187 
-0.5208751914674689 
-0.645245273476028 
-0.9950723140632275 
-0.9950723140632275 
-0.9950723140632275 
-0.9950723140632275 
-0.9950723140632275 
-0.9950723140632275 
-0.9283706223240775 
-0.9283706223240775 
-1.186128485212538 
-0.8698510182126795 
-0.8698510182126795 
-0.3728738652622551 
-0.3728738652622551 
0.2865799458346712 
-0.3728738652622551 
-0.06875277932658175 
-0.06875277932658175 
-1.273427464116014 
-0.7649312885183648 
-1.611185353417967 
-1.611185353417967 
-0.3628255741415736 
-0.3628255741415736 
-1.526079914615037 
-0.3628255741415736 
-0.7847209107478361 
-0.7847209107478361 
-0.7847209107478361 
-0.9974000355114581 
-1.594635019604306 
-1.862645185526924 
-1.189282749994882 
-0.8379733074472066 
-0.2625373267723818 
-0.2625373267723818 
-0.2625373267723818 
-0.4104198776884951 
-1.016464749266652 
-1.425079459178378 
-1.771480114720521 
-1.350066546759046 
-0.02309800224291736 
-0.608530052051521 
2.512191057601521 
-0.608530052051521 
-0.2909888489877491 
-0.7009573753564606 
-0.7009573753564606 
-0.2025872676211374 
-0.2025872676211374 
-0.7661440046863275 
-0.6476378631136276 
-0.758287309385697 
-0.5522076468492958 
-1.052036380852172 
-0.5522076468492958 
-1.677570243089669 
-1.166052562472112 
-0.4715288310755755 
0.4148763238564516 
-0.4715288310755755 
-0.4414008494176193 
-0.4414008494176193 
-0.4414008494176193 
-1.621217935679149 
-1.621217935679149 
-0.6102807952405092 
-0.6102807952405092 
-0.3132203704649181 
0.73824277011749 
-0.3132203704649181 
-0.3132203704649181 
-0.6073450103643385 
-1.041127367536204 
-1.041127367536204 
-1.714627123157554 
-0.3855980283595349 
-0.3855980283595349 
-0.3855980283595349 
-0.6750926946664573 
-0.6750926946664573 
-0.6750926946664573 
-0.6750926946664573 
-0.6750926946664573 
-0.6750926946664573 
-0.6750926946664573 
-0.4413993859138817 
-0.4413993859138817 
-0.4413993859138817 
-0.6042500120572839 
-0.3922605763592116 
-0.3843602913477993 
-1.31426946451995 
-0.7018038839737752 
-0.370491786908777 
-0.3043537569067696 
-1.520883310418143 
-0.7467038121240717 
-1.520457172048837 
-1.996127294498342 
-1.277527532587252 
-0.6387637662936259 
-0.6387637662936259 
-0.6387637662936259 
-0.1223049910473342 
-0.4629771852330643 
-0.8146217852046894 
-0.8146217852046894 
-0.4708250736085411 
-0.155943377356959 
-0.4708250736085411 
-1.101592730258965 
-0.4708250736085411 
-0.4708250736085411 
-0.4708250736085411 
-2.561719309365279 
-0.5292543781079673 
-0.5292543781079673 
-0.9493816777536186 
-0.4746908388768103 
-2.3122750238633 
-0.4746908388768103 
-1.655926541199944 
-1.655926541199944 
-0.06511746121413364 
-0.08349288042335536 
0.4711790498947598 
-1.110432218280441 
-1.110432218280441 
-1.110432218280441 
-1.282598560829732 
-0.2890454715808515 
-0.2890454715808515 
-0.4321358811763737 
-0.2890454715808515 
-0.2890454715808515 
-0.2890454715808515 
-0.5472633660985063 
-0.5472633660985063 
-0.4198271103944252 
-0.4249085480964817 
-0.3706295235060287 
-0.3706295235060287 
-0.7920958556613797 
-0.7920958556613797 
-0.7920958556613797 
-0.7920958556613797 
-1.811946457180939 
-0.7920958556613797 
-0.7920958556613797 
-0.3248261281145637 
-0.3248261281145637 
-0.3248261281145637 
-1.285198610676697 
-0.3248261281145637 
-0.3248261281145637 
-0.3248261281145637 
-0.3248261281145637 
-0.3248261281145637 
-0.3248261281145637 
-2.119961991267042 
-0.6071377403301279 
-0.6071377403301279 
-0.6071377403301279 
-0.6071377403301279 
-0.6071377403301279 
-0.6071377403301279 
-0.6071377403301279 
-0.6071377403301279 
-0.159902664409598 
-1.946552808637531 
-0.2397558249274608 
-0.2397558249274608 
-1.766368155433089 
-0.2397558249274608 
-0.2397558249274608 
-0.6013877279191444 
-0.5267565961652024 
-0.5267565961652024 
0 
-0.4178885551980903 
-1.279830435217044 
-1.604176856876855 
-1.15168394293067 
-1.258776531656439 
0.3476971304762251 
-0.4689788594227112 
-0.4689788594227112 
-0.4689788594227112 
-0.579478388468738 
-0.579478388468738 
0.8192850939094717 
-0.4367417263534936 
-0.4367417263534936 
0.4230182977585971 
0.6103334114819063 
0 
0 
-0.4731817557551993 
-0.4731817557551993 
-0.4731817557551993 
-0.4731817557551993 
-0.4731817557551993 
-1.011985929286226 
-3.761884323223831 
-0.882154983640091 
-0.6535949138018716 
-0.1470219923762571 
-0.1470219923762571 
-0.8941890315094788 
-0.8341123104733486 
0.7666104054411388 
1.37460393967114 
-0.2530732939737576 
-0.679567093981461 
-0.679567093981461 
-0.9547995302488986 
0.8295693011479298 
-0.9670294509422283 
-0.4773997651244486 
-0.4773997651244486 
-0.4773997651244486 
-1.448010281800467 
-0.8995976134284762 
-1.957153132195725 
-0.4221265551469959 
-0.4221265551469959 
-0.4221265551469959 
-0.4221265551469959 
-0.687509855855388 
-0.687509855855388 
-0.687509855855388 
-0.687509855855388 
-0.687509855855388 
-0.608382642634002 
0.3616279556366998 
-0.6223745257724524 
-0.6223745257724524 
-2.41471669211388 
1.051885424215126 
-0.7310960135817243 
-1.704346349042647 
-0.7607785783999383 
-0.4655134197669406 
-0.4655134197669406 
-0.4655134197669406 
-1.360424221191199 
-0.9012949123015528 
-0.4082348132767005 
-0.6796882555941284 
-1.026467098488884 
-1.026467098488884 
-1.026467098488884 
-1.104573094634174 
-1.407472430530957 
-1.10892338551844 
-1.10892338551844 
-1.10892338551844 
-0.9408021823453382 
-0.7327532169954664 
-0.5424159626621164 
-0.7327532169954664 
1.285348146563446 
-1.393457227964095 
-1.7847930297772 
-0.7218728949889266 
-0.7218728949889266 
-0.7218728949889266 
-0.7218728949889266 
-0.7218728949889266 
-0.7218728949889266 
-0.7218728949889266 
-0.7218728949889266 
0.8837146461847832 
1.367204319136017 
-0.6454121861288299 
-0.8967879232235783 
-0.8967879232235783 
-0.8967879232235783 
-0.9341828776867648 
-0.3171663745740931 
-0.3481474659180251 
-0.3481474659180251 
0.0147422115300224 
2.811990433117429 
-0.6212459843118388 
-0.7802208644097338 
-0.1630294498710632 
-0.4681358728187373 
-0.4043599510777225 
-0.6136310401625881 
-1.276842246019043 
-1.461895374630597 
-0.7309476873153011 
-0.2817136514845423 
-2.892210706432802 
-1.524680568397199 
-1.116734033495193 
-1.922553875456493 
0 
-0.9861693942119319 
-0.3287231314039777 
-0.3287231314039777 
-0.3287231314039777 
-0.3287231314039777 
0.320006425679182 
-0.3287231314039777 
-0.7486649062349197 
-0.9330655666045575 
-0.6528438606544114 
-0.6528438606544114 
0.07744383070987405 
-1.519722015866566 
0.4443095168586416 
-0.4911913103984278 
-0.4911913103984278 
0.09501479635625031 
-1.20119192904566 
-0.9570590500718907 
-0.9570590500718907 
-0.5863980030574265 
-1.93106671024238 
-0.381577505478232 
-0.381577505478232 
-0.643759645251702 
-0.643759645251702 
0.23476934765304 
-0.643759645251702 
-0.7731130811989188 
-0.4461006637630222 
-0.4461006637630222 
-0.4461006637630222 
-0.3937601138663359 
-0.3937601138663359 
-0.3937601138663359 
-0.3937601138663359 
-0.3937601138663359 
-0.3937601138663359 
-0.3937601138663359 
-0.341993583422487 
-0.341993583422487 
-0.341993583422487 
-0.8011049483936077 
-0.341993583422487 
-0.341993583422487 
-0.01037367402646921 
-0.3237064436830714 
-0.175127587551047 
0.4088101994070518 
-0.72263444352814 
0.1866335053290527 
-0.2500508888668762 
-0.2177703943475993 
-0.7967308381561558 
-0.7967308381561558 
-0.7967308381561558 
-0.7967308381561558 
-0.7967308381561558 
-0.4912871230601407 
-1.446199457880405 
-2.924325131837823 
-0.3923968450796252 
-0.3923968450796252 
-0.3923968450796252 
-0.3923968450796252 
-0.7574717888824899 
0.3162356565172038 
-0.09953387055262025 
-0.5264077936270588 
-0.4988411045135838 
-0.4988411045135838 
-0.4988411045135838 
-0.3220598479740294 
-0.3220598479740294 
-0.1721827171821132 
-0.1721827171821132 
1.725502312830121 
-0.8766654759209103 
-0.9461725762123366 
-0.6159503706706042 
-0.2260373411463577 
-0.2260373411463577 
-0.1715025333129781 
-0.1209558467855298 
-0.6248726606168788 
0 
-0.7014047766956096 
-0.6764567639126267 
-0.6764567639126267 
-0.5865496084994298 
-0.8622559640720761 
-0.2669955895620772 
-0.5203304669490466 
-0.2669955895620772 
-0.2669955895620772 
-0.7754478817463838 
-0.6091908255781471 
-0.230579654608558 
-0.230579654608558 
-0.230579654608558 
-0.2195873649812784 
0.6940931456983946 
-0.3030436539011933 
-0.4082479526040818 
-0.4082479526040818 
-0.4082479526040818 
-0.4082479526040818 
-0.4082479526040818 
0.2270239413650119 
-0.6449687908093756 
-0.6449687908093756 
-0.6449687908093756 
-0.6449687908093756 
-0.4511158632889846 
-0.6752789003317738 
-0.4511158632889846 
-0.4151389996709349 
-0.4151389996709349 
1.08906420264393 
-1.94070415938153 
-0.2825257437728219 
-0.2825257437728219 
-0.2825257437728219 
-0.2825257437728219 
-0.7934532169720954 
-0.07424326083097513 
-1.485239911301077 
-1.163181994534741 
-0.7690535018603751 
-0.5493886586593435 
-0.03898959259378471 
-0.4508216488891121 
-0.5862951018117086 
-0.5862951018117086 
-1.868586919088204 
-0.0066720551129602 
-2.886659321356562 
-0.8617747985029388 
-0.8617747985029388 
-1.8030049382545 
-0.4096006395210048 
-1.106666439082364 
-0.2800281374158568 
-0.2800281374158568 
-1.013423569183318 
-1.192459565012109 
-0.8134400418187884 
-0.5248555393917919 
-0.5248555393917919 
-0.5248555393917919 
-0.4915611133171005 
-0.4915611133171005 
3.86247023947961e-19 
-1.432984105080772 
-1.432984105080772 
-0.6181124784771924 
-0.6181124784771924 
-0.3210743273725936 
-0.8928143378161285 
-3.065920414557578 
-0.8928143378161285 
-0.8928143378161285 
-0.8928143378161285 
-1.236505451802302 
-0.5785652281911901 
-1.024571064861635 
-0.6270136123137382 
-1.024571064861635 
-0.7583504940763603 
-1.024571064861635 
0.0005758974339706619 
-0.1009218202935675 
-1.026753352161059 
-0.5723490282130349 
-0.7341790638752701 
-0.7341790638752701 
-1.108040877544334 
-0.7341790638752701 
-0.7341790638752701 
-0.9246652572289296 
-1.021159942827237 
-0.4387765966160008 
-0.5846311285642524 
-0.273780735153077 
-0.273780735153077 
-0.273780735153077 
-0.273780735153077 
-0.2840091948909116 
-0.2840091948909116 
-1.132126064185829 
-0.5450850940304138 
-0.5450850940304138 
-0.5450850940304138 
0.02559584490324814 
-0.5450850940304138 
-0.9656979611289753 
-0.8494558661967164 
-0.8494558661967164 
-0.8494558661967164 
-0.2804361775170219 
-0.6562402665088019 
-0.6562402665088019 
-0.6562402665088019 
-0.6562402665088019 
-0.6562402665088019 
-0.5540176203895324 
-0.5540176203895324 
-1.713930201939964 
-0.6167797544547348 
-0.6167797544547348 
-0.8266250490524277 
-0.8266250490524277 
-0.8266250490524277 
-0.694858591066204 
-0.7274898657621415 
-0.417739692301013 
-1.203264717515776 
-0.7646611221977878 
-1.664687075490574 
-0.4142727655700786 
-0.5847599396681868 
-0.5045324491401815 
-1.359540139041612 
-1.168626219906573 
-0.6359398473978004 
-0.2604874010559265 
-0.2604874010559265 
-0.2604874010559265 
-0.4806240493397784 
-1.017694310255269 
-1.017694310255269 
-1.017694310255269 
-0.4591436762043088 
-0.4591436762043088 
-0.4591436762043088 
-0.2232437440118228 
-0.3952370928606973 
-1.679790924124673 
-0.2552276450065946 
-0.282588069727165 
-0.282588069727165 
-0.282588069727165 
-0.282588069727165 
-0.282588069727165 
-0.6841509149650429 
-0.282588069727165 
-0.7538892028067635 
-0.6482715521659345 
-0.6482715521659345 
-0.4648450701775897 
-1.233538924776605 
-0.5023933659841738 
-0.5023933659841738 
-0.5023933659841738 
-0.5023933659841738 
-0.5023933659841738 
-0.1642218112992593 
-1.759442317906612 
0.6879386666998782 
-0.351041005887592 
-0.6956578249355009 
-0.8880834710140423 
-0.4440417355070216 
-0.6909560449002206 
-0.2658377003122014 
-0.2658377003122014 
-0.544752758783942 
-0.544752758783942 
-0.1994453734538845 
-0.6540795387265497 
-1.431333258071488 
-0.6540795387265497 
-0.3650749438028651 
-0.5336366840240406 
-0.5076493851615786 
-1.785899543294577 
-2.783829239339697 
-0.5261918605590937 
-1.048123354118924 
-0.5261918605590937 
-0.5261918605590937 
-0.5261918605590937 
-0.5261918605590937 
-0.5261918605590937 
-0.2512772269653335 
-0.2512772269653335 
-0.8249944562030812 
-0.8249944562030812 
-0.8249944562030812 
-0.8249944562030812 
-0.8249944562030812 
-0.8249944562030812 
-0.8249944562030812 
-0.4880741933598533 
-0.4880741933598533 
-0.07972002163085568 
-0.4644752026237142 
-0.4644752026237142 
0.191706058437754 
-0.5219314935598299 
-0.5219314935598299 
-0.5219314935598299 
-0.5219314935598299 
-0.5219314935598299 
-0.5219314935598299 
-0.5219314935598299 
-0.5219314935598299 
-0.3175412030637715 
-0.2832835619896725 
-0.2832835619896725 
-0.2832835619896725 
-0.2832835619896725 
-0.2832835619896725 
-0.6935798273132562 
-2.310302434486007 
-0.6951137176993196 
-0.0648320104531762 
-0.6951137176993196 
-1.687249443238783 
-1.431277667198712 
-0.8537487332235025 
-0.1362253492073188 
-1.115342287521412 
-1.064459712243773 
-0.3904784995281997 
-0.6978305177868818 
-0.981835851829024 
-2.810897204672691 
-0.4483596568668387 
-0.4483596568668387 
-1.825524148481813 
-0.4412223426421832 
-0.4412223426421832 
1.665418742097864 
-0.6777967246444835 
-1.058311865242524 
-1.058311865242524 
0.6308525455122765 
-0.8789886990042581 
-0.4814346779638351 
-1.030244873272788 
-0.2692522223444382 
-0.2692522223444382 
-0.5746605419061391 
-0.8633417965097432 
-0.8402476051661611 
-0.5869127277791919 
-0.5869127277791919 
1.730290692526049 
0.04988540662894429 
-0.4264057173102431 
-0.4264057173102431 
-0.5737844802130283 
-0.234238948811675 
0.6942881478411653 
-0.3135808426310702 
-0.8347163664530286 
-0.4666422509802465 
-0.4666422509802465 
-0.4666422509802465 
-0.4666422509802465 
-0.4666422509802465 
-0.06123226241691646 
-0.6035967555922691 
-1.292722513754255 
-0.7455849000754237 
-1.263324678689756 
-0.417024393232225 
-0.417024393232225 
-0.417024393232225 
-0.6588952525931079 
-0.6588952525931079 
-0.5125527185991592 
-0.5125527185991592 
-0.567346931604334 
-0.567346931604334 
-0.567346931604334 
-0.567346931604334 
-1.027553297058798 
0.5981749190420517 
0.07638760017679884 
-0.5946084483816716 
-0.3720312606025498 
-0.3720312606025498 
-0.06364122413070554 
0.4416157362465525 
-0.4745708739333119 
-0.4745708739333119 
-0.4745708739333119 
-0.4745708739333119 
-0.6503333315854476 
-0.9761516577180963 
-0.4446628070594429 
-0.4446628070594429 
-0.253584900824837 
-2.194151623480573 
-0.9060756904926032 
-0.3606492978181011 
-1.090202929218978 
-0.8912244966142991 
0.6865859904774197 
-0.297660387539704 
-0.297660387539704 
-0.297660387539704 
-0.4990742942553257 
-0.297660387539704 
-1.161692330016018 
0.4756057996304194 
-0.8877505561646696 
-0.740298459795479 
-0.6386226724154039 
-1.161826694060648 
-0.6028000020113726 
-1.045773500761939 
-1.487590848139402 
-1.332338164162348 
-0.6360291974765698 
-0.5583339890725707 
-0.9231309255895229 
-0.3191256858424069 
-0.3191256858424069 
-0.5013457808510611 
-0.5013457808510611 
-0.5013457808510611 
-0.5013457808510611 
-0.5013457808510611 
-0.5013457808510611 
-0.5013457808510611 
-0.7610066786939558 
-0.3592812094460567 
-0.3592812094460567 
-0.4064188122492513 
-0.4064188122492513 
-0.4064188122492513 
-0.4064188122492513 
-0.8569640879163136 
-0.1806827460295555 
-0.1806827460295555 
0.6431564150609906 
0.02761573251618619 
-0.4665341796001784 
-0.3201801163215284 
-0.4078191096404408 
-0.3961174788419183 
-0.3961174788419183 
-0.3961174788419183 
-0.8746412030420248 
-0.8746412030420248 
-0.2095969374639902 
-0.006971854525704764 
-0.8504851560912869 
-0.5288059051895726 
-0.5288059051895726 
-0.5288059051895726 
0.1621885440343581 
-0.6706964420951985 
-0.6706964420951985 
-0.4015628452378777 
-0.4015628452378777 
-0.2490388729518299 
-0.2490388729518299 
-0.2490388729518299 
-0.167548333302048 
-0.5783658638443798 
-0.5783658638443798 
-0.5783658638443798 
-0.674812954002366 
-0.8386902669148961 
0 
0 
-0.8709630066937506 
-0.3839905288129903 
-0.3839905288129903 
-1.783221725507137 
0 
-1.151016749137834 
-0.1562434484499535 
-0.8426437916868981 
-2.280569511917359 
-0.3106384113757787 
-0.4284413511209436 
-0.4077724676550085 
-0.4077724676550085 
-0.3464006555421426 
-0.07509653778840818 
0.06370449108157339 
-1.245403061788783 
-1.253744587173789 
-2.004708264852961 
1.129098661504532 
-0.3240895833918954 
-0.3240895833918954 
-0.6457564540681562 
0.04026405241121293 
0.4993655589569372 
-0.6774027090657779 
-0.04357693772448638 
-0.3751991187023694 
-1.405226454917646 
-0.6496445701674033 
-0.6496445701674033 
0.3706218424968168 
-0.4591737663189739 
-0.4591737663189739 
-0.3636974703718945 
-0.3636974703718945 
-0.3636974703718945 
-0.2536997517844939 
-0.5818175497466282 
-0.5620406896783551 
-0.5620406896783551 
-0.5620406896783551 
-0.5620406896783551 
-0.2882003837268413 
-0.3662392041084467 
-0.3662392041084467 
0.9276513145594949 
-0.3662392041084467 
-0.3662392041084467 
0.2068640661644777 
-0.3662392041084467 
-0.3662392041084467 
-0.3662392041084467 
0.1288357984784175 
-0.4434058785081245 
-0.4434058785081245 
-0.4434058785081245 
-0.3925256805237696 
-1.56323352014623 
-0.5110282839898911 
-0.5110282839898911 
-0.4118175418984651 
-1.718301634252128 
-1.718301634252128 
-0.5579301874072542 
-0.4077479045954069 
-1.389617449485906 
-0.4077479045954069 
-0.4077479045954069 
-1.451414998262607 
-0.5119798871694343 
0.06929047508269059 
-1.200200089997552 
-1.864102250536918 
-0.2020124624735458 
-0.1327708255629018 
-0.3268209688898867 
-0.285140206612074 
-0.4998287340028759 
-0.4998287340028759 
-0.4998287340028759 
-0.4998287340028759 
-0.4998287340028759 
-0.3845797781664037 
-0.4664921223336455 
-0.7009757091764355 
1.193614737931349 
-0.164906561085287 
-0.005952724389828493 
0.468202275504334 
-0.6163334993521888 
-0.7637500649696566 
-0.7637500649696566 
-0.7637500649696566 
-0.7974388634896572 
-1.362736642593312 
-1.362736642593312 
-1.103407222016535 
-0.4525746000658291 
0.2032916570010658 
-0.4843970340615113 
-0.4843970340615113 
0 
0 
-0.4126202990626963 
0.5087490505281158 
-0.7409047116305311 
-0.7409047116305311 
-0.7409047116305311 
-0.7409047116305311 
-0.7409047116305311 
-0.4699826704117645 
-0.4699826704117645 
-0.3983809303809451 
-0.3983809303809451 
-0.3983809303809451 
-0.3983809303809451 
-0.8199502419880558 
-0.6069125325187282 
-0.6069125325187282 
-0.6069125325187282 
-0.8253800489581016 
-0.8253800489581016 
-1.336129959329037 
-0.8253800489581016 
-0.6279999254297792 
-0.6279999254297792 
-0.6279999254297792 
-1.124148364175889 
-0.8956313820823714 
-0.0323686853680861 
-0.0323686853680861 
-0.0323686853680861 
-0.0323686853680861 
-0.5395285317406687 
-0.5395285317406687 
-0.6198400266766364 
-0.3296105340484483 
2.197608996553308 
0.5099609363974087 
-0.3836669665500304 
-0.3836669665500304 
-1.803316515998453 
-2.121364127059396 
-0.2591973468902764 
-0.2591973468902764 
0.09052729227304487 
-0.2591973468902764 
-0.2591973468902764 
-0.2591973468902764 
-0.5183946937805528 
-0.2591973468902764 
-0.2591973468902764 
-1.001150808327223 
-1.001150808327223 
-0.594878139526769 
-0.7774275162453781 
-0.7774275162453781 
-0.7774275162453781 
-0.8129740101675423 
-0.6652374129302009 
-1.780158795057612 
-1.780158795057612 
-0.8735591016007509 
0.159301594786486 
0.1205232496864201 
-0.3371378802463661 
-0.6742757604927322 
-0.6742757604927322 
-0.3371378802463661 
-0.3371378802463661 
-0.3371378802463661 
-0.3371378802463661 
0.05732575434361715 
-0.3371378802463661 
-0.07730585899850538 
-0.5294913821734182 
-0.5077832914844227 
-0.3166083723774656 
-0.3166083723774656 
-0.5442256980886619 
-0.9994499814910369 
-0.1714703730983581 
-0.05212291221970534 
-0.3432284668866609 
-0.5304097824820069 
-0.5304097824820069 
-1.099761320919722 
-0.5146599280617065 
-0.3821770310685821 
-2.355443162505071 
0.0480209005888965 
-0.1777526507065779 
-0.1777526507065779 
-0.1777526507065779 
-0.1777526507065779 
-0.1777526507065779 
-0.1777526507065779 
-0.1777526507065779 
-0.1777526507065779 
-1.018271575527474 
-0.410627532659927 
-0.410627532659927 
-0.410627532659927 
-0.4140371901603488 
-0.2255042112870314 
-0.172995628921092 
-0.172995628921092 
-1.176919964469966 
-0.1974618456766454 
-0.5425856638217043 
-0.1974618456766454 
-0.455617752595818 
-0.8349598251999654 
-1.308838276831117 
-1.308838276831117 
-0.6729739135156733 
-2.30463385736841 
-1.06051332542502 
0.1667556213671705 
-0.451684403875318 
-0.4425999038406083 
-0.8522124934075945 
