solver_type L2R_L2LOSS_SVC_DUAL
nr_class 2
label 1 -1
nr_feature 9334
bias -1
w
0.3656700848098087 
2.03289255558021 
-2.562924807394381 
-1.517770672734806 
1.721413065254132 
2.054082159368349 
0.4078293754278731 
0.2326846135097901 
1.870946493811795 
0.4266715292949271 
-0.2685146252383335 
0.1099712242388639 
0.1939356306347345 
0.7020735577686966 
-0.2538328247008531 
-1.087586095238472 
-0.5490851055461374 
-2.09478477312869 
0.06860422275942335 
1.887332595320778 
1.830033003209048 
0.341808950071741 
0.341808950071741 
0.341808950071741 
0.4204808517302226 
0.3656700848098087 
0.5900210686313518 
0.5335478382818442 
2.802597774709012 
-0.6992218670487964 
-1.056520723618986 
1.009013757994796 
-0.1488856298547904 
0.5275121181607616 
0.1573169878205381 
-1.069738956354626 
2.170290541772543 
0.7755029828955147 
2.868957665699018 
-0.6424013342277224 
0.2818683388386792 
0.3172911168257489 
1.562813338100712 
-1.622728750082139 
1.876658758932171 
-0.04025521650039156 
0.679558043985972 
0.7186849883377862 
-0.04728603374960266 
0.8690903002164404 
0.3172911168257489 
0.09754776439935127 
0.3172911168257489 
-1.768897518843425 
-0.100000866620811 
0.3642935128247058 
-0.5461433214967409 
0.5955291221650161 
0.3172911168257489 
-1.31365144708012 
-1.562333915309857 
0.3172911168257489 
-0.6031664707217677 
1.188774566848216 
0.6101105609049504 
-1.141088455352788 
-0.7679765256874498 
-0.9747358428784213 
2.219006700387952 
2.445664043377735 
-1.719769422245953 
0.0459178471410752 
0.9949284046512061 
0.2004864736057702 
-0.06064228218963773 
-0.4539114662049339 
-1.344703796510486 
0.3454478503289937 
-1.690659274098657 
1.986779447755511 
0.04241067855925628 
2.163304252603004 
-2.896220143100312 
4.220504357406363 
-3.496007457377334 
-0.2437718151937087 
0.5055918088747244 
0.522670058121828 
0.5055918088747244 
1.441324238028471 
1.33091748092723 
-0.5621414613126208 
0.5055918088747244 
1.781728211112623 
0.9738996308194917 
0.1426975284704928 
2.865376175088359 
0.9654980962797973 
-0.2712395525408951 
1.103464490794615 
1.509111560265528 
1.884132787142592 
-1.006712356797426 
0.9780874027820193 
-1.565944158255997 
6.162471413270429 
0.1403355114301991 
-0.4464842190963048 
1.025904368568901 
2.463159793399906 
0.03820403240793285 
0.4579829350217192 
-0.8287279356568886 
2.837054714120508 
1.688559310683583 
0.9307263827106773 
4.510281037539698e-17 
0.7938502930461332 
5.872549785199053 
4.510281037539698e-17 
4.510281037539698e-17 
4.510281037539698e-17 
1.131049519371794 
-0.7088187789897222 
1.150234878351032 
1.142183611081957 
1.398347459443168 
-0.3068812179114348 
0.1471173561850815 
2.110217404723949 
3.634579768668799 
1.882148075258077 
0.3835170485891536 
0.3835170485891536 
4.366478270963452 
1.327524626756976 
0.1709579219385508 
0.7062082190353826 
4.271968243549864 
0.04273282732696822 
-0.1287976750578638 
2.59651036351375 
-0.8958241672196479 
0.7062082190353826 
-0.04638399377240356 
1.013981426012857 
3.062886384837121 
0.4586353869585878 
1.280744195077372 
0.4401331170012547 
0 
0.1277957963170587 
-1.719622987702979 
1.65942995408895 
4.000378797666121 
-1.281020646894316 
3.886507033849404 
-0.6931688551079521 
2.488247365207958 
0.4455145575147269 
0.5759741919868031 
-2.334216620179649 
2.983557898180065 
-1.345026354889402 
0.3574352217368332 
1.414192323563448 
-1.968668648057984 
-0.3773676554860897 
0.4455145575147269 
-0.7381739833516925 
0.01217806447143137 
1.324314618483054 
0.8321457761693569 
-1.552543200852181 
-2.633419694515102 
1.762460193066989 
-1.279572528299414 
-4.177535348202857 
0.1195723677629773 
0.8534772493745481 
-1.369467465652304 
1.168940521915344 
0.6324101744288347 
-0.9980799142460878 
1.015986191957359 
-0.6539373787234521 
2.344215027231106 
-6.818517089864156 
-0.6827258925724368 
3.866971430304513 
-1.638045410624688 
0.6106268358912166 
0.2940556476704513 
0.9039235834347623 
1.469521665179506 
1.307189212610075 
2.632992048583181 
0 
5.764439024629098 
0 
0 
-0.2283507181361829 
-0.2511229276096299 
0.2603798834294191 
0.592210140165689 
-1.566307550072895 
0.7724888777006421 
-1.26858395163169 
-0.3579557033816719 
1.070316428591512 
1.91626786843873 
5.540573552561425 
0.4658089994748462 
0.4658089994748462 
0.9258190897927541 
0.0901079027178259 
0.4658089994748462 
-2.291742557574235 
0.4706355626955891 
1.217716804049491 
0.1989254283489539 
3.35427388762434 
0.6508032535157388 
0.1984014901102357 
0.3968029802204719 
0.1984014901102357 
-0.9236832807342742 
-2.992137698902151 
0.7840393486637963 
0.7191630708250154 
1.725588870712838 
0.09044803933322887 
-0.8168591183995961 
1.278687668124626 
0.7761989788374261 
0.3902756431978859 
-0.3359313362488594 
-0.1318679713421238 
-0.437448799981866 
-2.339394361762996 
0.7239739296375907 
0.1033371693072083 
2.411899538557592 
3.351839761045306 
4.444612425874145 
-3.49649191249228 
0.8360064120437616 
1.92615380560436 
0.3910035435128384 
-4.308016751366235 
-0.2196975514052917 
-0.4141304932840205 
2.115247331066858 
1.733225124128503 
0.1247064858449716 
0.9809159284459211 
0.60913834325016 
1.650607938238332 
0.3050173784153071 
0.3558982343874446 
0.3050173784153071 
1.536211062497837 
0.3050173784153071 
0.8882863967848406 
0.3050173784153071 
0.7548390148140172 
-0.9776344569839006 
-0.2923336503862945 
-0.7568368480035762 
0.3050173784153071 
1.102875754339718 
0.3050173784153071 
2.3472578533074 
-1.505343880500023 
-0.9380561676215285 
2.391021433468361 
2.672766595553473 
3.487407054353513 
0.09148513060339385 
0.5257997909382507 
2.808146829537775 
0.05086874696498831 
0.8686541321458467 
0.05086874696498831 
0.05086874696498831 
0.05086874696498831 
1.918672395192458 
-1.267413496168112 
2.856872724499304e-17 
-0.5820003771405596 
1.622664769758275 
1.86990873441207 
1.887667825659615 
-2.898897503059753 
-0.1417876184928018 
0.2962103668597637 
-0.4092814212871758 
0.6063664543390629 
0.4598334075344587 
-2.832118340726765 
1.351327790332952 
1.70237418015387 
3.942920318936727 
1.180014777447137 
4.612858583558129 
3.022005175597176 
1.866908996819994 
0.2962103668597637 
0.5575752452897479 
0.5575752452897479 
0.04890894602856957 
2.01466024213855 
0.5575752452897479 
4.235142665037523 
2.83555919081674 
0.03363795444188339 
0.3745927218796002 
0.3745927218796002 
0.05186373406268267 
0.1287060738022986 
0.3745927218796002 
3.546416190578003 
0.6818562757492304 
0.3745927218796002 
2.081710393893154 
1.482568592831554 
0 
0.4673655603949539 
-1.042853997663398 
-0.8103265053964797 
0.4673655603949539 
0.2545265214638621 
0.3591099633029045 
-0.4153084111755493 
1.132504757461743 
1.071651196446839 
-4.483683404507227 
-2.876369516147341 
0.5324946598092409 
1.245445406338578 
0.5324946598092409 
0.5979843037810096 
-0.81116969934976 
0.5324946598092409 
-0.01168865356280279 
2.662572452541418 
1.155340795226372 
0.5324946598092409 
0.5324946598092409 
0.2290636136693328 
0.2290636136693328 
0.2290636136693328 
0.9121088299736713 
0.2290636136693328 
0.2290636136693328 
0.725469819532224 
0.2290636136693328 
3.418109356076958 
1.207738853020265 
0.3344877706938912 
2.893019054900013 
0.3344877706938912 
0.6414780789851992 
-0.877019841683342 
1.649129994230171 
0.3344877706938912 
2.53165105148669 
-0.6634643316588509 
-2.729277758700148 
-2.199975145477452 
1.979937798793607 
-1.833001531430116 
-0.2077057160750135 
0.8805697732810223 
0.7550084759385467 
2.276164996869115 
0.2522388930207439 
-3.427995088739225 
1.183843862279648 
-0.800041560895187 
-4.742076673679351 
-0.7546430242059137 
4.375314590409578 
-4.349100064361819 
-0.8209334014789952 
0.9440712922986009 
0.9440712922986009 
-2.458270786600156 
0.2001983842835412 
0.230858856841299 
0.5391469976110537 
0.2001983842835412 
0.2001983842835412 
0.5391469976110537 
0.2001983842835412 
0.2001983842835412 
1.409181978976835 
-0.1036435091330873 
0.2001983842835412 
-0.3495604464621468 
0.2001983842835412 
0.2001983842835412 
1.073693366057116 
0.2001983842835412 
0.2001983842835412 
0.2001983842835412 
0.2001983842835412 
0.2001983842835412 
-0.4713276305165898 
0.2001983842835412 
0.3822909540787439 
-5.024863629096163 
2.953230671527598 
0.6838417842336811 
0.3822909540787439 
0.0706266723608993 
0.4340396895524606 
0.369399595986445 
0.4340396895524606 
-0.9299941756373356 
2.354412137776512 
3.021943020734649 
2.105794380572508 
2.841734008306369 
1.687751897649225 
0.2782393111328322 
-0.01577695850936338 
0.1230204475187794 
0.3470228266796272 
-0.1736309857086597 
-0.8522163653824152 
1.715672378810799 
0.1972906365739109 
0.9663108870569763 
0.1230204475187794 
0.07881727333154821 
0.3649680681524307 
0.3649680681524307 
0.3649680681524307 
2.502911714172181 
0.3649680681524307 
1.021873508142602 
0.3649680681524307 
2.988875809519945 
0.3649680681524307 
-0.2214908093518062 
-0.124526567034399 
0.3649680681524307 
-0.1234629420494356 
-1.106777709062144 
0.8944360263557972 
-0.01433970057123281 
-1.767645271172696 
-5.89895266759928 
-1.192130796070004 
2.140326156335846 
1.943170620440836 
-0.7287141600206597 
2.463385846501333 
3.08962616935514 
2.712353570566023 
-1.996145244078807 
0.1899257781577078 
2.592189436744813 
1.499170290946988 
0.6564670010205302 
-0.1965007928667359 
0.6035521853192843 
-0.8541245498282543 
0.5801687070212509 
1.509245967768508 
-0.0445707835054483 
1.541493507443229 
1.887759680713311 
-1.543040076845243 
-1.328392934369274 
-1.049967620130366 
0.2378413282317962 
0.5282497116231083 
0.3038568558173936 
-1.960123201753612 
4.21281963211239 
-2.58851517848035 
1.369242047389599 
-1.208675848034737 
2.165243495344611 
1.180504582199884 
0.7886168027250352 
0.8856224810962079 
3.849907757575376 
-0.7645561225176598 
0.7187380358226848 
0.8143274162816644 
-3.569825738453646 
0.7187380358226848 
-2.810367929274396 
0.7187380358226848 
-1.278906387695786 
0.7187380358226848 
-0.02162826694912258 
0.3417994781600386 
0.4341024956268558 
-0.7058564891921791 
1.592572424543418 
0.5419332954312076 
0.9456498226313284 
1.164934180331189 
1.512331009671213 
0.3243936722603987 
0.3243936722603987 
0.3013398298214939 
-0.4926748850986472 
0.3013398298214939 
2.332071781927402 
-1.59674221800725 
0.7303469610801434 
0.7112783068657407 
0.3013398298214939 
2.397032982604633 
2.579350564231643 
0.702687314707432 
0.03167912868989538 
-1.118805996218582 
6.53429999275141 
0.05839562526886499 
1.286119305771362 
4.492709573254091 
-0.7364692407083574 
0.195589681744795 
-2.752436477027651 
0.5611043270554116 
1.284665313516969 
1.088053629185441 
1.818110005183286 
5.574254507621153 
3.735552620363043 
1.021860355875611 
-1.946233524228851 
-0.892429397027057 
0.8771217517281671 
0.9595406687881706 
0.1016283877023296 
0.1016283877023296 
0.1016283877023296 
1.18583603775804 
-0.8001334629108021 
0.1618032572838228 
0.3750541425481072 
-0.6872098650009143 
0.2775606086152827 
-2.151476071605735 
0.2775606086152827 
-0.6826029734073416 
2.868625711200629 
-0.5046162594236918 
-0.3763387360604645 
-2.223271040435582 
0.2775606086152827 
0.2775606086152827 
1.964538256532063 
0.2775606086152827 
0.2775606086152827 
-3.574755327224873 
0.9991203705354709 
0.7016259490281939 
0.201970833000563 
0.1777259495214872 
4.429398322618479 
0.9517631704295164 
-0.3572694170010253 
1.069076384793184 
0.42996850893717 
1.704351505578459 
-0.3852099394090588 
-5.497625472281942 
0 
1.718474336586714 
0.4055369438769045 
-1.406418867681799 
4.379999186136375 
0.2686585678117895 
0.4355059109756494 
2.575503128785484 
-1.69251975443446 
0.6609952440054855 
2.774365386972215 
-0.4269021754785823 
-0.2084912837652063 
-0.4083210276561728 
0.2029413114294643 
-0.2214852384437433 
0.1245527873220829 
0.1504793212356047 
1.625635306681428 
-1.957218611507872 
0.0714522854144712 
1.740274269141692 
3.013144530677123 
0.2410307448445656 
-1.478183803673442 
0.2366021763098095 
0.2366021763098095 
0.2366021763098095 
0.6703443965397629 
0.2366021763098095 
0.7901293410392201 
0.2366021763098095 
0.2366021763098095 
0.7347171918011752 
-1.084393404894788 
3.922995013007303 
-2.721244486809618 
0.4408842024895708 
-0.1080540213892364 
-5.792233146133206 
0.1845103543416166 
1.023789310165498 
-1.922813283778259 
0.6636281516371721 
-2.529054088723178 
0.5462176437615308 
-0.5431784764946403 
0.4826992525966449 
0.6636281516371721 
-0.6077665893721254 
-0.5787106478880764 
0.4449150631744942 
0.2748699103525867 
0.8094896243346427 
-2.765845693063887 
0.8291146316239196 
1.682366219500925 
1.039466705545533 
0.867056853319093 
-0.05366943209723515 
0.7246366885278983 
0.1090537618504382 
1.911646057425783 
-1.635679924297397 
-1.345178652576985 
-0.603431633896613 
-2.943526833793358 
1.155486132432779 
-1.936247836175396 
1.155486132432779 
2.074776685615472 
-1.57407099473901 
1.088776737435192 
1.042290717130032 
0.1004348878308098 
0.2186314417177539 
2.472457414955366 
0.713536229906119 
0.4078792879694631 
-0.2953378688366572 
-1.374175918278289 
0.9283269202250941 
2.441886378367667 
1.623013327049563 
1.115601464400866 
0.945287114398244 
-0.8203446178434335 
0.8905368700378939 
0.05037916020176483 
2.017299615826365 
0.4650127966420493 
-1.081607227837483 
0.2771294288937958 
0.2771294288937958 
0.2771294288937958 
-0.4862696984091864 
0.2771294288937958 
0.2771294288937958 
1.423464384287777 
0.5824607495197559 
0.2771294288937958 
1.666555102567684 
0.9430689512370468 
-1.54879251373592 
0.08960908982420138 
1.58039167710101 
-0.4195104406294981 
-1.295498920814549 
0.2825015541990518 
1.58232874506912 
0.6422096393339675 
0.2825015541990518 
0.4787322348131969 
-0.7884651949925522 
0.4787322348131969 
0.4787322348131969 
0.4787322348131969 
0.4787322348131969 
0.4787322348131969 
0.4787322348131969 
0.4787322348131969 
0.4787322348131969 
2.118398620042633 
0.4787322348131969 
0.4787322348131969 
0.6904104532921561 
0.6904104532921561 
1.118068128765776 
0.3506691863996617 
1.118068128765776 
1.118068128765776 
-1.679640235836517 
-3.822079876615875 
-0.2586409692606843 
-0.2665816256191256 
0.3554155976058546 
2.610083485039416 
1.270805107123303 
0.6862334961258013 
0.383224786280139 
3.780815170943587 
0.4767782508370807 
-1.190415456069052 
0.4767782508370807 
1.45709590302395 
1.427022408464888 
0.6369655818601417 
-0.13742026200763 
1.787757122144526 
0.1767826030696644 
0.3930567861818967 
1.67980865920359 
0.2851508607767959 
1.048743606743558 
-2.202503694757381 
2.117825726424362 
0.312344501047948 
1.075270078504929 
0.2947380444950831 
0.2947380444950831 
0.2947380444950831 
-2.27024576338934 
0.2947380444950831 
1.407628439114637 
3.061832953432605 
0.2947380444950831 
0.9171877230133977 
0.2947380444950831 
0.2947380444950831 
0.2947380444950831 
0.2947380444950831 
0.2947380444950831 
1.633534560345706 
1.987771382303299 
-0.09926746360461805 
0.5461853980817375 
2.662069159143581 
0.5956080566105765 
0.7241629297642593 
0.1433614565826229 
0.05538485579265823 
0.05538485579265823 
3.005128143319788 
2.997827706552708 
1.092518970968894 
0.7404413475669849 
0.05538485579265823 
0.7383082251657025 
1.089044102317646 
0.04593395990812167 
1.274341934697633 
-6.010813550119804 
0.08678310136748803 
1.163806722340246 
0.2631573053131325 
0.3268430180593792 
-3.482683610012054 
0.1976613177257923 
0.3604493595772839 
0.3268430180593792 
0.3268430180593792 
0.3268430180593792 
0.6943549822959721 
1.885527944643895 
-1.131495867521052 
-0.261374488139675 
0.9174320497320875 
-0.1862001073727917 
1.412550235606648 
-5.841591501613681 
1.148622650007076 
0.8163455867486067 
-0.7656668984135917 
-1.565989593805915 
1.148622650007076 
0.449938459166553 
0.4494530691192875 
0.4230256429899614 
-4.14106169740919 
-2.152049501721732 
1.146050600284658 
0.504276978694298 
-3.834184192890556 
0.5180233330979613 
0.6567310736252128 
0.9464974623617585 
1.293795646140838 
-0.4533272006121731 
0.5369591136865622 
3.00772999423635 
-2.64240439918626 
0.2987283757350088 
0.4394660792990718 
0.4394660792990718 
0.7643871555996087 
0.7565767888809847 
-0.9725334634211918 
-2.069659437179077 
0.8175657914914402 
0.8175657914914402 
2.079699390721651 
1.795269911094507 
-0.5232073591048387 
0.1900982160195763 
-0.06865461955165562 
0.7094807996398969 
-2.242037245588313 
-1.555257420631936 
0.0447990010517186 
0.4281366168582485 
0.4281366168582485 
0.4281366168582485 
-0.3743704639379962 
1.497438798887792 
0.4281366168582485 
0.4281366168582485 
0.4281366168582485 
-1.34428834921324 
-0.1886620092057775 
-4.211554672356626 
1.314642223536279 
-1.365336263221393 
1.314642223536279 
1.680084310995035 
1.428303298186862 
1.868576905442094 
2.154124583263959 
-0.4350379169291096 
1.426027097262452 
0.6232787691546383 
3.999374010175808 
1.346005052471026 
3.647250587123622 
-0.409053443214248 
1.286523785999001 
0.4699778266056773 
0.8888025563787434 
-0.3495556865613264 
2.046822269912312 
0.9377793759374644 
-1.41183050450774 
0.9377793759374644 
1.2717837051359 
-1.351989532921566 
0.9706024058174196 
0.9377793759374644 
0.9377793759374644 
2.521373760762621 
1.116447562320838 
-4.449810749916585 
1.116447562320838 
-0.8533776274631243 
1.116447562320838 
0.982781730670903 
0.4783062287556453 
0.6212546781119699 
0.4783062287556453 
0.3888008953667295 
0.4374136169668063 
0.3888008953667295 
0.3888008953667295 
-1.245003584738015 
0.3888008953667295 
0.3888008953667295 
0.4219561405434827 
-3.349498595757663 
1.368690537615774 
1.877685506409664 
1.365300193636339 
0.2786396434340808 
1.476872860462497 
0.706505264292986 
0.7962727284138917 
0.706505264292986 
3.742186602310181 
-1.314512787876046 
0.4975008732669247 
4.027081331881707 
1.445051483607049 
1.429096669353439 
0.1721808421355609 
0.1721808421355609 
1.48955707641472 
1.502390075528365 
0.1721808421355609 
0.4599274740188198 
-2.10385455442615 
1.97222092989623 
1.804819652808316 
-0.8652658453790575 
0.3794962261501136 
0.5985609569504978 
2.237333947463156 
-1.152240769285993 
2.111015974666769 
0.3663170760649535 
1.23235868362756 
0.3663170760649535 
-1.166477376621597 
0.9853063111854744 
-1.09804942312797 
0.9324806075036467 
-4.125591360543098 
0.6459692319574363 
0.6254598755757134 
2.777496866591413 
0.6254598755757134 
0.2011581858953314 
0.2011581858953314 
0.2011581858953314 
2.32887710590779 
-3.468736764736521 
0.2011581858953314 
0.2011581858953314 
0.5342862438095305 
-0.4549387320363518 
-0.2899473791856822 
1.318218422247429 
0.3301196723108747 
0.3301196723108747 
2.006120119872509 
-0.823081547515673 
0.3301196723108747 
0.3301196723108747 
-0.8095846175833865 
0.8671572642791977 
2.004894457034733 
3.584425767797438 
-1.197753850221296 
1.49714315747776 
0.4530503434095733 
0.4530503434095733 
0.7429090914467821 
0.08981967664693916 
2.303150120292983 
2.890920792327056 
-1.026021328389242 
2.535256684637205 
0.5971321787018845 
2.744345483504977 
1.049336335802941 
4.402372584970882 
1.044895092368201 
-0.6493190178615479 
1.350928482397468 
-2.325426316633552 
0.5900552826647754 
1.226349810877475 
0.5900552826647754 
0.1742045448710675 
0.6712474184111937 
0.1742045448710675 
1.839156820315186 
1.569423133433026 
-4.07342544265723 
0.1742045448710675 
-0.5240831004263512 
0.1742045448710675 
-1.959823565892422 
0.5579306241732334 
0.4951156505790846 
0.398790903798723 
-1.715294539611224 
0.3237032331996643 
0.2702669349448452 
0.9057216532001732 
-2.574932709599995 
0.2702669349448452 
-0.6004765962416351 
1.833191785305215 
0.2702669349448452 
1.072272807060361 
0.8104540053274575 
1.263049377127481 
0.2885868233086273 
1.280202727732606 
2.168955054039523 
-1.119450695567986 
-1.47762861964719 
-2.179753493484975 
0.6401013638663023 
0.0844461887977003 
0.00665398949365658 
1.079935536217425 
0.00665398949365658 
1.126552451621337 
1.215845296063673 
-0.7900779019247134 
0.5856396702166815 
0.00665398949365658 
0.3439699050296328 
0.6391166925441389 
0.9387703798790854 
1.329953212507055 
-0.05323573402154808 
0.3439699050296328 
0.5791243706956923 
1.025323826037819 
-6.249223350145089 
6.412899952152247 
0.3439699050296328 
-0.8675377073476001 
2.396171228943373 
2.396171228943373 
1.147596436656941 
2.159501875276077 
0.1334784746800211 
-1.21657371263438 
0.130211818260092 
-1.23645976903628 
2.116467698321784 
-1.764609179336682 
-0.2410820516341824 
2.746422726927264 
-1.196322297743855 
0.2411644190733158 
0.3016561811110338 
-0.5171118095888023 
0.3016561811110338 
-1.029646951127367 
0.3016561811110338 
1.109722316837179 
0.1903197328000483 
-0.4070115968627493 
0.09515986640002438 
0.7471053416387755 
0.7471053416387755 
1.194522739964747 
0.7471053416387755 
0.5757123676055699 
0.7395445811447251 
-0.01744732930328824 
-0.7253809707836131 
-0.3957992614119603 
0.8192566674239277 
-0.148550658120457 
0.4390547658814528 
1.073102114416776 
3.851655244437303 
0.6375568977333205 
-1.275451414233901 
0.6375568977333205 
0.6375568977333205 
0.6375568977333205 
0.4099291180889428 
0.9503498219088347 
1.085668580059352 
1.085668580059352 
2.520173756992529 
3.376537606853871 
2.89792926765673 
-0.4409277259099831 
0.08912474233344631 
0.2643707825626292 
-0.5134545808999443 
0.2643707825626292 
0.2643707825626292 
-0.1515741741419581 
0.1329447905328328 
-1.818144435496132 
0.2643707825626292 
0.2566851686933273 
0.2643707825626292 
0.2643707825626292 
0.2643707825626292 
-3.694968645079255 
0.09764563856202782 
0.592043531352614 
0.2643707825626292 
0.4783924686295231 
0.2643707825626292 
0.4576467627852828 
0.09388755419530677 
0.364167806197546 
0.1226953873366919 
-1.943025901606063 
4.182577626898798 
1.111877550122547 
0.364167806197546 
0.728335612395092 
0.364167806197546 
-0.6783075248791612 
-1.093143807795893 
-0.5963959750595816 
0.364167806197546 
0.364167806197546 
0.9680997915304257 
-0.0396778185714259 
-0.3152918119573729 
-0.2753814031055345 
-0.08570942520944885 
-1.16559920745981 
0.4526530284073922 
0.5581630806790935 
1.570734710587086 
0.5747082076903001 
0.1953566355114463 
-1.137295565510812 
1.584670226595801 
0.5660495075899423 
2.082055307786933 
0.8977663736009984 
0.1649759182708127 
0.7457863949221194 
0.5541749173699042 
0.7457863949221194 
0.6832694179106447 
0.268935528913909 
-0.002121578264954788 
-1.119444539183406 
0.5576619070651549 
0.5576619070651549 
1.075094235237207 
1.617826428525318 
1.111190503213176 
0.6469395072880576 
-2.554586740731661 
0.6469395072880576 
-1.079508354895769 
0.7261126474753778 
-0.04434927926615345 
0.3013796086564005 
0.04808766144170107 
0.5353339253901277 
0.04808766144170107 
2.093221706901258 
0.404788339642872 
-0.3562343541557603 
0.404788339642872 
0.404788339642872 
-3.586311258500861 
0.8814048128280239 
0.8814048128280239 
0.8814048128280239 
-1.238523510266881 
0.6817446741577537 
0.509513157185576 
0.2286539691475284 
0.5302619619201305 
0.2286539691475284 
0.2286539691475284 
0.2286539691475284 
0.2286539691475284 
0.6223670650540176 
1.199484919478709 
0.5166017693826345 
0.09722772335594311 
-0.07324748762589368 
-4.32971454796486 
-2.931891688927855 
0.5166017693826345 
0.7514246087023059 
-0.3625636852506905 
-6.353660541088773 
0.7955985058672125 
2.123816927131687 
0.7955985058672125 
0.7955985058672125 
0.7955985058672125 
-0.405994510218524 
0.2790777448416271 
0.2790777448416271 
0.2790777448416271 
0.2790777448416271 
0.3239456361564615 
0.2790777448416271 
0.2790777448416271 
0.2790777448416271 
0.6257380453774839 
0.2790777448416271 
0.5080054071385808 
0.3378509066193605 
1.15371055830375 
0.75090403352001 
-0.6080605903093305 
-5.280584331931977 
1.246699490941442 
-1.578529138717663 
0.3924087338016995 
0.7595207399430305 
0.3924087338016995 
1.602820867255559 
0.09404447174784591 
-0.5553146829424708 
0.5305263337087371 
0.510001617213107 
-0.4267369076668206 
0.3379265191231375 
-0.2585053820104715 
0.3379265191231375 
0.5246323143798006 
0.7027950295437315 
0.6913695780685728 
-1.508246760740802 
0.1292293629634483 
0.1292293629634483 
0.4439985405728871 
-1.932612661699525 
0.4439985405728871 
0.4439985405728871 
0.1752445943696766 
-3.057784386529248 
1.172429756412584 
1.103004612680542 
0.3340043291984354 
0.6916322040502095 
0.8102214322894347 
-2.592854692132259 
0.118899335899957 
0.4127077340625585 
-0.3507460783754187 
0.3855215520564005 
1.28261428405935 
1.079218608735451 
0.537922738379853 
-0.7963900034120531 
0.537922738379853 
0.3188159022831347 
1.102109604103726 
2.67916582080716 
2.67916582080716 
0.9117924220899035 
-0.3409086032625097 
1.694891370505528 
3.308984341727972 
0.6542274568838842 
0.6542274568838842 
1.082172006815928 
0.3215571777992896 
0.3215571777992896 
0.9342998775608282 
0.3215571777992896 
1.616852328330257 
2.653996061238272 
0.0891079320806199 
-0.4447081414732668 
1.777935937457135 
0.72139647866462 
0.9880638238020196 
0.7541862202049099 
0.7541862202049099 
1.200109805524377 
1.134837014353128 
0.7541862202049099 
0.7541862202049099 
-0.4847376328601306 
0.903662296881781 
0.2906949911286792 
0.6925990678817201 
-3.790347128735549 
0.2906949911286792 
0 
0.9875592574183639 
-1.240765889372403 
1.51048788879893 
0.9875592574183639 
0.9875592574183639 
1.422560499082845 
-0.1671826205172306 
0.3749587881820179 
0.3975391385769775 
3.996907874615192 
-0.6901645312331033 
0.3744744041974821 
-1.193461479095913 
0.5484581853358409 
0.3744744041974821 
0.3744744041974821 
-2.311234418058544 
0.3309786759558078 
0.8685488946831383 
0.536179213105338 
-0.8630845781693217 
-0.4368934049975999 
0.9429291409552797 
0.9429291409552797 
-0.08568383004447956 
0.3500223162788254 
0.7739656410736356 
-0.2162095926197197 
1.16602995545729 
-3.363684556663946 
-1.235346710681468 
1.477381308048924 
0.6016373920030947 
0.3869828205368178 
0.3869828205368178 
1.87321884758732 
0.5047524248186219 
0.3958715670409275 
0.3958715670409275 
-0.1219306026851499 
0.3958715670409275 
-0.9749612156761557 
3.884402090149619 
-0.3641992507601042 
2.090810209743898 
-0.4496200284230136 
-0.6478273026181091 
0.5748709177098841 
0.3507802304218436 
0.3507802304218436 
0.3507802304218436 
-0.02905044685172026 
0.1549303757148739 
0.1549303757148739 
0.1757296199024131 
0.1549303757148739 
0.8911973118071744 
0.2444692146191947 
0.7953424762164073 
0.2655582702590327 
0.4459235853194673 
0.4459235853194673 
0.4459235853194673 
0.634174780275843 
0.4459235853194673 
-1.15623099404851 
-0.8492871844520867 
0.4459235853194673 
0.811040613647647 
-0.8464808319724469 
0.2195348845736296 
0.2195348845736296 
0.2195348845736296 
-0.0852741018949061 
0.2195348845736296 
0.3024828362911387 
0.2195348845736296 
1.06844651422167 
0.2153579086983614 
-0.6364759996538022 
0.5592687092743915 
0.5592687092743915 
0.2281818295764673 
0.9354587547243469 
0.5592687092743915 
0.5592687092743915 
0.5954985903356166 
0.5954985903356166 
0.5954985903356166 
0.5954985903356166 
2.329571779558183 
0.4754876020061762 
0.4908112090045812 
2.055686350530754 
0.4908112090045812 
0.9544798127340626 
2.205385841165206 
-0.5140907642424649 
0.2540154865170999 
0 
0.4742983615270609 
0 
0 
0.03254283034721591 
-0.324693105615032 
1.236122983562541 
1.000492376739543 
0.6108957870455289 
1.768854095177013 
0.1193552921567837 
3.76328446757382 
0.4960039878132713 
0.8107634676516144 
0.1730556941754244 
0.8349526011407833 
0.4960039878132713 
-0.04277433032860992 
-0.9547786145159988 
0.5350735759029119 
-1.200005424238958 
1.54059172751386 
0.5350735759029119 
0.1126297112780421 
1.904341467826832 
0.2440660295287904 
-0.9941839787193462 
0.2945102044791246 
2.230303331557449 
-0.5401457502586043 
2.619936001354688 
2.779314273070528 
3.024883684644987 
0.3815911423305354 
0.3815911423305354 
0.3815911423305354 
0.6436332542709535 
-0.1093758248727755 
0.3815911423305354 
0.3253024518472388 
0.3253024518472388 
0.3253024518472388 
0.3253024518472388 
-2.557603951072167 
0.3253024518472388 
0.6520444507786276 
0.612720690307072 
0.3556386037920615 
0.3253024518472388 
0.3253024518472388 
1.729248717929259 
0.7333887186796626 
0.3253024518472388 
-1.134110203791121 
-3.525174904577614 
-0.1214209508852763 
0.3578775290202522 
0.3578775290202522 
0.9415583551637652 
2.330441339775778 
0.2072854535779215 
-0.9743170035810587 
0.2755610910791602 
1.341024955539716 
0.3585819460187818 
1.079672838967051 
0.009871577598474174 
0.009871577598474174 
0.6546523515701367 
-2.207344024588298 
3.654596144128196 
1.280593412002258 
1.805461227017153 
-0.7028050247754875 
0.137674247390455 
1.013954851528527 
-0.294756649282484 
-2.826857999851462 
2.414741887187924 
0.8198997720916343 
0.8198997720916343 
1.225616500493095 
0.7956145824594031 
0.7956145824594031 
-0.4827384653285962 
0.5509600870583543 
0.5509600870583543 
0.5509600870583543 
0.5509600870583543 
-0.5165734454471584 
0.5509600870583543 
0.5509600870583543 
2.173136629683247 
0.5509600870583543 
0.4753811258160048 
1.949036262646647 
0.7130854451532289 
1.952018467419575 
0.7952771846921358 
-1.270210365580785 
0.7952771846921358 
-0.1656642972344619 
-1.613178307436711 
0.7952771846921358 
1.19718561546154 
0.3768747619931157 
0.3768747619931157 
0.3768747619931157 
3.620766322119792 
0.152167234703663 
-1.445567852515768 
0.1219123870537887 
0.1219123870537887 
0.1219123870537887 
0.1219123870537887 
2.092156655307885 
1.64895390516759 
0.1219123870537887 
0.9041823692295609 
2.319904420688814 
0 
1.863090564250387 
1.307985766451489 
0.2340949672975063 
-0.2063662797982367 
-4.794460788582561 
0.739415545215347 
-0.2037886682172023 
0.3300922271896843 
0.3552604015595893 
0.1784351385998437 
0.1784351385998437 
0.3568702771996874 
0.1784351385998437 
-0.1095116923432517 
0.1784351385998437 
-0.1419339818209827 
0.6643770463291443 
0.7446848139088412 
1.901921064411509 
1.083057862590113 
1.362409406024942 
3.164781370895272 
-0.07472580007065732 
0.6218899242217723 
-3.979839194829855 
0.6218899242217723 
-1.955805194251806 
-0.5484312238673908 
0.2387751113070593 
-0.1031852704423657 
4.327389776158812 
0.9456427315074082 
0.546251631933906 
0.3653228506970402 
-1.10782214116637 
0.5294081897213969 
-4.375144884953851 
-0.2479511051987876 
0.2860218425479556 
-0.5836701497427857 
0.1387703419997683 
3.377317129015863 
0.2653532684916569 
0.2608647734802193 
-0.199570974937107 
0.4848284339528431 
-2.247964000169516 
2.600805334767309 
-1.865226697207207 
-0.841756213930148 
-1.956125822335675 
0.4848284339528431 
0.1642565886299491 
0.006054897329547438 
0.4848284339528431 
-3.162987613599557 
0.273521103966715 
0.5043937698376471 
1.444775272436786 
-3.183078192229753 
1.752441021899421 
1.843976623837744 
2.145463889725522 
-0.1620775981174553 
0.02379082363645163 
0.9397647285942256 
1.103108857670436 
1.024266797828057 
-0.7450871885143185 
0.8017326221547916 
0.7439461162039029 
-0.6734218688433431 
1.374785158949694 
0.7439461162039029 
0.6053555204246522 
0.6053555204246522 
0.6053555204246522 
-3.004836058534909 
0.986887380933543 
0.1231247876647218 
-0.2634199979359312 
0.2692413344665143 
0.4426585394877939 
0.222564298983976 
1.502899206058335 
-1.638616471763956 
0.5111492343544189 
0.5111492343544189 
0.5111492343544189 
-1.494841939336187 
-2.224486851953509 
0.7054188103986216 
-1.049909150812343 
2.803734879256124 
-0.7691767458841926 
-1.134818403448022 
0.1805371369333226 
0.4134130111748516 
0.4969491740135696 
0.9236389468435882 
1.751627257948962 
1.369565253408515 
0.9370480638585889 
1.588272412686233 
1.773021790924832 
0.5961532623053213 
0.8241704247791051 
0.2536068674214164 
-1.157484364739565 
0.5213747818462799 
0.2536068674214164 
-0.6595192662492723 
0.4543474047489016 
0.4543474047489016 
0.4543474047489016 
0.4543474047489016 
0.4543474047489016 
1.054670951628288 
0.453265239576195 
-1.059893100744906 
0.453265239576195 
0.06049031920982156 
-1.096141262061204 
0.473984300040737 
1.072085840816924 
-7.904486503684476 
1.072085840816924 
1.072085840816924 
1.915324658066608 
1.072085840816924 
0.8167483295310121 
0.2486988595022902 
0.2486988595022902 
-0.2577521860971565 
1.261269469770731 
0.2486988595022902 
1.382025449890443 
0.2486988595022902 
-3.380643738836671 
0.3290775776806681 
0.5844643036457715 
0.3333237043209297 
0.3290775776806681 
-1.703516564281303 
-1.114993880001757 
-0.2367924138807717 
0.4746560391810587 
0.4746560391810587 
0.1269284147988801 
0.1269284147988801 
-0.1418255314043303 
0.1269284147988801 
1.548420836961108 
2.314161533976512 
1.08318834773132 
1.08318834773132 
0.9506298340440928 
2.092656201691029 
-0.9240947615640669 
0.2528651250183016 
0.6432848313418641 
0.3266075424364829 
0.5218375833639726 
0.5218375833639726 
1.569251727878893 
0.3416430315893876 
0.3416430315893876 
-0.7259681597583835 
0.8668194294109564 
0.8668194294109564 
0.2024612177629264 
0.8838055055176612 
0.8838055055176612 
0.8838055055176612 
-0.1405933179228669 
1.589158179077836 
1.050693603605253 
0.377427088539537 
1.665536816512618 
2.3460077460214 
-3.319095654526151 
2.6472946664544 
0.4552342342665598 
0.4552342342665598 
3.548837543152989 
1.538217426702421 
0.5227978998938059 
-0.8381240732789635 
0.5227978998938059 
0.5227978998938059 
0.5227978998938059 
0.5227978998938059 
0.5227978998938059 
0.5227978998938059 
-0.02255138706696069 
-0.1292990994531939 
0.6439616843457222 
0 
0 
-0.5895576653100144 
0.4851912746243232 
-0.07796530157923597 
0.2730061604793663 
0.2730061604793663 
-0.3277906624996591 
0.2730061604793663 
-0.2663800348705325 
-0.1702681417676286 
-0.4827896457436923 
0.9521537105128753 
0.8112774593129359 
0.399260216696375 
0.399260216696375 
-6.301925127571995e-18 
-6.301925127571995e-18 
-6.301925127571995e-18 
0.9491767313252999 
-6.301925127571995e-18 
-0.1194171990469484 
0.2308551106085401 
1.577056216703432 
1.577056216703432 
-4.409332315153277 
1.366603803292153 
1.076913696617844 
0.6046539229239709 
0.2843153447826741 
3.270740700122292 
0.7359599011739544 
0.5834255645541022 
1.064761064297848 
1.064761064297848 
0.2083037397941327 
0.2083037397941327 
1.418638364216118 
0.4669333322325214 
0.4669333322325214 
0.73884326945768 
1.084933027972204 
-0.03493739365025474 
-0.7161654599770318 
0.8245151470323304 
0.1906955724609624 
0.3973787823562757 
0.647695271181653 
0.647695271181653 
-2.785875081051461 
1.086770237437506 
0.5346397254277583 
0.6262926849836021 
-1.077999170506432 
0.6262926849836021 
1.690902291023976 
0.9968843573568326 
0.4847716997510765 
0.4847716997510765 
0.4847716997510765 
0.1712487356516191 
1.483255289086278 
0.1712487356516191 
0.1712487356516191 
0.1712487356516191 
0.9588489663701847 
2.904342218582549 
0.9662851482823304 
0.4959666492670289 
0.4959666492670289 
-0.263732343788852 
-0.05831745297074244 
0.8320398680209065 
1.51721208461783 
1.085304060993558 
0.5655039818757406 
1.162555817264782 
-0.0155373622535089 
1.446340674841468 
-0.6083226892040653 
-2.424777735255917 
-2.180805054468634 
1.300857955753016 
0.3917997661631709 
0.3917997661631709 
2.46842126614025 
-0.5670797442171848 
0.3657966173829512 
0.3917997661631709 
0.2755675361959064 
0.3724027195373854 
0.3724027195373854 
1.387778780781446e-17 
0 
0.808840233525285 
2.105023146656516 
0.3981249361391457 
0.3981249361391457 
0.3981249361391457 
0.3981249361391457 
-1.854258260910759 
0.3418436477972246 
2.882101542069265 
-0.2029078274424717 
2.504495931941998 
1.120628403398586 
1.091457134033323 
0.7192315764962877 
-0.8937671358865408 
0.7192315764962877 
-1.468643272184819 
0.7192315764962877 
0 
0.3783199744758203 
-0.6806388319225948 
0.5926856700498888 
1.346416807462049 
0.5926856700498888 
1.771500748976067 
0.9806752227006845 
1.840501778789653 
0.3254938778201688 
0.3254938778201688 
2.755807159328556 
0.4948373154058051 
0.4948373154058051 
0.4948373154058051 
0.4948373154058051 
0.4948373154058051 
0.4948373154058051 
0.2268674235440216 
0.4948373154058051 
-2.065965188230189 
0.4948373154058051 
0.4948373154058051 
0.4948373154058051 
0.4948373154058051 
0.8514592396807985 
0.8514592396807985 
-0.8176161267960483 
-0.71943174105084 
-0.71943174105084 
0.7541651445682899 
0.3092492650868496 
-0.4966692982861992 
0.3698890160505468 
-0.1695285227861287 
0.9442837515780537 
0.3843207129174795 
2.017074433946958 
0.2804341981069679 
0.2804341981069679 
0.2804341981069679 
0.2804341981069679 
-1.269862807652755 
4.633142264747433 
0.1927521589553407 
-0.8924969343831286 
-1.282995937914912 
0.2395179151095721 
-0.002210281052469512 
0.424420630181047 
1.957907911963728 
-0.9763733305174327 
0.4640524840094798 
1.143511641659221 
0.4640524840094798 
-0.8111329225554568 
0.4640524840094798 
-0.3323552316402641 
0.4498216363987102 
0.4498216363987102 
0.4498216363987102 
1.485166816630145 
0.09468002586392218 
1.488106997574709 
0.9109734196982521 
0.4498216363987102 
0.9537318889784039 
1.453957841219341 
0.5065533027396941 
0.5065533027396941 
2.313023670006848 
3.469446951953614e-18 
-1.5510759912058 
1.055776772001719 
0.3734858530054125 
0.9894386519394398 
0.9894386519394398 
0.3205343729353197 
-0.827190692939659 
1.028163597733858 
1.487657819753944 
0 
0 
2.223192320833294 
0.264710713881437 
-0.626413552422227 
1.128539562511806 
-0.1214311866380771 
0.1641654363631061 
-0.5334040663572881 
1.098419217729083 
-0.9590356841041886 
-1.443201336251962 
0.3070729193421173 
0.3318302567362704 
-0.7786182397990564 
0.3318302567362704 
0.7520233003947221 
0.7520233003947221 
0.7520233003947221 
0.7520233003947221 
0.7520233003947221 
2.347415336874171 
0.5273294925484123 
-0.2922083798602246 
0.11343445579491 
0.2841190987794751 
-0.1639317548971961 
0.3428005053013318 
0.3428005053013318 
0.3428005053013318 
-1.224046627824215 
0.8753723117841883 
-1.179423581077625 
0.09917238790945841 
0.3413171300557605 
0.3413171300557605 
0.3413171300557605 
0.3413171300557605 
1.070459523535686 
0.3413171300557605 
0.3413171300557605 
-0.5037053029587485 
1.781036339603316 
1.818326567291877 
1.545867852606053 
1.545867852606053 
-0.09872299229476418 
-6.938893903907228e-18 
-0.280007882172821 
-0.2170464310430936 
-3.184237131380718 
0.4508661684248088 
0.5515999059615925 
-1.03648773991479 
0.5515999059615925 
0.5515999059615925 
0.5515999059615925 
0.5515999059615925 
0.5515999059615925 
1.025898267488653 
0.5515999059615925 
0.5515999059615925 
0.1749213529852299 
0.5515999059615925 
1.703518910367991 
1.130501507610023 
0.8288935148374207 
0.8288935148374207 
-1.596914982404896 
-0.3744781210817233 
1.400950488143992 
0.6191129553050608 
-3.266250942631146 
-2.151188871841173 
0.3287514730210669 
0.3287514730210669 
-3.179308300704811 
0.3287514730210669 
0.3287514730210669 
0.9805839863440063 
-1.794377161392441 
0.7129117547422742 
0.4383199500308401 
0.7309281859616102 
0 
0.3459490420051828 
1.063197888182164 
0.3459490420051828 
0.3459490420051828 
0.3459490420051828 
-0.5645233475478769 
-0.3820853895077438 
1.213433482465089 
1.524518987057246 
0.50644096497685 
0.02272619575257184 
0.4098353526573768 
0.4098353526573768 
0.4098353526573768 
6.938893903907228e-18 
2.967582014996058 
-0.3589603498878888 
0.4130180667404971 
0.4130180667404971 
0.4130180667404971 
0.4130180667404971 
-0.5528871770754711 
0.4130180667404971 
0.4130180667404971 
-0.0594541132503985 
0 
0.2121555348571276 
-0.3526891303260727 
2.070751994031605 
0.6695157586169298 
1.119064618864427 
-1.135204021548205 
-0.339419121129915 
-0.4334834573082126 
0.3241566555788924 
0.3241566555788924 
0.6084766454052384 
1.328971760217346 
3.288275972686672 
-0.5832614606020327 
-0.2973029152341722 
0.3323565210411907 
0.3323565210411907 
0.3323565210411907 
0.474298361527061 
-0.3121239100868526 
-0.32394897115125 
0.8757492905141674 
1.587095699948208 
0.474298361527061 
0 
0 
0 
-0.4280629739328794 
0.1808722758600507 
0.3403460753715244 
1.465726633766823 
0.8406709596956207 
0.8406709596956207 
0.8406709596956207 
-0.3467410579339315 
2.603344362469424 
-0.2183170439597073 
0.3229915916960704 
0.7797219733469678 
-0.7059948158026804 
0.1701619979603972 
0.3262268255465002 
0.5216116875703047 
1.082613817755714 
1.082613817755714 
0.3735414018621968 
0.07972203681363992 
0.3735414018621968 
-0.7549335111406301 
1.13257786656956 
0.4431315257740396 
0.3195432006349902 
0.4823986531622011 
0.4823986531622011 
0.4823986531622011 
0.4823986531622011 
0.4823986531622011 
0.2201503907637191 
-0.8019905698394595 
0.4403007815274392 
0.2201503907637191 
0.4793817332768353 
0.2201503907637191 
0.7422440325387218 
0.629559979888072 
-2.883608753183475 
-1.73305137124746 
-0.6476874099958638 
0.8993180460385002 
0.8993180460385002 
0.8993180460385002 
-2.473977188192638 
-1.041821195918048 
0.8697714869531522 
-2.606981573595515 
-0.7277341908187483 
0.3858545682964991 
1.354042611465287 
0.7257117312050082 
0.8975491613302259 
-4.324751342248994 
0.7257117312050082 
0.4322492210031167 
-0.03139510481602752 
0.3961004383034625 
0 
2.641465442015422 
1.498248215493955 
0.6288712306173538 
0.1283989003810637 
0.7406259327289978 
0.4771483748043571 
-3.288287826115239 
1.758404856820257 
0.408525077957022 
-0.1201795502683418 
0.3680837733728963 
0.7776561610390094 
0.7776561610390094 
0.7776561610390094 
0.7776561610390094 
-3.226584890727162 
0.4074711516373292 
1.26221773079886 
1.26221773079886 
1.26221773079886 
0.5477364910578854 
0.4446788140506377 
1.030859053899458 
1.048841315046344 
0.540339665210767 
2.525553415918627 
-3.938490984391843 
-0.2644212326216792 
-0.8956186065742348 
2.39613119034251 
0.3351207823158319 
0.3351207823158319 
-9.698939744844708 
-0.4185266737695696 
0.07040553511316083 
-2.126875542937383 
0.8451134463104852 
0.4570705683893508 
-2.528304536168535 
0.4570705683893508 
2.187126644682934 
-1.82083193377267 
0.2848338179800621 
0.6778207055107699 
0.1791652314410327 
-1.339460882660262 
2.751547472551292 
-1.541443573561227 
0.5583080991797751 
0.5583080991797751 
-0.7652492476407418 
0.5583080991797751 
0.07946532444093415 
0.03973266222046708 
0.03973266222046708 
0.2445249212626739 
0.03973266222046708 
0.7129507465293372 
0.7129507465293372 
0.7129507465293372 
0.8837344903957876 
2.723491296950987 
1.777046655211963 
1.194432949604659 
0.2415371469947371 
0.2415371469947371 
1.290620330075683 
1.122272620868844 
1.122272620868844 
0.496406205862891 
0.2227933271031489 
0.9295108954404258 
1.973292998842726 
0.496406205862891 
0.08105937612281394 
0.7910170700499435 
0.7910170700499435 
0.7910170700499435 
-1.402126203232796 
0.8243294726122615 
-0.1454686440817939 
-0.1997098257027569 
0.7078523171639429 
0.7875454011616491 
1.342101115421805 
-2.545521066248936 
-1.437995769470579 
0.7875454011616491 
0.7875454011616491 
1.4287068161392 
2.129557611403059 
0.569259577624641 
0.3534340237746997 
1.188690015601046 
0.4331114638360971 
0.4331114638360971 
1.089434768137973 
1.089434768137973 
0.3071930600668898 
0.3071930600668898 
0.3071930600668898 
1.206026330468565 
1.94209983236961 
0.7976709719876728 
0.7976709719876728 
0.7976709719876728 
-0.01941514886603377 
0.7976709719876728 
2.000985127070235 
0.3436800588781642 
1.189552392629673 
0.3436800588781642 
-0.4478703962689528 
0.09112624559143144 
0.09112624559143144 
1.022804689859441 
0.28007502618916 
0.28007502618916 
0.28007502618916 
0.28007502618916 
0.28007502618916 
-0.6960728346246133 
3.366338715012682 
-1.071300551304578 
-0.8861436137106669 
-2.241048829167803 
0.4495488602474974 
0.4495488602474974 
0.4495488602474974 
2.523275189390935 
0.4495488602474974 
1.061998292296493 
1.061998292296493 
1.061998292296493 
0.4061574712808729 
0.7458108615985116 
0.1018410426113885 
1.651321528575981 
-1.474174885834723 
0.6850402617613793 
0.1085983606297261 
-1.142770654928963 
0 
0.1595611164272451 
0.4610640721593057 
0.4610640721593057 
0.4610640721593057 
-1.032931893179651 
0.4610640721593057 
0.4610640721593057 
2.574730024427732 
0.7207585714984661 
0.9553356033021115 
-0.07929440668755409 
0.5805613676935887 
0.128282388796929 
0.7171629551061955 
-2.748229302936564 
-1.440302980199197 
-1.642245501498827 
-0.3288011631238937 
0.7510187627573637 
0.5194621883820668 
0.7913602841356636 
0.8490664770310776 
0.4381477526454149 
0.8490664770310776 
2.048280905582009 
0.3866316901179349 
1.140578557961562 
-1.045291696312845 
1.321942724926001 
0 
0 
0.8968816099740732 
0.5506094392417733 
2.561457568593923 
0.5713324719663279 
1.372597454093376 
0.3421462569465746 
0.2947862247112722 
0.3421462569465746 
-0.2734795147723323 
0.868583403374503 
-0.9454343235609799 
0.3783492237527415 
0.3783492237527415 
2.491593831275681 
-0.04559371501849139 
-0.155296418737893 
0.8717663837830886 
0.4380241635531348 
0.4380241635531348 
0.4380241635531348 
0.2771970158604551 
1.028065393435803 
-3.337622937592088 
0.4898406081580698 
0.08605336031630467 
0.4898406081580698 
-3.308890242915308 
0.8666909971786774 
0.2804521435032784 
0.5657980851572283 
1.790225442146066 
1.940981888435465 
0.9564875991858325 
0.7978844403931432 
0.7978844403931432 
-0.7333160847813694 
0.6569054399901717 
0.6569054399901717 
0.9229497409640205 
0.6569054399901717 
0.005854121680756234 
-0.9466090223410519 
-0.1016180365167085 
0.3964114751786293 
0.3964114751786293 
0.3964114751786293 
0.3964114751786293 
0.3964114751786293 
-1.958424875831323 
0.3964114751786293 
0.3964114751786293 
0.3964114751786293 
0.3964114751786293 
-0.6963670067070727 
0.9006918768380602 
0.9006918768380602 
0.4813938084719924 
0.7221845447742372 
0.7389017680775104 
1.160793309090882 
0.09071160629363435 
0.2606451622429611 
-0.8358532936651256 
0.2606451622429611 
1.334662131751567 
1.733079628587969 
-0.4040424992258732 
0.5368077368815459 
0.5368077368815459 
-2.467051582432475 
0.9102181455745177 
1.319954892568935 
0.9102181455745177 
0.9102181455745177 
-0.0658275643843497 
0.3054358946448945 
0.07878318734209047 
0.03939159367104524 
1.14261371480349 
-0.7765691757936936 
-2.517326919505485 
0.003703848958016473 
0.5530082693461378 
-3.199513330734612 
1.543583264762189 
0.9881986113517593 
-0.7624823155238795 
-2.146679261119272 
1.181568607787638 
0.2216437370254435 
-1.884067462623314 
0.9627515509079695 
-0.1783084495329958 
-0.5292337622195934 
0.583680826143513 
0.583680826143513 
2.955578824112577 
0.4716260993102498 
1.847453322987805 
2.867750346429883 
2.168603088289365 
0.9798259832214397 
1.381824687094756 
-0.3885731297010357 
0.3307337025568419 
2.320602251025757 
-1.303378999275802 
0.7006777723450598 
0.5236241239845971 
0.6534839978627781 
1.199333743435484 
-0.5436923497293791 
0.3267419989313891 
0.3267419989313891 
0.3267419989313891 
0.3267419989313891 
0.3267419989313891 
0.2236424246030346 
-0.0623525781681362 
0.2236424246030346 
0.2236424246030346 
0.2236424246030346 
0.2236424246030346 
0.5112876872127433 
-2.401671784640349 
0.5112876872127433 
0.5112876872127433 
1.262728355197319 
0.5112876872127433 
1.393990369469216 
0.8548479631612991 
-0.7422263612720641 
-0.108747130295346 
-1.677857876253511 
0.569480230945731 
1.445717504152173 
3.589977404882892 
0.6020612647363557 
0.6020612647363557 
0.2620421119404179 
0.2620421119404179 
0.2620421119404179 
0.8280161793421278 
0.2954416140878355 
0.2224137812316211 
0 
0 
0 
0.4604775524539043 
0.2770354577457979 
0.2770354577457979 
-2.766740131567185 
-0.6251504813094848 
0.4664669552567333 
0.481767385589593 
-0.1016839954472007 
0.1621845851331264 
0.1621845851331264 
0.7719691888521779 
0.2202607015848697 
-0.655316418107234 
-0.3907087850455955 
0.4642509959251185 
0.4642509959251185 
0.4642509959251185 
-0.857935312687776 
-0.9877594264165209 
0.715832456223629 
0.715832456223629 
0.198202345073238 
0.198202345073238 
0.3702553300788947 
0.198202345073238 
0.198202345073238 
1.155500554520642 
0.198202345073238 
-3.592757748421801 
1.839125919870662 
1.402047104830794 
0.1201337677316001 
0.01456754099186565 
0.3502914430398936 
0.08864386190408571 
0.131615598102346 
0.131615598102346 
0.5488715323571062 
0.131615598102346 
0.131615598102346 
0.6705409837882673 
0.2636680988871929 
0.2636680988871929 
-1.59692314934565 
-0.3092660570092124 
0.2549879154923074 
1.293461996866129 
-0.5703246582533616 
-1.269812163623515 
0.3254039340576751 
0.1718374301252177 
0.1718374301252177 
0.1718374301252177 
0.8837751733078494 
1.094201219676269 
-1.065147293493747 
0.5650057233426858 
0 
0 
-0.3209165567228706 
-1.793606581116116 
0.7735546499229298 
1.420560742291407 
0.6573951161232873 
2.061302334755808 
-1.492375266860843 
0.6573951161232873 
-4.980580010373026 
0.6573951161232873 
2.208441329621961 
0.7430658788495772 
0.3715329394247886 
1.051755370640469 
0.3715329394247886 
0.7366499677529678 
-0.4848746598848125 
0.3715329394247886 
0.3715329394247886 
0.3715329394247886 
0.3715329394247886 
0.9266373479573821 
-1.131617868667965 
0.4652307727028804 
0.9304615454057581 
0.4758275299573359 
0.4652307727028804 
0.4652307727028804 
1.160502742417657 
2.465351963739864 
0.4868330454873548 
0.4868330454873548 
0.4868330454873548 
0.4868330454873548 
0.4868330454873548 
-3.64542615540363 
0.4868330454873548 
-0.3334228088676029 
0.4868330454873548 
0.4868330454873548 
0.4868330454873548 
-0.3106068267543952 
0.4868330454873548 
-1.102760265063851 
0.2637187803726498 
1.053628326031937 
1.861813828082259 
1.207684778287373 
0.2364431833686251 
0.2740827579673392 
0.572905240998577 
0.572905240998577 
0.572905240998577 
0.572905240998577 
-1.295763880060571 
1.912348062391234 
0.7284728485400273 
0.5806752809278255 
-2.863919684153696 
0.07624666215756709 
1.564246697954225 
0.2598643566815911 
0.2598643566815911 
0.2598643566815911 
0.2598643566815911 
1.263288575151433 
0.2598643566815911 
-0.4343457780425912 
0.2598643566815911 
0.2297096889723909 
0.4594193779447812 
0.2297096889723909 
0.2297096889723909 
0.2297096889723909 
0.901535946770997 
1.44455615107228 
0.4074549916863368 
1.414028011070071 
0.4074549916863368 
-0.1949990607726279 
0.4074549916863368 
1.565494122747165 
0.4605319133310519 
0.4605319133310519 
-0.7441830919610269 
1.327462270134865 
0.2005195126764359 
0.2005195126764359 
0.2005195126764359 
0.2005195126764359 
0.2005195126764359 
0.2005195126764359 
-0.0007462079495687379 
0.06285501217444008 
0.2957308864159691 
0.2957308864159691 
-0.6651779130116797 
0.2957308864159691 
0.2957308864159691 
0.2957308864159691 
-1.120094600397117 
0.2957308864159691 
0.2957308864159691 
0.1212991474648032 
0.2957308864159691 
2.276761410373707 
0.0646063433942702 
0.0646063433942702 
0.0646063433942702 
-0.1618777521388608 
0.1126840526506499 
0.8744509361763804 
-1.629351694135889 
0.3699440697882182 
0.7636305004823246 
0.7398881395764374 
1.602759692372294 
0.6958035139822893 
0.3699440697882182 
0.5314462598613409 
0.2601737894932513 
0.2601737894932513 
-0.7514549287059525 
-0.6888442977807444 
1.419522225166373 
0.5869607428029334 
0.2218437144747543 
0.2218437144747543 
0.2218437144747543 
0.2802803001501235 
1.083926490623695 
0.2802803001501235 
0.6019069569885102 
0.2802803001501235 
0.4178239575851617 
0.4178239575851617 
0.2809794089085745 
-1.736739819107436 
0.4178239575851617 
0.4178239575851617 
1.001360281618796 
1.001360281618796 
1.001360281618796 
1.705189373176484 
0.02979741822977852 
-0.47797230908781 
0.5932050695653333 
-0.7488784429722251 
0.3529081383526946 
0.5503066119275294 
-2.407278740938728 
0.5503066119275294 
0.5503066119275294 
1.110645087930706 
0.5503066119275294 
0.4332177193814805 
1.601289882290523 
0.03110694323904476 
0.03294388716684564 
1.285393977265262 
0.4186000035467903 
-1.081250549066695 
1.176302287704077 
1.29692307693951 
0.6572062730437938 
0.5310833315754593 
-1.580047649060053 
1.174689277250566 
0.2354275362716584 
0.2354275362716584 
0.4883455513196254 
0.4883455513196254 
0.4883455513196254 
0.9005825465848455 
0.4883455513196254 
0.4883455513196254 
0.4883455513196254 
0.1519896805808042 
0.1519896805808042 
0.1519896805808042 
0.1519896805808042 
0.1519896805808042 
-0.7758339939612784 
-0.5130327144161818 
-0.3635901824484715 
1.046131691890611 
1.046131691890611 
1.046131691890611 
1.046131691890611 
0.2287692038657334 
1.046131691890611 
0.6335614437229197 
1.345278276046258 
1.345278276046258 
1.388572250476454 
1.388572250476454 
-0.005019743503008559 
1.298159785087332 
0.1782633736056305 
0.03141088414251256 
0.3039319554612918 
0.0367304333506099 
0.3039319554612918 
0.001086970586879639 
-0.2430641797455277 
0.3039319554612918 
0.9447528062155656 
0.3039319554612918 
0.3039319554612918 
0.6446109648616541 
0.6446109648616541 
0.6446109648616541 
0.6446109648616541 
0.6446109648616541 
1.678585601587654 
0.3838147487472366 
1.151444246241709 
0.3838147487472366 
0.8284003064124045 
0.827982431517816 
1.906740836096564 
0.3681614350333197 
0.6692071767081261 
0.03614339075393506 
-2.809151185392301 
0.7704314148333209 
0.7704314148333209 
1.443301746814442 
0.4963256340482761 
-1.174622048600479 
0.4963256340482761 
0.4963256340482761 
0.6480155753641592 
0.1014781333494131 
0.6480155753641592 
0.4581655619578711 
0.6480155753641592 
0.5969716052819629 
0.5049739098825738 
0.5049739098825737 
0.5049739098825737 
0.7827942478973373 
0.3382226227112031 
0.392583478697336 
0.3382226227112031 
1.573413948063457 
1.013557411923211 
-1.84418705954835 
0.4276576754736201 
0.4276576754736201 
0.5973178779603794 
0.5973178779603794 
2.109506683111096 
0.2586447471280857 
0.2586447471280857 
0.2586447471280857 
0.2586447471280857 
0.2586447471280857 
-0.5142037239420277 
0.2586447471280857 
-0.227486225725593 
0.2586447471280857 
0.2586447471280857 
0.2860146236082151 
-0.03484945913177629 
-0.1798955999298514 
0.6354547182553281 
-1.192383664005687 
0.2092624387028395 
0.2347394981243572 
-0.5787591814994563 
0.6354547182553281 
-0.6388065726222293 
0.5194449949720247 
-0.320963121685267 
0.4570759387773946 
0.4570759387773946 
0.4570759387773946 
1.337269897064628 
0.4570759387773946 
0.890447038380204 
0.890447038380204 
0.890447038380204 
0.7333913486762418 
0.1159629106191882 
0.1159629106191882 
0.1159629106191882 
-0.884596675639152 
0.899051660415523 
0.4755658081345369 
1.295521460174214 
0.899051660415523 
0.4029696713127092 
0.4029696713127092 
-1.283297894911402 
0.9075603749912031 
0.1458677682725116 
1.168491433006884 
0.281022841159195 
0.593811046764699 
0.4408348414211484 
0.593811046764699 
-0.4606895936843106 
0.3224914007236869 
0.3224914007236869 
0.3224914007236869 
0.3224914007236869 
0.3224914007236869 
-0.1369389537706959 
0.2900107752466315 
-0.1823532225777801 
-2.681366383730283 
0.6819444210063992 
0.6819444210063992 
0.4076932699005952 
0.4076932699005952 
0.4076932699005952 
0.4076932699005952 
0.4076932699005952 
0.4076932699005952 
0.4076932699005952 
-2.875573917858347 
0.5024748379852455 
0.5024748379852455 
-0.3583141584362027 
0.5024748379852455 
0.5324211236542092 
0.5324211236542092 
-1.196170781030612 
0.5324211236542092 
0.5324211236542092 
-3.122502256758253e-17 
-2.775557561562891e-17 
-3.122502256758253e-17 
-3.122502256758253e-17 
0.5768457921192052 
0.1842397692761526 
0.5768457921192052 
0.5768457921192052 
0.5768457921192052 
0.5768457921192052 
0.5768457921192052 
0.5768457921192052 
1.009109612332802 
0.5768457921192052 
0.5768457921192052 
-0.5723724962631204 
0.7975095511441004 
0.7975095511441004 
0.7975095511441004 
0.4187492892084714 
0.4187492892084714 
0.8260362644794689 
0.4187492892084714 
3.414509061420082 
0.6214297544356143 
0.6214297544356143 
0.3622749680093936 
-0.1236566433839773 
-2.091072786496657 
0.5027987880319333 
0.5027987880319333 
0 
0 
0.9327957010459079 
0.9327957010459079 
-0.1908092022364217 
1.378461603806461 
-0.5318724520986593 
0.7567202186037036 
0.8717128865078437 
0.8717128865078437 
0.2962050605240899 
0.8717128865078437 
-0.3213794144887318 
-1.049644514436769 
0.3167762646669965 
0.3167762646669965 
3.313873116677238 
-0.2373065213011879 
0.2616475811358079 
-0.7400626095333415 
0.2616475811358079 
-0.4216721385272464 
0.6191066792627823 
0.3543788953225559 
0.3543788953225559 
0.3543788953225559 
0.609591736055086 
0.655996208186663 
0.3543788953225559 
0.7448807640342645 
0.7448807640342645 
-0.8803142169073331 
0.716935154251613 
-0.1356044604518598 
0.716935154251613 
0.716935154251613 
1.957311311229534 
0.7478836639231254 
0.7478836639231254 
1.645844974205737 
0 
0 
0.4790962398113501 
0.4790962398113501 
0.2200149472452677 
-0.9048423102586971 
-1.008077750255115 
0.4790962398113501 
0.4790962398113501 
-0.08041876871826374 
0.3034579326823365 
0.3034579326823365 
0.3034579326823365 
0.3034579326823365 
0.3034579326823365 
0.09376804504017561 
0.3034579326823365 
-0.4805647617400884 
0.3034579326823365 
0.5259104163140246 
0.5259104163140246 
1.060878083323519 
1.082893194720536 
0.5259104163140246 
2.457538923858877 
0.9391372847451918 
-0.3347432089599259 
0.9391372847451918 
0.9391372847451918 
0.8128863857963222 
0.8128863857963222 
-0.8832284063499335 
0.04435943356193744 
0.8128863857963222 
0.4519937115029102 
0.4519937115029103 
0.2084151019901425 
0.800377978237061 
0.800377978237061 
-1.476812413183102 
0.2538418560394727 
0.2538418560394727 
1.037860194397667 
-1.983428692139422 
0.218136560730905 
0.1797178244063775 
0.01121269920263647 
-1.728000936307941 
-0.4359398687601861 
1.606912280777607 
0.0588298572338493 
0.2266403940480045 
0.6331310954143566 
-0.8623988206854019 
1.370260255722788 
-2.574509378134655 
-0.2614971369483017 
0.96895609933303 
2.671460136843786 
-0.1101170646969978 
0.6899359134890222 
0.3189993536075055 
0.02677379446820206 
-1.414051260527208 
0.3094579426106788 
0.3094579426106788 
0.9686724503036795 
0.3094579426106788 
2.071002033956539 
0.5346197139820561 
0.5346197139820561 
0.4340163105320876 
0.4340163105320876 
0.9317303648007296 
0.4340163105320876 
0.9270822149277078 
0.7107073021857454 
0.7793284200988164 
0.3626302598113372 
-0.147932977343901 
0.3626302598113372 
0.5825388922598094 
0.5825388922598094 
-1.364207932500054 
0.5768682272162249 
0.1455432056894956 
0.8609659678966382 
0.3195861905926449 
1.489462096764633 
0.477011364705122 
0.585329230378813 
1.75598769113644 
0.585329230378813 
1.095345936950492 
0.585329230378813 
0.585329230378813 
0.5589354018264172 
0.585329230378813 
0.7764786414036409 
0.7764786414036409 
1.05567350045098 
-1.445159505367809 
0.4981262610103815 
0.6297176685846368 
2.32660067203367 
0.4503981740096599 
0.94238397229403 
0.4503981740096599 
0.8195421140355258 
0.7658345724572425 
-0.1748187557046176 
0.7658345724572425 
0.7658345724572425 
0.7658345724572425 
1.435339119020032 
0.3297871013519376 
-0.3881490494840343 
0.7741204169456625 
0.3297871013519376 
-0.4646187270017921 
1.117843616867554 
0.1907637927721503 
1.579200646821911 
0.9488670778242776 
2.466495046119691 
0.9766174400161695 
0.8211198848494913 
-0.7205461337674912 
-0.2294672098134053 
-0.07498093695365991 
0.6696271317248615 
0.4591568950298843 
0.8476134491355171 
0.4591568950298843 
0.4591568950298843 
0.5746043054666968 
-3.948540690405414 
1.054363779374166 
-0.933724058698793 
1.63337049077437 
1.054363779374166 
-0.4856554600557723 
0.6499269999418942 
-0.7596041756879141 
0.6499269999418942 
1.307511021121666 
0.6499269999418942 
0.6499269999418942 
0.775983304131684 
0.1843149146789559 
0.775983304131684 
0.6631456260678656 
0.6483252116283666 
0.7209529080538932 
0.6483252116283666 
0.6264271669749701 
0.6666467026806132 
0.6666467026806132 
0.6666467026806132 
0.4369163458433127 
0.3219882272303001 
0.3219882272303001 
0.3219882272303001 
-1.121501742564454 
0.3219882272303001 
0.3219882272303001 
0.5715112321833046 
0.3219882272303001 
-0.4010545752586098 
0.3219882272303001 
-1.283090615505188 
-0.4325653691623981 
0.4521616211822699 
0.4521616211822699 
0.4521616211822699 
0.4521616211822699 
0.4521616211822699 
0.4521616211822699 
0.4521616211822699 
0.6978576994632997 
1.23634338304044 
0.6978576994632997 
0.6978576994632997 
0.6978576994632997 
0.6978576994632997 
-0.6648417589940281 
0.6978576994632997 
1.209049288946271 
0.6150472626617478 
0.6150472626617478 
0.3996921571498112 
-0.9522225430770614 
0.3996921571498112 
0.5920167407482585 
0.7267317666341613 
0.7267317666341613 
-0.8198475583692321 
0.6316312557022296 
0.1741752573139372 
0.3986462058758317 
0.5241853793720316 
0.5241853793720316 
0.9789064638314013 
1.431802044687053 
0.4691607474168079 
0.8249391370700511 
0.4691607474168079 
0.4691607474168079 
0.4691607474168079 
0.4691607474168079 
0.4691607474168079 
1.318349249298588 
0.7715034706753332 
1.318349249298588 
0.4773224961652046 
0.8710846152181002 
0.8710846152181002 
0.5844287821569527 
-0.03798721633995155 
0.9403694453626124 
0.3529857961231422 
0.8450387068584528 
0.2905413250263982 
-0.5603459339575191 
-2.678224220443356 
0.3250076273594259 
0.5685310126834612 
0.847551198527469 
-1.397939117508354 
0.1073960196106538 
0.1073960196106538 
0.1073960196106538 
0.1073960196106538 
0.1073960196106538 
1.452032931601782 
1.413943978851282 
1.413943978851282 
0.7748880733017628 
0.2174701341454349 
0.2174701341454349 
0.2174701341454349 
0.2174701341454349 
0.2174701341454349 
0.3448546075840179 
0.1259717195965344 
-0.06725333034382915 
0.427939987137274 
0.427939987137274 
0.6201290627755639 
0.427939987137274 
-1.114392767719439 
0.2949234999135111 
-0.6331443356882637 
0.2949234999135111 
-0.7485569024976553 
0.5721366673307972 
1.584707277599237 
0.1723607445172421 
0.0207992441875392 
0.0207992441875392 
0.6869518676395947 
1.139133415528949 
-0.2009214721963956 
0.4496536433834006 
0.4496536433834006 
0.6474822151386544 
0.03806070054935146 
0.6474822151386544 
0.6474822151386544 
0.6474822151386544 
0.03066378762065662 
0.8478454684432748 
0.5835421399093925 
0.5942797552588849 
0.08753627306586127 
0.2130497946031461 
0.2130497946031461 
0.2130497946031461 
0.2130497946031461 
1.876667143088095 
0.5955942129113565 
2.148774818706609 
0.4944785305089395 
0.4944785305089395 
-0.3165762025346983 
1.747866634671487 
1.747866634671487 
0.4168588528857539 
-0.2070050960939307 
0.4977140542686417 
0.977766149971789 
0.4977140542686417 
-1.460086527821547 
-0.6521004193062735 
0.4098893677242571 
0.4219066037420746 
1.324081691501037 
0.9231537070905961 
0.9857475521146442 
2.329589285188918 
0.6570590198393489 
1.975340198172064 
-1.626050574758901 
0.3181615143123935 
0.3181615143123935 
0.3181615143123935 
-3.280207650090675 
-3.762731117860899 
1.149412217163569 
1.149412217163569 
0.3257649173227861 
-0.1784946350605794 
0.3257649173227861 
0.3651170283281794 
2.087437387516386 
0.3651170283281794 
0.3651170283281794 
0.3651170283281794 
1.15529992399336 
0.3651170283281794 
0.3651170283281794 
0.3651170283281794 
0.3651170283281794 
0.5873900912403409 
0.5873900912403409 
1.430611242378983 
0.9003952684054632 
1.672531950406458 
0.7313962199035704 
1.379121748712393 
1.379121748712393 
1.379121748712393 
1.589005187116235 
-1.013732972244436 
-0.2368175975533181 
-1.808387817411276 
-0.5763843344495125 
1.293635156490196 
0.6222639975349314 
0.6222639975349314 
0.6222639975349314 
0.2552128407325299 
1.423795941833152 
1.423795941833152 
0.3960995025469576 
0.8007416697539911 
0.4942069271360927 
0.5430498013645786 
0.4942069271360927 
0.4942069271360927 
1.063357280091297 
-0.2414735070917066 
1.710545474503367 
0.09682339136791671 
-0.7239916681122295 
0.4935202082441862 
0.2970928084329509 
0.2970928084329509 
0.1041616126157354 
0.1294794682953425 
1.575236221128109 
-2.518415863425078 
0.8767289944087731 
-0.1477268950735863 
0.01134018357777374 
2.030955484648552 
0.6008462125963572 
0.9981789529491016 
-1.137274145431506 
0.6008462125963572 
0.1303040027787211 
-0.2623020200643317 
0.1303040027787211 
0.3830341895396399 
0.3830341895396399 
0.3830341895396399 
0.3830341895396399 
0.3830341895396399 
0.3830341895396399 
0.3830341895396399 
0.3830341895396399 
-0.9249694019060746 
-0.6285945286595641 
0.3830341895396399 
0.3830341895396399 
0.3830341895396399 
0.2726042316447744 
0.1371355914519095 
0.6164627340130466 
0.3074282100382461 
0.7859049660378915 
0.2024535850010981 
0.7859049660378915 
0.5633089415951578 
0.4249792132229411 
-0.08889459498530139 
1.038997809112505 
0.5778718200453085 
0.5778718200453085 
0.5778718200453085 
0.5778718200453085 
0.5778718200453085 
0.404393010002576 
2.372441506542847 
0.7045616558241247 
0.2950357271854626 
0.2950357271854626 
0.2950357271854626 
0.4129373977028175 
1.130863749207887 
0.4129373977028175 
0.614084803410301 
0.1368591479851438 
0.3681794610522393 
0.3681794610522393 
-0.4006151436830545 
0.3681794610522393 
-0.4373565769356301 
0.3681794610522393 
0.8354348068177567 
-0.1222762863377286 
-0.1710998820115262 
0.4391511162529634 
-0.4910145521952701 
-4.687558436566008 
-0.8677929174579916 
0.6983824587660796 
0.7336072625020144 
1.476929384112979 
1.357501694891598 
-0.5432041403808596 
2.289777258684464 
-0.9055727667201593 
-0.1671453549597579 
-0.01079625200275275 
0.6849735861462629 
0.9783273824449383 
-2.331821574510736 
0.2680028878645082 
1.634646049666062 
0.1897964432901597 
0.2651922340029133 
1.275003422331124 
0.2651922340029133 
0.4955088949435366 
0.2651922340029133 
1.095892565309214 
0.5483469671912848 
1.143102302564563 
0.4941863267202137 
0.2959604139687438 
0.4941863267202137 
2.83762944368235 
0.104557584733849 
0.9035110548173235 
2.02004536449723 
0.4851515787246419 
0.1854886510318338 
1.13606009071033 
0.4591267910236997 
-0.3383130812180503 
0.4591267910236997 
0.4591267910236997 
0.4591267910236997 
-0.327295480590214 
-0.6202305086612311 
0.4591267910236997 
0.4591267910236997 
0.4591267910236997 
0.5522881387162255 
0.5522881387162255 
1.623079809619957 
0.1915067628403702 
-2.65268316873326 
-1.265537957608295 
0.1915067628403702 
-0.3921718894359376 
2.233769092718001 
0 
0.02889325297544449 
1.387778780781446e-17 
0.4999804288637629 
0.4999804288637629 
0.2347767535560175 
0.2347767535560175 
0.2347767535560175 
0.2347767535560175 
0.2347767535560175 
0.6557741352841733 
0.6557741352841733 
0.6557741352841733 
0.6557741352841733 
0.6302667356639741 
-0.08034019744879689 
0.03880253284295899 
0.4657522618602862 
0.4657522618602862 
0.1641493968704495 
0.6519581020027452 
0.6519581020027452 
0.6764357657771779 
0.4798523337937698 
1.049121039545315 
0.6066922879006229 
0.3033461439503118 
0.3033461439503118 
0.3033461439503118 
1.144869391685323 
1.144869391685323 
1.144869391685323 
1.144869391685323 
0.5054042071869049 
0.3102590828569008 
1.160486674125337 
1.553937540227495 
1.195190386531996 
0 
0.2966522589356368 
0.9829857257182617 
0.9829857257182617 
0.9829857257182617 
1.250901771710408 
1.039402439661857 
0.2188131724005443 
0.1396969266040521 
0.2188131724005443 
0.7919023062241386 
-0.6857198545987364 
0.984337180161949 
0.3724370468172017 
0.3724370468172017 
1.532406987737924 
0.4862465373785403 
0.1823878230796876 
1.120168592150063 
-0.05259774139461893 
1.013478178479443 
-0.4525460299753849 
1.28076172329702 
0.6711351985599685 
0.6711351985599685 
0.6711351985599685 
-0.9380565047027408 
0.4821810006951482 
0.4821810006951482 
-0.1701494750757501 
0.4664693575442924 
0.4760249603120972 
0.4664693575442924 
1.356449196759909 
0.4381353128928613 
-1.787004654106153 
1.322528960289188 
1.997381164218702 
-0.6603561677528254 
0.8853435170024739 
-0.2519313867088668 
0.3542717901660384 
0.3542717901660384 
1.193477150267722 
1.193477150267722 
1.193477150267722 
1.193477150267722 
0.5528648546766983 
-0.4884371694029132 
0.6013432715308272 
0.7912318766648613 
0.7912318766648613 
0.7912318766648613 
0.7912318766648613 
-4.36165486309576 
0.9568684705851831 
-0.7541017884539031 
0.4027413519680209 
1.92085658867574 
1.221778750132812 
0.03254283034721591 
0.1875932730650565 
0.1875932730650565 
0.1875932730650565 
-0.9484153763618477 
0.8553323767399308 
0.6554803464436717 
0.5656052637077834 
0.5656052637077834 
-0.3960429121370099 
0.5656052637077834 
-0.02643307992321766 
0.8128576617777366 
0.7760036445105012 
0.4992090094180888 
1.106547377604901 
0.4992090094180888 
0.4992090094180888 
0.4992090094180888 
0.4992090094180888 
0.7585515921253788 
0.7585515921253788 
0.3197175133828828 
0.7795293408105287 
-0.3749536678722207 
1.105480365938857 
1.233508844560037 
2.42861286636753e-17 
0.07526180812550852 
2.351919647261377 
0.8324128215486928 
0.8324128215486928 
0.5556406760295262 
0.2778203380147631 
1.04869861314362 
0.2778203380147631 
0.4854042011623488 
0.4854042011623488 
-1.344513990389252 
0.8551339518330711 
0.4854042011623488 
0.4854042011623488 
0.1580251309195675 
0.1571251082977231 
1.169159084585401 
0.5740157826566427 
0.5740157826566427 
0.5740157826566427 
0.5740157826566427 
0.8844888151643292 
-0.3444365735197308 
0.4123811436825517 
0.4123811436825517 
1.261363289439204 
0.4740511427685398 
0.4740511427685398 
0.5844560303718588 
0.5844560303718588 
0.5844560303718588 
0.5844560303718588 
0.5844560303718588 
0.2592083590426276 
0.5844560303718588 
0.1904082751981444 
0.3808165503962888 
0.1904082751981444 
-0.03752756551850478 
-0.617627449959554 
0.4236745741200577 
-0.8186136463676466 
0.817789450021564 
0.6164131945771644 
0.441939328980107 
3.469446951953614e-18 
0.521504117262249 
0.664698522972476 
-3.382710778154774e-17 
1.173005564193206 
0.9021750877589614 
0.8136430444679706 
0.4068215222339853 
6.938893903907228e-18 
0.2067950831016326 
6.938893903907228e-18 
6.938893903907228e-18 
6.938893903907228e-18 
0.5757160702277945 
0.5757160702277945 
1.152629470543339 
1.152629470543339 
-0.582015773810737 
-1.202985262021214 
-1.196828175865709 
0.4495024646693757 
0.3276727487899846 
-0.3337803863233709 
0.5971575284981107 
0.7275216676965222 
0.08248837003331966 
-2.189965344351411 
0.3637608338482611 
1.755305144929969 
0.5949252379117939 
0.6543873847126769 
0.6543873847126769 
0.6543873847126769 
-3.424123358588251 
0.7220662399145392 
0.6543873847126769 
0.306927215081587 
-1.143202433492895 
0.386788848587659 
0.386788848587659 
0.386788848587659 
0.773577697175318 
0.386788848587659 
0.386788848587659 
0.1858458628541419 
0.386788848587659 
-0.3392329599731534 
-1.117779711515637 
1.725735127222668 
0.6896174475239824 
0.3448087237619912 
0.600564907967376 
0.6827979940885321 
0.2156717529816266 
1.279062038598727 
0.6395310192993628 
0.6395310192993628 
0.6395310192993628 
-1.967579382749347 
0.8244841363668101 
1.410418003180481 
0.9694290614245139 
0.4355799980496198 
-0.3131904356170863 
0.4975913481321665 
0.2487956740660833 
0.2487956740660833 
0.2487956740660833 
1.499747429400554 
0.2367957224874812 
0.9356801755866626 
2.446968986498686 
0.4430218640726008 
0.4430218640726008 
0.1634138575369411 
0.4809398884751009 
0.6805795223357566 
0.09804991043345417 
0.6805795223357566 
1.827095115587781 
0.9087696529179081 
-0.02883788571940161 
1.664896186440113 
1.664896186440113 
0.5008854276978111 
0.3215307809212419 
1.003914748349918 
1.003914748349918 
0.7165836382633106 
0.8747334375239529 
0.3808804465258778 
0.4747555936255674 
0.4747555936255674 
-0.2304986854954333 
1.540622048858541 
1.276028639129544 
-0.9942042226470628 
0.1996257757170183 
0.5387633116324809 
0.5387633116324809 
1.135603394629625 
1.135603394629625 
0.2228277463906276 
0.877017595852948 
1.069122328678776 
0.6661526234520555 
0.03131313013652864 
0.6661526234520555 
0.6537749270410126 
-0.01001314328531546 
0.6661526234520555 
0.8514836880180956 
1.039450074548074 
1.039450074548074 
0.6681101940075721 
0.7907245768512434 
0.5123015848695005 
-3.209819195081216 
0.7907245768512434 
0.8117565476916432 
0.1840582796335688 
0.08803823934590657 
1.65619798054665 
0 
0.6172169631954331 
0.2908574026128352 
-0.3477741794805082 
-3.525232030770989 
0.5324350087025045 
0.5324350087025045 
0.2836839117206877 
0.5324350087025045 
0.4827817386222629 
0.4827817386222629 
-2.743801659621411 
0.7387414227310485 
0.5845716109975023 
0.5845716109975023 
1.448160194721571 
0.3421043274514122 
0.3671120061413304 
0.3671120061413304 
0.08035092272012369 
0.3671120061413304 
0.3671120061413304 
-0.8341814754981218 
0.4575259640372958 
-0.2689116653665621 
0.4263247870433259 
0.4263247870433259 
-0.08339638229614443 
1.020570284279395 
1.020570284279395 
-0.05135313967346074 
0.2424662253750961 
1.189820501235508 
-0.1126010594451298 
-2.036116363104077 
0.5949102506177557 
-0.1604793584253781 
0.5949102506177557 
0.5949102506177557 
-1.661296460070172 
0.06378159648572852 
-0.8623607017732655 
0.4367015615484834 
0.4325482838615274 
0.3389486133275121 
0.3389486133275121 
1.088799803672843 
1.024557527190881 
0.3389486133275121 
0.3389486133275121 
-0.787696993773413 
0.3389486133275121 
0.3389486133275121 
0.4099384770442464 
0.4099384770442464 
0.4099384770442464 
0.4099384770442464 
0.4099384770442464 
-0.5984174296214803 
1.567350475312022 
1.567350475312022 
0.4610206177297262 
0.4610206177297262 
-0.2070639148919324 
0.5328769035653736 
1.049585746534993 
0.2183752094852397 
-0.7756980230259923 
0.2183752094852397 
-0.3998560317708383 
0.2183752094852397 
0.3196911595097037 
-0.4081801261567565 
0.5007261990275718 
0.8944126297216783 
0.4963131071147907 
1.494221534907883 
0.9288964415362887 
0.1491972350852309 
0.1491972350852309 
0.1491972350852309 
0.2504207344918825 
2.143591358599303 
0.2504207344918825 
-2.701063403115008 
0.2400963900147635 
0.5024331255026688 
0.8960520879424385 
1.15730474255629 
0.9137454959392116 
0.3249751030398921 
-0.01126798146596396 
-0.2151717988279752 
0.6668738495055181 
0.3501474835275536 
0.657584021179771 
0.4169800542593368 
0.4169800542593368 
0.1067067032374555 
0.4169800542593368 
0.9668867677801086 
0.1806496293066814 
0.9668867677801086 
0.9668867677801086 
0.4782044220035278 
0.4782044220035278 
1.476375292189274 
-0.5673859802779023 
0.1829015723910531 
0.1829015723910531 
0.5309120242950777 
0.9172765013133275 
0.6713711589552654 
-0.2411056921519489 
0.6713711589552654 
0.6713711589552654 
0.6713711589552654 
0.6208745592449815 
0.6208745592449815 
0.6208745592449815 
1.219702170545522 
1.256562223513045 
1.430995184851616 
0.4880541762383557 
0.3618935369865459 
1.130893820468652 
0.3618935369865459 
-1.549250245050581 
0.5428614118231552 
0.1938949797963608 
0.1938949797963608 
0.05422429900601131 
0.05422429900601131 
0.5879938717764216 
0.5879938717764216 
0.6482592518386752 
-1.237360241915622 
1.025499512273139 
-1.885147497914108 
0.2400736071260509 
0.8671435327227202 
0.2788487255595056 
-0.2017357757889686 
0.6135866724155614 
0.008231260524240253 
-0.3682457966850057 
0.6332988418749902 
0.3587781631193145 
3.209009469787234 
0.4713849509158722 
0.6332988418749902 
0.07414551240261094 
0.02290194165404021 
0.02290194165404021 
0.02290194165404021 
0.02290194165404021 
0.5711994703878438 
0.5711994703878438 
0.6547494210226811 
0.8883765882349739 
0.4401500798222815 
0.4401500798222815 
0.07011748529243388 
0.07011748529243388 
0.4998943163438266 
1.319226692402469 
0.985266572645629 
0.5606691174021753 
-1.410964461596359 
0.5606691174021753 
0.5606691174021753 
0.8743804169717041 
0.8899499929998126 
0.5907193998030076 
-1.413740586005863 
0.5907193998030076 
0.5907193998030076 
0.5907193998030076 
0.396224494304381 
0.396224494304381 
0.396224494304381 
0.9987416063509137 
0.1947510737150158 
0.6304572200383212 
0.6304572200383212 
0.591073002622555 
0.591073002622555 
-0.3263680469645668 
0.2341135044778228 
0.2341135044778228 
0.2341135044778228 
0.2341135044778228 
0.004727786124362227 
0.2638003503442531 
0.4171170356489994 
0.4171170356489994 
1.201703402348006 
0.8738031660610567 
0.7513143227830207 
0.314726110978251 
0.955758930872139 
0.2380389113697484 
0.3625498725848789 
0.3625498725848789 
1.131141710807955 
0.9595444626027283 
-0.2435500160111969 
2.741712391531517 
-0.1058001034643693 
0.2197327918701588 
-1.809191689636925 
0.6561019326368843 
0.1432873727935695 
-1.444585081971742 
0 
1.67816708377233 
0.4611517832995418 
0.4611517832995418 
0.4611517832995418 
0.4611517832995418 
0.4611517832995418 
-0.0776265348423395 
0.4611517832995418 
0.2175761453332231 
0.4611517832995418 
0.4611517832995418 
0.4611517832995418 
0.5591109869350307 
-0.6980958663861688 
0.4611517832995418 
0.6143400681230813 
0.08409632142352873 
-0.4391919220112228 
-1.918907683287877 
0.4013404191245146 
-1.743007087667061 
0.4013404191245146 
0 
1.734723475976807e-18 
1.734723475976807e-18 
0.6679123039443831 
0.6679123039443831 
0.04696237735547994 
2.359035658021168 
0.396469799758691 
0.2069232715589351 
0.396469799758691 
-0.2318646406691809 
-0.3197339422306953 
0.396469799758691 
0.7773940657601915 
0.7773940657601915 
0.01632483969885697 
0.4975691540742982 
1.987396536602124 
0.1265183362795549 
0.5556265100365484 
-0.161540415435798 
-0.4394563931411185 
0.2508510857019943 
0.6855198692161862 
0.7653336721992283 
0.5498566298634538 
1.180023047666438 
0.6855198692161862 
0.2029762052358046 
0.8481424141055648 
1.69628482821113 
-3.747820245245058 
0.8481424141055648 
0 
0.3959259062205927 
2.10344587155913 
0.3902981658252659 
0.2225189121990108 
0.2225189121990108 
0.2225189121990108 
0.2225189121990108 
1.00570274057898 
0.3432636640138382 
0.6830452163043386 
0.6830452163043386 
0.6830452163043386 
0.6830452163043386 
-0.03315852568504776 
0.6830452163043386 
0.6830452163043386 
0.6830452163043386 
-0.7842287528558964 
0.1073722430086058 
0.1073722430086058 
0.1073722430086058 
0.1073722430086058 
0.3628017824029267 
0.6354099860275976 
0.6473225863641124 
0.32282625889547 
0.8215886198076372 
0.7085894057520952 
0.2173711951884497 
0.7085894057520952 
0.7085894057520952 
0.8521146997159968 
0.8521146997159968 
0.5169968777058785 
0.1490348932100108 
0.5169968777058785 
0.04912965396604178 
0.5169968777058785 
0.5169968777058785 
-2.061685155865606 
0.128515944005667 
0.935732429153746 
0.935732429153746 
1.806658944879745 
-0.1705012182875699 
-0.9911583992960278 
0.6727450752644059 
1.734723475976807e-18 
1.734723475976807e-18 
1.734723475976807e-18 
1.734723475976807e-18 
0.9611557460352339 
-0.4838747289220029 
1.107514204533585 
0.893312164816175 
0.893312164816175 
0.893312164816175 
0.893312164816175 
0.893312164816175 
0 
0.6390630181339499 
0.6390630181339499 
0.9718762424047682 
0.6390630181339499 
0.5627207988054606 
0.5627207988054606 
0.5627207988054606 
0.5627207988054606 
0.8391138081936916 
0.4318268329226937 
-0.3387626576282108 
0.4318268329226937 
0.1757298089794194 
0.4318268329226937 
0.4318268329226937 
0.4318268329226937 
0.4318268329226937 
1.555524474196913 
0.9141963445318044 
1.61372208313545 
0.4879788110021259 
1.445945894313501 
0.6186764833541892 
0.9579670833113754 
-2.27897005368557 
1.176431877298621 
1.704319137390939 
0.6765596049883359 
0.6765596049883359 
-1.914949383026559 
0.6765596049883359 
1.536382319974482 
0.5674074345764274 
-0.289405754541504 
0.4061130241538146 
-0.9039078159599003 
0.3276243836201214 
0.6879655172251411 
0.6879655172251411 
1.922302854153881 
1.086759156932671 
0.7293762701689893 
0.5351158347033854 
0.8252178814164564 
0.8433756699238492 
0.5089949687938903 
0.1251113654797234 
-0.8959765610617626 
0.6228461354171305 
-0.0534927840654916 
0.6228461354171305 
0.6228461354171305 
0.5439804579942287 
0.5439804579942287 
0.02529420011160706 
0.6882326625134724 
0.03898324954172092 
0 
0.4591087966651348 
0.4591087966651348 
0.8805667378368545 
1.004460290654499 
1.004460290654499 
1.004460290654499 
1.004460290654499 
0.3295473832618971 
0.3295473832618971 
-0.2820636891495634 
0.01725905122985197 
0.5542529266490579 
0.5542529266490579 
-1.795027592904742 
0.6706196166562876 
0.5874143831184985 
0.5874143831184985 
0.6837866970591769 
0.4070121789633432 
0.9242389585304841 
-0.3395102920796641 
-2.470790038079758 
0.002337280375982567 
0.002337280375982567 
0.002337280375982567 
0.2768970758780283 
0.9142388171898322 
0.3194313134451497 
1.261435137012942 
0.8006393417178606 
0.8006393417178606 
0.7230222365910857 
0.3177673569955288 
0.3177673569955288 
-0.08845159148835761 
-0.1265120211868342 
1.442716043037985 
3.469446951953614e-18 
3.469446951953614e-18 
-0.5128550704348227 
-0.07813278156801927 
0.5268880765649694 
0.5268880765649694 
0.5268880765649694 
0.3137112995695289 
0.3137112995695289 
0.3137112995695289 
0.3137112995695289 
1.509583244317242 
0.3137112995695289 
0.3137112995695289 
0.3272187624664299 
0.3272187624664299 
-0.3988030460943826 
0.6544375249328598 
0.3272187624664299 
-0.1966057605459342 
0.006198623466961412 
0.7018209691123436 
0.7018209691123436 
0.4620540487011499 
0.4497108526823779 
0.4497108526823779 
0.4497108526823779 
0.4497108526823779 
0.4497108526823779 
-0.4489825061750614 
0.83310183621378 
0.4000268739335183 
3.774369502336523 
1.953518547509085 
-2.316159340712209 
0.9889967068795321 
1.221955296160193 
1.145470954257706 
1.145470954257706 
-0.05005875985279581 
0.9272735042273121 
0.9272735042273121 
0.4730306439542989 
0.3471319506154742 
0.3471319506154742 
0.5564199498486226 
0.3708123805150543 
0.3708123805150543 
0.2298562372260249 
0.1149281186130127 
0.1149281186130127 
1.017191945921436 
1.017191945921436 
0.5085959729607179 
0.5085959729607179 
0.5085959729607179 
0.1562379903261671 
0.06129533806724976 
0.5298381822508021 
3.708513066591599 
0.5817122269118289 
-0.91889422522328 
0.49198579828437 
0.49198579828437 
0.49198579828437 
0.49198579828437 
-0.1938912146741916 
-0.02250864554629152 
0.2731815646997315 
0.2731815646997315 
0.3256362226917269 
0.2731815646997315 
0.8844994751355156 
2.595796647703088 
0.2898126887491548 
0.2898126887491548 
0.2898126887491548 
0.2898126887491548 
0.2898126887491548 
0.505151790455296 
0.1534911991115449 
0.505151790455296 
0.7820552179997673 
-0.6583705965271456 
0.01146572744886271 
0.3117302127598622 
0.8463520177271806 
0 
0 
0 
0.6607962980654266 
0.0006992716850418024 
0.0006992716850418024 
1.056673604036322 
0.02889325297544449 
0.6878097384994157 
-0.1050624008707398 
0.45472108445937 
0.45472108445937 
0.3252395206273436 
-0.8540790917965895 
0.5871127547156979 
0.5871127547156979 
-0.0535306848527029 
-0.0500714605485671 
0 
-3.238500800144058 
2.303590347428065 
-1.390557328729464 
0.2406090234151383 
0.2406090234151383 
0.8458723337515082 
0.8458723337515082 
0.5443744259824834 
1.303526534754966 
0.2986247164264237 
0.2986247164264237 
0.3741314471059025 
1.19401549600188 
0.556982778406512 
0.02871932924727695 
0.556982778406512 
1.571584861920355 
-1.59605249797514 
1.791036096935687 
0.2197216770344154 
0.4746073689888881 
0.4746073689888881 
0.4746073689888881 
0.4746073689888881 
-0.4364663184944788 
-1.048190367561722 
0.05052861866939535 
0 
-1.37938837075996 
0.4223112729208902 
1.015375987459559 
-1.307868098773958 
0.6153846802814196 
0.6447807739716624 
0.6446752935634942 
0.6447807739716624 
0.6447807739716624 
0.6182794505244205 
-1.496957071246569 
0.6182794505244205 
0.6182794505244205 
0.6182794505244205 
1.362987708941579 
0.1059223831447234 
0.112901795093978 
0.3822421314999218 
0.564397312242072 
0.2753016546681576 
0.2753016546681576 
0.2753016546681576 
0.2753016546681576 
1.167654253616753 
1.167654253616753 
-0.4596128540869235 
0.5111982233463492 
0.5111982233463492 
0.5111982233463492 
0.05219935662227338 
-0.3657809227430736 
-0.08157625345561116 
0.6892033911422882 
0.6892033911422882 
0.6892033911422882 
0.6892033911422882 
0.6892033911422882 
0.6892033911422882 
-0.02075430278484118 
0.2308758916800152 
0.4218915410133703 
0.4218915410133703 
0.4218915410133703 
0.4218915410133703 
-1.240351781839109 
-0.1667414381308635 
0.2543653459314756 
0.2543653459314756 
1.064513478724694 
-0.2527848206181165 
0.6829233693730443 
0.4800520957031473 
0.4800520957031473 
0 
-2.297133584019901 
1.225202005864769 
-2.552108126877419 
0.5606061421902722 
0.2223092437306486 
1.379771118859039 
0.5203426221280349 
0.5203426221280349 
0.5203426221280349 
0.5203426221280349 
1.572299855230151 
0.5203426221280349 
0.557610977993021 
0.557610977993021 
0 
0 
1.313616773480472 
1.313616773480472 
0.1383022631135756 
0.1926068048234546 
1.444410860789414 
0.1950013177832088 
0.1950013177832088 
0.1950013177832088 
0.1950013177832088 
0.1950013177832088 
0.1950013177832088 
0.4129473750081446 
0.4129473750081446 
1.015549783329642 
0 
0.7036595717372083 
1.569687252941352 
1.000841502049781 
0.6948233532472842 
-0.990539793860141 
0.4151186620879285 
0.4151186620879285 
0.1955599939030578 
0.1955599939030578 
0.6939321647346968 
2.439128730219164 
0.2838870027497565 
0.2535498884254649 
0.5350758421693769 
0.1463920068881534 
-2.277395783596366 
-0.5285522337413667 
0.6802902541039607 
0.6802902541039607 
0.6802902541039607 
0.6802902541039607 
0.6802902541039607 
-1.375590970616142 
-0.5206046155620403 
-0.05600891239205027 
0.2592313425131161 
0.2592313425131161 
0.4187648970850675 
0.6262762124876566 
0.5320886019476985 
0.2660443009738492 
0.2660443009738492 
0.2660443009738492 
0.2660443009738492 
0.2660443009738492 
0.2660443009738492 
0.3010725293063916 
0.2660443009738492 
0.2660443009738492 
0.2660443009738492 
0.2660443009738492 
-0.1703991162334519 
-0.8929904980532801 
0.7577729131810329 
0.4550969366012818 
0.4550969366012818 
0.8456267127975485 
0.8456267127975485 
0.8456267127975485 
0.8456267127975485 
-4.627021650019423 
0.8456267127975485 
0.1314192097839716 
0.6011799301668933 
0.6011799301668933 
-1.63191354659556 
0.5660518008851632 
0.4194652594069367 
0.7623517906305344 
-0.6503067878590265 
2.694317216332678 
-0.3991747641244772 
0.2908433294209516 
-0.2642842224115964 
0.0516024357440847 
-0.03289106320297042 
0.09369186328891807 
0.09369186328891807 
0.4346522474310437 
0.4346522474310437 
0.05885642149513096 
0.05885642149513096 
0.05885642149513096 
-1.790594062362775 
0.2776006489739693 
-0.08933011996962187 
0.5204682742875888 
0.5204682742875888 
0.5204682742875888 
0.772955189574954 
0.2335556747770092 
0.2335556747770092 
-0.009967710547026278 
1.358746594744218 
1.358746594744218 
0.3532509327765023 
1.655087630877367 
0.1869149248596572 
1.163183069778232 
0.1869149248596572 
-0.3662325762132719 
0.1869149248596572 
-0.7274677136338612 
0.6457248794625227 
0.6457248794625227 
0.6457248794625227 
0.6457248794625227 
0 
0 
0 
0.3991990336692496 
0.3991990336692496 
0.3211330832394541 
0.3991990336692496 
0.4119715544201765 
-1.258292644635394 
0.4742626070211152 
0.4742626070211152 
0.4742626070211152 
-0.367111904486998 
0.2588043793198737 
1.687094737121847 
-1.270430614134263 
1.052863523355046 
0.7735234630844494 
0.7735234630844494 
0.4366932004765314 
0.6083467258024776 
-0.03126364549172017 
0.2013762554443995 
0.2013762554443995 
-0.9831555161771323 
0.2013762554443995 
0.2013762554443995 
1.855679115961159 
0.3568841313314172 
0.3568841313314172 
-2.5128058305711 
1.02086401948315 
1.02086401948315 
-0.01407076832070309 
1.302997192352873 
0.545294908195587 
0.2957920443277221 
0.5254838520283664 
0.5254838520283664 
0.5254838520283664 
0.5254838520283664 
-0.3155417050161642 
-0.921073375674461 
-0.1342295191288852 
0.6142710107059842 
1.314011192620458 
0.9121880973836718 
0.4860659000250102 
0.4860659000250102 
0.4860659000250102 
0.4860659000250102 
0.4860659000250102 
0.3144811139179258 
0.147877816052347 
0.3646379491118001 
0.3646379491118001 
0.5538087085247176 
0.03571067634314506 
0.03571067634314506 
0.03571067634314506 
0 
0.8163183848457076 
1.618257668463792 
0.8163183848457076 
0.8163183848457076 
0.4738668603696278 
0.3963451472866503 
0.7762413731203428 
0.7762413731203428 
-0.2389878339280451 
0.3744040435608276 
0.6675502435806078 
0.1223190664017512 
0.6641229634925128 
0.6641229634925128 
0.5688455078222909 
-0.6039884410078034 
0.4269019120315835 
0.4269019120315835 
-1.144628393681006 
0.4269019120315835 
0.4269019120315835 
0.4269019120315835 
-0.5587398034286667 
0.4269019120315835 
0.006232907616972392 
1.678313912270839 
0.3814228897718178 
0.3814228897718178 
-1.816045827757528 
-1.857250257433407 
0.3814228897718178 
1.349973948636453 
1.349973948636453 
0.2317432509383292 
-1.197333006127019 
0.4805598223877992 
0.08561716433344456 
-2.056055978017761 
0.6447186348196282 
0.5237945871302185 
-1.342968707245204 
0.7405068409177701 
1.853820076276069 
0.4447290117652305 
0.4447290117652305 
0.8588614231353242 
0.4447290117652305 
-1.312102771002689 
1.704213513982834 
0.4389024700306643 
1.11944443581507 
-1.510731290668995 
1.14041860519693 
-0.2158714589712993 
-1.934630400780322 
0.1299735153157216 
0.2029215843360684 
1.526478931156585 
-0.2398342205729786 
0.3798900061316436 
0.9489882172977485 
0.3798900061316436 
0.3798900061316436 
0.1999826922268363 
0.3798900061316436 
0.4542840792571468 
0.4542840792571468 
0.4542840792571468 
0.4542840792571468 
0.4542840792571468 
0.4542840792571468 
0.4542840792571468 
0 
0.2987767170068285 
0.1337916793679724 
-0.5757135002323091 
0.1337916793679724 
0.3460343574930557 
1.705141902937469 
-0.1714081623915669 
0.373256051254618 
0.373256051254618 
0.373256051254618 
0.6264204415360065 
0.6264204415360065 
0.6264204415360065 
-0.6238320459733122 
0.8133357852042894 
0.8133357852042894 
0.8133357852042894 
0.6731468832510837 
0.6731468832510837 
0.6731468832510837 
0.6731468832510837 
0.5930647145386687 
0.5930647145386687 
0.5930647145386687 
0.5930647145386687 
0.5930647145386687 
0.5930647145386687 
1.443826545040493 
0.7317777443657135 
0.7405194818031703 
0.7405194818031703 
0.8480910764719382 
0.8480910764719382 
0.2767745180958336 
0.2767745180958336 
1.938194193043544 
-0.7373361154629688 
0.2216239953788409 
-0.2209235382681697 
0.1809870691452308 
0.2035853244084889 
0.2155250216727807 
0.2155250216727807 
-0.04413327299320397 
0.2155250216727807 
0.6010986033473692 
0.6010986033473692 
0.6010986033473692 
0.6010986033473692 
0.911701854441611 
0.911701854441611 
0.911701854441611 
0.911701854441611 
0.911701854441611 
0.911701854441611 
0.911701854441611 
0.7203891926853356 
-0.08936635961214694 
0.5155273224806848 
0.3974157928564838 
0.3974157928564838 
0.3974157928564838 
0.3974157928564838 
0.3974157928564838 
0.3974157928564838 
0.1584194561082363 
0.1584194561082363 
0.1584194561082363 
0.5096459705964053 
0.1584194561082363 
0.1584194561082363 
-0.5296339307866543 
2.17425612237064 
0.4546425408458062 
0.3981218183121359 
0.5443174337673373 
-0.2915107531973418 
0.5443174337673373 
0 
-0.2599452547816927 
0.6027297885648842 
0.6027297885648842 
-1.213609503231253 
0.1489294234507444 
0.1489294234507444 
0.1489294234507444 
0.1489294234507444 
0.6717565162082292 
0.6717565162082292 
1.637879988632871 
0.3559406632056596 
0.6807978237077026 
0.6807978237077026 
0.6807978237077026 
0.6807978237077026 
0.6807978237077026 
-2.26123531948886 
0.4640578271108444 
0.0107601000802504 
-1.387778780781446e-17 
0.7923582829531073 
0.3045495778208117 
0.2071476066470098 
0.2071476066470098 
-1.485747765422162 
0.2953026925510124 
0.4921880962504403 
1.179279446583404 
0.3676550010963794 
0.3676550010963794 
-5.778245639732833 
1.075289763613549 
0.7688232503037286 
1.46192337994389 
0.7688232503037286 
0.3844116251518643 
0.969885487679608 
0.5216589792669156 
-1.611719166854454 
0.8313417951284687 
0.890468270689416 
0.0264555975544062 
-0.291519197198934 
0.9953817026594938 
0.9953817026594938 
0.5979426284976743 
0.4307408108439507 
0.4307408108439507 
1.446817441649195 
0.4335066304558792 
0.4335066304558792 
1.356790296529926 
1.628643436927284 
0.1328854684066387 
0.1328854684066387 
0.265770936813278 
0.1328854684066387 
0.4039419954352564 
0.4039419954352564 
0.7986592974358779 
0.2697700279084798 
0.2697700279084798 
0.2697700279084798 
0.2697700279084798 
0.2697700279084798 
0.2697700279084798 
-0.1512560921118841 
0.2697700279084798 
0.2697700279084798 
1.655804435620735 
0.6283308802602785 
0.9159181283264348 
-0.5009268938109603 
-0.2236025141405745 
1.469146715872337 
1.469146715872337 
-1.04070763169878 
0.5249005409839912 
0.3619332373844263 
0.3619332373844263 
0.3398245531263618 
0.1465865414782262 
0.1465865414782262 
0.1465865414782262 
0.1465865414782262 
0.1465865414782262 
0.3452581129447868 
-0.5755078259837539 
-1.387778780781446e-17 
0.8943392263141056 
0.5236889995794185 
0.5236889995794185 
0.7795854297804498 
0.7795854297804498 
-0.03202578405509021 
0.7795854297804498 
0.7795854297804498 
0.009960113167083343 
0.009960113167083343 
-0.3354515674845484 
0.4041787819066996 
1.065064949945028 
0.7165786607341391 
1.691998437987383 
0.6070699073512428 
0.03438545678374576 
0.03438545678374576 
0.03438545678374576 
0.03438545678374576 
0.03438545678374576 
0.352610037986009 
1.108286269635486 
0.5264371464279284 
0.5264371464279284 
0.5264371464279284 
-0.5284634050084565 
-0.6759320582076996 
0.5432035770877031 
0.5432035770877031 
0.5432035770877031 
0 
0 
-2.066992507978182 
0.2108644301475823 
0.503762221336863 
0.1430916372318439 
0.531277707209546 
0.5970062218858307 
0.6399046795236345 
0.5970062218858307 
-0.09613942360029629 
0.5694882466739155 
1.060240666570541 
0.9113380896991459 
0.4981150154913658 
-1.141477196077378 
0.6484771795077859 
0.3264357162744045 
0.1076082417394517 
-2.355989239705881 
0.5775236732540318 
0.355778389653243 
0.355778389653243 
-0.4011226496529569 
-0.2939877527875194 
0.1720529850056569 
0.1720529850056569 
0.1720529850056569 
0.1720529850056569 
0.1720529850056569 
0.1720529850056569 
0.09018639838217878 
0.7433221216109646 
0.8344698546963719 
0.8344698546963719 
0.8344698546963719 
0.8344698546963719 
0.8344698546963719 
0.8344698546963719 
0.8344698546963719 
0.4584260945974785 
-0.7540981258202871 
0.4584260945974785 
2.623052095036372 
0.2907562898443003 
0.2907562898443003 
0.2907562898443003 
0.1841043891410322 
0.1841043891410322 
-0.1386245986758853 
0.1841043891410322 
0.1841043891410322 
0.1841043891410322 
0.1841043891410322 
0.4480319747406052 
0.6999784167654952 
0.575641046994369 
0.6999784167654952 
0.4072869752709976 
-3.734307717803628 
0.4072869752709976 
0.4072869752709976 
0.4072869752709976 
0.4072869752709976 
0.4072869752709976 
0.4072869752709976 
0.4072869752709976 
0.4072869752709976 
0.4072869752709976 
0.4072869752709976 
0.6952376096759767 
-0.2538191967004869 
0.2269477983346812 
0.2269477983346812 
0.2269477983346812 
0.2269477983346812 
-0.3243435179376559 
0.2269477983346812 
-1.787954015272758 
0.9845096681944777 
0.766931647619144 
1.01635825523003 
1.809296861648508 
1.01635825523003 
1.006348252820976 
1.006348252820976 
0.8267458136523185 
0.8267458136523185 
0.8267458136523185 
0.4014509289871063 
0.4014509289871063 
0.6847409327652145 
0.5130705432532155 
0.5130705432532155 
0.5130705432532155 
0.5130705432532155 
0.2363853894404957 
0.66222540698677 
0.5057108313306566 
0.3542587262595097 
0.3542587262595097 
0.3903145301072385 
0.3903145301072385 
0.3903145301072385 
0.3903145301072385 
-0.7199279103001505 
0.3903145301072385 
0.3903145301072385 
0.3903145301072385 
0.3903145301072385 
-0.04702666215140934 
1.109637147767087 
-0.01845775375171033 
0.6182489473856788 
1.234337336928741 
0.3209545247548481 
0.5135257500095728 
0.5135257500095728 
-1.371076044930618 
-2.523813467822759 
0.4294609274491345 
-0.7083135487381892 
-0.6945142204455416 
-1.535543197672965 
0.1951062240560029 
0.2878193441567123 
-0.323256806716787 
0.2878193441567123 
0.2878193441567123 
-0.4728186393558705 
0.5808219935425806 
0.6079689839942567 
0.5917058560601121 
0.3298335471996332 
-0.1514002155671788 
-0.7894492294373868 
-0.05391225379038603 
1.259484502217604 
1.711094236148583 
0.214493637937402 
-5.446703494319515 
-0.7634916490712657 
0.5929068246764543 
0.894592999872872 
0.1498726756921869 
0.2392396869146482 
0.6859263313942686 
0.08116958314940592 
0.5678922612223112 
-0.3039767755047373 
1.23627539765555 
1.078709714840466 
1.298160880012334 
-2.054512947438038 
0.5690982111661049 
0.8407210873282116 
0.4493848195398942 
0.4493848195398942 
0 
0 
0.1950373640247995 
0.1950373640247995 
0.1950373640247995 
0.1950373640247995 
0.1950373640247995 
0.5851120920743957 
0.1950373640247995 
0.5881120285592935 
0.5881120285592935 
0.07653481601187449 
0.2771970158604551 
0.2771970158604551 
-3.239390718841698 
-0.2678445421798635 
0.449322383292483 
0.449322383292483 
0.449322383292483 
0.3936864306941065 
0.3328132242708182 
0.3328132242708182 
0.3328132242708182 
0.3328132242708182 
-0.2849831726670615 
0.5882427215314634 
1.06112459105969 
-0.5602406478447574 
0.2995465435360469 
0.2995465435360469 
0.2995465435360469 
0.5646498452585477 
0.5646498452585477 
0.3349657793485712 
0.3349657793485712 
0.3349657793485712 
0.3349657793485712 
0.3349657793485712 
-0.2248177059815386 
0.2396047599390841 
0.2396047599390841 
0.2396047599390841 
0.8183741512223709 
0.8183741512223709 
0.8183741512223709 
0.5326199153972613 
0.04861272160007685 
0.04861272160007685 
0.04861272160007685 
0.04861272160007685 
-0.5502154472826593 
1.171957622863767 
0.6677655022665477 
0.6677655022665477 
-0.1534160052496494 
0.263927585599573 
0.263927585599573 
0.5790067114002043 
0.5790067114002043 
0.5790067114002043 
0.5790067114002043 
1.026551086080138 
0.2621147736190101 
0.2525870897567616 
0.3837660106675613 
0.3837660106675613 
-0.01118741158365699 
0.3837660106675613 
0.3837660106675613 
0.3837660106675613 
0.6614963756196246 
0.7095563640960287 
0.6614963756196246 
0.6614963756196246 
0.6614963756196246 
0.1863471272857481 
0.3668241602687242 
1.067679207568532 
1.067679207568532 
1.067679207568532 
0.6510998669353907 
-1.832807670313654 
0.1167014772115802 
-1.176613725357478 
0.1167014772115802 
0.4029697052267208 
-0.3120244166796672 
-2.241384985913673 
-0.903089984203722 
0.9186990299979388 
0.8678606242533309 
0.8678606242533309 
0.4292130388986207 
-1.041250414464163 
0.8678606242533309 
0.1743626757469638 
0.8395533560424616 
0.8395533560424616 
0.2284759916552857 
1.384367755858617 
0.2284759916552857 
-0.004509058171112313 
0.2284759916552857 
0.2284759916552857 
0.30833028992547 
0.30833028992547 
0.30833028992547 
-0.6741896490429088 
0.5117825673335148 
0.204792259042207 
0.3772402604344647 
0.3772402604344647 
0.3772402604344647 
0.5180830125235598 
0.3537183763065861 
0.8101481327932196 
0.9144520733727547 
0.9144520733727547 
0.8306529954019403 
-0.5880302065950737 
0.1629976990785362 
0.1629976990785362 
0.1629976990785362 
0.9656595421153694 
0.1629976990785362 
0.1629976990785362 
0.5172267795671409 
1.091707261963698 
1.011008792299016 
0 
-1.416025008963765 
0 
1.078340529684159 
-3.011752679956315 
1.590444171491902 
0.2767946350924121 
0.2767946350924121 
0.2767946350924121 
0 
0.3186942606745247 
1.100295790711301 
0.6140185958895641 
0.6140185958895641 
0.6140185958895641 
-0.9013895327789625 
-1.132909380370389 
0.6806730836171105 
0.6806730836171105 
0.6806730836171105 
0.6806730836171105 
0.6806730836171105 
-0.0008063608020346994 
-1.280998410537907 
0.3268678592760307 
0.4729843861222819 
0.2113527565842989 
0.2113527565842989 
0.2113527565842989 
0.2113527565842989 
0.2113527565842989 
0.2113527565842989 
0.5193825836203207 
0.5193825836203207 
0.5121089942712234 
0.5121089942712234 
0.1432134123323714 
0.1432134123323714 
0.1432134123323714 
0.1432134123323714 
0.1313547459104977 
-2.521458842513758 
-0.3376084300379654 
0.3535141712590632 
0.3535141712590632 
0.2694847797081259 
0.5007199238200204 
1.453037118571165 
1.216346911730003 
0.6183974192404191 
-0.7287214468853481 
0.3334515173315735 
0.3263595605825981 
0.3263595605825981 
0.3263595605825981 
0.3677144883574314 
-0.2210559045418878 
0.7354289767148636 
-0.9154794561349008 
0.1975257126106176 
-5.551115123125783e-17 
0.454891405106737 
0.454891405106737 
1.445867412040334 
0.5255966379648188 
0.2502579439221468 
2.143705940128854 
0.8917553965380504 
0.3503638652457647 
0.2780510207718843 
0.5350640809613832 
1.429507678921948 
0.8384164965313894 
0.9736894955251214 
0.9736894955251214 
0.9736894955251214 
0.9736894955251214 
