solver_type L2R_L2LOSS_SVC_DUAL
nr_class 2
label 1 -1
nr_feature 15533
bias -1
w
0.4526499090370293 
3.246943126725728 
-0.5186132223649966 
2.046416819840438 
1.832171351003873 
0.02502150021186547 
2.088044390296093 
0.6984595444684234 
1.566229570514283 
-2.024666879571547 
5.971827772376245 
1.925339896975037 
2.800260927290172 
-0.372860593271512 
-1.313124166445212 
0.6792624605796984 
0.01785074400434669 
-0.8579350897627808 
0.8597568999230307 
4.825979945963542 
3.291381225523439 
0 
0 
0 
-0.2566867654176008 
0.4526499090370293 
-0.9223948079480109 
-2.091506407702795 
1.85570803051599 
-1.91427625276621 
-0.9725857980044551 
0.6642261546659499 
2.304342570363191 
-3.675019233681168 
1.719189858088025 
-1.330828126202682 
-2.452717061588624 
0 
-1.409748253392478 
0.1143664268675128 
-0.4779117292800197 
0 
-0.7063788239267826 
1.222557757183678 
1.696872514564946 
1.020818540115466 
0 
-0.2362450232563477 
-1.898593666901408 
-0.04198940816300561 
0 
-0.8627839519537498 
0 
0.1070710219145639 
0.4104751571353283 
1.237961322273458 
1.562821493220185 
-0.3546992571001891 
0 
-1.702171982432883 
-0.7550068719236109 
0 
1.180000427380536 
0.6982267214237702 
1.258628985496535 
1.607889938179802 
-1.887742523449227 
-1.696342299285884 
1.068386036140133 
1.780880386949298 
-1.203929035150282 
-0.7089967841004946 
0.3452978382993345 
-0.7775444806681261 
-1.94579872339204 
0.5284100124966191 
-3.179374090223416 
1.128430533584354 
-2.42329201276776 
-0.3187715176589968 
-0.4954011440106921 
-0.1619317884199288 
-1.548362110994057 
1.686913976934614 
-1.600227301267537 
0.9545708364828583 
0 
0.05838969637974693 
0 
0 
0.4666644011724665 
-3.134065176465613 
0 
1.333225832296825 
1.681816786245969 
1.041703460242676 
0.5913460878710028 
-0.4004091079039372 
1.857509652911064 
2.038073762288824 
1.163859300764799 
1.416939335283806 
-2.815504781805028 
-0.3097268051469071 
-0.3452096416091658 
0.2076294571089462 
0 
-2.296172652945852 
-1.17423960823787 
0 
-1.229264577001591 
-0.6370658629668472 
-0.08723167687983359 
1.295199044146446 
-1.599219461633621 
-2.757609545383882 
0 
-1.068600070658423 
1.521658339516331 
0 
0 
1.15571421093765 
0.6097960762410828 
1.47963610977336 
-1.521157028789314 
0.8232018643455766 
-1.445924520980154 
-0.1806373944009108 
-0.8865993626949469 
0.7700276952857537 
2.222075002806624 
-1.377566205445984 
0 
0 
1.543455967589759 
0 
-0.2725913357804903 
0 
-4.774346377252972 
-0.04869348227212839 
-0.5574726504105281 
-1.77034538235052 
1.155156259244798 
0 
-0.5923663350404326 
-2.926534013640655 
-2.824697728932945 
-0.7924214942929549 
0.5433397573482095 
-1.846229709182504 
0 
-0.8841919011495929 
-0.2483659149891712 
2.965124119539606 
-2.565875675828163 
-2.682045142891005 
-0.07679851217476451 
0.9653947529285604 
0.170088201439906 
0 
1.441880331191239 
-1.509790464987852 
2.158831603734547 
-0.3005461184520141 
0.5096541951187472 
-1.407920321171064 
0.6183891685575945 
1.642739582606243 
0 
-1.240136872594675 
0 
0 
1.221072092579455 
0.8584945061469631 
-2.325961208325234 
-0.1456939918306555 
1.611684612441729 
-3.453160054647994 
3.260079053285626 
0 
-0.5754318790803808 
-0.8717813197779062 
0.2495956010071325 
-0.03994586567939253 
0.8333993948807767 
-1.162875823043174 
1.184669019822826 
-4.371954054002436 
-0.2162983522728862 
3.425249335409504 
-0.8024976010346658 
-1.374074909392284 
0 
-1.956384210847146 
-0.08135737250373486 
1.338198908814776 
0.8981176590600676 
0 
1.700829250897453 
0 
0 
-0.2061402143348162 
1.091455395632666 
0.748084106466824 
0 
-2.133892893357 
1.165835453615262 
1.189082623332259 
-0.844087701271745 
-0.5758669962254891 
2.043583834283462 
0.6286648727243664 
0 
0 
-1.728163022844918 
-1.043074791796136 
0 
-1.017214998047405 
-2.863546957485506 
0 
-1.198272587346038 
-0.2745997051012929 
0.6573991587123656 
0 
0 
0 
-0.8133846067651765 
1.061648065405424 
0.4914724642317757 
-1.075989149716015 
6.938893903907228e-18 
0.8213230399114522 
-0.1654148774110268 
0 
-1.836792373985523 
-2.076273825501201 
0.1438097239119454 
-0.8821500940767389 
-1.595860941261053 
0.2704280409934505 
0 
0 
1.386989905313796 
2.182308009955884 
-0.7184730890392559 
-3.392068492801589 
-0.0182540721228665 
-4.419243312658478 
0.2038232242278055 
-0.6555098075347078 
0.5472087417734579 
-0.3250770314555473 
0.1647655431408697 
-0.03186879139843599 
2.22308315977834 
1.776376526486526 
0.007386927905845234 
-0.2677826196975411 
0 
-0.6981396751476773 
1.150957114528569 
1.221820351123808 
0 
0.5550741758157458 
0.396291701892845 
0 
1.631806533175611 
-0.7468628829912463 
0.3298877187825245 
0 
0.5637617232153944 
0 
0.46266689234672 
1.23382762083756 
-1.527544353916502 
0.3213125401126343 
0.1695980257571956 
-0.1323241324060742 
0.01170385662626231 
0 
-2.049004484220652 
0 
1.162480737955103 
0 
0 
0 
1.099585599909766 
-1.952477344191231 
0 
-1.791029060327303 
-0.8916135044663028 
-0.4671597852171714 
1.127101111627594 
-3.063989888929378 
-0.3870349879671909 
1.273131712757289 
-1.397251684640369 
0.7955163715195863 
-2.579288132591252 
-0.7478278687951425 
0.7275724689649893 
1.134817875350079 
1.382185883749883 
-5.168945627693131 
3.349117742299715 
2.198136576238764 
2.249491009004596 
0 
0 
0 
1.077684989790079 
0 
0 
0.0005621791179189511 
-0.6088545673538754 
0.2468804812231478 
0 
0 
-0.3681885795795478 
-3.004792681940248 
0 
1.05995557901385 
0.09264089434358405 
0 
-1.466659643741306 
-1.443548793770972 
0 
0 
1.349779869426803 
-3.013978396761921 
0 
-0.1534643239260645 
0.00521480098397876 
-1.603374360518506 
0.335237101299605 
0.1388069060037232 
-0.01661300171398064 
-1.957391150232991 
0.9440952109682965 
0 
0 
1.334342173024263 
-1.359029543969839 
0 
0 
0.6942493847025842 
1.7241677084716 
0 
0 
0 
0 
0 
0 
0 
0 
1.335407684420011 
0 
1.6253134041238 
0 
0 
1.088614312903506 
0 
0 
-1.704814697736225 
0 
0 
1.399295062038793 
-0.2786517935629046 
-0.368369792481795 
-1.658376141313125 
0 
-0.8019618632985206 
-0.3263496666358202 
0.3834604126219034 
0 
-0.5098009817688708 
0 
-1.158867868440952 
0.6560900325839079 
-0.9753927994599763 
-3.110711882880213 
-0.4423037559186073 
1.148747025840354 
0.05530481571475423 
-1.161701711686365 
0 
0 
0.437638394024678 
0 
1.705249589974277 
1.117795975892738 
0.159254320747534 
0 
0.2876440146129712 
0 
1.369546445584818 
0.9333439149588503 
-0.3100287257001191 
0 
1.836633726550019 
0 
0 
2.76756384687567 
0 
0.3146945329559396 
0 
0 
0.3146945329559396 
0.3757837163564452 
0 
0 
-4.284788920231138 
1.143945032978904 
0 
0 
-1.725707130500063 
0 
-1.622260624903149 
0 
2.239717566460238 
1.764710852005743 
0.219536111320301 
-4.706818416081178 
-2.193978648958747 
-0.1978754051120089 
0 
-3.758369323759625 
0 
3.090917577573939 
-2.120779114824991 
-0.1533276542670425 
-0.008719633036495445 
-0.4604007422757924 
2.218512828202793 
0 
-1.464119348435346 
0.003324185027572973 
0 
0 
2.454408806252139 
0 
0 
0 
3.717494130467511 
0 
-0.03656277459976296 
0.3767333693499391 
0 
-0.8735649630333848 
-1.440590479050364 
-2.36030278772563 
1.224047087108322 
-3.773356934074544 
-0.7579882729211145 
0.4839728225955475 
2.518423333744202 
0.06738990935174929 
-0.5171147534585894 
0.0202109186961537 
1.802799994419064 
-1.191628063148753 
-1.751895595215619 
0 
1.190535096477344 
-1.698733431202549 
1.488477323608348 
-0.6237347684608191 
0 
0.7584042438113131 
1.844607525843791 
-1.0538935621933 
-0.6418611099458997 
-1.581466416286071 
2.007434518592477 
-2.129469193192329 
-0.34150661890006 
-1.205276987594291 
-4.862643226328107 
0 
1.362664674180102 
-2.050725207570812 
1.115712434354201 
-1.049257538610408 
-0.9221682599873166 
-2.379760883205611 
1.022317305792909 
-0.2398959990612235 
0 
-0.1270912642418413 
0.5997475517523403 
0.6751187709547514 
0 
-0.889513613513441 
-3.70712041173114 
0 
-2.29973809168697 
-0.3435915549457769 
-0.7230532587183408 
0 
-0.1219251662148989 
1.791160954110473 
-1.764457140824393 
0.4766992114600447 
1.155148636669016 
-0.2943562371706597 
2.582134267243855 
-0.6729285267149347 
-0.8219698360402882 
0 
-0.5468529959223251 
0 
1.188686210810724 
0 
0.6455698272502505 
1.24877432852723 
1.456478571459765 
1.536368534039583 
1.395317937611326 
1.627888136797812 
0.2325395873372727 
-3.316872493920658 
3.175017059761535 
-2.343073099443808 
1.184520062696772 
-0.2747142269917754 
0 
2.754544260895302 
-0.7634174448647468 
0.5090463665917978 
-2.136878139200594 
1.556221561182527 
0 
0.5456380821271423 
0 
-0.1203613645489309 
1.170320911690028 
-4.712425566029353 
-0.3955667529445843 
0.3985571008592924 
1.865261059097248 
0 
0 
0 
0 
-0.5092430839183406 
-1.351685591997119 
0.001369691979063472 
-0.5459089246668326 
-0.814477552864748 
0 
-0.3550693073264912 
1.524822022290402 
-0.813543898323377 
2.389374245966903 
-0.6804496373797825 
0.4944594108858937 
-0.667205054249866 
0 
0 
0.6833185043295197 
0 
0.3977157272727601 
-1.108970553725861 
1.615170582909834 
3.68316262778752 
0 
-0.0265245927549767 
2.831336930075561 
1.371250996596271 
0.3997717948500045 
0 
0 
0 
0.9184919841763609 
-3.34076931222005 
0 
1.528989236398401 
0 
-0.757129003211234 
0.5743777539321268 
-0.8108515947613832 
-1.830227146128443 
2.726431315221624 
0.9565725586946713 
2.212416620486194 
0 
0.01615637283889002 
-0.6944767046903667 
-2.074164813694339 
-0.3922127212218718 
0.3577948778363911 
0.1738899719427627 
0.03928829308777079 
-0.2073906787177823 
-2.583264884178872 
1.037298953223928 
0.8067024020761362 
1.462703763975465 
-2.563387891227795 
-2.068462624283123 
0 
0 
0 
0 
0 
0 
0 
0 
0 
-2.788330514084484 
1.436010682373704 
-1.870295626495698 
0.5655270347487662 
-2.136765458576419 
-2.026880024850351 
-0.7347269117340363 
-0.3957975768401331 
1.298107995557837 
0 
0.7720896111880604 
-0.7473098674321814 
-0.8139971369598982 
-1.49125093665782 
0 
-0.2718238297400697 
-1.506093290384626 
1.218969728635773 
0 
1.045059654635436 
-7.112383445769734 
-1.036885728780549 
0.2246803429271565 
-1.382662233571025 
-1.785370400508692 
-1.269096519863364 
0 
3.623636306696322 
0 
-2.182649377719311 
1.572477381682588 
2.400068792866086 
-2.13461091364826 
0 
-2.13337279858238 
0 
1.038622647992201 
-0.852139525490677 
0 
1.040254621558865 
-1.806711437133914 
-0.2054966654884383 
-0.4897763959385729 
0 
-2.241339079318943 
-0.9492619783622326 
-2.001476030892488 
-0.6193639496105466 
-1.197348456221992 
3.115271826955365 
2.814869032966302 
-1.270910656805585 
0.4531112814353174 
0.796434877936387 
0 
0.1731056813891641 
0.06440756213148648 
-0.2995079625517164 
0 
0 
0.7197861603814542 
0 
0 
0 
1.161711395080091 
-1.367998868008048 
0 
0 
0 
1.264486383113906 
1.857901301660523 
-0.1159812356673514 
-0.501473634221078 
-1.010775915428416 
0 
-1.223758088182649 
-0.1820686672389643 
0 
0 
0.7785370454352886 
0 
0 
0.9202901187225567 
0 
0 
0 
0.4835433496647158 
0 
2.483212741541171 
0 
0 
0 
0 
0 
-0.910158160503041 
0 
0 
-2.041894382018094 
-4.21793527109984 
0.3601950227546872 
0.03604913619541457 
0.4580529901661427 
-0.01175333032853298 
0 
0 
-1.273181728192658 
-0.07383866416092669 
0 
-1.473290197509561 
0 
0 
1.171798737547263 
-2.669501384052151 
3.133044707103012 
0.6257425100762068 
0 
-0.1554777246865076 
-0.7198542781842047 
0 
0.3565085314692172 
-1.238774042386865 
0.7178633144434708 
0.9442327808595522 
-2.094828087430244 
0 
0 
0 
-2.720793670252074 
0 
0 
-0.6493100429351668 
0 
0 
0 
1.631988230514717 
0.3306683530250831 
0 
0 
0.9485009044859189 
-1.445208510093374 
-0.6164021041338562 
0 
-0.6940382751089775 
0.0210614844008996 
0.3113666665622012 
-0.5942733244784371 
0 
0 
1.073900431509228 
0.3377932243271147 
-0.4933301193012218 
-0.4498304798889776 
0 
0 
0 
1.557820514906493 
0 
-3.253043304511881 
1.409156941456455 
-0.2232632066001276 
0 
0 
1.095270838930727 
-0.5915554613761306 
-0.08921968130679103 
0 
0 
0 
1.108148061298056 
0.7314150440409186 
2.56432166516307 
-0.6624606205554584 
2.600768424277402 
2.226807926583995 
2.324536460518948 
-1.962505814408391 
0 
-1.194732923524337 
-0.4432879519079888 
0.3725682112215669 
0 
0.5221687027184084 
0 
-0.5932107747165507 
-1.190328696879072 
-0.9461680099569122 
0.708942283343689 
0.9806068072366795 
-3.846737291598034 
-0.2254397197146041 
3.850435840436544 
0.321406533052544 
2.253848173306814 
-1.034123566541424 
0 
1.546597305706747 
-1.047545755225165 
0.1901346560932541 
0 
0 
-0.3316836646796855 
0.001782098279061505 
-3.306097706178048 
0.082406826236873 
0 
0 
0.8611202245054389 
0.5160523664484584 
0.1658160140763763 
0 
-1.149287986060473 
0 
-2.8404417730703 
3.164098363049476 
0.01078622604730399 
0 
0 
0 
-0.2318844272206274 
-0.2714841632321024 
0 
0 
0 
-0.9472979221669989 
-1.613174768224482 
-0.3822125331717514 
0.4692984875174465 
-3.227190780138232 
0 
0 
0.2589645375617262 
0.959719346994279 
-1.307105119257224 
1.886897770151796 
-0.1321495675209144 
0 
2.001822795224339 
-0.2226309424486595 
1.489135343972341 
0 
1.565567992912003 
1.145845760656803 
0.4402873429686445 
-1.726096636064901 
-2.156261736636107 
0 
-3.494502061135845 
0 
0.3373532160698204 
2.252316221043763 
0.04193363915007307 
0 
0 
2.556634779044828 
0 
-1.067773161268588 
0 
-0.1252603714470855 
0 
2.073180547829014 
0 
-1.946768802665522 
0 
0 
0 
0 
0 
-0.7276713174074551 
0.6872434487635779 
0.5471754008073129 
-1.091088950450426 
1.76891905383044 
0 
0 
-0.1634092264004001 
-1.018661333845121 
0 
0 
-0.9260019523120702 
0 
-0.960626883815821 
-1.100030573460567 
-0.8627804174689865 
0.5489359622595108 
0 
3.688506718910148 
0 
0 
0.5111446656064005 
-0.725934196155415 
2.178292457118713 
1.220574586652984 
-2.25787762442569 
1.396426457381208 
-0.3442680342616162 
-1.538228531193688 
0 
-0.9594295736285836 
1.861834843965927 
-0.2396977132392495 
0.5920759070110789 
0 
-1.334622684089084 
0 
0.07208145836692685 
2.214392494565165 
-1.946514760399133 
0.3803754892086828 
-3.145957648576755 
1.941984147719483 
0 
1.679933067102532 
0 
1.258375821639936 
0 
0 
0.8942170996330082 
-2.061115506314372 
0 
0.5976576281314911 
-0.3527147351730597 
-1.140546562937833 
-1.172131525589809 
0.2013976062508454 
0 
0 
2.000205837925501 
-3.374330139106604 
0 
0 
-2.783432045958018 
1.203464538546622 
-0.4538080773310373 
-1.083783270606739 
-1.314537033948263 
0 
0 
0 
1.256961633697322 
-0.4448432928658688 
2.548659726514757 
-0.1835601252426932 
-1.318125372447829 
0.3825835655066052 
2.18046607931602 
0.6146874823607145 
-1.191513758236638 
4.457554996803833 
-1.056241392635023 
0.2534134658948487 
0 
0.1972804739114493 
0 
0.7799175011016647 
0 
0 
-0.3282011420632069 
0 
0.470985737561269 
0.1330226684513839 
-3.099979096900981 
0 
-0.000950340345992782 
0 
-3.071643440218882 
0.232257301411001 
1.030121485370905 
1.275204826457227 
-0.04855118707803398 
1.839777922297629 
0 
0 
-2.063637441553532 
0 
0.05545350121874849 
0 
0 
0 
-1.25421852053261 
0.7589903867104847 
2.174554740034995 
-0.2633804409578819 
0.2677674021596762 
-0.334409210610627 
-1.953786994335904 
1.879908259495031 
0 
0.2776464758767449 
0 
0.9233470050960402 
0 
2.157402565165064 
6.689544734864461 
-1.70830556640629 
-0.5272964032050903 
0 
0 
-2.397988008588927 
0.7215228252884118 
0 
-2.869698437419851 
0 
-0.02624232994098473 
0.534864034631255 
-2.50581118201194 
4.816630173193191 
0 
-1.147258573064609 
0 
0 
0 
3.775257978692093 
-0.3607445039338376 
1.164054660306347 
0.1410554464001622 
0.1449013100626949 
-0.6221554133982553 
-2.747530599306222 
-0.3495536448831594 
4.189019152041402 
-2.577349409718018 
-0.6863519500955865 
0 
0.4433602241869932 
0 
0.9199461758904586 
0 
-2.40726988963861 
0 
1.087518962868308 
0 
0 
0 
-0.368486300635346 
0.3856238115007952 
-0.6413863628082001 
0 
-3.627036895429918 
-0.9279911422156212 
-1.713707809149656 
1.491702657833963 
3.176143006426595 
0 
0.5155630241162175 
1.576611736818562 
0 
0.715642362413579 
0 
0 
0 
-0.971033128066951 
-1.517754077170696 
0 
0 
0 
2.194150480393239 
0 
-1.001330690773909 
-0.3379353211803235 
0 
0.0854676608921983 
1.312054027266723 
0 
-0.8200697737421159 
-0.3504009269629493 
0.06314546703378741 
0 
1.405326574860803 
0 
0.08991929675026294 
0 
-0.5522278534084506 
-0.1005986808070505 
0 
0 
-1.712502348007455 
0 
1.240770755057936 
-0.4255820579172986 
0 
3.776772563674595 
-0.2959453476987153 
-0.6680014716771016 
-1.235364426490573 
0 
0 
0 
-1.695750843435408 
-0.8093322480740635 
-0.7989726769820378 
0 
0 
1.892826079308965 
-0.5471335419634916 
-0.1839377285113167 
0.6896528228099174 
-0.3883756782138743 
0.9012987683968889 
1.158297698125387 
-0.3777980758311488 
-2.416535148456189 
-0.7166483153974417 
-0.6388872361861795 
-0.4995757094624688 
-0.9643495753680119 
-0.5932107747165507 
2.561668533807034 
-0.8574410445386869 
0.8759410323523057 
0 
-0.4692311997039201 
0 
0 
-0.1484616907064311 
-0.5530721135489086 
-3.087606528195457 
0 
0 
-3.421843603637205 
-0.6080612595791993 
0.8621963990072308 
3.098450251375988 
-1.858112574075252 
0 
-0.7587585356104322 
0.2985719030821963 
2.635354552517414 
-0.2232410057294106 
1.088677353981583 
0.02445195078318391 
0 
3.502326398884225 
0 
2.437474178250836 
0 
1.015010814626735 
-1.477344544965355 
0 
1.583070745196005 
0.3737751132576257 
-0.6798932017114035 
0 
-1.945934463257166 
0 
0 
0.4643687476152735 
0.3394080081541519 
0 
0 
1.149817815920058 
0.7664492926413932 
0 
1.946983087135517 
3.110155367783941 
-1.188545798993202 
-3.090579528277122 
0 
-0.4407288764717608 
-1.713524054838568 
-1.394050929196118 
0.4429502473688857 
0 
0 
0 
0 
0.3548462700980427 
0 
0 
0 
0 
0.1392533113749724 
0 
0.7472923228821104 
0 
0 
0 
-0.6034720898880193 
0.4189760326728192 
2.689586090990343 
-0.03121990242277222 
-1.274155883945417 
-4.495154714735069 
-0.1836943014148476 
-1.335715626951429 
0 
0.2913376863091803 
0 
0.7959514157269445 
-2.254342855530149 
1.452725030549315 
-1.228320949047226 
0 
-1.644899056799523 
0 
-0.1048789279577751 
0 
0.1009874219069872 
-1.602105838138422 
0.7910177862658053 
-1.827990125064547 
0 
0 
0 
-1.365789456894703 
0 
0.4914724642317757 
-0.3139199708615603 
-1.980514571319927 
-0.9320063677580109 
0 
0 
0 
-1.140409606793391 
1.949651365287607 
-0.9102154460696198 
1.453491234852387 
-1.426019825333651 
-0.3281799354501935 
2.800043003829182 
-1.184710426494923 
0 
-0.3828124000262123 
1.655475935702992 
1.011650932745016 
0 
0 
0 
0.3333213302616296 
0.2488062729662993 
0 
2.151867502202481 
0.3202634786143311 
0 
1.091702687559303 
0 
0.4366588911457649 
-0.3675102092944164 
0 
-0.6533899029652578 
3.666690520140145 
1.620654328092144 
-0.8013622183847479 
1.9620266325509 
1.248033639336242 
0.9897990884604397 
0 
0.2577197001388709 
0 
0.7410531148280458 
0 
0 
0.5432008681333953 
-0.4147065248093849 
0 
0 
-3.449653147370038 
0 
0 
0 
-0.6091676565814144 
1.639701744267045 
0 
0.406827112071029 
-0.4488948262749611 
-0.6607568434919943 
-0.7598409597797134 
-2.765734494223572 
0.3928001425450394 
-1.163165621958685 
0 
1.948164938183447 
0 
0 
0 
-0.6564702374462013 
0.2752466664442157 
0.007386927905845234 
-0.3841616985864199 
-1.129233104474603 
0.6093852917167258 
0 
0 
-0.5818246399972781 
0 
0 
0.7109520626127008 
-0.4147065248093849 
-3.634673579739389 
0.7325032213060109 
3.389169976383114 
0.2464805450971957 
1.355648818948303 
0 
-1.123310242770762 
-0.5489321822094058 
0 
0 
0.14454673890262 
0.5019168371277247 
2.169640679445878 
-1.316933086076123 
-0.5459089246668326 
4.39573811318219 
0.9741293059216104 
-0.2973687868329715 
0 
0 
0 
0 
-1.139430223019226 
0 
0 
0.4848778361341062 
0 
0 
0.4154211931123193 
0 
-1.122078532816621 
0 
0 
0 
0 
0 
-0.2406640992950023 
-1.606063790548673 
0 
0 
-0.7935370376782956 
0 
0 
0 
-0.1884959538253728 
0 
0.6278866247902112 
0 
1.10730701320541 
-1.696238334588096 
1.328169049884066 
0 
0 
-0.6533899029652578 
-0.9577273519481878 
0 
1.123910270571397 
0 
0 
0 
0 
1.331748468252591 
-1.462932475583073 
0 
3.44971633630603 
0 
2.317631145733145 
-1.739502572828599 
0.9603240655522269 
0 
0 
0 
0 
0 
0 
-0.9070494637267613 
2.844163732922607 
0 
-0.4122010104554409 
-0.01830430002521545 
-0.06988322626117245 
-0.1682603891578912 
0 
-0.8402605438749186 
-0.4890276595915455 
0.9429122913446997 
0.711886006707907 
0.2695518290351409 
0.5678121018324607 
0 
-1.131433628015445 
0 
0 
0 
-1.943036918311641 
-1.627994133191147 
-0.9857374866630205 
0.4975520894346796 
0.2773757417043813 
-1.649294022792092 
1.358606627250727 
0.3978693200257991 
0.1093571659084156 
0 
0 
0 
0 
-0.5601015936936029 
0.7778556392128527 
0.5986295989462882 
0 
0 
0 
-0.8437592333388174 
0 
0.8225224966430742 
0.4402170386390851 
-0.3918666611221084 
0 
0 
0 
0.8450679910477611 
0 
-0.1292920473910896 
-1.129919596693287 
-0.8777371347237276 
0 
0 
0 
1.531393537094766 
3.231931474021789 
-2.815940804485267 
-1.085562467389194 
1.394102885567077 
-1.208184241280519 
5.15518024294992 
0 
0 
0.9170341410189905 
-2.162070178077153 
1.28733761218325 
0.3556695935510604 
0.6838464651546405 
-1.076602705113861 
0 
0.3170780254926756 
-1.529595280659994 
0.002207192638360569 
-0.614624705312586 
0 
0 
0.5254413570922837 
0 
0 
-1.598659324204388 
0 
0 
0 
0 
-0.9506948355411694 
0 
0 
1.698555145256989 
0 
-0.667558511074869 
-0.3907933847114327 
0 
-1.052990201298241 
0 
1.273993303339376 
0.7987762869124776 
-0.8416602118277593 
-1.968778276266013 
0 
1.017994299845172 
2.687239114834978 
0 
0 
0.5688873807906343 
0.8043470370060243 
-2.20777654579886 
0 
0 
0 
0 
0.3929099420001301 
0 
0 
0 
1.056497044732401 
0 
-0.7251953754655616 
1.665310768889271 
0 
0.49786949971327 
-5.984539984700531 
-0.3725856216026949 
-0.5401650102942143 
1.580451029951568 
-0.5198428532320006 
0 
0 
0 
0 
0.602819087077536 
0.4815071408311213 
0.04178995390766465 
-0.6114515789185805 
0.6676115122009907 
1.607293301637962 
0 
0.09889172246685374 
1.142209999709244 
-0.9489164275556861 
0 
-2.215447003602676 
0 
0.2711718703463256 
1.57607113060393 
-2.169567893609571 
0.2024197240154063 
1.261059223116308 
0.277983476147754 
-0.6277385637092671 
0.3976273942389831 
-0.4756286266869335 
0.1984577833996994 
-0.1499165371638914 
-0.3828630876060248 
1.299899781024192 
-1.618158202417485 
0.110368753183557 
2.759244352389464 
0 
0 
-2.039362926840016 
0.3086979155469213 
-3.475799544741984 
0.01353437679646086 
-3.615753456766472 
-0.0577798858198098 
-2.746967041158706 
0 
1.125674194683887 
-1.004118687111786 
0.2948338191578004 
-3.96411681025967 
0.3306683530250831 
-1.20127547575201 
0 
-4.848802071931869 
0.824180800004009 
-1.516603720331812 
2.012172545013131 
-0.09207540402261642 
0.3340173263260404 
3.374224523856606 
1.93275579549758 
0 
-1.719844427046402 
0.8199294633838874 
0 
-0.128706794924655 
0 
0 
0 
0 
0 
-1.748007803925791 
-2.25866709844794 
0.008947246619786933 
-1.246319239765908 
-0.5796245426925842 
0 
0.5890151385246098 
0 
-0.4647564904651231 
0 
0 
0 
-0.205245013709322 
-1.223042852246169 
0 
1.25971253918575 
0 
-0.02155344161057176 
-3.100621214109207 
-0.5947685310945465 
0.3901592407232495 
0 
-0.72085095351281 
-0.6568824020472394 
-0.7863571689553467 
0 
-1.53747584188878 
-0.551774895566957 
-0.7270280876910169 
-1.118194735699015 
0.6605519520277565 
-1.00758330217161 
1.777950207674256 
0 
-0.2206584305290062 
0 
0 
0.6859014917037607 
0 
0 
0 
0 
-0.1424330763979561 
0 
-0.3871154107361874 
-0.2978377800719577 
1.826066482739804 
0 
-5.473533080104446 
0.4559812700285042 
0 
-0.5438841906525032 
0 
-0.0975942784125863 
0 
0 
-0.4353570641709626 
0 
0 
1.061108135678957 
0 
-2.619434018369994 
0 
-0.4748473581081327 
-1.217222554781118 
0 
-0.7293626732536126 
-1.026950837455047 
-1.717481831758005 
0.4681453240735099 
0 
0.5000004558146486 
0 
-0.3139199708615603 
0 
1.426061260754863 
1.084067570083342 
0 
0 
0 
-0.9354573030786897 
-0.358893694689026 
-0.9631368369309817 
0 
-0.4830395218825377 
0 
0 
0 
0 
0 
-2.237323565867245 
0 
0 
-1.214475221118858 
0 
0 
0 
-2.492090990259663 
0.1298778655011043 
1.37509751233837 
0 
0 
4.065233112816421 
-1.669875958109621 
2.627531391995305 
0 
0 
5.045272282522351 
0 
0 
-1.975418976425876 
0 
0 
0 
0.2336343178122716 
0 
0 
0.654395507312451 
-1.884883216901243 
0 
0 
0 
-0.4759154392959605 
1.063122026224975 
-0.9226656474301181 
0 
0 
-0.6981396751476773 
0 
1.238980497136714 
-0.9195396402603829 
1.31743736033789 
1.339798212452467 
-1.119139869781705 
0 
0 
0 
0 
0 
3.762095253566113 
0 
-2.084779288935279 
0.4495874144692661 
0 
0 
-1.492799440287456 
-0.4547470931036619 
0 
1.54811492891821 
0 
0.5339801115392686 
-0.5064368589580598 
0 
0.3718708806743148 
0 
0 
0.5001041019420558 
0 
0 
1.524822022290402 
0.3388784893904654 
0.981579440732834 
-0.765673557752065 
0.4062901198366012 
-2.236326489750929 
-0.8800683062263067 
0.1526502184326174 
0 
0 
1.407327280607885 
2.382612120494036 
2.025468462500259 
0 
0.5379151665705637 
0 
-0.8006128529066571 
0 
0 
0 
0 
0 
-1.155172818654414 
0 
0.486563984188096 
-1.034416480346418 
-1.073329713104181 
0.8544522179317373 
1.23141582672878 
0 
0 
-0.8944423951355781 
-0.7548889630786149 
-0.001407123826112704 
-1.127866388860123 
0.7734425074890056 
0.7721153286600274 
0.5167669735416305 
-0.6097078640881803 
-3.132219586914455 
-2.643181793099711 
-1.860461915863713 
-2.710691490835542 
0 
0.360540840395855 
0 
0.7984878553364783 
-1.445843037290343 
-0.7578372162251595 
0.429365674566623 
1.424482918983878 
0 
0 
0 
0.4216299449742577 
0 
0 
0 
0 
0 
0 
-0.375017391788064 
0 
0.6455303345402764 
-2.898651132651963 
2.088685828932641 
-0.7974850652110504 
0 
0 
-1.962711226432136 
0 
-0.6619788811494746 
0 
0 
0 
-1.311311551630083 
0 
-0.007905039038163387 
0 
0.5084743010707975 
-2.114152031706959 
-1.227279352185922 
0 
0 
2.880689380818839 
0 
0 
0 
0 
0 
0 
-2.222500149818174 
0 
-2.439172360365319 
0.4547008363819505 
0 
0 
0 
0 
0 
0.5871890411699616 
1.126192393727999 
0.3400253635181221 
0 
0 
0.2060288992432347 
0.5466845687300951 
-0.5246520030825356 
-0.3441403020890234 
0 
-0.1123903663932872 
0.5343054833389745 
0 
0 
0 
-1.430639324217881 
-0.08019703938418707 
-2.532779941368 
-1.613101736348977 
-1.959987532336496 
0 
-0.7704014517801522 
0.02255822390914188 
0.2104531192631131 
-1.115954545989467 
0.3532271149405783 
-0.593007095814844 
0 
-1.139348048889377 
0 
0.4872578404821483 
0 
0 
0 
0 
-1.522680012853835 
-1.164725249220401 
0 
0 
0 
0.2434893750221004 
0 
0 
-0.7363370373384849 
0 
-1.577985202263981 
0 
-0.1241637100750893 
0 
1.205847428244395 
1.763425490221378 
-3.478125002518568 
0 
1.493487215609477 
0 
0 
0.9639484720462702 
1.366840076853052 
-1.645654819173757 
-0.6108012798465409 
1.315793034434773 
0.04748886215246076 
-4.452383443042 
1.091972571755867 
-0.2715923010347347 
-1.904324733714705 
0.22391013437113 
0 
-1.055764916675134 
0 
0 
0 
0 
0 
0 
1.636950392684403 
0 
-1.662194308306255 
-0.4953572026166847 
-1.759214215461052 
-0.4999295857277132 
0 
0 
0 
-0.08569116705807479 
0.4117243287327259 
-0.02086294887550991 
0.6109316781684989 
0 
0 
0 
0 
1.591665888390082 
0 
0 
2.004317160548198 
0.9615727676764474 
1.615541985787903 
0 
0 
-0.322057304024826 
0 
2.426444550429363 
-1.272256703362885 
-1.875354713863332 
-1.373689341649811 
0 
-1.942162994774531 
0 
0 
0 
0 
0 
0 
0 
0 
-0.7403556258852625 
0 
0.3595156815888422 
-0.6537030679047839 
0 
0 
-2.900822975964512 
-2.066492556842177 
0 
0 
-1.567867781256377 
0.6989820182106703 
0.5725772225192016 
0 
-0.1548724597519458 
0 
0 
0.6573530306045646 
-2.288580705121903 
-0.1173279087792458 
0 
0 
0.5542306384129904 
0 
-0.645436149359994 
2.1282020870245 
0 
0 
-1.06449771008915 
-0.5906132459801836 
0 
2.97764038871193 
0.4590608084470189 
-0.6642820391069248 
0 
0.4052059987269106 
0 
0 
0 
1.183074927689034 
0 
0.7731741116927738 
0 
1.630175807339895 
-0.8956551833917941 
0 
0 
-0.2384486884070193 
0 
1.672813830064376 
0.843869665899611 
0.3845726090859252 
0 
0.1919886064350145 
0.4935596492002565 
1.524711171832083 
-0.7440336981369268 
2.946214191966436 
0.1661250941130589 
1.352462928941367 
0.7153621953820289 
1.09675786302158 
1.762583269719931 
-0.8971011018829883 
0 
0 
0 
0 
-0.5711110481033144 
-0.8078737976915747 
0.2876440146129712 
0 
0 
0 
0 
0 
-1.799508206659128 
0.5077907535765267 
-2.820888049631097 
1.543181570372226 
0 
0 
0 
-2.56684208844106 
0.6817244576699559 
1.711223227796112 
1.716592297382502 
-0.4353570641709626 
-0.5121999131910743 
0 
0 
3.156194354239741 
0 
0 
0 
-0.4596462184221389 
0 
-1.442536855856881 
0.6680747276261919 
-0.4930179890480955 
0 
0 
0 
0 
0 
0 
0 
0.5079129278269927 
0.5860194931611754 
0.8562757205954754 
0 
0.4909014552792388 
0.600489453673872 
0 
-2.051887322555255 
-1.469241027421881 
-0.6299138117099489 
0 
0 
0 
-1.316958889662242 
-0.7468908061682915 
-0.7852954962238674 
-2.554622451771683 
-0.06553640669457486 
0 
0 
0 
0 
-4.170963810404575 
0 
-0.7700760991802161 
-0.2639864264755719 
0 
0.6894337957531943 
0.6808237949235769 
0.1544579800956615 
0.5287335783721742 
-2.264213879582178 
-0.1520030278934251 
0.231746133363178 
-0.1193955861623449 
0 
0 
-0.4466240274116121 
0.8189704321095206 
0 
0 
0 
0 
-2.341396643389619 
-0.04232839839125464 
0.3834604126219034 
0 
0.1899866525544908 
0 
1.822887565294304 
-0.1306901918176495 
0 
0 
1.645816933430684 
-1.1990217452039 
-0.03919328253518858 
-1.312576297020601 
1.023574401765067 
0 
0 
-10.21171417548747 
-1.267903605761479 
0 
-1.702584623383287 
0 
0 
-4.092629142905499 
0 
1.8144914125845 
-2.954588867571498 
0.905487772451488 
0 
-0.5449179747405238 
-0.266829557818408 
-0.4651602937704558 
-0.8735062900209341 
0 
0 
-0.3314571748038355 
1.271879304826681 
0 
0 
0 
0.2530624571280802 
0 
0 
0 
0 
0 
0.6396736496666544 
0 
0 
0 
0.9339768314087503 
0 
0 
0 
0 
-0.4776580387979062 
0 
0.3417619134601927 
0 
-0.6847315299211688 
0 
0 
0 
-1.474931811218738 
0 
2.579445969496615 
-0.2580254217110904 
0 
0 
0 
-1.11913638855829 
-2.097026406339596 
0 
0 
-2.203662335894919 
0.1373920677618796 
0 
-0.5064274700893368 
-1.009365094129726 
0 
0 
0 
0 
1.812086241422894 
0 
0 
1.257409295294703 
0 
-0.8818566734915897 
0.5060041637625095 
0 
-0.2861618799052815 
0 
0 
0 
0.4279841257034568 
0 
2.283415715779527 
0.61235166217544 
2.102494291256024 
0.895091804294564 
0 
0 
0 
0 
0 
0.248119913559626 
2.493380492287106 
-0.3527183304632311 
-0.7539953335947268 
-1.967398918322149 
0 
0 
0 
1.052606021388868 
0 
0 
0 
0 
0 
0 
0.8819774656470054 
-1.027873928793924 
-2.158096262069684 
0 
0 
-0.3278441148585037 
0 
1.937224574634415 
0 
0 
0 
-0.3944868159171872 
0 
0 
-0.2045676833339556 
0.7765025469916167 
0 
0.3046281846749663 
-0.8566650048800318 
-0.4228121151096041 
0 
-2.506781468511116 
-0.07582854754560996 
0.2404459368715812 
-0.5064368589580598 
0 
0 
-1.341197345617301 
0 
2.472309289442091 
0 
2.105843612548298 
0 
3.801319198502489 
-2.368349850997248 
1.449589118806599 
0 
0 
0 
0 
1.130332532120624 
0.5175743148131289 
0 
0 
1.886791687979849 
0 
-0.6700416919098515 
0 
-2.036101695725323 
0 
0.9423146686874248 
-0.06705375583643861 
-1.529630536251698 
-0.06094908629572082 
0 
0 
0 
0.2770542067701287 
0 
-0.7942027672187335 
0.2994075802895516 
0 
2.638102577587738 
0 
1.006808900375834 
-0.2922563474378889 
0.4783808420692767 
-2.30463129445128 
0.1718531182373803 
0.6908455110190138 
1.542932248634575 
0 
0 
-0.9102075145244319 
0 
0.5582053402608305 
0 
-1.049472163388842 
-0.3767485907315246 
1.791623782975642 
-0.4954011440106921 
0 
0 
0 
0 
0 
-2.902144410734135 
0 
0 
0 
0 
1.529399199525148 
0 
0 
-0.6193639496105466 
2.794441753744007 
0 
0 
0 
0 
-0.2083451245163484 
0 
0 
-0.04420388835104142 
-0.0607564318378954 
0 
0.6438068060336252 
0.8259449080807587 
0 
0.7649361130295872 
0 
0.2795885111081091 
-0.6745875530379297 
0 
0.7161265440638878 
0 
-0.2183874706402817 
-2.178061227699663 
-0.7521437483484713 
2.348494003014594 
0 
0.2039934982097499 
0 
2.809649816247191 
-1.267325008873354 
-1.944265348131664 
0.694670119311953 
0 
-1.623672319921023 
-0.8515870668098918 
-0.4314382943259297 
-1.561346840505795 
0 
0.607791176844421 
1.414507988019651 
1.31690081479188 
0.2176670420526682 
3.590050239885503 
0 
0.3495247400648998 
0 
-0.6190203277607725 
0.7780556713345711 
0 
-1.552385387263447 
0 
0.01547847746051105 
0 
0.4535629090839344 
-1.054850545929332 
0 
0 
0 
0 
0 
0 
-0.3329683355953862 
0 
0 
0.7728317238131861 
0 
0 
0.2147954958558908 
1.147838944495993 
0 
1.679268701900237 
0 
1.880856157835266 
0 
-1.157827956531784 
0.08199324330907562 
-0.9096820415201562 
0 
1.397995388857643 
-0.9361969146110167 
0 
0 
0 
0 
0 
0 
0 
-1.899558202110227 
0.527277661723052 
-0.5726066226353672 
0 
0 
0 
0 
-2.798164840753792 
1.69279479542945 
0 
0 
-1.114263020713872 
1.948082354354398 
0 
0 
-0.3420946606028361 
1.602471388034086 
-0.3229523164800748 
0 
0 
0 
-0.3427801331556218 
-0.539398143821742 
0 
0 
0 
0 
0.3880421525066824 
0 
0 
1.07621170399531 
0 
-0.6667591118243235 
0 
1.773135400842319 
1.450565736446455 
-2.238034908008097 
0.06555421608701159 
0 
0 
0 
2.626480955424163 
0 
0 
0 
0 
0 
-1.915645722985135 
-0.6270597974326073 
-0.2707507761581373 
0 
-1.10079298684486 
-0.8889248026195428 
-0.1669839871736063 
0 
0 
0 
0.465777364124168 
-0.4440156306741628 
-1.949391017233403 
0 
0 
0 
-1.177885698275328 
0.5890751825536621 
0 
0 
0 
0 
-2.836974706827199 
0 
-5.160956148877309 
0 
2.997501707466089 
0 
-0.7617376595962431 
-1.203240354391696 
0 
0 
-0.1275900194434008 
0 
0 
0 
0 
1.906747015329734 
0.5126085060410518 
0 
0 
0.1150994127208774 
0 
0.9358493039758283 
0.63711197254369 
0 
0 
0 
0 
0 
0 
-1.054390984683653 
0 
-0.5916702506821704 
0 
0 
0 
-1.357906876504398 
0.6078135735782443 
0.1101142194342455 
0.6119296350830625 
0.9899309457023022 
0 
0 
0 
-0.6900073616265292 
0 
0 
0 
0 
-0.9898342298511607 
-0.4766577656903654 
0 
0.7319278574027811 
-2.525067705681534 
-0.1331435466343623 
0.3168266843799141 
0 
0 
0 
0 
0.8392076407801937 
0 
-0.9519999696151183 
0 
0 
0 
0 
0 
0 
0 
0 
0 
0 
0 
-0.7941249248683477 
0 
0 
0 
0 
-0.08095008077757891 
0 
0 
0 
0 
0 
2.186683752199103 
0 
-0.2686351290987488 
0.1278813862511781 
0.8136044748890437 
0.5693713381549903 
-1.60793369162989 
0 
0 
0 
0.1347580843084402 
0 
0 
-0.5694150504864554 
0 
0.5882967202294823 
0 
0 
0 
0.1464559082587214 
0 
0 
-0.2647512834907532 
0 
0 
0 
0 
0 
0.3086979155469213 
-0.01739464251235861 
0 
0 
-1.438620307375594 
-0.6654342703351505 
1.090749213397832 
1.717866429816825 
0 
0 
0 
0 
1.017994472516492 
0.3333298605705682 
-0.6820868163598471 
0 
0.7946799013369042 
0 
0.1013931010659817 
-0.4239361650927123 
0 
0 
0 
0 
0 
0.3639696067247337 
0.7430174332226366 
-1.120463572644413 
0.3445805689126631 
-0.2881221451575343 
-1.060521314253475 
1.672719319744304 
-0.7840271509652392 
0 
0 
0.3478044811544952 
0 
-0.4347259671828841 
-0.1769697197431608 
0.7367133317995702 
-1.268231340769618 
-0.590488941483531 
0.6081769275400012 
-2.555792078453188 
0 
1.501045203548626 
-1.244600189262942 
0 
-1.373845646839446 
0.7381037255384375 
0 
0 
0 
0 
1.246174333651664 
0 
0 
0 
0 
0 
0 
0 
0 
0 
-1.305916736318103 
0.7800653265956671 
0.05155350282867086 
0 
0 
0 
0 
0 
0 
0.7307812161347894 
0 
0 
0.08242614563514378 
0 
-0.5370936987561429 
0 
0 
0.5870562335106797 
0 
-1.280906576946222 
0 
-0.169892280864784 
1.806882638556079 
0 
0.3037263893298738 
0 
0 
0 
0 
0 
0 
0 
0 
0 
1.371177404928885 
0 
0 
3.370418124699159 
0 
0.9265780815196913 
-2.167718892153471 
-1.443710597898996 
-4.377110284937726 
0 
0 
0 
0 
-1.196754909083427 
0.1899980394340925 
0 
0.5188734223418747 
-0.1298315269607146 
0 
-1.415188141143689 
0 
0 
-0.6212393168113193 
0 
0 
0 
0 
-0.8777371347237276 
0 
0 
0 
-1.734133494843072 
0 
0 
0 
0 
0.6061180465576018 
0 
0 
0.7154768434095575 
0 
0 
0.1161519716404898 
0.5669093152882562 
-0.7874493348242402 
0 
0 
-0.9499035430879961 
-1.97433251980114 
0.9535016533075049 
0 
-0.5341175102573068 
0.5337095073883203 
-0.2555186505247612 
4.009122350894568 
-0.3808463860996158 
-0.4395164799354208 
1.912571034666136 
0.4820058345956501 
0 
1.984547882823741 
0 
0 
0.5326848096470542 
0 
0 
1.204590524758847 
-0.5472932724085786 
0 
0 
0 
-1.062375773623479 
0 
-0.2933379362836608 
0 
0 
0.4972680871427104 
0 
-2.726880507807651 
-1.048671286303687 
-0.4790848600096991 
0 
1.955603287165117 
0 
-1.073618808206146 
0 
1.226109554354125 
0 
0 
0 
0 
0 
-0.3608682130322957 
0 
0.480955081872055 
-1.744787066698447 
0 
2.85186389899111 
0 
0 
0 
0 
0 
0 
0 
-1.28857712310141 
0 
-0.7659717490064524 
-0.3752939024920151 
0 
0 
0 
1.139014568679158 
0 
0 
0 
0 
0 
0 
0 
-0.04608957820172888 
0 
0 
0 
0 
0 
0 
2.068817601073063 
0 
0 
-1.53484971177785 
0 
0 
0 
0 
0 
0 
0 
1.197548074394455 
0 
0 
1.102272412049899 
-0.3015270528109032 
-2.363583847333473 
0.7577948217432975 
0 
0 
0 
0 
0 
-0.8304257068103758 
0 
-1.081797585586395 
0.4625573555086008 
0 
0 
-0.7697154077474951 
0 
0.1895334053531288 
-0.6826278485446078 
0 
0 
1.011143677686553 
-0.4888783589800271 
0 
-1.440884126230134 
0 
0.8302352938021764 
0 
0 
0 
0 
2.591097560268264 
-1.047701343345537 
0 
0 
0 
-0.6799986010563557 
0 
0.05666751561995795 
0 
0 
0.001143701768758552 
0 
0 
0 
0 
0 
0.9728286866001818 
0 
1.567171822386238 
-1.614198306006885 
0.5836933183207464 
0 
0 
-0.4062331466473853 
0 
0 
0 
0 
0 
2.336766878621706 
0 
-1.204395609908002 
0 
0 
0 
1.33880855305263 
0 
0.2969293651260561 
2.181925724398607 
0 
0.8408885603804273 
0 
0 
0 
0 
-1.698491969700682 
1.864515010116476 
0 
0 
0 
-0.3580795157267109 
0 
0 
-0.3287903478008327 
0.5887046850942139 
0 
0 
-1.986339986613047 
0.3455110660194968 
2.745381354857617 
0.1657886635820876 
-3.067241512108867 
-0.1875031806357895 
-0.01167905018963514 
-1.02042539174377 
-0.8380127326482509 
0 
-1.364710355252982 
0.5970812332838799 
-1.880081666518058 
0.5641347768069639 
0 
4.339277626119671 
0.2334094028777898 
0 
0 
-0.09578573795062297 
-1.628199925153752 
0 
0 
0 
0 
0 
1.585211629329942 
0 
0 
0 
1.018679250240904 
0 
0 
0.4352243009412875 
0.22264568707899 
0 
-1.949498062107208 
0 
0 
0 
-2.479980594669688 
0.434983304745935 
0 
0 
0 
1.375818105563563 
0 
0 
0.4634302984640516 
0 
0.001844378824005341 
0 
0 
0.1258102572978365 
0 
0 
0 
0 
-3.029830568224486 
0 
-0.142115971931176 
0.5191964314262437 
0 
0.6825046298366249 
0 
1.215631535946921 
0 
-1.150844467981121 
0 
0 
0 
0.4640848536916066 
0 
1.674208043277879 
-0.09680092607648634 
0 
-0.1371141869812484 
-0.6721567042305803 
0.2707531578286858 
0 
0 
0 
0 
-0.577018017868802 
-0.9652954450173643 
-0.6745961015848861 
-1.534306128838576 
0 
0 
1.783475577376048 
0 
0 
0 
-2.056436896042471 
0 
-1.652008293947675 
0.5874942017202736 
0 
-1.772255104073181 
0 
-0.5013426544833557 
0 
0 
0 
0 
0 
-2.786352992418696 
0.08724548487705312 
2.512507147802018 
0.4265902058752283 
0.7191425401420642 
0 
0 
0.4617414289646911 
0 
0 
0 
0 
0 
0 
-0.2664265392219542 
0 
0 
-1.784121764544902 
0 
-0.3772103703492168 
0 
-1.566759212774954 
-0.848720611591659 
0 
0 
0 
0 
0 
0 
0 
0 
0 
0.4884221876134821 
0 
0 
0 
-1.319114955019858 
1.03751966946457 
-0.2210952951277471 
0.3041251488517452 
0.2883576121033588 
0 
-1.597240667538843 
0 
-0.1720309906293274 
1.688587643177181 
0 
-1.223504255672473 
0 
-0.248116653491166 
-0.6057833472689875 
0 
0.5217547780901718 
0 
0 
0 
0 
0 
0 
0 
0 
0.3499988354740149 
0.3456880396541135 
0.7782414683594266 
0 
1.774383227425526 
0.9700382782907975 
0.6274696426926398 
0 
-0.4493718498750763 
0.9299392055597656 
-0.6529669868031998 
0.7249480853924658 
-0.4089714733234597 
-1.632014071843081 
-3.261992551971402 
0.8363726035081092 
2.597697448144865 
2.974241173231296 
-0.2155816977233369 
0 
0 
0 
0 
0 
1.083720674214014 
0.5334980834320552 
0 
0 
0 
0 
0 
0 
0.5298385236231639 
0 
-0.1721131837296006 
-0.2893393803066769 
0.2662594124478045 
0 
-0.9100723430245153 
0.4178096380014856 
-0.6245880932010904 
0 
-0.7270667876549389 
0 
4.020461503385349 
0 
2.061639675607869 
-0.2933565008471983 
0 
0 
-0.05901056318218996 
0.4789098496022384 
-0.6241390759052784 
0 
0 
0.674432294603842 
-0.1537833078405834 
0 
0 
0 
-1.829356144457473 
0 
0 
1.015411950414808 
-0.04273853997506962 
0 
0 
0 
-0.7533778483331582 
0 
-1.261615266244277 
0 
0 
0 
-0.6108263881533723 
0 
0.2863750080607607 
-1.432577872990275 
-0.2220902442173944 
0 
0 
0.7722120682045366 
-0.2607272502166217 
0.0008531275369265272 
0 
0 
0.5334980834320552 
0 
0 
0 
0 
0 
-1.868462004222029 
0 
0 
0 
-0.9398859820063526 
-4.58120720835051 
0.9739115605313674 
0 
0 
-0.6248524393971316 
0 
0 
0.6647308677282855 
0 
0 
0 
0 
0 
0 
0 
1.327647781919823 
0 
0 
0 
0 
2.865301426393818 
0.6733317724041235 
0 
0 
0 
0.1737557209614693 
-1.227312862771174 
-1.399826778960549 
-0.9789501081595542 
0.2811267737967564 
0.2867705616316258 
0 
0 
0 
0 
1.077992078337438 
0 
0 
0 
0 
0.9817941413391007 
0 
1.210132312596645 
0.8767205510780878 
-0.4122712967833969 
0 
0 
-1.08070498297166 
1.341071557977757 
0 
0 
0.518367111705031 
0 
0.8434910912966147 
-1.614434039794836 
0 
0.1653833407790644 
2.066902930727895 
0.9339314524216757 
0 
-0.4891404381879972 
0.2197647132269651 
0 
0 
-0.7037773535320548 
0 
0 
0 
0 
0 
0 
0 
0 
0 
-1.309916781339257 
-0.2876631928470253 
0 
0 
0 
0 
-1.034614925026497 
0 
-0.9298496253274177 
0 
-1.189084114896208 
0 
-0.4353570641709626 
0 
1.00543661670868 
0 
0 
0 
0 
0 
0 
-0.6421605772460401 
0.2632718032691503 
-0.465617446180043 
0 
3.849883211239173 
0 
0 
1.778900892204269 
0 
0 
-0.8377913818900437 
0 
0 
-1.038282648528572 
0 
-1.41205925140693 
0 
0.09008403740915033 
-0.7084506347760363 
-0.448852371376789 
1.944675903919227 
0.2709943317416358 
-6.851123811332729 
-1.410026965890309 
0 
0 
0 
2.487789268165679 
-0.9849539728430118 
1.278978464188495 
-0.6749715618707499 
1.064222168012853 
-1.129052833515421 
0.4001537347318549 
0 
0.2441594028119668 
0 
0 
0 
0.9621479998947801 
-1.045463389691607 
0 
-0.9738663171611005 
0 
0 
0.2914653758500598 
0 
0 
0.7711847562582432 
0 
0.5762968751105998 
1.754431299472985 
0 
0.99057469748274 
0 
0 
0 
0 
-1.357906876504398 
0 
0 
0 
-0.5711110481033144 
0.08417210315791354 
0 
0 
0 
1.30049109652235 
0 
0 
0 
-4.524096518820435 
-0.3771919827396419 
0 
-2.133681483993014 
0 
0 
0.7757191945025637 
0 
0 
0 
0 
0 
0 
0 
0 
0 
0.4084032113812089 
0 
0 
0 
-1.318563857319483 
-0.3608682130322957 
0 
0 
2.232403943836289 
0 
0 
0 
0 
0 
0 
0 
0 
0 
0 
0 
-0.4146228798094042 
0 
-0.6937765477207611 
0 
1.997809839816614 
0 
-0.09536219523582383 
0 
0 
0 
0.7320243511589064 
0 
-0.8650452474957984 
-0.4851141344778363 
1.082385364056158 
-0.9741491763109578 
0 
0.4453223651342304 
-1.603834138036847 
0 
0 
0 
0.5091475999823263 
0 
0.4808438109583039 
-0.1554270285439868 
-0.9962121702452617 
1.481385998413565 
-1.256115037137585 
2.013194366668668 
0 
0 
0 
-1.208830267889608 
0 
0 
-0.2766427912724714 
0 
-1.442588802546623 
0 
2.405609811202412 
1.391741453733635 
-0.5788982204709303 
0 
2.34338201704905 
-0.8971011018829883 
0 
1.410072321835377 
1.69622881509554 
0 
0 
0 
0 
0 
0 
-0.5975124444146724 
0.2348636084369408 
0 
0 
0 
0 
-4.547043006609927 
2.330731119474085 
-0.3751909048447934 
0 
0 
0 
0 
0 
0 
0 
-1.439732754001551 
0 
3.19781924493547 
0 
0.4723871288939659 
-1.748088839011919 
0 
0 
0 
0 
0.9749308422585594 
1.36835311937983 
0.6190991844958285 
0 
0 
0 
0 
0 
0 
0.9693353175104574 
2.069301028316286 
0.1923587605418987 
0 
0 
-1.418805633655286 
0.5271952531335415 
0 
0 
0 
0 
0 
0 
0 
0 
-0.4924632656002186 
1.594966536904203 
0 
0 
0 
0.07767722214158886 
0.9330141868606724 
0 
0 
0 
0 
-1.350347204492758 
-2.234572663066931 
0 
0 
0 
0 
0 
1.341491398227886 
0.4161330434807058 
0 
0 
0 
-1.169231220724633 
0 
0 
0 
0 
2.601132041045979 
-1.221185219011875 
0 
1.881849884830415 
0.2255744119502899 
0 
-0.4682096764192432 
0 
0.4938980604242461 
0 
0 
-0.3565471174297143 
0.3643200412726321 
0.4817757262776115 
0 
0 
0.2997030292051323 
0 
0 
0 
1.301366164657154 
0 
0 
0 
-3.250280569172031 
2.175417018220539 
1.269778268181956 
0 
0 
-1.866612670123527 
0 
0 
-1.336749599923983 
-1.284658353881058 
0 
0 
0.1946791911692318 
0 
0 
0 
-1.297241399673985 
0.5599460630855466 
0 
-0.6724047605060635 
-1.551818892262574 
0.5636115052829873 
0 
0 
0 
0 
0 
-0.4359298337849991 
0 
-0.5755637812305959 
-1.265664215467442 
-2.325433727117111 
0 
0.3836182770354755 
0.7057444183003543 
-1.076182755451714 
-0.3751093357027456 
0 
0 
0.8040763794393757 
0 
0.6006885650629818 
0 
0 
0 
0.9630532871421124 
-1.457511311812992 
0 
0 
0 
0 
0 
0 
-0.9959775430999815 
0.5444353730999656 
0 
0 
-1.343563634844131 
1.257111402330225 
0 
-0.7221026246759682 
0 
0 
-0.7093321742817208 
-0.2860189500779939 
0.4439683443976096 
1.169609543724955 
0 
-0.7209651531625022 
0 
0 
0 
0.7554761009166518 
-0.5343867928103009 
0.5265435459824744 
0 
-1.209502265517702 
1.314130994455819 
0.4884221876134821 
-1.322837347201158 
-0.3477554720215286 
0 
0 
0 
0 
0 
0.5628766031955749 
0 
0 
-0.2240329268794903 
0 
-1.316681159032688 
0.06558575891881474 
0.5495819403439711 
0 
0.3896626513956249 
0 
-0.6499573051861708 
1.139862724249017 
-0.5230159435719441 
-2.703392979853342 
0 
1.162457012178028 
0 
0.4090587470901969 
1.123353577952142 
0 
0.2098571960837157 
0 
-0.6696709253620158 
-4.729789880528614 
0 
0 
-0.7663259983469317 
0 
0 
0 
-2.755069422149865 
0 
0 
0 
0 
0.3510688893768027 
0 
0 
-0.4653824564019968 
0.007053346684848605 
0 
-1.071377076391486 
0 
-0.2956762933050398 
0 
0 
1.23915642657985 
0.5771728017054786 
0.1935744411611486 
-0.07442200986906371 
0 
0 
-1.631916041371722 
-1.580343847509823 
0 
-1.187894667092073 
0 
0 
4.023466217173577 
2.204104065490862 
-1.302075470395013 
-0.2714645899489253 
0.2818284983141747 
0 
0 
0.3683890737746354 
0 
0 
0 
-0.6708643559792524 
0 
0.4835433496647158 
0 
0 
0 
0 
0 
-0.3809226605134619 
0.6239149746955918 
0 
0 
0 
0.7411024798728501 
0.5430555132640823 
-1.020096530768825 
0 
2.072164245364768 
0.6888761143477145 
-0.2932309828126339 
0 
1.078725570134442 
-1.243268499877442 
0 
0.4656969661195077 
0 
0.02507810796595457 
0 
0 
0 
0 
0 
-0.8914267955428998 
0 
0.6477313471263859 
2.021875668278607 
0 
0.7025925745937691 
0 
0 
-0.5319802469743641 
0.6726875796000955 
-2.614884287092324 
-0.656405610323311 
-0.09964998607101086 
0 
0 
0 
-1.869011809295126 
0 
0 
-0.01158017638294257 
0 
0 
0 
0 
0 
-0.3856314009188113 
0 
0 
0 
0.1661250941130589 
0 
-0.860225241592245 
0 
0 
0 
0 
0 
0 
2.159640084032009 
-0.620288377823594 
2.978143164776427 
-2.333626723019864 
0.2861871800212428 
0.529182237638492 
0 
-2.37581867507031 
0 
0 
0 
0 
0 
0 
0 
0 
0.2128212916707482 
0 
-2.102979758823147 
-0.5538183892633781 
0 
-0.4982866917325979 
-0.7979743852332946 
1.346564892041316 
-0.8177702581121928 
-1.219660510015975 
0 
-0.6754719446625781 
0.8486380879225575 
-0.0143320281583481 
0 
-0.1211263002215738 
0 
0 
0 
0 
0.4888985131386271 
0 
0 
0 
0 
0 
0 
0 
0 
0 
1.799198812102013 
0 
-2.639296118558932 
0 
0 
0.397854515019356 
0 
0 
-1.429570356821158 
0 
0 
0.3976502548413233 
0 
0 
0 
0 
-0.5818246399972781 
0.2335824854745644 
0.7995941700556287 
0 
0 
0 
0.9687807486836972 
0 
0 
0 
1.125200883196382 
-0.07515856981908831 
0 
0 
0 
-0.6645078987833626 
0 
-0.6752131734726743 
0 
0 
0 
0 
-0.5212575774085345 
0 
0.8376993795211336 
-1.219854037905252 
-1.49019397788581 
0.8273975744378459 
0.2970681976387218 
0.3201714233279134 
-0.5825701344615006 
-1.12412773355077 
0 
0.6755303672214148 
0 
0 
0 
0.3146945329559396 
0 
-0.3984720468880594 
0 
0.8345261289210064 
0 
0 
0 
0 
-0.2499568830585526 
0.4236540388464342 
0 
-0.6172146406890939 
0.1038224376074788 
-2.007585114793227 
0 
-1.309496748402387 
0 
0 
0 
0 
0 
0.3662598614815963 
-0.726156813886641 
0 
0.9817036470232734 
0 
0 
-0.2468397968490702 
-0.08381641291423722 
0.1686590859178967 
0 
0 
0 
-1.014624193239043 
0 
0 
0 
-0.7626223242766231 
-0.6514070062099493 
-0.08228168573230163 
0 
0.2542899285375412 
-0.8058934725811567 
0 
0 
-0.824662141231658 
0 
0.3588647390041664 
-1.958508150170775 
0 
0 
0 
0.4154356405417144 
-1.120860660542064 
0 
0 
0 
0 
0 
0 
0 
0 
0 
0 
-0.2524754988321341 
0 
0 
0 
-0.8196791050083617 
0 
0 
0 
0 
0 
0.4512943931961134 
-0.5674993355753636 
-0.5661499854593306 
-1.602927720948371 
0 
-0.4691301885764209 
0 
0 
0 
0 
0.6160414922363677 
0.3548529656050244 
0 
1.222748292616694 
0 
0 
-2.499045942040451 
-0.9045617108689685 
0 
0 
0 
1.466903706866075 
-1.430704264462002 
0 
0 
0 
0 
0 
-0.4169810829124531 
-1.024585454213433 
0 
0 
0 
0 
0 
0 
0 
0 
-1.125831167807199 
0.6891014554946118 
0.5267970772542291 
0 
0 
0 
0.8582986401512636 
0 
0 
-0.6642026331063006 
0.5986295989462882 
-1.28167047690685 
0 
0 
0 
0 
0 
0.4663722572290828 
0 
0 
0 
-0.8326551715451033 
0 
-1.338625788207751 
0 
0 
0 
0.7161265440638878 
-0.7582881125181881 
0 
-0.2550904927244279 
0 
-1.310339705747352 
0 
-1.322055791561639 
-0.09559378361841164 
0 
0 
0 
0.08555029321246629 
-0.855757040430859 
0.7907189908385175 
0.403842686771549 
0 
0 
0 
-2.628982856466683 
0 
-0.428610829919998 
0 
0 
0 
0 
-0.6550570963110672 
0.6860627776411885 
-0.8534135006668351 
0 
0 
0 
0 
0 
0 
0 
0 
0 
-0.4768212624576733 
-0.007906071860039233 
-0.9448244004598614 
0 
0 
-0.6180042947264816 
0 
0 
0 
0.8650819584687562 
-0.4437463347913878 
1.630833512740292 
1.084709594236103 
-0.531959362952072 
0 
0 
0 
0.6217356665945798 
0 
0 
0 
0 
0 
0.6962082515647233 
0 
-0.4956734014627493 
0.8479837168682215 
-0.4953572026166847 
0 
0 
0 
-0.7358616887911588 
-0.7535656624473507 
1.23141582672878 
0 
0 
0 
0 
0 
0 
-0.2109699722389434 
0 
0 
0 
0 
1.108156679324689 
0.8167689685978851 
0.6766034182571951 
0.04397574644611622 
0 
0.6874406925756286 
0 
0 
0.6576877753303262 
0 
0 
0 
0 
0.302091119426136 
-0.3405846981024705 
0 
0.6785482692042167 
0 
-2.085217014420023 
-0.6842621471320799 
0 
0 
0 
2.545225194997211 
0 
0 
1.049810640174376 
0 
0 
0 
0 
0 
1.214508573060372 
0 
0 
0 
0 
0 
0 
0 
-0.8302050761846481 
-0.06041265352156874 
0 
0 
0 
-1.706902182482304 
0 
0 
0 
0 
-1.060502886311025 
-0.3204806198571514 
0 
0 
0 
2.20176491803475 
0.1637702019735595 
-0.5052970292984506 
0 
0 
0 
0 
1.644835422132352 
0 
0.6305096213184747 
0 
0 
-1.115954545989467 
-0.9316046930181008 
-0.4748473581081327 
-0.4103279803621774 
0 
0 
0 
0 
0 
0 
1.29247326855256 
0 
0.03784590891037829 
-0.5530721135489086 
0 
0 
0 
-0.6470847871093517 
0 
0 
-0.3321060034581438 
-0.2310870804066704 
0 
-1.220312365128429 
0 
0.3496842522590701 
0 
0 
0 
0 
0.7951108752343917 
0 
0.9204181672245079 
0 
0 
0 
0 
-0.9135584195430945 
0 
0.4990480185253895 
-2.144306527052754 
0 
0 
0 
0 
0 
0 
-1.514158740784425 
-3.623112021518752 
0 
0 
-2.070234087368562 
0 
0 
-1.725401696732312 
0 
0 
0.8060133348869001 
0 
0.6056505179744682 
0 
-0.9570825605434009 
0 
0 
0 
0 
0.1805224721112589 
-0.2106667684462276 
0 
0.5155630241162175 
0 
0 
0 
0 
0 
0 
-0.8043811843542267 
0 
0 
0 
1.085834179287641 
-0.01830430002521545 
0.7514239711846702 
0 
0 
0 
0.6415699769023562 
0 
0 
-0.6847315299211688 
1.002134088575666 
0.5930033877709798 
0 
0 
0 
1.869051159279851 
1.519326428319932 
0 
0 
0.3264623219283042 
-0.629757944019057 
0 
0 
0 
0 
0.8365013188796161 
0 
-0.8342740571560974 
0 
1.15601087478916 
2.504582695879314 
0 
0 
0 
0.3127665445121865 
0.08945546160196093 
0 
0 
1.510220323311951 
0 
0 
0 
0 
0 
0 
0 
0 
0 
0 
0 
0 
0 
0.5802429482874958 
0 
0.4711840840984686 
0 
0 
0 
1.141257413143445 
1.359600065596037 
-1.028406958111719 
0 
0 
0 
0 
0 
0 
-0.7757062746532907 
-0.09914534177782099 
0.7114256710878439 
-0.2709013977264385 
-1.104752271111815 
0.3752741552810684 
0 
0 
0 
0.9793059077796039 
0 
-1.12534806977031 
0.03647102875318297 
-1.354819491736016 
0.8114500547416008 
0 
-0.5677350031317636 
0 
0 
0.2577197001388709 
0 
0 
0 
0 
0.1919886064350145 
-0.5711110481033144 
0 
0 
0 
0 
-0.9316129928320461 
2.553200463137289 
-0.4725940373458964 
0 
0 
0 
0 
0 
0 
-2.769382941870465 
0 
1.378894859592716 
0 
0 
-2.123553781058504 
0.8396599242818945 
0 
0 
-1.478685842627725 
0 
-0.8108525821523006 
0 
0.8836212503075388 
0 
-0.3095818061805768 
0 
0 
0 
0 
0 
0 
0 
-1.943076740954662 
-0.004327312817365158 
0.3107843203438523 
0.7425366870092006 
0 
0 
0.4279841257034568 
0 
0 
-0.5876659234399622 
0.4677307972026288 
0 
0 
2.090902469720189 
0 
2.541419532539517 
0 
-1.385204565926184 
0 
-1.604801810696413 
0 
0 
0 
0 
0 
0 
0 
0 
0 
0.07833776902734077 
1.50316943634516 
-0.6501810210782918 
-1.506027219347422 
0 
0.7677293315433648 
0 
-0.9280511441091196 
0 
1.66854825014359 
-1.629197406045521 
0 
0 
0 
0 
0 
-0.4477756985144502 
0 
0 
0.3694367508284902 
0 
1.756280574492898 
0 
0 
0 
-0.9131965839058745 
0 
0 
-0.09346191777244467 
0 
0 
0 
0 
0 
0 
0 
0.5241033630284806 
-1.078617301300869 
0.1900711134104862 
0 
0 
0.7209113890166785 
0 
0 
0 
0 
0 
-0.4473379017861346 
-0.5109966082496225 
0 
0.8873613840798026 
-0.6206161061172173 
0 
0 
0 
0.6986454963872026 
0 
0.7004355124252837 
0.4627384155671627 
1.239151284074862 
0 
0 
0 
0 
-0.9343875157506056 
0 
0.3746741464455786 
-0.4010093052956337 
0 
0 
0 
-2.093485869289097 
0 
0.6115089982469553 
2.582665464110845 
0 
0 
0.6335101380589715 
-0.4518895250448819 
0 
-0.4752799375770502 
0 
0 
0 
-0.1926316737944871 
-1.923828343681042 
0.9920491490366646 
0 
0 
0.7874393063544947 
-0.1598537318821154 
0 
0 
-0.6199248279152483 
0 
0 
-0.7799305380530865 
0.5712551306871944 
2.726907403743196 
0 
0 
0 
0.2209920131546998 
-1.886120619533626 
0.3201774345114911 
2.092509177792732 
-1.274996646312943 
-2.878126397272287 
1.807236527797371 
-0.9284694316457414 
-2.603165864168905 
1.095960238072393 
-0.8663796970794354 
0 
-0.2935400636077451 
0 
1.980005409246123 
2.033452090263789 
-0.4598638952760929 
0.09865149486299173 
1.058994931165515 
0 
0 
0 
0 
0 
0 
0 
0 
0 
0 
-1.027379626028313 
0.9094097972503654 
0.6720356037721456 
0 
-0.6578376051706928 
0 
0 
0 
0 
0 
0 
-1.284967693751043 
0 
0.7349384521387965 
0 
0.4660166973474232 
1.829171116731005 
0 
0 
0 
0 
0 
0 
0 
0 
0 
0.2738553284794378 
0 
0 
0 
0 
0 
0 
0 
-2.338676338374764 
0.2408144870075671 
0.1220488133856874 
0.5545401077128242 
-0.7447213751721325 
0 
0 
2.087766128389077 
1.686773819196462 
2.097732155089462 
0 
0 
0 
0 
0 
0 
0 
0 
0 
0 
0 
-0.2017242854821849 
-0.0808027967964956 
0 
0 
0 
0 
0 
0 
0 
0 
0 
0 
0 
0 
0.7509808242983721 
0 
0 
0 
0 
-0.2816935140707168 
0 
0 
-0.8717226589324448 
0 
0 
-2.804733840373093 
1.409576738500942 
0 
0 
0.7588377564197925 
0 
1.06371312168298 
0 
0 
0 
0 
0 
0 
0 
1.074929866773426 
0 
-0.5272562172694618 
0.4719854243051745 
0 
-0.2266006943340422 
0 
0 
1.498199385062718 
-0.1581022779849771 
0 
0 
0 
0 
-5.096576926292903 
0.9489679582751934 
0 
0 
0 
0 
0 
0 
0.3682433604565096 
0 
-0.4465170104884714 
0.04117305878740726 
-0.9348219016260995 
0 
0 
-0.4029242963408466 
0 
0 
0 
0 
0 
1.532138288554432 
0 
0 
0 
0 
0 
0 
0 
0 
0 
0 
0 
0 
0 
0.2062682978198549 
1.356741044624532 
0 
0 
1.23141582672878 
0 
1.770771581083178 
1.62386854693566 
-0.281787198948957 
0 
0 
-1.83569699683344 
-0.9048754981308553 
0 
0 
0 
0 
0 
0 
0 
0 
0 
0.9254677016828594 
0 
-0.8930340209769428 
0 
0 
0 
0 
-0.8146714740231766 
0 
0 
1.03230949074398 
0 
-0.6324844196884453 
0 
0 
0 
0 
0 
0 
0 
0 
0 
0 
0 
0 
0 
0 
0 
-0.2583398673612073 
-0.6936437813401558 
0 
0.3478852590441345 
0 
0 
0 
-0.05923075808261113 
0.6160414922363677 
0 
0 
0 
0 
1.524378967769455 
0 
-0.7090810663859034 
0 
0 
0 
0 
-1.823974027824032 
-0.9464619207969337 
0 
-0.5562834337621931 
-1.599890525572467 
0 
0 
0 
0.049927705568301 
-0.5885373791760076 
0 
0 
0 
0 
0 
0 
1.045564812575539 
0 
0.9358493039758283 
0 
0 
1.132539366195302 
0 
0 
0 
0 
-0.6321627391889901 
0 
0 
0 
1.751469552555333 
0 
0 
0 
-0.3681885795795478 
0 
0 
0 
0 
0.5349225222755997 
0.251617285969728 
-0.32192993207043 
0 
0 
-0.6333693471126771 
0 
1.766261563339346 
0 
0 
0 
0 
0 
0 
0 
0 
0 
-0.3535418495193615 
0 
0 
0 
0 
-0.5808249964924165 
0 
-2.457040990816853 
0.1526502184326174 
-0.77164812941592 
0 
0 
0 
0 
0 
0 
1.023392885877858 
0 
0 
0 
0 
0 
0 
0 
0 
-0.8598558685701851 
0.4785475596434839 
0.4501315952999308 
0 
0 
0 
0 
0.2805240607414589 
0.9210600805090937 
-2.067138359201352 
0 
0 
0 
0 
-0.01022300268749811 
0 
-1.494312954953849 
-0.8516914191490479 
0 
0 
0 
0 
-0.7786290215584608 
-3.869480822814205 
0 
2.282976303606798 
-2.608557316080526 
-1.958050028392269 
0 
0 
-0.05908294193834916 
0 
0 
1.649433246746036 
0 
0 
0 
0 
-0.514229842067909 
0.2606040885103255 
-0.5149125125440747 
0 
0 
0 
-1.768482429046542 
0.03779119148494084 
0 
0 
0 
0.6246379490194779 
0 
0 
-0.3674052426987162 
-1.755603240285103 
0 
-0.07335443196977684 
0 
-0.08505403526504626 
0 
0 
0 
0 
0 
0 
0 
0 
0 
0 
0 
0 
0 
0 
0 
-0.6109613001901765 
0 
0 
-2.83553145200682 
0.0591322518007622 
0 
0 
0 
0 
0 
0 
0 
0 
0.00552969897329542 
0.6445997181056633 
0 
1.697377497108343 
0 
0 
0 
0 
0.6634619607544622 
0 
0 
0.5016545111062121 
0 
0 
-0.398614133453247 
0 
0 
0 
0 
0.6934605040032791 
0 
0 
0 
0 
0 
0 
-1.965666361084888 
3.935571494959961 
0 
0 
0.4838147860672916 
0 
0 
0.5467212646696997 
0.2950250462766777 
0 
0 
0 
0 
0.7305133149563957 
0 
0 
0.009725557475589897 
0 
0 
0 
0 
0 
0 
0 
0 
0 
0 
0 
0 
0 
0 
1.284691212573114 
0 
0.8810448101481579 
0 
0 
-0.6780770474406737 
-2.713144034591946 
-0.6256891235866734 
0 
0 
0 
-0.2838934875376469 
-0.9445888833097924 
0 
0 
0 
0 
-0.2633804409578819 
0 
0.6874406925756286 
-0.6057833472689875 
0 
0 
0 
0 
0 
-1.011915966081057 
0 
0.2273570468928863 
0.2397610403312938 
0.8050766242602254 
0 
0 
0.08629743337080019 
0 
0 
0 
0 
-1.231441804346519 
0 
0 
0 
0.6352169892883773 
0 
0 
0.9134156561554966 
-0.6384783513966115 
0 
0 
-1.25528055384599 
0 
0 
1.131174449254407 
0 
0 
0 
0 
0 
0.1612242550910372 
0 
0 
0 
0 
0.8588624221918704 
-1.893367400479256 
0 
0 
0 
0 
0 
-1.078836193826303 
0.8788962415134196 
-0.1120507701711033 
0.8182824591458407 
0 
0 
0 
0 
0 
0 
0 
0 
0 
0 
0 
0 
0 
1.197388809545239 
0.02960276691346297 
-3.516465850747322 
0.06639506491603565 
0 
0 
0 
-0.9029238881377687 
0 
0 
0 
-1.095889381292839 
0.2844102245513352 
0 
0 
0 
0 
-0.5319802469743641 
0.7965217357140583 
0.2563860138968466 
0 
0.5851378151884682 
0 
0 
0 
0 
-0.4801144568436979 
-0.6828040848331799 
0 
0 
0 
-0.7059053567006698 
1.042892702871023 
0.09279394172767061 
0 
0 
0 
0 
0 
0 
0 
0 
0.145161381921028 
1.777312145521125 
0 
1.002914964834422 
0 
0.4183266473233102 
0 
0 
0 
0 
0.7630452745954857 
-1.157710604854295 
-0.4089714733234597 
0 
0 
0 
0.5237237101167025 
-0.9466902262517352 
0 
0 
0 
0 
0 
0 
1.959024005711373 
0 
0 
0 
0 
0 
0 
0.7743823867429682 
0 
0 
0 
0 
0 
0 
2.099172556240277 
0.007386927905845234 
0 
0 
0 
-0.5863640916765416 
0 
0 
-0.5122364137466168 
0 
0 
0 
0 
0 
-0.204729516061656 
0 
1.954510711896715 
0 
0 
1.134949750959523 
0 
-2.957253620208828 
0 
1.465580207225086 
0 
0 
0 
0 
-0.4162184398592013 
0 
0.7972458851823091 
-0.01511470097986713 
0 
0 
0 
0 
0 
1.027929874326794 
0 
0 
0 
0 
0 
0.2998675227636011 
-1.085713582043217 
-1.949241518068994 
0 
-1.395980499179805 
0 
0 
0 
0 
0 
0 
0.1351699281751456 
0 
0 
-0.84045026971223 
0 
0 
0.6009697912091801 
0 
0 
-0.2201243162026464 
0 
0.7425366870092006 
0 
0 
0 
0 
0 
0 
0 
-0.5785741606265383 
3.906673429577584 
0 
0.7718684342156468 
0 
-0.5095905667389637 
-0.1767000014664274 
-0.3382450750462713 
0.8405570759561884 
0 
0 
0.5986295989462882 
0.2525170650279231 
-0.8828098282892447 
0 
0.8511466639742113 
1.807005733830694 
1.437765132022626 
0 
0 
0 
1.329563408634322 
0 
2.222166480406459 
0 
0 
-0.3554871840002263 
0 
-0.1670404677691392 
0 
0 
0 
0 
0 
0 
0 
-0.07906241798583095 
0 
0 
0 
0 
0 
0 
0 
0 
0 
0.4634184399717783 
0.4145742284381123 
0 
0 
0.9224766227911936 
0 
0 
0.2567844569106696 
0 
0 
0 
0.9054447396459853 
0 
0 
0 
0 
-0.8078674167857756 
0 
0.1496473486771657 
0 
0 
0 
-0.7993867075195843 
0.5154706913122814 
0 
1.959340359346986 
-1.420461700002949 
0 
0 
0 
0 
0 
0 
0 
0 
0 
0 
0 
0 
0 
0 
0 
1.127050470083983 
0 
0.4874517150146485 
0 
-0.6533899029652578 
0 
0 
0 
0 
0 
-1.374487672620951 
-3.79538830362388 
-0.05986443132617093 
0 
0 
0 
1.73238664408364 
0 
1.230425101291898 
-0.9497384443639444 
0.2980322497613332 
0 
0.02534090657412943 
1.046268548613569 
0 
0 
-0.150609127845062 
0 
0 
0 
0 
-0.1419241517248931 
0.6195011340940207 
0.3476065019898025 
0 
1.11875994646609 
0 
0 
-1.538970815753463 
-1.66257456236118 
0 
0.4696372182339782 
-0.4441626141065473 
0.0252559984228073 
0 
0 
0 
0 
-0.244120263631675 
0 
0 
-0.4078878524163753 
0.5516045272240506 
0 
0 
0 
0 
0 
0 
1.175462589053012 
0 
0.4948092840576198 
0 
-0.4003879662510239 
-0.5351503626194278 
0 
0 
0 
-2.665316771704947 
-1.526644613358631 
-0.2502558408082646 
0 
0 
0 
0.5479801190361957 
-0.8355058061390848 
0 
0 
0 
0 
0 
0.6234955225797354 
0 
0 
0 
0 
-0.3547830568856228 
0 
0 
0 
0 
0 
0 
0.4559812700285042 
0.7703972766485715 
-0.6942568762153044 
-0.3811724225247544 
0 
0 
0 
0.3395419616546104 
-0.3502033368586664 
3.63121859228356 
0.8723198265825983 
0 
0 
0 
0 
0 
0 
0 
0 
-0.9088338806538331 
-1.660410152369296 
-1.079384493990774 
-0.3669063940820002 
0 
0 
0 
0 
0 
0 
-0.2830700326088975 
-0.4016303583406458 
0 
0 
0 
0 
-0.2514738440547291 
0 
0 
0.3248542351582085 
0 
0 
0 
0 
0 
0 
-0.5438841906525032 
0 
-1.192416393198905 
2.357678501580408 
0 
0 
0.8149878330303206 
0 
0 
1.369385064321817 
0 
0 
-0.3431593924865126 
0 
-0.538340297298441 
-1.139454479459683 
0 
0 
0.3852242085530751 
-1.112078724688871 
0 
0.8633535241786352 
0 
0 
-1.758791867347424 
0 
2.155990831819629 
0 
0 
0 
0 
0 
0 
0 
0 
0.6375309258810009 
0 
0 
1.174552260349998 
-1.535654215441527 
0 
0 
0 
0 
0 
-0.5542004766901447 
0 
1.051121550434544 
-0.7144123934015142 
0 
0 
-0.5685917392981004 
-0.5106368166790968 
0 
0 
0 
0 
0 
0 
0 
0 
-1.180382536172296 
0 
-3.654813506063927 
0.3662598614815963 
0.5874942017202736 
0 
0 
-0.6943083915480378 
-0.2030822495899315 
0 
1.000635936314709 
0 
0 
0 
0 
0 
0 
1.098171264170802 
0.7060471197943701 
0 
-0.6270597974326073 
-0.00778587824753236 
0 
0 
-0.622539022398422 
0 
0 
1.543664133321808 
0 
0 
-0.6279236204115681 
0 
0 
0 
0 
0 
0 
0.3194257462466301 
-1.571049399817386 
0 
0 
1.27048972888708 
0 
0 
0 
0.252461041919315 
-1.334640405311022 
0 
0 
0.245190171283912 
0 
-0.5947685310945465 
0 
0 
0 
0 
0.6622051826016183 
2.116573627882696 
-1.226077671174551 
-0.4901849520844087 
0 
0.04965033228178155 
0.2270269052704199 
0.3472834165313387 
0 
1.473834897856931 
0.5655270347487662 
0 
0 
0 
-0.8782282754715603 
2.709605715820047 
-1.91076097971916 
-0.3764483835356437 
0.4130602930730535 
-0.003828450449505442 
0 
0 
0.8486380879225575 
0 
-0.4016303583406458 
0 
0 
0 
0 
1.193828284145464 
0 
0 
1.852558623038797 
0 
0 
0 
0.737205833480679 
0 
0.8042334398324821 
1.636600687224534 
0 
0.5757749552337867 
-0.4929204031033182 
0 
0 
0 
-0.9972423619934419 
0 
0 
0 
0 
0 
0 
-2.325084438086864 
-0.2523680536148554 
-1.648376459766805 
0 
0 
0 
0 
-1.237444122251804 
0 
0 
0 
0 
0 
-0.1598018765629025 
3.383550804643642 
0.00977613668700503 
0 
0.7387043313359862 
0 
0 
1.034487644052083 
0 
0 
0 
-0.5110672505601416 
0 
-1.265943511220261 
-0.6358631739594862 
0 
0 
0 
0 
0 
0 
1.184646870876056 
-0.2107873319024493 
0 
0 
0 
0 
0 
0.6367714631753948 
0.5697668417040933 
0 
0 
0 
0 
0 
-0.8723263813076934 
0 
0 
0 
0.1686498991767908 
-0.8828132977656563 
-1.146018413122526 
0 
0 
0 
1.728577687340096 
0 
0 
0 
0 
0 
0 
-1.144282947272471 
1.487741495636377 
-0.8468742996428558 
-0.06518492633771773 
0 
0.4104751571353283 
0.4104751571353283 
0 
0 
0 
0.08852352077858794 
0 
0 
0.626833752820368 
0 
0 
0.07969055527882014 
0 
0 
0 
0 
0.670934115384311 
0 
0 
0 
0 
0 
0 
0 
0 
0 
0 
0.4990480185253895 
-0.3434241858416587 
0.3609493023408745 
0 
0.4916939018932968 
0 
-0.427400002944949 
0 
0 
0 
0 
0 
0 
0 
-0.7669830519107734 
0 
0 
0 
0 
0 
0.2759504204874114 
0 
0 
-2.143999097705031 
0 
-0.398205272285351 
0 
0 
-0.4931268763197652 
0 
0 
0 
0 
0 
0 
0.2861871800212428 
0 
-0.4000152869701883 
-1.055672234657636 
1.244314295626309 
0 
0 
0 
0 
0.03256617738339251 
0 
0 
0 
0.8158659618821529 
-0.3323818539682284 
0 
0.818275523611845 
-0.9573961058487067 
0 
0 
0 
-0.7572598450778478 
0 
0.3042556123883256 
0.4627795080920574 
0 
0 
0 
0 
-1.047920144593685 
0 
0 
0 
2.234362579286501 
0 
0.304728128861864 
1.312367796316997 
0 
0 
0 
0 
0 
0 
0 
0.5321942272956494 
-2.007069092538632 
-0.786595004561736 
0 
0 
0 
0.7674384084282074 
0 
0.3792392123504476 
0 
-1.368411130765216 
0 
0 
0 
0 
0 
0 
0 
0 
1.134949750959523 
0 
0 
0 
0 
0.903293329474989 
0 
0 
-2.553636826206603 
0 
0.1449182555633181 
0 
0 
-1.488857273131704 
0 
0 
0 
0 
0 
0 
0.8476384107823376 
0 
-0.02342177586713142 
0.6859789036956523 
-0.4874937471396626 
0 
0 
0 
0 
0 
2.720503815184566 
-0.3424240195571072 
0 
0 
0.7235548810334752 
-0.3075809823935263 
0 
0 
0 
0 
0 
0 
0 
0 
-0.7059126197803733 
1.325477417329106 
0.2293723320634724 
0 
0 
-0.295408643727094 
0 
0 
-0.5258405289423274 
2.366922823121363 
0 
0 
0 
0 
0 
0 
0 
-0.5144809563091214 
1.35626881502132 
-2.358823919375235 
0.6960066745420901 
0 
0 
1.065398405056695 
0 
0 
0 
0 
1.043556189553916 
-1.450607822209142 
0.881910568190341 
0 
-0.1252039841176002 
0 
0 
0 
0 
-3.445981016255729 
0 
-0.2862366130111707 
1.71872153224834 
0.5712551306871944 
0 
0 
2.217193132130519 
0 
0 
0 
0 
0 
0 
1.621105621135982 
0 
0 
0 
-0.2858649258309233 
0 
0 
-1.600842551841749 
0 
0 
0 
0 
0 
0 
0.2767115655471456 
0 
0 
-1.058555014240692 
0 
0 
1.282974685131625 
0 
0 
-3.345935147268246 
1.01840265298204 
2.48513744875387 
-0.6643601431463075 
0 
0 
0 
0 
0 
0 
0 
-0.6384783513966115 
0 
0 
-0.1581022779849771 
0.1062294571486228 
1.608536965879744 
0 
0 
0 
-0.7009557980323174 
0 
0 
0 
0 
0 
-1.269931963327759 
0 
-0.03014102438749697 
0 
0 
0 
-0.8828993139226612 
0 
0 
0 
-0.5322974966677818 
0 
0 
-0.3590904069331831 
0 
0 
0.5768336250027972 
-2.076926365759334 
0 
0 
-0.6896376001876701 
0 
-1.383252883726765 
0 
0 
1.5111635033594 
-1.252014706521794 
0 
1.064541293837643 
0 
-0.09261881337222487 
0 
-1.175444281421808 
0.8272011289515327 
0 
0 
0 
0.8391101711681828 
-1.457395028881955 
0 
1.598300555778719 
0 
0 
0 
0 
-0.03035733071890476 
0 
0 
0 
0 
0 
0 
0 
0 
0 
-0.3316836646796855 
-1.855394819026457 
-1.078836193826303 
-1.078836193826303 
-0.6394461843283373 
-0.6856743043610664 
-0.6856743043610664 
-0.6856743043610664 
-1.64682899608479 
-1.642130719152582 
-0.4332913439881258 
-0.4022123437701785 
-0.822038708042119 
-0.822038708042119 
-0.822038708042119 
-0.822038708042119 
-0.822038708042119 
-0.03093466614958394 
0.8341280356306338 
-0.2491794178061254 
-0.9352275128704023 
-1.2012010230827 
-2.006380576653659 
-0.5974898497623682 
0.3881284783652981 
-0.4033569990779303 
-0.4877700332777209 
-0.8514186651158714 
-2.713683855247096 
-4.900733485333839 
-0.9322693623101217 
0.4052158088229765 
0.06873303822626031 
-2.19729834644687 
-0.6897324980547219 
2.237019884289573 
-0.8921747864622874 
0.02886388855224251 
0.06933424592424889 
-2.743270274996524 
-0.3876543564155495 
-1.183605772142494 
-2.599728974292312 
-0.5650508693783655 
-0.1946918759901831 
0 
-3.256208554590385 
-0.2861618799052815 
0 
-3.984328487016415 
-0.3031071775361174 
-0.3031071775361174 
-1.06572950181274 
-0.3031071775361174 
-1.771792539946621 
-0.5525840292044923 
-0.5525840292044923 
-0.8258078975924668 
-0.1089720197487625 
-1.22321769939622 
0.1261579194178194 
-0.9393458201491744 
-0.8723431078344415 
-0.8889905419401188 
-0.4062331466473853 
-0.4062331466473853 
-0.4062331466473853 
-1.120645540048899 
-0.4062331466473853 
-1.335979077096957 
-2.465092422957242 
-0.1771540744827654 
-1.049480455790459 
-2.444526233539654 
-0.4619620508850465 
-1.384359420140774 
-0.4619620508850465 
-0.4619620508850465 
-0.4619620508850465 
-0.4619620508850465 
-0.4619620508850465 
-0.4619620508850465 
-0.4619620508850465 
-2.683988244415756 
-0.1847450295361893 
-1.072209221454908 
0.2374405650677291 
-0.9822231438333232 
-0.9822231438333232 
-0.3118735640336351 
-0.3118735640336351 
-0.3118735640336351 
-0.08146577154723936 
-0.7617740554232529 
0.3867021989439576 
-0.3242512014799768 
-1.457101235538143 
-1.7708281540431 
-1.077453647671905 
-1.077453647671905 
-1.674732675192152 
-2.109557051780159 
-1.877337820513467 
-0.7358616887911588 
-0.2034636979363661 
-0.8996719495010894 
-0.8996719495010894 
-0.8996719495010894 
-1.849850635448574 
-1.192435403690875 
0.4406476827484346 
-1.642452408821961 
-1.642452408821961 
-0.5942733244784371 
-1.059258499411451 
-0.5942733244784371 
-0.5942733244784371 
-0.622539022398422 
-0.622539022398422 
-0.6651323727401752 
-0.379878298889495 
-1.997464066546506 
0.4549397324824468 
-1.767563300718944 
-0.6450158418352432 
-0.3033418513318726 
0.4692652016150582 
-0.5241159775447594 
-1.377597612118753 
-0.6349417930009597 
-0.6349417930009597 
0 
0 
-0.1961117818506147 
-0.1961117818506147 
-0.1961117818506147 
-0.6314015881739661 
-0.4777609960417089 
-1.014461953861213 
-0.5233225140719397 
-0.5233225140719397 
-0.5233225140719397 
-0.6828813663206054 
0.960511578132947 
-0.6828813663206054 
-0.6828813663206054 
-1.159137847651815 
-0.3975286360488041 
-0.427400002944949 
-0.427400002944949 
-0.427400002944949 
-1.612548061836203 
-2.34496706233906 
-1.442985505699534 
-0.863360963006948 
-0.863360963006948 
-0.863360963006948 
-0.863360963006948 
-1.923771148373406 
-0.8762466048815509 
-0.8762466048815509 
-1.643229656792324 
-0.8762466048815509 
-0.8762466048815509 
-2.033368892624878 
-0.6058461628104749 
-0.3888860625713307 
-1.072400278249686 
-1.750719463857376 
-0.3888860625713307 
-0.7984337904626297 
-0.1459586961790328 
-0.3520076997003976 
-1.743775815355169 
0.9131806363922761 
-2.298265990674563 
-2.298265990674563 
0.3068415536133938 
-0.3139199708615603 
-0.3139199708615603 
-0.3612285332252037 
-0.3612285332252037 
-0.01501671465623792 
-0.7171959908569593 
-0.7171959908569593 
2.090464785409765 
-0.8659047276673412 
-2.614633617222522 
-2.801129836089984 
-0.5755637812305959 
-1.054015663992133 
-1.131178027393547 
-1.131178027393547 
-1.131178027393547 
-1.656363403544655 
-0.6299138117099489 
0.09049239992562909 
-0.3919003912542927 
-1.824226368437086 
-4.272239706613941 
-0.5149125125440747 
-0.5149125125440747 
-0.0656173477899165 
-2.122267339868525 
-0.9733539015123712 
-0.629757944019057 
-0.260257013217902 
-0.548681787071347 
-2.167760321170395 
-0.4802603814495557 
-0.6088545673538754 
-0.6088545673538754 
-0.7933724884382206 
0.2187063292404303 
-0.1040588380297086 
-1.467804737423878 
-1.706819316443468 
3.584273804785105 
-0.9644857804935276 
-0.6115769248090396 
-2.078086019791209 
0.1096124934348937 
-0.5363090751201027 
-1.93404092110372 
-0.6304559686600062 
-0.3282011420632069 
-0.3282011420632069 
-1.091682517062039 
1.080226251304728 
-4.834469408063446 
-0.9653909289013477 
-0.5620049228517319 
1.012166455071238 
-0.1629245770103583 
0.1443337420041919 
-0.7743298853460856 
0.5613788203436432 
-1.349062882979517 
-0.8722498264607877 
-0.1714515096557805 
-0.8722498264607877 
-0.7065066876299808 
-0.7065066876299808 
-0.5836332881420735 
0.6393379048415748 
-0.5836332881420735 
-0.4954011440106921 
-0.4954011440106921 
-0.4954011440106921 
-2.043646160162548 
-2.847060282991629 
-1.623179383895782 
-1.623179383895782 
-1.286380147380164 
-4.058292075309613 
-0.7028233916604777 
-0.7028233916604777 
-0.7028233916604777 
-0.7028233916604777 
-1.193568667806095 
-0.7028233916604777 
-1.905667122652055 
-0.7780013814641584 
-0.2820899491756438 
-0.2820899491756438 
-0.2820899491756438 
0.2031264643582911 
-0.343516465688825 
-0.343516465688825 
-0.04407078600238398 
1.468256277768001 
-1.705356431745761 
-1.493103781322787 
-1.946514760399133 
-1.214013547207073 
-1.946514760399133 
-1.946514760399133 
-1.946514760399133 
-1.371054979773212 
-0.07924083072789051 
-0.6951961244973753 
-0.6951961244973753 
-1.370933459611462 
-1.249452341775431 
-0.335542154057797 
-1.370933459611462 
-0.3134669120120933 
-0.6269338240241854 
-1.678015016265617 
-0.3134669120120933 
-0.2450711579952179 
-0.2450711579952179 
-0.2450711579952179 
-0.5463560718621928 
-0.5463560718621928 
-0.5463560718621928 
-0.9363723167374353 
0.5363018657669471 
-0.1986103681832412 
-0.6787728626086997 
-1.255407706158352 
-0.5538183892633781 
-0.5538183892633781 
-0.9413950047297229 
-3.85037634863607 
-1.307148828184083 
-2.257327514131567 
-0.9445888833097924 
-0.5178624352557808 
-1.383108958489839 
0.2808299591414898 
-0.5178624352557808 
-0.5178624352557808 
-0.5178624352557808 
-0.5178624352557808 
-1.402240959413174 
-1.080557299581202 
-1.756427941941847 
-1.080557299581202 
-0.4945954883340775 
-0.6712501435990333 
-1.007102088485049 
-1.007102088485049 
0.8855373924585555 
-1.213883357025815 
-1.007102088485049 
-1.515465348705586 
-1.475094016934933 
-1.869388684573917 
-1.305152779587111 
-0.7637169500134157 
-1.630338919393101 
2.24269486516833 
-0.398205272285351 
-0.398205272285351 
-0.398205272285351 
-0.398205272285351 
-0.398205272285351 
-0.9457857480226579 
-0.9457857480226579 
-1.504797328523843 
-1.38157124650104 
-0.067472976867902 
-2.207021793175677 
-0.4093591418405432 
-0.2393039419457423 
-0.2393039419457423 
-0.2393039419457423 
-0.9370743916224322 
-1.917488644012765 
-1.520536245128543 
-0.6536849398442424 
-0.06157302611098189 
-0.9055677746668712 
-0.2316797891497015 
-0.7609707806157879 
-0.4784518827615367 
2.008748554865388 
-0.01629324910176906 
-0.7557007200708798 
-1.112944207713417 
-1.445843037290343 
-0.4769398489724477 
-0.910158160503041 
-0.910158160503041 
-0.910158160503041 
-0.910158160503041 
-0.910158160503041 
-0.6838031470866597 
-0.6838031470866597 
-0.08944339706405235 
-0.6838031470866597 
-0.08556418732462585 
-2.041999125336902 
-1.183781735480917 
0.8893139574654895 
-2.965267244524554 
1.573228301887446 
-0.5281390575948306 
-0.5281390575948306 
-1.980521374779457 
-0.9223973692557283 
-0.3008130783437718 
0.1892093912595184 
-0.9476921772261454 
-0.9732713466955848 
-0.5530721135489086 
-0.5530721135489086 
-0.4285187257083853 
-0.9088338806538331 
-0.26390151690263 
-0.9088338806538331 
-0.9088338806538331 
-0.4873308057347398 
-0.4873308057347398 
-0.4873308057347398 
-0.5886659246663707 
-2.074986064135818 
-1.803457960326617 
-0.3688567339341581 
-0.3688567339341581 
-0.3688567339341581 
-0.3688567339341581 
-1.274653119538868 
0.5962363762272261 
-0.6058629641963604 
-0.6058629641963604 
-0.6058629641963604 
-0.6058629641963604 
-0.6058629641963604 
-0.08581354887881364 
0.294718264980597 
-0.3944568733551788 
-0.25262982896168 
-0.7659871765796429 
-1.065565728165683 
-1.022472105269826 
-1.042315768267474 
0.257473145929126 
-0.878679067681824 
-0.878679067681824 
-1.496099004662647 
-0.8497355958480637 
-1.104357239245073 
-0.6004417984833834 
-0.6004417984833834 
-0.9384623994078413 
-0.4692311997039201 
3.042686693660845 
-2.382603649547169 
-1.541444183277786 
1.081203070487489 
-0.3770292559035607 
-0.3770292559035607 
-0.3770292559035607 
-0.3770292559035607 
-0.8154325727613517 
-0.8154325727613517 
-1.327207941851044 
-1.144012307814333 
-0.521877149190824 
-0.8510527009765715 
0.4671408613232076 
-2.062049365985676 
-0.5106368166790968 
0.9960385650802793 
-0.5106368166790968 
-0.1243377139839738 
-0.4953572026166847 
-0.4953572026166847 
-0.340755044877102 
-0.340755044877102 
-0.5335475195643317 
-2.082545920125309 
-0.5335475195643317 
-0.5335475195643317 
-0.5335475195643317 
-0.5335475195643317 
-0.5335475195643317 
-0.5335475195643317 
-0.5335475195643317 
-0.5335475195643317 
-0.5335475195643317 
-0.5335475195643317 
-0.7941078600701695 
-0.7941078600701695 
-0.3646988748908108 
-0.7941078600701695 
-0.7941078600701695 
-0.7669830519107734 
-0.7669830519107734 
-0.7669830519107734 
0.3015240158392503 
-0.7669830519107734 
-0.3335568643889775 
-0.6386284607829112 
-0.6386284607829112 
-0.9586302593978033 
-0.6386284607829112 
0.04458797226897847 
-0.76520265528958 
-0.76520265528958 
-0.76520265528958 
-1.48925025823976 
0.001214222899390062 
-2.1314108354858 
-1.48925025823976 
-0.7102818644118888 
-0.7102818644118888 
0.1174306265108217 
-0.8113617788950295 
-0.4638013193146931 
-0.7102818644118888 
-0.7102818644118888 
-0.8711650008616032 
-0.9142496912904379 
-0.4767341667928008 
-1.042187029781908 
-0.4767341667928008 
-0.02862647455877807 
-1.032812795850172 
-0.9842822957882345 
-0.01075993332920099 
0.4559230697417275 
-1.76984656659878 
-0.8091069780017587 
-0.7473098674321814 
-0.6486066113284926 
-0.5516154152101421 
-0.9745537638591023 
-0.5516154152101421 
-0.6184069522215693 
-0.6184069522215693 
-1.219982406985402 
-1.219982406985402 
-0.4273494567220121 
-0.7465487964882651 
-0.7465487964882651 
-0.7465487964882651 
-0.7465487964882651 
-0.4201073661536134 
-1.155494081940908 
-1.021669773890655 
-1.021669773890655 
-0.482921121969047 
-0.7360190518792065 
-0.6037302212110093 
0.2587528235226281 
-0.3417261210706767 
-0.5437952270739498 
-1.104388482732468 
-0.5905017041381999 
-0.5905017041381999 
-0.5905017041381999 
-0.5905017041381999 
-0.2488040380022523 
-0.2488040380022523 
0.06793446832665179 
-0.3950859510320863 
-1.629342948046355 
-0.8146714740231766 
-0.4286702631442509 
-1.161557270010696 
-1.011863995307696 
-1.011863995307696 
-1.121464591127396 
-1.615245064380732 
-0.4627467700777829 
-0.4627467700777829 
1.703201931760465 
-0.4627467700777829 
0.4692043551327756 
-0.06801043965564955 
2.121546565151963 
-0.5365993914021113 
-0.5365993914021113 
-0.5365993914021113 
-0.5365993914021113 
-0.5365993914021113 
-0.5365993914021113 
-1.500710310532295 
0.2621037806601937 
-1.326263848740041 
0.3159570841023702 
-0.5696635270843607 
-1.290394742801312 
-1.146080633153303 
-0.1368680623892743 
-1.029803483382544 
0.6486503176659827 
-0.517666816417482 
-0.517666816417482 
-0.517666816417482 
-1.551124246000774 
-1.551124246000774 
-0.2351275790501823 
-1.047855029441298 
-0.2933565008471983 
-2.274450007673238 
1.021399640924746 
-0.2933565008471983 
-1.224961193865299 
-0.2933565008471983 
-0.7683583527646632 
0.2289656364688637 
-0.2678486889426801 
-2.50158297201866 
-0.8410708492239494 
-0.5999756222856749 
-0.2248662865829295 
-1.668656130845882 
-0.9316046930181008 
-0.3756581050084305 
0.4511776085629969 
0.9354553487703406 
-0.4353570641709626 
0.4081340271256523 
-0.9472979221669989 
-0.4679179210144707 
-0.4679179210144707 
-0.5821341978853438 
-1.146117073820775 
-1.511330139224388 
-1.186014191629686 
-1.186014191629686 
-0.593007095814844 
-3.111397833172653 
-0.6228585258873991 
-0.6228585258873991 
-0.9106610318581051 
-0.7340007626770718 
-2.91408820207166 
1.922627727923541 
-0.3300023792820148 
0.2144329938179507 
-0.5949578162486423 
-0.5049509976642678 
-0.8066759755222784 
-0.2524754988321341 
-0.2524754988321341 
-0.2524754988321341 
-0.9956108559045211 
-0.7664982565154311 
-3.414380451045316 
-1.096919646510907 
-1.096919646510907 
-1.096919646510907 
0.2319758203102419 
-0.690748390304873 
0.08574998064243516 
0.08574998064243516 
-0.1590200540435915 
-0.690748390304873 
-2.103180586330956 
-2.103180586330956 
1.706596833113644 
-1.339503949927493 
-0.6754719446625781 
-0.6754719446625781 
0.3063221966765229 
-0.6513885238747308 
-0.1134726581793568 
-0.1134726581793568 
-0.9551106884053352 
-3.644341367249031 
-0.5063326969157564 
-0.4567631668058932 
-1.025783803951495 
-0.54912603826113 
-0.54912603826113 
-0.54912603826113 
-0.1006675282552973 
-2.486614211526012 
-0.6580756211944692 
-2.624608834544797 
-2.103493006636077 
1.348057716478912 
0.5583245630436922 
-1.659141195582054 
-0.8828993139226612 
-0.6018438894904667 
-0.6018438894904667 
-0.6847315299211688 
-0.6847315299211688 
-0.6847315299211688 
-0.6847315299211688 
-0.6847315299211688 
-0.4923922169617691 
-0.4923922169617691 
-0.4923922169617691 
-1.274313680290501 
-1.274313680290501 
-1.274313680290501 
-1.274313680290501 
-0.4974443559467615 
-0.4974443559467615 
-1.44944432556188 
1.13005986049119 
-0.3875044277830247 
-0.766294291619304 
-0.4610912211954288 
-1.046869086072567 
-0.7602755618297402 
-1.126243781773151 
-1.126243781773151 
-1.126243781773151 
-1.126243781773151 
-1.126243781773151 
-1.126243781773151 
-0.9302715176396239 
-0.9302715176396239 
-1.741930441744046 
-0.7915693308532185 
-0.7915693308532185 
-0.7975085332922256 
-0.7975085332922256 
-0.7975085332922256 
-0.7975085332922256 
-0.2347372912496229 
-0.2347372912496229 
-0.806599265770672 
-1.407576742609628 
-1.585951555950168 
-1.029118117901408 
-0.474103336890022 
-0.474103336890022 
-0.8011221963903783 
-0.474103336890022 
-0.397262138286709 
0.2545884799613325 
-0.397262138286709 
-0.7468329443232367 
-2.103383515127654 
-2.138451751608234 
-1.537233529668322 
-0.987406499786016 
-0.4578440059041746 
-0.4578440059041746 
-0.4578440059041746 
-0.4258566326417465 
-1.017526883323917 
-0.6043701088997973 
0.7556833461616999 
-0.7993171999020131 
-0.968018753418135 
-0.8765378349757947 
-0.8304219042698566 
-0.8765378349757947 
-0.4256645469164187 
-0.8108525821523006 
-0.8108525821523006 
-0.380649377675372 
-0.380649377675372 
-0.8518284435456638 
-1.584377478588572 
-0.7987708427852485 
-0.8507859162346506 
-1.047559418756026 
-0.8507859162346506 
-2.34486293195397 
-1.304030797446795 
-0.4460393783674664 
0.07775679616454731 
-0.4460393783674664 
-0.5166359244381392 
-0.5166359244381392 
-0.5166359244381392 
-1.314236540616063 
-1.314236540616063 
-0.8794556009997727 
-0.4253453237224319 
-0.5360314151581139 
-0.281330272795109 
-0.5360314151581139 
-0.5360314151581139 
-0.4951609417028084 
-0.8327637329542718 
-0.8327637329542718 
-0.6145622730542135 
-0.5230159435719441 
-0.5230159435719441 
-0.5230159435719441 
-0.8555546315670793 
-0.8555546315670793 
-0.8555546315670793 
-0.8555546315670793 
-0.8555546315670793 
-0.8555546315670793 
-0.8555546315670793 
-0.5168215051451523 
-0.5168215051451523 
-0.5168215051451523 
-0.7312006615873188 
-0.4893872533077427 
-0.3754631834846975 
-0.7813237745730777 
-0.6993544474236055 
-0.4100254916688693 
2.043903992402833 
-0.8838195879546235 
-1.00056042665851 
-1.905139918957299 
-3.546995110944042 
-1.595689933664817 
-0.7978449668324086 
-0.7978449668324086 
-0.7978449668324086 
-0.171868508869612 
-0.4724776846944021 
-0.9608729839647953 
0.6935744839915845 
-0.6424037798786514 
-1.28142762982345 
-0.6424037798786514 
-1.302662805205748 
-0.6424037798786514 
-0.6424037798786514 
-0.6424037798786514 
-1.979556602445015 
-0.2491772832902456 
-0.2491772832902456 
-0.4450621770807756 
-0.6272343371919449 
-2.211573894988865 
-0.6272343371919449 
-0.5190126833716855 
-0.5190126833716855 
-0.2665587478479019 
-0.4851141344778363 
0.4989099924413402 
-1.417548412948134 
-1.417548412948134 
-1.417548412948134 
-2.014772490832536 
-0.5512400183110642 
-0.5512400183110642 
-0.6921531744994734 
-0.5512400183110642 
-0.5512400183110642 
-0.5512400183110642 
-0.7096346400501545 
-0.7096346400501545 
-0.6435286210787905 
-0.3473382341384668 
-0.5122364137466168 
-0.5122364137466168 
-0.6683318655755413 
-0.6683318655755413 
-0.6683318655755413 
-0.6683318655755413 
-2.507348140502493 
-0.6683318655755413 
-0.6683318655755413 
-0.5542004766901447 
-0.5542004766901447 
-0.5542004766901447 
-1.362074274381719 
-0.5542004766901447 
-0.5542004766901447 
0.1619260673737429 
0.8657388379677124 
-0.5542004766901447 
-0.5542004766901447 
-2.668146475019998 
-0.7313861263871064 
-0.7313861263871064 
-0.7313861263871064 
-0.7313861263871064 
-0.7313861263871064 
-0.7313861263871064 
-0.7313861263871064 
-0.7313861263871064 
-0.4665027226253343 
-2.392929214122449 
-0.4821442153338664 
-0.4821442153338664 
0.2268597077452618 
-0.4821442153338664 
-0.4821442153338664 
-0.1361323767046125 
-0.4585849972418777 
-0.4585849972418777 
-0.0152123486749134 
-0.5463132312630498 
-1.444019529562148 
-1.22250361938774 
-1.578856894996359 
-0.5706206230898929 
0.4933148265288891 
-0.5250026522993005 
-0.5250026522993005 
-0.5250026522993005 
-0.8897458458426508 
-0.8897458458426508 
0.3825099662242614 
-0.6183432331300117 
1.011135090253041 
-0.1844022111913394 
-0.483678607165504 
-0.483678607165504 
-0.009831973782276151 
-0.6101610568769705 
-0.6101610568769705 
-0.6101610568769705 
-0.6101610568769705 
-0.6101610568769705 
-1.198771663565284 
-0.5701903447892603 
-0.5635599559464916 
-0.19517348503723 
-0.4773427310182241 
-0.4773427310182241 
-0.6897324980547219 
-0.5766348435496524 
0.2159334631242142 
0.1128113859756163 
-0.9135584195430945 
-0.9135584195430945 
-0.9135584195430945 
-0.6038867523415864 
0.3031800264931214 
-2.369640519206044 
-0.3019433761707928 
-0.3019433761707928 
-0.3019433761707928 
-1.254199187729996 
-0.02272268697755543 
1.056976446263842 
-0.6983530245576203 
-0.6983530245576203 
-0.6983530245576203 
-0.6983530245576203 
-0.5735969860993912 
-0.5735969860993912 
-0.5735969860993912 
-0.5735969860993912 
-0.5735969860993912 
0.04206083083395896 
-0.5917489280076405 
-1.004644233336361 
-1.004644233336361 
-1.194464206085671 
0.3822749058552535 
-0.794414265146325 
-2.841199754195024 
-1.020443236428617 
-0.5343867928103009 
-0.5343867928103009 
-0.5343867928103009 
-1.372450298221767 
0.4392813923937366 
-0.6499573051861708 
-0.7214255401839839 
-0.9018081791294197 
-0.9018081791294197 
-0.9018081791294197 
-1.283159043663647 
-0.4940668081225716 
-0.9464179120786066 
-0.9464179120786066 
-0.9464179120786066 
-1.812301802854437 
-0.3828106238428595 
-1.042089455678465 
-0.3828106238428595 
-0.3801674888625742 
-0.7484748985072132 
-1.895559098581733 
-0.6981396751476773 
-0.6981396751476773 
-0.6981396751476773 
-0.6981396751476773 
-0.6981396751476773 
-0.6981396751476773 
-0.385373130635491 
-0.6981396751476773 
0.1545134891997349 
0.05198429794140116 
0.05198429794140116 
-1.221185219011875 
-1.221185219011875 
-1.221185219011875 
2.225114416787988 
-0.5693578051029713 
-0.4867508278487583 
-0.4867508278487583 
0.1696167385850751 
0.9092479381577043 
-0.112181714221113 
-1.742449770426872 
-0.07187012516970176 
-0.4630125274982378 
-0.5747675604849827 
-0.9703605740668269 
-1.459061898226027 
-1.752802444299112 
-0.2311345427490735 
-0.6832339013404471 
-2.685036102504409 
-1.373689341649811 
-2.402430228279503 
-2.469406122015223 
-0.4346067113231373 
-2.010570445793951 
-0.6701901485979843 
-0.6701901485979843 
0.4334834884853599 
-0.6701901485979843 
-0.2338789622495723 
0.04268828513139353 
0.6711555847293197 
-0.9792270109988584 
-0.7471395283881976 
-0.7471395283881976 
-0.7471395283881976 
-1.236959930426292 
-0.4561481079358414 
-0.4561481079358414 
-0.4561481079358414 
-0.695718811057553 
-0.8847308642603168 
-1.506409784726628 
-1.506409784726628 
-0.5265576643994037 
-0.09924860194403054 
-0.4654459304830567 
-0.4654459304830567 
-0.5095147633933731 
-0.5095147633933731 
-0.6507523184373533 
-0.5095147633933731 
-0.5488562674861367 
-0.4868402158389097 
-0.4868402158389097 
0.06197745811949254 
-0.5711110481033144 
-0.5711110481033144 
-0.5711110481033144 
-0.5711110481033144 
-0.5711110481033144 
-0.5711110481033144 
-0.08756769843859863 
-1.108116160670235 
-1.108116160670235 
-1.108116160670235 
-1.151457776069787 
-1.108116160670235 
-1.108116160670235 
-1.387778780781446e-17 
-0.4488948262749611 
-0.3831429518024925 
0.5829195799616194 
0.5327779751087937 
-1.183983369267491 
-0.5919916846337475 
-0.5919916846337475 
-0.5919916846337475 
-0.5919916846337475 
-0.5919916846337475 
-0.5919916846337475 
-0.5919916846337475 
-0.5727205402136961 
-1.534100575990933 
-2.501054942143873 
-0.4696139924189512 
-0.4696139924189512 
-0.4696139924189512 
-0.4696139924189512 
0.2089978334327419 
-0.2796159529848589 
-0.8883748319321598 
0.6465923548227518 
-0.3486894487332288 
-0.3486894487332288 
-0.3486894487332288 
-0.8016935290315982 
-0.8016935290315982 
-0.5345682758824658 
-0.5345682758824658 
0.2459765296494229 
-0.8187253697075229 
-1.150447432882504 
-1.027517236121281 
-0.3335672140003926 
-0.3335672140003926 
0 
1.298847163126665 
-0.6407429075520311 
0.5851378151884682 
0.02072988482801767 
-0.8288405117517283 
-0.8288405117517283 
-0.1474579516473323 
-1.41747439236271 
-0.244120263631675 
-0.6958905263746182 
-0.244120263631675 
-0.244120263631675 
-0.8952239666239445 
-0.6715235862332918 
-0.3116885812956683 
-0.3116885812956683 
-0.3116885812956683 
-0.6787455279434982 
-1.224760883508196 
-0.5668980566750406 
-0.283411905121725 
-0.283411905121725 
-0.283411905121725 
-0.283411905121725 
-0.283411905121725 
-0.774499200280489 
-0.7310361806297629 
-0.7310361806297629 
-0.7310361806297629 
-0.7310361806297629 
-0.4053972183511374 
-0.9243219234420899 
-0.4053972183511374 
-0.4790848600096991 
0.5658333207734552 
-0.2893836156587891 
-1.499075875220839 
-0.2168455185985259 
-0.2168455185985259 
-0.2168455185985259 
-0.2168455185985259 
-0.9318849245117039 
-0.5363578108078204 
-1.885000357503755 
-0.9629907322972803 
-0.6148442818596007 
0.1077228512760646 
-0.5614350546234598 
-0.5614350546234598 
-0.6937765477207611 
-0.6937765477207611 
-1.833048114496948 
-0.07336899873113992 
-2.633859556761465 
-0.2587790853494118 
-0.8326551715451033 
-1.519813623029427 
-0.3872422056993879 
-0.9510594337452416 
0.2040654470935555 
-0.4929204031033182 
-0.9564564147915159 
-0.07330961714168591 
-0.7696795172749543 
-0.318082835397603 
-0.318082835397603 
-0.318082835397603 
-0.5229318139195211 
-0.5229318139195211 
0 
-1.581466416286071 
-1.581466416286071 
-0.8319277503034139 
-0.8319277503034139 
0.3201251313344467 
-1.03424776449739 
-1.625917096985405 
-1.03424776449739 
-1.03424776449739 
-1.03424776449739 
-1.284607529503612 
-0.4698105457064632 
-0.8230078059489018 
-0.8230078059489018 
-0.8230078059489018 
-0.8230078059489018 
-0.8230078059489018 
-0.545101538434537 
-0.777358839845538 
-0.9266953864325779 
-0.8712453462015385 
-0.9497384443639444 
-0.9497384443639444 
-1.67884497714332 
-0.9497384443639444 
-0.9497384443639444 
-0.776885688740102 
-0.8323482294191268 
-0.5174356388023282 
-0.5310528463974606 
-0.2930425468124686 
-0.2930425468124686 
-0.2930425468124686 
-0.2930425468124686 
-0.7134551745093618 
-0.7134551745093618 
-1.04162849915998 
0.2432661594850504 
-0.6358631739594862 
-0.6358631739594862 
-1.092253678857407 
-0.6358631739594862 
0.130912490995772 
-0.5864560666618243 
-0.5864560666618243 
-0.5864560666618243 
-2.422473976410483 
-0.8412596997043663 
-0.8412596997043663 
-0.8412596997043663 
-0.8412596997043663 
-0.8412596997043663 
-0.5425216585776481 
-0.5425216585776481 
-1.611260672986612 
-0.7489051140799228 
-0.7489051140799228 
-1.123310242770762 
-0.01950744916233398 
-1.123310242770762 
-0.9433089186826629 
-0.02284754526460574 
-0.5522169012922088 
-0.9290788614517228 
-0.9872268262780068 
-0.18206267786779 
-0.2960049886082982 
-0.04052625250123228 
-0.7822802945819128 
-1.421460873874988 
-1.11545090858603 
-0.4781932370231869 
-0.2652490101993225 
-0.2652490101993225 
-0.2652490101993225 
-0.4690143412535498 
-0.9578927002335769 
-0.9578927002335769 
-0.9578927002335769 
-0.6283928743931066 
-0.6283928743931066 
-0.6283928743931066 
-0.0994348025190324 
-0.4124798733576868 
-0.8370825102276229 
3.83271873530488 
-0.3100287257001191 
-0.3100287257001191 
-0.3100287257001191 
-0.3100287257001191 
-0.3100287257001191 
-0.4691499942512896 
-0.3100287257001191 
0.3535159568391197 
1.08737903998405 
-0.6749957103177455 
-0.1625785214740851 
-1.476757161835281 
-0.4776580387979062 
-0.4776580387979062 
-0.4776580387979062 
-0.4776580387979062 
-0.4776580387979062 
-0.05421264113651513 
-2.468863900890707 
-0.3692555171849709 
-0.3692555171849709 
-3.413081044734835 
-1.101002203463468 
-0.5505011017317344 
0.398169573007897 
-0.4440156306741628 
-0.4440156306741628 
-0.7291534278439415 
-0.7291534278439415 
-0.2946286133023013 
-0.945443867600368 
-1.240459718647851 
-0.945443867600368 
-0.1674008810496291 
-0.7572598450778478 
-1.440635715131945 
-0.1257107103078327 
-1.204808777314613 
-0.5402825315381429 
-0.3164148163285314 
-0.5402825315381429 
-0.5402825315381429 
-0.5402825315381429 
-0.5402825315381429 
-0.5402825315381429 
-0.2714645899489253 
-0.2714645899489253 
-0.9830787939405252 
-0.9830787939405252 
-0.9830787939405252 
-0.9830787939405252 
-0.9830787939405252 
-0.9830787939405252 
-0.9830787939405252 
-0.657298761399818 
-0.657298761399818 
-0.5517328840148804 
-0.4711484160218092 
-0.4711484160218092 
0.2915922980608152 
-0.5939473335460366 
-0.5939473335460366 
-0.5939473335460366 
-0.5939473335460366 
-0.5939473335460366 
-0.5939473335460366 
-0.5939473335460366 
-0.5939473335460366 
-0.4508732880593759 
-0.3766630314951711 
-0.3766630314951711 
-0.3766630314951711 
0.2108311702251025 
-0.3766630314951711 
-1.004489700670313 
-1.317023048519965 
0.2071516724945489 
1.118546853168255 
-0.6124718579876176 
-1.247479422929383 
-1.458240914355221 
-0.9041205784262309 
-0.03104490761587034 
-1.01600846897805 
0.2698645783461452 
-0.8188584380191869 
-0.8188584380191869 
0.4379049237976476 
-3.098049891639781 
-0.5338956002155216 
-0.5338956002155216 
-0.9840776866346186 
-0.4699894815234731 
-0.4699894815234731 
-0.5901217438141405 
-0.8946977373326881 
-0.5147474274644767 
-0.8946977373326881 
1.352510889326036 
-0.9055541663219405 
-0.8302050761846481 
-0.8302050761846481 
-0.3360799030229575 
-0.3360799030229575 
-0.4114854825951989 
-1.184126574723695 
0.2333311182551446 
-0.5857778648771377 
-0.5857778648771377 
-0.4438206811881227 
-0.7626223242766231 
-0.7626223242766231 
-0.7626223242766231 
-0.4078878524163753 
-0.4078878524163753 
-1.094614073716146 
-0.05322808223572845 
-1.094614073716146 
-0.5541326220226485 
0.4079788220193276 
-0.5541326220226485 
-0.5541326220226485 
-0.5541326220226485 
-0.2234758940353927 
-0.4084739635230831 
-2.263875289850147 
-1.26159628610392 
-1.877998390237776 
-0.4229383486489602 
-0.4229383486489602 
-0.4229383486489602 
-0.5962918884183486 
-0.5962918884183486 
0.2339829051066439 
-0.4215573776990897 
-0.6390238499447976 
-0.6390238499447976 
-0.6390238499447976 
0.07304761031112855 
-0.7815472509431144 
-0.7815472509431144 
-0.7815472509431144 
0.508474040747018 
-0.8003588516928116 
-0.8003588516928116 
1.14458725881965 
0.175540421027922 
-0.5584565831171422 
-0.5584565831171422 
-0.5584565831171422 
-0.5584565831171422 
-0.9386526348558329 
-1.598493003901662 
0.2469880166750178 
-0.4503501861779681 
-2.168407045683115 
-2.237705399925998 
-0.3989481211518649 
-0.3942946676389835 
-0.6013623613034501 
-1.502960834546478 
0.5184704790815851 
-0.3734648729395055 
-0.3734648729395055 
-0.3734648729395055 
-1.063964435332052 
-0.3734648729395055 
-2.103146055169938 
-0.416651944534208 
-0.7328834383128288 
-1.026610589441237 
-0.1361776417756879 
-1.716672948082636 
-0.4530549667153643 
-0.5622977808885308 
-2.073725304652557 
-2.418304238163146 
-0.5384905773967333 
-0.5563181708806847 
-1.363154127209897 
-0.405776063486357 
-0.405776063486357 
-0.7468628829912463 
-0.7468628829912463 
-0.7468628829912463 
-0.7468628829912463 
-0.7468628829912463 
-0.7468628829912463 
-0.7468628829912463 
-1.348945768134757 
-0.4836264058336647 
-0.4836264058336647 
-0.4498304798889776 
-0.4498304798889776 
-0.4498304798889776 
-0.4498304798889776 
-0.7400836888094651 
-0.5027377656478489 
-0.5027377656478489 
-1.053469250122673 
-0.3387706082938519 
-0.1396062485927984 
-0.8399111447684933 
-0.3725856216026949 
0.227216999484218 
-0.05752321726113094 
-0.4604007422757924 
-1.174881119008223 
-1.174881119008223 
-0.1513734363016732 
-0.8809170333370185 
-0.952993502288115 
-0.8154559727723376 
-0.8154559727723376 
-0.8154559727723376 
-0.7641177542360946 
-0.9312092464472479 
-0.9312092464472479 
-0.6478329356718859 
-0.6478329356718859 
-0.6248524393971316 
-0.6248524393971316 
-0.6248524393971316 
-0.168089937998485 
-0.5598409879807282 
-0.5598409879807282 
-0.5598409879807282 
-1.044649135415273 
-1.507269314758649 
-0.4142829613756008 
-0.4142829613756008 
-0.6066845077540087 
-0.4169486765358297 
-0.4169486765358297 
-2.05202636147136 
0 
1.452678049103646 
-0.202519006637544 
-0.202243317735748 
-1.913653769802844 
-0.3504009269629493 
0.3487498612346879 
-0.3533882751778356 
0.274465402698436 
-0.5072995725822592 
-0.2147401063430296 
1.745628466621118 
-2.504871327893179 
-0.9083511633784171 
-1.063429563021512 
-1.063429563021512 
-0.5535369076258158 
-0.5535369076258158 
-0.6628328997799643 
-0.6628328997799643 
1.694505783160118 
-0.6143923609216817 
-0.2699761468340316 
-0.5319802469743641 
-0.7002364398905747 
-0.33029615184847 
-0.5110672505601416 
1.295910988126888 
-0.5732942993780556 
-0.5732942993780556 
-0.5278094074215818 
0.5545759566345771 
-0.5278094074215818 
-0.2623233545690318 
-0.5370647642868043 
-0.7979743852332946 
-0.7979743852332946 
-0.7979743852332946 
-0.7979743852332946 
1.359024590473272 
-0.4766577656903654 
-0.4766577656903654 
1.810589002140359 
-0.4766577656903654 
-0.4766577656903654 
0.8036728733251816 
-0.4766577656903654 
0.2287846272040467 
-0.4766577656903654 
-0.5562834337621931 
-0.5562834337621931 
-0.5562834337621931 
-0.5562834337621931 
-0.5626052630789639 
-1.195533709257895 
-0.6721567042305803 
-0.6721567042305803 
-1.176901288419343 
-1.410559672749937 
-1.410559672749937 
0.5364030151793786 
-0.4465170104884714 
-1.224125209229027 
-0.4465170104884714 
-0.4465170104884714 
-0.4355895776968395 
-0.9652954450173643 
0.2642469048426284 
-0.5387205056126652 
-1.460050510322425 
-1.468092552816662 
-0.7489881796325069 
-0.4933341181812469 
-0.4943630099177344 
-0.4943630099177344 
-0.4943630099177344 
-0.4943630099177344 
-0.4943630099177344 
-0.4943630099177344 
-0.478927333460687 
1.81399136163832 
-1.091794480216518 
-0.7463390198781904 
-0.5675839062282357 
0.1256806220251579 
0.2914328584680292 
-0.566033697881544 
-0.71648465285369 
-0.71648465285369 
-0.71648465285369 
-0.1008312254025123 
-1.146915496708373 
-0.8281534959238415 
-1.520601476596511 
0.6018683122208796 
-0.4070182136462019 
-0.4070182136462019 
-0.4070182136462019 
-0.4954361860372912 
-0.4954361860372912 
-0.05102157735891857 
-0.4081923089904612 
0.3964585859344705 
-0.7544985285940984 
-0.7544985285940984 
-0.7544985285940984 
-0.7544985285940984 
-0.4947731936715668 
-0.4947731936715668 
-0.6247809047086962 
-0.6247809047086962 
-0.6247809047086962 
-0.6247809047086962 
-1.117534295988016 
-0.875899030977847 
-0.875899030977847 
-0.875899030977847 
-0.8695192006330674 
-0.6679450554318686 
-1.653718799700751 
-0.8695192006330674 
-0.6691718053307947 
-0.6691718053307947 
-0.6691718053307947 
-1.338620422723317 
-1.265147225573518 
0 
0 
0 
0 
-0.4901849520844087 
-0.4901849520844087 
-1.463758500477714 
-0.2981109371456323 
0.859688417601473 
0.6254653755073355 
-0.4172562516985291 
-0.4172562516985291 
-1.379191440202915 
-1.866612670123527 
-0.328861515369588 
-0.328861515369588 
-0.008149822249743009 
-0.328861515369588 
-0.328861515369588 
-0.328861515369588 
-0.6577230307391759 
-0.328861515369588 
-0.328861515369588 
0 
0 
-0.3873172059919215 
-0.7092202091250995 
-0.7092202091250995 
-0.7092202091250995 
-1.395600406890235 
-0.5862465841096306 
-1.457511311812992 
-1.457511311812992 
-0.949044152371419 
1.223195045425678 
-0.1714250475702887 
-0.4931268763197652 
-0.9862537526395304 
-0.9862537526395304 
-0.4931268763197652 
-0.4931268763197652 
-0.4931268763197652 
-0.4931268763197652 
-0.7042728723061531 
-0.4931268763197652 
