solver_type L2R_L2LOSS_SVC_DUAL
nr_class 2
label 1 -1
nr_feature 9355
bias -1
w
-0.3618166714253522 
-1.943664146784885 
2.546442105962717 
1.509647361563821 
-1.730581784362174 
-2.082032282584518 
-0.4663470703371378 
-0.2028309333664285 
-1.830682330451899 
-0.4164504659227397 
0.2595876822167177 
-0.2505306893367985 
-0.2780178136663059 
-0.6564128895747717 
0.2327791877435915 
1.074713825435786 
0.5759803880311523 
2.047468085333955 
-0.043568769957753 
-1.760673439431016 
-1.838198036428998 
-0.3382691609191347 
-0.3382691609191347 
-0.3382691609191347 
-0.5168458848478377 
-0.3618166714253522 
-0.6032431263235239 
-0.5379591197279974 
-2.781806187819056 
0.6774731914634881 
1.032296584170248 
-0.9890083546441878 
0.1597819411239518 
-0.3764517484707223 
-0.1575216601910822 
1.049855370849076 
-2.178074455726625 
-0.7759529865391451 
-2.91126765412936 
0.6495191369515149 
-0.2930925225929779 
-0.3153637497122668 
-1.54756372606452 
1.626096278842411 
-1.893920291989996 
0.01674248073133087 
-0.6755539211327383 
-0.7254665908323059 
0.02299928374922456 
-0.8816725338211376 
-0.3153637497122668 
-0.1255660094294014 
-0.3153637497122668 
1.735095295241201 
0.1076477348368915 
-0.3636993746319305 
0.5751863277845108 
-0.6408746434114447 
-0.3153637497122668 
1.31441792402078 
1.522272816946698 
-0.3153637497122668 
0.5949071279504707 
-1.176140796000364 
-0.5401096543103556 
1.024144702169991 
0.7675125119246785 
0.9945796246008395 
-2.180150276021394 
-2.578633604222631 
1.704310370053974 
-0.05074844747923927 
-1.012169821958061 
-0.1755693624883286 
0.09720394448880562 
0.3526902080292239 
1.279627635302596 
-0.3078854704099979 
1.705086941200401 
-2.00078251352803 
-0.03278557549032211 
-2.229379823004043 
2.949390312629244 
-4.248081852539866 
3.454234671874677 
0.2206546670891191 
-0.5079727107997862 
-0.5115757951997375 
-0.5079727107997862 
-1.446252483288129 
-1.35374899393206 
0.7609925282628905 
-0.5079727107997862 
-1.736368209060547 
-0.9781119100382724 
-0.1429805604185561 
-2.856925259364582 
-1.01703689424636 
0.2799190273603021 
-1.104674563321529 
-1.499472796665104 
-1.909020231008596 
1.01188689256036 
-0.9545666633238032 
1.642291115960688 
-6.165434759882954 
-0.135411222490043 
0.4444778604669409 
-1.01094910321106 
-2.487091052023689 
-0.04860811515277751 
-0.4882895895777555 
0.7733923826472483 
-2.832879051899568 
-1.687198029450365 
-0.9941631958490768 
0 
-0.7825353643564679 
-5.826877987410355 
0 
0 
0 
-1.129691950571322 
0.5796116614727093 
-1.117910532005778 
-1.120784116513884 
-1.369695707439677 
0.2920296020945666 
-0.1624496000229535 
-1.996253643840472 
-3.640154925554608 
-1.81231732041397 
-0.4036876363473374 
-0.4036876363473374 
-4.431129454059829 
-1.347031467724299 
-0.152379801544104 
-0.7231740477944401 
-4.249463597959307 
-0.03507980473694949 
0.101422195941667 
-2.622822250258257 
1.111596987893229 
-0.7231740477944401 
0.03792528543212521 
-1.023985044768477 
-3.068277652836185 
-0.4550728604256891 
-1.266263523701234 
-0.8301075792263816 
2.775557561562891e-17 
-0.1361465716970159 
1.705636352836317 
-1.704542207089371 
-3.95858456003204 
1.262572902094348 
-3.961024234369611 
0.7051865516211843 
-2.503137877057866 
-0.4440018959906749 
-0.5942334994980604 
2.390191371339807 
-3.00061582553169 
1.294608884107735 
-0.2822374313765885 
-1.460097015065055 
1.904701422263632 
0.3810490940885818 
-0.4440018959906749 
0.7241256856976601 
-0.01466106782706258 
-1.32376869705832 
-0.8328807778279445 
1.44872790370284 
2.56452472680986 
-1.675991151881299 
1.294994834550197 
4.136419117582708 
-0.125149638619191 
-0.8502284604936553 
1.387497770857952 
-1.182943512768807 
-0.6545375652155374 
0.9732106416315126 
-1.11140129393073 
0.7231204204019921 
-2.285305591098406 
6.893786119313831 
0.6676887348285196 
-3.841412757313652 
1.646600140634939 
-0.6016723723457235 
-0.2951311523062356 
-0.9812759321143586 
-1.486219583577857 
-1.295800202115863 
-2.537435891020326 
0 
-5.70428146039952 
0 
0 
0.2320931685851048 
0.2532776848871275 
-0.2644945673353691 
-0.6096090919646537 
1.581406229414041 
-0.7829993944217696 
1.271097524913105 
0.3578839163252587 
-1.062925588218742 
-1.935559299420355 
-5.572912769304028 
-0.4713206795943977 
-0.4713206795943977 
-0.9275270510125254 
-0.1075369275674953 
-0.4713206795943977 
2.343081253837179 
-0.2583711959630349 
-1.224753992420259 
-0.1817176648099428 
-3.381474073104901 
-0.6554940906711716 
-0.1970209986096976 
-0.3940419972193957 
-0.1970209986096976 
0.9468413164026114 
3.027171694290309 
-0.7417351516952577 
-0.7397129078089402 
-1.723444495722679 
-0.1671179753051864 
0.7924198321198778 
-1.276042039473028 
-0.7734832667070229 
-0.3862813931775732 
0.3384508191860493 
0.04562587316052263 
0.4379185065982463 
2.010686898634008 
-0.7013127569438309 
-0.08131708174724696 
-2.594615583596896 
-3.386584136691221 
-4.428978651326493 
3.443389287332315 
-0.8524978314759561 
-1.901388540336607 
-0.3587569723680554 
4.047858494266839 
0.2319556860024935 
0.4399195759715141 
-2.077738109182815 
-1.726560462302606 
-0.1458461677777323 
-0.9651055636797875 
-0.6091963521027964 
-1.654188308677135 
-0.307820024378931 
-0.3583569819879419 
-0.307820024378931 
-1.528928021904592 
-0.307820024378931 
-0.9022984405736751 
-0.307820024378931 
-0.7697568558091644 
0.9771633728601874 
0.2652742698900035 
0.7247002295218528 
-0.307820024378931 
-1.083513380411984 
-0.307820024378931 
-2.340816966926476 
1.560217880169087 
0.9193685520374756 
-2.467155300390956 
-2.676401523593926 
-3.514994676285441 
-0.08442071669206368 
-0.519501885320795 
-2.861299531599527 
-0.06629509048571854 
-0.8481013813312833 
-0.06629509048571854 
-0.06629509048571854 
-0.06629509048571854 
-1.989189793922757 
1.421771774434636 
3.469446951953614e-18 
0.6020661291885812 
-1.698641035631144 
-1.893415013488303 
-1.857493176814114 
2.847538397077882 
0.1410150268369115 
-0.3012651050666915 
0.3969050215390214 
-0.6065875783468293 
-0.3072221188626982 
2.838084944521592 
-1.347967194642936 
-1.509150510715878 
-4.230269669580768 
-1.172872220521135 
-4.51769773217688 
-2.790672307725422 
-1.612132772357663 
-0.3012651050666915 
-0.5437272779708855 
-0.5437272779708855 
-0.2494265279256913 
-1.990660476197413 
-0.5437272779708855 
-4.312895216529979 
-2.777181709004529 
-0.03743540966141164 
-0.3732550311558198 
-0.3732550311558198 
-0.04136199674848144 
-0.331713203222653 
-0.3732550311558198 
-3.42269894739001 
-0.6930363405409485 
-0.3732550311558198 
-2.112469991341181 
-1.485045601893321 
-3.469446951953614e-18 
-0.4657328825948974 
1.030083001703167 
0.9920937806475055 
-0.4657328825948974 
-0.2363155092495073 
-0.371293491404381 
0.5337044821935071 
-0.8703603564102976 
-1.03132630017825 
4.445924639412593 
2.808603266773947 
-0.532669727853247 
-1.25415052962277 
-0.532669727853247 
-0.5934898739830448 
0.8077669295151881 
-0.532669727853247 
4.90422584087986e-05 
-2.683722003768514 
-1.1459446902668 
-0.532669727853247 
-0.532669727853247 
-0.2308956842371323 
-0.2308956842371323 
-0.2308956842371323 
-0.9239180951089023 
-0.2308956842371323 
-0.2308956842371323 
-0.7273927002556996 
-0.2308956842371323 
-3.393478381499296 
-1.2128112703378 
-0.3339835038562915 
-2.900911036572156 
-0.3339835038562915 
-0.637444447065221 
0.8634576189409243 
-1.643411427447367 
-0.3339835038562915 
-2.494529166501634 
0.635654961206532 
2.782913661972212 
2.297498981537043 
-2.009481262085278 
1.821716637483043 
0.2077208044354176 
-0.890341819719909 
-0.7657520411891678 
-1.921211081411145 
-0.2727064358611981 
3.418763917324797 
-1.212542728230774 
0.7749125961097147 
4.782779259644957 
0.7641350032815774 
-4.375161226866667 
4.376431268468135 
0.7864856513070152 
-0.9406493225455087 
-0.9406493225455087 
2.466674999768584 
-0.2010581724131497 
-0.2112401399322691 
-0.5411660305056337 
-0.2010581724131497 
-0.2010581724131497 
-0.5411660305056337 
-0.2010581724131497 
-0.2010581724131497 
-1.406948002170837 
0.1019786453507008 
-0.2010581724131497 
0.3284544443425303 
-0.2010581724131497 
-0.2010581724131497 
-1.042871756616963 
-0.2010581724131497 
-0.2010581724131497 
-0.2010581724131497 
-0.2010581724131497 
-0.2010581724131497 
0.4594070091141516 
-0.2010581724131497 
-0.4183474819059277 
4.995466249266889 
-2.942321570201241 
-0.7092456472207023 
-0.4183474819059277 
-0.09313727155453008 
-0.4372151789128209 
-0.3685487420217158 
-0.4372151789128209 
0.9144542997037286 
-2.179459020017589 
-2.981300264871344 
-2.122863313779409 
-2.903992296320175 
-1.695547393856919 
-0.2678462486677141 
-0.04277436598811128 
-0.1188599422751106 
-0.331805642479283 
0.1355330126420947 
0.8686869377006553 
-1.843062738753406 
-0.212794925886704 
-0.958485975415588 
-0.1188599422751106 
-0.1345842659623867 
-0.3573328815089739 
-0.3573328815089739 
-0.3573328815089739 
-2.787768460652135 
-0.3573328815089739 
-1.02345085734069 
-0.3573328815089739 
-3.000337072779661 
-0.3573328815089739 
0.2274979073229149 
0.1283504891791425 
-0.3573328815089739 
0.03955143019195455 
1.069874415859613 
-0.9327340114740095 
-0.02081230848153364 
1.692820516867697 
5.909744345039193 
1.209943003208881 
-2.199915406185981 
-2.02736104180652 
0.7534631090060866 
-2.503649858566277 
-2.845258006012172 
-2.57785245051577 
1.968821159305208 
-0.206436983185321 
-2.584480230147736 
-1.518427439824655 
-0.5994336524340725 
0.1850742599699785 
-0.6127670064012707 
0.8181047000323726 
-0.5616333704782329 
-1.516119562023392 
0.04293395845572281 
-1.48751656598562 
-3.158930870712822 
1.557324737340579 
1.315630419184036 
1.045332716155062 
-0.2744481785037013 
-0.5276649797720004 
-0.4537307372025426 
2.008178504201054 
-4.27475463158698 
2.605381661467462 
-1.344845022054832 
1.170426288145284 
-2.149988512985427 
-1.187916428190389 
-0.7885706552868551 
-0.8778201302472459 
-3.778031081571399 
0.5613395171210311 
-0.7093416381108955 
-0.8141700732709419 
3.511132980078222 
-0.7093416381108955 
2.899705000259966 
-0.7093416381108955 
1.220830407703561 
-0.7093416381108955 
0.03166532054668947 
-0.3565957304778163 
-0.4821835752286891 
0.701003396967088 
-0.810714589824471 
-0.5189257114414031 
-0.9891086845466797 
-1.175379000421476 
-1.546191432579957 
-0.3338817021504922 
-0.3338817021504922 
-0.3046958097704217 
0.5172475646830093 
-0.3046958097704217 
-2.359932400041306 
1.59721740718024 
-0.6114731588965121 
-0.7184009856923231 
-0.3046958097704217 
-2.472993636711016 
-2.531184390178937 
-0.7751356854249729 
-0.06631172414826704 
1.090550841187781 
-6.491863097985138 
-0.06971341874643477 
-1.294853030616506 
-4.465930658101749 
0.7184885002185143 
-0.2070595381914122 
2.824170537395011 
-0.5911586673475487 
-1.286951528193808 
-1.094103202581238 
-1.8300100855439 
-5.429839743644497 
-3.715413919065654 
-1.040395074812275 
1.853555971994082 
0.913087842305239 
-0.8846303724433293 
-0.9548488683841065 
-0.1024353266126069 
-0.1024353266126069 
-0.1024353266126069 
-1.198558940965632 
0.8039384387014071 
-0.133369417131233 
-0.3772998143811719 
0.6851729010260865 
-0.2885915810179713 
2.154357479063619 
-0.2885915810179713 
0.8775350274311903 
-2.915265994162956 
0.5126510971406014 
0.3723104694007563 
2.20828992695846 
-0.2885915810179713 
-0.2885915810179713 
-1.9639621616294 
-0.2885915810179713 
-0.2885915810179713 
3.60882189662261 
-1.002975406821707 
-0.6868545021275135 
-0.198295022905542 
-0.1615266527402502 
-4.510608356913301 
-0.9090397199707071 
0.4265789368867859 
-1.061234914354258 
-0.4245479566624097 
-1.729114855430782 
0.3570811006259257 
5.561730692254571 
0 
-1.713926293441422 
-0.4025978162622133 
1.375236075213952 
-4.310508935636622 
-0.2395359134539068 
-0.484258233143486 
-2.378930641338425 
1.542167184540867 
-0.7492638458801146 
-2.87795808766717 
0.4258356480067311 
0.1831755235327228 
0.4216716886262908 
-0.184102105565827 
0.253343532500901 
-0.1053664521152054 
-0.1703347597504055 
-1.637191046728792 
1.958810443916216 
-0.06419965080777214 
-1.732772499727538 
-2.99325013577151 
-0.2767626236606249 
1.459578356595882 
-0.2359405225306431 
-0.2359405225306431 
-0.2359405225306431 
-0.6677324189517212 
-0.2359405225306431 
-0.8267672003672012 
-0.2359405225306431 
-0.2359405225306431 
-0.7365727656056489 
1.109288064288685 
-3.95336597025766 
2.743782887121004 
-0.4462842792912406 
0.08537528273884828 
5.821214279501453 
-0.1967574608361834 
-0.9898458184964342 
1.8588908426453 
-0.6613364638731076 
2.449349218557332 
-0.5640511188353264 
0.5797340266393237 
-0.2168985158043412 
-0.6613364638731076 
0.2439153789505865 
0.5377239799993087 
-0.4577749584860119 
-0.2790662672906578 
-0.7904965170620026 
2.779904139871094 
-0.8757929040258562 
-1.673253254975965 
-1.035582692938008 
-0.8544221345865005 
0.001749101777347044 
-0.7279312746349196 
-0.1135195211798885 
-1.939910240997739 
1.763812407682933 
1.497094233537902 
1.72816752836103 
2.794388065439649 
-1.166163724880692 
1.907527663323297 
-1.166163724880692 
-2.055487259211513 
1.655059729149694 
-1.030790619459303 
-0.9813468255749617 
-0.4915860731690282 
-0.2012616277912237 
-2.486432142078117 
-0.6953323120036115 
-0.4346829630206213 
0.3390548072955077 
1.30657363724041 
-0.8852755259370959 
-2.399582336843294 
-1.624290447516579 
-1.102186541138743 
-0.9701067530314049 
0.8335479389331342 
-0.8901185121260816 
-0.06882690479427425 
-2.062964701130154 
-0.4781271507189614 
1.03864306203018 
-0.2754301173004743 
-0.2754301173004743 
-0.2754301173004743 
0.4987611803108998 
-0.2754301173004743 
-0.2754301173004743 
-1.306670033477502 
-0.5973182855981186 
-0.2754301173004743 
-1.669595499961347 
-1.008775181205814 
1.457017338610755 
-0.07919256943577496 
-1.527571864883869 
0.4314650610981985 
1.314393342274742 
-0.2786546892536087 
-1.548410289137818 
-0.6512168118596963 
-0.2786546892536087 
-0.4719404948764973 
0.7990158704363667 
-0.4719404948764973 
-0.4719404948764973 
-0.4719404948764973 
-0.4719404948764973 
-0.4719404948764973 
-0.4719404948764973 
-0.4719404948764973 
-0.4719404948764973 
-2.101465089339286 
-0.4719404948764973 
-0.4719404948764973 
-0.6947564697286541 
-0.6947564697286541 
-1.119575682961763 
-0.3441704912237462 
-1.119575682961763 
-1.119575682961763 
1.671142221443917 
3.804505143325339 
0.2338584240528452 
0.5815566770578178 
-0.4173921610259027 
-2.626537437797663 
-1.295988801687731 
-0.7085676809772551 
-0.6202574892417149 
-3.762005057385382 
-0.4827933095981434 
1.173679682616488 
-0.4827933095981434 
-1.485397811214155 
-1.528191498590862 
-0.7070463686693053 
-0.02688181136177476 
-1.742534735322049 
-0.1729719317119581 
-0.3609031448644052 
-1.708020714911548 
-0.9858051724990631 
-0.9545542330960108 
2.277929730263843 
-2.149362168292782 
-0.3885081185498847 
-1.027551516782099 
-0.2940670120792584 
-0.2940670120792584 
-0.2940670120792584 
2.272504717726926 
-0.2940670120792584 
-1.412132026245026 
-3.048650154799267 
-0.2940670120792584 
-0.9082846070468444 
-0.2940670120792584 
-0.2940670120792584 
-0.2940670120792584 
-0.2940670120792584 
-0.2940670120792584 
-1.694592291344534 
-2.02144117928062 
0.0935582873243655 
-0.5004745095804788 
-2.693778040774869 
-0.6378673836669805 
-0.7213801075142906 
-0.1372700566400027 
-0.03944850708812175 
-0.03944850708812175 
-3.034692221420035 
-3.022605084374901 
-1.166270969289108 
-0.7347300504681487 
-0.03944850708812175 
-0.7074409674994573 
-1.100625870036629 
-0.07262911412591026 
-1.271533454979797 
6.056753525379215 
-0.08337588015260824 
-1.195058528781002 
-0.2579949027701802 
-0.3217721230949851 
3.009362688160526 
-0.1801405373601252 
-0.356923042988665 
-0.3217721230949851 
-0.3217721230949851 
-0.3217721230949851 
-0.6395816838323272 
-1.922785579361396 
1.157319696409955 
0.2856554919274083 
-0.9118455783699964 
-0.0548731501461937 
-1.407930905321544 
5.796770453684489 
-1.130356695453963 
-0.8263242397591904 
0.873988387113377 
1.072048859855339 
-1.130356695453963 
-0.4389423118717936 
-0.4434413338950218 
-0.4124098459794126 
4.202191705881043 
2.147598839846033 
-1.16276904592587 
-0.5708393018927559 
3.45797343548727 
-0.5140828615038788 
-1.072419147455175 
-0.8871204764610821 
-1.281792164365044 
0.4270486451884473 
-0.5301608865457267 
-2.938350158011262 
2.641729824901536 
-0.3118729761429918 
-0.4428056544194857 
-0.4428056544194857 
-0.7721966011516059 
-0.7169041588669287 
0.9854311568021781 
2.088344426625095 
-0.810611696079637 
-0.810611696079637 
-2.058408619497414 
-1.797339969644498 
0.4047686013092701 
-0.1955629896852907 
0.04300109118805632 
-0.724095526895704 
2.197242543090645 
1.600021803790377 
-0.04640314553897506 
-0.4313663933282217 
-0.4313663933282217 
-0.4313663933282217 
0.460553055410866 
-1.497602332534293 
-0.4313663933282217 
-0.4313663933282217 
-0.4313663933282217 
1.34387712294693 
0.1651741833595259 
4.064817470933295 
-1.309427923591076 
1.351543912870547 
-1.309427923591076 
-1.681870987168256 
-1.417286560833009 
-1.904249795021749 
-1.818084417674736 
0.4483826578208637 
-1.392538831341126 
-0.6317912743372469 
-4.054437895079182 
-1.342286388830761 
-3.588410064753356 
0.4067768910835312 
-1.312540497040177 
-0.4706203755984458 
-0.915186413932216 
0.3062164856737302 
-2.064433159749696 
-0.9389727965605431 
1.404672708717191 
-0.9389727965605431 
-1.262511634003233 
1.318064413807215 
-1.012506829020033 
-0.9389727965605431 
-0.9389727965605431 
-2.531988153462125 
-0.2384329423910362 
4.410422069956877 
-1.155898785575013 
0.8433770483438404 
-1.155898785575013 
-0.9941666211985829 
-0.4972018037502443 
-0.6400146987722248 
-0.4972018037502443 
-0.3878129456443407 
-0.4301290509485572 
-0.3878129456443407 
-0.3878129456443407 
1.257989107844557 
-0.3878129456443407 
-0.3878129456443407 
-0.4317363793927522 
3.400848772663199 
-1.374124243235398 
-1.895624927336186 
-1.330193426247275 
-0.2708567259707904 
-1.446609616516665 
-0.7254874959332543 
-1.281023548839493 
-0.7254874959332543 
-3.696127196797927 
1.312342270822089 
-0.2772895099092568 
-4.03171955340346 
-1.455454918516404 
-1.468589053544422 
-0.1739934573558748 
-0.1739934573558748 
-1.458033704716451 
-1.468410614338622 
-0.1739934573558748 
-0.4399885630697093 
2.096159756683498 
-1.949823254948351 
-1.81782841529983 
0.8559549621805255 
-0.3927390581706832 
-0.610276769276153 
-1.799973218536418 
1.148291541419606 
-2.124499250741855 
-0.3683229530720872 
-1.250714231334338 
-0.3683229530720872 
1.193969102528571 
-1.441294752429973 
1.121107689128906 
-0.9094297762354449 
4.046994615540275 
-0.6515884121129922 
-0.636420013518127 
-2.721658969772524 
-0.636420013518127 
-0.1913720605390802 
-0.1913720605390802 
-0.1913720605390802 
-2.354710828745837 
3.497993371948287 
-0.1913720605390802 
-0.1913720605390802 
-0.5097731501869311 
0.469632949532208 
0.3083270309323675 
-1.373156657522735 
-0.3634346609968596 
-0.3634346609968596 
-2.071898402213332 
0.7881338878661439 
-0.3634346609968596 
-0.3634346609968596 
0.8367194064279948 
-0.871628560755575 
-2.012137454076957 
-3.544171843966752 
1.167243482673989 
-1.484480674228695 
-0.4377598954855914 
-0.4377598954855914 
-0.7884679485564746 
-0.08172044325771466 
-2.295643545076629 
-2.913296576517772 
1.006393408395393 
-2.535214043727282 
-0.5533511612938935 
-2.744830977890033 
-0.9933762465317135 
-4.41678373804034 
-1.071294918944405 
0.6863086290386738 
-1.466678020966638 
1.691719025335327 
-0.5985793884994448 
-1.225359639465793 
-0.5985793884994448 
-0.1744040513669409 
-0.6771138013629826 
-0.1744040513669409 
-1.857278752970299 
-1.554443620971633 
4.058948187022708 
-0.1744040513669409 
0.5209390778052343 
-0.1744040513669409 
1.963062851470407 
-0.5680339300927576 
-0.5241120002751072 
-0.4307822856016737 
1.724369555925637 
-0.3736644837884425 
-0.2764991206507671 
-0.9104795441293467 
2.777588920909998 
-0.2764991206507671 
0.5741539707009496 
-1.596844378378765 
-0.2764991206507671 
-1.020602946343921 
-0.783782941094249 
-1.198892583228564 
-0.2711566072969339 
-1.277227899224838 
-1.865847865439625 
0.6669762323009741 
1.509727211587787 
2.20002880955217 
-0.6386139496124182 
-0.09735617161693798 
3.469446951953614e-18 
-1.119003624631831 
3.469446951953614e-18 
-1.124925403261366 
-1.234401237282766 
0.7838371780618495 
-0.6174539675709404 
3.469446951953614e-18 
-0.342217427454638 
-0.6651204782481186 
-0.9412510473922188 
-1.382642916465135 
0.01928826219873498 
-0.342217427454638 
-0.5766573234472757 
-1.02874625580805 
6.329479891627329 
-6.370022883766205 
-0.342217427454638 
0.8552236953425777 
-2.411017873906929 
-2.411017873906929 
-1.133835513641471 
-2.11801176186746 
-0.1419855862702299 
1.139786596736016 
-0.1295467564624951 
1.252545004768 
-2.079278729159975 
1.775366646730478 
0.2379961024898042 
-2.729308017274029 
1.156968602773416 
-0.2088255065127717 
-0.2949131918819783 
0.4642354364360298 
-0.2949131918819783 
1.06655878512875 
-0.2949131918819783 
-1.069599785504664 
-0.1712237653039566 
0.4362740810686349 
-0.08561188265197847 
-0.7466854668301522 
-0.7466854668301522 
-1.190920764173336 
-0.7466854668301522 
-0.5571476576562523 
-0.7305279767774879 
0.05721216633170385 
0.7647411439482559 
0.431001241477183 
-0.8104092560964935 
0.09842938774730993 
-0.4350739816595301 
-1.080815211005066 
-3.857011158544864 
-0.6349382445260578 
1.196119246264887 
-0.6349382445260578 
-0.6349382445260578 
-0.6349382445260578 
-0.408387906916056 
-0.9690210817405093 
-1.094109001425457 
-1.094109001425457 
-2.53063654942197 
-3.393444355696537 
-2.913660501636261 
0.4346185049233411 
-0.08596011637752859 
-0.2640649907000374 
0.5174504946629269 
-0.2640649907000374 
-0.2640649907000374 
0.141174683796531 
-0.1247369511254634 
1.820860636058602 
-0.2640649907000374 
-0.257120386254678 
-0.2640649907000374 
-0.2640649907000374 
-0.2640649907000374 
3.719385985688775 
-0.09425843591137587 
-0.5950145891826527 
-0.2640649907000374 
-0.4936638189299846 
-0.2640649907000374 
-0.4308691207730306 
-0.1133181576350863 
-0.3687022285035961 
-0.1315259349978355 
1.953773471982073 
-4.212427075620256 
-1.103896122773995 
-0.3687022285035961 
-0.7374044570071923 
-0.3687022285035961 
0.7018529912697937 
1.064760864642685 
0.5891685700627523 
-0.3687022285035961 
-0.3687022285035961 
-0.9725965421026083 
0.001285427133701546 
0.4939490067196514 
0.2780006867059251 
0.07499469188372285 
1.313410913562158 
-0.4626263971498829 
-0.5597618770173132 
-1.565498526917864 
-0.5716021804155407 
-0.190671368570035 
1.164861131839124 
-1.58705550770626 
-0.5710834098472173 
-2.091316383709719 
-0.8781577342920028 
-0.1708580325788379 
-0.7500991250668528 
-0.5594553391397175 
-0.7500991250668528 
-0.6561983783975385 
-0.22384268745944 
0.00611900349088837 
1.047650664113754 
-0.5609004313994946 
-0.5609004313994946 
-1.052234105566314 
-2.026136851556113 
-1.110263326671345 
-0.6491946462597316 
2.551368011776816 
-0.6491946462597316 
1.095783347821507 
-0.7587808079239945 
0.04747375111518823 
-0.2613243887561886 
-0.04174983116512663 
-0.562313383561846 
-0.04174983116512663 
-2.094127089849362 
-0.3982590991072903 
0.3628791032048998 
-0.3982590991072903 
-0.3982590991072903 
3.597090131147377 
-0.8808954776270387 
-0.8808954776270387 
-0.8808954776270387 
1.184095818241343 
-0.691352968235632 
-0.5270565776919658 
-0.2094295702776544 
-0.5332683936542787 
-0.2094295702776544 
-0.2094295702776544 
-0.2094295702776544 
-0.2094295702776544 
-0.6023042052275349 
-1.173972454042234 
-0.5184149192944335 
-0.09031759866486577 
0.05624167299540488 
3.906166963247052 
2.917734653317004 
-0.5184149192944335 
-0.7404899905435174 
0.3722648870676024 
6.357791654644458 
-0.8032952580708606 
-2.161213750993698 
-0.8032952580708606 
-0.8032952580708606 
-0.8032952580708606 
0.4067893930828101 
-0.2803155929377397 
-0.2803155929377397 
-0.2803155929377397 
-0.2803155929377397 
-0.3295597394220781 
-0.2803155929377397 
-0.2803155929377397 
-0.2803155929377397 
-0.6237728581244097 
-0.2803155929377397 
-0.5114945901609702 
-0.3498386996289947 
-1.132004435099682 
-0.7206893278223341 
0.6529798695540612 
5.284274010126619 
-1.257221751327281 
1.557526377576061 
-0.389937664577473 
-0.7581467403850091 
-0.389937664577473 
-1.606138940957106 
-0.1032037837541961 
0.5349800585628648 
-0.5352638429659726 
-0.5060558140713032 
0.4285647339632243 
-0.3381117364822224 
0.2271476754109428 
-0.3381117364822224 
-0.516599771778812 
-0.7186845139207608 
-0.6456614760128668 
1.415945654153092 
-0.1275720767939365 
-0.1275720767939365 
-0.4422222784691658 
1.954271357897878 
-0.4422222784691658 
-0.4422222784691658 
-0.1672713613982394 
3.055711769023118 
-1.138228449458512 
-1.095725559526508 
-0.3235388374426889 
-0.6898150421051564 
-0.7554906791335584 
2.516345061094545 
-0.1174441860413662 
-0.4023236696123198 
0.3327592427137651 
-0.3632181380275189 
-1.257680618184806 
-1.114787376048182 
-0.5431629654301529 
0.8183500640655361 
-0.5431629654301529 
-0.3209153976176327 
-1.0297889831703 
-2.610504688820372 
-2.610504688820372 
-0.8468349243135868 
0.3991453119897184 
-1.683826570466991 
-3.301401892286323 
-0.6441680847750095 
-0.6441680847750095 
-1.121389971068542 
-0.3256907990664261 
-0.3256907990664261 
-0.9619257831331446 
-0.3256907990664261 
-1.589882205634477 
-3.230123586887669 
-0.1082403481026384 
0.4440520945803726 
-1.760266528602752 
-0.6839410454705163 
-0.9786346175989377 
-0.7559209083275169 
-0.7559209083275169 
-1.199573585623216 
-1.138034063492163 
-0.7559209083275169 
-0.7559209083275169 
0.4793258216732971 
-0.9052394344774536 
-0.2944515840759322 
-0.6976871631770334 
3.733754271095268 
-0.2944515840759322 
0 
-0.994761131313994 
1.259081578479652 
-1.503894629510922 
-0.994761131313994 
-0.994761131313994 
-1.422848643357133 
0.1865235322181326 
-0.3475682130462469 
-0.14003837179867 
-3.951784400406343 
0.6977933142517515 
-0.3730877392036481 
1.193593450252161 
-0.5474303438957926 
-0.3730877392036481 
-0.3730877392036481 
2.320907323887661 
-0.3443641997566222 
-0.8673874428822087 
-0.5297548760991904 
0.8331777102332044 
0.4767118883321914 
-0.934738126052211 
-0.934738126052211 
0.101759924121859 
-0.336655709666896 
-0.7808789145005144 
0.2285461298206127 
-1.18730137749904 
3.347819878310175 
1.665262472422899 
-1.48655673914695 
-0.5557405357948064 
-0.3904394572502572 
-0.3904394572502572 
-1.855564300531799 
-0.4573088569505517 
-0.3880090416951484 
-0.3880090416951484 
-0.3880090416951484 
-0.3880090416951484 
0.9250437202035 
-3.934110564519138 
0.3664660450322458 
-2.149021990881367 
0.4408698694759592 
0.6451835600404242 
-0.5725931304669674 
-0.3449509798787742 
-0.3449509798787742 
-0.3449509798787742 
0.05873562967173529 
-0.1451468726128649 
-0.1451468726128649 
-0.2230457812453035 
-0.1451468726128649 
-0.9401332610774925 
-0.2756088211564311 
-0.8131171211736625 
-0.26357735659983 
-0.4436526772956996 
-0.4436526772956996 
-0.4436526772956996 
-0.8673581184414167 
-0.4436526772956996 
1.15114262771176 
0.8625733253344173 
-0.4436526772956996 
-0.8082195441216911 
0.8627428608848897 
-0.2224653043012399 
-0.2224653043012399 
-0.2224653043012399 
0.08940821939419355 
-0.2224653043012399 
-0.3001328931003901 
-0.2224653043012399 
-1.073403491562403 
-0.1607114909899723 
0.624641590127293 
-0.5611501505102069 
-0.5611501505102069 
-0.2311552645302222 
-0.9499579672991543 
-0.5611501505102069 
-0.5611501505102069 
-0.5854756289197058 
-0.5854756289197058 
-0.5854756289197058 
-0.5854756289197058 
-2.32890415094123 
-0.4595277771490992 
-0.5000267976405612 
-2.059521558249918 
-0.5000267976405612 
-0.927911822285053 
-2.254386879882373 
0.5215784951018444 
-0.258573827179125 
0 
-0.4750170526632663 
0 
0 
-0.03230038413233545 
0.327839596642418 
-0.9898925675110248 
-0.9930346936258619 
-0.5960430638187585 
-1.806768585739589 
0.6691661545953138 
-3.746186891537068 
-0.5504638868143035 
-0.8502446670409446 
-0.1673073347504793 
-0.8905717449067874 
-0.5504638868143035 
-0.01373946106293389 
0.9638468949668367 
-0.5496232947112372 
1.178590381715576 
-1.558029469356796 
-0.5496232947112372 
-0.1084265302546934 
-1.924736782455303 
-0.1904687184429229 
0.9686287107749418 
-0.3174229262172018 
-2.27615802034571 
0.7782186334568606 
-2.692265879005845 
-2.797478520756584 
-3.000369943033768 
-0.3753926560641714 
-0.3753926560641714 
-0.3753926560641714 
-0.6434926108754402 
0.1193742316073526 
-0.3753926560641714 
-0.326489283609955 
-0.326489283609955 
-0.326489283609955 
-0.326489283609955 
2.543319633582005 
-0.326489283609955 
-0.6567943408272523 
-0.6109223084669834 
-0.3780310507009197 
-0.326489283609955 
-0.326489283609955 
-1.89080176097707 
-0.7352447211076198 
-0.326489283609955 
1.136575647627365 
3.531246301673038 
0.1184998057359238 
-0.3658123920421015 
-0.3658123920421015 
-0.9598184137039452 
-2.332295549998282 
-0.1900842783860927 
0.9563458708263884 
-0.294556716422 
-1.357187069322092 
-0.3571229976824912 
-1.129219536800983 
-0.007903721527344112 
-0.007903721527344112 
-0.6568424868859887 
2.170895862141057 
-3.692090758383389 
-1.188315662634063 
-1.782914160201436 
0.6891214063630131 
-0.127055137396183 
-1.009600143974167 
0.3267987106891606 
2.812607650570258 
-1.603208472839722 
-0.8261797790980789 
-0.8261797790980789 
-1.216046637922213 
-0.7848795426447902 
-0.7848795426447902 
0.4877269156210221 
-0.5421936266451974 
-0.5421936266451974 
-0.5421936266451974 
-0.5421936266451974 
0.5526009673095159 
-0.5421936266451974 
-0.5421936266451974 
-2.533224445286662 
-0.5421936266451974 
-0.4144527172633037 
-1.971334456617835 
-0.7390604453328581 
-1.913419951478498 
-0.8070832143082586 
1.291938229127867 
-0.8070832143082586 
0.1693968787807157 
1.591624151644513 
-0.8070832143082586 
-1.221810508803233 
-0.3818336032459536 
-0.3818336032459536 
-0.3818336032459536 
-3.632432696852364 
-0.1748713544080641 
1.849835144527276 
-0.1305761047887167 
-0.1305761047887167 
-0.1305761047887167 
-0.1305761047887167 
-2.120150106917072 
-1.658647128614909 
-0.1305761047887167 
-0.9329854751793919 
-2.322004798205138 
0 
-1.868970313348632 
-1.227785353649716 
-0.2419516497394885 
0.200083090417724 
4.738721073349102 
-0.7428268070924976 
0.2115150926023382 
-0.3166402875187533 
-0.3286062501506558 
-0.1763172360873431 
-0.1763172360873431 
-0.3526344721746862 
-0.1763172360873431 
-0.3701549281604194 
-0.1763172360873431 
0.1298590170654237 
-0.6455065783118895 
-0.7377454914250871 
-1.911003157767311 
-1.098467552405835 
-1.374151973872019 
-3.163745021395024 
0.08263292594006623 
-0.6302886780717138 
3.958551733741915 
-0.6302886780717138 
1.969314864610058 
0.5382320255172787 
-0.1799999732182982 
0.1117201044080465 
-4.334308575244678 
-0.9223437001542244 
-0.4964181193017368 
-0.3568108619208254 
1.110866884048756 
-0.5382195817212254 
4.310610227523229 
0.2491806244627214 
-0.2881829425525945 
0.5920594935337761 
-0.145303947687675 
-3.397088105705691 
-0.2784733082560467 
-0.3192152044386046 
0.2154737858005609 
-0.4800968360514003 
2.193502794134842 
-2.64238261014058 
1.87523711508039 
0.8430676038961683 
1.898338158739153 
-0.4800968360514003 
-0.1722134777402368 
0.02223913759833451 
-0.4800968360514003 
3.510045257720888 
-0.3046898119762089 
-0.5507255326953168 
-1.458607710050174 
3.140162383347481 
-1.780661819133042 
-1.849560448253683 
-2.140728370263308 
0.1957757229677266 
-0.01136471106884732 
-0.9617834164025431 
-1.177994091560322 
-1.065507409158429 
0.7512135105490989 
-0.7961917132750586 
-0.74314660621894 
0.6653536705426731 
-1.374129999548172 
-0.74314660621894 
-0.6005393159626905 
-0.6005393159626905 
-0.6005393159626905 
2.955981499969999 
-0.9630624253922294 
-0.1262308347084771 
0.2660171253110383 
-0.4407526708021466 
-0.4407526708021466 
-0.2179989233009329 
-1.479014996284397 
1.705444475888846 
-0.5133735235656047 
-0.5133735235656047 
-0.5133735235656047 
1.514121489726022 
2.188348746677357 
-0.7064010951974724 
1.040705588373212 
-2.790208324323338 
0.7620942405678192 
1.140276604038109 
-0.1831524153801763 
-0.4146905732249065 
-0.5042428919408402 
-0.6561331269598324 
-1.732552776911137 
-1.347620643523602 
-0.9364494701046202 
-1.571590946529216 
-1.649796807166535 
-0.5636720947780023 
-0.8444763360920208 
-0.2569075047888282 
1.155750421526336 
-0.5366414201086048 
-0.2569075047888282 
0.6745481382932452 
-0.4525265744626266 
-0.4525265744626266 
-0.4525265744626266 
-0.4525265744626266 
-0.4525265744626266 
-1.051114627667782 
-0.4559238112241122 
1.08643349640564 
-0.4559238112241122 
-0.02760747784907762 
1.094675012204013 
-0.5069830222883742 
-1.056773204914076 
7.988128565987992 
-1.056773204914076 
-1.056773204914076 
-1.891388008319395 
-1.056773204914076 
-0.8129168183415775 
-0.2410241346621815 
-0.2410241346621815 
0.2686779896665101 
-1.259911590133591 
-0.2410241346621815 
-1.365952496787333 
-0.2410241346621815 
3.122721850949408 
-0.3298402165895085 
-0.5915433393737255 
-0.3366181594776297 
-0.3298402165895085 
1.73443518857471 
1.082482159561802 
0.2174552210262164 
-0.4701318887438232 
-0.4701318887438232 
-0.1201776846244771 
-0.1201776846244771 
0.1547732324464494 
-0.1201776846244771 
-1.528824879822802 
-2.339521772373279 
-1.095051985113032 
-1.095051985113032 
-0.9332002745368083 
-1.96643645594225 
1.019899494012507 
-0.2427608862463078 
-0.6259146605174243 
-0.2932544702146689 
-0.5221581864206004 
-0.5221581864206004 
-1.573625761215813 
-0.3381806891833885 
-0.3381806891833885 
0.7474778064025114 
-0.8589473956532658 
-0.8589473956532658 
-0.2218826113173275 
-0.9037263969723323 
-0.9037263969723323 
-0.9037263969723323 
0.1570668713150024 
-1.589697577947861 
-1.053503283117464 
-0.3724766470266122 
-1.688659628836163 
-2.348884994326822 
3.332400265553936 
-2.661469945349927 
-0.4494415505624588 
-0.4494415505624588 
-3.57618731756313 
-1.521859868802055 
-0.5229498853620689 
0.8617410348683252 
-0.5229498853620689 
-0.5229498853620689 
-0.5229498853620689 
-0.5229498853620689 
-0.5229498853620689 
-0.5229498853620689 
0.04113548633852037 
0.1282706628803674 
-0.632041667442394 
0 
0 
0.5814996941597557 
-0.4896155252343023 
0.07482602851336922 
-0.278207975257965 
-0.278207975257965 
0.3225323566986242 
-0.278207975257965 
0.2972069495943057 
0.09155028958005042 
0.4233291672740113 
-0.9519302511286654 
-0.8186895372700873 
-0.3941344689163824 
-0.3941344689163824 
0 
0 
0 
-0.9944829511719703 
0 
0.1133642639412296 
-0.2368982767469452 
-1.58071570565007 
-1.58071570565007 
4.413454207136392 
-1.381365564827785 
-1.072487643249644 
-0.5936433333680551 
-0.2724878160156498 
-3.303885757078669 
-0.7395477740359548 
-0.5914213532772791 
-1.070239224539933 
-1.070239224539933 
-0.2074198674164855 
-0.2074198674164855 
-1.433929489539802 
-0.4715026169880636 
-0.4715026169880636 
-0.733920882716999 
-1.0933409154839 
0.02887693813383714 
0.7018678014919497 
-0.8681351365313201 
-0.2083601404855143 
-0.3970557310469375 
-0.6202605229708188 
-0.6202605229708188 
2.82241900326458 
-1.106568344855493 
-0.5064979742012091 
-0.6257396671236102 
1.054274981866843 
-0.6257396671236102 
-1.686944506335001 
-1.018883726363901 
-0.4909242555636763 
-0.4909242555636763 
-0.4909242555636763 
-0.1764648445431736 
-1.494974921592324 
-0.1764648445431736 
-0.1764648445431736 
-0.1764648445431736 
-0.9819702721079255 
-2.883716763441319 
-0.9487646703237751 
-0.4928136131629249 
-0.4928136131629249 
0.2551652291101627 
0.07061386933395875 
-0.8246805467539591 
-1.553389532338504 
-1.079751168354241 
-0.5663958614314684 
-1.092406742762887 
0.02521010164089613 
-1.429378126071574 
0.6228536099663149 
2.47273046361828 
2.17286810583294 
-1.327874874638965 
-0.3842099891266992 
-0.3842099891266992 
-2.484152785205329 
0.5850875672672431 
-0.4048052680374951 
-0.3842099891266992 
-0.2400487661430009 
-0.3516200884578163 
-0.3516200884578163 
0 
-8.673617379884035e-19 
-0.8210803766686113 
-2.102118505506264 
-0.3920118911949347 
-0.3920118911949347 
-0.3920118911949347 
-0.3920118911949347 
1.830247191873304 
-0.3429112965799687 
-2.918477194626996 
0.2417228348343494 
-2.480093771382916 
-1.108177490294876 
-1.081649103504241 
-0.7023886955090449 
0.8743203742095367 
-0.7023886955090449 
1.453391510171182 
-0.7023886955090449 
0 
-0.3457641399422389 
0.6216563401494181 
-0.5906762840672217 
-1.357845757669551 
-0.5906762840672217 
-1.770165081398378 
-0.9517731828341183 
-1.596421535373712 
-0.3150613851374477 
-0.3150613851374477 
-2.702420209801599 
-0.4949885280365276 
-0.4949885280365276 
-0.4949885280365276 
-0.4949885280365276 
-0.4949885280365276 
-0.4949885280365276 
-0.2313202756783544 
-0.4949885280365276 
2.058433263813236 
-0.4949885280365276 
-0.4949885280365276 
-0.4949885280365276 
-0.4949885280365276 
-0.833314555408219 
-0.833314555408219 
0.8205899241875273 
0.727596027335523 
0.727596027335523 
-0.7370002694792852 
-0.3126806420237145 
0.4974607590446742 
-0.3614944609034272 
0.1753677836079207 
-0.9362113572855852 
-0.3818760411503999 
-1.977647138848945 
-0.2817390959629572 
-0.2817390959629572 
-0.2817390959629572 
-0.2817390959629572 
1.080754215891787 
-4.61158975404268 
-0.2664327858576607 
0.8995144663454548 
1.293887379080787 
-0.2421105022026897 
0.0002585829220609926 
-0.4256533517476579 
-1.967611434571314 
0.9734369516461591 
-0.4561275249722977 
-1.132912797938133 
-0.4561275249722977 
0.8381621599042561 
-0.4561275249722977 
0.339305846728339 
-0.4619368314302338 
-0.4619368314302338 
-0.4619368314302338 
-1.490197629614341 
-0.131023455617927 
-1.465121126598619 
-0.9021101131874045 
-0.4619368314302338 
-0.9606719476497687 
-1.437862503864908 
-0.4909535605047087 
-0.4909535605047087 
-2.388024699118601 
0 
1.549274874906847 
-1.05111639177987 
-0.3836858324914703 
-0.995608669392427 
-0.995608669392427 
-0.3399847190410167 
0.8511252146911419 
-1.027914009808712 
-1.497420800784566 
0 
0 
-2.218228475492249 
-0.2669650453599567 
0.5832365329072134 
-1.353864522398208 
0.1049458150295513 
-0.1420585735061875 
0.4968769641058667 
-1.098236812670586 
0.9539692908846847 
1.415498586067012 
-0.3276078000677917 
-0.3451145246292846 
1.582574495170771 
-0.3451145246292846 
-0.7614925751463073 
-0.7614925751463073 
-0.7614925751463073 
-0.7614925751463073 
-0.7614925751463073 
-2.367770905980591 
-0.5526257172204769 
0.2880918855897089 
-0.1372534896287293 
-0.267616906766445 
0.155369910222352 
-0.3297393081165387 
-0.3297393081165387 
-0.3297393081165387 
0.8683895235177268 
-0.8957805171008162 
1.041353260121686 
-0.1177473137849782 
-0.3538685459698477 
-0.3538685459698477 
-0.3538685459698477 
-0.3538685459698477 
-1.078040094180109 
-0.3538685459698477 
-0.3538685459698477 
0.4752374094839759 
-1.764960676843726 
-1.760315195783021 
-1.539884251821836 
-1.539884251821836 
0.09090502467652714 
0 
0.2950806726127235 
0.2125980843031389 
3.200620233210426 
-0.4520056215965043 
-0.5552682139704462 
1.05014771300851 
-0.5552682139704462 
-0.5552682139704462 
-0.5552682139704462 
-0.5552682139704462 
-0.5552682139704462 
-1.030285266633712 
-0.5552682139704462 
-0.5552682139704462 
-0.1598292235273103 
-0.5552682139704462 
-1.720357978727162 
-1.173723313487199 
-0.8498844901105748 
-0.8498844901105748 
1.593336108342447 
0.3618681566756834 
-1.419470806604596 
-0.6106743525582042 
3.272086244713347 
2.155961231264473 
-0.3237538518098127 
-0.3237538518098127 
3.15539095716415 
-0.3237538518098127 
-0.3237538518098127 
-0.981694125846149 
1.815383496435665 
-0.7322915972113532 
-0.4339959266904915 
-0.7367836413839522 
0 
-0.3570541321901218 
-1.103992315696375 
-0.3570541321901218 
-0.3570541321901218 
-0.3570541321901218 
0.5581109837215721 
0.3835729516656862 
-1.220637925032277 
-1.539319828826467 
0.1403896140547451 
-0.05078697258470279 
-0.4340595563105482 
-0.4340595563105482 
-0.4340595563105482 
0 
-2.960932287804639 
0.3821048849329773 
-0.4016424943214844 
-0.4016424943214844 
-0.4016424943214844 
-0.4016424943214844 
0.5591921727973201 
-0.4016424943214844 
-0.4016424943214844 
0.07891138070258315 
0 
-0.2017851437679894 
0.3760779228022847 
-2.066041073200354 
-0.6758521228517825 
-1.122929228499754 
1.666002827020896 
0.3382895927472226 
0.5051447704502517 
-0.3187893234178549 
-0.3187893234178549 
-0.5795019552281698 
-1.321248220184846 
-3.277560202123944 
0.5915684992997753 
0.3055698471041913 
-0.3337918679197873 
-0.3337918679197873 
-0.3337918679197873 
-0.4750170526632661 
0.3100688857035765 
0.3171866638365872 
-0.8527648540185401 
-1.570544885321606 
-0.4750170526632661 
0 
0 
0 
0.4195891562562553 
-0.2157657981519777 
-0.3497582503378285 
-1.516754964626165 
-0.8441905954303188 
-0.8441905954303188 
-0.8441905954303188 
0.3229632687607849 
-2.589887352427823 
0.2389217799301731 
-0.2967016471813659 
-0.7858372396995124 
0.7023876412080521 
-0.1726113667003651 
-0.3297875750333189 
-0.5972131433033123 
-1.081966597351951 
-1.081966597351951 
-0.3546839361739068 
-0.06610378454513673 
-0.3546839361739068 
0.7658680545682945 
-1.11597467244439 
-0.4461630477245503 
-0.3214227629007287 
-0.4807332262051542 
-0.4807332262051542 
-0.4807332262051542 
-0.4807332262051542 
-0.4807332262051542 
-0.209299853865306 
0.8143926073096242 
-0.4185997077306127 
-0.209299853865306 
-0.4609053459582442 
-0.209299853865306 
-0.738887833615923 
-0.6320043755098652 
2.898082261620045 
1.737286932993552 
0.6424458686976465 
-0.9021908129377653 
-0.9021908129377653 
-0.9021908129377653 
2.60951043425848 
1.045201978411347 
-0.8690246121856456 
2.616076179685543 
0.7385950557173232 
-0.399235776092433 
-1.347453081633242 
-0.7298176977745306 
-0.9010314519179571 
4.322332046146753 
-0.7298176977745306 
-0.4174718953257782 
0.05260527913462505 
-0.3870632045319867 
0 
-2.627855576927671 
-1.465456259185505 
-0.6492840329042335 
-0.1451898866747408 
-0.7245455597711198 
-0.4801681415592174 
3.297195026377572 
-1.764000539494934 
-0.4248801083422697 
0.1068363929788622 
-0.3837661184063813 
-0.7807518394142586 
-0.7807518394142586 
-0.7807518394142586 
-0.7807518394142586 
3.251791758871982 
-0.3861372578090676 
-1.270853842973543 
-1.270853842973543 
-1.270853842973543 
-0.5142854467330961 
-0.4285112712639034 
-1.030404661610376 
-1.060224019620606 
-0.5401606223324813 
-2.56439058174205 
4.229473661415517 
0.241416409775255 
0.9464782947017277 
-2.407514605802063 
-0.3237656643145874 
-0.3237656643145874 
9.703328998904711 
0.4239050068062641 
-0.0679413979670557 
2.062158810988 
-0.8159205268321994 
-0.4225376042209907 
2.464821085646041 
-0.4225376042209907 
-2.177896950525143 
1.817605447926302 
-0.2618580082775622 
-0.6661907695395405 
-0.1742645542877987 
1.344764613757484 
-2.71155555128201 
1.518000508457576 
-0.5633036628514849 
-0.5633036628514849 
0.7590201710549995 
-0.5633036628514849 
-0.07024038557786101 
-0.03512019278893051 
-0.03512019278893051 
-0.2353372679519332 
-0.03512019278893051 
-0.7214808017695234 
-0.7214808017695234 
-0.7214808017695234 
-0.8896178212034656 
-2.747684781984873 
-1.781921938771668 
-1.222193616402137 
-0.261978823790644 
-0.261978823790644 
-1.241513182513834 
-1.142548166033839 
-1.142548166033839 
-0.4964970160185679 
-0.2236867873226332 
-0.9277931624458926 
-1.984398512498666 
-0.4964970160185679 
-0.1149322599294607 
-0.7894701389096425 
-0.7894701389096425 
-0.7894701389096425 
1.432209970867332 
-0.8141390565323577 
0.154798026780426 
0.1904927157685362 
-0.695555727810593 
-0.7901331364149649 
-1.345315344966662 
2.546435101097374 
1.434001648296533 
-0.7901331364149649 
-0.7901331364149649 
-1.440612644307978 
-2.130456283011581 
-0.5809647809327094 
-0.3654662797114937 
-1.2079397382358 
-0.4425158035105967 
-0.4425158035105967 
-1.094545307335803 
-1.094545307335803 
-0.302132233987002 
-0.302132233987002 
-0.302132233987002 
-1.152039323038454 
-2.035156138437012 
-0.8129050039150331 
-0.8129050039150331 
-0.8129050039150331 
0.01121497890647139 
-0.8129050039150331 
-2.004853574013449 
-0.3548558185666702 
-1.209523401082429 
-0.3548558185666702 
0.5115348309447031 
-0.1015125720087734 
-0.1015125720087734 
-1.045883809293948 
-0.2808967635405709 
-0.2808967635405709 
-0.2808967635405709 
-0.2808967635405709 
-0.2808967635405709 
0.7474925700875257 
-3.344626387164982 
1.028879407190603 
0.8749402229738598 
2.207194784797749 
-0.4470771056479716 
-0.4470771056479716 
-0.4470771056479716 
-2.518065427058958 
-0.4470771056479716 
-1.074001726363752 
-1.074001726363752 
-1.074001726363752 
-0.4144936064384894 
-0.7509076356755798 
-0.1296992248435004 
-1.627282367086999 
1.421345187443097 
-0.6879926472795178 
-0.1132005817984375 
1.136099723423158 
0 
-0.1470461655289054 
-0.455287897766575 
-0.455287897766575 
-0.455287897766575 
0.965518718718505 
-0.455287897766575 
-0.455287897766575 
-2.56896927319887 
-0.7195443483386804 
-0.954080939285087 
0.07829691803256882 
-0.5971082696524334 
-0.122242672233258 
-0.7177062464376768 
2.716373239328616 
1.426348563385226 
1.644484285145102 
0.3306914505039777 
-0.7899057135771002 
-0.5202285140053333 
-0.7743858261085408 
-0.8547520378420411 
-0.4394237774139447 
-0.8547520378420411 
-2.064182309823658 
-0.3897149869627859 
-1.14574592229159 
1.06052184025299 
-1.325216132523327 
0 
0 
-0.8803785565144149 
-0.5454419799399554 
-2.576094465538774 
-0.5487960188987762 
-1.366968828170681 
-0.3445584867162549 
-0.3048747408745103 
-0.3445584867162549 
0.2703105083654631 
-0.8690491298910563 
0.9801293227876486 
-0.367168552345709 
-0.367168552345709 
-2.486913658210089 
0.05832182727146775 
0.1496685960720192 
-0.8677355297603475 
-0.4359436333392693 
-0.4359436333392693 
-0.4359436333392693 
-0.2824953497761081 
-1.035580287187532 
3.367516236388255 
-0.471323715339154 
-0.1089292960562615 
-0.471323715339154 
3.307232513180475 
-0.8459911281043866 
-0.2750105364607242 
-0.5643179097976059 
-1.796263329763729 
-1.941335312576729 
-0.9538678930648288 
-0.8188934440861935 
-0.8188934440861935 
0.6982395405336277 
-0.6661179758317162 
-0.6661179758317162 
-0.9352502730325439 
-0.6661179758317162 
0.004498434763382127 
0.9340480552021151 
0.1042204202010317 
-0.3957385378525004 
-0.3957385378525004 
-0.3957385378525004 
-0.3957385378525004 
-0.3957385378525004 
1.957933840982309 
-0.3957385378525004 
-0.3957385378525004 
-0.3957385378525004 
-0.3957385378525004 
0.7203729663367127 
-0.8929934655795838 
-0.8929934655795838 
-0.4748305294145176 
-0.776289916312712 
-0.7587751816560988 
-1.181875062674862 
-0.1061395570909417 
-0.2893944335791959 
0.8148048188505751 
-0.2893944335791959 
-1.36991027462367 
-1.743104812839627 
0.4236051300455847 
-0.5241062702718935 
-0.5241062702718935 
2.454132279784532 
-0.9217675684526495 
-1.347488955900189 
-0.9217675684526495 
-0.9217675684526495 
0.101119557499921 
-0.3075538086782715 
-0.07684302295488826 
-0.03842151147744413 
-1.141282864866471 
0.7974267388371993 
2.502725880731421 
0.004003997947297237 
-0.5490590180680865 
3.181160232476174 
-1.507169878682296 
-0.9797114725011786 
0.7567264486311953 
2.132874660926519 
-1.187547522818922 
-0.2153889929864624 
1.910800027642013 
-0.9808859532138992 
0.1902155368404211 
0.519288516586604 
-0.5940060216618434 
-0.5940060216618434 
-2.920846751491208 
-0.4725398902406626 
-1.836803812776451 
-2.873007955104439 
-2.217305683175192 
-0.9622364404483869 
-1.457307736539933 
0.3615044462966368 
-0.3533530592467971 
-2.337971508361901 
1.277943360951959 
-0.7162130477111235 
-0.5201401507173536 
-0.6606101144345941 
-1.213285225069954 
0.5248913812696426 
-0.330305057217297 
-0.330305057217297 
-0.330305057217297 
-0.330305057217297 
-0.330305057217297 
-0.2231382613481078 
0.05973663517408684 
-0.2231382613481078 
-0.2231382613481078 
-0.2231382613481078 
-0.2231382613481078 
-0.5054637421355999 
2.342623948523593 
-0.5054637421355999 
-0.5054637421355999 
-1.253230148364442 
-0.5054637421355999 
-1.454131512304446 
-0.8621332368386425 
0.7390828109172712 
0.07195142264479415 
1.646237789866726 
-0.5784035526340644 
-1.461983430947342 
-3.620951048809691 
-0.6131882674384017 
-0.6131882674384017 
-0.2680999548112687 
-0.2680999548112687 
-0.2680999548112687 
-0.8449490110600004 
-0.2909098518470311 
-0.1918424507098527 
0 
0 
0 
-0.4808286777318824 
-0.2778277876515082 
-0.2778277876515082 
2.779963333384611 
0.5128072698117818 
-0.4466099416562109 
-0.4358049350333748 
0.1460552524860269 
-0.1898287544722151 
-0.1898287544722151 
-0.7192209101747604 
-0.2132049273102141 
0.6291196342382646 
0.3916661387207733 
-0.4610686804116136 
-0.4610686804116136 
-0.4610686804116136 
0.8400587753951712 
1.00255879737257 
-0.7193277120308487 
-0.7193277120308487 
-0.1968714247273492 
-0.1968714247273492 
-0.3719675579603941 
-0.1968714247273492 
-0.1968714247273492 
-1.168580609305131 
-0.1968714247273492 
3.555741964927273 
-1.828123358835804 
-1.411153179121975 
-0.1343040592443357 
-0.0148732047443431 
-0.3601499238049041 
-0.09210843641572668 
-0.1093055622246543 
-0.1093055622246543 
-0.5299623091218919 
-0.1093055622246543 
-0.1093055622246543 
-0.6646366132629649 
-0.2589211461557795 
-0.2589211461557795 
1.613427508165531 
0.3325576212101188 
-0.1563215432723531 
-1.256777399496273 
0.59985871901017 
1.27513020545083 
-0.3273879314163926 
-0.1712137541434265 
-0.1712137541434265 
-0.1712137541434265 
-0.9056993061780712 
-1.112087079303577 
0.5941319994290931 
-0.5631534117812254 
0 
0 
0.3139935917745934 
1.790074090911006 
-0.7763371593180816 
-1.434789230963617 
-0.6590291621895263 
-2.075097949673898 
1.581410903280374 
-0.6590291621895263 
4.943324013665242 
-0.6590291621895263 
-2.234655042417881 
-0.7464191322908302 
-0.3732095661454151 
-1.048788156132943 
-0.3732095661454151 
-0.7377764329714063 
0.5192591160963693 
-0.3732095661454151 
-0.3732095661454151 
-0.3732095661454151 
-0.3732095661454151 
-0.9314744465450392 
1.154139328494812 
-0.4612725185745528 
-0.9225450371491031 
-0.4995878647461274 
-0.4612725185745528 
-0.4612725185745528 
-1.167016827534728 
-2.494985134513338 
-0.4864158050360041 
-0.4864158050360041 
-0.4864158050360041 
-0.4864158050360041 
-0.4864158050360041 
3.670446003965887 
-0.4864158050360041 
0.3328885263625315 
-0.4864158050360041 
-0.4864158050360041 
-0.4864158050360041 
0.3147438031437664 
-0.4864158050360041 
1.109979029066064 
-0.2376495697034965 
-1.039930451896955 
-1.879594752643154 
-1.190889969301621 
-0.2192064656633123 
-0.2631078899338592 
-0.5476057025315848 
-0.5476057025315848 
-0.5476057025315848 
-0.5476057025315848 
1.280232391193688 
-1.915854603677041 
-0.7359799869414817 
-0.6151583936926535 
2.872065254396401 
-0.07768248509590883 
-1.581142257375834 
-0.2568348979659045 
-0.2568348979659045 
-0.2568348979659045 
-0.2568348979659045 
-1.29848875563899 
-0.2568348979659045 
0.4344234771379737 
-0.2568348979659045 
-0.2325301614042192 
-0.4650603228084378 
-0.2325301614042192 
-0.2325301614042192 
-0.2325301614042192 
-0.8891786934242339 
-1.456296780251243 
-0.3971091855062912 
-1.375747550056541 
-0.3971091855062912 
0.1973761193544588 
-0.3971091855062912 
-1.565543809048064 
-0.4578908876439654 
-0.4578908876439654 
0.7527992263689743 
-1.313258917990045 
-0.2054251940198749 
-0.2054251940198749 
-0.2054251940198749 
-0.2054251940198749 
-0.2054251940198749 
-0.2054251940198749 
-0.006130067031550409 
-0.06456834275002361 
-0.2961065005947537 
-0.2961065005947537 
0.6594510689277293 
-0.2961065005947537 
-0.2961065005947537 
-0.2961065005947537 
1.148148616954906 
-0.2961065005947537 
-0.2961065005947537 
-0.1260723955696479 
-0.2961065005947537 
-2.307526415981052 
-0.05979559717227269 
-0.05979559717227269 
-0.05979559717227269 
0.1612275806001716 
-0.106883458106058 
-0.8791309513172455 
1.171795266158272 
-0.3628599884643264 
-0.7456680982081995 
-0.7257199769286538 
-1.594153403921013 
-0.6882647576494032 
-0.3628599884643264 
-0.525413031929692 
-0.255027586255685 
-0.255027586255685 
0.7707669587989584 
0.6436267702039046 
-1.399135304531387 
-0.5725313800151699 
-0.2079645131891785 
-0.2079645131891785 
-0.2079645131891785 
-0.282054539648766 
-1.069852664577046 
-0.282054539648766 
-0.6007491617928956 
-0.282054539648766 
-0.410706515409497 
-0.410706515409497 
-0.3047715111402343 
1.750768751330036 
-0.410706515409497 
-0.410706515409497 
-1.018095629422531 
-1.018095629422531 
-1.018095629422531 
-1.689802987157648 
-0.01472020018007359 
0.4840971210163022 
-0.5958099726400994 
0.7365880742758044 
-0.3795962713878732 
-0.5520811360018207 
2.418150304261715 
-0.5520811360018207 
-0.5520811360018207 
-1.1126083874857 
-0.5520811360018207 
-0.4319655862687565 
-1.612955843793994 
-0.02473412121486151 
-0.03393736048148401 
-1.275607179682043 
-0.418518783376137 
1.082968507836294 
-1.214145446842503 
-1.30915764930696 
-0.6893861859020901 
-0.5277794760280508 
1.526482784220459 
-1.155972617280205 
-0.2294480770075356 
-0.2294480770075356 
-0.4883686204809635 
-0.4883686204809635 
-0.4883686204809635 
-0.906209298606849 
-0.4883686204809635 
-0.4883686204809635 
-0.4883686204809635 
-0.1448544582216894 
-0.1448544582216894 
-0.1448544582216894 
-0.1448544582216894 
-0.1448544582216894 
0.7921366759466266 
0.4539957293692405 
0.3655998051956005 
-1.047723508612291 
-1.047723508612291 
-1.047723508612291 
-1.047723508612291 
-0.226616250400121 
-1.047723508612291 
-0.6411415402483158 
-1.358852939733471 
-1.358852939733471 
-1.382500016261729 
-1.382500016261729 
-0.0009928718987729053 
-1.304455447134404 
-0.1797974803134125 
0.001493813046810805 
-0.3087491014374621 
-0.0409527026211829 
-0.3087491014374621 
0.004106844220295973 
0.2210872721262732 
-0.3087491014374621 
-0.9284722616920839 
-0.3087491014374621 
-0.3087491014374621 
-0.6376448673855262 
-0.6376448673855262 
-0.6376448673855262 
-0.6376448673855262 
-0.6376448673855262 
-1.687453655100784 
-0.3705467132981806 
-1.111640139894542 
-0.3705467132981806 
-0.8185226762961653 
-0.8216744109240725 
-1.893048996842812 
-0.3746633980574739 
-0.6679809965372921 
-0.05591812654204388 
2.798572851429842 
-0.757009848827388 
-0.757009848827388 
-1.464070983996273 
-0.4952291586217357 
1.226368979675826 
-0.4952291586217357 
-0.4952291586217357 
-0.6408000762746267 
-0.08874329260669557 
-0.6408000762746267 
-0.4112435307500616 
-0.6408000762746267 
-0.5823254364814167 
-0.5014051677786674 
-0.5014051677786674 
-0.5014051677786674 
-0.7808011220363911 
-0.3404934058722122 
-0.382152306538613 
-0.3404934058722122 
-1.575086593651332 
-0.9876796412022539 
1.82801122733478 
-0.4248192132331092 
-0.4248192132331092 
-0.587337289702196 
-0.587337289702196 
-2.095751785461569 
-0.2653466603940228 
-0.2653466603940228 
-0.2653466603940228 
-0.2653466603940228 
-0.2653466603940228 
0.4962000628107621 
-0.2653466603940228 
0.2203750750895294 
-0.2653466603940228 
-0.2653466603940228 
-0.2954794004451939 
0.06751854276269288 
0.1973046579851242 
-0.6339804234785796 
1.224886903711054 
-0.2154304723676854 
-0.1992292685543744 
0.5476640855396093 
-0.6339804234785796 
0.6386038747589853 
-0.5209373095027443 
0.6075139488447052 
-0.4547803908798738 
-0.4547803908798738 
-0.4547803908798738 
-1.335759211377004 
-0.4547803908798738 
-0.8918304163616489 
-0.8918304163616489 
-0.8918304163616489 
-0.7593576842033282 
-0.1151614045385489 
-0.1151614045385489 
-0.1151614045385489 
0.8807070426247491 
-0.8952422233077904 
-0.4608621631056087 
-1.292857112059882 
-0.8952422233077904 
-0.400656312450967 
-0.400656312450967 
1.363756836095422 
-0.8717731431132979 
-0.1340732955706045 
-1.199596158416506 
-0.2728564166404114 
-0.5805316706072331 
-0.4258417002072483 
-0.5805316706072331 
0.4703965266495162 
-0.3072076413857938 
-0.3072076413857938 
-0.3072076413857938 
-0.3072076413857938 
-0.3072076413857938 
0.1243033385795754 
-0.3002276236987042 
0.181306702740243 
2.668848686897836 
-0.6888927845140206 
-0.6888927845140206 
-0.4080048930275597 
-0.4080048930275597 
-0.4080048930275597 
-0.4080048930275597 
-0.4080048930275597 
-0.4080048930275597 
-0.4080048930275597 
2.806643027568869 
-0.5012628270779325 
-0.5012628270779325 
0.3761244997776989 
-0.5012628270779325 
-0.5386374083997091 
-0.5386374083997091 
1.182863834700494 
-0.5386374083997091 
-0.5386374083997091 
3.469446951953614e-18 
3.469446951953614e-18 
3.469446951953614e-18 
3.469446951953614e-18 
-0.5700719721876077 
-0.1728709708691543 
-0.5700719721876077 
-0.5700719721876077 
-0.5700719721876077 
-0.5700719721876077 
-0.5700719721876077 
-0.5700719721876077 
-1.018567211834248 
-0.5700719721876077 
-0.5700719721876077 
0.5193550153979503 
-0.8616152509832566 
-0.8616152509832566 
-0.8616152509832566 
-0.4267627946697151 
-0.4267627946697151 
-0.8320716916392893 
-0.4267627946697151 
-3.432395446491527 
-0.6160556337699085 
-0.6160556337699085 
-0.3617937948455135 
0.1046101675663962 
2.096976237177746 
-0.4837842219880463 
-0.4837842219880463 
0 
0 
-0.9156049078725951 
-0.9156049078725951 
0.1772461029487632 
-1.361888097016258 
0.5789034698984985 
-0.857129883761919 
-0.8798122969783141 
-0.8798122969783141 
-0.3182079425115447 
-0.8798122969783141 
0.6704677240105128 
1.102097238903184 
-0.3240480236359555 
-0.3240480236359555 
-3.344907282793657 
0.2322887241554553 
-0.2680414873891776 
0.7291584215994495 
-0.2680414873891776 
0.4149640610566894 
-0.6385293465522053 
-0.3461008519042065 
-0.3461008519042065 
-0.3461008519042065 
-0.5560502785008794 
-0.6355683653183863 
-0.3461008519042065 
-0.7477771620825964 
-0.7477771620825964 
0.8620761085782359 
-0.7187106803133776 
0.1341770421645556 
-0.7187106803133776 
-0.7187106803133776 
-1.949002784161308 
-0.7714056076947512 
-0.7714056076947512 
-1.642487126044013 
0 
0 
-0.4779653389257379 
-0.4779653389257379 
-0.2179347884505252 
0.8791733932379605 
1.010890127347098 
-0.4779653389257379 
-0.4779653389257379 
0.07796315995972378 
-0.3031801397789297 
-0.3031801397789297 
-0.3031801397789297 
-0.3031801397789297 
-0.3031801397789297 
-0.09461955779919107 
-0.3031801397789297 
0.4947594481260896 
-0.3031801397789297 
-0.5170212327674439 
-0.5170212327674439 
-1.059596138712374 
-1.123531705700307 
-0.5170212327674439 
-2.50115152992799 
-0.9576333048040251 
0.3374233751948945 
-0.9576333048040251 
-0.9576333048040251 
-0.8304027988526014 
-0.8304027988526014 
0.86680401328664 
-0.05125409284193484 
-0.8304027988526014 
-0.4490923465293036 
-0.4490923465293036 
-0.2022469795805307 
-0.8012075455584645 
-0.8012075455584645 
1.451040763877512 
-0.2537578938267126 
-0.2537578938267126 
-1.059390397598013 
1.965887744594465 
-0.2334950184271409 
-0.1837228140318969 
0.00442531262102798 
1.712608394864428 
0.4809646612105576 
-1.594417593995018 
-0.01167120612371687 
-0.2233181677078451 
-0.6054040509691413 
0.862016382053966 
-1.362196523058424 
2.568879975235189 
0.1993225040534999 
-1.024436010014406 
-2.697937760867938 
0.04983317755202252 
-0.7480080888192276 
-0.3098470516408003 
-0.01961010151043869 
1.432306576273305 
-0.3107258557748813 
-0.3107258557748813 
-0.9688098303371074 
-0.3107258557748813 
-2.054582088693477 
-0.5114302497713445 
-0.5114302497713445 
-0.4340739815795933 
-0.4340739815795933 
-0.9327475009839238 
-0.4340739815795933 
-0.9243639986809069 
-0.7179071398959566 
-0.8202116216608385 
-0.3594607661786048 
0.1400904698080484 
-0.3594607661786048 
-0.5914801583600627 
-0.5914801583600627 
1.343030558983612 
-0.5965848222681037 
-0.1387010484483253 
-0.8621318298938688 
-0.3207995020634481 
-1.537401602605276 
-0.5118937746329428 
-0.5941792142244583 
-1.445872258234431 
-0.5941792142244583 
-1.110297476170697 
-0.5941792142244583 
-0.5941792142244583 
-0.5790531764048769 
-0.5941792142244583 
-0.7705631437836861 
-0.7705631437836861 
-1.061574501222819 
1.434819503144857 
-0.51014525813094 
-0.6255949097340857 
-2.297250630125309 
-0.4480688040020077 
-0.9791500659823663 
-0.4480688040020077 
-0.8315715669354883 
-0.7447030342203745 
0.188266384236827 
-0.7447030342203745 
-0.7447030342203745 
-0.7447030342203745 
-1.444169092430635 
-0.327226085331972 
0.3620888721906006 
-0.7627374463871437 
-0.327226085331972 
0.4838277670258579 
-1.121852386743988 
-0.1894478828719346 
-1.576161094821348 
-0.9369516248845035 
-2.447765036053323 
-0.9707128139471207 
-0.8695923752838217 
0.7234003212156287 
0.2390317147954014 
0.07097934367235013 
-0.6672518707381915 
-0.4645660224921656 
-0.8469141136765815 
-0.4645660224921656 
-0.4645660224921656 
-0.5611706995789564 
3.94578428504573 
-1.065021937570427 
1.047822911551953 
-1.657310213611996 
-1.065021937570427 
0.4727273111771629 
-0.6568769234679767 
0.7627020915933168 
-0.6568769234679767 
-1.319597434926024 
-0.6568769234679767 
-0.6568769234679767 
-0.7553244839187137 
-0.5227219026770444 
-0.7553244839187137 
-0.6585052476934022 
-0.6434698998558855 
-0.6767328907702546 
-0.6434698998558855 
-0.6148465691243925 
-0.6721206416799645 
-0.6721206416799645 
-0.6721206416799645 
-0.4320091398068999 
-0.3187584150146023 
-0.3187584150146023 
-0.3187584150146023 
0.8877295460127576 
-0.3187584150146023 
-0.3187584150146023 
-0.5826213303191752 
-0.3187584150146023 
0.4112382180270931 
-0.3187584150146023 
1.296417091062673 
0.4315487992982824 
-0.4532265716893374 
-0.4532265716893374 
-0.4532265716893374 
-0.4532265716893374 
-0.4532265716893374 
-0.4532265716893374 
-0.4532265716893374 
-0.7062727765134342 
-1.253405756340024 
-0.7062727765134342 
-0.7062727765134342 
-0.7062727765134342 
-0.7062727765134342 
0.6972691380214732 
-0.7062727765134342 
-0.8981880418992316 
-0.6520533385938565 
-0.6520533385938565 
-0.4019249755330538 
0.931395691045353 
-0.4019249755330538 
-0.6030668739546582 
-0.7343444707284165 
-0.7343444707284165 
0.8246562523582561 
-0.6383376499991866 
-0.1868295158875257 
-0.4123154238341512 
-0.5237412070312782 
-0.5237412070312782 
-0.9859057036226305 
-1.452993726958205 
-0.4733419411712599 
-0.8365110380834326 
-0.4733419411712599 
-0.4733419411712599 
-0.4733419411712599 
-0.4733419411712599 
-0.4733419411712599 
-1.313593708695319 
-0.7713856809757823 
-1.313593708695319 
-0.4827889344126032 
-0.8787532626771892 
-0.8787532626771892 
-0.5781956748822474 
0.03993222238818134 
-0.9438836413300801 
-0.3424841705570512 
-0.8446812843200361 
-0.2942442693232629 
0.5780805901614825 
2.616558072467165 
-0.3219862279001062 
-0.5625132646156198 
-0.838941185810799 
1.387260809555302 
-0.1129393864674218 
-0.1129393864674218 
-0.1129393864674218 
-0.1129393864674218 
-0.1129393864674218 
-1.467356513256653 
-1.432536162373653 
-1.432536162373653 
-0.7645884417124601 
-0.2147361311727874 
-0.2147361311727874 
-0.2147361311727874 
-0.2147361311727874 
-0.2147361311727874 
-0.3416082194765277 
-0.207438853607129 
0.06290610279222307 
-0.4290555612255591 
-0.4290555612255591 
-0.6363639185602724 
-0.4290555612255591 
1.122998194337675 
-0.2895971435272124 
0.6436764076740976 
-0.2895971435272124 
0.7746931886776961 
-0.5550940730649717 
-1.573981528536381 
0.5808638244930092 
-0.07789890863243859 
-0.07789890863243859 
-0.7431294325549579 
-1.13141608074807 
0.2238811681112729 
-0.4521062264645185 
-0.4521062264645185 
-0.6459434420907488 
-0.08662732062786094 
-0.6459434420907488 
-0.6459434420907488 
-0.6459434420907488 
0.3835241982772232 
-0.8793238861094603 
-0.5853415352975105 
-0.5939928423585569 
-0.08115707027113697 
-0.2120054417478728 
-0.2120054417478728 
-0.2120054417478728 
-0.2120054417478728 
-1.870620124591892 
-0.6520517601460917 
-2.108783136487463 
-0.4992140210479376 
-0.4992140210479376 
0.3113168135119466 
-1.750540480598463 
-1.750540480598463 
-0.4505084424468427 
0.183072827348423 
-0.4986735194043304 
-0.975048081939392 
-0.4986735194043304 
1.449983218421537 
0.6388453886193188 
-0.4010311315362127 
-0.4428637395758295 
-1.351932364628421 
-0.902903030814571 
-0.9810225926781101 
-2.334011519099232 
-0.6543046944529221 
-1.976781865201616 
1.466934922906223 
-0.3304343016950476 
-0.3304343016950476 
-0.3304343016950476 
3.294987893204788 
3.775524718942629 
-1.146875757721646 
-1.146875757721646 
-0.3301785024201145 
0.1621210425458023 
-0.3301785024201145 
-0.3645668668259911 
-2.081181353842004 
-0.3645668668259911 
-0.3645668668259911 
-0.3645668668259911 
-1.155056390527962 
-0.3645668668259911 
-0.3645668668259911 
-0.3645668668259911 
-0.3645668668259911 
-0.5773144376570022 
-0.5773144376570022 
-1.427762373082168 
-0.8947432180751254 
-1.723835252381651 
-0.7354782457215844 
-1.374251905976464 
-1.374251905976464 
-1.374251905976464 
-1.730212643171918 
0.9822662341507982 
0.2284641652426334 
1.779492977916915 
0.5883884872051722 
-1.290677822797082 
-0.6162163114441352 
-0.6162163114441352 
-0.6162163114441352 
-0.2099494265966728 
-1.448663768291645 
-1.448663768291645 
-0.3967459160737471 
-0.7994178384165751 
-0.5010955578714761 
-0.5734498517199519 
-0.5010955578714761 
-0.5010955578714761 
-1.062056042676372 
0.2331148964762676 
-1.725965806698455 
-0.1018606462474243 
0.7156276153436648 
-0.4994881518363633 
-0.2919830041608657 
-0.2919830041608657 
-0.08892237934665577 
-0.1128671614115599 
-1.548852315898644 
2.53898766229767 
-0.8777255443796657 
0.1471119465689777 
-0.00277512579471613 
-2.015020804232621 
-0.5875917439624555 
-0.9941205720754113 
1.128106192414743 
-0.5875917439624555 
-0.1299126098858438 
0.2672883914326095 
-0.1299126098858438 
-0.3845797636078909 
-0.3845797636078909 
-0.3845797636078909 
-0.3845797636078909 
-0.3845797636078909 
-0.3845797636078909 
-0.3845797636078909 
-0.3845797636078909 
0.9503165635110262 
0.6412147814467528 
-0.3845797636078909 
-0.3845797636078909 
-0.3845797636078909 
-0.2704992354145337 
-0.1432202911725357 
-0.615246950643461 
-0.3318922134540066 
-0.7909746764752222 
-0.2091144889558204 
-0.7909746764752222 
-0.5632171419917787 
-0.4239805009618258 
0.090985771082379 
-1.037498259582518 
-0.5782173579025101 
-0.5782173579025101 
-0.5782173579025101 
-0.5782173579025101 
-0.5782173579025101 
-0.4072332252794935 
-2.356513802970272 
-0.7364081401837193 
-0.3020076178256039 
-0.3020076178256039 
-0.3020076178256039 
-0.3977814126924079 
-1.142839973766799 
-0.3977814126924079 
-0.6091302675668029 
-0.1471200599886707 
-0.3621509918598188 
-0.3621509918598188 
0.4158028701486599 
-0.3621509918598188 
0.4003179745132692 
-0.3621509918598188 
-0.8529251200374491 
0.08443274284075475 
0.1639834718783152 
-0.4454935845506267 
0.4997799018702109 
4.657733506307451 
0.88346522830409 
-0.6970990766435646 
-0.7262499834598024 
-1.442581064838398 
-1.349409227506617 
0.5349448690024734 
-2.258025970327515 
0.9118726239542119 
0.1735914974445682 
-0.02065768623616577 
-0.7187876751411055 
-0.9800249971377288 
2.357288737422597 
-0.2847024168025682 
-1.645166940791162 
-0.1831058285537344 
-0.2387215008527457 
-1.21577476462457 
-0.2387215008527457 
-0.4394366811745936 
-0.2387215008527457 
-1.116660133684046 
-0.5894512818042652 
-1.169978680376713 
-0.5074233627478422 
-0.3308940057113669 
-0.5074233627478422 
-2.831635318088754 
-0.1168072963827789 
-0.8876237566051512 
-2.045040968218071 
-0.4950538976177133 
-0.1734480286008187 
-1.139843911887038 
-0.4638578783234444 
0.3373017298563261 
-0.4638578783234444 
-0.4638578783234444 
-0.4638578783234444 
0.3212280600433983 
0.6076907488667207 
-0.4638578783234444 
-0.4638578783234444 
-0.4638578783234444 
-0.5382240374771534 
-0.5382240374771534 
-1.630961343858013 
-0.1954395781992016 
2.63742262963645 
1.285162179609874 
-0.1954395781992016 
0.3723195166737948 
-2.208003034464608 
0 
-0.02652255352805943 
0 
-0.4622366830738909 
-0.4622366830738909 
-0.2372078257928207 
-0.2372078257928207 
-0.2372078257928207 
-0.2372078257928207 
-0.2372078257928207 
-0.6568489705613231 
-0.6568489705613231 
-0.6568489705613231 
-0.6568489705613231 
-0.6346023935707048 
0.08780071396654557 
-0.03660823755250642 
-0.461139199830786 
-0.461139199830786 
-0.1610741598348287 
-0.6474617750063504 
-0.6474617750063504 
-0.682975213686184 
-0.480079566696056 
-1.052404695807623 
-0.6127138554777276 
-0.3063569277388641 
-0.3063569277388641 
-0.3063569277388641 
-1.132260244745058 
-1.132260244745058 
-1.132260244745058 
-1.132260244745058 
-0.4673125845774413 
-0.3118678458678945 
-1.176194806298064 
-1.563256901009709 
-1.187769712323782 
0 
-0.2901885154510424 
-0.986726689837861 
-0.986726689837861 
-0.986726689837861 
-1.282587705999394 
-1.088008681672989 
-0.2565920555313952 
-0.1838115468674004 
-0.2565920555313952 
-0.789623590723496 
0.6886514898518248 
-0.9945037222669338 
-0.3702993366181605 
-0.3702993366181605 
-1.546231995629992 
-0.4961724611863174 
-0.1762514932237449 
-1.121987193696076 
0.02941523560044987 
-0.9971307653170934 
0.4589747340190779 
-1.316194770021224 
-0.6764387191591315 
-0.6764387191591315 
-0.6764387191591315 
0.9857140344464826 
-0.4814950687269108 
-0.4814950687269108 
0.1746819249334587 
-0.4634790882193197 
-0.4648498048591347 
-0.4634790882193197 
-1.379733988779807 
-0.4433307289515594 
1.791911407592099 
-1.31634116576634 
-1.979234433735748 
0.6413368400880042 
-0.9019090029857579 
0.2622569446412241 
-0.3503713148257347 
-0.3503713148257347 
-1.179084574112856 
-1.179084574112856 
-1.179084574112856 
-1.179084574112856 
-0.5313522402741376 
0.5318469469511193 
-0.6083798186005338 
-0.7935514985959312 
-0.7935514985959312 
-0.7935514985959312 
-0.7935514985959312 
4.356699415480752 
-0.9330072513155433 
0.737253030361724 
-0.4082197119424896 
-1.933665111762084 
-1.219063516953196 
-0.03230038413233544 
-0.1894395766251001 
-0.1894395766251001 
-0.1894395766251001 
0.9605902613953433 
-0.8380791538960879 
-0.6309543397882892 
-0.53854301198104 
-0.53854301198104 
-0.6007144993127252 
-0.53854301198104 
0.03351023240406865 
-0.8146051106946569 
-0.7716357181357988 
-0.495920659289771 
-1.085936465845059 
-0.495920659289771 
-0.495920659289771 
-0.495920659289771 
-0.495920659289771 
-0.759195035188429 
-0.759195035188429 
-0.3210492930166716 
-0.7644159064215181 
0.3768163377154145 
-1.107918054093525 
-1.23006945239059 
-0.003435498117867779 
-0.07493369495821924 
-2.336081704573514 
-0.8228766064643401 
-0.8228766064643401 
-0.5587919085154469 
-0.2793959542577235 
-1.057602072966368 
-0.2793959542577235 
-0.4924364731527989 
-0.4924364731527989 
1.331898787269394 
-0.4924364731527989 
-0.4924364731527989 
-0.4924364731527989 
-0.1604040902321842 
-0.1604534638181021 
-1.193433570480355 
-0.5832070782720534 
-0.5832070782720534 
-0.5832070782720534 
-0.5832070782720534 
-0.897383471908599 
0.3917400217368152 
-0.4034866237405242 
-0.4034866237405242 
-1.25927036814494 
-0.4717434387361159 
-0.4717434387361159 
-0.5799120275605589 
-0.5799120275605589 
-0.5799120275605589 
-0.5799120275605589 
-0.5799120275605589 
-0.2592419011431228 
-0.5799120275605589 
-0.1916044422896983 
-0.3832088845793966 
-0.1916044422896983 
0.04968625859883269 
0.6121328585965747 
-0.4510663286286821 
0.8149272376943344 
-0.766593927975885 
-0.6172077148453512 
-0.4490307005262503 
0 
-0.5499167425418087 
-0.6663850158185819 
-2.081668171172169e-17 
-1.186842344904441 
-0.909068625052591 
-0.7952878194885036 
-0.3976439097442518 
0 
-0.220796367318844 
0 
0 
0 
-0.6503556365594851 
-0.6503556365594851 
-1.140273991767241 
-1.140273991767241 
0.5985273069983775 
1.205074193684852 
1.195107471506387 
-0.446067377938717 
-0.3309495984826158 
0.4062645968596919 
-0.6159346439736113 
-0.7263631350647879 
-0.07461679682737743 
2.211808261082475 
-0.3631815675323939 
-1.732284013937095 
-0.5968591602662299 
-0.7093587000777393 
-0.7093587000777393 
-0.7093587000777393 
3.395823395698662 
0.01699922590552335 
-0.7093587000777393 
-0.3581828531820148 
1.079300924291008 
-0.3844173237694259 
-0.3844173237694259 
-0.3844173237694259 
-0.7688346475388519 
-0.3844173237694259 
-0.3844173237694259 
-0.1799125688288877 
-0.3844173237694259 
0.2882942748500766 
1.060810326923422 
-1.781524371031518 
-0.6911985719481357 
-0.3455992859740679 
-0.5987354718426177 
-0.671762269456269 
-0.2132301730642905 
-1.288297409886015 
-0.6441487049430066 
-0.6441487049430066 
-0.6441487049430066 
1.937716395133049 
-0.7909714888777034 
-1.427011753059714 
-0.9740803300718697 
-0.4311907512520377 
0.3110709169245209 
-0.4960524771951536 
-0.2480262385975768 
-0.2480262385975768 
-0.2480262385975768 
-1.513821859364823 
-0.2414529704614363 
-0.9647341313296813 
-2.523145486683773 
-0.4448626150120426 
-0.4448626150120426 
-0.1550856100935521 
-0.4982861322587253 
-0.6978626320859138 
-0.1221255593894049 
-0.6978626320859138 
-1.807106333054498 
-0.8963942388512441 
0.03186932010787916 
-1.66854208270492 
-1.66854208270492 
-0.5413746078905155 
-0.324951641784737 
-0.9991990559024636 
-0.9991990559024636 
-0.6828052992383898 
-0.86844421422074 
-0.3759197681105394 
-0.460595072119217 
-0.460595072119217 
0.2431005596674612 
-1.528222255440598 
-1.265315172541676 
0.9951927194499424 
-0.2094882173341684 
-0.5448442626252159 
-0.5448442626252159 
-1.136924704779843 
-1.136924704779843 
-0.2291842687485135 
-0.8878496419400987 
-1.066935051165968 
-0.6652305239225191 
-0.03001908143032164 
-0.6652305239225191 
-0.673501805896968 
0.007386927512527732 
-0.6652305239225191 
-0.8259209244329414 
-0.9936156294206626 
-0.9936156294206626 
-0.6855154865531956 
-0.7912690204869935 
-0.5132991702966043 
3.140568695031924 
-0.7912690204869935 
-0.8153279238097636 
-0.1911765713099201 
-0.09028406513866127 
-1.673664475872706 
0 
-0.6226303283375531 
-0.2854421889496126 
0.3689059299014425 
3.555066260636289 
-0.5311823560865513 
-0.5311823560865513 
-0.2973842323062463 
-0.5311823560865513 
-0.4760452059974745 
-0.4760452059974745 
2.763514041559922 
-0.7369965191282982 
-0.5874211207104778 
-0.5874211207104778 
-1.457250874129768 
-0.3377571947759346 
-0.3682090758075358 
-0.3682090758075358 
-0.08053920893866197 
-0.3682090758075358 
-0.3682090758075358 
0.8367689037730955 
-0.4603316386816253 
0.2639998961676472 
-0.4075446680073058 
-0.4075446680073058 
0.09041745897240953 
-1.024781340939527 
-1.024781340939527 
0.06057564323992965 
-0.2280045083888403 
-1.157575489450928 
0.1288442319649164 
2.06540528455723 
-0.5787877447254657 
0.1705457304988257 
-0.5787877447254657 
-0.5787877447254657 
1.547067791863888 
-0.05446477667763856 
0.8915011026828815 
-0.4202833681528177 
-0.4245511961813847 
-0.340107858092484 
-0.340107858092484 
-1.097406762154716 
-1.023672981371638 
-0.340107858092484 
-0.340107858092484 
0.7597443097942292 
-0.340107858092484 
-0.340107858092484 
-0.4137051759219015 
-0.4137051759219015 
-0.4137051759219015 
-0.4137051759219015 
-0.4137051759219015 
0.5956921214055926 
-1.556343918299243 
-1.556343918299243 
-0.4445773083943478 
-0.4445773083943478 
0.18882142944881 
-0.5170384623155195 
-1.039310837129651 
-0.2315086824065034 
0.7663582573890223 
-0.2315086824065034 
0.4124378315060531 
-0.2315086824065034 
-0.3207388394488265 
0.4108356405586948 
-0.4987522973381302 
-0.881560407082003 
-0.4975376157037513 
-1.503857430935541 
-0.9310252548165836 
-0.1641968889515153 
-0.1641968889515153 
-0.1641968889515153 
-0.2333936909011426 
-2.138191518221576 
-0.2333936909011426 
1.89217636721622 
-0.2257551782712872 
-0.4918764522289641 
-0.8967836614860349 
-1.163009841669108 
-0.91169193754988 
-0.3244469777921811 
0.008276483508152582 
0.2300967256709881 
-0.6489184295873226 
-0.3543167841840145 
-0.6627205114580483 
-0.4117268199419616 
-0.4117268199419616 
-0.2341794940679065 
-0.4117268199419616 
-0.9715870009505997 
-0.1792990969799695 
-0.9715870009505997 
-0.9715870009505997 
-0.5675370050032172 
-0.5675370050032172 
-1.494192849525808 
0.5712954777359991 
-0.1817916416302334 
-0.1817916416302334 
-0.531653490718766 
-0.921440787059931 
-0.674461511352947 
0.2436210732662118 
-0.674461511352947 
-0.674461511352947 
-0.674461511352947 
-0.5989169060225238 
-0.5989169060225238 
-0.5989169060225238 
-1.2487714837472 
-1.178021067599589 
-1.423032077486811 
-0.4655650939887344 
-0.3543424383206478 
-1.126529160404466 
-0.3543424383206478 
1.641443744900702 
-0.5465850869173468 
-0.2043059130443052 
-0.2043059130443052 
-0.05846663768992913 
-0.05846663768992913 
-0.5768642447026129 
-0.5768642447026129 
-0.6754534522370328 
1.246964418715246 
-1.049294296021599 
1.868974613107831 
-0.2591069274252874 
-0.8700456550484229 
-0.2798118186557152 
0.1936582764697752 
-0.6134367235647893 
-0.004000132676286968 
0.3542566753376312 
-0.6349840525152997 
-0.3517352395933004 
-3.21591190172157 
-0.4671010913381721 
-0.6349840525152997 
-0.04243638360769923 
-0.01568052769372606 
-0.01568052769372606 
-0.01568052769372606 
-0.01568052769372606 
-0.5592615297513253 
-0.5592615297513253 
-0.6386325621124362 
-0.9477995217651162 
-0.4851633242413686 
-0.4851633242413686 
-0.07851360047781758 
-0.07851360047781758 
-0.4990068222585745 
-1.29746493768665 
-0.9753302863202147 
-0.5561752902639434 
1.407993317777835 
-0.5561752902639434 
-0.5561752902639434 
-0.8705656908700615 
-0.8845165606042275 
-0.5912699448633023 
1.417037675247067 
-0.5912699448633023 
-0.5912699448633023 
-0.5912699448633023 
-0.3932743988081936 
-0.3932743988081936 
-0.3932743988081936 
-0.9690317057426991 
-0.1885107846810175 
-0.6269264184697723 
-0.6269264184697723 
-0.5910154895560443 
-0.5910154895560443 
0.3102848252087521 
-0.2342881171636969 
-0.2342881171636969 
-0.2342881171636969 
-0.2342881171636969 
0.2773734843189304 
-0.2592044658200707 
-0.4222659146074519 
-0.4222659146074519 
-1.225074050929632 
-0.8956345407398775 
-0.7280208953939482 
-0.3524096048543971 
-0.9835938325871043 
-0.2290626638526881 
-0.4429273135490061 
-0.4429273135490061 
-1.275711924297145 
-0.9550347329450528 
0.2438509818719426 
-2.750877161685526 
0.09088416580408198 
-0.2140452548625382 
1.826192429586496 
-0.6591135968269182 
-0.1544416743968472 
1.429780592809345 
0 
-1.658327214715864 
-0.4401732817571711 
-0.4401732817571711 
-0.4401732817571711 
-0.4401732817571711 
-0.4401732817571711 
0.09655114399419853 
-0.4401732817571711 
-0.4401732817571711 
-0.4401732817571711 
-0.4401732817571711 
-0.4401732817571711 
-0.5324810316251531 
0.7193519488359307 
-0.4401732817571711 
-0.6449563972928536 
-0.07440390630522112 
0.4400735932293353 
1.954407781839675 
-0.3977751564592748 
1.722243128670025 
-0.3977751564592748 
0 
0 
0 
-0.666401671791679 
-0.666401671791679 
-0.04491734843842917 
-2.350219627431058 
-0.3976148887520919 
-0.2076571317712052 
-0.3976148887520919 
0.236253248462954 
0.3183377657809657 
-0.3976148887520919 
-0.7773141603530246 
-0.7773141603530246 
-0.01158306689273798 
-0.4870771168518988 
-2.018610697943911 
-0.1150206788308454 
-0.5609152314265788 
0.1504456521511585 
0.446083206956872 
-0.2633915156925594 
-0.6797071986295452 
-0.7602879491724035 
-0.5428334427707631 
-1.170271168385918 
-0.6797071986295452 
-0.1971358265906267 
-0.8489385666471115 
-1.697877133294223 
3.765017578443615 
-0.8489385666471115 
0 
-0.4252384527852971 
-2.082070952763659 
-0.3914251071404712 
-0.2216650428464202 
-0.2216650428464202 
-0.2216650428464202 
-0.2216650428464202 
-1.005251896347477 
-0.3604075288047608 
-0.6930224108717703 
-0.6930224108717703 
-0.6930224108717703 
-0.6930224108717703 
0.022930243661287 
-0.6930224108717703 
-0.6930224108717703 
-0.6930224108717703 
0.7918538929177144 
-0.1096588395202082 
-0.1096588395202082 
-0.1096588395202082 
-0.1096588395202082 
-0.3723357877079315 
-0.633334397068046 
-0.6349290388491172 
-0.2807799725763606 
-0.7798001840148482 
-0.7152316302702011 
-0.218602778289152 
-0.7152316302702011 
-0.7152316302702011 
-0.8374033992417371 
-0.8374033992417371 
-0.526996791398084 
-0.1681014589103584 
-0.526996791398084 
-0.04332153106488944 
-0.526996791398084 
-0.526996791398084 
2.041527968525635 
-0.1195657124684078 
-0.9382797724883432 
-0.9382797724883432 
-1.820398089780915 
0.1826106508836627 
1.008462476600876 
-0.693484324903304 
0 
0 
0 
0 
-0.9656009935305642 
0.4714021409281748 
-1.098681741976217 
-0.8923041175682025 
-0.8923041175682025 
-0.8923041175682025 
-0.8923041175682025 
-0.8923041175682025 
0 
-0.6335225438763608 
-0.6335225438763608 
-0.9431030684526148 
-0.6335225438763608 
-0.5701358308663425 
-0.5701358308663425 
-0.5701358308663425 
-0.5701358308663425 
-0.8290143381152909 
-0.4237054411457168 
0.3411804296240514 
-0.4237054411457168 
-0.1757845304587246 
-0.4237054411457168 
-0.4237054411457168 
-0.4237054411457168 
-0.4237054411457168 
-1.557986671655328 
-0.9333456301741926 
-1.62410516045103 
-0.491240574043494 
-1.436271450885555 
-0.6131572134408726 
-0.9450308768420614 
2.26514396275036 
-1.18032977466585 
-1.717288918810935 
-0.6624103366079753 
-0.6624103366079753 
1.922287231987974 
-0.6624103366079753 
-1.543151838922132 
-0.5640603609922171 
0.2819170227474254 
-0.4011431066697902 
0.9398397497066361 
-0.3292527604639122 
-0.6905901712443838 
-0.6905901712443838 
-1.933882438336768 
-1.109497838727121 
-0.7446259069211829 
-0.5357384285009212 
-0.8260022017089169 
-0.872824148603903 
-0.521500684100789 
-0.1345010303554967 
0.9255100543881124 
-0.6132749624135536 
0.06211928545051613 
-0.6132749624135536 
-0.6132749624135536 
-0.5235872763835618 
-0.5235872763835618 
-0.03428284769824102 
-0.6949830494990453 
-0.03854720531761678 
0 
-0.4528643564488989 
-0.4528643564488989 
-0.8590532058722316 
-1.005702723648457 
-1.005702723648457 
-1.005702723648457 
-1.005702723648457 
-0.3764690434142706 
-0.3764690434142706 
0.3013546758666072 
-0.02174687542830607 
-0.5714092269917308 
-0.5714092269917308 
1.8197872908542 
-0.6725618390390905 
-0.584106293569207 
-0.584106293569207 
-0.6875094601882259 
-0.4101049000812073 
-0.9155424998538848 
0.3622698070796113 
2.434496219710622 
3.469446951953614e-18 
3.469446951953614e-18 
3.469446951953614e-18 
-0.2684546115532412 
-0.89663875206653 
-0.3209071993944698 
-1.264839495213412 
-0.8020348750126354 
-0.8020348750126354 
-0.6723909075571837 
-0.3157540409474208 
-0.3157540409474208 
0.09169687410542283 
0.1129777206729172 
-1.457834806731978 
0 
0 
0.5432618033356108 
0.09325870701273872 
-0.5195183753900868 
-0.5195183753900868 
-0.5195183753900868 
-0.3143904006061181 
-0.3143904006061181 
-0.3143904006061181 
-0.3143904006061181 
-1.472140245859322 
-0.3143904006061181 
-0.3143904006061181 
-0.335463513736775 
-0.335463513736775 
1.042672877776451 
-0.6709270274735499 
-0.335463513736775 
0.186895669449864 
-0.004197594174089291 
-0.6736244827950034 
-0.6736244827950034 
-0.4584741742939943 
-0.4475884588198311 
-0.4475884588198311 
-0.4475884588198311 
-0.4475884588198311 
-0.4475884588198311 
0.454152364627749 
-0.829439301173525 
-0.4316492540572505 
-3.755142429001326 
-1.958271075830316 
2.306712520068983 
-0.9800957214136393 
-1.200876102456051 
-1.121973918174761 
-1.121973918174761 
0.02893179938356225 
-0.9271545053218816 
-0.9271545053218816 
-0.467106716234734 
-0.3452085848022037 
-0.3452085848022037 
-0.562509791510629 
-0.3712670176245279 
-0.3712670176245279 
-0.2265014495845947 
-0.1132507247922975 
-0.1132507247922975 
-1.029174280247098 
-1.029174280247098 
-0.5145871401235492 
-0.5145871401235492 
-0.5145871401235492 
-0.1920472317086643 
-0.04443677200547907 
-0.4972608554636029 
-3.68927783190126 
-0.522433603442774 
0.9662344675145852 
-0.5310812619803585 
-0.5310812619803585 
-0.5310812619803585 
-0.5310812619803585 
0.2474602545458622 
0.03346683899782735 
-0.2651005043578896 
-0.2651005043578896 
-0.3196594869314595 
-0.2651005043578896 
-0.7694628900986624 
-2.579508065825279 
-0.2836129682224933 
-0.2836129682224933 
-0.2836129682224933 
-0.2836129682224933 
-0.2836129682224933 
-0.517702443820021 
-0.1697638060706125 
-0.517702443820021 
-0.7716890907571985 
0.6578753858612582 
-0.006803219987430102 
-0.3035745157668847 
-0.8513542429375819 
0 
0 
0 
-0.6550882648869427 
-0.004050396934813879 
-0.004050396934813879 
-1.060516786177971 
-0.02652255352805943 
-0.6957821238249808 
0.1048549382990302 
-0.4621644965913528 
-0.4621644965913528 
-0.3409343907786312 
0.8241767512654899 
-0.5915878507839776 
-0.5915878507839776 
0.04796789884434543 
0.04753475781057552 
0 
3.227436603128186 
-2.306825223347315 
1.423282160757049 
-0.1539564896941296 
-0.1539564896941296 
-0.8546675825157598 
-0.8546675825157598 
-0.5405357499096853 
-1.311132203547092 
-0.3017151672620072 
-0.3017151672620072 
-0.3766175171136721 
-1.191454526899891 
-0.6065104729328632 
-0.07269737060060999 
-0.6065104729328632 
-1.542996558071686 
1.32863447895055 
-1.75307960987685 
-0.2052094880118969 
-0.4793584079691671 
-0.4793584079691671 
-0.4793584079691671 
-0.4793584079691671 
0.4425086686164658 
1.087630467186776 
-0.05869346267109467 
0 
1.392694445974418 
-0.4193201383170389 
-1.012576632685161 
1.358346143379617 
-0.6247939322859709 
-0.6489387653586446 
-0.619179929651552 
-0.6489387653586446 
-0.6489387653586446 
-0.6298120470254066 
1.499477084870558 
-0.6298120470254066 
-0.6298120470254066 
-0.6298120470254066 
-1.383453750512428 
-0.1280304849911218 
-0.1030768938844031 
-0.3858293109752287 
-0.5679063959889719 
-0.2795337907710096 
-0.2795337907710096 
-0.2795337907710096 
-0.2795337907710096 
-1.176177572607466 
-1.176177572607466 
0.4715602206301215 
-0.515067810476139 
-0.515067810476139 
-0.515067810476139 
-0.04846712873869609 
0.3757296141827791 
0.08743157395208057 
-0.7010570231803019 
-0.7010570231803019 
-0.7010570231803019 
-0.7010570231803019 
-0.7010570231803019 
-0.7010570231803019 
0.890946698983856 
-0.2406456853849483 
-0.4230998810187633 
-0.4230998810187633 
-0.4230998810187633 
-0.4230998810187633 
1.254736408467892 
0.1652064359000638 
-0.257178613161055 
-0.257178613161055 
-1.082981922368229 
0.2491769813272384 
-0.6679924604113352 
-0.4763745625350615 
-0.4763745625350615 
0 
2.880776674354867 
-1.192444984344799 
2.252619679360321 
-0.5376617644404238 
-0.2026862217167319 
-1.364592383150202 
-0.5156492890519154 
-0.5156492890519154 
-0.5156492890519154 
-0.5156492890519154 
-1.571280452718678 
-0.5156492890519154 
-0.5546214880109419 
-0.5546214880109419 
0 
0 
-1.320756953528838 
-1.320756953528838 
-0.1667797853544973 
-0.1983667731884522 
-1.446858675428541 
-0.1906412814665722 
-0.1906412814665722 
-0.1906412814665722 
-0.1906412814665722 
-0.1906412814665722 
-0.1906412814665722 
-0.4034076779647724 
-0.4034076779647724 
-1.017126728491991 
0 
-0.7297012339448655 
-1.585859113255986 
-0.9872183089560865 
-0.6931331211166726 
0.9894318419851024 
-0.415349443201165 
-0.415349443201165 
-0.1962079177285593 
-0.1962079177285593 
-0.6984386628792213 
-2.439743105194254 
-0.287191151693744 
-0.2503267866721176 
-0.5352401894992151 
-0.150104885418829 
2.260472946928772 
0.5688997536838816 
-0.673420328657553 
-0.673420328657553 
-0.673420328657553 
-0.673420328657553 
-0.673420328657553 
1.391637432420827 
0.5147639928663316 
-0.3331336402242981 
-0.2516054920929381 
-0.2516054920929381 
-0.4047364455618686 
-0.645615877026728 
-0.5382645944016548 
-0.2691322972008274 
-0.2691322972008274 
-0.2691322972008274 
-0.2691322972008274 
-0.2691322972008274 
-0.2691322972008274 
-0.3021408930108396 
-0.2691322972008274 
-0.2691322972008274 
-0.2691322972008274 
-0.2691322972008274 
0.1453266760255517 
0.8948668421491509 
-0.8004302778728607 
-0.4557151958040225 
-0.4557151958040225 
-0.8367205183467517 
-0.8367205183467517 
-0.8367205183467517 
-0.8367205183467517 
4.584800097379231 
-0.8367205183467517 
-0.01217170750081926 
-0.6021627445982504 
-0.6021627445982504 
1.595934758969943 
-0.5704375221702364 
-0.4193242541053355 
-0.7682346926806722 
0.6322419565683263 
-2.69949824432026 
0.3976432257156357 
-0.2942905923691892 
0.2764208700704658 
-0.06699990838941687 
0.04457886363771227 
-0.08859049693065946 
-0.08859049693065946 
-0.4363473077585213 
-0.4363473077585213 
-0.06314910811656545 
-0.06314910811656545 
-0.06314910811656545 
1.689957821089007 
-0.3725832449210452 
0.08335212423821972 
-0.5173793821204784 
-0.5173793821204784 
-0.5173793821204784 
-0.7682845290874296 
-0.2356368882998095 
-0.2356368882998095 
0.0048901484157041 
-1.333200244931077 
-1.333200244931077 
-0.3282244248626721 
-1.642005946297084 
-0.1825760371024356 
-1.150770786660804 
-0.1825760371024356 
0.3928459139884497 
-0.1825760371024356 
0.7199136797749782 
-0.6426124695985251 
-0.6426124695985251 
-0.6426124695985251 
-0.6426124695985251 
-4.163336342344337e-17 
-4.163336342344337e-17 
-4.163336342344337e-17 
-0.4036329910766018 
-0.4036329910766018 
-0.3262672556229459 
-0.4036329910766018 
-0.410059252664206 
1.249855253828212 
-0.4751970216259649 
-0.4751970216259649 
-0.4751970216259649 
0.3506370112553324 
-0.2542773195542547 
-1.663431239649372 
1.521203121216924 
-1.062451475584087 
-0.7727040544476828 
-0.7727040544476828 
-0.442968943183954 
-0.5961790338627264 
0.003933604587949306 
-0.1493862131305337 
-0.1493862131305337 
-0.1493862131305337 
-0.1493862131305337 
-0.1493862131305337 
-1.854888344540308 
-0.3464363245900454 
-0.3464363245900454 
2.184486366322006 
-1.034743984060936 
-1.034743984060936 
-0.0005675958398304153 
-1.334188703039417 
-0.5385620395730507 
-0.2900244337830631 
-0.5229980056699629 
-0.5229980056699629 
-0.5229980056699629 
-0.5229980056699629 
0.3145990285984968 
0.921866459021851 
0.1385514581281926 
-0.6067228680673762 
-1.311288463308503 
-0.9173894008443628 
-0.4846205912495972 
-0.4846205912495972 
-0.4846205912495972 
-0.4846205912495972 
-0.4846205912495972 
-0.3452253979398199 
-0.1620062845200171 
-0.3483675661839916 
-0.3483675661839916 
-0.5480858586561275 
-0.03031080562079034 
-0.03031080562079034 
-0.03031080562079034 
0 
-0.8296710062567869 
-1.619508348935453 
-0.8296710062567869 
-0.8296710062567869 
-0.4634153152884831 
-0.4165797627928922 
-0.7738887552260232 
-0.7738887552260232 
0.1985469640554031 
-0.3647926472654994 
-0.648575115834182 
-0.1357954461772097 
-0.6813023537536455 
-0.6813023537536455 
-0.5842478306272957 
0.6080187203530028 
-0.4292424100662117 
-0.4292424100662117 
1.141144578747868 
-0.4292424100662117 
-0.4292424100662117 
-0.4292424100662117 
0.5518869018333229 
-0.4292424100662117 
-0.002240591164377066 
-1.681703914003291 
-0.3669146767255645 
-0.3669146767255645 
1.825880747505908 
1.854853516392745 
-0.3669146767255645 
-1.348300899299346 
-1.348300899299346 
-0.2150209589101477 
1.233944522951633 
-0.4689350898162972 
-0.08995289712345435 
2.062365296208013 
-0.6301841771128202 
-0.5231844449734137 
1.338387927902872 
-0.7522931587359825 
-1.849332212431166 
-0.4428186354552268 
-0.4428186354552268 
-0.8556646371671697 
-0.4428186354552268 
1.299035445637516 
-1.701964844900581 
-0.4201661036103272 
-1.098538478763706 
1.491944232064177 
-1.058355092288359 
0.2326612529543333 
1.940359986008653 
-0.1185638969564047 
-0.2101232850567817 
-1.532447118963266 
0.1886344842026655 
-0.3776239463993084 
-0.9401143608900727 
-0.3776239463993084 
-0.3776239463993084 
-0.1836842127271557 
-0.3776239463993084 
-0.4514589247759164 
-0.4514589247759164 
-0.4514589247759164 
-0.4514589247759164 
-0.4514589247759164 
-0.4514589247759164 
-0.4514589247759164 
0 
-0.2707281498519372 
-0.1324488363240949 
0.5548986258691615 
-0.1324488363240949 
-0.9795343587231896 
-1.717829772480094 
0.1724775969678829 
-0.3785198126474234 
-0.3785198126474234 
-0.3785198126474234 
-0.6383357914285014 
-0.6383357914285014 
-0.6383357914285014 
0.6319008222995179 
-0.8247218020011343 
-0.8247218020011343 
-0.8247218020011343 
-0.6749483104684789 
-0.6749483104684789 
-0.6749483104684789 
-0.6749483104684789 
-0.5932564943681218 
-0.5932564943681218 
-0.5932564943681218 
-0.5932564943681218 
-0.5932564943681218 
-0.5932564943681218 
-1.458021081700382 
-0.7264414437744121 
-0.7438632958003049 
-0.7438632958003049 
-0.8576470894094922 
-0.8576470894094922 
-0.2774045601070187 
-0.2774045601070187 
-1.920123838114397 
0.7642500380295782 
-0.2268695237848403 
0.2272058617844594 
-0.160585231469769 
-0.2047468697253784 
-0.2103545634491716 
-0.2103545634491716 
0.06593614066366829 
-0.2103545634491716 
-0.5940601849845089 
-0.5940601849845089 
-0.5940601849845089 
-0.5940601849845089 
-0.9057273073132202 
-0.9057273073132202 
-0.9057273073132202 
-0.9057273073132202 
-0.9057273073132202 
-0.9057273073132202 
-0.9057273073132202 
-0.7271469494327439 
0.08438881247312233 
-0.5128179257578827 
-0.4023295574430488 
-0.4023295574430488 
-0.4023295574430488 
-0.4023295574430488 
-0.4023295574430488 
-0.4023295574430488 
-0.1582598089904627 
-0.1582598089904627 
-0.1582598089904627 
-0.5047531009690905 
-0.1582598089904627 
-0.1582598089904627 
0.5531851230426525 
-2.169214171976003 
-0.4620234564236904 
-0.3940810743861239 
-0.5554895582598566 
0.277407608932966 
-0.5554895582598566 
-2.168404344971009e-17 
0.2742953525590805 
-0.5987413906055856 
-0.5987413906055856 
1.200422426760609 
-0.1353490153453179 
-0.1353490153453179 
-0.1353490153453179 
-0.1353490153453179 
-0.7180186656204696 
-0.7180186656204696 
-1.665095476910665 
-0.3656879664478327 
-0.6858449002551223 
-0.6858449002551223 
-0.6858449002551223 
-0.6858449002551223 
-0.6858449002551223 
2.276230526130215 
-0.4667742529765356 
-0.01602659794758313 
-1.040834085586084e-17 
-0.7810875263942395 
-0.2946999112227179 
-0.2029127843381975 
-0.2029127843381975 
1.501889492566261 
-0.288555218264809 
-0.4845313204199977 
-1.202315495914967 
-0.3669950693822496 
-0.3669950693822496 
5.765554579944062 
-1.087885130669248 
-0.7657957690648766 
-1.447257438568934 
-0.7657957690648766 
-0.3828978845324383 
-0.9934761476922314 
-0.530839950168484 
1.668695302241805 
-0.8203053726728127 
-0.8742674559861364 
-0.007719110324651954 
0.2953942583417816 
-0.9943063029249991 
-0.9943063029249991 
-0.5918718776387414 
-0.3920225663711241 
-0.3920225663711241 
-1.454966686444856 
-0.4323108868405066 
-0.4323108868405066 
-1.366955096869297 
-1.634823244090148 
-0.1367275979998565 
-0.1367275979998565 
-0.2734551959997134 
-0.1367275979998565 
-0.4273315416785607 
-0.4273315416785607 
-0.75146656409166 
-0.2661150781632483 
-0.2661150781632483 
-0.2661150781632483 
-0.2661150781632483 
-0.2661150781632483 
-0.2661150781632483 
0.1539326520929188 
-0.2661150781632483 
-0.2661150781632483 
-1.651740451501122 
-0.617635383858711 
-0.915787729472623 
0.5066220192618951 
0.2333095910255478 
-1.462076290496641 
-1.462076290496641 
0.8933365380418441 
-0.5389853134512513 
-0.3657767457918796 
-0.3657767457918796 
-0.3039553833566206 
-0.1511132680649009 
-0.1511132680649009 
-0.1511132680649009 
-0.1511132680649009 
-0.1511132680649009 
-0.3453226460184029 
0.5616043544667696 
0 
-0.88417525723739 
-0.5161272150780665 
-0.5161272150780665 
-0.7798726686494415 
-0.7798726686494415 
0.02458129215953 
-0.7798726686494415 
-0.7798726686494415 
-0.00850310827209861 
-0.00850310827209861 
0.3274508488130313 
-0.4134453259390875 
-1.091227648060827 
-0.7397740836938447 
-1.688769648054244 
-0.5957178187778354 
-0.03058122246054087 
-0.03058122246054087 
-0.03058122246054087 
-0.03058122246054087 
-0.03058122246054087 
-0.3471645778460937 
-1.113889902659839 
-0.5244906431748013 
-0.5244906431748013 
-0.5244906431748013 
0.5246655698190331 
0.7449188427621033 
-0.5530045573972951 
-0.5530045573972951 
-0.5530045573972951 
0 
0 
2.100770405996693 
-0.1927457876799493 
-0.4942740832079464 
-0.1465546453018804 
-0.4776295683764274 
-0.6133734038535895 
-0.6571022404918681 
-0.6133734038535895 
0.08754541309776802 
-0.5550542981835829 
-1.03826232548225 
-0.90370991377164 
-0.5006322430750058 
1.132915365500121 
-0.6572434005722936 
-0.3062518192854776 
-0.1350065990572115 
1.06883723884436 
-0.5759183563778483 
-0.3631690969121726 
-0.3631690969121726 
0.4008747928208664 
0.2860950051541044 
-0.175096133233045 
-0.175096133233045 
-0.175096133233045 
-0.175096133233045 
-0.175096133233045 
-0.175096133233045 
-0.0730675431823368 
-0.716331081378595 
-0.8406920144281047 
-0.8406920144281047 
-0.8406920144281047 
-0.8406920144281047 
-0.8406920144281047 
-0.8406920144281047 
-0.8406920144281047 
-0.4572651035954984 
0.7471558846230736 
-0.4572651035954984 
-2.612766289393744 
-0.291380432029571 
-0.291380432029571 
-0.291380432029571 
-0.1834596537018147 
-0.1834596537018147 
0.1484333807055236 
-0.1834596537018147 
-0.1834596537018147 
-0.1834596537018147 
-0.1834596537018147 
-0.4610338635693962 
-0.698963734945969 
-0.5805367057729333 
-0.698963734945969 
-0.4053088969695737 
3.717160692991926 
-0.4053088969695737 
-0.4053088969695737 
-0.4053088969695737 
-0.4053088969695737 
-0.4053088969695737 
-0.4053088969695737 
-0.4053088969695737 
-0.4053088969695737 
-0.4053088969695737 
-0.4053088969695737 
-0.7015396039039854 
0.2629134204306823 
-0.2235473912605099 
-0.2235473912605099 
-0.2235473912605099 
-0.2235473912605099 
0.3334283811612735 
-0.2235473912605099 
1.789906085766805 
-0.984465604367456 
-0.7863479779422413 
-1.024061817719368 
-1.832194682962182 
-1.024061817719368 
-1.01836652421873 
-1.01836652421873 
-0.8148831341839229 
-0.8148831341839229 
-0.8148831341839229 
-0.3777478013552739 
-0.3777478013552739 
-0.6865802237655739 
-0.5021796008063345 
-0.5021796008063345 
-0.5021796008063345 
-0.5021796008063345 
-0.2678469472034847 
-0.659055757413025 
-0.5231919251331844 
-0.3508872116650454 
-0.3508872116650454 
-0.3949889551106425 
-0.3949889551106425 
-0.3949889551106425 
-0.3949889551106425 
0.6816984868033997 
-0.3949889551106425 
-0.3949889551106425 
-0.3949889551106425 
-0.3949889551106425 
0.05160715058034326 
-1.107984343392963 
0.02304205123578635 
-0.6006228447395396 
-1.243292267092385 
-0.3148776050632337 
-0.5200218999407036 
-0.5200218999407036 
1.356739589048652 
2.52754429607895 
-0.4274758823031999 
0.7002986057609152 
0.7076331761669007 
1.38074074972971 
-0.1758082841458843 
-0.2733794614034483 
0.3367236055217595 
-0.2733794614034483 
-0.2733794614034483 
0.4934383745075697 
-0.6145082770797129 
-0.6039428122022217 
-0.5546125829986601 
-0.3415539086361117 
0.1557750588562244 
0.8432646682146069 
0.06457279676091447 
-1.259146209445354 
-1.801948211783353 
-0.2294846827409458 
5.447072571070777 
0.8009799382255947 
-0.5980824163853152 
-0.8908000095844741 
-0.1397590954600482 
-0.2487532373616632 
-0.6802776985898407 
-0.08499778871572394 
-0.5551474551786287 
0.2736013314153408 
-1.250372432878326 
-1.082778855969639 
-1.310334507489667 
2.082958581016412 
-0.5624904144907644 
-0.7870228662948331 
-0.441288080268663 
-0.441288080268663 
0 
0 
-0.1917583508501696 
-0.1917583508501696 
-0.1917583508501696 
-0.1917583508501696 
-0.1917583508501696 
-0.575275052550506 
-0.1917583508501696 
-0.5759006923115959 
-0.5759006923115959 
-0.1019289998770954 
-0.2824953497761083 
-0.2824953497761083 
3.217476585394377 
0.2694908878687153 
-0.4418699957090222 
-0.4418699957090222 
-0.4418699957090222 
-0.3828081097438732 
-0.3095805245762542 
-0.3095805245762542 
-0.3095805245762542 
-0.3095805245762542 
0.2730021383393804 
-0.5603457114619789 
-1.031589653155775 
0.5103067814641036 
-0.298114541210207 
-0.298114541210207 
-0.298114541210207 
-0.5665143693052336 
-0.5665143693052336 
-0.3301818508379369 
-0.3301818508379369 
-0.3301818508379369 
-0.3301818508379369 
-0.3301818508379369 
0.2368375840524462 
-0.243845086419008 
-0.243845086419008 
-0.243845086419008 
-0.8153334944578368 
-0.8153334944578368 
-0.8153334944578368 
-0.5546232348519765 
-0.04231610530421635 
-0.04231610530421635 
-0.04231610530421635 
-0.04231610530421635 
0.5608749482159678 
-1.17547002528963 
-0.6596346274179727 
-0.6596346274179727 
0.1411939258701601 
-0.2775742098675815 
-0.2775742098675815 
-0.5922882760415692 
-0.5922882760415692 
-0.5922882760415692 
-0.5922882760415692 
-0.9430492188391583 
-0.2732809875737769 
-0.2750257336866072 
-0.3757912693665293 
-0.3757912693665293 
0.02046494570977564 
-0.3757912693665293 
-0.3757912693665293 
-0.3757912693665293 
-0.6551755420251697 
-0.6914377095797013 
-0.6551755420251697 
-0.6551755420251697 
-0.6551755420251697 
-0.1955356459732719 
-0.366276008053199 
-1.082981766260501 
-1.082981766260501 
