solver_type L2R_L2LOSS_SVC_DUAL
nr_class 2
label 1 -1
nr_feature 20212
bias -1
w
1.295605637910475 
3.882306015469894 
-0.2784759266307724 
-0.7467023272739989 
2.12378576854584 
1.67349291937862 
0.004331333512441197 
1.061428558719967 
-0.9283005514642787 
0.8682060949546184 
1.190519692473932 
0.6951713354007375 
2.726856610794608 
0.04397935325824104 
-1.479311137059717 
-1.323238388483655 
-1.079551131064059 
-2.253512769335007 
-0.346830587210532 
1.370398864030941 
-0.361725654074694 
0 
0 
0 
0.3515663762683418 
1.295605637910475 
-0.930900890876046 
-0.6050702896168169 
0.05131791008367197 
-1.55781515831551 
1.544980559176252 
2.057865346258679 
-1.285884913518405 
-3.408792806780737 
0.3275501204343115 
-0.06896905672991761 
1.072812195890256 
0 
0.3127074744865501 
0.3826669283656678 
1.920344797064179 
0 
-0.1900516222295111 
-1.12430629293443 
0.6575360898656961 
-0.3020287049337698 
0 
0.09093918007618081 
-0.3011600272275943 
1.147220129606093 
0 
-0.7151429271661484 
0 
-0.6513644084435513 
0 
-0.6410679277946213 
-2.016138600499233 
-2.245935248273973 
0 
0.235168611812392 
-1.48782381015102 
0 
-0.4314839522721997 
1.45317101242427 
0.8758325755718124 
0.1689558014882781 
1.118428123289748 
1.901592363519594 
0.5266414362105917 
0.597347181456187 
0.2838742597387728 
-1.478918023803537 
-0.2785482200108361 
-0.3009634951204849 
-0.5547153011933463 
-0.6691861043399457 
-4.534967891141052 
-2.302493319459711 
-2.749313880850239 
1.058370721756891 
-0.5162158769292073 
0.1228993498137024 
-1.012862462383822 
2.583821560226228 
0.05788185720290434 
-0.8559276167015628 
0 
-0.4912664198531732 
0 
0 
0.2771563874579457 
-2.715167067020686 
0 
1.222271636179032 
0.6258363057011617 
2.410766585136282 
1.772757297564208 
-0.8930986217068374 
0.3459066172757093 
-0.1550896243115691 
1.311748262423512 
2.070523012684125 
-2.19878027996975 
-0.1383524171484804 
-0.8054758317168675 
-1.25676607857505 
0 
-0.5412996660544011 
1.100708354014902 
0.4682693636814235 
-1.546938399086801 
2.673669598612259 
-1.409646516908875 
0 
-1.197972721810549 
0.3074437002398405 
0 
0.497975476158975 
2.612763986429676 
0 
0 
0.5998819142701736 
0 
-2.088803104511658 
0.5191104582185663 
-2.235455074433789 
-1.331491726031801 
0.06560459970700235 
-4.072883526293631 
1.263854914374142 
3.031440627082655 
-0.8836226391700267 
0 
0 
1.245056160466591 
0 
-0.6921003816268912 
0 
-0.007074867617470631 
-0.8125864531136193 
-1.365560978153771 
-2.195673878926137 
0.7442506018566108 
0 
-1.045805867321385 
0.9358150672468361 
-0.7347959719255143 
2.048211194036675 
1.95316089788321 
-1.851847119560885 
0 
-0.4180403755797779 
-1.446804851989751 
0.654904602637302 
3.557471507709893 
-1.060023227099215 
4.34858800096305 
-0.5849153114837184 
0.1621713620049525 
0 
0.2976548658775175 
0.352650807894215 
0.6847977341396387 
-0.5872434466932414 
-0.1093170240060297 
-1.50978485468147 
-2.306008018811294 
0.7116750011443308 
0 
-0.2936128447729064 
0 
0 
1.035207577986157 
-0.4570769808770833 
-2.202533891238935 
2.319946824500683 
-0.4719792587559506 
-6.233547470899102 
1.983962049373084 
0.6668093824271573 
-2.276408827000022 
-0.3265048887208845 
0.3373127448035872 
0.1661496677227981 
1.815868515402182 
-0.619168692929179 
1.397155476781135 
-4.435097584879485 
-0.605547544366412 
1.356730052822616 
-5.623102143168896 
-1.656235907625196 
0 
-2.236474308500581 
-0.4026117791900953 
-1.041428506666699 
0.5757116645197095 
0 
4.124290539274356 
0 
0 
-0.2201026834467477 
-0.4955876719476096 
1.059652606240671 
0 
-1.282887259605721 
0 
-0.8578108791022149 
-0.441354206708592 
0.6096367695324272 
3.059419803291501 
0.5955371082860186 
0 
0 
1.037011108439786 
0.5517220043696865 
0 
-1.946258128120877 
-1.675688773573216 
1.310884610570036 
-0.9795648079528316 
-0.2509879719227879 
-0.2954142308207532 
0 
0.7004646505017984 
0 
-0.3223005353427879 
-1.064249671931331 
0 
-0.6214083805015795 
0.5936707796364511 
0.3164975353151677 
-1.894934301838274 
0 
-1.694494838992462 
-4.676698766116622 
0.2629825728732456 
-2.035269294189758 
-0.9819185440494644 
-2.442452520971813 
0.6753330001154561 
0 
0.01195913986071523 
0.7150351636071534 
0.2376998814166146 
-3.360902569206584 
-0.2662249304713016 
-2.681421943328252 
0.5354899013808628 
-2.328519469236187 
-0.3184546102119637 
-1.256303579803716 
1.995766011672615 
0.4208365285666128 
-2.423822885881497 
-1.442919713145647 
0 
0.3116618426005622 
0 
-0.6592257614980669 
0 
0.8978578291696596 
0 
1.52863149830092 
1.555913705542829 
0 
-0.6592257614980669 
-0.6871104474692024 
0.7505499204600495 
0 
2.412148438664889 
0 
0.02871290580402275 
0.3791994837785188 
-1.458742770297055 
0.6783266100368153 
1.239369299730821 
0.7754849311239319 
-0.04240785990675686 
0 
0.2907877103239739 
0 
1.191658563889499 
0 
0 
0 
1.901575790082016 
-2.686284137174098 
0 
-2.926310935073625 
-0.8411246118347977 
-0.3996094181643621 
2.59642014277295 
-1.841226953967585 
-0.4461204096382216 
0.5060776845395438 
-1.042708824857081 
0 
-0.7400948601568791 
-1.462746881587241 
1.908196281459682 
-1.685103131062681 
2.925866144842895 
-4.569864079591957 
-0.02040781614222372 
2.591968763483143 
1.488152664224379 
0 
0 
0.5119529468470823 
-1.089136563143626 
0 
0 
2.867246849452047 
-0.2800740949255286 
-0.4869672022139055 
0 
0 
-0.2820182295261979 
-4.052740602502037 
0 
1.095773784537355 
1.578310633573344 
0 
-0.8959267578181236 
-0.2774394512842729 
1.779305171524715 
0 
-0.4126861210035084 
-1.504127013323575 
0 
-0.3198210273471533 
0.3653171267843376 
-1.442871345557615 
-1.242855719241077 
-1.085041474213655 
-2.504622681238322 
-0.08122668308115256 
0 
0 
0 
-0.6760360223525865 
-1.349592988078489 
0 
0 
0.8468077763422415 
0 
0 
0 
0 
0 
0 
0.685121329098521 
0 
0 
0 
0 
3.244080466332621 
0 
0 
-0.1761023081936797 
0 
0 
-0.87976230828987 
0 
0 
0.6105568300831606 
-2.707420344762942 
-3.405046813667692 
-2.703183026524723 
0 
-3.972758665625357 
-1.772935065712196 
0.7987552588038903 
0 
1.699878959873309 
0 
-0.9023379075792664 
6.491094561786954e-05 
-0.7422833636915303 
-3.123273635109437 
-1.074243987311196 
2.010539024057347 
-3.356183860255349 
1.634220558671146 
0 
0 
-4.797294115375211 
0 
0.125910068232056 
-0.4885168835157624 
-0.6891852706994495 
0 
0 
0 
1.242683095204871 
0 
-0.2229849796099916 
0 
-1.533601110623227 
0 
0 
1.419122414625493 
0 
1.676456630270085 
0 
0 
2.814395210179157 
-0.8181450987784855 
0 
0 
-4.93422820006967 
2.900378867728176 
0 
0 
0.1897949060744194 
0 
-0.03335549208624464 
0 
0.3028695249765011 
1.651902090915939 
2.128547630937285 
-1.060485221171957 
2.241054791251579 
1.867342681604927 
0 
-2.866913622814107 
0 
-1.289286442436651 
-2.274946950390703 
-1.893481021208186 
0.6792022917633443 
-0.3648492585707422 
-0.2368284849262517 
0 
-1.696362365534141 
-0.5154390947811013 
0 
0 
2.490458473204493 
0 
0 
0 
3.203786163159219 
0 
-0.5741799427169463 
0.1573707041265634 
0 
-3.507556676486891 
0.06743519425480791 
-1.080386182867064 
-1.637992809283739 
-2.353953307411705 
-4.76614805474505 
-1.714615829475886 
2.495429632954174 
-0.6487961771602366 
-0.1953993877476793 
0.2245775360348304 
4.398590860761121 
-1.952483688699108 
-2.974736804275764 
0 
0.6765478787545146 
0.8475803262497721 
0.5759842204092701 
-0.5199757353005641 
0 
-2.106474559510061 
0.5202264515444475 
-1.86282447324633 
1.056442321068001 
-0.8317279050557859 
-1.288167543731337 
-2.585627850768825 
-2.99137654668705 
-1.279873836862406 
-2.878073401258556 
0 
-0.02919840217016934 
-1.976652824693478 
5.395356914981148 
-3.688948334731982 
3.752891070224125 
-1.647048759864685 
0.7256499731327694 
-0.2599633610362582 
0 
0.9299925337794339 
3.282350873018376 
0.7036103492821898 
0 
-1.146641738168606 
-2.06397338715902 
0 
-1.944348058868294 
-0.282517477783382 
-1.807432800653072 
0 
0.9816062204103979 
2.045846103104791 
-0.4322833831747953 
-0.1820384957045604 
-2.17033447634973 
-0.7220774624251023 
2.009215015232089 
0.3138507986754828 
1.513372657879383 
0 
-0.4698717748891316 
0 
-1.310123666227757 
2.548793458485745 
2.339625103426511 
1.053859456909738 
0.3334235458044444 
0 
0 
1.741204026938048 
4.198570911515894 
-4.00807529282183 
2.554492652744285 
-1.417505011904695 
2.00771444667497 
2.599863668187833 
0 
3.793558507383843 
-1.059489205250975 
0 
-0.3763955036439435 
1.0557399046942 
0 
0.9588524364370714 
0 
3.210303745777029 
1.979225002785942 
-1.316908894541021 
-1.434139715346376 
2.290406666718521 
-0.1057642780553088 
0.2758098680302342 
0 
0 
0 
-0.2612312212655985 
-0.8389433680361957 
3.46694701538087 
-0.1632415508595665 
-1.821544381161115 
0 
0.7611171477830303 
1.786965664106092 
-2.235925232073612 
5.782870694256113 
-0.542647648261029 
-0.9059607013478874 
-2.738957494340755 
0 
0 
3.454073351118291 
0 
0 
-0.2585840640980728 
1.810434918611971 
1.2309813975329 
0 
0.5840468748806955 
2.287732287418106 
2.683062405721632 
0.4518738997700317 
0 
0 
0.6253395790284736 
-0.1004345684767615 
-4.385244543653304 
0 
-3.988037311524581 
0 
0.2745909432907455 
0.7140305422473634 
0.033029856557974 
-1.288348700038539 
0.5100281814849938 
-1.017396886352159 
2.73209547939281 
0 
-0.5603802036722653 
-0.9149666852237675 
0.8169649752582487 
0.06543129674778492 
-0.08013454099731905 
1.155672930076132 
-1.023088825371871 
3.5974166334398 
-4.907245696761958 
-0.3434227820025455 
-1.328303400694548 
-2.279863416061021 
0.4150915773590477 
-1.968345667665609 
0 
0 
0 
0 
0.1696989618704562 
0 
0 
0 
0 
-2.223387503721239 
1.875308536360184 
-0.2379550068962153 
0.5091996118444824 
1.645575905194349 
-2.655799504243608 
-1.505385804185549 
-0.7428013614144128 
-0.9037947598400248 
0 
-2.861283972440887 
-0.692771667445097 
-0.0272097178843955 
-3.576099674614939 
0 
-1.652314958017023 
-1.836920281605879 
1.040562522186677 
0 
0 
-3.195335611408228 
0.3454958135437392 
-2.166398499326655 
1.38873119796443 
-1.512414217290425 
1.550352964737878 
0.5572790101155377 
0.8621795193080828 
0 
0.3157788997612626 
0.2267431624663674 
1.031604968285504 
-0.5208166583296934 
0 
-2.202553708151719 
0 
2.440102946317068 
-0.4392195179262245 
0 
-0.173024058206527 
-0.6947588859441501 
2.253506444879057 
-0.492395752287367 
0 
0.7777527255006624 
-1.201392825348691 
-2.126175090999304 
-0.4281360453617407 
-2.134260020562788 
0.5123064224144716 
-0.08531643753088543 
-0.660793311863007 
0.3799016428693318 
1.061245347860326 
0.5350122800017846 
3.103367553518826 
-0.7961753686277449 
-2.214984825949493 
0 
0 
0 
0 
0 
0 
0.08056948816180862 
0.06072381780455115 
0 
0.3813954107020143 
0 
1.045958879393769 
-0.9269162033355977 
-0.1894910462370334 
-0.9389782933593896 
-1.21564980958622 
0.7804795108804193 
-1.028295549901634 
-1.974601746123614 
0 
0 
0.168977316693954 
0 
0 
0 
0 
0 
0 
0 
0 
2.307146410135942 
0 
0 
0 
0 
0 
0.3572097111595229 
0 
0 
-3.626594183417613 
0.3986338838581038 
-0.1881214343517587 
1.998587180817861 
1.25718522580437 
2.119579195979367 
0.4954727731170291 
0 
-3.361158085560157 
1.053911463713183 
0 
-0.2504320915805801 
0 
0 
0.8899258172771072 
1.383859513075715 
-0.1984983457448756 
-1.352813649235824 
0 
0.04305077702181219 
-0.8279650534778186 
-0.9230318994418587 
-1.162695689451226 
-0.9762071398952334 
2.149077331767494 
-0.07046671103518375 
4.478353874078968 
0.7201501162295461 
0 
0 
-2.04262795835356 
0 
1.960581513868439 
-0.8812155781863336 
0 
0 
0 
0 
0 
0 
0 
0.466611492109073 
0.1503851484160109 
1.996082548569131 
0 
-0.7869292337788991 
-0.2280904435787939 
0.5635470541145731 
-0.4287005671962015 
0 
0 
0.5750112919904216 
6.158771614389112 
-0.330335412546075 
-0.1308302427177653 
0 
2.212064135548172 
0 
-2.866700548035645 
0 
-6.377823430681435 
1.675717425560721 
0.5180804447888964 
0 
0 
-1.829647020571004 
-0.5861272593420508 
-0.7967081126404467 
0 
0 
0 
0.8624900965257436 
-0.09794645622120193 
0.2061638814058867 
0.05349891070728226 
1.871529664201702 
0.6045039031460764 
4.39000419378201 
-2.451277743681513 
0 
-2.053078495160557 
0.2766580007287535 
0.387134974032905 
0 
-0.3436533814880706 
0 
-0.3722131848351733 
-2.87638607597491 
-0.2822355575567284 
0.06979889129051059 
-1.21250790267976 
-2.539775496287802 
-0.8568356078594599 
1.164446145592321 
-1.484135310152668 
0 
-0.3329230389034645 
0.4682693636814235 
-1.498728716428431 
-2.196099575994636 
-1.072391962150034 
0 
0 
0.8913450944289844 
0.6208081109791426 
-1.390759163737865 
-1.907531475686795 
0 
0 
0.2237439142671202 
3.453575979063223 
2.109219441214988 
0 
-1.29502760548801 
0 
-3.735989036065218 
-0.2073256843449995 
-0.2284688909334133 
0 
0 
0 
1.676629971331434 
-1.513006212131769 
0 
0 
0 
-1.058205510151532 
-2.619538747148728 
-5.192389814345738 
0 
-1.568447745546809 
0 
0 
-1.180563400262018 
0.6168967729335388 
-1.627573076763133 
0.8509525850447022 
-0.0220243270257678 
0 
0.9599736130335265 
-0.2982828796826257 
1.904395713414623 
0 
-0.3113870656226033 
0 
-0.44808267533744 
1.606837691806272 
-1.767230304145427 
0 
-2.868668454468572 
0 
0.7775591024059372 
-1.011731072224898 
-1.547979062643405 
0 
1.20208715717607 
4.55983016008256 
0 
0.4390644776897644 
0 
-3.152756438162967 
0 
1.024690358381443 
0 
-3.744439696686901 
0.3270054788499662 
0 
0 
0 
0 
-1.449808586747091 
0 
0 
-0.6344363510074384 
-1.840141120615814 
0 
0 
0.6043604668892374 
-1.709781559375429 
0 
0 
-0.334171755820819 
0 
0.1721228489294627 
1.175027568329833 
0.124410239705428 
2.804398110717101 
0 
1.664185756865614 
0.4219646302772212 
1.482787226512551 
-0.7175466366249026 
-0.7175466366249026 
0.6066534834036301 
-0.4226087013611253 
-2.783591861801785 
0.7130100379774997 
0.7245186487185143 
-0.8554870424723487 
0 
0.8530060801901341 
-0.144846488339554 
-2.716024163173783 
0.7262427615839351 
0 
-2.408045447929282 
0 
-1.755919780376353 
0.07046637581402507 
-2.374652828951993 
0 
-4.074350687752272 
0.6055041392729329 
0 
-0.004825270127798056 
0 
0 
0.6805278608674492 
0 
1.297884918017939 
0.7861476214262769 
0 
0.2870256074258606 
-0.2802790435521431 
0.7205754559126313 
-0.8605230609405945 
-0.7998202970095982 
0 
0 
3.255713230585925 
-1.522224479629433 
0 
0 
-0.6171434379650377 
1.511757967978549 
-1.464563544142649 
0.0501276497277271 
-2.012044270639956 
0 
0 
1.119515433116521 
0.4513416914627804 
-0.2814523444722942 
1.117635878017901 
-0.03501552328672384 
0.05515814389360888 
-1.685803650906563 
2.555002527785617 
2.216719383814325 
-1.927495860227252 
4.059524447872681 
0.08739163043157434 
-1.27947729787855 
1.023743369230868 
-0.8252018067790979 
0 
0.5842636607517285 
0 
0 
-0.09599509286341852 
0 
0.3577327611407044 
-0.3482573686719705 
-1.716906926726035 
0 
-0.5886831460447749 
0 
-2.768995808475556 
0.6722753292380849 
-0.8463319216059231 
2.865294810582105 
-2.947338826862152 
1.102335173965259 
0 
0 
-1.469619734349016 
0 
-0.4073821584860217 
0 
0 
0 
-0.855802256393874 
1.606811985309566 
0.5593102809248507 
-0.6701221820549327 
2.561780697202658 
-1.414062012039064 
-2.429631341419745 
-1.792994513243988 
0 
0.8594702493509833 
0 
0.7864321761004658 
0 
-0.514028916566272 
1.694986525783448 
-2.00362056563429 
-2.475187129561809 
0 
0 
-3.285619876568766 
0.9920731041408631 
2.429291875975909 
-1.968101549096781 
0 
-0.1948838688246902 
1.556035579338714 
-3.180963183143236 
2.136149191799576 
0 
-0.87976230828987 
0 
0 
0 
1.594989951496126 
-1.662320466138368 
2.428636031480919 
-0.9994182059987338 
1.25823248432577 
2.136806162319149 
-2.735687070091189 
-0.9735124980408155 
0.6109467807494328 
-2.28561933679383 
-0.3010468981909781 
0 
0.8758985101586363 
0 
0.5237514047854926 
0 
-2.905656494035195 
0 
1.867761658672689 
0 
0 
0 
0.7148173324134378 
0.4378851050649497 
0.01008413370421996 
0.5327282337204341 
-3.304676452723422 
-0.3340700672802972 
0.671164646085559 
2.336935493231488 
-2.541925028250795 
0.5844800865955093 
0 
1.666482266360626 
0 
-1.032550502983673 
0 
0 
0 
-0.647844980177992 
1.890412357123777 
0 
0 
0 
1.3095095943743 
0.8591573511859577 
-0.2424640724613804 
-0.2451061833506716 
0 
3.158302543900651 
0 
0 
-0.4453066569118512 
-0.1601334028359089 
-0.4156534395387225 
0 
1.310214835363385 
0 
0 
0 
1.197915580665803 
1.581997260631435 
0 
0 
1.021086802811823 
0 
0.2860486634871972 
1.343920685698061 
0 
2.166072246888082 
-1.881994387891136 
1.347552789032166 
2.279139070401325 
0 
0.9534103491172066 
0 
-0.1574150364843783 
-0.7342703569094858 
-0.6666013451860384 
0 
0 
-0.4979554933042912 
-0.5697844914888971 
-0.1446672026767132 
-1.172153219615327 
-1.476510170978184 
-0.4683462424447297 
0 
-0.6408085676151867 
2.052526354575472 
-0.2950395614866947 
-0.3597494494321165 
-0.680717114050985 
-0.4248621618436806 
-0.7863800053928547 
1.432071944661678 
-1.117392245409141 
-0.5043354040439234 
0 
-0.3932459718709899 
0 
0 
-0.3784785210982157 
1.48103703971616 
-0.4702355543430629 
0 
0 
-3.405322744961682 
1.155390597757147 
0 
0 
0.07646396595960973 
0 
-0.9332561285328795 
-0.9131501130429733 
4.726780346121151 
2.218988480625185 
0 
3.613870903707149 
0 
2.105097087290885 
0 
-0.1714811275279846 
0.8349213920019487 
0 
-0.8169780342112388 
1.05077001192401 
0.3211471100478089 
0 
0.5718647222482341 
0 
-1.07223715766841 
0 
0 
1.799944422267397 
0 
0 
0 
-0.4984850394788827 
0 
0 
0.142041981284702 
0.3442930104914745 
-0.623817720140294 
-2.237809289122644 
0.9418988147594068 
-0.3177335369260406 
0.4395510377438057 
-4.685808581888415 
0.7363526243027895 
0 
0 
0 
0 
0.702055941773633 
0 
0 
0 
0 
0.2181894001453309 
0 
0.2311880367957229 
0 
0.3359141643503627 
0 
-0.5741799427169463 
1.497593324376739 
1.560592820167766 
-1.408681882433652 
-1.186190294042031 
-0.02140964548671394 
0.2350625681581449 
-1.751426522260518 
0 
0 
0 
0 
1.751111880760044 
-0.1195952533436688 
-1.50325083780789 
0 
0.2417649401643977 
0 
-0.6935917975385004 
0 
-0.3600992812544697 
-0.8122740050319055 
0.8517710163615703 
-2.821552497059166 
0 
0 
0 
-0.3185541952158829 
0.4424923704713911 
0 
0.4678970359038184 
-2.747115940386153 
0.1403044644737013 
0 
0 
0 
-0.7736997900769579 
1.200571229654228 
-0.2866810706148769 
1.973847241953154 
-0.7677590992495192 
-0.0949201287109868 
3.092747999135441 
-3.720343755180592 
0 
-0.002647508810845217 
0 
1.507497489458652 
0 
0 
0 
-0.2317760662428049 
0.04159331386919942 
0 
4.747276456523879 
0 
0 
1.033569612545838 
0 
0 
-0.2494386659280207 
0 
0.2527221857866678 
2.009672736447934 
-0.1941993920142445 
-0.415848890073744 
0 
2.679308651353718 
2.19575326334032 
0 
0 
0 
-0.1275773250905569 
0 
0 
-0.5806661381426994 
-0.3552062328999495 
0 
0 
-4.709082620098796 
0.5909173713996216 
0 
0 
-1.621508893306676 
0.6288855518576131 
0 
0 
0.4954346787976404 
-1.250923374660142 
-0.03105433699094361 
-1.415094189941284 
2.629542930873516 
-0.9170176444973552 
0 
-1.778074205420843 
0 
0 
0 
1.787409473583963 
-1.17774786166549 
0 
-0.2725575193819814 
-1.248930736934244 
-0.1797992031351441 
0 
0 
-0.3205194784300889 
0 
0 
-0.191014344194653 
0.849144974279718 
-2.195519082562866 
-3.035695763003036 
2.81483676372253 
1.585805058502408 
0 
0 
-0.3686744175411533 
-0.5052302778844927 
0 
0 
-0.1408115291871581 
0 
0.4490070997153828 
-0.500289244078175 
-0.1532637373606635 
-0.1098312458516084 
0.5145471767953126 
0.5780400614727649 
0.4997177189252669 
0 
0 
0 
-1.518411777538554 
0 
0 
0.9230211186803913 
0 
0 
-0.6126323342529392 
0 
0.5194802443408854 
0.9258480809119988 
0 
0 
-0.3138944449300987 
0 
-1.370111118225378 
-0.1847114692321259 
0 
1.048603591459597 
-1.899028790900425 
0 
0 
0 
-0.3207472527635611 
0 
1.131277041842213 
0 
-0.1124204465489793 
-3.146901148738961 
0.4905022418872501 
0 
0 
-0.3567777232868974 
-0.5282717885289836 
0 
0 
0 
0 
0 
0 
0.1493037426005193 
-1.831843379463023 
0 
1.462885725410616 
0 
0.7293319185962607 
1.706964249264172 
0.9799655857931852 
0 
0 
0 
0 
0 
0 
-0.4509907724272796 
1.268000116357459 
0 
-0.3312155246260098 
2.010294702563854 
1.011719771350234 
-0.8877694803690602 
0 
0.7228452070635007 
-3.040953008280328 
0 
0.3359141643503627 
-0.2595023927240843 
-1.654380456676089 
0.6206470998255567 
-1.771178038113227 
0.905405541594362 
0.7078654095843554 
0 
-1.27038766029433 
-0.9870276514956331 
0.09100873363863506 
-0.09187755913670205 
-0.7404857679807306 
-3.903364536661342 
1.625877760318099 
0.9334673282308849 
-0.03925166757672853 
0 
0 
0 
0 
-0.4518439769122164 
1.474648801407725 
1.635943986394435 
0 
0 
0 
-0.8569162164669063 
0 
0.2767022429341686 
-0.4624090438934551 
2.611014759037533 
0 
0 
1.352366089220082 
-0.3884470896767577 
0.3359141643503627 
0.1904368483196268 
-3.15591898503897 
-0.6280698906031214 
0 
0 
0 
0.2933447966086271 
2.026884343886768 
-0.6771612686527477 
-0.5756119762473452 
0 
2.676837452861425 
3.617454483689401 
0 
0 
0 
-1.193290189996605 
1.158153870572274 
2.161913827478944 
0.1340546745007487 
-0.5068506757682467 
0 
-0.1809687879161655 
-1.288812558501389 
-0.1580842163219237 
0.2386060512867019 
0 
0 
0 
0 
0 
0.9283516938696633 
0.5350122800017846 
0.691370702126309 
0 
0 
-0.1958362367379181 
0 
0 
0 
0 
-1.138007918283116 
0.395533364068255 
0 
-0.187776131873075 
0 
0.6947619183535532 
0 
-0.2876794430926074 
-2.021794006246922 
0 
0.9307074498760841 
0 
0 
0 
0.8093640600155729 
1.099641913341896 
0.1226822313542006 
0 
0 
0 
0 
1.158319441166018 
2.399907211489231 
0 
0 
-0.2743927750975136 
0 
-0.5038579818315252 
1.487528328551757 
0 
1.869243814995941 
0.3600036986051372 
0.4347286136837733 
0.7736938266808051 
-0.4734069612644041 
1.581662139252757 
0 
0 
0 
0 
-0.09348532629423184 
0 
0.06378568412567071 
-0.2587535994111793 
-0.9609077926224925 
0.8778013836262599 
0 
-0.1883361739097654 
0.9285729893025324 
-1.043417806809423 
0 
-4.775829934275154 
0 
3.936536581305817 
0.02081501313660395 
-0.4378240444030683 
0.3011567295663642 
7.148270468733728 
0 
0.4798616951841901 
0 
0.5348956574346468 
0 
-0.8444889587854897 
-0.5197575663336291 
0 
-1.809654014308397 
-0.3171393733155429 
0.2895401952038143 
0 
0 
-1.562991412445354 
1.18127954123167 
-4.496173062554034 
-1.970184250120139 
-4.106936484505558 
-0.004691275456777714 
-2.712634799572562 
0 
0 
-0.4979554933042912 
0 
-0.4552621267974818 
0 
2.022532793564797 
0 
-0.594826184455186 
0 
-1.451982074221742 
2.131870819194893 
0.8763467941151104 
-0.282517477783382 
-0.3251225325759152 
-0.1025374759881178 
0 
-1.344340275587049 
0 
0 
0.2718895534951637 
0 
0 
0 
0 
0 
-2.165137929229182 
-1.699443698301342 
-0.5705347719344239 
-0.7663654773335304 
-0.3462223711029272 
0 
-0.0839345752176749 
0 
-1.029294144853041 
0.7121434205587952 
0.6694781695369648 
0 
2.104687957098355 
-2.781343456278652 
1.478662146556405 
0.0348108585634328 
0.1824131489864869 
-1.094015884691407 
-1.986083565889883 
-0.3527580528677779 
0.46040042337114 
0 
1.198877298696731 
-0.4275937237919883 
-0.9697324151848894 
0 
-0.5754834126164037 
1.084761502758613 
0.5750763006992423 
-1.101246816321327 
1.325667294002456 
-0.8551248733890767 
2.056362760496569 
0 
-0.215251350923985 
0 
0 
0 
0 
0 
0 
0 
0.04861774564833432 
0 
-0.1737292339550048 
-1.144881091311392 
0.8274268803614891 
0 
-5.24370556437355 
0 
0 
-0.6313278348612588 
0 
0.5776883616296212 
0 
0 
-0.3053406652178324 
0 
0 
0 
0 
-3.340395008619116 
0 
-0.4304901572064661 
-1.882468857218643 
0.3837437824186262 
1.058692410810472 
-4.838013119441997 
-0.5803558920936781 
0 
0 
0 
0 
-0.1033421443651796 
0 
0 
0.2372142200400823 
0 
0 
0 
2.124925732462237 
0.06042027495235135 
-0.5025808282267521 
0 
-0.7635552736094375 
0.6898106507434218 
0 
0 
0 
0 
3.391760500685238 
0 
0 
-1.980556335303313 
0 
0 
0 
-3.539148172231968 
-0.4302087851175656 
0 
0 
0 
1.748641938388819 
-0.2309482041017678 
2.316241546564346 
0 
1.925735441280434 
0.1581710737061043 
0.4501439727722315 
0 
1.712954445210304 
0 
0 
0 
0 
0 
0 
3.156354772180821 
-3.350016842102262 
0 
0 
0.8025985182742582 
0.001453792591939266 
0.5885560730191387 
0.4918450622126917 
0 
0 
-0.6592257614980669 
0 
-0.8954706982925287 
0.4011417487548281 
-2.149301819669852 
2.022862454152405 
0.08622349401251524 
0 
0 
0 
0 
0 
3.554413431937612 
0 
1.353142432891494 
-0.1305219319610862 
0 
0 
-3.227601061130128 
0.3031238536854296 
0 
-0.5435260553503265 
0 
1.642775665911323 
-0.2641489779058189 
0 
0 
0 
0 
0 
0 
0 
0 
-0.5748818713223032 
0 
-0.5158331572511049 
-0.7203098147310958 
0.7745773271529433 
-0.1607372011109274 
0 
0 
0 
1.444770759501634 
0 
0.4944585994365965 
0 
-0.01227789514191517 
0 
-3.526530220853093 
0.625103631798636 
0 
0 
0 
0 
-0.3172343394105243 
0 
0 
-0.8343077466119652 
-0.6258625858653314 
2.094132541387657 
0.450717058392387 
0.450717058392387 
0 
0.02762911689381426 
-0.4828095387019789 
-0.5082820458880341 
-0.8693042563283032 
1.001555726651165 
0.4127629929029977 
1.741581423033463 
-0.3490865997149048 
-1.766746445766615 
4.040135644868207 
-0.8737466450366999 
-0.9336579796569123 
0 
0 
0 
0.8240217410089978 
-1.053042359296084 
-0.808829768133365 
0 
3.131612784384689 
0 
0 
0 
1.184036186096594 
0 
0 
0 
0 
0 
0 
-0.08112155708202705 
0 
0.9082246361338192 
-0.2345988920233233 
0 
0.2796654127734677 
0 
1.746128383906517 
-1.641171643738422 
0 
-1.193289120850057 
0 
0 
0 
-0.3622723198925705 
0 
2.611833143241976 
0 
1.138383514088609 
-1.672784301667348 
-0.6085423536680419 
0 
0 
0.2973725530456581 
0 
0 
0 
0 
0 
0 
-1.823071382956519 
0 
1.60062696569215 
0 
0 
0 
0 
0 
0 
0.109563434715607 
-1.585654399725874 
-1.585654399725874 
0 
0 
0.1256559893621207 
1.931757947173378 
0.08211343574103382 
-0.137866451650629 
0 
0.8988332555443105 
0.938958201736696 
0 
0 
0 
-0.7145384273102708 
1.125288731700605 
-0.3542812611179191 
-0.2904787472623915 
-0.6655929847048186 
0 
-3.760888465843638 
-0.3589572912954946 
0 
-1.485822812523942 
0 
0.4028324776328138 
0 
-1.401285836940631 
0 
-0.542647648261029 
0 
0 
0 
0 
-0.4966686845189123 
1.137699573641648 
0 
0 
0 
-2.471544839728701 
0 
0 
-0.5813582995865656 
0 
-2.152423668625406 
0 
0.7496989176406019 
1.148474078193076 
0 
-1.25760942105048 
-1.723083322910579 
0 
0 
0 
0 
-0.8273025131715844 
-0.8602450459445775 
-1.737703376651003 
-0.9539153468557249 
-0.396192665742609 
-1.504722494023267 
-1.92484234630327 
2.502371330655494 
-0.2591678627320955 
0.1239091400638033 
0.3845222068913597 
0 
-1.542829202406628 
0 
0 
0 
0 
0 
0 
0 
0 
-0.8782295821157526 
0.5439937836013914 
-0.9886358057505023 
-0.9031096240337422 
0 
0.4876052691429992 
0 
-1.356749315790817 
0 
-3.128559277104704 
-0.7132350931758049 
0 
0 
0 
0 
1.312080700377884 
0 
0 
-0.73615253485207 
0.7546124432169866 
0.7281418839931817 
0 
0 
-0.2764682270806788 
0 
0.992573013250914 
-1.844122337492725 
-3.217639633015534 
-0.6009341220963272 
0 
-0.4656172558426246 
0 
0 
0 
0.3913984723240191 
0 
0 
0 
0 
-0.5606774955308244 
0 
0.1268697432606534 
-0.9627185867281314 
0 
0 
-0.138516648489449 
-0.7744419031064499 
0 
0 
-3.270763941269404 
-2.70816511081239 
2.176032923402256 
0 
-1.184498202081556 
0 
0 
1.533606905494925 
-0.6355940933122469 
0.3319314861713023 
0 
0 
0 
0 
-0.7532692890957626 
2.50209715651906 
0 
0 
0.081297211176398 
-1.172153219615327 
2.052868161108381 
0.2441549823433519 
0.07759880028473962 
-0.4380733057454693 
0 
0 
0 
0.4575785551147263 
0 
-1.635182558365309 
0 
1.510033187040742 
0 
0 
0.674032679082574 
0 
0 
2.162985732225911 
0 
0.9986818938320484 
0.3787463214403889 
-0.1338406729549877 
0 
0 
-1.548146526942883 
0.3090612746264767 
-1.138631890738617 
0 
0 
-0.4942474540578745 
0 
2.38935655602956 
-0.6888129072871492 
-0.4370602371280082 
0 
0 
0 
0 
-0.7668913017964604 
-0.8114914513104581 
0 
0.2436867922307882 
0 
0.3871814778138823 
0 
0 
-0.8721152496672615 
-0.483292538113685 
-2.831771586158724 
0.3856823134290836 
0 
0 
0 
-0.1436205569939874 
1.294594590717442 
-1.326364710466753 
1.248213505970557 
0.8964708706493149 
-0.7271622673319466 
0 
0 
-0.9984601500937005 
0 
0 
0 
0.0983804791375808 
0 
-1.292381598338071 
-0.2530930028517357 
-2.07059809270504 
0 
0 
0 
0 
0 
0 
0 
1.96730014961376 
0 
0 
0 
0 
0 
0 
-1.571039211033452 
-0.005102637542789812 
-1.58352307301798 
0 
0 
0 
-2.171003323176206 
-1.379773706806614 
-0.7455046734927491 
-3.656794723580678 
0.09547348359670968 
0 
0 
0 
0 
-5.069538510582264 
0 
-0.5682667881769494 
2.359024140987792 
0 
0 
0 
0.2839477643531357 
-1.704163414286683 
-0.8941791775852694 
-1.48625401266728 
-1.142833612186844 
-2.499849171709205 
0 
0 
1.101276640233573 
0.409227868984357 
0 
0 
0 
0 
-2.85314798487654 
1.533760338342167 
0 
0 
0 
1.579861259642759 
1.038978502558153 
-0.4810359244169332 
0 
0 
0.8395272459654911 
-4.047056173960026 
-0.07745013891127979 
-1.384919420218317 
0.5765835217519708 
0 
0 
-10.27889792200874 
0.09221549791181879 
0.5736921895119709 
-2.670604867202851 
0 
0 
-1.660467754063731 
0 
5.551115123125783e-17 
-2.359360986460337 
0 
0 
-0.1952090935484742 
-0.3608176154412236 
-0.8605155206429149 
-1.345996581505486 
0 
0 
-0.4680425982821094 
1.727240219216694 
0 
0 
0 
0.1105213824730914 
0 
0 
0 
0 
0 
0 
0.346052871689308 
0.5879080684934676 
0 
0.6629198080113239 
1.182210749438798 
0 
0 
0 
-0.5562172873899988 
1.092923817720997 
1.0445268857123 
0 
-0.3858253149528706 
0.6690393281739264 
0 
0 
-1.35732194779137 
0 
-0.945006067421897 
0.2477249866162457 
0 
0 
0 
-1.106742511067724 
-1.435685395960864 
0 
0 
-0.4557993084183643 
-0.2667006776930978 
0 
0.5641547876424883 
0.799803904021992 
0 
0 
0 
0 
0 
0 
0 
0.1234733693919453 
0.7169684722465066 
-0.4363508281673248 
0.5363836999076144 
0 
-0.7748226565890416 
0 
0 
0 
0 
0 
1.953007466997723 
0 
0 
0.8682420137167562 
0 
0 
0 
0 
0 
-1.347185116105532 
2.897001102992754 
-2.999777106499849 
-0.7843432529786516 
-2.283338610038566 
0 
0.411820128608357 
0 
-0.7168869458847028 
0 
0 
0.5123064224144714 
0.8624607900041439 
0 
1.273604345432714 
1.879106321025867 
-1.003420405023913 
-2.089444406486989 
0 
0 
-0.7295357864708177 
0 
-0.8190042823445042 
0 
0 
0 
-2.703119247790819 
0 
0 
0.3307161408894669 
1.775124196536643 
1.903909764636043 
-0.5199757353005641 
-0.140117887911208 
-0.2871485884025505 
0 
-2.008008745386205 
-1.731034219186166 
-0.9519434235203956 
-0.2641489779058189 
0 
0 
-1.436383606701048 
0 
0.7381286629692974 
0 
1.267184392226398 
0 
0.1678885371275449 
-3.888039029575995 
2.289577182505203 
1.169236797233775 
0 
0 
0 
0.09724486100582774 
3.012964183481007 
0 
0 
1.476950696858509 
0 
-0.5271224811121545 
0 
-2.804781946864597 
0.5387011907299967 
0 
0.5674807901700214 
0.9055656058798417 
0.1693721278556609 
0.2334190395696752 
0 
0 
0 
0.2108315972391389 
-0.7695669400058894 
-1.910935525935776 
0 
3.536779965698583 
0 
0.2342885246161603 
-2.376400388590461 
-0.6815689822141451 
-2.456260447958245 
-1.431477443087006 
-0.4890528358466411 
-0.5153484350970382 
0 
0.3457134504446789 
-0.09368278872414332 
0 
0 
0 
-0.1132410117535732 
2.514261236365587 
0.6708775779065717 
-0.5162158769292073 
0 
0 
0 
0 
0 
-2.532382778327578 
0 
0.5890172098424243 
1.207142513894401 
0 
4.552335356360503 
0 
0 
0.3412389319610544 
0.3013580979036231 
0.05746482118200291 
0 
0 
0.540192180460361 
0.01645512414785987 
0 
0 
1.054760345254504 
-0.7765657442724185 
0 
0 
-2.166243385460827 
0.6447315246249602 
0.3131692218140946 
0 
1.489433017036114 
-2.2638756232466 
3.562190961524532 
0 
0 
-0.4919635878756078 
0.7616904061014541 
-1.698779380583644 
2.107882528470458 
0 
0.5847432452969972 
0 
1.330780131860438 
-1.307157682657343 
-2.502684675844141 
0 
0 
-1.519152426239463 
-1.565111089907772 
-0.2230875415951001 
-0.5387139473258252 
0 
0 
0.5342977087257544 
0 
0 
2.866844485235067 
0.3974272009803738 
1.470891554440245 
0.5844800865955093 
0.004926468659068275 
2.114184509301522 
0.7799875240622876 
-1.160529731338853 
1.080622549125704 
5.869990497562388 
0 
0 
-0.5874293080047127 
0 
0 
0 
0 
0 
0 
0.3607813207542035 
0 
0 
0 
0 
0 
-0.263003577298521 
0 
1.778613793244733 
0.6898106507434218 
0 
1.09991962129329 
0 
0.4511870773521418 
0.1785204651708854 
-2.291329612854613 
0 
0.6063931278576683 
1.98205268965431 
0 
0 
0 
0 
0 
0 
0 
0.1361477856364957 
0 
-0.3411614679761248 
0 
0 
0 
0 
-3.258041419797221 
-1.675244856552615 
0 
0 
0.7862077847324346 
1.549685534650386 
0 
0 
-0.3447159598980146 
0.5597611491970483 
0.6267711889661222 
0 
0 
0 
-1.632927451510397 
-0.2350916494037793 
0 
0 
0 
0 
0 
0 
0 
0.8063444627848175 
0 
-5.027521335308208 
1.376460893552192 
5.424787414324516 
0 
-1.591741151312465 
2.762556573986391 
0 
0 
0 
2.808431949552329 
0 
0 
0.6668093824271573 
0 
0 
0.9491353985738753 
-0.4621822902628079 
-1.856559927956611 
0 
0.4125063546774412 
-1.036077495125072 
2.748373536990245 
0 
0 
0 
0 
-0.4506168935440605 
-1.852742654085545 
0 
0 
0 
-1.47636237414826 
-1.581688767080104 
0 
0 
0 
0 
-3.31598404348525 
0 
-3.574062765372881 
0 
-1.638926927749023 
0 
-0.280223499379764 
2.384047598465765 
0.5785854450181307 
0 
-0.6180777350880113 
0 
0 
0 
0 
0 
-0.1187358201623664 
0 
0.5642499057523646 
-0.9735814961871837 
0 
1.993495059846339 
0.2402189986707479 
0 
0 
0 
0 
0 
0 
-3.684421639787049 
0 
-0.5060906745327585 
0 
0 
0 
-2.001235094251755 
0.3910112864544097 
0.6905723719107498 
0.7005991493989546 
0 
0 
0 
0 
1.480789283581885 
0 
0 
0 
0 
-3.008426138673019 
0.1174877601248516 
0 
0.9875120860230173 
-1.293568541178925 
-0.2465523599065493 
-0.1132622043681773 
0 
0 
0 
0 
2.050030482233443 
0 
-0.9145468096349636 
0 
0 
0 
0 
0 
0 
1.881462172605491 
0 
0 
0 
0 
-0.4493829641208784 
0 
0 
0 
0.1988885452621315 
-0.5539034931752486 
0 
0 
0 
0 
0 
0 
0 
0.1565695506161114 
-0.3527580528677779 
0.9174547647986055 
1.141924151649688 
-0.6306611989415984 
0 
0 
0 
-0.8642674808733348 
0 
0 
0.3945340326483897 
0 
0.2582149252851398 
0 
0 
0 
-0.5520919578542912 
0 
0 
1.561941590013169 
0 
0 
0 
0 
0 
0 
-1.595346318679208 
0 
0 
0.64032459354066 
0.3341066214390661 
0.5463190002415294 
0.6681007152581874 
0 
0 
0 
0 
0 
0 
-0.7229062979939019 
0 
0 
0 
0.2145272770669882 
-1.511054472530519 
0 
0 
0 
0 
0 
0 
-1.485998592180314 
2.863469781685827 
0.5273896815375776 
-1.094118360186635 
-0.984467424051099 
3.842262518192898 
-3.209589168173069 
0 
0 
0.1042716058606392 
0 
0.4945318237877896 
-0.4159657338636941 
1.036963263242338 
0.5211430313292372 
0.9115622713111953 
0 
-1.321510198238919 
0 
-0.1845702801104625 
0.6107712730025389 
0 
-0.5880718816932968 
0 
0 
0 
0 
0 
0.4134096474879577 
0 
0 
0 
0 
0.6468804463960741 
0 
0 
0 
0 
-1.042463941846976 
-0.01516461875789718 
-0.09656395063374167 
0.4208648651144374 
0 
0 
0 
0 
0 
0 
1.359837945602513 
0 
-0.3891864219117259 
0 
-0.2238101795425444 
0.5625551334421263 
0 
-0.678677767375844 
0 
0.2692399275164034 
0 
-0.1733768682204506 
1.621763083883458 
0 
-0.3868876410251763 
0 
0 
0 
0 
0 
0 
0 
0 
0 
0 
1.46284880477758 
0 
2.88937153649049 
0 
0.6498849829909479 
-1.871319294708755 
-1.082500377818533 
-1.130801249079471 
0 
0 
0 
0 
-0.2271132681440971 
0.5484552979093866 
0 
0 
-0.3455836187024819 
0 
0.5094090226370429 
0 
0 
1.076652761976535 
0 
0 
0.6902880859561749 
0 
-0.6280698906031214 
0 
0 
0 
-0.8434775723197889 
0 
0 
0.5405142618256737 
0 
1.134397737289146 
0 
0 
0.9588524364370714 
0 
0 
2.112810547186659 
0 
-0.5364152402221817 
0 
0.261296518483742 
-0.3236340664062832 
-1.271770218166814 
-0.7623516916693501 
0 
-1.506233418120988 
0.4027281275548854 
0.6250940064729377 
-0.8626125829038644 
-0.2329642473180833 
4.783842315422826 
4.885797425985642 
-0.9101291218296177 
0 
0.4456975124673935 
0 
0 
1.628674390004458 
0 
0 
0 
-0.1204044834090165 
0 
0 
0 
-0.7651597020506588 
0 
0.3513355600689155 
0 
0 
1.470499610107672 
0 
-1.057256524366299 
0.1176010481485007 
-0.4575323842082317 
0 
1.262733614585612 
0 
-0.393697112290632 
1.177793238878003 
0.5188515837246813 
0 
0 
0 
0 
0 
0.4322706703716968 
0 
-0.1114939167390535 
-2.164113385410001 
0 
0 
0 
0 
0 
0 
0 
0 
0.7135282819917903 
0.2384898329022985 
0 
-0.4955477969696919 
-1.087642077247301 
0 
0 
0 
-0.3743287124782371 
1.16495583476277 
0 
0 
0 
0 
0 
0 
0.4058504097864289 
0 
0 
0 
0 
0 
0 
-1.084418958195445 
0 
0 
-2.656276734514472 
0 
0 
0 
0 
0 
3.573113330306185 
0 
3.343057876732484 
0 
0 
-0.2934292901506608 
0.5287942803967913 
-2.449928031603759 
0.9321622089345536 
0 
0 
0 
0 
0 
-1.881058079028556 
0 
-0.906684452924978 
-0.6903483138772138 
0 
0 
-0.6808188355545777 
0 
-0.6989318074517126 
0.667796801768696 
0 
0 
0.550987692381312 
-0.4454602781825326 
0 
1.977520574914673 
0 
0.1157833731835641 
0 
0 
0 
0 
0.6744496699980645 
-0.4180243887632917 
0 
0 
0 
-1.527062648724233 
0 
-1.460070951273995 
0 
0 
0.6994670454030493 
0 
0 
0 
0 
0 
0 
0 
1.346134053487683 
-0.1128894183854917 
-0.3600763561989333 
0 
0 
-0.2552930887044557 
0 
0 
0 
0 
0 
1.921357645704988 
0 
-1.205819378867234 
0 
0 
0 
-1.041474180955902 
0.4381708474828718 
0 
2.001235394219392 
0 
-0.0506336197936938 
0 
0 
0.8818648061559309 
0 
-1.584864193004393 
0.5962127249675888 
0 
0 
0 
-0.1303469667316672 
0 
0 
0.5519013637124485 
0 
0 
0 
-1.575590962831585 
0.4322989955403613 
2.041825510914871 
0.1015556221808176 
-3.139855218677155 
-0.8003769786054561 
-0.7448436949312224 
0.06469552317563049 
-0.5971409996474473 
0 
-3.107110212871799 
1.339427183999569 
-1.515110530481426 
0.5335261841116881 
0 
4.02269807780468 
1.264634016236754 
0 
0 
-0.2876434125971618 
-1.246646901417523 
0 
0 
0.1258489803644719 
0 
0 
0 
0.850631518814586 
0 
0 
1.455927475799574 
0 
0 
1.453040130887292 
-0.9150278248688305 
0 
-0.5612139655804735 
0 
0 
0 
-2.103586784047538 
0.9804483777593881 
0 
0 
0 
-0.8179310275558889 
0 
0 
0.454022426216603 
0 
-0.2794654886340182 
0 
0 
-0.3366923111796962 
0 
0 
0 
0 
-1.401164150807918 
0 
-0.5352566639195591 
1.455444354563791 
0 
0 
0 
0 
0 
-1.175346171416047 
0 
0 
0 
1.776710820540773 
0 
-0.8848428323226446 
-0.3720364794694432 
0.3762887218133077 
-0.7373311450636745 
-0.3014880965158462 
-0.7103104472025813 
0 
1.167847409063012 
2.612919408403735 
0 
-0.2414954204355118 
-0.5492151316780414 
-0.5208497798694692 
-1.321356140077335 
0 
0 
1.438000316911857 
0.01589544715102367 
0 
0 
-2.265736164550512 
0 
-3.189816399260986 
0 
0 
-1.510106503584981 
0 
-0.78410887547462 
0 
0 
0 
0 
0 
-3.035808220133871 
-0.4600101859649211 
1.973884259433187 
0.6643382312890996 
-1.449129753669995 
0 
0 
0 
0 
0 
0 
0 
0.3790751821123807 
0 
-1.301857444275812 
0.8112592433540046 
0 
-1.165196027781031 
0 
-0.3501511254382839 
0 
-1.311546311430601 
-0.7570308157365609 
0 
0 
0 
0 
0 
0 
0 
0 
0 
0.5907896456002437 
0.2407566597094916 
0 
0 
-1.362628818056048 
0 
-0.06536965846188511 
0.4006397763658259 
-0.04058017816372414 
0 
-0.6815516284126735 
0 
-0.2632706697529913 
0 
0 
-0.7112561162132989 
0 
-0.5814123744982251 
-0.4084839300026175 
0 
0 
0 
0 
0 
0 
0 
0 
0 
0 
0 
0 
-0.3191122953410309 
0 
0.5484552979093866 
-0.4891120945350313 
0.4568936382302515 
0 
-0.1174406545832173 
1.157130198887403 
0.7112332849586307 
0 
0.8760947950551269 
-1.180947463022313 
-2.767600129519961 
0.7122195176907662 
1.444343176830208 
0.7171477734891117 
-0.3027131132688121 
0 
0 
0 
0 
0 
0.3358203913742935 
0 
0 
0.8112592433540046 
0 
0 
0 
0 
0.3762887218133077 
1.176494851830162 
-1.167577211604397 
0.5013917889067895 
-0.08255017313047615 
0 
-0.5495092294799429 
0 
-1.615270769687549 
0 
-0.2059698832020442 
0 
0.8365269548458232 
0 
0.5572790101155377 
-0.3177914148027129 
0 
0 
-3.469446951953614e-18 
-0.3537146452128874 
-0.4117267252020131 
0 
0 
4.284962176999445 
-1.087019079757544 
0 
0 
0 
-1.887181629147233 
0 
0 
0.9849113395542196 
-0.6820673492960804 
0 
0 
0 
-0.7928135678304052 
0 
-0.894980097984596 
0 
0 
0 
-0.4142001047094866 
0 
1.380562718415993 
-1.39100598980444 
-1.762002286218267 
0 
1.206546438265795 
0.4749046476514968 
-0.7304162198184074 
-0.1754559567597341 
0 
0 
2.145139758697357 
0 
0 
0 
0 
0 
-1.014874417200908 
0 
0 
0 
-4.445088384084842 
-4.531459845348782 
0 
0 
0 
-0.2490632117101984 
0 
0 
0.3913984723240191 
0.4075457057322909 
0 
0 
0.8157939774166395 
0 
0 
0 
0 
0.4385812914985724 
0.6580830480666916 
0 
0 
0.547997717055653 
0.4044118505804186 
0 
0 
0 
-0.1837811534070593 
-1.305532038293741 
-0.9005194253329821 
-2.498084968595357 
-1.197988885931225 
0 
0 
0 
0 
0.5580773029445797 
0 
0 
0 
0 
0 
0 
0 
0.8016488057290148 
-1.385823461521376 
-0.4239827338004249 
0 
0 
-0.7404809698195484 
0.4501439727722315 
0 
0 
-0.2268533004602219 
0 
1.483666165302283 
0.01251642210928026 
0 
-0.165968078722996 
-0.2957119034116942 
-0.2934292901506608 
0 
0.06076439993951682 
-2.759499769023263 
0 
0 
-0.4843277506946754 
0 
0 
0 
0 
0.8780628628186079 
0 
0 
0 
0 
-1.254922133756919 
-2.236487391807604 
0 
0 
0 
0 
-1.182749871653893 
0 
-1.139478758599913 
0 
0.1048774101717319 
0.775825968009028 
2.094734955312764 
0.6117232864847135 
0.823929166752034 
0 
0 
0 
0 
0 
0 
0.03950321969455872 
1.980062790117331 
-0.2877348411655047 
0 
1.09499377378805 
0 
0 
0.6127495456063056 
0 
0 
-1.213974682804726 
0 
0 
-0.5662052118820824 
0 
-0.9985864333316062 
0 
-0.7133844248612794 
-0.8411357844359146 
-0.5561104261666011 
0 
-0.7474660168817108 
-5.600429479528315 
-1.030279054892415 
0 
1.270274419143083 
0.6618895716674225 
-0.4723637343387387 
1.038621424208528 
0.9074194892903964 
1.948814542336582 
2.01958917082399 
-0.05425218550949622 
0 
0 
0.4054520591338095 
0 
0 
0 
2.302319405842512 
1.706655865611132 
0 
-2.025191123566374 
0 
0 
0.4205388266527763 
0 
0 
0.2221167501032708 
0 
0 
1.185032549024399 
0 
-0.4366504643586203 
0 
0 
0 
0 
-0.7430909265372065 
0 
0 
0 
-0.7668913017964604 
-0.9237003133920324 
0 
0 
0.7987552588038903 
0 
0 
0 
0 
-2.373506458859023 
-0.4212906797073225 
0 
-1.858900819825342 
0 
0 
0 
0 
0 
0 
0 
0 
0 
0 
0 
0 
0 
0 
0 
0 
-1.408222833289095 
-0.2959227268399778 
0 
0 
1.140200497454262 
0 
0 
0 
0 
0 
0 
0 
0 
0 
0 
0 
-0.4688666688733898 
0 
-0.5535599723533949 
0 
1.243929766696515 
0 
-0.6365889891665417 
0 
0 
0 
3.761438818082993 
0 
-0.4063089756067313 
-0.3222486606752145 
0 
-2.148422843686637 
0 
0 
0.4399978965284477 
0.7096415854385734 
0 
0 
0.07490101913969742 
0 
-0.771416746385459 
-0.6759586544861278 
0.3359705763208764 
0 
-0.9797963359102984 
1.431540385316732 
0.2496333180495081 
0 
0.587029245724237 
-1.947820706138914 
0 
0 
-0.2642548638709825 
1.901919772915774 
-0.4858095284368521 
0 
1.454872006579544 
-0.1275654218850338 
-1.454331149663952 
0.4078969887083205 
0.6898106507434218 
-0.6507869306629791 
0.2999793898911008 
0 
3.175965290206596 
0 
0 
0 
0 
0 
0 
-0.938152340564738 
-0.09677400708788084 
0.5643293415201645 
0.8185768687599337 
1.051748497310836 
0 
-3.916978152986078 
1.269191850906654 
0.4574658245538405 
0 
0 
0 
0 
0 
0.27347825337714 
0 
-0.7070076396246919 
0 
0.7001518898049821 
0 
0 
-1.629571912446961 
0 
1.17231230077261 
0 
0 
0.7082942242947569 
1.765371222198527 
0 
0 
0 
0 
0 
0.6517808050266061 
0 
0 
-0.4410533270040964 
-0.5566494969005266 
0 
0 
-0.5224886180665828 
0 
0 
0 
0 
0 
2.791866732639746 
0 
0 
0 
-3.283021052550387 
1.120250116160348 
0 
0 
0.8796567982718582 
-0.1399769625559874 
1.223628565304887 
0 
0 
0.1758598450271207 
0 
-0.6812924342609388 
-0.1361473003727702 
0 
0 
0 
0 
0 
0.302498884301766 
0 
0 
0 
0 
-0.9927641250181521 
0 
0 
0 
0 
3.676396793875126 
-0.938152340564738 
0 
1.23097069225927 
0 
0 
-0.1796638866219862 
0 
3.786802134404208 
0 
0 
-0.6313278348612588 
0 
-0.506065548392581 
0 
0 
0.3935927209958349 
0 
0 
0 
0 
0 
0 
0 
1.063217723564833 
0.9683680943059355 
-1.203030527459561 
0 
0 
-1.308982768195182 
0 
0 
-2.233134227987611 
-1.648527890555486 
0 
0 
0.9299925337794339 
0 
0 
0 
-3.376842007575922 
-0.7322663157161826 
0 
-0.7168869458847028 
-1.272012956757545 
2.21065303201922 
0 
0 
0 
0 
0 
-0.01159792729911735 
0 
-0.5462711399835853 
-1.816107634367048 
-1.246377033204503 
0 
0 
0 
-0.2570743523918875 
-0.4252515404828637 
0 
0 
0 
0 
0.3608104443231001 
0 
0 
0 
1.981232412320825 
-0.93837086309982 
1.443882525442054 
0 
0 
0 
0 
0 
-1.02299948774511 
0.8979495684487624 
0 
0.4450890802405521 
-0.03347234123620536 
1.162074040031715 
0 
1.117943217141693 
0 
0 
-0.2725575193819814 
-0.3129952402989626 
0 
0.6805490182930493 
0 
0.4198206935786598 
0 
0 
0 
2.23489968616747 
-0.7096357850486509 
0 
0 
-0.7195432536992229 
0 
0 
-1.407375592210163 
-0.4180403755797779 
0 
0 
0 
0 
0 
0.357139074945266 
0 
0 
-1.616766506685934 
0 
0.07497577174298384 
-0.6053056367812024 
0 
0 
0 
0 
-0.2479357991538902 
0 
-0.2474395007163428 
-2.219644435990713 
0 
0 
0 
0.7736584780373781 
0 
0 
0 
0 
-0.9038958183640056 
-3.875631785758304 
0 
0 
-0.5401721908774331 
0 
0.9646682653190412 
0 
-0.7759087511998823 
0 
0 
0 
0 
0 
0 
0 
-0.2047416089721034 
-0.2271015690147648 
0 
-3.12482534897116 
0 
-0.9165746338941363 
0 
0 
0.5965739229325512 
0.6611726976772614 
0.4682693636814235 
0.4699235745887073 
0 
0 
0.0900556342616782 
-1.595329635691207 
0 
-0.9243641639023639 
0 
0 
1.066920113368256 
1.162691688319365 
-2.063536312961577 
0.628323153047865 
0.4376916541760675 
0 
0 
0.02917452127462454 
0 
0 
0 
-1.987424483454687 
0 
0 
0 
0 
0 
0 
0 
-1.069647835604627 
1.543316027741676 
0 
0 
0 
2.113395629650183 
0 
0.225183144267989 
0 
1.16736868611663 
0.5935452573732696 
1.218898039603865 
0 
1.118674564271449 
-0.9915377000638805 
0 
0 
0 
-0.5365983012525576 
0 
0 
0 
0 
0 
-0.4186712841380669 
0 
-0.4995901724603464 
-0.9573352339304043 
0 
-0.5716538789262983 
0 
0 
-0.4304212766180742 
-0.3884470896767577 
2.383475892387225 
-0.5539034931752486 
1.292803532020591 
0 
0 
0 
-1.030997210981832 
0 
0 
-0.03333300882844694 
0 
0 
0 
0 
0.4936040116700099 
-0.8674741254516806 
0 
0 
0 
0 
0 
0.7466456778182546 
1.305875219723243 
0 
0 
0 
0 
0 
1.149942826123604 
-1.538142306694857 
0 
0.2484092903907097 
0 
1.594416043444854 
0 
-1.61734501376289 
0 
0 
0 
0 
0 
0 
0 
0 
-0.7431004295118318 
0 
-2.449928031603759 
-0.4971358762180825 
0 
0.488803552272752 
-0.6053056367812024 
0 
0.5996936593224579 
0.7300930930507765 
0 
-0.2290120079913053 
0 
1.547336196444567 
0 
-0.5603802036722653 
0 
0 
0 
0 
0 
0 
1.93848653528115 
0 
0 
0 
0 
0 
0 
0 
0.4501439727722315 
0 
-1.465063982838507 
0 
0 
0 
0 
0 
-1.65987285200403 
0 
0 
0 
0 
0.6406662797220845 
0 
0 
-0.0003170711355366278 
0 
1.279824954299491 
0 
0 
0.338291202866426 
0 
0 
0 
0 
1.641599568223491 
0.7434551118704453 
0 
0 
0 
-0.5302205346972971 
0 
1.65395275797416 
0 
0 
0 
0 
-0.825594058279595 
0 
-0.5889509159989376 
0.2308147944478556 
-1.281700543407816 
-0.3799498242497968 
-1.717864411583939 
0 
0.7198281587895264 
-1.385180597438407 
0 
2.483509633426311 
0 
0 
0 
0 
0 
-0.536204635658253 
0 
-0.3138944449300987 
0 
0 
0 
0 
-0.2604179787884356 
0 
0 
-0.7570525640066467 
-0.08144921752904566 
-1.871293004488425 
0 
-1.774891772622843 
0 
0 
0 
0 
0 
0 
-0.01417272492525533 
0 
0 
0 
0.8108962283457507 
-0.6556859008014597 
-0.4682358958532149 
1.111712402200265 
0 
0 
0 
1.227812423806712 
0 
0.8520392074908617 
0 
-0.6370191086940528 
-0.8322444882124491 
-0.008169764616156988 
0 
-0.3774209850226464 
-0.5009814571118691 
0 
0 
-1.074240625982197 
0 
0 
-3.933493202536486 
0 
0.3863225649442728 
0 
0.4050364175153511 
0.2924217506230683 
0 
0 
0 
0 
0 
0 
0 
0 
0 
0 
-0.4682358958532149 
0 
0 
0 
-0.8173459799654343 
0 
0 
0 
0 
0 
0 
0.2356432852187036 
-0.4327527286800216 
-0.3400365491734625 
0 
-0.3541003438287913 
0 
0 
0 
0 
0 
2.048387200430493 
0 
-0.659921636361242 
0 
0 
-3.100531819738564 
-0.8743879423311866 
0 
0.5170541104203005 
0 
1.748848601304879 
-0.723739977544901 
0 
0 
0 
0 
0 
0.3491701326774863 
-1.031974373314343 
0.571239180268998 
0 
0 
0 
0 
0 
0 
0 
0.4321384610048474 
0 
0 
0 
0 
0 
0 
0 
0 
-0.6603981351598015 
0 
-0.5347778017740447 
0 
0 
0 
0 
1.93848653528115 
-0.2271829657173926 
0 
0 
0 
-0.8396562858171617 
0 
-1.85787864778954 
0 
0 
0 
0 
-2.51249419110768 
0 
-0.2902698960048327 
0 
-0.531383625452726 
0 
-1.360087766934437 
-0.2246889340766889 
0 
0 
0 
-0.2551876198143382 
-0.7325054909062343 
2.619389606422771 
0 
0 
0.6720755627449468 
0 
-2.452321386892259 
0 
-1.094118360186635 
0 
0 
0 
0 
-0.06446877908495015 
0 
-0.04330723297831404 
0 
0 
0 
0 
0 
0 
0 
0 
0 
0.9941028604437857 
1.428758044290507 
-1.269355314100674 
0.3251300018193659 
0 
1.890438455658247 
0 
0 
0 
0 
-0.2287034832383157 
-0.07452920109120202 
-0.2042989161738854 
-2.17923192479266 
0 
0 
0 
0 
1.490104308983996 
0 
0 
0 
1.449425815431481 
0 
0 
-0.6862830608538329 
0.2255639902092927 
-0.3816887449362266 
0 
0 
0 
-0.6175872049913467 
-0.3587488845059694 
0 
0 
0.2584726488409592 
0 
0 
0 
0 
-0.8930946537358554 
0 
0 
0 
0 
2.63825228720583 
0 
0.8252476803474106 
0.9977748992240973 
0 
3.942997951458639 
0 
0 
0.6331153338187343 
0 
0 
0 
0 
-1.498960794252692 
-0.4698717748891316 
0 
0 
0 
-2.934209856472701 
-0.9166517216392038 
0 
0 
0 
-0.1808684622131135 
0 
0 
-0.9061897173413492 
0 
0 
0 
0 
0 
0 
0 
0 
0 
0 
0 
0 
0 
-0.9305527482847528 
-0.5816678065140838 
0 
0 
0 
-0.4969072454501459 
0 
0 
0 
0 
0.7785739260094787 
-0.2465523599065493 
0 
0 
0 
0 
0.8374195340725897 
1.700447187314282 
0 
0 
0 
0 
0 
0 
-0.4781554722993535 
0.7426256520225822 
0 
-1.485822812523942 
-0.6603981351598015 
-0.4304901572064661 
-0.7124802019523565 
0 
0 
0 
0 
0 
1.105729445667732 
0 
0 
-0.2051740282516284 
-0.3185340234367128 
0 
0 
0 
-1.126571171788846 
0 
0 
-1.161484606911982 
-0.180693269538496 
0 
-0.9414062104972565 
0 
2.07483740575999 
0 
0 
0 
0.4795621650519919 
0 
0 
2.529022202890124 
0 
0 
0 
0 
-0.7695501963369715 
0 
0.6075435512437728 
0.07871938688137461 
0.5580127978210739 
0 
0 
0 
0 
0 
-0.9328237276348894 
-2.102516401662688 
0.9771266046520339 
0 
-2.553102587288334 
0 
0 
-2.096834324924316 
0 
0 
0.8011154698294158 
0.6892279240469761 
-0.8903800467483876 
0 
-0.9698883684655151 
0 
0 
0 
0 
1.232254125920261 
-0.4680617266698593 
0 
0 
0 
0 
0 
0 
0 
0 
-0.05239438352991402 
0 
0 
0 
-0.2022468123059978 
-0.4381290804298146 
-0.1258954935923765 
0.3724490651029089 
0 
0 
0 
0 
0 
0.651226837368637 
0.4292291868774467 
0 
0 
0 
0 
0.8156275849356422 
-0.9872341629608697 
0 
0 
0.8921075271808355 
-0.1509818871479085 
0 
1.037528449172715 
0 
0 
1.163387740700375 
0 
-2.203727609989787 
0 
-0.604140413096629 
0 
0 
0 
0 
0.7466405359884136 
0.1459025757868485 
0 
0 
0 
0 
0 
0 
0 
0 
0 
1.523708625284763 
0 
0 
0 
0 
0 
0 
0 
0 
-0.4987831884358976 
0 
0.6454256177312561 
1.463693203135814 
0 
0.4117829419652158 
-1.117306094620312 
0 
0 
0 
0 
0 
0 
-0.3813383747941263 
-0.2374378210672938 
0.2560528649945975 
-0.4670156838401602 
-3.381394383193087 
-0.6377251566128136 
0 
0 
0 
0 
0 
-0.08424859890753304 
-0.4946468402913377 
-1.014599067196612 
0 
0 
1.499261985197451 
0.6940074756828496 
0 
0 
0 
0 
0 
0 
0 
-0.7668913017964604 
0 
0 
0 
0 
-0.824055330502612 
-0.2828782645753693 
-0.3432292885846677 
0 
0 
0 
0 
0 
0 
-3.770465145373803 
0 
-1.678755987265776 
0 
0 
-2.757888875679797 
1.192701386884045 
0 
0 
-1.379819228065104 
0 
2.805307817359757 
0 
0.2033604445773692 
0 
-0.3171393733155429 
0 
0 
0 
0 
0 
0 
0 
-2.878407100449649 
-0.6798424411619847 
-0.6894373860055726 
0 
0 
0 
0.3346881433992952 
0 
0 
-0.317636902723738 
0 
0 
0 
1.593193662084918 
0.5804824122186067 
0.8986322938108251 
0 
-0.3945788399783222 
0 
-0.7255921456534392 
0 
0 
0 
0 
0 
0 
0 
0 
0 
-0.4975813956990189 
0 
0.4635135776026831 
-0.9279507573917092 
0 
0 
0 
-0.8083158439677101 
0 
0 
-2.76109002500852 
0 
0 
0 
0 
2.459683162239751 
2.480528059979014 
0 
0 
-0.5796108787454961 
0 
0.3403586767185599 
0 
0 
0 
-2.895186094831167 
0.5250892144992524 
0 
-0.6783571778165191 
0 
0 
0 
0.4334554837941551 
0 
0 
0 
-0.141173708163588 
-1.058489490765492 
-0.2680571752229172 
0.5314418857528185 
1.572918824403491 
0 
0 
0 
0 
0 
0 
-0.2560218905376644 
-0.8214904937540576 
0 
0 
-0.2566276143513191 
0 
0 
0 
0 
0 
1.359377302772242 
0 
0.1258489803644719 
0 
0 
0 
0.4101305708219134 
-1.268721146756422 
0 
0.6443349977556296 
-0.3555034672791957 
0 
0 
0 
-1.129574781601809 
0 
0 
0.6518006928022683 
0 
0 
0 
-0.6392059549323376 
0 
-0.4412377220268416 
0 
0 
0 
-3.273804086169302 
-2.297314263834399 
0 
0 
0 
0.6826597024479143 
1.979035937515129 
0 
0 
0.09680176887693816 
1.346592695195611 
0 
-1.484167992065711 
1.090608889630353 
1.519970552715058 
1.217572948056743 
0 
0 
1.529991187829987 
-1.345160069867494 
0.2441549823433519 
0.505053952610425 
-0.2093768156586978 
-2.918753529325091 
1.53880825817156 
-0.621683919810615 
-1.582685856412757 
0.07663761238823738 
0.05944737452133681 
0 
-0.7690582245025918 
0 
0 
0 
-0.9148356992073137 
0.3280174728138731 
0 
0 
0 
0 
0 
0 
0 
0 
0 
0 
0 
-0.9425498156245244 
0 
-0.233310608881126 
0 
-0.3768999542729304 
0 
0.04202198572394258 
0 
0 
0 
0 
-0.7579948738886233 
0.2359352144944539 
0 
0.3403586767185599 
0 
1.579182782984801 
0 
0 
0 
0 
0 
0 
0 
0 
0 
1.106480589960058 
0 
0 
0 
0.7333237335891164 
0 
0 
0 
-2.593207870213973 
0.3077510487808072 
-0.2531102231902866 
0 
-0.412997827133173 
0 
0 
-0.3020153933047531 
0 
0 
0 
0 
0 
0 
0 
0 
0 
0 
0 
0 
0 
-0.945006067421897 
1.466855436160082 
0 
0 
0 
0 
0 
0 
0 
0 
0 
0.6447315246249602 
0.4506530752132427 
0 
0.1132506120100266 
0 
0 
0 
0.5822283254701732 
-0.4946468402913377 
0 
0 
-0.7789802024988693 
0 
0 
-0.9467112163642113 
0 
0 
0 
0 
0 
0.6838004422719655 
0.8284176668419101 
0 
0 
0 
0 
0 
0 
-0.7741818352178919 
0 
-0.296739274852784 
0 
0 
-0.4781554722993535 
0 
0.03209252369963252 
-1.078504152824668 
-0.1483846179668968 
0 
0.7919462330460227 
0 
0 
-1.975221114389923 
0 
0 
0 
0 
0 
0 
0.8986322938108251 
-2.459146723280601 
0 
-0.2447445215018013 
0.3720450644337578 
-0.5331708227442585 
0 
0 
-0.2364169908748107 
0 
0 
0 
0.4167022833423999 
0 
-0.1551660121712682 
0 
0 
0 
0 
0 
0 
0 
0 
0 
0 
0 
0 
0 
0 
-0.3544432632589728 
0 
0 
0 
0 
0 
-1.178027426024952 
-0.3490865997149048 
0 
0 
-0.469996865354667 
-1.162070210822659 
0.6685378182146904 
0 
0.9144349749050631 
0 
0.1658687542039167 
0 
0 
0 
0 
0.03177453276355226 
0 
-0.4894890430036026 
0 
0 
0 
0 
-0.8433974072636293 
0 
0 
1.083555809436008 
0 
0.07904342380556793 
0 
0 
0 
0.5273896815375776 
0 
0 
0 
0 
0 
0 
0 
0 
0 
0 
0 
-2.040442607082523 
-1.067671439183943 
0 
0 
0 
0 
0 
6.965888952278286 
0.8760067271060679 
0 
0 
0 
0 
1.345623573528632 
0 
-0.6697833246459599 
0 
0 
0 
0 
-1.462390409096379 
0.2571860897207193 
0 
-0.5425721715521636 
-2.43900921877885 
0 
0 
0.5424742172144496 
-0.7273709761497628 
-0.2686193191675197 
0 
0 
0 
0 
0 
0 
1.269125825138675 
0 
0 
0 
0 
0 
0 
0 
0 
0 
-0.3651485645994499 
0 
0 
0 
1.974205659827242 
0 
0 
0 
-0.2820182295261979 
0 
0 
0 
0 
0 
0.5509645073560178 
-0.03915473323935773 
0 
0 
-2.160421404880364 
0 
0 
0.843671760086075 
0 
0 
0 
0 
0 
0.2940750985095727 
1.674822240419162 
0 
-0.3745619575692143 
0 
0 
0 
0 
-0.3541406071594206 
0.5897008268741564 
-0.3311795982875048 
0.2119214793492917 
-0.3162289739424254 
0 
0.2572191244476955 
0 
0 
0 
0.6843427281362522 
1.308631549984637 
0 
0 
0 
0 
0 
1.013213379896635 
0 
0 
-1.480385475916287 
0.7736584780373781 
0 
0 
0 
0 
0 
0 
0 
-2.088155313626475 
0 
0 
0 
0 
0.4427923688549006 
0 
-0.6060944169817453 
0.0216124361254922 
0 
0 
0 
0.5405142618256737 
-1.885313865914332 
-2.633698473368114 
0 
3.332351559465963 
-0.5391863938318747 
-0.4893823457765056 
0.1779818410399736 
0 
-0.1671386735691755 
0 
0 
-0.8429323596533304 
0 
0 
0 
0.8153387247246613 
-0.8097503506698571 
0 
0.9011414721618917 
0 
0 
0 
-4.984143501484673 
-1.963141488304825 
0 
0 
2.124936300458816 
-0.4302087851175656 
0 
0 
-0.3635231970355879 
-1.761514791219704 
0 
1.037171183576695 
0 
-1.633752319431492 
0 
0 
0 
0 
0 
0.5448927238350372 
0 
0 
0 
0 
0 
0 
0 
1.06720578740859 
0 
-0.3116145890521988 
0 
0 
-1.895688833055849 
-0.6370191086940528 
0 
0.9065712752502701 
0 
0 
0 
0 
0 
0 
-0.6648763875004978 
0.1657471135625838 
0 
1.385764010187589 
0 
0 
0 
0 
0 
0 
0 
0 
0 
0 
-0.3185340234367128 
0.6608539994782269 
0 
0 
0 
0.4870287515042709 
0 
0 
0 
0 
0 
0 
-1.346525213300747 
0 
0 
0 
1.695615243699872 
0 
0 
0 
0 
0 
0 
1.171572920738367 
0 
1.197841239501197 
0 
0 
0.7940423510681909 
0 
0 
0 
0 
0 
0 
0 
0 
0 
0 
0 
0 
0 
0 
-1.249870147931602 
0 
-0.1219492039854729 
0 
0 
-0.6599274934447716 
-2.554940943029112 
0.5357033093055386 
0 
0 
0 
0.5431525833591856 
-2.183452380010583 
0 
0 
0 
0 
0.01505485684646497 
0 
0.6262486306480846 
-0.4084839300026175 
0 
0 
0 
0 
0 
-0.4998213475092537 
0 
0.9452476491855191 
0 
0 
1.571730944118747 
0 
-0.9636686888108006 
0 
0 
0 
0 
-0.9613532998637686 
0 
0 
0 
0 
0 
0 
-0.7341954248780874 
-1.041474180955902 
0 
0 
-1.030525080070854 
0 
0 
-1.495520412168265 
0 
0 
0 
0 
0 
0.5711648242814851 
0 
0 
0 
0 
-1.099153087985566 
-1.971696751220029 
0 
0 
0 
0 
0 
-0.7733578398096687 
-0.4454862470823339 
0.2083141651722943 
0.01556623736368543 
0 
0 
0 
0 
0 
0 
0 
0 
0 
0 
0 
0 
0 
0 
0.2932091433842098 
-2.894975975628888 
-0.435760463587988 
0 
0 
0 
-0.2637804058522818 
0 
0 
0 
-0.2407873460793609 
0.6169040572778556 
0 
0 
0 
0 
-0.4304212766180742 
0 
0.850127308684189 
0 
1.127623351691723 
0 
0 
1.972146801270462 
0.7270715360557333 
-1.272192996286633 
-0.1596485479673957 
0 
0 
0 
-0.4898274106211821 
0 
1.114813136630164 
0 
0 
0 
0 
0 
0 
0 
0 
0.3964891858763356 
-0.4604366994728426 
0 
0 
0 
0 
0 
0 
0 
0 
0 
-0.690520830211984 
-0.4544017732145714 
0 
0 
0 
0 
-0.6410402093020181 
0 
0 
0 
1.04461467094375 
0 
0 
0 
0 
0 
0 
0 
0 
0.3661505483290982 
0 
0 
0 
0 
0 
0 
0 
-0.1941993920142445 
0 
0 
0 
0 
-0.5693482258778457 
0 
0.4919695831472022 
-0.5421663220666646 
0 
0 
0 
0 
0 
-0.3265811732529941 
0 
0.2940750985095727 
0 
0 
0.2334190395696752 
0 
-2.362218185678396 
0 
0 
0 
0.3704417249925241 
0 
0 
-0.6313623347123083 
0 
0 
-0.6603981351598015 
0 
0 
0 
0 
0 
-0.5153484350970382 
0 
0 
0 
0 
0.5998819142701736 
0.9424067154132409 
-0.4779664751125053 
-1.745973779041944 
0 
0.5103547856808869 
0 
0 
0 
0 
0 
0 
-0.1258954935923765 
0 
0 
-0.1614953253467157 
0 
0 
1.309333119288768 
0 
0 
-0.2623901725711261 
0 
0 
0 
0 
0 
0 
0 
0 
0.4172522870411741 
-0.4820087517455157 
0.4176660922039309 
0 
0.6773956554129453 
0 
-0.4157084421223441 
1.393738988259305 
-1.471452523127699 
0.4814989957173558 
0 
0 
0.2767022429341686 
0 
-0.9121803042173022 
0 
0 
1.267094220456711 
0 
0.5512896178750528 
0.2839900532506292 
0 
0 
0 
-1.009902808867251 
0 
0 
-0.3774209850226464 
0 
0.3621714468829242 
0 
0 
0 
0 
0 
0 
0 
-0.1552590240857503 
0 
0 
0 
0 
0 
0 
0 
0 
0 
0 
0 
0 
0 
-0.6920044776644099 
0 
0.4537099119355878 
0 
0 
0 
0 
-0.4483744027066845 
0 
0 
0 
0 
-0.9820804081487761 
0 
0 
0 
0 
0 
-0.5977119677554298 
0.8365505119334216 
0 
0.7336156519739793 
-0.4129876285939955 
1.473472138989688 
0 
0 
0 
0 
0 
0 
0 
0 
0 
0 
0 
0 
0 
0 
0 
0 
0 
0 
0.3345430871835146 
0 
0 
0 
0 
0 
0.9350156167251139 
-0.8774856376224646 
0.93629930684139 
0 
0 
0 
-0.307324167291714 
0 
0 
-0.8393234936409764 
0 
0 
-0.6872277077951245 
0 
0 
0 
-0.4672680336754335 
0 
0 
0 
0 
-0.08197531542704542 
0 
-0.156167215290632 
0 
-0.05583759116002138 
0 
0 
-0.7077950124758629 
-0.6567118126017969 
0 
-0.03291737923332619 
-0.435185286377066 
0.02021412443681497 
0 
0 
0 
0 
-0.2759682217228808 
0 
0 
-0.3648171946050232 
0.5366997571588517 
0 
0 
0 
0 
0 
0 
1.289792557566885 
0 
0 
0 
0.09561656184222168 
-0.5419936773674832 
0 
0 
0 
-1.016565952315733 
-2.151881573593455 
-0.9856826115142577 
0 
0 
0 
0 
-0.5659471373023413 
0 
0 
0 
0 
0 
1.236914228715184 
0 
0 
0 
0 
-0.4192896635731325 
0.192803352608968 
0 
0 
0 
0 
0 
0.1758598450271207 
0 
0.2853058637817694 
-0.4043156989723768 
0 
0 
0 
-0.4890811441213836 
-0.1568278510961847 
1.053493340861209 
0 
0 
0 
0 
0 
0 
0 
0 
0 
-0.7103104472025813 
-1.861105496569506 
-1.015334336025267 
-0.3907317670196859 
0 
0 
0 
0 
1.822380437514077 
0 
-0.1256745503289117 
-0.2476045809440593 
0 
0 
0 
0 
-0.1702279847881046 
0 
0 
0 
0 
0 
0 
0 
0 
0 
-0.07401805310205198 
0 
-2.204837809086303 
0.9858945261790057 
0 
0 
0 
0 
0 
0 
0 
0 
-0.104234855820171 
0 
-0.4471423658036371 
-0.8641845123292189 
0 
0 
0 
-0.9755510169039366 
0 
-0.5114276606093412 
1.670961323341235 
1.544154340896033 
-1.179181449566796 
0 
0.9258480809119988 
0 
0 
0 
0 
0 
0 
0 
0 
0.3456123525235637 
0 
0 
0 
-1.057218533506203 
0 
0 
0 
0 
0 
0.2245142908536748 
0 
-0.1809263244501423 
-0.6926857723052864 
1.030647745922255 
0 
-0.5751017803394024 
-0.3580274393757731 
0 
0 
0 
0 
0 
0 
0 
0 
-1.372602589300767 
0 
-1.485579959464008 
0 
0.1658687542039167 
0 
0 
-0.8613396198053438 
0.7042988646161898 
0 
0 
0 
1.903201807944788 
0 
0 
0 
0 
-0.5715799610047064 
0.03324393451360572 
0 
-0.771416746385459 
0.4565139857103605 
0 
0 
-0.3147870092826201 
0 
0 
1.826079284917757 
0.8041492551255447 
0 
-0.6611533002757088 
0 
0 
0 
0 
0 
0 
0 
0.5159557731251756 
0.3928177058900073 
0 
1.59171378588482 
0 
0 
0 
0.1152202917365489 
-1.137149108007333 
0 
0 
-0.1676378410946895 
0 
-0.3527580528677779 
0 
0 
0 
0 
-0.398746411530599 
2.461554356217029 
-1.467698289559815 
-0.1331219183145458 
1.137322234252567 
-0.4670156838401602 
0 
0 
0 
0 
0 
0 
0 
0 
0.1528899861113946 
-1.259698778759408 
-0.3344914836775383 
-1.002211888477698 
2.151040467539255 
-0.3593277233094031 
0 
0 
0 
0 
-0.2476045809440593 
0 
0 
0 
0 
0 
0 
0.9670817964762259 
0.3976168230806411 
0 
0 
0 
0 
0 
0 
0 
0 
-0.158074479679959 
-0.4057387877801454 
0 
0.4123161028760263 
0.3031238536854296 
-0.5959469589068936 
0 
0 
0 
0 
0 
0 
-0.6138663316868505 
-2.810276571063613 
-1.721792230015458 
0 
0 
0 
0 
-1.035608745240677 
0 
0 
0 
0 
0 
-0.6192474824048257 
-0.02807652293560196 
-0.7085991457837765 
0 
0 
0 
0 
0 
0 
0.9127286134643178 
0 
-0.4338091826755074 
0 
0.03116582082437938 
-0.3395427119066341 
0 
0 
0 
-1.325926471292672 
0 
0 
0 
-0.5331879268631678 
1.188801951666712 
0 
0 
0 
0 
0 
0 
0 
0 
0 
0.5461879614919593 
0 
-0.6921003816268912 
0 
0 
0 
0 
-2.208023900860129 
-0.9621857611572467 
0 
0 
0 
0 
0.2379710936794004 
0 
0 
0 
0 
0 
-2.133351766339016 
-0.2124581626350197 
-0.7258656213003599 
0 
0 
0 
0 
0 
0 
0 
-0.2287034832383157 
0 
0 
0 
0 
0 
-0.3926409987941429 
0 
0 
0 
0 
-0.7958843064293 
0 
0 
0 
0 
0 
0 
0 
0 
0 
0 
0 
-0.1883361739097654 
0 
0 
2.680956920560498 
0 
0.5741811975721789 
0 
0 
0 
0 
0 
0 
0 
-0.8435531810493566 
0 
0 
0 
0 
0 
0 
0 
0 
-3.452456231008596 
0 
0.9560864655369959 
0 
0 
-0.4624090438934551 
0 
0 
0 
0 
0 
0 
0 
0 
0.1564424031136237 
-0.9678634874802807 
0 
0 
0 
0 
0 
1.230155122059583 
0 
0 
0 
0.4018258508063091 
-1.354787313191366 
0 
1.238392098563844 
-0.3955974827543718 
0 
0 
0 
-0.6945392133189868 
0 
0.3718015444110291 
0 
0 
0 
0 
0 
-0.7972053670190012 
0 
0 
0 
1.083664614944918 
0 
0 
-1.190091382446922 
0 
0 
1.320196223210706 
0 
0 
0 
1.832060288637003 
-0.307809205404973 
-1.404743331932496 
0.8068838976048692 
0 
0 
0 
0 
0 
0.5251569328198195 
0 
-2.083028171495499 
0 
0 
0 
0 
0 
0 
0 
0 
0 
0 
0 
0 
0 
0 
0 
0 
-1.127618940332251 
0 
0.2232968894582238 
0 
0 
-0.6937184933743812 
2.650083342846714 
0 
0 
0 
0 
0 
0.1025263679547819 
0 
-0.3801270349916894 
0 
-0.03111571222585529 
0 
0 
0 
0 
0 
0 
-0.8396562858171617 
0 
0 
-0.2536881358110701 
-0.05199890264023554 
0 
0 
0 
0 
0.4208648651144374 
0.5145471767953126 
0 
0 
-1.024888137792814 
0.736248263410423 
0 
0 
0.2136739480470596 
-0.3079445294082999 
0 
0.2530524419825277 
-0.4841892520811087 
-2.290655834993162 
0 
0 
0 
0 
0 
0 
0 
-0.4580176884356787 
0.906136333359429 
1.236866638665231 
1.451061597034832 
0 
0 
-0.2934836703245968 
0 
0 
0 
0 
0.8282052440665699 
-2.401930913858683 
-2.102554645329298 
0 
-0.3366923111796962 
0 
0 
0 
0 
-2.816888548727102 
0 
0.05597193426701102 
0 
0 
0 
0 
1.539564081954154 
0.413837966218174 
0 
0 
0 
0 
0 
-1.419468115347554 
0 
0 
0 
1.398246289845311 
1.683011426388728 
0.646527174597797 
-1.814699272352916 
0 
0 
0 
0 
0 
0 
0 
0 
0 
-0.7452480444905806 
1.445935163901878 
0 
0 
0 
0 
-7.256135431904107 
0 
0 
-0.5922812293118067 
0 
0 
0 
0 
0 
0 
0 
1.08240651211648 
0 
0 
-0.1483846179668968 
0 
-0.2465523599065493 
0 
0 
0.442492370471391 
-0.2945825603450215 
0 
0 
0 
0 
0 
-1.565178653987592 
0 
0.2013450587824522 
0 
0 
0 
-0.6238088704381864 
0 
0 
0 
-0.7626865781597661 
0 
0 
-0.2350380828137904 
0 
0 
-0.2717690809945618 
-1.404095631526057 
0 
0 
1.221349182384158 
0 
-0.6443930687878787 
0 
0 
0.2136739480470596 
0.466990117125952 
0 
0 
0 
-0.4287005671962015 
0 
-0.6050558507922346 
-0.03090786304899337 
0 
0.7819934100500404 
0 
-0.2073656821494927 
-1.901497553813402 
0 
0 
0 
0 
0 
0 
-0.7881090534996833 
0.6434134945284012 
0 
0 
0 
0 
0.5091996118444824 
0 
0 
0 
-0.2680571752229172 
-0.9024566903909708 
-0.7733578398096687 
-0.7733578398096687 
1.481995202001223 
-0.5044367535347815 
-0.5044367535347815 
-0.5044367535347815 
-1.294317892001871 
-1.698173636914974 
0.06282765627535807 
-0.3959090254391183 
-0.934332353415937 
-0.934332353415937 
-0.934332353415937 
-0.934332353415937 
-0.934332353415937 
-0.08478158774051384 
-0.08478158774051384 
-0.08478158774051384 
-0.3859437555170025 
-0.2101494489290823 
-0.1559681009482172 
-0.6458571082406748 
-0.2654739681790252 
1.746914229968711 
-0.4579665731271363 
-0.6506798110323991 
-3.158577013016632 
-4.474225445484167 
-0.4527359259200555 
-0.03603364257765562 
1.982227176554506 
-1.537539169802838 
0.52557097376358 
1.698307399054774 
-0.8081609019961791 
-0.2616506549504073 
0.7386194125832487 
-2.421568789404235 
-0.8227320958507451 
-1.19575390043795 
-2.715801071051196 
-0.4351709116383588 
-0.4351709116383588 
-0.1534491530572384 
-2.501886044757816 
-0.9282718096462804 
0.2659808547439586 
-4.254770785238229 
-0.4006846404387917 
0.2458425341590052 
-0.6654191886767331 
-0.4006846404387917 
-1.695326311993038 
1.001772946199839 
0.3316154452440676 
-0.6835989293348664 
-1.296305528385581 
-1.547714888336198 
-1.008405228127421 
-1.164397426603573 
-2.477462266181973 
-0.3258191029580328 
-0.2552930887044557 
-0.2552930887044557 
-0.2552930887044557 
-0.9479788610097422 
-0.2552930887044557 
-1.139353804368926 
-2.068816271997583 
-0.4251785224940902 
-1.117278904120981 
-2.08004954411182 
-0.4597877827593112 
-2.465658198770324 
-0.4597877827593112 
-0.4597877827593112 
-0.4597877827593112 
-0.4597877827593112 
-0.4597877827593112 
-0.4597877827593112 
0.2721537915855513 
-0.5106169463347586 
2.775557561562891e-17 
-2.00665421865368 
-0.2047221031856971 
-0.5912296501828495 
-0.5912296501828495 
-0.03018405283736857 
-0.03018405283736857 
-0.03018405283736857 
0.8295540339313973 
-0.7346089361331787 
-0.3203630876096014 
-0.3203630876096014 
0.2001772773658131 
-1.037414731346847 
-1.27646583255203 
-0.8029791035867435 
-2.121544545278863 
-2.834634516934825 
-1.27859446377004 
-0.6175872049913467 
0.8482712911327073 
-0.9873125328804662 
-0.9873125328804662 
-0.9873125328804662 
-1.828518383054186 
-0.4974368459584049 
0.8711357602674132 
-2.186146636006148 
-2.186146636006148 
-0.4287005671962015 
-0.7450889442799262 
-0.4287005671962015 
-0.4287005671962015 
-0.3147870092826201 
-0.3147870092826201 
0 
-0.1691532945144602 
0.3382610795593611 
-0.3946476487860743 
-1.251918304483757 
-0.303795525715677 
-0.02701920902569565 
0.8751583083068231 
-0.4435904113674556 
-1.665507971293811 
-0.6169777891329625 
-0.6169777891329625 
0 
0 
-0.09861470462303261 
-0.09861470462303261 
-0.09861470462303261 
-1.040760615940697 
0.5335185004187548 
-0.879364542853191 
-0.5407003783457779 
-0.5407003783457779 
-0.5407003783457779 
-0.2556466127080422 
-0.2556466127080422 
-0.2556466127080422 
-0.2556466127080422 
-1.353473060742745 
-0.2556466127080422 
-0.3702600889998272 
-0.3702600889998272 
-0.3702600889998272 
-0.982541343516822 
-1.827114011409109 
-1.617276280723439 
-1.271053909620511 
-1.271053909620511 
-1.271053909620511 
-1.271053909620511 
-1.454657046648437 
-0.7092976508221215 
-0.7092976508221215 
-1.297915067413192 
-0.7092976508221215 
-0.7092976508221215 
-1.808740018270505 
-0.5365983012525576 
-0.2418077124123968 
-1.255079276792036 
-1.311998966938101 
-0.2418077124123968 
-0.2617004633871765 
-0.2617004633871765 
0.6889742064338625 
-1.927040787234891 
0 
-1.77099419870656 
-1.77099419870656 
-0.7811410754283076 
-0.1033421443651796 
-0.1033421443651796 
-0.602397158704943 
-0.602397158704943 
0.3616102491019429 
-0.01544847469266014 
-0.01544847469266014 
-0.1961292982678378 
-0.663537131568264 
-2.042773907716088 
-1.928725914540929 
0.1864395346054877 
-1.290158903376588 
-1.782648415376723 
-1.782648415376723 
-1.782648415376723 
-1.959906186355453 
-1.58352307301798 
0.3139568055515909 
0.4488445677302959 
-2.014705569195085 
-4.681273340949335 
0.4562298731225329 
-0.5656580432396017 
-0.1687548823600676 
-1.597497793524309 
-0.7499293368994059 
-0.1509818871479085 
-0.5814031637659824 
-0.7786730727137544 
-2.126792108437725 
0.3870553211218394 
-0.2800740949255286 
0.3638305486244084 
-0.7355533963172737 
0 
0 
-1.2266593166299 
-0.6664188878082835 
0.5499489911493793 
-0.9110792406987267 
-0.6136027511347195 
-1.28267750461009 
-0.4429553555559303 
-0.2662571772261258 
-1.168184033837468 
-0.4032933700982962 
-0.09599509286341852 
-0.09599509286341852 
-0.3490077426745664 
-1.286448148344325 
-4.298322548528729 
-0.6081396615209793 
-0.3259267203315422 
-0.3259267203315422 
-0.3259267203315422 
-0.3259267203315422 
-0.9302482492880523 
-0.9302482492880523 
-3.002205891219131 
-0.3092224318599477 
-1.758219459612697 
0.2356702919750894 
-0.4043156989723768 
-0.4043156989723768 
-0.09453820694591382 
-0.4401218256483957 
-0.09453820694591382 
-0.5162158769292073 
-0.5162158769292073 
-0.5162158769292073 
-1.465351241467582 
-1.857581227173977 
-1.070571250146702 
-1.070571250146702 
-0.8361391452857549 
-3.204667873952729 
-0.6557975387193512 
-0.6557975387193512 
-0.6557975387193512 
-0.6557975387193512 
-1.434124552778788 
-0.6557975387193512 
-0.6557975387193512 
-1.288898949792266 
-0.04727305178452221 
-0.04727305178452221 
-0.04727305178452221 
-0.161965656893594 
-0.161965656893594 
-0.161965656893594 
0 
-0.4157889155951369 
-0.9328544287677897 
-1.254189168472309 
-2.374652828951993 
-2.374652828951993 
-2.374652828951993 
-2.374652828951993 
-2.374652828951993 
-0.8624238501124573 
-0.9473297176364868 
-0.6977007732659759 
-0.6977007732659759 
-0.8842569961190484 
-1.33398475925732 
-0.8842569961190484 
-0.8842569961190484 
-0.207830181005187 
-0.4156603620103732 
-1.976964676907302 
-0.207830181005187 
-0.432548150342668 
-0.432548150342668 
-0.432548150342668 
-0.4195970238490577 
-0.4195970238490577 
0.4285079172742633 
-0.9738739645564768 
-0.2209395670872353 
-0.7271622673319466 
-0.6281947654511538 
-1.113468365053903 
-0.4971358762180825 
-0.4971358762180825 
0.8181627920541098 
-4.882674864647329 
-1.882028586461698 
-2.723234436635419 
-1.648440100008799 
-0.4876527899456101 
0.06721175132317192 
-0.002117729143259701 
-0.4876527899456101 
-0.4876527899456101 
-0.4876527899456101 
-0.4876527899456101 
0.2011949801213976 
-0.4475384850830246 
-0.937750851784368 
-0.4475384850830246 
0.4592933672127511 
-0.2079496529951924 
-0.7163321545259056 
-0.7163321545259056 
-0.7163321545259056 
-1.380538614337315 
-0.7163321545259056 
-0.7596947694645785 
0.1739402326441039 
-1.710264789099362 
-1.067671439183943 
-0.2596123808480819 
-0.875286260585401 
-0.2596123808480819 
-0.3455836187024819 
-0.3455836187024819 
-0.3455836187024819 
-0.3455836187024819 
-0.3455836187024819 
-0.5043981679267197 
-0.5043981679267197 
-0.09545667291186941 
-1.098418763804613 
0.405872702792015 
-1.098418763804613 
-0.1024363518117714 
-0.2551876198143382 
-0.2551876198143382 
-0.2551876198143382 
-0.6126521373719008 
-1.404856821209918 
-1.138631890738617 
-0.4302087851175656 
-0.4302087851175656 
-0.9005020593625097 
-0.4769446178000508 
-0.4769446178000508 
-0.7438877633930022 
-1.148036846695397 
-0.1992287039562619 
-0.3433380685851756 
-1.483532516502549 
-1.053042359296084 
-0.777629051857283 
-0.6798424411619847 
-0.6798424411619847 
-0.6798424411619847 
-0.6798424411619847 
-0.6798424411619847 
-0.6568679936442152 
-0.6568679936442152 
1.55248892886124 
-0.6568679936442152 
-0.4029180758431393 
-1.642359667684585 
-0.6238347506329477 
-0.4372049534282992 
-0.5269488907094508 
-0.4372049534282992 
-0.2424973449633815 
-0.2424973449633815 
-1.56459444825892 
0.3013256634111093 
-0.4053124409760544 
-0.1198984652255145 
0.7214986596399751 
-0.1198984652255145 
-0.3185340234367128 
-0.3185340234367128 
0.8742308051467493 
-0.7103104472025813 
-0.7103104472025813 
-0.7103104472025813 
-0.7103104472025813 
-1.094015884691407 
-1.094015884691407 
-1.094015884691407 
-0.1975736696359101 
-0.9747083369116072 
-0.1182525042904699 
-0.1218816035662816 
0.4381007275070919 
-0.1218816035662816 
-0.1218816035662816 
-0.5415855969511203 
0.1028559000334657 
-0.7710393996196905 
-0.7710393996196905 
-0.7710393996196905 
-0.7710393996196905 
-0.7710393996196905 
-0.7710393996196905 
-0.7710393996196905 
-0.3529428413079925 
-0.1579199504225555 
-0.5150757637968539 
-1.310392498928785 
-0.3085329357886041 
0 
-0.4442859858581453 
-0.6246802564379471 
-0.6246802564379471 
-1.239158062961587 
-0.2994438201248333 
-1.419658655195735 
-0.6092429789161452 
-0.6092429789161452 
-0.7864919437419808 
-0.3932459718709899 
-1.293232120010817 
-1.559148562275772 
-1.073290779009079 
-0.347496520379528 
-0.3717512531137326 
-0.3717512531137326 
-0.3717512531137326 
-0.3717512531137326 
-0.3708553779360956 
-0.03049670121753607 
-1.212957103287452 
-1.560250583974977 
-0.3589572912954946 
-1.059202029857445 
-0.9866703962333415 
-1.120704188964025 
-0.3580274393757731 
-0.4534388730063986 
-0.3580274393757731 
-0.3816887449362266 
-0.3816887449362266 
-0.3816887449362266 
-0.6844457043410062 
-0.6844457043410062 
-0.3416268814268449 
-0.005037039358507479 
-0.6784597294973314 
-0.6784597294973314 
-0.6784597294973314 
-0.6784597294973314 
-0.6784597294973314 
-0.6784597294973314 
-0.6784597294973314 
-0.6784597294973314 
-0.6784597294973314 
-0.6784597294973314 
-0.7865181969954773 
-0.7865181969954773 
-0.369038176579255 
-0.7865181969954773 
-0.7865181969954773 
-1.188499330861245 
-1.188499330861245 
-1.188499330861245 
-1.188499330861245 
-1.188499330861245 
-0.575809798110322 
-0.712966177882044 
-0.712966177882044 
0.1903049043575107 
-0.712966177882044 
0.951188828642919 
0.1719918965459946 
0.4181872166698923 
-0.5450559763267344 
-0.1070210468809904 
-1.258475511735911 
-1.637852878521511 
-1.029772028497595 
-0.3246106899761814 
-0.3246106899761814 
-0.4912953073677147 
-0.9633859547463974 
-0.3246106899761814 
-0.3246106899761814 
-0.3246106899761814 
-1.134806174034706 
-1.516814363435999 
-0.5515014082790841 
-0.6853420812340717 
-0.5515014082790841 
-0.5515014082790841 
-0.7886212840223941 
-0.7655559140349729 
0.9294808620270847 
0.6016490982680803 
-0.3482525848519645 
-0.2623171186846187 
-0.692771667445097 
-0.1906618378796649 
-0.6286754352938932 
-0.985571701013314 
-0.6286754352938932 
-0.3434857601776333 
-0.3434857601776333 
-0.7029815485635874 
-0.7029815485635874 
-0.6276911855658464 
-0.3763567119900263 
-0.3763567119900263 
-0.3763567119900263 
-0.3763567119900263 
-0.619648728203232 
-0.8836813801689336 
-1.730256390733923 
-1.730256390733923 
1.631670466022043 
-0.8781287462914151 
-0.3501140471151351 
2.567584757349156 
-0.3501140471151351 
-0.07064864321990418 
-1.21710080425976 
-0.3969360767550521 
-0.3969360767550521 
-0.3969360767550521 
-0.3969360767550521 
-0.3586187499596931 
-0.3586187499596931 
1.345317177783746 
-0.001939455541518807 
-1.686794814527261 
-0.8433974072636293 
0.1704279189506532 
-0.4242030998474933 
-0.9846151599203745 
-0.9846151599203745 
-0.4272745641796725 
-1.519551612026752 
-0.2319482766275498 
-0.2319482766275498 
1.680177937346145 
-0.2319482766275498 
-0.1184492705639912 
-0.1184492705639912 
-0.1184492705639912 
-0.5704144243932563 
-0.5704144243932563 
-0.5704144243932563 
-0.5704144243932563 
-0.5704144243932563 
-0.5704144243932563 
-2.106804943471048 
-0.3159655637634494 
-1.101483293803107 
-1.079286702714295 
-1.079286702714295 
-0.7143234641219403 
-1.228463022337483 
0.1068095636130905 
-1.46467583042054 
-0.4859305701899178 
-0.6385989048834559 
-0.6385989048834559 
-0.6385989048834559 
-1.916157406714228 
-1.916157406714228 
0 
-1.149881543092618 
-0.3177914148027129 
-2.947100199199267 
-0.3177914148027129 
0.3269401098222472 
-0.9781895499625146 
-0.3177914148027129 
-0.2288214910281025 
-2.649161769512289 
0 
-0.8627304464713235 
-0.0645067027638542 
-0.6088911303576363 
-0.1836395898747726 
-1.537850933348196 
-0.6603981351598015 
-1.833171147136324 
0.7033550182646768 
1.112218460954955 
-0.3053406652178324 
-0.3053406652178324 
-2.159569285415118 
-0.3630453648794233 
-0.3630453648794233 
-0.5615735964615293 
-0.3361120098721926 
-0.5821574737557421 
-0.6468360453195188 
-0.6468360453195188 
-0.3234180226597601 
-2.966129022633342 
-0.3196771442022985 
-0.3196771442022985 
-0.4790123234998708 
-0.3928896680466243 
-1.206583679107083 
0.8774509256913864 
-0.156167215290632 
-0.156167215290632 
-1.119857584942671 
-0.936471791706429 
-0.9155499337002657 
-0.4682358958532149 
0.3105234353742433 
-0.4682358958532149 
-0.2779352843886467 
-2.142677251835953 
-1.845531530571927 
-0.6418377235038771 
-0.6418377235038771 
-0.6418377235038771 
-0.6576718292270397 
-0.6576718292270397 
-0.6576718292270397 
-0.6576718292270397 
-0.6576718292270397 
-0.6576718292270397 
-1.900861727446346 
-1.900861727446346 
-0.2290120079913053 
-0.3926709540800565 
-0.2290120079913053 
-0.2290120079913053 
0.1601726472533848 
-0.7212351978626677 
0 
0 
-0.4679074798394321 
-2.585368007255022 
-0.6031480586248522 
-0.8504443192517984 
-0.9945079160301078 
-0.5756119762473451 
-0.5756119762473451 
-0.5756119762473451 
-0.5756119762473451 
-1.078241108703181 
-0.3802740888114616 
-1.982304457773586 
-2.587180319740155 
-0.2861020599416714 
-1.086419426097973 
-0.9374138605147634 
-0.6238088704381864 
-0.2987136825773187 
-0.2987136825773187 
-0.3858253149528706 
-0.3858253149528706 
-0.3858253149528706 
-0.3858253149528706 
-0.3858253149528706 
-0.5449249559041428 
-0.5449249559041428 
-0.5449249559041428 
-1.648911037322008 
-1.648911037322008 
-1.648911037322008 
-1.08189837073376 
-0.2984034622276695 
-0.2984034622276695 
-1.227863457862276 
-0.5350055877188112 
-0.7948270126089209 
-0.6121870107214837 
-0.2229342226149815 
-0.6539072904758841 
-0.4700871127519585 
-0.3932417233163201 
-0.8573730733731445 
-0.8573730733731445 
-0.8573730733731445 
-0.8573730733731445 
-0.8573730733731445 
-0.7851665249074496 
-0.7851665249074496 
-1.651904962299071 
-0.9844253519982578 
0.178615417375205 
-0.6133066431774267 
-0.6133066431774267 
-0.6133066431774267 
-0.6133066431774267 
0 
0 
-1.873260915893891 
-1.822505910130491 
-1.675148215012478 
-0.9551915504320296 
-0.2227458776094679 
-0.2227458776094679 
-0.4993706642443941 
-0.2227458776094679 
-0.7039805369823696 
-0.7039805369823696 
-0.7039805369823696 
0.8723631913933815 
-1.724673695304052 
-1.975827954693326 
-1.29192096662403 
-0.5978942995140238 
-0.350640735069303 
-0.350640735069303 
-0.350640735069303 
-0.4118801862961557 
-0.9179708608289143 
-0.9261116888276253 
-1.096519094176442 
-1.060977141293851 
-0.5960293888146662 
-0.4192896635731325 
1.662204023718903 
-0.4192896635731325 
-0.2125394286340731 
-1.307030829329639 
-1.307030829329639 
-0.4716535050255289 
-0.4716535050255289 
-0.8731196354367261 
-1.801168192611627 
-0.8187492247251938 
-0.4410533270040964 
-0.8680286963678082 
-0.4410533270040964 
-1.783271582276376 
-1.131043542646861 
0.01031436951794448 
-0.5345783543170929 
-0.5345783543170929 
-0.6398928517509899 
-0.6398928517509899 
-0.6398928517509899 
-1.252082260238828 
-1.252082260238828 
-0.5535234182551456 
-0.5535234182551456 
-0.3651872443453799 
-0.3651872443453799 
-0.3651872443453799 
-0.3651872443453799 
-0.004829715475136207 
-0.6812455823232931 
-0.6812455823232931 
-1.006154783109028 
-0.2474395007163428 
-0.2474395007163428 
-0.2474395007163428 
-0.7680283028924351 
-0.7680283028924351 
-0.7680283028924351 
-0.7680283028924351 
-0.7680283028924351 
-0.7680283028924351 
-0.7680283028924351 
-0.6376656500797818 
-0.6376656500797818 
-0.6376656500797818 
-0.6076873796881483 
-0.3214661581813725 
-0.3191703084368438 
-0.7194782103036909 
-0.6754952941382839 
-0.1762693940734359 
0.816603033470142 
-1.502759660526726 
-0.8679718692098535 
-1.280959497803849 
-0.9673062754619969 
-1.386411078167181 
-0.6932055390835907 
-0.6932055390835907 
-0.6932055390835907 
-0.1309716055291063 
-0.720954316466808 
-0.4515042821642944 
-0.4515042821642944 
-0.5011452123808239 
-0.2054623678938141 
-0.5011452123808239 
-0.7258341464575129 
0.1254262105462581 
-0.5011452123808239 
-0.5011452123808239 
-1.291855954737005 
-0.6090302444149951 
-0.6090302444149951 
-0.7768941793535138 
-0.3884470896767577 
-2.811847670259977 
-0.3884470896767577 
-1.091766969236744 
-1.091766969236744 
-0.1842241042516508 
-0.3222486606752145 
-0.6764061421279547 
-1.821814218884072 
-1.821814218884072 
-1.821814218884072 
-2.261838901871468 
-0.7006148947976354 
-0.7006148947976354 
-1.220372461131264 
-0.7006148947976354 
-0.45460976822377 
-0.7006148947976354 
-0.180693269538496 
-0.180693269538496 
-0.03789403730629823 
-0.2955765880924753 
-0.5421663220666646 
-0.5421663220666646 
-0.773034677662934 
-0.773034677662934 
-0.773034677662934 
-0.773034677662934 
-3.041631575771393 
-0.773034677662934 
-0.773034677662934 
-0.4473140378470506 
-0.4473140378470506 
-0.4473140378470506 
-1.258805489157509 
-0.4473140378470506 
-0.4473140378470506 
-0.4473140378470506 
-0.4473140378470506 
-0.4473140378470506 
-0.4473140378470506 
-3.845072282987553 
-0.7092631587966693 
-0.7092631587966693 
-0.7092631587966693 
-0.7092631587966693 
-0.7092631587966693 
-0.7092631587966693 
-0.7092631587966693 
-0.7092631587966693 
0.7396311193699033 
-1.193191435260095 
-0.2531708171869342 
-0.2531708171869342 
-1.144089330927933 
-0.2531708171869342 
-0.2531708171869342 
-0.9985497405198961 
-0.3020153933047531 
-0.3020153933047531 
-0.1850326584470284 
-0.4345464821389312 
-0.7735118233818539 
-0.9526663925989337 
-0.1966166307175075 
-1.173719796594535 
-0.7376978651508383 
-0.3482573686719705 
-0.3482573686719705 
-0.3482573686719705 
-0.8353531505460055 
-0.8353531505460055 
-0.2171960787247539 
-0.3522103011220484 
-0.3522103011220484 
-0.233310608881126 
-0.233310608881126 
-0.233310608881126 
-0.1715112339875133 
-0.2844912927413444 
-0.2844912927413444 
-0.2844912927413444 
0.6106761123490412 
-0.2844912927413444 
-1.074914926123193 
-2.458196591848353 
-0.7631488305921393 
-0.007395868886554509 
0.7657386230724589 
-0.1599439054651595 
-0.6872755001835048 
-0.4852735996027493 
-0.7695501963369715 
-0.7695501963369715 
0.04346689816647471 
-0.7695501963369715 
-0.7695501963369715 
-0.5386731039579771 
0.5972016799304004 
-1.669551755376015 
-0.2693365519789882 
-0.2693365519789882 
-0.2693365519789882 
-2.414699548491135 
-0.7090335046592396 
0.7238233827422074 
-0.4780856784456951 
-0.4780856784456951 
-0.4780856784456951 
-0.4780856784456951 
-0.3520756589333245 
-0.3520756589333245 
-0.3520756589333245 
-0.3520756589333245 
-0.3520756589333245 
-0.4035168909148802 
-0.5110760341742926 
-0.6441924000658421 
-0.6441924000658421 
-3.360480339445693 
-0.430879973489465 
0.3430854440908089 
-1.794483915533687 
0.07005919191061609 
-0.7096357850486509 
-0.7096357850486509 
-0.7096357850486509 
0.8815529393069479 
-0.8831884493720124 
-0.2479357991538902 
-0.5715921619721469 
-0.7594671705523446 
-0.7594671705523446 
-0.7594671705523446 
-1.197749627425802 
0.007100978923687095 
-1.220719342645956 
-1.220719342645956 
-1.220719342645956 
-2.063448539325705 
-0.2592286008880072 
-1.398567775065001 
-0.2592286008880072 
-0.4894620645231102 
-0.09459937476433322 
-1.571451527059023 
-0.6592257614980669 
-0.6592257614980669 
-0.6592257614980669 
-0.6592257614980669 
-0.6592257614980669 
-0.6592257614980669 
-0.6592257614980669 
-0.6592257614980669 
-0.3499330765015018 
0.1961618234011507 
-0.3499330765015018 
-0.938152340564738 
-0.938152340564738 
-0.938152340564738 
0.09483884988942004 
-0.3973479447972571 
-0.2790654521446546 
-0.2790654521446546 
0.8000605394472581 
-1.257732472353217 
1.41990033873744 
-0.9541468214331347 
0.08628920464679925 
-0.0839345752176749 
-0.2768791379410427 
-1.026202298716972 
-2.345781230671971 
-1.085237260278041 
-0.1206882117338718 
0.4882131738458909 
-2.412642464578198 
-1.265348195898201 
-2.300730743259663 
-1.607258808152342 
-0.09137166835680276 
-1.695905075721007 
-0.5653016919070032 
-0.5653016919070032 
-0.5653016919070032 
-0.5653016919070032 
-0.5653016919070032 
-0.5653016919070032 
-2.462127538163501 
-0.9289944389774597 
-0.4576087120163677 
-0.4576087120163677 
0.2502566975679877 
1.053839440002888 
-0.2561019739557877 
-0.2561019739557877 
-0.2561019739557877 
-0.3806819052616913 
-1.161484606911982 
-1.434538595516972 
-1.434538595516972 
-0.4465293787094299 
-0.3016826866974865 
-0.3723578016310954 
-0.3723578016310954 
-0.3113870656226033 
-0.3113870656226033 
0.06732913139812638 
-0.3113870656226033 
-0.5126122668040439 
-0.3801270349916894 
-0.3801270349916894 
-0.3801270349916894 
-0.7668913017964604 
-0.7668913017964604 
-0.7668913017964604 
-0.7668913017964604 
-0.7668913017964604 
-0.7668913017964604 
-0.7668913017964604 
-0.4215455513895458 
-0.4215455513895458 
-0.4215455513895458 
-1.212580105164616 
-0.4215455513895458 
-0.4215455513895458 
-0.2595512431323398 
-0.1548184328576631 
-0.478333810922909 
0.4581508635400346 
-1.203163187677902 
-1.542519743339968 
-0.7712598716699868 
-0.7712598716699868 
-0.7712598716699868 
-0.7712598716699868 
-0.7712598716699868 
-0.7712598716699868 
-0.7712598716699868 
-0.2528430643686261 
-1.633470530614039 
-3.57769072155756 
-0.3436533814880706 
-0.3436533814880706 
-0.3436533814880706 
-0.3436533814880706 
-0.9539351360622421 
-0.3436533814880706 
0.2267634286685774 
-0.3662726956777024 
-0.2442149908375471 
-0.2442149908375471 
-0.2442149908375471 
-0.5705347719344239 
-0.5705347719344239 
-0.1361780008512949 
-0.1361780008512949 
-0.3799498242497968 
-0.3799498242497968 
-0.7858927540066291 
-1.171253398185081 
-0.09281059347755104 
-0.09281059347755104 
0 
0.3576654831466262 
0.3669566796679272 
0 
-0.619070170246151 
-0.9793840455930871 
-0.9793840455930871 
-0.4286573988113976 
-0.8106599449497287 
-0.2759682217228808 
-0.3582432449328228 
-0.2759682217228808 
-0.2759682217228808 
0.04461446630393808 
-0.4848359755558886 
-0.2170418360527965 
-0.2170418360527965 
-0.2170418360527965 
-0.4806086199157479 
-0.9633618975667795 
-0.8169093738751982 
-0.2254155498880272 
-0.2254155498880272 
-0.2254155498880272 
-0.2254155498880272 
0.2891316269072857 
-0.6007482929071823 
-0.678677767375844 
-0.678677767375844 
-0.678677767375844 
-0.678677767375844 
-0.2240094278021022 
-0.06989395389121404 
-0.2240094278021022 
-0.4575323842082317 
2.515051339778431 
-0.4575323842082317 
-1.541365538713999 
-0.1727299652756052 
-0.1727299652756052 
-0.1727299652756052 
-0.1727299652756052 
-0.7305455242424065 
1.774206274410164 
-1.545192275715355 
-1.162352167354451 
-1.033582290697608 
-0.2248701426861565 
0.8884398456894459 
-0.5093891539665579 
-0.5535599723533949 
-0.5535599723533949 
-1.734232927438028 
-0.3138524540856981 
-1.243516623904195 
-0.8396562858171617 
-0.8396562858171617 
-1.0229683187221 
-0.08414690604162581 
-0.4154877240305594 
-0.4057387877801454 
-0.4057387877801454 
-1.193736883380192 
-0.2790076816009675 
-0.5473254703789843 
-0.4755539429231088 
-0.4755539429231088 
-0.4755539429231088 
-0.6872085553431023 
-0.6872085553431023 
-0.3224500388522222 
-0.8317279050557859 
-0.8317279050557859 
-0.8905437488227667 
-0.8905437488227667 
-0.3696432419249395 
-0.6257520617534179 
-1.685326894435342 
-0.6257520617534179 
-0.6257520617534179 
-0.6257520617534179 
-1.061178977970552 
-0.2852530572342578 
-0.5710849676159137 
-0.5710849676159137 
-0.5710849676159137 
-0.5710849676159137 
-0.5710849676159137 
-0.1723831332253297 
-0.6893622122220044 
-0.8411357844359146 
0 
-0.8393234936409764 
-0.8393234936409764 
-1.499091906315602 
-0.8393234936409764 
-0.8393234936409764 
-1.185024730831505 
-0.7610419970310797 
-0.7296340906773248 
-0.3639884278351723 
1.123057612164958 
-0.2296107046253739 
-0.2296107046253739 
-0.2296107046253739 
-0.2438560253382663 
-0.2438560253382663 
-0.5136349509683278 
-0.3395427119066341 
-0.3395427119066341 
-0.3395427119066341 
-0.4220928850371102 
-0.3395427119066341 
-0.6031291709175058 
-0.2100996781864197 
-0.2100996781864197 
-0.2100996781864197 
-2.73229744077311 
-0.5851551374298556 
-0.5851551374298556 
-0.5851551374298556 
-0.5851551374298556 
-0.5851551374298556 
1.342209570864319 
-1.310340418180183 
-1.144363629149119 
-0.5153484350970382 
-0.5153484350970382 
-0.3686744175411533 
-0.3686744175411533 
-0.3686744175411533 
-0.4019581969825474 
-0.9505605844851551 
-0.2743927750975136 
-1.364640238670353 
-1.068749219457676 
-1.202236154730157 
-0.3415446150540522 
0.04649916920640524 
0.4829501234613877 
-1.358971745477557 
-1.005854280200783 
-0.6256351491558316 
-0.4297396829491081 
-0.4297396829491081 
-0.4297396829491081 
-0.50455877959941 
-0.9500190577819426 
-0.9500190577819426 
-0.9500190577819426 
-0.5686096416959241 
-0.5686096416959241 
-0.5686096416959241 
0 
-0.09541143363062539 
-2.992348166010645 
-1.01128368312292 
-0.2229849796099916 
-0.2229849796099916 
-0.2229849796099916 
-0.2229849796099916 
-0.2229849796099916 
0.04192591152031344 
-0.2229849796099916 
0.3448796590264158 
-0.5454081132019112 
-0.5454081132019112 
-1.383237970532432 
-1.374362386168484 
-0.5562172873899988 
-0.5562172873899988 
-0.1486715816577079 
-0.5562172873899988 
-0.5562172873899988 
0 
-1.917035696674798 
-0.1620150972224929 
-0.1620150972224929 
-2.418588769329121 
-0.7613089512877661 
-0.3806544756438834 
-0.757162304201196 
-0.4506168935440605 
-0.4506168935440605 
-0.6424091658417859 
-0.6424091658417859 
0.1269270879991703 
-0.3184391274848219 
-0.3184391274848218 
0.3950691287371754 
-1.071672623478029 
-0.6945392133189868 
-1.23074384897724 
-1.47576159130401 
-1.488116432017811 
-0.6375949611639654 
-1.099777043115148 
-0.6375949611639654 
-0.6375949611639654 
-0.6375949611639654 
-0.6375949611639654 
-0.6375949611639654 
-0.01651049504714717 
-0.01651049504714717 
-0.8294057006029955 
-0.8294057006029955 
-0.8294057006029955 
-0.8294057006029955 
-0.8294057006029955 
-0.8294057006029955 
-0.8294057006029955 
-0.2322363626591758 
-0.2322363626591758 
-0.697217274150834 
-0.1837811534070593 
-0.1837811534070593 
2.490296353625291 
-0.4621820819511819 
-0.4621820819511819 
-0.4621820819511819 
-0.4621820819511819 
-0.4621820819511819 
-0.4621820819511819 
-0.4621820819511819 
-0.4621820819511819 
-0.2067502349390593 
-0.4702662475240298 
-0.4702662475240298 
-0.4702662475240298 
-0.4702662475240298 
-0.4702662475240298 
0.07735541761020431 
-2.217933327808903 
-1.065754944644967 
-1.065754944644967 
-1.065754944644967 
-1.863576428978468 
-0.2928686467888641 
-0.7772502159096656 
-0.07308993261078674 
-1.697511930492544 
-0.9615117877739188 
-0.9234945602147054 
-0.9234945602147054 
-0.9181973892925859 
-2.266715891601133 
-0.5607550817286692 
0.6133034097198072 
-0.8750262014356399 
-0.2350331348193599 
-0.2350331348193599 
0.1506667578855267 
-0.8250204265787551 
-0.8250204265787551 
-0.8250204265787551 
1.837445173095784 
-0.6546214723907603 
-0.9305527482847528 
-0.9305527482847528 
-0.03647250118676853 
-0.03647250118676853 
-0.6903483138772138 
-0.1992693871371706 
-0.513248091070845 
-0.4309730678609027 
-0.4309730678609027 
-1.007600426696113 
-0.6370191086940528 
-0.6370191086940528 
-0.6370191086940528 
-0.3648171946050232 
-0.3648171946050232 
-1.241437792832236 
-1.241437792832236 
-1.241437792832236 
-0.4974040422338331 
-0.08558391362547584 
-0.4974040422338331 
-0.4974040422338331 
-0.4974040422338331 
-0.03973530195504145 
-0.5485291933786993 
-0.7150069907691652 
-0.904746913437489 
-0.4177974602620447 
-0.3568962657194208 
-0.3568962657194208 
-0.3568962657194208 
-0.3537730051915674 
-0.3537730051915674 
-0.2922528903788454 
-0.2922528903788454 
-0.3621097618004954 
-0.3621097618004954 
-0.3621097618004954 
-0.3621097618004954 
-0.3632201232391242 
-0.3632201232391242 
-0.3632201232391242 
-0.4886845960010343 
-0.414054075033479 
-0.414054075033479 
-1.267715506122967 
-0.9733747310926554 
-0.4264295839689129 
-0.4264295839689129 
-0.4264295839689129 
-0.4264295839689129 
-0.581715695802799 
-1.449894777525911 
0.7388606515227214 
-0.1959323599969598 
0 
-1.375913883782749 
0.697672777022284 
-0.324736993014559 
-0.4740500383413595 
-1.408222833289095 
-1.408222833289095 
-0.2317760662428049 
-0.2317760662428049 
-0.2317760662428049 
-0.3864355490604243 
-0.2317760662428049 
-2.28235681853897 
-0.3328019990056144 
-0.3063161671264703 
-1.609115264035203 
-0.5886732827384837 
-1.857734617933902 
-0.07017611107649298 
-0.8233075942133028 
-1.790254600206863 
-3.247852881816197 
-0.5421288234651189 
-0.6075302544594895 
-0.6181918449166225 
-0.328628367254607 
-0.328628367254607 
-0.6871104474692024 
-0.6871104474692024 
-0.6871104474692024 
-0.6871104474692024 
-0.6871104474692024 
-0.6871104474692024 
-0.6871104474692024 
-0.6588470019659025 
-0.419495400899064 
-0.419495400899064 
-0.1308302427177653 
-0.1308302427177653 
-0.1308302427177653 
-0.1308302427177653 
-3.437964191077297 
-0.3695003307785774 
-0.3695003307785774 
-1.058827326644898 
1.02024789633895 
-0.3835470147775954 
0 
0.6490975864180539 
-0.3648492585707422 
-0.3648492585707422 
-0.3648492585707422 
-0.9184150451768702 
-0.9184150451768702 
-0.6408085676151867 
-0.8803954211009777 
-0.7248242695714766 
-0.3107412868704397 
-0.3107412868704397 
-0.3107412868704397 
-1.105970731697158 
-0.8565791374792082 
-0.8565791374792082 
-0.7037216629070869 
-0.2972555794336093 
-0.2490632117101984 
0.1346805707084277 
-0.2490632117101984 
-0.01552267300055105 
-0.3598445384415254 
-0.3598445384415254 
-0.3598445384415254 
-0.9573352339304043 
-1.101028987862733 
-0.4786591539112697 
-0.4786591539112697 
2.160112420541925 
-0.2156507756507442 
-0.2156507756507442 
-1.29545912133024 
-6.938893903907228e-18 
-1.014164012139916 
-0.2500551458823219 
-0.3998357412698688 
-2.103940433763914 
-0.1601334028359089 
0.02472251415384372 
-0.2366943262354522 
-0.2366943262354522 
-0.1704074053488168 
-0.1875361200643734 
-0.4822002672008366 
-0.470705034337583 
-2.746582600375794 
-1.897841622378353 
-0.8730586175071129 
-0.02590327273802048 
-0.02590327273802048 
-0.3551742103711982 
0.2345266165029583 
-1.035377509841378 
-0.5958627142155504 
-0.4304212766180742 
-0.4304212766180742 
-0.1043920740110436 
0.4429805634749574 
-0.4338091826755074 
-0.3752017623474993 
-0.3384939306677481 
-0.3384939306677481 
-0.2774173019223496 
-0.2774173019223496 
-0.2774173019223496 
-0.3459424621884726 
-0.5816678065140838 
-0.6053056367812024 
-0.6053056367812024 
-0.6053056367812024 
-0.6053056367812024 
-0.2764682270806788 
0.6639477375214347 
-0.4188959397827627 
2.666975708991791 
0.1876542752437123 
-0.4188959397827627 
-0.4188959397827627 
-0.4188959397827627 
0.490835879419447 
-0.4188959397827627 
-0.5425721715521636 
-0.5425721715521636 
-0.5425721715521636 
-0.5425721715521636 
-0.6476824347323676 
-1.297904589317916 
-0.2968189177325601 
-0.3014880965158462 
-1.703697949041118 
-1.365486832216505 
-1.365486832216505 
-0.1419089153219666 
-0.2447445215018013 
-0.007530297130962219 
-0.2447445215018013 
-0.2447445215018013 
-0.6784897232586837 
-0.5492151316780414 
-0.1952090935484742 
-1.490583133151281 
-1.257445160541633 
-0.6526134049188491 
-0.9279074396563297 
-0.2543718435691254 
-0.4269753693637118 
-0.4269753693637118 
-0.4269753693637118 
-0.4269753693637118 
-0.4269753693637118 
-0.4269753693637118 
-0.1838592589657695 
0.3803051134966068 
-0.4685261019103233 
-0.2900583125408189 
-0.3654925322649422 
0.1650562885037321 
1.271067925250251 
-0.3207454765434605 
-0.5972763186729901 
-0.5972763186729901 
-0.5972763186729901 
-0.3251822400693823 
-1.053804821700032 
-1.053804821700032 
-1.283349938778662 
-0.4781554722993535 
-0.2620229738728524 
-0.2620229738728524 
-0.1020131848988696 
-1.052714106576258 
-1.052714106576258 
0.1361460391605514 
-0.3900199210417958 
-0.8320901282899053 
-0.8320901282899053 
-0.8320901282899053 
-0.8320901282899053 
-0.8320901282899053 
-0.3625538134730156 
-0.3625538134730156 
-0.6928073292819305 
-0.6928073292819305 
-0.6928073292819305 
-0.6928073292819305 
-1.595346318679208 
-0.5282006296604848 
-0.5282006296604848 
-0.5282006296604848 
-0.6836867547873926 
-0.8652440927073276 
-2.791534995470519 
-0.8652440927073276 
-0.5456296373780757 
-0.5456296373780757 
-0.5456296373780757 
-1.271783167693101 
-1.189649082613329 
-0.09168198842327596 
-0.09168198842327596 
-0.09168198842327596 
-0.09168198842327596 
-0.1331219183145458 
-0.1331219183145458 
-0.3139635713098907 
0 
0.4880574946210707 
-0.203361728123807 
-0.203361728123807 
-0.203361728123807 
-0.9487951014742821 
-1.308982768195182 
-0.3105302372717937 
-0.3105302372717937 
1.199993804218107 
-0.3105302372717937 
-0.3105302372717937 
-0.3105302372717937 
-0.6210604745435875 
-0.3105302372717937 
-0.3105302372717937 
-0.9230318994418587 
-0.9230318994418587 
-0.5312808382996861 
-0.8704165004059523 
-0.8704165004059523 
-0.8704165004059523 
-1.047831688520008 
-0.3310369851683475 
-0.93837086309982 
-0.93837086309982 
-0.6442066490363534 
-0.1810776878148292 
-0.1810776878148292 
-0.4624090438934551 
-0.9248180877869102 
-0.9248180877869102 
-0.4624090438934551 
-0.4624090438934551 
-0.4624090438934551 
-0.4624090438934551 
-0.2614769668760429 
-0.4624090438934551 
-0.7325054909062343 
-0.3817279696567396 
-0.1296156278230409 
-0.5514839108057085 
-0.5514839108057085 
-0.3030472084908726 
-0.8190824003174196 
-0.8190824003174196 
-1.152160449514234 
-0.3527484767429802 
-0.4358981556858597 
-0.4358981556858597 
-0.3949510188622229 
-0.6936351918309234 
-0.462123028968687 
-2.049565261219727 
-0.0554309177237129 
-0.1225294753400854 
-0.1225294753400854 
-0.1225294753400854 
-0.1225294753400854 
-0.1225294753400854 
-0.1225294753400854 
-0.1225294753400854 
-0.1225294753400854 
-0.9165746338941363 
-0.2271829657173926 
-0.2271829657173926 
-0.2271829657173926 
-0.7841245896891007 
-0.3555034672791957 
-0.487551069913901 
-0.487551069913901 
-1.08469137197342 
-0.2278396154356773 
-0.63725353506522 
-0.02890994991214666 
-0.5072477986681098 
-1.054954904090518 
-1.362899433498818 
-1.362899433498818 
-0.7104481239970897 
-1.399542570533683 
-2.925174004997075 
0.2505335766679214 
0.4240732640507376 
-0.2830237777825326 
-0.5644254182050268 
0.5545037437859869 
0.09234434602707568 
-0.2830237777825326 
-0.2830237777825326 
-0.5997729728681891 
-0.5997729728681891 
-0.5997729728681891 
-1.090665619137439 
-1.090665619137439 
-1.090665619137439 
-0.6907684269693515 
-2.41614773362435 
-2.41614773362435 
-0.9630405263554546 
-0.6710021432266866 
-0.4200243244308859 
-0.8400486488617729 
-0.4200243244308859 
-0.4200243244308859 
-0.4200243244308859 
-2.414707897315958 
-1.065737585761812 
-0.6830115089408088 
-2.646793514830611 
-0.2206407104628421 
-0.2206407104628421 
-0.1922301590560301 
-0.3115857647256083 
-0.3115857647256083 
