solver_type L2R_L2LOSS_SVC_DUAL
nr_class 2
label 1 -1
nr_feature 12831
bias -1
w
0.6314134297870576 
2.099105127881451 
-2.025287667862828 
0.6181188006120674 
1.467718499896302 
-0.3812350225027987 
0.01330832931619069 
1.608310216432866 
0.1712888736833386 
-0.4756421073170697 
0.4293964307364347 
0.3949276246013738 
-1.481091777894674 
-1.91101212090549 
-2.636536673149553 
-0.4481867770238044 
-0.2463493896172624 
-0.3727930983445366 
-1.026426175227583 
2.266700265144783 
1.903251670333873 
0 
0 
0 
0.6303859754153202 
0.6314134297870576 
-1.392546853822494 
-1.142784564679434 
0.2269829705426323 
-1.627410885434684 
0.2602597733623779 
0.4534401778963135 
-0.130021099755666 
-2.671635787453576 
1.186696763522442 
2.015563395933889 
-1.301757578037105 
0 
-0.2739016710799253 
0.445122520189721 
-0.5981277819754195 
0 
-2.178881445058156 
-0.8758091523536521 
-0.7609623478278542 
0.7968082251051607 
0 
0.6760037174220251 
-0.9521317758167837 
-0.5508902819790897 
0 
-1.664222836391379 
0 
-1.781468694856365 
0.6517996456750916 
-0.3618751979901758 
1.51577989946155 
0.4719719679223622 
0 
-2.277825790546879 
-0.3878002264400621 
0 
-0.5151719419053491 
-0.6626064894866176 
-1.808012623295983 
1.175173224255181 
0.5754723826486908 
-2.308548089390381 
-0.7577330271768284 
1.388886915344505 
0.5101611303056238 
-0.2164757296100655 
0.88943021016844 
-1.229728822047117 
-2.310024204570238 
0.7055249511996067 
-2.164680684928971 
0.561194067743332 
1.309104319424945 
0.3551413214306757 
-0.399807106584425 
1.666911813232747 
-1.503989637630206 
2.886174666493611 
-0.5229813598299556 
0.6467014302226404 
0 
-1.322404421852341 
0 
0 
-0.3403058000328953 
-2.450692547214937 
0 
0.7576430813013345 
-0.2148733411195976 
1.502333881102876 
1.80069564222003 
2.466457478199584 
-0.1725941326613322 
-0.128764701367707 
-0.5968184624129101 
1.634221571451363 
-3.473088561048904 
-1.507477816991577 
-0.9720612342811599 
0.008856204245435852 
0 
-0.7385403930755555 
-3.012205084456021 
0 
-1.271173526835725 
2.010178276147324 
-0.5566452251456016 
0 
0.05702454046974259 
-2.225283789415399 
0 
-3.11427587186641 
2.561776408833974 
0 
0 
0 
0 
3.906431143900972 
-0.6299345376698788 
2.637104229015095 
2.579215669541913 
-0.3589386441180015 
3.609056544621634 
2.490474418698647 
0.2544266785845382 
-2.603095745653253 
0 
0 
-0.7199375056091901 
0 
-0.762133773015475 
0 
-1.730036288757273 
-1.03335499320267 
-1.394541285147604 
1.477903639230412 
-0.439538080145438 
0 
-0.7998943178310639 
-2.401037009558175 
-1.510895231866298 
-1.645636393557413 
-0.518588633124787 
-0.239551072527299 
0 
-0.7318736558907061 
-0.07051580957207891 
3.881673823678468 
-1.705846444966028 
-0.3068365209362496 
-3.075625632247418 
-0.7599579442894087 
-0.0116352611669471 
0 
0.6940450491586161 
-1.054564324872016 
-0.03439552681890631 
-0.7215577588018659 
-0.02020985283136417 
-2.556243737054604 
1.465262912094515 
2.062299512398367 
0 
-1.031894008231987 
0.08671750795115338 
0 
0 
1.404538698981349 
-2.128055597587814 
-1.774522948887066 
1.046043046339669 
-5.383074116649639 
2.37630048820844 
0 
-1.383844120665147 
-7.109031311884925 
-0.4615746296799846 
0.4126114371419822 
-0.5574852183239913 
-0.1768528408694112 
-0.2994835790095217 
-1.738333945889093 
-0.3707145698434117 
3.259279540210465 
-0.7133424462903064 
4.257820533087024 
0 
0.7055276735089114 
-0.06358756328947847 
-1.88254789900466 
0.8489138761555004 
0 
-1.360920508590358 
0 
0 
-0.2529159688984636 
-0.5525787044978069 
1.005292487162677 
0 
-1.696953440589772 
0.5555346377483508 
-0.5641280937988399 
-0.4390190540970372 
2.051643974769751 
0.3890838473202214 
-1.739391651084538 
0 
0 
1.16576741471383 
-1.31602177817388 
0 
-1.934194958942884 
-2.430974797766297 
0.7906824356120007 
0.007255496488049102 
0.8401141258362641 
2.383875729313901 
0 
0 
0 
1.781675265447839 
-3.167870747433944 
0 
-0.4788472999836893 
0 
0 
-1.415863456952405 
0.4082688398648658 
-2.869031395489026 
-2.448219676796602 
0.3239167438390188 
-1.569953141552876 
0.04297300889868755 
0.6080030855851024 
0.5602518223734112 
0 
0.2961381001116862 
-1.274162838865862 
-1.452632425362764 
-3.722041406413888 
-0.3364269758514509 
-2.621337869061155 
-1.760460424211294 
-4.517681836329163 
3.187392791035489 
-3.397460816651543 
2.067833714692128 
1.007737873136202 
4.213772606903764 
0.5670898605158361 
0 
-0.2971022855016925 
0 
0.7133820663090532 
0.8533442475725025 
2.651950014343483 
0 
0.6051162190974586 
0 
0.9256775381725716 
-0.3362672139189815 
-0.3995410838745636 
-1.036915205759641 
0.2989965759003585 
2.647583259640813 
0 
-2.546945531356706 
1.093554582063359 
-0.122021511849925 
-0.141892264657058 
1.723422809232591 
0.2332757125094913 
-0.5967754451303378 
0 
-2.599483293187021 
0 
0.9109354755495854 
0 
0.8665547474633774 
0 
1.216928361108591 
-3.772875743704724 
0 
-0.4021305741264199 
1.011827042065119 
0.7353075217920255 
1.829853821835074 
-3.585804706969359 
-0.4635337663872273 
0 
-0.714756640354131 
0 
-2.952638257306087 
-1.815029676426236 
-0.7748125927086613 
-1.975170694228861 
3.225412254692618 
-2.787796568941694 
2.983224016984412 
0.9278752538801702 
1.29257680314191 
0 
0.1536949643470362 
0 
0.6378130615342666 
0 
0 
0.176431987484053 
-0.6077140163448184 
-0.5793557892617736 
0 
0 
-0.0246650965497649 
1.290462014395166 
0 
1.865891916138089 
-0.3565895512624247 
0 
-2.421341816637277 
-0.4956403121219258 
0 
0 
0.1621454375914334 
-1.236476200839246 
0 
2.267230139274512 
0.9745743713796746 
-1.668597097333104 
-2.185362612999509 
1.159033156496919 
-2.238232969047117 
-0.4818997617898768 
0 
0 
0 
-0.3802376725571855 
-0.3662457476968004 
0 
0.4018815735285871 
-0.2230169421123962 
0.9699645952378056 
0.3870568869935739 
0 
0 
0 
0 
0 
0 
0 
0 
0 
3.081304172808004 
0 
0 
-0.1603891783388676 
0 
0 
-0.9359046071099952 
0 
0 
-0.4863234851016278 
-2.494112290340717 
-4.337264891264156 
-1.271921711316976 
0 
-2.739745901096689 
0.4373162313271797 
0.7530191987672298 
0 
1.501822228261982 
0 
-2.299099386004663 
-1.696944662571764 
-1.945718002002687 
-3.905144722660312 
-1.801890550819718 
-2.040731601386622 
-0.2139260088984447 
1.324014808173038 
0 
0 
6.270557935546013 
0 
-0.2705611320223112 
-0.09806410879800594 
-0.3778867864564767 
0 
0.1874032644050657 
0 
0 
0 
-0.1656218734443212 
0 
0.1349095107974089 
0 
0 
0.6904050467859768 
0 
1.649437444793812 
0 
0.5265620331773655 
0.8362371637307217 
0.2319782385059609 
0 
0 
-4.100232760163896 
2.148940354602321 
0 
0 
-0.2687855386246102 
0 
-0.7957467024469579 
0 
1.441634946303827 
1.044607029979755 
0.2132994532718119 
-1.015978443895204 
-1.711856508329386 
0.467160571911606 
0 
-0.2228831129146971 
0 
-0.4236601141810329 
-0.2846854536355318 
1.456270628102604 
1.02274632370094 
-0.3741889412874951 
-0.3830732370219962 
0 
-1.016979663820646 
0.5003242342406318 
0 
0 
1.579769574649047 
0 
0 
0 
0.5208871267611755 
0 
-0.3727110017312471 
3.287535027301753 
0.45625306113782 
-2.749670390765813 
-0.01524428553849138 
-1.637183385144146 
-3.305686270537776 
-0.05105636021339368 
-2.487801879057692 
-1.456312694599819 
0.6110812464319987 
0.3629147977381219 
-0.9038300451945499 
-0.727276637479548 
2.21262938886214 
0.500749437490134 
-2.685967863258288 
0 
0 
-0.7669046342297903 
-0.6853371093585899 
-0.4927430964543422 
0 
2.833457460465718 
-0.3246339393644169 
-0.4820237279321206 
-1.184591066775538 
-0.9075204347398294 
3.771092104025553 
-1.603040428613814 
-2.384843791428728 
-1.405777525905446 
-2.159517313646139 
0 
0.9039327527323284 
-1.634999860476539 
1.569847221204052 
-2.813250254786803 
-2.191073719657453 
0.09581265894159334 
0 
1.200677615980281 
0 
-0.1185354975201918 
3.854678488065813 
-1.116714294895908 
0 
-0.2732142399388625 
-2.432224552945649 
0 
-1.067756827097582 
-0.3947934953184096 
-2.870811370439321 
0 
1.097104653411295 
1.370826196767388 
1.57336446125996 
0.3454796803596437 
1.469054262729339 
-0.175315170708586 
2.254028571400433 
0.8236734438294167 
1.507338946281783 
0 
-0.5312492785403198 
0 
0.9472757755825011 
0 
1.841941760472646 
-1.020342139559133 
-0.9397820154621916 
0 
1.497680811568651 
-2.078965626436817 
0.595732612295475 
-3.863851109828789 
-0.1474061392534385 
-3.101217157929551 
0.3795709438022418 
-0.6906206055395296 
0 
5.77316634120421 
1.168603167434669 
0 
-3.514535768219002 
-2.99325386443055 
0 
0 
0 
-0.02788880427652313 
0.01141217764182713 
-2.280967819464155 
-2.702970094899009 
1.221073883892332 
-1.091522976588926 
0 
0 
0 
0 
-0.220240008817426 
-3.40585614509984 
-1.496075438530611 
-0.1725318766518395 
-0.5008284109734691 
0 
-0.6626231545888654 
1.89028925362487 
-2.890915233534842 
1.888223684721867 
0 
-0.8538126364105282 
-0.09210169839433779 
0 
0 
0.9286243737430806 
0 
0 
2.145561902424411 
1.659622693925601 
7.052629202008158 
0 
-0.7429880810131952 
-1.203968612513076 
2.067358412063202 
0.3095165502622134 
0 
0 
0 
0.3314064971048566 
-3.394815347385743 
0 
0.8717761571159945 
0 
-1.696554042735969 
2.520422688513675 
-0.2127971296641142 
0.8965927442259773 
2.100337938469198 
0.8230738377933148 
-0.6756222912178427 
0.370079584093283 
-0.1785700107836959 
0.2835202594691928 
0.006427796996635897 
-0.8828448158174498 
1.162881079438947 
0.1130412189210587 
-0.9205957021304201 
3.834860236644177 
-2.195078825017656 
-0.2342026866443171 
-1.125681539303728 
0.1200092911188033 
-0.1406866137737284 
-2.045013805149654 
0 
0 
0 
0 
0 
0 
0 
0 
0 
1.597876338816126 
0.0284383584583426 
-2.324016095926626 
0.2726132702357889 
1.382796157776671 
-1.997086686388811 
-1.595077754674919 
-0.8028740399187076 
0.8366299620963356 
0 
-1.356878254813211 
-0.4135454771022608 
0.2105905281158792 
-0.298690184750023 
0 
-1.915008387757395 
-0.9363492415178298 
0.5083096716054579 
0 
0.5368638720753731 
-4.782814086701366 
-0.3614860488346986 
1.612999312444969 
-0.9364417970317506 
-0.1621529129019713 
-0.9899417172935524 
0 
-1.96664690069146 
0 
1.120794733740238 
0.7462536297050932 
0.9209040881870828 
-1.114972394156596 
0 
-4.92536194799819 
0 
3.433446947000673 
1.229432093974441 
0 
-0.2116469679521844 
0.4437662123297254 
0.1940249479866936 
1.094207485780954 
0 
-0.9277865665900293 
-0.5106728793828528 
-0.1046191738743668 
-0.31549166362322 
-0.484766157931919 
1.704377676790806 
0.5510540394899922 
0.4617460510786285 
0.2419951173307498 
0.4294296372997332 
1.726337212310172 
4.351092395567381 
1.423089922671887 
-0.8840453247735556 
0 
0 
0 
0 
0 
0 
1.583232316420383 
-1.037907216633461 
0 
0.8789762895772716 
0 
-1.916191930079379 
-0.9039934388224173 
0.8090738891342366 
-0.3118185178554157 
-0.3979776688572448 
0.112005633597818 
1.829979462454894 
0.2637009423932156 
0 
0 
-0.1266784766361655 
0 
0 
0.6009603983652715 
0 
0 
0 
0.4050396108559978 
0 
3.060923460260637 
0 
0 
0 
0 
0.9986960915236642 
-0.652383057425882 
0 
0 
-1.436231249890004 
-1.422539909791873 
-0.2929894035628777 
0.08342104931525356 
0 
-0.0913717479278618 
0 
0 
-3.872523626695748 
0.2152762996079016 
0 
-1.188743193376941 
0 
0 
-0.07722410960953487 
-2.749259657471492 
1.779906471896984 
-0.9677281235998524 
0 
1.46297430975655 
1.101507323829778 
-0.8943132309985832 
-0.4337344574056805 
0.8634008907471845 
0.2293520934591274 
2.824895516343641 
-0.3683337924251753 
0 
0 
0 
-2.535334971470093 
1.989505782632762 
0 
-0.3481728715394127 
0 
0 
0.4191581172453552 
0 
0 
0 
0 
0 
1.28460761362741 
0.03158025232636045 
0 
1.159795662759497 
0.46145372766763 
0 
-0.652165563520143 
0 
0 
0.4860135044266081 
0.5628261773008776 
-2.308755972237433 
-0.4156973856199658 
0.2661948691607702 
1.167105395595132 
0 
1.348290129017838 
0 
-3.487210899843512 
1.031972216702997 
-1.343192670545098 
0 
0 
2.580421856497345 
-0.4251632263728537 
-0.7665920199163521 
0 
0.2896456470501306 
0 
1.529429132471732 
1.784639114021298 
2.483769999839996 
0.7149431815958859 
2.461900195703927 
1.628081865871348 
0.4687113192697294 
-2.166404000730177 
0 
1.057841773324368 
-1.688277973170435 
0.7845035469359358 
0 
-0.01032791595050715 
0 
-0.6447418728922455 
-1.624434638118167 
-0.2577177043916273 
0 
0.211686804075302 
-1.367790688551147 
-0.685641551351722 
2.380511453583092 
-1.88213467360701 
0 
-2.978475510094097 
0 
0.2716277008950378 
-0.03900598344500766 
-0.8830989013162273 
0 
0 
-0.41027520626387 
0.7844283095646568 
-0.7238533344998225 
-1.705110662658627 
0 
0 
-1.312339843966486 
2.087158947650283 
1.433276550356661 
0 
-0.6650097920089075 
0 
0.2460110913649095 
2.148415041225471 
2.186170860973969 
0.7899895510747011 
0 
0 
-1.734661241430087 
0.3624445318602951 
0 
0 
0 
-0.9680594582880097 
-3.002099105225808 
0.5928894312313971 
0 
-1.447674502151928 
0 
0 
-0.1104796870772427 
0.01153664144796264 
-1.275517708895045 
-0.6940205634306414 
-0.4135454771022608 
0 
0.5898773868102994 
-0.1983673794024283 
4.288018484484274 
-0.1372452202601296 
0.440956223711635 
0.1231313869638447 
1.580738336073542 
0.3390534825360345 
-2.896604758174718 
0 
-2.137338256768872 
0 
0.7943430192255853 
-0.229511647354126 
-2.270102992028645 
0 
0 
5.004267745271878 
0.523322048678773 
-1.567821189554595 
0.1852271453638014 
-1.95095039455478 
0 
0.5297595826502025 
0 
-1.508342853681943 
0.3735858381603364 
0 
0 
0 
0 
-0.7080972856896152 
0 
0 
-0.8691806271311209 
-1.067836809312506 
0 
0.5090257841885224 
-0.09188166300724369 
-0.8257445811228479 
0 
0 
-1.817687128061651 
0.5698545332650631 
2.093361164873141 
0.1105200857938898 
-2.641078800439268 
0 
0 
1.816209051188111 
0 
0 
1.221521871490536 
-0.3006265889403916 
0 
4.966108235535417 
-1.537941968649347 
0 
-0.002099534530018272 
-0.8402229441269035 
0 
1.499315137846517 
1.055604776711515 
-3.335048201616194 
0.1493029499169317 
0 
-2.681014118055137 
0 
0.2178519473288673 
0.9033753232441718 
-2.559104420849839 
0 
-2.013865529238021 
0.9925203518530613 
0 
1.114332248779336 
0 
0 
0 
0 
-0.2982384965145892 
-2.883792947090974 
0 
0.5281160906270241 
0.5157577866237563 
0.4681930143392247 
-1.209184812437517 
-1.775576892669499 
0 
0 
0.4079392441899626 
-1.864758506941333 
0 
0 
-2.687603450034521 
-0.1150129020236779 
-0.04153480536708758 
-0.3663341145205538 
-2.673488759833594 
0.6615251645632555 
0 
0 
2.76434999651147 
0.2648179029841342 
0 
0.7849023980946656 
-0.6578171466405659 
-0.3090019768068819 
3.267855379858165 
0.1129491895935846 
-1.67914380074338 
1.958320212299947 
0.4316784275471743 
0.2437055563699364 
0 
-1.129539223439026 
0 
0.9844682265458802 
0 
0 
0.6450504071977331 
0 
2.430586900191174 
-0.3282860821443455 
-0.3668662372597712 
0 
1.798283707623023 
0 
-0.6968447093097369 
0.9964340011852336 
-0.8299358906845132 
2.849030246823622 
-2.279957165049316 
0.900733713338854 
0 
0 
-4.016576594181688 
0 
-0.6437774477777155 
0 
0 
0 
-0.8612508037539451 
1.49896334419489 
-0.3126248460317003 
-0.2436000945496321 
0.6920156697865301 
0.1037288339415297 
-1.533580990195701 
3.777876568158665 
0 
0.01553699114166874 
0 
1.988507710462064 
0 
0.5804609158836244 
1.939943851536319 
0.4792115142812693 
-2.229366014271366 
0 
0 
-1.380776014811171 
-0.5198439085504936 
0 
-1.157687436316827 
0 
-0.3982663711875548 
-0.3331032827168245 
-0.9130901500412536 
0.9811511584466207 
0 
-0.9359046071099952 
0 
0 
0 
1.174942797826044 
0.8531565915637351 
0.1789281237211894 
0.6444831963229741 
0.1366108281321897 
1.115602552356879 
-2.697022579818018 
1.131117338567004 
0.3447828221964929 
3.040730836533655 
-2.110394266577223 
0.4593423971506562 
-1.187666811496872 
0 
-2.381597597591141 
0 
-0.951555537779275 
0 
-0.6333445422838098 
0 
0 
0 
-0.3919339027346825 
0 
-0.5048549018631475 
0 
-2.775692719966844 
-1.878313638628289 
-0.4653181153378519 
2.873676927206405 
2.109827022777239 
0 
0 
1.061873907761799 
0 
-1.897926023087028 
0 
0 
0 
-0.4542894354911458 
-0.9277386325005921 
0 
0 
0 
1.175445130492562 
0 
0.06975198144210792 
0.2735271194412288 
0 
-0.4508465261193735 
0 
0 
0.9179700464008165 
-0.2918724407455925 
-1.755268519862418 
0 
-0.1747048472647416 
0 
0 
0 
1.738182386820156 
1.325064629391643 
0.1663246026652426 
0 
3.780470996497878 
0 
-0.2371276273196817 
-0.3486401383176333 
0 
1.457077343668178 
0.1640801301578281 
1.560139477691671 
1.01477203635791 
0 
0 
0 
-0.09691273303510956 
-0.5394053131321896 
0.9938340218269353 
0 
0 
0.1415129431891968 
-2.608998201155531 
-0.7571444847742532 
-0.7867715044331046 
-1.273407739525175 
1.766373363660882 
0.8315356605445954 
-0.3057799489392826 
-2.377319980726666 
-0.8968014375330378 
-0.5198439085504936 
-1.022067434340432 
0.5751651950611631 
-0.3088165006721391 
2.285488566645594 
-0.3492921306945778 
3.271405935120948 
0 
-0.06192285488292406 
0 
0 
-0.204694748355701 
1.468589796127062 
-3.133213515831986 
0 
0 
-3.502017428969686 
1.326197835153355 
0 
1.026330664998733 
2.170401086619794 
0 
-0.8559641243206028 
0.1584714315605789 
1.25411360701944 
1.734348218323491 
0 
0.4097041502962586 
0 
0.6803842816276588 
0 
1.942212297265735 
2.07622499660894 
2.537710784532472 
-0.5437263817657724 
0.05873188380013622 
0 
0 
0.8529745984552431 
0 
-1.700289668425829 
0 
0 
0.441749739784575 
0.3352383520474609 
0 
0 
-0.6209225503190914 
0.4866020625856544 
0.2276045594604415 
0.5463831515916018 
1.086375495252663 
-1.434576428080476 
-1.212544894468244 
0 
0.8302739245929865 
-0.012188614191405 
-0.5387409668800563 
0.3212917842486636 
0.4096505361306658 
0 
0 
0 
0.3340426826743336 
0 
0 
0 
0 
-0.1635625327420563 
0 
0 
0 
0 
0 
0.7534506779845273 
-0.6900593738892661 
-0.1480646242093714 
1.002647305319822 
4.463661875523796 
-0.6306577927374653 
-0.04861286805324738 
0.2250950041386674 
0 
0 
0 
0 
-1.701153707433357 
-2.156186243851212 
0.1891495563910508 
0 
1.201437512395184 
0 
-0.06037614190824039 
0 
-0.5453201981917655 
-1.54799164111334 
0.6244140189552337 
-0.3072308926838827 
0 
0 
0 
0.2398145341067977 
0 
0 
-0.2658058700036456 
1.241969367702124 
-0.04027082079827343 
0 
0 
0 
-1.839952689812853 
3.943237868109529 
-1.482729020014552 
0.1735132490272407 
0.6606467158701999 
-0.2246629266840969 
1.999626440634624 
-1.259715182035153 
0 
0.002151713007533094 
0 
-0.3238599083226253 
0 
0 
0 
1.308888661814667 
-0.5610868299075111 
0 
-1.066994672606171 
0 
0 
-1.443096813631459 
0 
0 
-0.4721785271184937 
0 
-0.5629163432109587 
-0.705618473594229 
0.3310762526776109 
-0.3503485934592825 
1.623610147851225 
3.396444251954949 
0.3759306058624125 
0 
0 
0 
-0.2777218556343219 
0 
0.406854377159966 
1.47789014805669 
-0.5413291361987596 
0 
0 
-1.096264244823068 
0 
0 
0 
0.5663292812783172 
0.4702408853357807 
0 
0 
-0.3521732868671096 
-0.08319772890283669 
-1.269532130818504 
-2.069729845170323 
0.9496117849602782 
-0.7624499404598976 
0 
2.795402252068875 
0.8040958244752535 
0 
0 
-0.6753630085668039 
-0.8900509646026741 
0 
-0.8604167006645045 
-0.06631484010075181 
-0.07298839503390385 
0 
0.5028520660668849 
-0.5151506370997372 
0 
0 
0.9584843526643332 
-0.5413291361987596 
-2.438807197179399 
-0.6036461697084304 
1.959415409626595 
0 
0 
0 
-1.130612658836983 
-0.7949221921394609 
0 
0 
0.3428009723660921 
0 
1.131225664810988 
-0.4821812201346726 
-0.1117157910799563 
0.4865785266159496 
0.2642388795779711 
-0.5720491514538202 
0.5343884975527902 
0 
0 
0 
0.1957436486707953 
0 
0.4588782263765891 
0.5299269958639977 
0 
0 
2.683690317146507 
0 
-0.358503408516205 
0.6580691915810722 
0 
0 
-0.7893111551029939 
0.3273639881959031 
-1.322739928405025 
-0.4535856016990502 
0 
0 
-1.719035333900563 
0 
0 
0 
1.095649278272223 
0 
1.399775706677178 
0 
-0.3182564108335247 
1.059666903873916 
-1.538566834069629 
0 
0.8156287330349953 
-0.5629163432109587 
-0.5854482327308891 
0 
0.4018815735285871 
0 
0 
0 
0 
-0.7547508784033888 
0.8534949381284976 
0 
1.844370291504892 
0 
0.4142980107992888 
0.1051568083120434 
0.9139301628421547 
0 
0.5922463319360463 
0 
0 
0 
0 
0.04232993805880509 
2.093336861502971 
0 
-0.8603302377242888 
0.4952516277203602 
0.232254607031617 
2.762172172675723 
0 
-0.674590928537197 
-2.177808688219842 
0 
1.276467228086527 
-0.6625194317171088 
-0.854694656620453 
0.7466592762835808 
0.006437476730133318 
1.088759771273787 
0 
0 
0.3216227665970639 
-1.698529161063031 
-0.4408856918177125 
-1.384000653913994 
-0.3917919566944946 
-0.3105573879742382 
1.515504233835558 
0.8817881491545539 
-0.1728142578201261 
0 
0.3900824578043429 
0.4046665945870446 
0 
-0.3112006818552774 
0 
0 
0 
0 
0 
0.1000027715595194 
0 
0.5446027978346674 
-0.3133495170942624 
0.3235860775533542 
0 
0 
0 
0.5436439912055792 
0 
-1.134034955239219 
-1.635370211152707 
-0.6471725724055237 
0 
0 
0 
0 
1.750216886708046 
-0.4288742350362706 
1.245531055725485 
0.4866616040812712 
-0.2112073218470171 
1.295604335365188 
0 
1.119599657549032 
0.5974687687981742 
-1.975369111929582 
-2.132301806024416 
3.82770445361688 
1.905369061761608 
0.5660282631030282 
0 
-0.07793339448465732 
1.572198868863682 
-2.039316563013246 
-0.2672968206806017 
0 
0 
0 
0 
0 
2.708657179850909 
0.9558184567831713 
0 
0 
0 
1.765668272347357 
2.073674403238372 
0.1491827774450115 
0.2403628522107879 
0 
0.1822657900829242 
-0.2817578366692752 
0 
0.5243261546523228 
0 
-1.300130107756788 
0 
-0.981016761816232 
-2.155293113471896 
0 
0 
0 
0 
0 
1.932476457174539 
0.9762078817712034 
-2.607877450338592 
0 
0 
0 
0 
-2.027439319357287 
0 
0 
0 
-0.04814111053225661 
0 
0.5690496372836565 
0 
0 
-1.375122673925695 
-5.881177106969662 
0.1103299528485718 
0.9094935787577132 
3.442002896619271 
2.67244001574314 
0 
0 
0 
0 
-3.091075395004167 
0 
-0.382123271021498 
-0.8986362772592658 
1.576545245991528 
0.08842894932483661 
0 
-0.135244796054254 
-0.1170307796733729 
-0.3047091016906754 
0 
-2.125200760696165 
0 
-0.537044153844637 
-0.7228758541379571 
-1.718994653298196 
1.747777891978128 
-1.786566680251633 
0 
0.5806444136405395 
1.108304574307013 
2.55484942992473 
0 
-3.571575831636102 
-0.3174551946821187 
0.6723103308413583 
-0.1721268130607468 
0.4199448851216944 
-1.364250459000519 
0 
0 
-1.468164546041885 
0 
-1.164682189402811 
-1.512496545497562 
-4.607430016356963 
-0.6243536206296529 
-3.118343068475805 
1.093463464239487 
-0.5217124804199708 
-0.1203049211040823 
-8.673617379884035e-18 
-4.287399556571391 
0 
-0.7466863440753101 
0 
-5.227482343574628 
0 
-0.3356067527130461 
-0.6829587111086416 
0.5016008347584473 
-0.3947934953184096 
-0.2964965015034051 
-0.2063503898908944 
0 
-1.206233379775489 
0 
0 
1.982971945789888 
0.4436811922691264 
0 
0 
0 
0 
-3.984855189487779 
-2.142333504568324 
-0.1920675793488282 
-1.109376206370606 
0 
0 
0.3133345264462415 
0.1447146438362646 
-0.8946449694219872 
0 
0.5020554627243329 
0 
-0.04396864483191025 
-3.985069179908856 
0 
1.16798198297304 
0 
-0.3260486086736201 
-1.851420440515137 
-0.5173992770249716 
0.3478355006083178 
0 
-0.6632211368516135 
-0.2893214356787519 
-1.521741805904266 
0 
1.822527018926267 
-0.7998291534869669 
1.165756600157897 
-3.662799867065178 
0 
-0.869501640970803 
-1.570143658324652 
0 
0.1193537165564717 
0 
0 
0.4648552908444546 
0 
0 
0 
0 
1.235402797977129 
0.4247476803922767 
-0.1890986951320819 
4.201583981938176 
-0.08416687018802887 
0 
-6.866138317663655 
0 
0 
-0.4705365359058354 
0 
-0.8108621854180752 
0 
0 
-0.08430302168675499 
0 
0 
0 
0 
-2.770096944700062 
0 
-0.4253008068056957 
-2.506727333606954 
0 
-1.021451121003101 
-0.8208090603518868 
-1.70420885770878 
0.4598107612211855 
0 
0 
0 
-0.2658058700036456 
0 
0 
0 
0 
0 
0 
-0.09950998537537634 
0.8911582808745366 
-0.6326620971278311 
0.3011251765035449 
0.3183048192936175 
0 
0 
0.8483965090265234 
0 
0 
-2.158565952590096 
0 
0 
0.7294335033132752 
0 
0 
0 
-3.024892539738888 
-0.7021540330094729 
0 
0 
0 
1.912658023078476 
-0.6058943224693527 
-0.02586545611116181 
0 
0 
1.958673005675757 
0 
0 
0.5787567274396457 
0 
0 
0 
0 
0 
0 
3.629743010738855 
-1.188931059666051 
0 
0 
0 
1.358457173095131 
0.5592522560431388 
0.8025523486158787 
0 
0 
-0.7127002561656438 
0 
2.773404848186157 
-1.156834745602123 
1.071158983203142 
1.602092282692381 
0.5473735130199853 
0 
0 
0 
0 
0.1689556269893841 
-0.26445107345362 
0.4866616040812712 
0.8747734640805999 
-0.2527083161026638 
0 
0 
0.1799643027160727 
-0.1632484384746084 
0 
1.945917544820511 
0 
0 
-0.411452447326302 
0 
0 
0 
0 
0 
0 
0 
0 
-0.1220767747593078 
0.2941241640636637 
0.03644277381926341 
-2.537070321424308 
-3.519513135179125 
-0.6099094272264567 
0 
0 
0 
0.003111548608911073 
0 
1.589042897400039 
0 
-2.860446839917076 
0 
-2.052357613816078 
1.645219871473907 
0 
0 
0 
0.456803999913067 
-0.8047461742367237 
0 
0 
-0.3991141295715699 
0.8943711544497485 
0.3630722699340378 
0 
0 
0 
-0.6445583589498237 
-0.8212930301025323 
-0.6961988967517385 
-0.7878597049124476 
1.376983628372629 
0.4548711746401272 
0 
0.3175002708341797 
-1.668721669516058 
-2.871905562507687 
-0.09524831800801273 
-1.385452088980005 
0 
0 
0 
-0.6519953377800027 
-0.6145749637279265 
-0.4455877204559608 
0 
0.4703408986448171 
0 
0 
0 
0 
0 
0 
0 
0 
0 
0 
0.1715326266886809 
0 
1.156080115498152 
-2.762164065063663 
1.860968097372875 
-1.131593199857937 
0 
0 
0.2820677574424426 
0.3212917842486636 
-1.230645645536659 
0 
0 
0 
-1.632245602733476 
0 
0.7688000471070008 
0 
-1.070363156820552 
-0.5774447374478271 
-1.202364560903904 
0 
0 
3.765848058440224 
0 
0 
0 
0 
0.2631425348434487 
0 
-2.684361619707945 
0 
-1.763265216614377 
0.338052571628377 
0 
0 
0 
0 
0 
0.0888763051689145 
-0.5026835737547334 
-0.5026835737547334 
0 
0 
-0.5090668778238202 
0.03289350835437432 
0.5499355458254968 
-0.1187167958133188 
0 
0.3762446906275032 
0 
0 
0 
0 
0.1314634735935051 
0.2191470251868908 
0.1256606529324396 
-0.7993348287379933 
-0.6632462610239219 
0 
-2.490361893721305 
-0.4061695423270456 
0 
-1.409650517702745 
0 
-0.5134856253401917 
0 
-1.351733173958594 
0 
0.4922350575856564 
0 
0 
0 
0.7642980217468245 
0.7117533387589469 
0.9974566850162525 
0 
0 
0 
-0.7805660342700539 
0 
0 
-0.1362722995928688 
0 
-2.168681258062298 
0.2152359112711929 
0.1229151787310126 
0 
0 
2.279983618311558 
-5.079405075948427 
0.5491803243004655 
0.5398008811224811 
0 
0 
0.1329032753122888 
-0.7393060207222775 
-1.105282405261354 
-0.907990579201018 
-1.36196429911536 
-1.453817299411284 
-1.884930850961837 
2.279503884418848 
2.21858072775896 
0.7413392168685969 
0.3906697267109811 
0 
-2.228903603270586 
0 
0 
0 
0 
0 
0 
0.8421938556215154 
0 
-1.039650233401958 
-0.267693672173931 
-0.7622440933169656 
-0.8864095034950623 
0 
0 
0 
-0.6751961067541019 
0 
2.732729669416182 
-0.2334367310648778 
0 
0 
0 
0 
1.259781464382851 
0 
0 
-0.111128530968042 
0.4398409902855083 
1.979627881012102 
0 
0 
2.345891567033294 
0 
4.316901677899871 
1.347603124232602 
-2.871097242879926 
-0.5192067298925588 
0 
-1.175120873980842 
0 
0 
0 
0 
0 
0 
0 
0 
-0.6605271918056052 
0 
-0.2314990328137119 
0.02679756585422968 
0 
0 
-4.654168062674347 
0.1483785509762506 
0 
0 
-1.980718695319329 
-2.351408680135449 
0.4081439474375138 
0 
-0.9479043282995087 
0 
0 
2.70009894065004 
1.349971907593586 
0.5365094687667479 
0 
0 
0 
0 
-0.2967909631801345 
1.730636255470107 
0 
0 
-0.1581305341867267 
-0.7867715044331046 
0 
0.6168348537798516 
0.1373815638127844 
-0.2918139231178827 
0 
0 
0 
0 
0.7010364294977472 
-0.7602700600379194 
0 
1.414938482828975 
0 
0 
-0.5721014714383703 
0 
0 
0.9160002797780861 
0 
0.3510442100036549 
1.112991139168391 
2.870811332681998 
0 
0.9127127887174377 
-1.366624544705393 
2.181680726936583 
-0.4801583690937055 
2.157921228548659 
0 
1.006359914694824 
0 
2.961677620442731 
-0.4502986669682867 
1.924187646547021 
0 
0 
1.059421455458415 
0 
-0.5095667809680607 
-0.6013777771817175 
0.1874032644050657 
1.400829798691828 
0 
0 
0 
0 
-1.345852252214697 
0.1292677481196787 
-3.97319501730691 
0.2812563521968208 
0 
0 
0 
-2.150276578974324 
1.970862710765094 
2.297560971527633 
0.5103324638937432 
0.7124991412279218 
-0.6915767008976484 
0 
0 
1.224400340102469 
0 
0 
0 
-0.2250098133021738 
0 
-0.9068993575408802 
-0.2607904258524035 
0.8674079898150254 
0 
0 
0 
0 
0 
0 
0.4623770162081561 
-3.722739626399751 
0 
0.4457414476406452 
0 
0.7513021018247324 
0 
0 
-2.553224725509848 
0.9650399115371968 
1.151301163356153 
0.8252800565870485 
0 
0 
-1.500414440856882 
-0.8683479217714527 
-0.5165204649582205 
-3.06462378133828 
-0.6189554779124964 
0 
0 
0 
0 
-3.843344062236029 
0 
-0.3238830492587035 
-0.2253390553245467 
0.4576961772305491 
0 
0 
2.387229291363062 
-1.243744880329058 
-0.9824692140797203 
0.4256713344403147 
-0.1504201198801409 
3.632756948740244 
0 
0 
-0.409466961120505 
2.945191416221 
0 
0 
0 
0 
-3.690963630475025 
1.578607128816943 
0.7760633044806785 
0 
0 
0 
1.146582379008473 
-0.4666787230784732 
0 
0.7133351882616624 
0 
-2.970404491044899 
0.4637158165832934 
-0.9944556571656752 
3.269963031555722 
0 
0 
-8.704282416245553 
1.930083815705437 
0 
-2.351957210340557 
0 
0 
-1.904941962987252 
0 
0 
-2.836750277762 
0.5071631021765087 
0 
0.2455395453039173 
-1.251659656271937 
1.912644962733876 
-1.260535726860303 
0 
0 
-0.3452791077215659 
0.5724212498525938 
0 
0 
0 
0.1415669415885908 
0.4623770162081561 
0 
0 
0 
0 
6.579834324363874 
0 
0.3882854351042953 
0 
0 
0.9610028680740679 
0 
0 
1.49778073426031 
-0.159189940797337 
0 
0.1726146400603996 
0 
-0.08982429198643425 
0 
0 
0 
-0.964045893858302 
0 
0.01359815033015746 
-1.090188758775989 
0 
0 
0 
-1.651891434414939 
-1.14035546964741 
0 
0 
1.052232732316679 
-0.529024888438076 
0 
1.389153171390456 
1.840461917782095 
0 
0 
0 
0 
0.008581610699458961 
0 
0 
-0.3719226569249349 
0 
-0.3664517539512581 
1.704765131927338 
0 
-0.4115628943610382 
0 
1.505941276737702 
0 
0.7606753674914659 
0 
2.751179826243036 
0 
0 
-1.231621279538851 
0 
0 
0 
0 
0 
-0.1062751163003959 
0.8811450694319054 
0.7661092758624493 
-0.6042734432372909 
-2.895003093807563 
0 
0 
0 
-0.4997852696021425 
0 
0 
0 
0 
0 
0 
-0.1232700800010247 
-0.7536642349188 
-1.405810380008493 
0 
0 
-1.135126105794384 
0 
1.270434971967334 
0 
0 
0 
-0.3342429533834241 
0 
0 
0.03894030292318133 
0 
1.265879654637236 
-0.4927430964543422 
-0.6753922277959911 
0.4262378216958692 
0 
-1.465194126708832 
-0.7015959174085792 
-1.311006429610488 
0.8519807826499212 
0 
0 
0.0812855998858141 
0 
1.154517232593152 
0.5071631021765087 
0.6285322417528465 
0 
3.236016895994441 
-2.677584888990109 
-0.005562476748476882 
0 
0 
0.6243933007566717 
0 
-1.075570404285559 
0.07146766169552447 
0.6621539476217545 
0 
0.0959648220115379 
0 
-0.589897963111477 
0 
-1.591644849326769 
0 
0 
-1.253742802480307 
-2.326256531903023 
-0.4435457896102044 
0 
0 
0 
0.3784751786654388 
0 
-0.6941677226096095 
0.7229136686834081 
0 
0.3354179833891868 
0 
-2.344209437401904 
1.871177887612259 
-0.2727047026863147 
-1.610752070108118 
0.03716749046815745 
0.7308197615389423 
0.6654305857093394 
0 
0 
1.606587293784539 
0 
0 
0.513553574479323 
-0.01855046340521051 
0.2149169451295003 
-0.3177013761147789 
0.1993812995011249 
0.5958378931191123 
0 
0 
0 
0 
1.648830661767687 
0 
0 
0.1491827774450115 
0 
-0.8418267473493276 
1.670551509336386 
0 
0.9291159534600668 
-1.200954269981211 
0 
0 
0 
0.6335967231030527 
-1.061685187800318 
0 
0 
0.03371561876925541 
-0.5045412567874776 
0 
0 
-1.051348896141556 
0.5404664302696447 
0 
0 
0 
-1.465582149587023 
0.6419144617651313 
0 
0 
0.09329678233705306 
-2.146830809862015 
-1.49233004912644 
1.213078834751105 
0.6662809472356692 
-0.9763695442479774 
0.2280021764520582 
-0.4664370229600453 
-0.7366117466524025 
-2.022570116562245 
0.7635218140408383 
0 
1.929959134807729 
0.04774933729047229 
0.08553141702593345 
-0.4103890184333553 
0 
0.2661948691607702 
0.9815564710144142 
0 
0 
1.659946132706811 
0 
-5.204170427930421e-18 
0.5382640205391382 
-0.9876816934656665 
0 
0 
-0.9210007031938 
0 
-0.3782460769664301 
0 
0 
0.4158097110357798 
0 
0 
0 
0 
0 
0 
-0.4000215432103817 
0 
0 
1.382256842373668 
0 
0 
0.8252135048584153 
0.2408834182174693 
0 
0 
0 
-0.834422027285239 
0 
-1.475850668347379 
-0.717722726798774 
-3.111433128951275 
0 
0 
-1.448898803777074 
0 
0 
0 
0 
0 
0 
0 
-0.2803732588414925 
0 
-0.3229490088284562 
0 
0 
0 
0 
-2.326859593555946 
1.147983950944642 
0 
0.9919043054344487 
-0.4702761567197208 
0 
0 
0 
-0.4958761662648443 
-1.146103489052434 
-1.174421099549688 
0 
0 
0 
-0.7738294169596539 
-0.640194249699818 
0 
0 
0 
0 
0 
0 
0 
0.3624350926567157 
0 
-1.18516656809204 
1.190340479962673 
-0.08661844299025867 
0 
0.1446544019435127 
-0.09261350256717095 
0 
0 
0 
1.212883407798085 
0 
0 
0.7267921464241917 
0 
0 
-1.072450266792807 
-0.5246131043413854 
-0.3170142668785011 
0 
-0.9395229703820567 
-1.101791731286378 
0.272689571069507 
0 
0 
0 
1.041898736967117 
-0.1204783127126859 
-2.053561164488872 
0 
0 
0 
-0.7865645007086893 
1.813025292181789 
0 
0 
0 
0 
-1.731563855059643 
0 
-4.249673449821906 
0 
2.638493083987586 
0 
-0.3683694683508574 
1.731130541985008 
0 
0.5574010847390014 
-0.4915843530112248 
0 
0 
0 
0 
0.5124164260699038 
2.044609995445445 
0 
0 
-0.9288281477412553 
0 
1.825731989148689 
-0.6625194317171088 
0 
0.1913502243176097 
0 
0 
0 
0 
-2.092210381329359 
0.3545993190744723 
0.7094671616259994 
0 
0 
0 
-1.379393843627872 
0.7547744224089433 
-0.559872404049971 
1.118650181320584 
0.2009685830657894 
0 
0 
0 
1.176166354843125 
0 
0 
0 
0 
-0.9877567068762272 
-0.3545393580870074 
0 
2.940107868251437 
0.6491037256705294 
-0.1605682601359847 
1.653441973419354 
0 
0 
0 
0 
3.767970410658718 
0 
-0.548498443739362 
0 
0 
0 
0 
0 
0 
0 
0 
0.2865899565841035 
0 
0 
-0.51094032330874 
0 
0.5056767576616408 
0 
0 
-0.2308968187055324 
0.5991884060855498 
0 
0 
0 
0.2721234677860789 
0 
0 
-0.1339836081444698 
1.242334207230208 
0 
0 
-1.771598807275466 
0.4626454986205679 
0 
0 
1.250845683874285 
0 
0 
-0.4551986082889503 
0.5707311641040054 
0.3073093617825691 
0 
0 
0 
-1.585766273712826 
0 
0 
0.3867420064006138 
0 
0 
0 
0 
0 
0 
-1.421093216921578 
0 
0.4623770162081561 
-1.530788646748196 
-0.02095941179282246 
2.638278192113647 
1.247148605973123 
0 
1.168213427816803 
0 
0 
0 
0.7479005729686937 
-1.173560697805186 
0 
0 
0 
-0.2137710332556759 
-1.253479740525284 
0 
0 
0 
0 
0 
0 
1.813201326768332 
0.1477728172054626 
0 
-0.8320012565944851 
-1.008151416176899 
5.109511891629631 
-1.354319289022992 
0 
0 
-0.8768938992499671 
0 
0.4776682814087449 
-0.2791104280143656 
-0.2493502648449148 
-1.006666117051291 
1.223623433634836 
0.6525089098537122 
-0.01838539465486165 
0 
-0.4771172529838577 
-1.033022486446996 
0 
-1.457013765287082 
0 
0 
0 
0 
0 
0 
0 
0 
0 
0 
0 
0 
0 
0 
0 
-0.8705988922065498 
0.6073258272244011 
-1.088498928144473 
0.2926881861844556 
1.157789948809377 
0 
1.759693731475255 
0 
0.1167581103763951 
0 
0 
0 
-0.4336071874240811 
0 
-0.9413180500910149 
0.4046665945870446 
0 
0.7604008755875712 
0 
1.339388098350304 
0 
-2.055706059117675 
0.1505626290222703 
0 
1.198043539576352 
0 
0 
0 
0 
0 
0 
0 
0 
0 
0 
0.6317069696830899 
0 
3.632507962680878 
0.5056767576616408 
0 
1.89675088963939 
-0.374148286264193 
-1.320194920331501 
0 
0 
0 
0 
-1.45481670953146 
0.1409580170953118 
0 
0.4235533421517899 
-0.3995531801791484 
0 
-0.07114003735458507 
0.5849518344953533 
0 
-0.6349256019065244 
0 
0 
0 
0 
-0.6471725724055237 
0 
0 
0 
-2.617228080021168 
0 
0 
0 
0 
0 
0 
0 
0.6787051085100986 
0 
0 
1.718533409249508 
0 
0.477022429831889 
0 
0 
-0.4109966436615283 
-1.035683412328309 
-0.01075635503791848 
0 
-1.38897702794172 
-0.4899672192372989 
1.072685595395457 
1.00126524322354 
0.2892472356236557 
0.08168294891163734 
2.092476621003451 
-0.920999744863422 
0 
0.5539549870395398 
0 
0 
1.971313818075745 
0 
0 
0 
-1.049021717808536 
0 
0 
0 
-1.193921528652309 
0 
-0.01377504566387268 
1.256320784813504 
0 
0 
0 
-0.9000820400694935 
-0.658311206897543 
-0.1956277596746671 
0 
0.4685292577873698 
0.1238937082215393 
-1.266339742901334 
0 
0.002237950036939702 
0 
0 
0 
0 
0 
-0.3806210288988548 
0.9294240511907329 
0.7974357917023893 
0.9896678765110134 
0 
0.8170590646851936 
0 
0 
0 
0 
0 
0.3900824578043429 
0 
-1.848140181746031 
0 
-0.4911586250732475 
-0.9070740918634891 
0 
0 
0 
1.928423864921886 
0 
0 
0 
0 
0 
0 
0 
-0.2484288957517749 
0 
0 
0 
0 
0 
0 
5.256692988374308 
0 
0 
-0.3067012666921385 
0 
0 
0 
0 
0 
1.423214299626557 
0 
0 
0 
0 
-0.3369071722386013 
2.247353427698523 
-0.6732111206247888 
0 
0 
0 
0 
0 
0 
-1.454061425266272 
1.034386452807604 
-0.03973221089341172 
-0.05292708544504932 
0 
0 
-0.5665575255372767 
0 
0.5219610907009107 
0.4741927600791325 
0 
0 
-0.3874041351075813 
-0.03590127557287381 
0 
-0.6938572177288543 
0 
-0.4429468815259459 
0 
0 
0 
0 
1.160642966335959 
-0.8136063222272598 
0 
0 
0 
0.9513075746251889 
1.405267227976404 
-1.361158005614093 
0 
0 
0.05566457459732846 
0 
0 
0 
0 
0 
0 
0.4728972582539699 
-0.3545393580870074 
1.65801656014703 
1.036976177537343 
0 
0 
0.3597406015057663 
0 
0 
0 
0 
0 
5.918863810938105 
0 
-0.7108256529888463 
0 
0 
0 
0.240783604677516 
0 
0 
-0.3802935718369604 
0 
-0.2750216658602129 
0 
0 
0 
0 
-2.13432065425236 
1.734142572164427 
0 
0 
0 
-0.2213562098305871 
0 
0 
-0.7293498287695728 
0 
0 
0.4096505361306658 
-2.816115320199674 
-0.6552138606478687 
1.813712428493105 
-0.4811222239724528 
-2.098198279632703 
3.62525943959287 
0.5320310499240166 
-0.4686362430665572 
-0.7294001513373788 
0 
-0.05258842878367045 
4.133573340245707 
-0.8189348089076292 
0.1119957492600207 
0.9813005833017757 
1.615128635213692 
-0.4927430964543422 
0 
0 
0.3860431969748194 
0.4021458271516274 
0 
0 
0 
0 
0.7079415914262541 
2.90298072826778 
0.7598913137558023 
0 
0 
0.9995759921841875 
0 
0 
-0.1826490637964567 
0 
0 
0.01151996740335515 
0 
0 
0 
-1.501747515091557 
0.09100678752782916 
0 
0 
0.3969752641121098 
0.4116870882445746 
0 
0 
0 
0.3253468149898834 
0.8795869595069142 
0 
0 
-0.3324089239101746 
0 
0.68410559007577 
0 
0 
-1.946662609272211 
0 
-0.6565843254260177 
1.188653348614832 
0 
0 
0 
0.4875139934857869 
0 
-1.638816648284979 
0 
0 
0 
0 
0 
1.717540806614577 
0.8878658357102606 
0 
-0.9055386776303282 
0.9615069269004506 
2.24748707906111 
0 
0 
0 
0.2746810703539464 
0.06587917562505582 
-0.1753975269498874 
-0.3095409757613362 
-1.579900183086372 
0 
0 
1.408948481160751 
0.5722152052027993 
0 
0 
-3.68854968279307 
0 
-3.314670544069535 
0 
0 
-2.97824772579615 
0 
-1.078849469421403 
0 
0 
0 
0 
0 
-0.8603535574920484 
-0.5476863773360023 
2.134992213739796 
0.2896456470501306 
-1.575891912101529 
0 
0 
0 
0 
0 
0 
0.3817609070204191 
0 
0 
-2.422612923999618 
0 
0 
-0.2808216926991344 
0 
0.6960678557535518 
0.4897053302972232 
-1.173105877710974 
-0.7542898459477512 
0 
0 
0 
0 
0 
0 
0 
0 
0.5681750288764024 
0 
0 
0 
0 
-0.526062914975308 
0.6786010281225119 
-0.5903329996597988 
0.5354281126686654 
-0.5476863773360023 
0 
-1.520956035767095 
0 
1.056089360416108 
0.5259024632176186 
0 
-1.39404391965498 
0 
-0.6203893568043641 
-0.7068533436927878 
0.2274283703615586 
0 
0 
0 
0 
2.705231376415138 
0 
0 
0 
0 
0 
0 
-0.15155240777829 
0 
1.460549750790466 
0.2267089017181504 
0 
0 
-0.002484518324136665 
0 
3.073140340972943 
0 
-0.3364255186553148 
-0.883484886106688 
-0.7351546103016511 
0.1978380719154067 
0 
0.5547779579329974 
-1.674410238470564 
0 
0 
0 
0 
0 
0.9063667895975116 
0 
0 
0.3618423744548999 
0 
0 
0 
0 
0.5577406921136504 
0.5258456576177848 
1.128153657229583 
-0.15155240777829 
-0.278612332203434 
0 
-0.7272669483701485 
0 
-2.171032496507672 
0 
-0.5188814508168204 
0 
3.165327577359157 
0 
1.47296340321064 
-0.3307737393786671 
0 
0 
1.417452139837428 
-0.9513504195360277 
-0.3799921375815643 
0 
0 
0 
0.1553065805253833 
0.8518620149451828 
0 
0 
-2.076413335793356 
0 
0 
0.3029896343709824 
-0.8160252979580803 
0 
0 
0 
-0.231178351042519 
0 
1.103754970896935 
0 
0 
0 
-0.4174803533795527 
0.4435327404913533 
0.7261445398680767 
1.387119357699108 
0.5228371299152134 
0 
0 
0 
-0.9360310582097976 
1.397727880839875 
0 
0 
0 
0 
0 
0 
0 
0 
-1.847605200903182 
0.7152172145162454 
0 
0 
-1.36668472287696 
-4.658953881936821 
3.328426771449596 
0 
0 
-0.4071273106703367 
0 
0 
0 
0 
0 
0 
1.363795738819617 
0 
0 
0 
0.4463852149397692 
0 
0 
0 
0 
1.40636637163503 
2.157363580213212 
1.122010433415989 
0 
0 
0.2896808808323106 
-1.703967516114086 
-0.8965530750776691 
-1.480368197603441 
-1.380770097805728 
0 
0 
0 
0 
0 
0 
0 
0 
0.7152172145162454 
0 
0 
0 
0 
-0.451827459131131 
-0.2476482453784513 
0 
0 
-0.5621917494137636 
0 
0 
0 
0.2533700542693611 
0 
1.58277531126429 
-0.3000632613944336 
0 
0.9375466587109396 
0.1018163776019226 
-0.3369071722386013 
0 
-0.3124298566405239 
-1.293628767334618 
0 
0 
-0.2484288957517749 
0 
0 
0 
0 
0.8247187223969061 
0 
0 
0 
0 
0.07806055064834717 
-1.704629202323989 
0 
0 
0 
0 
-0.7264586273962728 
0 
-0.7823955390851227 
0 
-1.50177988441702 
0 
-0.08430302168675499 
0 
0.1895947000760665 
0 
0 
0 
0 
0 
0 
-0.3528859747551655 
-0.6638810227734182 
-0.2548952023795332 
0 
0 
0 
0 
2.08328134025704 
0 
0 
-0.685641551351722 
0 
0 
0.1762486382890388 
0 
1.509122184283176 
0 
0.8588562893702814 
0.7507051202093074 
-0.5175318229061743 
0 
0.724819754919456 
-5.718850506385324 
-1.060293476944003 
0 
1.493904714974628 
-0.04584502700118023 
2.012754545819427 
-2.19204195725129 
-1.249221435650561 
0.03873748155664029 
2.069217790343477 
-1.040529557229315 
0 
0 
0.06945697035558603 
0 
0.9187222705541345 
0 
0.6967862215395225 
-0.7156325238540824 
0 
-1.520751180025073 
0 
0 
0.4710235029701635 
0 
0 
0.9442376939530831 
0 
0 
3.94767629288344 
0 
2.697356179529472 
0.6710109043405474 
0.8042451070210399 
0 
0 
-0.8302135193274064 
0 
0 
0 
-0.5095667809680607 
0.7194204906090804 
0 
0 
0 
0 
0 
0 
0 
-4.2567737276551 
0.1795965629023766 
0 
-1.594543066446173 
0 
0 
0 
0 
0 
0 
0 
0 
0 
0 
0 
0 
0.8969241912714063 
0 
0 
0 
-0.9741938806196115 
-0.3806210288988548 
0 
0 
2.260437830471792 
0.5970755414871949 
0 
0 
1.108304574307013 
0 
0 
0 
0 
0 
0 
0 
-0.3921141930212408 
0 
-0.4200837327990103 
0 
0.351820526994519 
0 
-0.3995302006840207 
0 
0 
0 
2.411142419322641 
1.625072339094414 
1.990519908298 
-0.1874965627172824 
0 
-1.579396637648481 
0 
0 
1.660049092614628 
0 
0 
0 
1.375095889269575 
0 
0.07739086116804141 
-0.2253077852074309 
0.2445257095426202 
0 
-0.7619658638574973 
1.894632991769891 
0.2922116086329407 
0 
1.824465578657479 
-0.5510833298091989 
0.2402628289669477 
0 
0.110327999332895 
0.4155832577713574 
-0.7255513501371652 
0 
-0.3678774320506153 
0.2916466437499806 
-2.130961539871553 
0 
0 
-0.8572159996520436 
0 
1.235744697301215 
1.587828206215746 
0 
0 
0 
0 
0.5970755414871949 
0 
-0.7483286229592433 
0.5587679395987459 
0 
3.247199110604602 
0 
0 
-2.693757750034711 
1.736547033006104 
-0.3715685359646159 
0.4112294508109589 
0 
0 
0 
0 
0 
0 
-0.3684300550325144 
0.6710109043405474 
2.02906489586741 
0 
0 
-1.359592219232559 
0 
1.128697775745363 
0 
0 
0 
0 
0 
0 
0 
0 
0 
0 
1.404103639208872 
1.060286729651752 
1.090253316937796 
-0.9493300235363742 
0.8127004457388082 
0 
-1.505124248786468 
0 
0 
0 
0 
0 
0.6621539476217545 
0 
0 
0 
-0.797681467487959 
0 
0 
0 
0.5679092278103276 
0.4475221132203233 
-0.2651061627512417 
0 
0 
0 
0 
-1.616779704156334 
-2.829892352117627 
0 
0 
0 
0 
0 
1.139741498408286 
0 
0 
0 
0 
0.2549039111328181 
0 
0 
0 
0 
1.961575266890675 
-0.7483286229592433 
0 
0.3949497498904274 
0.2307443559555261 
0 
-0.4169376823075356 
0 
0.8142459486065996 
0 
0 
-0.4705365359058354 
0 
-0.474903878094554 
0 
0 
-0.601656334090767 
0 
0 
0 
0 
0 
0 
0 
2.089397492804002 
0.1812877127331251 
0.8655438587561982 
0 
0 
-2.201518267437001 
0 
0 
-1.756922820917754 
-0.36438479479026 
0 
0 
-0.3642999375167978 
0 
0 
0 
-2.762215928111868 
-0.2696953867266906 
0 
-0.4997852696021425 
-2.290320568333184 
0 
0 
0 
0 
0 
0 
-0.3013383673392927 
0 
-0.2962330892596319 
-1.358702343499306 
-1.045775795126181 
0 
0 
0 
1.274665923256784 
-0.3344166180411605 
0 
0 
0 
0 
-1.517566532407449 
0 
0 
0 
0 
-1.016689749409804 
0.6844568611455955 
0 
0 
0 
0 
0 
-1.210678087032778 
1.109839454576518 
0 
0 
-0.8506696798791459 
0.844889324749281 
0 
-0.4199759477081044 
0 
0 
-0.06791898754748932 
-0.340242425745863 
0 
1.067159382111172 
0 
-1.026971250680382 
0 
0 
0 
1.977635274481502 
-0.6608401521106134 
0.7262827758737728 
0 
-1.243958228172967 
0 
0.813874573151556 
-2.100523331682825 
-0.2356384467270268 
0 
0 
0 
1.004431266746872 
0 
0 
0 
0 
-0.9647197069060521 
0 
-0.434151894993172 
-0.3901347851952693 
0 
0 
0 
0 
-0.5424276039540178 
0 
-0.2747275632795397 
-2.145484662270755 
0 
0 
0 
0 
0.5186300360303653 
0 
0 
0 
0.02849435266165291 
-2.559566955868297 
0.4700250600117543 
0 
0.9375707377447675 
0 
0 
0 
0.5349883634255028 
0 
0 
0 
0 
0 
0 
0 
-0.3180300407941273 
-0.2838008418815253 
0 
-1.867127355863611 
0 
-0.7334544166634723 
0 
0 
0.3116960477647263 
0 
0 
-0.09300574114778408 
0 
0 
-1.984546644731398 
-1.259370889443161 
0.2194719818695734 
0.8771224977681908 
0 
0 
1.957990161824045 
-0.4666787230784732 
-1.479539993967632 
-0.014635802044369 
-0.02634755587941923 
0 
0 
1.676583501831005 
1.343057637277977 
0 
0 
-0.917160747827091 
0.223988826005841 
0 
0 
0 
0 
0 
0 
0.3148828603286605 
0 
0 
0 
0 
-0.7938683582207984 
0 
-1.268530369017362 
0 
0.4272867790562642 
-0.4911586250732475 
-0.9338607175290775 
0 
0 
-0.7278030618975366 
0 
1.527697491971439 
1.351421499547069 
-0.770033616601313 
0 
0 
0 
0 
0 
-0.8857725021088066 
0 
5.994243538516615 
-0.6395505825869079 
0 
0.2518882683296377 
0 
0 
1.931390174101292 
-0.4181259423065956 
1.265031165796076 
-0.5320219952090771 
-0.474016418587109 
0.3913809501360744 
0 
0 
-1.980867606099875 
0 
0 
1.478244330465978 
0 
0 
0 
0 
0.4711470020213835 
0.04086357395173004 
0 
0 
0 
0 
0 
-1.10910301309754 
0 
0 
0 
0 
0 
0 
0.9758806878878039 
-1.245087315245794 
0.45625306113782 
-2.08699841002587 
0 
3.099943989448468 
0 
-1.860618137761505 
0 
0 
0 
0.3199884642993089 
0 
0 
0 
0 
0.2632916809585027 
0 
-1.492326007636004 
0.4477873209953698 
0 
-0.01877803311996691 
-0.4185731436536119 
0 
-0.5904366164653806 
-2.340861510166365 
0 
-0.4679301369838773 
0.5498920274788376 
0.8055192665173612 
0 
-0.5803886436874206 
0 
0 
0 
0 
0 
0 
0 
0 
0 
0 
0 
0 
0 
0 
0 
0 
-1.679577478388001 
0 
0 
0 
0 
0 
-3.083685722157949 
0 
0 
0.7676868351254846 
0 
0.3361352280002649 
0 
0 
-0.5151506370997372 
0 
0 
0 
0 
0 
0 
0 
0 
0 
2.307037895072325 
0.6551314468758165 
0 
0 
0.3630722699340378 
-0.9798858749955381 
0 
-0.1906310441428455 
0 
0 
0 
0 
0.3399808688654383 
0 
0.3960408202040829 
-1.40428580490124 
-0.43837757189774 
-0.2673167851051739 
0.8998933035333696 
0 
-0.4930152461586912 
-1.278817458915586 
0 
0.5029411424631933 
0 
0 
0 
0 
0 
-0.6625194317171088 
0 
1.36284633376364 
0 
0 
0 
0 
2.308386297383148 
0 
0 
-0.027316376929241 
-0.5521792084731547 
-0.723188427825732 
0 
-0.9984367419262395 
1.84490641415067 
0 
0 
0 
1.295008248961757 
0 
-1.012611456272571 
0 
2.80700861295955 
0 
0.5003506571390395 
-0.05955274145004029 
0.07580239150986444 
0 
0 
0 
0 
2.516479152931553 
0 
0 
0 
-0.6039136705667624 
-0.2748514852405444 
-2.009547235333828 
0 
-0.3242052037527127 
-0.5073416445049259 
0 
0 
0.299095971280551 
0 
0 
-3.800579603610918 
0 
0 
0 
1.362862528574118 
-0.5636173073277304 
0 
0 
0 
0 
0 
0 
0 
0 
0 
0 
0.8960919171946995 
0 
0 
0 
-0.6722301186648179 
0 
0 
0 
0 
0 
0.5029104929800748 
-0.3854542859839763 
-0.4799554127843398 
-0.2765328851081407 
0 
-0.1680413956627027 
0 
0 
0 
0 
0 
-0.1494684779025638 
0 
0.9642006080516886 
0.6745885734105113 
0 
-2.728257192982471 
0.07964143917815668 
0 
0 
0 
-1.823229858682968 
-0.3605512513893255 
0 
0 
0 
0 
0 
-0.9798858749955381 
-0.6447473269523815 
0.3526344568714347 
0 
0 
0.3974129048873789 
0 
0 
0 
0 
-0.5041367421640094 
0 
0 
0 
0 
0 
0 
0 
0 
-0.7053765676096425 
0.7323823076174997 
-0.9477500293556343 
0 
0 
0 
0 
1.194000464875569 
0.423602829160549 
0 
0 
0 
-1.05729799750621 
0 
-1.203535472469152 
0 
0 
0 
0 
-1.364521690648534 
0 
0.3135978708713255 
0 
-0.5025300700929208 
0 
-1.997418990282654 
-0.001373800153511174 
0 
1.082461896942282 
0 
-0.1745195397690232 
-0.250821137717226 
1.514591221474196 
0 
0 
0 
0 
-1.872876716576701 
0 
-0.8320012565944851 
0 
0 
0 
0 
-0.9469087941266094 
1.058906521800598 
0.4782727661442194 
0 
0 
0 
0 
0 
0 
0 
1.12794076681269 
0 
-0.07265277166735477 
0.03988297277563058 
1.185824065808162 
0 
0 
1.742777011152884 
0 
0 
0 
0 
-0.3497605218829996 
1.242417049215693 
0.1527682465437514 
1.935152935876991 
0 
0 
0 
1.413730240066004 
1.013089382131185 
0.4406722154133866 
0.3184767919968743 
0 
0 
0 
0 
-0.8202787308636135 
-0.379199136024923 
-0.267693672173931 
0 
0 
0 
-0.9738484978139414 
-0.134423813243529 
0 
0 
0 
0 
0 
0 
0.780833374977809 
0.04286786798058413 
0.3253236695741352 
0 
0 
0 
-0.2962330892596319 
0 
0 
-0.3472701070778775 
0 
0 
0 
0.1156015350534028 
0 
0 
0 
0 
0 
1.397476674310534 
0.5602572177130154 
0 
0 
0 
-1.287660304003424 
-0.7252849875103612 
0 
0 
0 
1.25874416556989 
0 
0 
1.122974017268541 
0 
0 
0 
0 
0 
1.878584561219755 
0 
0 
0 
0 
0 
0 
0 
-0.6906206055395296 
-1.186201060876843 
0 
0 
0 
-1.229793294680577 
0 
0 
0 
0 
-2.678624765258087 
-0.1605682601359847 
0 
0 
0 
0.6675527672119931 
1.112326480782061 
-0.1027252439707406 
0 
0 
0 
0 
0.5125016726835659 
0 
-0.3100267314857469 
0 
0 
-0.6334071299604438 
-0.7053765676096425 
-0.4253008068056957 
0.5425960908647766 
0 
0 
0 
0 
0 
0 
0 
0 
0.7012976354952785 
-0.6653712710049293 
0 
0 
0 
-0.2546327912431809 
0 
0 
-0.5156853307392166 
-0.4275286861262986 
0 
-4.016127337286736 
0 
-1.515398170239165 
0 
0 
0 
0 
0 
0 
1.138099386835844 
0 
0 
0 
0 
-0.6044138178379806 
0 
0 
-2.078772059077628 
0.5471849863217604 
0 
0 
0 
0 
0 
-1.092950000808678 
-2.42485842851338 
0 
0 
-2.438509024895648 
0 
0 
-2.201812648228252 
0 
0 
1.258802575740999 
0 
-5.204170427930421e-18 
0 
-0.2270554601826524 
0 
0 
0 
0 
0.03465426632732124 
-0.1191960430793735 
0 
0 
0 
0 
0 
0 
0 
0 
-0.9763247502196738 
0 
0 
0 
2.913061220386293 
0.7084580881490596 
-0.4173728459278687 
0 
0 
0 
0 
0 
0 
0.6200837871122318 
0.3569761573540605 
0 
0 
0 
0 
-0.7536107749834332 
-0.760375569576015 
0 
0 
0 
-0.3385996669430406 
0 
0.8346462554709874 
0 
0 
0.9375053674185028 
0 
-1.050142726813328 
0 
1.223491258413787 
0.6675527672119931 
0 
0 
0.7566944806986104 
0 
1.872339973407798 
0 
0 
0.9008107441827257 
0 
0.4338857352418424 
0 
0 
0 
0 
0 
0 
0 
0 
0 
0 
0 
0 
0 
-0.1852270051343419 
0 
0 
1.467258191182063 
0 
0 
0.01860390884774484 
0 
0 
0 
0 
0 
0 
-0.4296454046090784 
-0.426203603983818 
0 
-0.5242944774840612 
-0.7796845805160556 
-0.8151711786832564 
0 
0 
0 
0 
0 
-1.796814261664114 
-0.5312695556743559 
0.3369424629153092 
0 
0 
-0.5790830875550754 
0 
0 
0.3865664817326005 
0 
0 
0 
0.4220340783890112 
0.8360856638687072 
-0.5095667809680607 
0 
0 
0 
0 
-0.8759434339526961 
-0.09035399023378785 
0.393776539861565 
0 
0 
0 
0 
0 
0 
-5.044045502366189 
0 
-1.674654798758721 
0 
0 
-2.790775535847004 
0.5849598093627741 
0 
0 
-1.150365394519911 
0 
-1.129218676908336 
0 
2.768808078140923 
0.4940519419623438 
-0.08558587123810481 
0 
0.4434613513913331 
0 
0 
0 
0 
0 
-1.648006456139572 
-0.652383057425882 
-0.3084264009177716 
0 
0.7003953344812792 
0 
0 
0 
0 
0.07424689999523024 
0 
0 
0 
0.8676649175949047 
0 
0.3966424509081911 
0 
-0.6266287375875486 
0 
0.220756455297034 
0 
0 
0 
0 
0 
0 
0 
0 
0 
0.2908409280881188 
0 
-0.04052908220640399 
-1.948731330714863 
0 
0.6466229477129191 
0 
-0.8646355426951735 
0 
0.5494449748576411 
-2.258556190574172 
0 
0.7183985721588454 
0 
0 
1.787581627326012 
0.8375883689780497 
0 
0 
0.3663822297306283 
0 
1.78578915996931 
0.5937914991233417 
0 
0 
-1.721372554271751 
0 
0 
-0.3472789479203098 
0 
0 
0 
0 
0 
0 
0 
-1.240051603926619 
-0.2750548784763578 
0.2565263540432753 
0 
0 
0 
0 
0 
0 
0 
0 
1.308706369385302 
-0.6072561412103814 
0 
0 
-0.447903381433418 
0 
0 
0 
0 
0 
0 
0 
1.061748977681636 
0 
0 
0 
0 
1.123433404686642 
0 
0 
-0.3886028104928698 
0 
0 
0 
0.8485099131703474 
0.5475563833906659 
0 
0.1417484502934832 
0.1611511690943742 
0 
0.5786898840005396 
1.827908145978967 
0 
0.4152405237963087 
0 
0 
0 
-1.612630916611306 
-2.011028294884462 
0 
0 
0 
-0.4289137510603491 
-1.099430782050929 
0 
0 
-2.799963630037844 
0.9995759921841875 
0 
-0.4200094307283684 
0.6312975924779725 
0.9562148547094323 
0.7708104140814671 
0 
0 
1.177372433783091 
-1.600654830033648 
0 
2.058432291374697 
-1.504279627828495 
-2.137395850341992 
2.506284886768173 
-0.6628334637764542 
-2.162682884939218 
0 
-0.8716578837511081 
0 
-1.740689490543176 
0 
0.4249833564103684 
0 
-0.5316483597494641 
0.2239420713879922 
1.21262513991758 
0 
0 
0 
0 
0 
0 
0 
0 
0 
0 
0.003983823373876997 
0 
-0.1702985834314539 
0 
-0.6514619727898726 
0 
0.6045096741644461 
0 
0 
0 
0 
-1.204688243216354 
0 
0.6998163231632093 
0.4668895643955497 
0 
1.074116507735233 
0 
0.3485132242365987 
0 
0 
0 
0 
0 
0 
0 
0.7722070821682303 
0 
0.6045096741644461 
0 
0 
0 
0.4235533421517899 
0.4191581172453552 
-1.924426709545249 
-0.4156973856199658 
-0.9313761255052012 
0.4235883613060282 
-0.360302265485587 
0 
0 
0.855984758757527 
0 
0 
0 
0 
0 
0 
0 
0 
0 
0 
0 
0 
0 
-0.2273032382871306 
1.33500016077322 
0 
0 
0.7751020996606561 
0.3629783929365141 
0 
0 
1.514725867998491 
0 
0 
0 
0 
0 
-0.2058678803902672 
0 
0 
0 
0.5937914991233417 
0.6212381894490384 
0 
0 
-0.7078154237739454 
0 
0 
-0.6869588981559007 
0.4952307635479398 
0 
0 
0 
0 
0 
0 
0 
0.1100146635995797 
1.170971286553513 
0 
0 
0 
-0.1913910976847123 
0 
-0.3752239247460842 
0 
0 
0.2049299575430144 
0 
0 
-0.8120987057586031 
-0.2530404302115422 
0 
0 
0 
0 
-1.353550480201169 
0 
0 
0.8165030048697461 
0 
0 
0 
0.08671750795115338 
0.9097723555114521 
0 
-0.3642999375167978 
-1.275137456116875 
-0.5110922229601998 
0 
0 
-0.3582110490551473 
0 
0.574025292919664 
0 
0 
0 
-0.1698316179953658 
0 
0 
0 
0 
0 
0 
0 
0 
0 
0 
0 
0 
0 
0 
-0.6988064322676134 
0 
0 
0 
0 
0.3802972011319317 
-0.8641181419459161 
-0.4105335005010441 
0 
0 
-0.05440009135917996 
0.598000803841669 
0.4922350575856564 
0 
0 
0 
0 
0 
0 
0 
0 
-0.5665575255372767 
0 
-0.7285998750335957 
0 
0.6196318217962151 
0 
0.6829278267429524 
-0.5473951346825525 
0 
0 
0 
0.3352383520474609 
0.2881145489138586 
0 
0 
0 
0 
0 
0 
0 
0 
0 
0 
0.166586924532267 
0 
0 
0 
0 
-0.5309071053176101 
-0.8522242717397944 
0 
0 
0 
0 
0 
1.039644707822575 
1.765673738594152 
1.292755636176783 
0 
0 
0 
-0.2527083161026638 
0 
-0.893309357181675 
0 
0 
0 
0 
0.01571144297445685 
0.4288374653664666 
0 
-0.5401968915426367 
-2.22975078485446 
0 
0 
0.6026838063624502 
-0.9559365168911784 
-0.6635404292318474 
0 
0 
0 
0 
0 
0 
1.389042384869823 
0 
0 
0 
0 
0 
0 
0 
0 
0 
1.384627588834201 
0 
0 
0 
0.2554238754283432 
0 
0 
0 
-0.7428918807114997 
0 
0 
0 
0 
2.487466372684329 
0 
-0.2117253885856006 
0 
0 
-2.861035612502489 
0.789851527530852 
0.3432870507734576 
0 
0 
0 
0 
0 
0 
0 
1.218824958216925 
0 
-0.6427996197846259 
0 
0.1451569783836957 
0 
0 
-0.7204696480941799 
0 
-2.224075117198185 
0 
-0.2265866351347904 
0 
0 
0 
0 
0.6072577148077158 
0 
0 
0 
0 
0.3802972011319317 
0 
0 
0.5008689071099818 
0.259126087490633 
0 
0.4253992327251118 
0.3432870507734576 
4.008682948616881 
0.6280785841416237 
0 
0 
0 
0 
0 
-2.034768871957694 
0 
0 
0 
0 
2.49923672111453 
0.7729228347692667 
-0.4600968480465558 
-0.5424085162457177 
0 
0 
0 
0.502653900626732 
-1.306417275152419 
-2.887140659871454 
0 
4.250419468018593 
-1.395389261301683 
-0.9548111759387672 
0 
0 
0.140833272506148 
0.0183083609756393 
0 
-0.6627767381530585 
0 
0.471514531265849 
0 
0 
-0.007434323297572426 
0 
-0.3798182939477175 
0 
0 
0 
-0.3869409472417127 
4.347044696748043 
0 
0.4588782263765891 
0 
-0.02075481146872114 
0 
0 
-0.5985009660998154 
-0.5632972855441507 
0 
-0.7946196106484393 
0 
0.9058790044091519 
0 
0 
0 
0 
0 
0 
0 
0 
0 
0.5145451801466563 
0 
0.789851527530852 
1.157789948809377 
0 
0 
-0.6682525584769569 
0 
0 
0.1580481379593952 
-0.6039136705667624 
0 
0 
0 
0 
0 
0 
0 
0 
-0.4144501789915677 
0.9995759921841875 
0 
1.011184088845432 
0 
0 
0 
0.1874123870928402 
0 
0 
0 
1.118090777273579 
0 
0 
0.4510736944047827 
0 
0 
0 
0 
0.6354312119042824 
0 
0 
0.6442879325557821 
0 
0 
0 
-1.48626001503594 
6.784097824740965 
0 
0 
0.7639416070478684 
0 
0 
0 
0 
0 
0 
0 
0 
0.2674119363655254 
0 
0 
-0.5320150918696853 
0 
0 
0 
0 
0 
0 
0 
0 
0.5810966169156594 
0 
0 
0 
0 
0 
-1.744439700434317 
0 
0.9701219798459599 
0 
0 
-0.7024868712370532 
0.1236020779688828 
-0.7066216242151935 
0 
0 
0 
0.2239678839471278 
-1.79192798850676 
0 
0 
0 
0 
-0.2436000945496321 
0 
0 
-0.7068533436927878 
0 
0 
0 
0 
0 
0.08808292302431538 
0 
0.3352383520474609 
0 
0 
0 
0 
-0.6459750798897439 
0 
0 
0 
0 
-1.02587673675977 
0 
0 
0 
0 
0 
0 
-1.049932040071613 
-0.5239773270498975 
0 
0 
-0.5489141562136389 
0 
0 
-0.04443507345107707 
0 
0 
0.7147699085512389 
0 
0 
-0.2647613910939127 
0 
0 
0 
0 
-2.748521465923891 
-2.195241628994502 
0.4623770162081561 
0 
0.6158573542275508 
0 
0 
-0.9697116267943479 
-0.1329413644353556 
1.252499668599684 
0.3415740226633061 
0 
0 
0 
0 
0 
0 
0 
0 
0 
0 
0 
0 
0 
1.651232727160744 
1.304374758605995 
-3.236465006666692 
-0.3707102332074845 
0 
0 
0 
0.6297102525210203 
0 
0 
0 
-0.9364328699556118 
0 
0 
0 
0 
0 
0.6525998996862493 
0 
-0.1702985834314539 
0 
0 
0 
0 
0 
0.7672447464805051 
0.695180572790926 
0.2505655932197831 
0 
0 
0 
-0.2800717152731673 
2.080577060151531 
0.1448671517398729 
0 
0 
0 
0 
0 
0 
0.5657581485190725 
0 
1.687744166293841 
-0.5544437713091864 
0 
0 
0 
0 
0 
0 
0 
0 
0 
0.2406407625121565 
-0.3364255186553148 
0.5008689071099818 
0 
0 
0.7092443516426988 
-0.7679658215403107 
0 
0 
0 
0 
0 
0 
0 
0 
0 
0 
0 
0 
0 
0.5825388647137633 
0 
0 
0 
0.4798102211683731 
0 
0 
0.4218842798709746 
0 
0 
0 
0 
0.9342316042090115 
0 
0 
-0.2830305727273114 
0 
0 
0 
0 
0 
-0.5211226328309778 
0.3843558517000466 
0 
0 
0 
0 
0 
-2.004727828597569 
0 
0 
0 
0 
0.7452369813707826 
0 
-0.4103326356427421 
0 
0 
-0.7053765676096425 
0 
0 
0 
0 
0 
-0.4811222239724528 
0 
0 
0 
0 
0.734524407134486 
0.7074873778670262 
-1.168086967110241 
-1.649259173337305 
0 
0.4301409591185107 
0 
0 
0 
0 
0 
0 
-0.4173728459278687 
0 
0 
-1.73475211079276 
0 
0 
0.4939396605218172 
0 
0 
-0.267942146982852 
0 
0 
0 
0 
0 
1.192923507688407 
0 
0 
0 
-0.4867248148818722 
3.655739421175632 
0 
0.4866020625856544 
0 
-0.2920654516780138 
-0.7170596190272359 
-1.003799649271078 
0 
0 
0 
0.5698545332650631 
0.4839853876755458 
-0.8978111795363579 
0.4437640312103983 
0 
0.4397890287692578 
0 
0 
0 
0.8928908139811428 
0.574935254941439 
0 
1.136130141206627 
0 
0 
-0.3242052037527127 
0 
-0.5111080491216234 
0 
0 
0 
0 
0 
0 
0 
0.5645532066254332 
0 
0 
0 
0 
0 
0 
0 
0 
0.4409654125885305 
0 
1.639923398554072 
0 
0 
-0.7326054133318711 
0 
0 
0 
0 
0 
0 
3.554576397457252 
0 
0 
0 
0 
-1.023132312441933 
0 
0.7598913137558023 
0 
0 
0 
0.7279262960978093 
-0.5164048000116122 
0 
0.458824545656608 
-0.9599490631830671 
0 
0 
0 
0 
0 
0 
0 
0 
1.49890769852007 
0 
0 
0 
0 
0 
0.5442866181088747 
0.7119133018530805 
0 
0 
0 
-0.1663608230261064 
0 
0 
0 
0 
0 
-0.8630339989919577 
-2.805813255289848 
-2.485315801081385 
0 
0 
0 
-1.366773765563783 
0 
0 
-0.7816373452240769 
0.9729812511351522 
0 
0.178532722097578 
0 
0 
0 
-0.454334497424873 
0 
0 
0 
0 
-0.2148869208054885 
0 
-0.3190479586374149 
0 
1.581708534142189 
0 
0 
-0.5150021319261689 
-2.296467990531689 
0 
-0.6580491112965251 
-0.2701212218369315 
0.1196459464977526 
0 
0 
0 
0 
0.7290394154230231 
0 
0 
0.08202522627537404 
3.591799413146386 
0 
0 
0 
0 
0 
0 
1.647142961382432 
0.6317069696830899 
0 
0 
0.6775638280575551 
-0.3727190574667547 
0 
0 
0 
-0.6430332491702603 
-1.165436794189011 
0.618854748595007 
0 
0 
0 
0 
0.3993754730605262 
0 
0 
0 
0 
0 
2.350235743186508 
0 
0 
0 
0 
-0.5535402456690881 
0 
0 
0 
0 
0 
0 
0 
0 
-0.1318626809678528 
-0.2242230575279664 
0 
0.9875928680718125 
0 
-0.4947277476341324 
-0.4237313360800934 
0.6009603983652715 
0 
0 
0 
0 
0 
0.9001640944610478 
0 
0 
0 
-0.9237909827445497 
-1.381241211079059 
-0.7580117648109652 
-0.2617609175125182 
0 
0 
0 
0 
0 
0 
0 
0.3360454305671258 
0 
0 
0 
0.5777371333229501 
0.005924961574937915 
0 
0 
0 
0 
0 
0 
0 
0 
0 
0.01199337557048715 
0 
1.377599594266768 
1.387778780781446e-17 
0 
0 
0 
0 
0 
0.7647609317274136 
0 
0 
-0.5988626312385047 
0 
-0.0618051373256216 
-0.3961976174041562 
0 
0 
0 
1.956839560527454 
0 
-0.06424489860926361 
0 
0 
-1.394679577549044 
0 
2.449963288223023 
0 
0 
0 
0 
0 
0.6077602829812041 
0 
0 
-0.8334022847209304 
0 
0.4728972582539699 
0 
0.50084427435604 
0 
0 
0 
0 
0 
1.47055975447284 
0 
0.6996840118801105 
-0.4710682435707484 
0 
0.3998304799668898 
-0.1271024000465421 
-0.44884789188799 
0 
0 
0 
0 
0 
0 
0 
0 
-1.620341006290657 
0 
-2.414015125826362 
0.381169636674304 
0 
0 
0 
-0.4841025111366379 
-0.2833383638797617 
0 
0 
0 
0 
0 
0 
0 
0 
0.1851383986489736 
0.4973966551669916 
0 
-0.5246131043413854 
0.3293987940192308 
0 
0 
0.2030008856307409 
0 
0 
2.648712534726215 
0.3954262687774479 
0 
-0.563250606667233 
0 
0 
0 
0 
0 
0 
0 
-2.202687405537403 
0.7944301882323067 
0 
0 
0 
0 
0 
-2.032476043586183 
0.09796901039940505 
0 
0 
0.6447504119671854 
0 
-0.5173992770249716 
0 
0 
0 
0 
0.6555303074325746 
-0.1082839172678914 
-1.540328721315938 
0.3811467394039472 
0 
-0.5242944774840612 
0 
0 
0 
0 
0 
0 
0 
0 
-1.69398218222768 
-0.6549175680835547 
-2.271761306050625 
-0.3848452336289496 
0 
-0.228792120727469 
0 
0 
1.956758172475426 
0 
-0.3203622395274287 
0 
0 
2.036257991609455 
0 
0 
0 
0 
0 
0 
0 
0 
0.8145418339804554 
0 
0.6625333836182506 
0.1156015350534028 
0 
1.171935410456711 
-0.4674691028249499 
0 
0 
0.1684483877280755 
-0.51398281332422 
0 
0 
0 
0 
0 
0 
0.5256264502980257 
-2.264195740886937 
-2.506084484804865 
0 
0 
0 
0 
-1.042805890829001 
0 
0 
0 
0 
0 
-1.369966340863187 
-0.06675260227779665 
-0.3292811762752929 
0 
2.041978733534102 
0 
0 
0 
0 
0 
0 
-0.03703912623549804 
0.5574010847390014 
0.7746341270429736 
-0.4418305709613136 
0 
0 
0 
-0.3048276823582485 
0 
0 
0 
-1.260460046398179 
0 
0 
0 
0 
0 
0 
0 
0 
0 
0 
0 
0 
-0.762133773015475 
0 
0 
0 
0 
-2.091158985808393 
-1.274101724879343 
0 
0 
0 
0 
0 
0 
0 
0 
0.7197561486969489 
0 
-1.460111731848108 
-2.520997299141403 
-0.4350327642209444 
-0.8978853579391791 
0 
0 
0 
0 
0 
0.5511896618041771 
0.1457470623070366 
0.4482248613131659 
0 
0.9083492472975822 
0 
1.187600857785009 
-0.292580585300598 
0 
0 
0 
0.9075147178239574 
-0.5079788011142133 
0 
0 
0 
0 
0 
0 
0 
0.5599260765946921 
0 
0 
0 
0.429737874536317 
0 
0 
0.7139114375708088 
0 
-0.2834595847586897 
0.6902149457747025 
0 
0 
0 
0 
0 
0 
-0.9983782326099475 
0 
0 
0 
0.4808488988536975 
0 
0 
0 
1.227742766478356 
-2.356669030527447 
0 
0.9320031303402978 
0 
0 
-0.3133495170942624 
0 
0 
0 
0 
0 
0 
0 
0.3828439808757867 
0 
0.6360915796894739 
0 
0.2671705067905497 
0 
0 
0 
-0.138080566174005 
0 
0 
0 
-0.01167486767905273 
-0.1257371260295869 
0 
0.5900210457545887 
-0.4657644050546684 
0 
0 
0 
-0.6262080313626243 
0 
-0.1927610164770678 
0 
0 
0 
0 
0 
-0.5328164593960157 
0 
0 
0 
0 
0 
2.258971356500972 
0.8952540044153731 
0 
0 
0 
0 
0 
0 
0.7366900977003308 
0 
-1.912227860017231 
1.814722376253326 
0 
0 
0 
0 
0 
1.192802649836409 
0 
-2.077233633579252 
0 
0.4393730324917957 
0 
0 
0 
0 
0 
0 
0 
0 
0 
0 
0 
0 
0 
0 
-1.174965297519596 
0 
-0.1602809194906568 
0 
0 
0 
2.089896370604492 
0 
0 
0 
0.708384098177411 
0 
-0.7607207334182732 
0 
-0.2874980414929418 
0 
-0.2898441089853428 
0 
0 
0 
0 
0 
0.8969241912714063 
0.6666583812281093 
0 
0 
0.2404918568687813 
-0.4673304636427516 
0 
0 
0 
0 
2.482393538659485 
0 
0 
0 
-0.8416464222133504 
0.3784751786654388 
0 
0 
0 
-0.4306868625757698 
0 
0.3900690881610983 
0.110205863154625 
-1.590812402974425 
0 
0 
0 
0 
0 
0 
0 
0.5122929266510486 
0.8874397650612578 
-2.030451988387058 
0 
0 
0 
-0.1746862600927497 
0 
0 
0 
0 
1.063793615354613 
-1.864678234397333 
-0.818011930127694 
0 
-0.3324089239101746 
0 
0 
0 
0 
-2.177873412528883 
0 
-1.31394989125351 
0 
0 
0 
0 
1.151451052635301 
0 
0 
0 
0 
0 
0 
-0.9580985189988287 
1.664215686432908 
0 
0 
0.2608188809701683 
2.515282998483862 
0 
-1.562630810566808 
0 
0 
0 
0 
0 
0 
0 
0 
0 
-0.3163302448986977 
0 
0 
1.057529168134979 
0 
0 
-2.908817579816917 
0 
0 
-0.4857086019367029 
0 
0 
0 
0 
0 
0 
0 
0.03462510636954241 
0 
0 
-0.2530404302115422 
0 
0.2512322467032535 
0 
0 
0 
-0.4014968860319837 
0.3677260294562875 
0 
0 
0 
0 
-0.5393659232520495 
0 
0 
0 
0 
0 
-0.7660630404322246 
0 
0 
0 
-1.92751317706509 
0 
0 
-0.4663976736734666 
0 
0 
0.5261548711971314 
-1.44436599127261 
0 
0 
0.1698942889959389 
0.4482728927469802 
0.3797910473581784 
0 
0 
0 
-0.7585717201255712 
0 
0 
0.9220114039016466 
-0.2467972781206637 
0 
-0.2842563224114573 
-0.3320127222515597 
0 
0 
0 
-1.2920636429913 
-0.2970296270744465 
0 
0 
0 
0 
0 
0 
1.426786899177138 
0 
0 
0 
0 
0 
0.3361824460798722 
0 
0 
0 
-0.41027520626387 
-0.7746869780955777 
-0.9697116267943479 
-0.9697116267943479 
-0.3863187116655118 
-0.4422142653778546 
-0.4422142653778546 
-0.4422142653778546 
-1.14936603388719 
-0.4690987826334406 
-0.8059358202400693 
-0.3384667174151191 
-0.1515365989794696 
-0.1515365989794696 
-0.1515365989794696 
-0.1515365989794696 
-0.1515365989794696 
-0.06739115927143562 
-0.06739115927143562 
-0.06739115927143562 
-0.6796683267356276 
6.298796097334433 
-1.196270224922839 
-1.734811802984004 
0.5917435898296065 
0.5917435898296065 
0.6556408326247172 
0.1225044172050028 
-1.356238763898425 
-4.852615020622065 
0.2586783338875736 
0.2294546873255467 
0.2098586281745684 
-1.829502424058965 
0.1506091902031594 
-0.3193346847978548 
-1.958718467211471 
-0.7949221921394609 
-0.1466159745350769 
-2.044915143856607 
-1.064351385386343 
-1.064351385386343 
-2.10804527103794 
-0.5002249492746536 
-0.0678981536221529 
-0.04584502700118023 
-3.167319212502544 
-0.4574079213622185 
-0.04584502700118023 
-3.340683377730728 
1.954985930976162 
-0.379199136024923 
-0.9831128065916857 
-0.379199136024923 
-0.52742050160617 
-0.474016418587109 
-0.474016418587109 
-0.1270563303507524 
-0.2998705881708786 
-2.465954163830999 
1.417487624139877 
0.2664660391369101 
-2.968855859968531 
-0.3346297646557138 
-0.2683379826358573 
-0.2683379826358573 
0.453269102635807 
-0.1938311169421331 
-0.2683379826358573 
-1.184348077090817 
-1.197449371155451 
-1.908195823574488e-17 
-0.762133773015475 
-1.777162407532678 
-0.4965774089752921 
-2.714102297322011 
-0.4965774089752921 
-0.4965774089752921 
-0.4965774089752921 
-0.4965774089752921 
-0.4965774089752921 
-0.4965774089752921 
0.1708000288007284 
-0.5958623309616146 
-0.3200478581302483 
-1.736207689455751 
-0.232986459980057 
-0.4561786846943293 
-0.4561786846943293 
-0.1710857458760199 
-0.1123538620758836 
-0.1710857458760199 
-1.276704322478456 
-0.4941919371328668 
0.784661752061969 
-0.1061826871907796 
-0.1108971703191531 
-0.8803529929042065 
-1.006222178517613 
-0.2879953943558785 
-1.536495029646636 
-2.494947537358853 
-0.07135291529468496 
-0.9738484978139414 
1.621078992791777 
-1.677911823531839 
0.6309151006649768 
-1.026544622869123 
-1.738659648173597 
0.02441719823335199 
6.938893903907228e-18 
-1.752264599186296 
-1.752264599186296 
-0.652165563520143 
-0.9550821073765619 
-0.652165563520143 
-0.652165563520143 
-0.4042568291769751 
-0.4042568291769751 
-0.8978853579391791 
-0.07244473571072575 
1.903403670610434 
0.127686786220347 
-1.261253302235487 
-0.4367133832928649 
-0.2810249193603733 
-0.03948595923641404 
-0.2964654820167998 
-1.101979878627479 
-0.4610400942303539 
0.07334840332243604 
0 
0 
-0.210964013944324 
-0.210964013944324 
-0.210964013944324 
-0.2001842432675958 
-0.991726483801917 
-0.4510489028731735 
-0.2578403763218661 
-0.2578403763218661 
-0.2578403763218661 
-0.6084993677512405 
-0.6084993677512405 
-0.01847832199665215 
-0.6084993677512405 
-1.172043924245428 
-0.6084993677512405 
-0.2834595847586897 
-0.2834595847586897 
-0.2834595847586897 
-1.258379714597141 
-1.348601095329989 
-1.222057399169507 
-1.222057399169507 
-1.222057399169507 
-1.222057399169507 
-1.222057399169507 
-1.581285243133422 
-0.9196700667344241 
-0.5533516356924871 
-1.477935886638146 
-0.2590649743137186 
-0.9196700667344241 
-3.454619218064318 
-0.1799179581332769 
-0.5231084128745995 
-1.06437134692577 
-2.9900957817695 
-0.5231084128745995 
-0.3005456855752974 
0.07303089313616914 
0.1946850779726424 
-2.548450472356999 
0.1258475841501188 
-1.720384503025921 
-1.720384503025921 
-1.203488479269317 
-0.2658058700036456 
-0.2658058700036456 
0.6241593532883941 
-0.1026327931357975 
-0.1026327931357975 
-0.4349984575162895 
-0.4349984575162895 
0.7733508786143279 
-0.953002573918893 
-1.816064838757338 
-2.948488385242664 
-0.2962330892596319 
-0.7319282635071224 
-1.820269955545442 
-1.820269955545442 
-1.820269955545442 
0.4722216101619642 
-0.1605809558165503 
-0.2607904258524035 
-0.2607904258524035 
-2.153891998969969 
-4.019851856956516 
-0.5482666816757932 
0.08716453022848909 
-0.1106286687635963 
-1.050169970318725 
-1.398993700641476 
0.8887840322987687 
-0.8024447326665031 
-0.924064620764751 
-1.571641399426961 
-0.1465073034708515 
-0.6077140163448184 
-0.1404517097937416 
-0.07259073150436576 
-0.08972512644789098 
-0.08972512644789098 
-2.708738335769257 
-2.708738335769257 
5.415929347018337 
-0.8192560727315086 
-0.6773239512614873 
-3.487008620327237 
-0.02890981791367134 
0.5693939764263457 
-1.007082588860849 
0.1194865538524261 
-0.248648007620643 
-0.248648007620643 
-0.590329420992022 
-1.29362774241505 
-5.418408096012954 
-0.7663518625704298 
-0.3489192482490262 
-0.3489192482490262 
-0.3489192482490262 
-0.3489192482490262 
-0.3713084915071358 
-0.01867403463570082 
-1.349106869522939 
0.2220730645312317 
-0.7340818874166305 
-0.4614017820849049 
-0.2242230575279664 
-0.2242230575279664 
-0.3581984607308417 
-0.7577516409099903 
-0.3581984607308417 
-0.399807106584425 
2.4341751293923 
-0.399807106584425 
-1.523481767427725 
-2.247651830493947 
-1.114865146274922 
-1.733214002139425 
-0.6311742088401245 
-1.21591143457449 
-0.5270714078484383 
-0.5270714078484383 
-0.5270714078484383 
-0.5270714078484383 
-1.27094654307001 
-0.5270714078484383 
-0.5270714078484383 
1.459560824543219 
-0.1675896357870516 
-0.1675896357870516 
-0.1675896357870516 
-0.3515647359430524 
-0.3515647359430524 
-0.3515647359430524 
0 
-0.1770827870091722 
-0.5764201072839997 
-1.467512456525653 
-2.559104420849839 
-2.164231714252038 
-2.559104420849839 
-2.559104420849839 
-2.559104420849839 
-0.9212412493167479 
-1.521635178345458 
-0.9932964024697289 
-0.9932964024697289 
-0.9616202446565805 
-1.61364920055803 
-0.9616202446565805 
-0.9616202446565805 
-0.1189237254608671 
-0.2378474509217338 
-1.406593811515833 
-0.1189237254608671 
-0.1790824389193343 
-0.1790824389193343 
0.3244073225969146 
-0.2388897565961751 
-0.2388897565961751 
-0.2388897565961751 
-0.6395994243151875 
0.3267244615726664 
-0.6915767008976484 
0 
-0.9082901447705587 
-0.5171678555544504 
-0.1301109685608765 
-0.5690855531917112 
-3.347392552170735 
-1.977700500937408 
-3.01549886946373 
-1.79192798850676 
-0.3876447844380491 
0.5131237388459575 
0.5952614735918607 
-0.3876447844380491 
-0.3876447844380491 
-0.3876447844380491 
-0.3876447844380491 
-2.109385309207783 
-1.096724283363058 
-1.545100038740588 
-1.096724283363058 
-0.3966042727955307 
0.7584535677049911 
-0.8986362772592658 
-0.9979540570301186 
-0.8986362772592658 
-1.228891286154288 
-0.8986362772592658 
-1.230052808941051 
-0.9639953054961825 
-1.215619254980168 
-0.8522242717397944 
-0.5320150918696853 
-1.189587000243565 
-0.5320150918696853 
-0.3995531801791484 
-0.3995531801791484 
-0.3995531801791484 
-0.3995531801791484 
-0.3995531801791484 
-0.06011926318115658 
-0.06011926318115658 
-0.6569015161233546 
-1.602512692824747 
0.2306960771116564 
-1.602512692824747 
-0.2053099130067565 
-0.1745195397690232 
-0.1745195397690232 
-0.1745195397690232 
-0.6323715865269466 
-0.8165853449451568 
-0.4801583690937055 
-0.7021540330094729 
0.6136981725912017 
-0.868100149541705 
-0.5048549018631475 
-0.5048549018631475 
-0.4356951742474903 
-1.341030086535854 
0.9152962006354197 
-1.103672937854293 
-1.039875770533622 
-0.6145749637279265 
-0.2349067075121958 
-0.652383057425882 
-0.652383057425882 
-0.652383057425882 
-0.652383057425882 
-0.652383057425882 
-0.5985009660998154 
-0.5985009660998154 
-0.2999074168106127 
-0.5985009660998154 
-0.2858230705391661 
-2.258709492925388 
-0.6580491112965251 
-1.069933801039401 
-1.893020656214569 
0.9546109452165193 
-0.2327187061030541 
-0.2327187061030541 
-1.431799495521024 
-2.217524888346718 
-0.4350868912923505 
-0.5003584948362735 
-0.8958699656460645 
-0.5003584948362735 
-0.6653712710049293 
-0.6653712710049293 
-0.4436298126769302 
-0.9237909827445497 
-0.5054193693294547 
-0.9237909827445497 
-0.9237909827445497 
-0.3260486086736201 
-0.3260486086736201 
-0.3260486086736201 
-0.3629542952750562 
-4.975824416344498 
-2.106309104221721 
-0.4206385158404671 
0.4558874146899027 
-0.4206385158404671 
-0.4206385158404671 
-1.32681885030423 
2.694784911268895 
-0.2034341567694698 
0.3408524613394049 
-0.2034341567694698 
-0.2034341567694698 
-0.2034341567694698 
-0.2034341567694698 
-0.2034341567694698 
-0.2515733611218655 
-0.1034584851777866 
-0.5785852327217316 
-1.178482609049047 
-1.053964120496734 
-0.7409806238036697 
-0.148012039787604 
-0.8059086853918664 
-0.8059086853918664 
-2.178708921620884 
-0.5508902819790897 
-1.590630379970796 
-0.9268327149118842 
-0.9268327149118842 
-0.1238457097658483 
0.5616821120717861 
4.103809719977423 
-1.450168648898942 
-0.9270724516580618 
2.003508585294615 
-0.1104397611330981 
-0.5697874223706388 
-0.5697874223706388 
1.037523597505074 
-0.2532647717589545 
1.210907677302133 
-1.382326004107638 
-1.568165654980587 
-0.4061695423270456 
-0.6999158294340961 
1.216210227240487 
-1.308138701106146 
-0.44884789188799 
-0.6089459799466002 
-0.44884789188799 
0.7360825438828444 
-0.267693672173931 
-0.267693672173931 
-0.7193121241623426 
-0.7193121241623426 
-0.5794057894140112 
-2.664396466803363 
-0.5794057894140112 
-0.5794057894140112 
-0.5794057894140112 
-0.5794057894140112 
-0.5794057894140112 
-0.5794057894140112 
-0.5794057894140112 
-0.5794057894140112 
-0.5794057894140112 
-0.5794057894140112 
-0.8546344947763708 
-1.004891884288822 
-0.4871969789661235 
-1.004891884288822 
-1.004891884288822 
-0.9983782326099475 
-0.402198598107107 
-0.4282277999533557 
-0.9983782326099475 
-0.9983782326099475 
-0.433737092689061 
-0.7082508375360422 
-0.7082508375360422 
-0.7805205404539475 
-0.7082508375360422 
-0.2232149872454345 
-0.6213083850439644 
-0.6213083850439644 
-0.6213083850439644 
-0.3847525469065505 
-1.055946789906808 
-1.827766049874763 
-1.303173267689065 
-0.4173094239387617 
-0.4173094239387617 
-0.354315884099628 
-1.304515545104412 
-0.4173094239387617 
-0.4173094239387617 
-0.4173094239387617 
-0.4681974602794585 
0 
-0.05715323162773384 
-0.5276119982759943 
-0.4111702561844493 
-0.4111702561844493 
-0.3570544988843707 
-0.8146104356074383 
-1.309451126007313 
-0.5105984444449636 
-1.360524227096291 
-0.5728600915266849 
-0.4135454771022608 
-0.3121730087348763 
-0.5501449408836115 
-0.5618797653131047 
-0.5501449408836115 
-0.4814577218817757 
-0.4814577218817757 
-0.7095723859867359 
-0.7095723859867359 
-0.5854649538217105 
-0.4618246334689789 
-0.4618246334689789 
-0.4618246334689789 
-0.4618246334689789 
-0.8777342819563426 
-0.8777342819563426 
-0.6136241873081661 
-0.6136241873081661 
0.8916621279914343 
-1.095407393591236 
-0.416207695953286 
0.07756842227830715 
0.2250553973718213 
-0.4165550756308456 
-0.3710336080093891 
-0.4445998870438043 
-0.4445998870438043 
-0.4445998870438043 
-0.4445998870438043 
-0.2777935787321095 
-0.2777935787321095 
2.020112473302048 
-0.4388856160894662 
-1.094790269365107 
-0.5473951346825525 
-0.2041080839090951 
0.6302067332048322 
-0.7228525475858343 
-0.7228525475858343 
-0.5075870518888261 
-1.989125450201265 
-0.2090610689676908 
-0.2090610689676908 
2.076967600612165 
1.336475051697302 
0.8338066626922431 
-0.3323800485169755 
0.1020035051338612 
0 
0 
0 
0 
0 
0 
-1.18963233964044 
-0.6343968384849519 
-1.973630537756391 
-0.1924996160016372 
-0.1924996160016372 
-0.5891095030139442 
-0.6113854507447872 
-0.3056927253723936 
-0.7787386207719323 
-1.423262851435002 
-0.2892438358260236 
-0.2892438358260236 
-0.2892438358260236 
-0.8683479217714527 
-0.8683479217714527 
-0.2811788667716505 
-0.6160481565331448 
-0.3307737393786671 
-2.044559700357123 
-0.3307737393786671 
-0.3307737393786671 
-1.036150306988309 
-0.3307737393786671 
-1.338693162483772 
0.3517556411914455 
-0.3994458351283001 
-1.766098711570203 
-0.634724023567133 
-0.3344166180411605 
0 
-0.7834999896208616 
-0.7053765676096425 
0.6713697364965003 
2.024710060637101 
1.39368087054237 
-0.08430302168675499 
-0.08430302168675499 
-0.9680594582880097 
-0.3984172659403347 
0.1547241302619275 
-0.3925860578386399 
-1.080967479187253 
-1.642136407066134 
-1.026971250680382 
-1.026971250680382 
-0.5134856253401917 
-2.648300805543217 
-0.5156852103094213 
-0.5156852103094213 
-0.08342226481496198 
-0.308593401868049 
-1.766375947648458 
-0.3940241847064499 
-0.3190479586374149 
3.355468369232483 
-0.6944591912316426 
-0.8163659923313615 
-0.2515831777171937 
-0.4081829961656813 
0.3816685313651707 
-0.4081829961656813 
-1.652066855607893 
-0.812959126543738 
-2.142689789402035 
-1.157972951513986 
-1.157972951513986 
-1.157972951513986 
-0.2100172720316488 
-0.8244739855373641 
-0.8244739855373641 
-0.8244739855373641 
-0.8244739855373641 
-0.8244739855373641 
-1.618605906935806 
-1.618605906935806 
-0.01645518921609759 
-0.9829142059548471 
-0.4679301369838773 
-0.4679301369838773 
-0.4679301369838773 
-0.5625719515170184 
-0.09036139366025395 
-0.09036139366025395 
-0.06784086519212569 
-3.42119571581993 
-0.8024557237038767 
0.6450555846900045 
-1.101151211145601 
-0.7466118530585933 
-0.7466118530585933 
2.460614779002142 
0.5264838372033058 
-3.702901163298419 
-0.3638212380725229 
-1.499360870956675 
-1.810680921038051 
0.6003786098112592 
1.055897765592077 
-2.044064868500722 
-0.7660630404322246 
-0.1801409075210287 
-0.1801409075210287 
-0.08982429198643425 
-0.08982429198643425 
-0.08982429198643425 
-0.08982429198643425 
-0.08982429198643425 
-0.7300120895939987 
-0.7300120895939987 
-0.7300120895939987 
-1.527767535325769 
-1.527767535325769 
-1.527767535325769 
-0.8289085981717113 
-0.532667067142331 
-0.532667067142331 
-1.115375818339465 
0.01778532178625683 
-1.329715671538179 
-0.3514714468532218 
-0.5137222515133237 
-0.8738514779332877 
-0.5396220726452273 
-0.6268775905137157 
-0.6268775905137157 
-0.6268775905137157 
-0.6268775905137157 
-0.6268775905137157 
-0.6268775905137157 
-1.113077664472599 
-1.113077664472599 
-1.12640206567938 
-1.028360517125138 
-1.028360517125138 
-0.4899672192372989 
-0.4899672192372989 
-0.4899672192372989 
-0.1539851087789781 
-0.1035562074178695 
-0.1035562074178695 
-0.6205959450901086 
0.3119594977331132 
-1.028780400358285 
-0.4694501020456776 
-0.2675421354655113 
-0.2675421354655113 
-0.4770628806221812 
-0.2675421354655113 
-0.8172264939813745 
0.3915295803673231 
-0.8172264939813745 
-1.101331289147056 
-1.464439824220951 
-1.870664414038013 
-0.9844844114366121 
-0.3093778736744736 
-0.5675988624915542 
-0.5675988624915542 
-0.5675988624915542 
-0.2072603332680465 
-0.26518557859574 
-0.314618517612682 
-1.125439296445107 
-1.697469255273935 
-0.7744378521751714 
-0.5535402456690881 
-1.47668378154668 
-0.5535402456690881 
-0.2693254466283131 
-1.129218676908336 
-1.129218676908336 
-0.1256474763232205 
-0.1256474763232205 
-0.8800713817218835 
-1.186082457397328 
-0.2649787904624917 
-0.5869438274385974 
-0.9340248328950373 
-0.5869438274385974 
-1.527688165965746 
-0.8824531318042903 
-0.442802434048473 
-0.442802434048473 
-0.442802434048473 
-0.2895255201661819 
-0.2895255201661819 
-0.2895255201661819 
-1.294251148512027 
-1.294251148512027 
-0.3540436311591013 
-0.3540436311591013 
-0.2187988351048474 
-0.3419943495893356 
-0.2187988351048474 
-0.2187988351048474 
0.4694367285410136 
-0.5371835792880131 
-0.5371835792880131 
-1.767085957337764 
0.7599023568169703 
-0.2747275632795397 
-0.2747275632795397 
-0.3611863533373383 
-0.3611863533373383 
-0.3611863533373383 
-0.3611863533373383 
-0.3611863533373383 
-0.3611863533373383 
-0.3611863533373383 
-0.289578565779247 
-0.289578565779247 
-0.289578565779247 
-0.2948271474357047 
0.8633746077302134 
-0.3879381562211991 
-1.571565557318114 
-0.4659608354398376 
-0.2625281832548638 
-0.2854500684980824 
-1.345877023029123 
-1.314495789146147 
-2.274444852329214 
-3.682893153467927 
-0.3236661485199742 
-0.1618330742599871 
-0.1618330742599871 
-0.1618330742599871 
-0.1428465703642143 
-0.06277582418067838 
-0.8173853349953869 
2.385871013353908 
-0.2972092596162441 
-0.7564139320839273 
-0.2972092596162441 
-0.7480557857356177 
-0.2972092596162441 
-0.2972092596162441 
-0.2972092596162441 
-2.098681781396514 
-0.476383043074422 
-1.123208005857493 
-0.8362518846131897 
-0.4181259423065956 
-2.85961678807104 
-0.4181259423065956 
-0.6457451387510751 
-0.6457451387510751 
-0.1213192559949805 
-0.1874965627172824 
0.368651959422902 
-1.499858262644679 
-1.499858262644679 
-1.499858262644679 
-1.830438838614246 
-0.2065534532423538 
1.035639242896594 
-0.5240086479244723 
-0.2065534532423538 
-0.2065534532423538 
-0.2065534532423538 
-0.4275286861262986 
-0.4275286861262986 
-0.8731674588588876 
0.2621658660596153 
-0.07855640936986374 
0.1773530400717936 
-0.763464124481376 
-0.763464124481376 
-0.763464124481376 
-0.763464124481376 
-2.221667120131154 
-0.763464124481376 
-0.3562664742352184 
-0.2634946144642722 
-0.2634946144642722 
-0.2634946144642722 
-0.8648723916459899 
-0.2634946144642722 
-0.2634946144642722 
0.7424932750976654 
-0.2634946144642722 
-0.2634946144642722 
-0.2634946144642722 
-2.35909719621308 
-0.400706353779237 
-0.400706353779237 
-0.400706353779237 
-0.400706353779237 
-0.400706353779237 
-0.400706353779237 
-0.400706353779237 
-0.400706353779237 
1.156990976308327 
-3.055723986383976 
-0.5375886114968127 
-0.5375886114968127 
-0.4073035415027622 
-0.5375886114968127 
-0.5375886114968127 
0.2076373675788362 
-0.4844275498771153 
-0.4844275498771153 
0 
-0.3797494992277917 
-1.372088347675961 
0.03532522740867463 
-0.4304923577151038 
-0.3204533142992022 
-0.3112132127735211 
-0.3282860821443455 
2.697389419387571 
0.05999935295994983 
-0.6347095246583755 
-0.6347095246583755 
0.8087815299037582 
-1.209268432219545 
-1.209268432219545 
-0.1702985834314539 
-0.1702985834314539 
-0.1702985834314539 
-0.4931524829651394 
-0.3145327193390291 
-0.3145327193390291 
-0.3145327193390291 
-0.3145327193390291 
-0.3145327193390291 
-0.4329235961524902 
-2.139803111297021 
-0.462063576234956 
-0.08130806509675935 
-0.1225420356408982 
-0.1225420356408982 
-0.3248064376826101 
-0.9082901447705587 
-0.6044138178379806 
-0.6044138178379806 
-0.6044138178379806 
-0.6044138178379806 
-0.6044138178379806 
-0.5743248118525273 
-0.5743248118525273 
-1.563979840210329 
-0.2871624059262633 
-0.2871624059262633 
-0.2871624059262633 
-1.962393300371874 
-0.8432970078650452 
4.101578894962202 
-0.4452110826130231 
-0.4452110826130231 
-0.4452110826130231 
-0.4452110826130231 
-0.3528391845020963 
-0.3528391845020963 
-0.3528391845020963 
-0.3528391845020963 
-0.3528391845020963 
0.245161491954957 
-0.07205867110820702 
-0.177961889235859 
-0.177961889235859 
1.057175815342935 
-0.4998717400767442 
-0.7812309442506679 
-1.554019835997755 
-1.785827474350915 
-0.6608401521106134 
-0.6608401521106134 
-0.6608401521106134 
-1.867765072238183 
-1.240957322795493 
-0.7248317153640772 
-0.2977497782154896 
-1.480616917081694 
-1.480616917081694 
-1.480616917081694 
-0.745625724300958 
-1.26261532452852 
-1.102047064392534 
-0.3043257657115064 
-1.102047064392534 
-1.380255739240298 
-0.1941221331704412 
-1.565417404161554 
-0.1941221331704412 
-0.6088715369115301 
-1.294584270659961 
-1.846966204863523 
-0.7127002561656438 
-0.7127002561656438 
-0.7127002561656438 
-0.7127002561656438 
0.01968205145185618 
-0.7127002561656438 
-0.7127002561656438 
-0.7127002561656438 
-0.2173381618319041 
-0.7579834393805984 
-0.5952976367770278 
-0.7483286229592433 
-0.2175071768461185 
-0.7483286229592433 
-1.876449826923558 
-0.4862374181024726 
0.1444165789307442 
-0.3495230815910731 
1.466011824492831 
-0.978151638876665 
-1.272608048406976 
-1.275213954253895 
-0.7579574789151248 
-0.398734539477736 
-0.3148033964349827 
-0.7666706146542874 
-1.952188980365336 
-1.096585561030625 
0.2014032623941849 
-0.2121128073773802 
-1.0110629743656 
-1.015537044916585 
-0.402983892097762 
-2.627072425133886 
0 
-1.474085491149987 
-0.4913618303833299 
-0.4913618303833299 
-0.4913618303833299 
-0.4913618303833299 
-0.1010761360681285 
-0.4913618303833299 
-1.087434163299847 
-1.151200698535842 
-1.070678635536647 
-1.070678635536647 
-1.070678635536647 
0.4489002627158101 
0.4111634904412328 
-0.2835957848566907 
-0.2835957848566907 
-0.3831058497238209 
-0.5156853307392166 
-1.361266171632725 
-1.361266171632725 
-0.3601604329667395 
0.444228846529148 
-0.4019939047616037 
-0.4019939047616037 
-0.3951294401570722 
-0.3951294401570722 
-0.6814479958766673 
-0.3951294401570722 
-0.6954145557841528 
-0.2874980414929418 
-0.2874980414929418 
-0.2874980414929418 
-0.5095667809680607 
-0.5095667809680607 
-0.5095667809680607 
-0.5095667809680607 
-0.5095667809680607 
-0.5095667809680607 
-0.5095667809680607 
-0.4047016782017711 
-0.4047016782017711 
-0.4047016782017711 
-0.6343405816994636 
-0.4047016782017711 
-0.4047016782017711 
0 
-0.3521732868671096 
-0.1256230955081778 
1.384277217542174 
-0.644051831242783 
0.4659957551468039 
-1.129115038345196 
-1.129115038345196 
-1.129115038345196 
-1.129115038345196 
-1.129115038345196 
-1.129115038345196 
-1.129115038345196 
-0.2371276273196817 
-1.085013227121724 
-2.722934060957247 
-0.01032791595050715 
-0.01032791595050715 
-0.01032791595050715 
-0.01032791595050715 
-0.7893511541855738 
0.9645896714321607 
-0.7406266033139061 
-0.2683035338715892 
-0.4214434099540388 
-0.4214434099540388 
-0.4214434099540388 
-0.2507994631489644 
-0.2507994631489644 
-0.2771159859577437 
-0.2771159859577437 
-0.02680674300702232 
-0.7235698462429939 
-1.043960446613158 
-2.4810101522695 
-0.03314331016376944 
-0.03314331016376944 
-0.1222207502052154 
1.241414195728254 
1.227276500714575 
0 
1.581608157329711 
-0.6645699877044873 
-0.6645699877044873 
0.4084312813076515 
-0.982839162659908 
-0.1836733732944145 
-0.8380559256322205 
-0.1836733732944145 
-0.1836733732944145 
-0.5521792084731547 
-0.5110389642531136 
-0.2213183383282445 
-0.2213183383282445 
-0.2213183383282445 
-0.4441215689110168 
0.5909203590190746 
0 
-0.4250932518639418 
-0.4250932518639418 
-0.4250932518639418 
-0.4250932518639418 
-0.4250932518639418 
1.256093567316636 
-0.2924717455740098 
-0.2924717455740098 
-0.2924717455740098 
-0.2924717455740098 
-0.1957170564436929 
-0.4846493407072998 
-0.1957170564436929 
-0.1956277596746671 
-0.1956277596746671 
-0.1956277596746671 
-0.2971924763539889 
-0.2968985401870194 
-0.2968985401870194 
-0.2968985401870194 
-0.2968985401870194 
-0.9704782268248101 
-0.7629350134061401 
-2.111891067993731 
-1.136498326655193 
-0.7631518390031726 
2.076581047325214 
0.388711616509317 
-0.428599782183605 
-0.4200837327990103 
-0.4200837327990103 
-1.513148804291268 
0 
-3.375548336448758 
-0.5126951996715419 
-0.3286997742805414 
-1.658470817263473 
-0.2785613648400738 
-1.033996439636275 
-0.4674691028249499 
-0.4674691028249499 
-0.02688451725558604 
-0.7339093642251383 
-0.270375597837911 
-0.6678961430156414 
-0.6678961430156414 
-0.6678961430156414 
-0.2076171063005076 
-0.2076171063005076 
0 
-0.9075204347398294 
-0.9075204347398294 
-0.395594644244617 
-0.395594644244617 
-0.3281834629419522 
-0.04644540304799224 
-1.736721711650996 
-0.04644540304799224 
-0.04644540304799224 
-0.04644540304799224 
-0.7551530907884009 
-0.04644540304799227 
-0.7877747077545938 
-0.7877747077545938 
-0.7877747077545938 
-0.7877747077545938 
-0.7877747077545938 
-0.4513092719746791 
-0.4513092719746791 
-1.369075036789724 
-1.66030170748857 
-0.7816373452240769 
-0.7816373452240769 
-1.073450144245882 
-0.7816373452240769 
-0.7816373452240769 
-0.6038290941175265 
-0.3561808487390751 
-0.6474184873359787 
-0.4050736307433188 
-0.1034925109489797 
-0.1034925109489797 
-0.1034925109489797 
-0.1034925109489797 
-0.2152938002913376 
-0.2152938002913376 
-0.7831814422384962 
-0.4418305709613136 
-0.4418305709613136 
-0.4418305709613136 
-0.7204429031647476 
-0.4418305709613136 
-0.9297427289040643 
-0.8800055298502808 
-0.8800055298502808 
-0.8800055298502808 
-0.4941436811604618 
-1.049021717808536 
-1.049021717808536 
-0.3911524379839963 
-0.7137351049187634 
-0.3012603013270965 
-0.4589292726957873 
-0.740487500306523 
-0.8457334086355098 
-0.4811222239724528 
0.2239117456647458 
-1.130612658836983 
-1.130612658836983 
-1.130612658836983 
-0.4024583763490131 
-1.124146025707208 
-0.3955114708097909 
-1.167557678783923 
-1.475167868694993 
-1.893266266907468 
-0.1160792541351024 
-0.9012165399634728 
-0.7210423428929763 
-1.497050353127859 
-0.7719174646617794 
-0.09129359458326164 
-0.1389891722850072 
-0.1389891722850072 
-0.1389891722850072 
-0.01625264590255371 
-0.0521539214754275 
-0.0521539214754275 
-0.0521539214754275 
-0.4167038620158733 
-0.4167038620158733 
-0.4167038620158733 
-0.9100001559175838 
-0.16009808805861 
-1.459997769004986 
0.9693455154512342 
-0.1656218734443212 
-0.1656218734443212 
-0.1656218734443212 
0.2781421577660771 
-0.1656218734443212 
4.169477379776539e-05 
-0.1656218734443212 
2.201277183272652 
0.1256741686977223 
-0.6553342874171068 
0 
-1.846769390908056 
-0.6029539720077353 
-0.6029539720077353 
-0.6029539720077353 
-0.6029539720077353 
-0.6029539720077353 
0 
-1.842333291159177 
-0.1607255254047681 
-0.1607255254047681 
-2.704063047096701 
-0.5898979192987929 
-0.2949489596493968 
-0.6653435058792807 
-0.1204783127126859 
-0.1204783127126859 
-0.7170596190272359 
-0.7170596190272359 
-0.3588613633993877 
-0.3674291350467202 
-1.457716672692392 
-0.1100702016074055 
-0.7790232382350666 
-0.6262080313626243 
-0.9814991063268754 
0 
-3.364508022277713 
-0.6447615734555235 
0.1902923995415657 
-0.6447615734555235 
-0.6447615734555235 
-0.6447615734555235 
-0.6447615734555235 
-0.6447615734555235 
-0.014635802044369 
-0.014635802044369 
-0.5889511035350639 
-0.5889511035350639 
-0.5889511035350639 
-0.5889511035350639 
-0.5889511035350639 
-0.5889511035350639 
-0.5889511035350639 
-0.3594277363181819 
0.6932572246393083 
-0.2583818560178961 
-0.3149639835499969 
-0.3149639835499969 
0.1082418824679413 
-0.7615549469666337 
-0.7615549469666337 
-0.7615549469666337 
0.4376443461101842 
-0.7615549469666337 
-0.7615549469666337 
-0.7615549469666337 
-0.7615549469666337 
-0.284214799040775 
-0.1882414517286724 
-0.1882414517286724 
-0.1882414517286724 
-0.1882414517286724 
-0.1882414517286724 
-1.309658858928818 
-1.915153277253987 
0 
0.5546860555927486 
1.303266724591311 
-2.217889287790125 
-1.05507997933058 
-0.9942302370250548 
-0.1625349380212794 
-1.382554803212953 
-1.617668818711144 
-0.4242266277896652 
-0.7541992468842973 
-2.278381490832857 
-2.929982938028979 
0.03982512394889363 
-0.2317406925225979 
-0.7374495492043966 
-0.4164751321825911 
-0.4164751321825911 
-1.373755780428662 
-0.898357574516908 
-0.898357574516908 
-0.7691110057675743 
-0.1308777850915107 
-0.5483581384710632 
-0.6906206055395296 
-0.6906206055395296 
-0.2142152800344359 
-0.2142152800344359 
-0.05292708544504932 
-1.136586100099185 
-0.1092901423763204 
-0.3601292264199635 
-0.3601292264199635 
1.25617921794867 
-0.2826218863180985 
-0.6039136705667624 
-0.6039136705667624 
-0.5041319054346447 
-0.5041319054346447 
0.86984710453471 
0.7302519209082352 
-1.497150088007591 
-0.5457154607171778 
0.2624531242793144 
-0.5457154607171778 
-0.5457154607171778 
-0.5457154607171778 
-0.006794012727878607 
-0.1132802084216849 
-0.4546266166285811 
-0.4611593831974496 
-1.000310294975095 
-0.506965587977433 
-0.506965587977433 
-0.506965587977433 
-0.5595963610784547 
-0.5595963610784547 
-0.00435098736017302 
-0.5713994623562225 
-0.4592046724676832 
-0.4592046724676832 
-0.4592046724676832 
-0.4592046724676832 
-0.7651062123352163 
0.6204375028616058 
-0.7651062123352163 
-0.4673012231932448 
-0.3328774099497157 
-0.3328774099497157 
-0.1832747215190282 
0.0006303499957258954 
-0.2285666483818796 
-0.2285666483818796 
-0.2285666483818796 
-0.2285666483818796 
-0.2890452771114258 
-1.243076227383197 
-0.3805598392964771 
-0.3805598392964771 
-1.437049471687338 
-2.161783984988644 
-0.8314652866021564 
-0.2516239494839848 
-0.2425388224968717 
-0.9741938806196115 
-0.3848904297454135 
-0.1196431132032773 
-0.1196431132032773 
-0.1196431132032773 
-0.7468206557785183 
-0.1196431132032773 
-2.326958555293388 
0.2627625000447781 
-0.6920294831718542 
-0.8170832686465003 
-1.253068702663293 
-0.9387493657747246 
-1.253742802480307 
0.2051804497357483 
-1.018880822414987 
-2.102631768185511 
-0.8168820088419873 
0.7325761157953901 
-0.7922773670161481 
-0.09690102940800581 
-0.09690102940800581 
-0.3995410838745636 
-0.3995410838745636 
-0.3995410838745636 
-0.3995410838745636 
-0.3995410838745636 
-0.3995410838745636 
0.08444430380098206 
-0.9464739559479858 
-0.147770090711525 
-0.147770090711525 
-0.4156973856199658 
-0.4156973856199658 
-0.4156973856199658 
-0.4156973856199658 
-0.1873162358488674 
-0.2170284844111662 
-0.2170284844111662 
0.2484333422225289 
0.02365166037503014 
-0.4889413672453771 
-2.101190236215637 
-0.07296711038514703 
-0.3741889412874951 
-0.3741889412874951 
-0.3741889412874951 
-0.332103050076231 
-0.332103050076231 
-0.4475805237821779 
0 
-0.1609986803211786 
-0.7717158013653551 
-0.7717158013653551 
-0.7717158013653551 
-0.8141498564187282 
-0.7215363538515575 
-0.7215363538515575 
-0.382123271021498 
-0.382123271021498 
-0.4071273106703367 
0.2674612627401743 
-0.4071273106703367 
-0.1444958969829006 
0.1916771679581373 
-0.8676064397531443 
-0.8676064397531443 
-0.6395505825869079 
-0.5906693839521083 
-0.2286532669482757 
-0.2286532669482757 
-1.962185548491426 
-0.2392048350704248 
-0.2392048350704248 
-0.8691386141975127 
-0.06917560086271655 
-0.8120965387357428 
0 
-0.9648302065787977 
-2.595133750939368 
-0.2918724407455925 
-0.5810342003249571 
-0.2731745155412784 
-0.2731745155412784 
-0.2823953841385223 
-0.2692496134158698 
-0.619427163751348 
-2.81825786131871 
-1.123007705167817 
-2.008622498360576 
-1.808093016769791 
-0.2042802750637663 
-0.2042802750637663 
-0.2550127394543482 
0.2981286567479139 
-0.9431215293730457 
-0.2206214874747297 
-0.4638450657234627 
-0.4638450657234627 
-1.039378788292044 
0.1333178844744513 
-0.4693659218879987 
1.594509537168247 
0.6898119301797092 
-0.2851056572029586 
-0.09501214028254745 
-0.09501214028254745 
-0.09501214028254745 
-0.3022157028395029 
-1.186201060876843 
-0.4185731436536119 
-0.4185731436536119 
-0.4185731436536119 
-0.4185731436536119 
-0.238098260391297 
-0.3545393580870074 
-0.3545393580870074 
0.5949254755867515 
-0.3545393580870074 
-0.3545393580870074 
-0.3545393580870074 
-0.3545393580870074 
-0.3545393580870074 
-0.3545393580870074 
1.854255705044046 
-0.5401968915426367 
-0.5401968915426367 
-0.5401968915426367 
-0.6316574476800541 
-1.171751462158038 
-0.5846976378432412 
-0.5846976378432412 
-1.632907941875895 
-0.8067239212188083 
-0.8067239212188083 
-0.6726139864412104 
-0.3642999375167978 
0.07221245428492584 
-0.3642999375167978 
0.1868897242873792 
-1.44235161606721 
-0.1753975269498874 
-0.7055137156329786 
-1.059518050587497 
-1.070429896343785 
-1.491317879273959 
-1.141742531510382 
0.8199197559309069 
-0.3470810054564399 
0.1081167833046065 
-0.3470810054564399 
-0.3470810054564399 
-0.3470810054564399 
-0.3470810054564399 
-0.2587617434544285 
3.782904267964223 
-0.8193782645715901 
-0.2263895195737312 
-0.6436822518959698 
-0.2665310495833307 
0.6172149405114448 
-0.1890986951320819 
-0.3672904724941222 
-0.3672904724941222 
-0.3672904724941222 
-0.4165551873441611 
-1.054311719456522 
-1.054311719456522 
-2.046761995237896 
0.2252407286457625 
0.7387888929263633 
-0.3756583797361753 
-0.3756583797361753 
-0.4005089723040547 
-0.4005089723040547 
-0.1494684779025638 
-0.1494684779025638 
-0.856005581258483 
-0.856005581258483 
-0.856005581258483 
-0.856005581258483 
-0.856005581258483 
-0.267247750908388 
-0.267247750908388 
-0.286318555719595 
-0.286318555719595 
-0.286318555719595 
-0.286318555719595 
-1.421093216921578 
-0.3886441778985639 
-0.3886441778985639 
-0.3886441778985639 
-0.948747449842795 
0.670014617492298 
-1.327082127820274 
-0.1548062442882415 
-0.697459029345639 
-0.697459029345639 
-0.697459029345639 
-1.961932143768202 
-0.07013162950689586 
-0.227579615952793 
-0.227579615952793 
-0.227579615952793 
-0.227579615952793 
-0.2807940574729499 
-0.2807940574729499 
1.304057984778757 
-0.2961443376973066 
-0.3387402314950192 
-0.3387402314950192 
-0.3387402314950192 
-0.3387402314950192 
-1.663179012072627 
-2.201518267437001 
-0.1193282706376717 
-0.1193282706376717 
-0.3571482319219519 
-0.1193282706376717 
-0.1193282706376717 
-0.1193282706376717 
-0.2386565412753434 
-0.1193282706376717 
-0.1193282706376717 
-0.8943132309985832 
-0.8943132309985832 
-1.092097922599552 
-1.09186265146397 
-0.6434096300762733 
-1.09186265146397 
-1.143929561782574 
-0.7134200495764617 
-1.611052898366427 
-1.611052898366427 
-0.701969466825874 
2.595608440712098 
-0.6959333585655418 
-0.3133495170942624 
-0.6266990341885248 
-0.6266990341885248 
-0.3133495170942624 
-0.3133495170942624 
-0.3133495170942624 
-0.3133495170942624 
0.7292706510688276 
-0.3133495170942624 
-0.250821137717226 
-0.1941637203147286 
-0.3192102084450144 
-0.5522803303928884 
-0.5522803303928884 
-0.5038266157186105 
-0.3670752111859611 
-0.3670752111859611 
-0.7716683316625131 
0.9856989805524595 
-0.4608623989523514 
0.05860199092529279 
-0.8193186244951693 
-0.8124445247151404 
-0.4078689438096417 
-1.227604356589465 
-0.4721785271184937 
-0.2168037273731331 
-0.2168037273731331 
-0.2168037273731331 
-0.2168037273731331 
-0.2168037273731331 
-0.2168037273731331 
-0.2168037273731331 
-0.2168037273731331 
-0.7334544166634723 
-0.1239535542301168 
-0.1239535542301168 
-0.1239535542301168 
-0.7825123853455893 
-0.3886028104928698 
-0.5950081307005028 
-0.5950081307005028 
-0.9041555303807735 
-0.2260903423026007 
-0.4024510677309598 
0.5084340648318855 
-0.1723079562702311 
-0.9025948792327827 
0.6241399359808246 
-1.333281741808552 
-1.688404920106758 
-2.877235620586451 
-2.005946401344261 
-1.24282304552579 
-0.3164856845417366 
-0.1912819578562711 
-1.00564646896534 
0.3527726484327241 
0.7107114329097488 
-0.1912819578562711 
0.3506982112638193 
-1.036150627968636 
-1.036150627968636 
-1.036150627968636 
-1.019738482918453 
-1.724165171343479 
-1.724165171343479 
0.5138778430082735 
-2.816989760481598 
-2.816989760481598 
-0.3604326099145189 
-0.601309083992592 
