solver_type L2R_L2LOSS_SVC_DUAL
nr_class 2
label 1 -1
nr_feature 61097
bias -1
w
0.3497648683248111 
0.4319053408529812 
-1.29251318547209 
-1.327820809947539 
1.345715464987163 
1.199443697811454 
-0.2119247034064231 
0.9870927157785052 
2.391248438033041 
0.1949270140201803 
-0.8221153729441442 
0.7715945305296036 
-4.282746684129663 
0.8500447744335452 
0.5372441977600489 
-1.111836803796237 
-0.4169719310698454 
0.6028590976275388 
1.10489928678151 
0.9356882804246799 
0.8461425976691137 
0.1410547718611453 
0.4827095196177222 
0.4827095196177222 
0.6703689941610026 
0.3497648683248111 
0.1360189702154746 
0.1651919599226879 
3.749832679025735 
-0.3148241662171554 
-0.8651592197494946 
0.1149331476604803 
0.04760794386371903 
1.866508948794905 
-0.7340308541589163 
-1.451890773787441 
-0.1216945997671919 
1.0197326786232 
0.9789134904856495 
-1.080936947608816 
3.193419327031333 
0.3012776582088803 
3.563955947167796 
-1.448445571474732 
1.219951859836283 
-0.3507223041502093 
3.264040461028202 
-1.236588899343328 
0.8978419647420033 
0.04478621721165978 
0.3012776582088803 
-0.02002976383078704 
0.3012776582088803 
-2.009925940156466 
2.306793249942547 
-0.1624076165726554 
-1.094292077619609 
1.948454815240542 
0.3012776582088803 
0.3813623430000527 
-0.9413884538852019 
1.251859789905019 
-0.909812321081213 
1.364745953859194 
-0.4018938220810904 
-0.8096297381390624 
-0.6532488237931491 
-2.102675269518626 
0.9787265344695562 
-0.418190401424827 
-2.899268204077967 
0.01919659247378089 
0.9668731979568349 
-0.5222598374895295 
4.714837350757973 
-0.4065676440468168 
-0.4655809852824685 
-0.8332181327040024 
-0.3463464507751034 
5.569323089552976 
0.03764470945227311 
1.565205398819618 
-0.7727695980471445 
5.168600445606317 
-2.035890768139796 
-1.61508483297056 
0.2900832560241516 
0.08828456237082563 
0.2900832560241516 
1.784729229003571 
4.245221165086495 
0.2100873147146284 
0.4889706823852936 
0.6784233885867883 
1.31989181362912 
1.011849683418403 
2.30608355222039 
-0.6869164478725212 
-1.126137687813377 
0.7934051957640105 
0.87454242235289 
1.534618580290902 
-0.7034555739851782 
1.464857198569433 
-0.479042741960257 
8.382799299746495 
0.1504099046344515 
-1.637820260640791 
3.512704529178531 
2.781899915218905 
-0.4927306587402524 
-0.557439280070574 
-0.3391000432075261 
0.05699474743239059 
0.3204409645084524 
2.510970414637348 
0.6646369277629003 
-0.07825141218797989 
5.898754416652492 
0.06500775664017654 
0.06500775664017654 
2.028771917661588 
1.179295655531425 
-1.342005397685201 
0.5671132148134586 
-0.2275134263480486 
1.252270140609162 
0.5943347137941615 
0.8035808472943241 
0.9006031888562027 
4.606293893340338 
1.736361213770061 
0.3543268518652079 
0.3543268518652079 
2.671089394734175 
3.212661693961814 
-2.891660781429354 
0.9980834770981301 
3.961368530025631 
0.8263623782234462 
1.905832545850644 
5.269522670324524 
-2.335670375319767 
2.043926479595158 
-3.033986320734671 
-1.265720274829863 
3.250003559860607 
2.269032731329318 
2.648883516983334 
2.198515781370732 
1.036408980078978 
0.5358855792549458 
-0.7010612141372394 
-0.6780108924438729 
4.597408281279599 
1.274961136436174 
4.732759582194392 
-2.93300738333519 
-0.2874473752697065 
-0.596471929706848 
-0.5980065412004967 
-2.222656673708672 
-0.4868794372184311 
1.541689041094834 
-0.01031408495415382 
1.921735814151412 
-2.593147866523022 
0.3768460068499421 
0.6365468216152992 
1.849697679443665 
-0.3164937510450364 
1.827799814112165 
-0.2113822921088634 
-1.100152661274054 
2.921496660585138 
1.936940746789772 
-2.799055448946568 
-5.963746667559586 
0.03942831771561997 
2.046612485085312 
-0.3622301200104185 
0.5130693918688651 
1.839139288046787 
-2.56868433690446 
-0.4051664186904856 
0.07864808516096887 
1.158529268459841 
-5.200895361313282 
-1.452539186997842 
2.71574064040188 
-3.678419200591365 
1.022495499532203 
0.509625964476437 
-0.5924118812713876 
1.341400611483818 
0.9887842950699478 
2.099934058412034 
-1.839968592295984 
4.563454222300994 
0 
0 
-0.2702660210932394 
-0.1678388215430938 
-1.21615669485907 
-0.2190071010822955 
-1.341450177095755 
-0.3700841376256146 
-3.40537701686287 
-0.5191700721827686 
2.145013800842808 
0.9926924538335925 
4.189538414399621 
0.6022044787978534 
0.6022044787978534 
1.369469957626625 
0.9913412706042843 
0.6022044787978534 
-3.736925994969394 
0.6249097988773031 
-2.245717915525149 
-0.1073389185578629 
2.054229972192421 
3.724624114608154 
-0.8430867921579304 
0.9856549884102679 
-0.398490216138617 
-1.983674183217045 
-1.296645790658325 
0.298112209083823 
0.02175817723220292 
4.123470325591693 
-0.1685150656701541 
-0.7288063272253311 
1.971124052128861 
1.72361832921196 
1.157822230194664 
-0.8620069139762027 
0.3432968478084619 
-0.6163703381594565 
-1.644350343812302 
1.897840283403569 
1.734723475976807e-18 
0.6914881151189239 
3.959715156837182 
6.201952413958701 
-0.8106638140581113 
2.885431415535914 
4.522255458806355 
0.302022374493303 
-3.982533990809193 
2.185685918859999 
-0.9297601573400985 
1.355255454152142 
0.337218992346126 
-1.303824832287263 
-0.4578189157792417 
-0.154339320694796 
2.722292998719509 
0.3751856795525371 
-0.5044041489643208 
-0.1759946750031663 
-1.313684223870873 
0.3751856795525371 
2.477786348609537 
0.7975802286605541 
2.363799007957901 
-0.0834134517276478 
-0.03444850354360855 
0.8710865041161772 
0.3751856795525371 
-1.911901984025558 
0.7807593440299915 
-0.3642357278877518 
-1.143659806413792 
-5.719655178908702 
1.274499166657808 
0.8952182117086168 
2.494965157579559 
-0.4128256703093271 
1.020996979843537 
3.819603700586916 
0.2866776900152246 
2.870141235408187 
0.2134450849218463 
-0.3927752451226701 
0.2134450849218463 
0.6189948524614982 
-0.1268642488554721 
0.3823437415397899 
-1.600983081781787 
0.2390533996640785 
3.470650800268362 
0.03795824381890719 
-1.707452174691144 
3.994048453743888 
0.1468333954660651 
-0.3866647008734701 
-1.017409697031189 
0.8846771408122106 
-0.3798052297858443 
0.6649418838243336 
0.3135017770744405 
1.610691323855889 
2.981285189886575 
2.448596063429155 
3.512455970618932 
3.578069665780566 
-0.6890389005068946 
0.3807396967305787 
1.871358783561408 
0.7390351623512548 
2.751531098326901 
0.3807396967305787 
1.425746971648907 
5.264780186440454 
0.961750163291712 
0.5396668671029559 
3.588967664936422 
-0.6378193170150259 
-1.022726140556284 
0.5396668671029559 
1.428017295007146 
0.1600494001532875 
0.5396668671029559 
2.317901062480997 
2.107275831710934 
-0.100419275051734 
0.611086350070461 
-1.736192368582641 
-2.9539173324109 
0.611086350070461 
1.801307011899482 
1.146350376180803 
-0.9271959787674594 
1.906106880238145 
0.6758032287915077 
-1.825220633337874 
-0.4897778956311941 
-0.9882840570578352 
2.593751288740278 
1.588230261353051 
-1.889345357175188 
-3.422844643725524 
2.009705280007187 
0.06893096518385705 
1.833282747638055 
3.577318238770824 
2.395345885658629 
1.081829631375156 
0.2528326230468704 
0.2528326230468704 
0.2528326230468704 
0.8494217792383363 
0.2528326230468704 
0.2528326230468704 
0.5071982770795106 
0.2528326230468704 
4.130306152951971 
1.775385944024777 
1.39472285150207 
0.802760496262696 
0.5882246237080235 
1.023380425225122 
-2.788975047733483 
0.6925572637252073 
0.5882246237080235 
5.345715479192205 
-2.263213311601373 
-1.806386604206894 
-1.985161841304811 
1.647965784611464 
-1.324970022069617 
-0.4949279300912645 
3.365386852667819 
0.7097908929216744 
0.7758273049118496 
0.8348859264476988 
-3.196948076534865 
1.448104078491903 
-0.4790614887307401 
-4.123537098912049 
-1.643121051588565 
1.138781378895339 
-4.865089578327055 
-0.127508896217527 
0.9246936475422458 
1.229302338136032 
-4.709156288457891 
0.220684984618578 
-2.873151029985707 
-1.233743072908412 
0.6359696781675136 
0.220684984618578 
0.7625640716494689 
0.220684984618578 
1.527136976712761 
0.4407960743727319 
-0.2160233864156936 
0.9195085118853518 
2.692900752787149 
-0.6317831234103222 
0.6120003786049809 
2.123280137361471 
0.220684984618578 
0.5106498638785273 
0.220684984618578 
0.4331737523589411 
-0.4261334989298219 
-0.4180471222655033 
0.4772913310881028 
0.4015788228148376 
-2.318322618914332 
-3.173406234193231 
0.6495126498853132 
-0.4761926610255028 
0.6035695709912836 
0.2477333174807356 
4.182720143343637 
0.2477333174807356 
-0.04293891616374334 
1.273578780264554 
1.697407959281177 
0.8133237536693185 
3.722535228895657 
2.987079263898488 
1.274722508216938 
1.646869719090818 
0 
-0.3852530512934971 
-1.416612270323472 
-1.047977735100544 
1.196409538587508 
3.397955085071093 
1.701733110702541 
0 
4.852258310334275 
-1.538896797604814 
0.4686569003146565 
0.5470190362748939 
0.4089226553646914 
0.5470190362748939 
2.161932498445955 
0.5470190362748939 
-2.879704766577806 
0.5470190362748939 
-0.10055728277334 
-1.256293305520632 
2.244106381655461 
0.747192217494432 
-0.9067704780602112 
1.648612054537433 
-0.3453356988889076 
-3.796433110481151 
-2.10513136501794 
-0.3710901925838116 
-1.18593645867186 
2.404954973456025 
-0.837611996093242 
1.925903994650206 
-0.1820852786669017 
3.477449124169184 
-0.7066983278197546 
1.60015604156044 
3.283246103984311 
2.473317348158335 
0.5147107993812079 
-1.096127046418921 
0.3167275386069337 
0.38681815169484 
-1.344638880304681 
3.014934094421515 
1.594931661745434 
5.038491952437671 
-1.99382241617824 
-1.326306068644577 
-1.716571350436872 
-6.107249720911931 
0.2618201718010945 
0.6428879601624548 
0.6565546143150813 
-1.593708558864424 
1.539943856839382 
-1.971088844074347 
4.136631018695559 
-1.476277330796892 
2.087467802336229 
2.47384175447613 
0.3851883983195312 
-1.294914870625075 
-0.236724455035422 
-0.4446024896780275 
0.9914341658341195 
-2.370072847621434 
-5.234399764904532 
0.9914341658341195 
-3.432765785970579 
-0.2761036426178112 
-1.816804782766401 
0.9914341658341195 
-3.209549629328509 
-1.356848380391791 
1.011443795236454 
0.2831837475445579 
0.8265506110990603 
2.536796506003371 
1.659342961640112 
-0.6111819558826599 
-0.8895998976899848 
0.5273071544674952 
1.149972150788766 
0.6369388503979202 
0.3893061544823069 
-2.414362214124646 
-1.714036701448296 
-3.496757796684721 
-1.422599295852633 
1.772717292810288 
2.315743164479381 
2.5887227343262 
-2.904707763547575 
1.303967948706902 
-3.873136480376625 
0.7470047041898776 
7.183393829395382 
0.554717195464062 
-0.9144276601775183 
3.400215173263678 
-1.458130386974084 
-1.308387682731024 
-2.856075699315338 
-1.196595266315811 
-0.07897166722747286 
0.9174992797856999 
2.008743810112601 
2.516324142571926 
5.536055834068236 
1.565451005522983 
0.562231497827686 
-0.02363713939747653 
3.77130322710415 
-0.3638016064487234 
0.987574012806359 
0.759159298365043 
-0.6264643414710407 
0.5161862450168379 
-1.006101901059372 
0.5071614587909372 
5.032614644467285 
-1.69934414061535 
0.1481011494388891 
-1.444632118716427 
-1.317658273626692 
-1.564617332420203 
3.778297364190562 
0.8320128371657928 
-1.399062846921803 
-5.389403884148171 
0.1481011494388891 
0.1481011494388891 
5.64530947476892 
0.1481011494388891 
-0.1887082193710332 
-0.8799438408457257 
-0.5088202467165371 
0.3451082621764684 
0.1293940395582031 
0.6921356776612728 
5.092632852060833 
-0.2811152624845028 
4.595134478348694 
0.6722746266098252 
-0.1520338176963547 
1.585997631883396 
0.07638434049645861 
-1.692479405946764 
0 
-0.7604397070465005 
0.02280714837357008 
1.63424071749368 
3.209070905026469 
-0.765849478119752 
2.63645980839519 
1.895813179574464 
-0.3904679798994613 
0.3574059705160901 
3.083815274106398 
-0.1575392977529372 
-1.829665146645696 
-0.6119491058959039 
1.941439497229883 
2.790378802136615 
2.294484183150381 
-0.6921018899871918 
2.592288241861563 
-1.533902058322733 
1.126233219753266 
1.87047225854103 
2.772092782406123 
0.8175746280201864 
-0.5653435099303789 
0.2665846843957145 
0.2665846843957145 
-0.07830967285964448 
0.4157687442318203 
0.03680651076694788 
-0.2518159679243085 
0.2665846843957145 
0.2665846843957145 
3.670417455052266 
-1.402854891503487 
3.481181633330403 
-1.846662225701178 
-1.645556401775413 
-0.6957741389138379 
-0.4400919332589527 
0.589529008610288 
-2.420935741374421 
1.722037987710053 
0.848036807197592 
-6.260144946688221 
-1.23672267760326 
-1.560950640422718 
0.4439432834241928 
0.2621007786040085 
-1.109684233790768 
0.7199784052489764 
-0.1945530957150591 
0.5271389758832954 
-0.5869482234447162 
-0.8497547655534552 
1.236349649716767 
-0.07938927387504596 
-0.7021532164892227 
-1.90894499047928 
0.7078065042170067 
0.3826678038309418 
0.03662055291785286 
2.178972883699886 
-1.886356322272497 
-3.081004897323558 
-2.402977563950277 
-2.90627319398506 
1.229791456227804 
-0.3711519608638488 
1.229791456227804 
1.385293575494442 
-2.632985573431341 
0.7422957472577919 
0.1086480715471838 
0.398438107079859 
-0.2519509208843002 
2.05522468091664 
1.084105252117123 
5.809185801854195 
0.9878293615464153 
-0.6299673682843218 
-2.594825156260224 
0.08171737276948018 
1.658142987932681 
3.492163194157045 
-1.748732221074301 
1.458608128848135 
3.496249949063377 
-2.383901249213365 
1.458120125408589 
2.390146221704469 
0.6902806870196538 
1.492431689620712 
0.5335202339508081 
1.183502782846158 
1.030725382206634 
0.5335202339508081 
0.5335202339508081 
-0.09863174448398163 
-0.3140202089919323 
-0.7231150134565953 
1.668582707501327 
0.9337292886658354 
0.9238441545565181 
-0.7514454673831863 
2.001483612323029 
-0.05751082032002745 
-0.2253125717927623 
-0.09987137496789182 
1.05928146981958 
0.9762006246868952 
0.4669942672832256 
0.5287470972609941 
-0.2911565594502243 
0.5287470972609941 
0.5287470972609941 
-0.1577089876094275 
0.5287470972609941 
0.5287470972609941 
0.5287470972609941 
1.526665342390802 
0.5287470972609941 
-0.6852705320273113 
0.5287470972609941 
0.5287470972609941 
0.692962705426201 
0.692962705426201 
0.5831572522723572 
1.076617442051853 
1.640646180916471 
1.129817031004662 
-3.282595950330276 
-2.428376870424623 
-1.416818066148412 
-0.4130442993721018 
-0.03926853616795925 
0.3436019171731018 
7.837816067561475 
1.204592782512546 
0.7706243898424104 
0.08849315778712613 
-0.5427599282708088 
-2.486288169234598 
1.188081719295131 
2.106909044472275 
0.4022836862724553 
1.154487059125907 
-2.649190461976772 
6.938327767277157 
0 
-0.8481664670137381 
1.073522064019437 
0.7677792254154306 
-2.169470930647659 
-1.96407213569392 
4.749258562301976 
-1.351672743553473 
0.02269484149824119 
-0.367323041351874 
-0.6623728857111294 
0.1418124090477344 
-1.403161118324816 
-0.3207529628496959 
4.348076345012038 
2.472470589711408 
2.416547640432919 
1.068225525814688 
1.034485812805747 
4.275949091766424 
0.6453062677223067 
0.1418124090477344 
0.1418124090477344 
0.846135125699823 
1.032237881490196 
-0.05843381283259826 
0.5580398210753896 
0.2147251763641134 
-1.207247696107685 
1.304612687251742 
2.876358987828541 
0.8483175885962158 
0.8483175885962158 
3.347718957505589 
0.1647653859940426 
-0.2066755604925081 
-0.8265266351539875 
0.9565354566242997 
-2.179486416365617 
-3.884794610714257 
-2.56805779667226 
1.782180202294298 
-5.208755373703661 
-1.281840550757445 
1.418109693923829 
0.2855886882634279 
0.3361750316236396 
-5.265830236787475 
1.212480960747918 
2.366118719498839 
0.3361750316236396 
0.2931677584107302 
0.3361750316236396 
-0.4756763541291644 
-1.36358762351751 
-1.665461210267333 
0.4839720303040964 
-1.649494555915248 
-2.065006522949849 
0.07764857834365421 
-5.063735854737621 
1.267437739925421 
0.9555496097206054 
-1.258742602885738 
-1.523252597982633 
1.26743773992542 
1.08639501622207 
1.073527312374371 
3.29739794495716 
-4.714331168949168 
-3.635485672847361 
0.6295772776071626 
0.543805260547787 
-1.70761721981103 
-0.8247083630290745 
-1.024250679155369 
2.827786028695283 
1.137873392066949 
0.4990091335916818 
2.023857978680781 
0.3139414916359224 
-3.147936911259245 
-0.6040290136941512 
0.1047123940042462 
-0.648950278336084 
1.926447254621914 
-0.2904992023699615 
-1.526966428924394 
0.9241905020559604 
1.560193755120575 
0.5593453914100369 
0.9208189523065371 
-0.01355613073449592 
-1.83018965290167 
2.55837974722663 
-0.6337089134274385 
-4.466790493588337 
-2.95145687110861 
-2.501964905826944 
-3.029466844689227 
1.056306625133478 
0.5969205120161913 
0.5969205120161913 
1.052440661900923 
-0.9993050622391076 
0.5969205120161913 
0.5969205120161913 
0.5969205120161913 
-1.879229450765294 
3.52572437699563 
-4.091300584394956 
2.841361309447571 
-3.260958527518982 
1.464215054339521 
2.001234397654963 
0.8131661211510205 
-0.9604468256305874 
4.642010756704347 
-1.782438793625414 
2.016263280532554 
0.6733089449535282 
2.244532025145092 
1.860015430790672 
4.003662167046518 
-1.204485322764769 
0.8761832218210901 
3.268824476538372 
-2.280271787088638 
0.2302120268368301 
0.9996334533939463 
1.208113605837233 
-1.01639635468169 
3.402325822528093 
1.366136500400308 
-0.9905721409162743 
1.247816966088545 
1.208113605837233 
1.803092059153703 
2.453902634927799 
-2.947903407802274 
-1.550062181245452 
5.415420781943216 
-1.566002714791864 
0.3580148431881482 
-1.657901340753341 
0.9980679292845392 
-0.02147628106960529 
2.752399466127712 
0.3627647186032076 
0.2352043032457608 
0.3627647186032076 
0.6883754687507625 
1.957788291915854 
0.001875284273224396 
-0.8276856587599506 
1.370421783576617 
0.07447251520898919 
-0.08162371254455447 
2.62203721566161 
2.567759866416484 
-0.536120542842378 
2.237897474966709 
0.9594263513397847 
0.8916841955998439 
0.5859612270045383 
0.7084267138015463 
-1.342238666467082 
-1.587205586608066 
5.047886068875009 
1.476679022091598 
-1.994853233580808 
0.1586651251332074 
-0.3323956371955847 
1.998147494907871 
1.905619330763625 
1.92528401480826 
-4.259168064722579 
-1.177726800985899 
0.7556177359781288 
1.36637685973559 
-0.3579553931138051 
0.7364113061285068 
2.588190201529071 
-1.306127231095745 
-2.543730702759079 
3.351689409956824 
0.7483132881137928 
1.729275294175031 
0.7483132881137928 
-0.8365342105033196 
1.280258936265661 
-1.409773685868791 
1.370121212226674 
-4.829204131181531 
1.310454342629414 
0.253661000660626 
6.306201706375308 
0.253661000660626 
-0.5479887459678454 
1.777465623150149 
1.265156112586877 
9.406578253687501 
-2.191023906672481 
1.649810464920939 
-0.378750448063691 
-0.2192590442480055 
1.580401043840686 
0.6038566597397188 
0.3314665888447437 
1.000809776875294 
-0.4752944088243105 
-1.968522620866308 
-0.8879016808411768 
2.16578657165163 
1.667611483944665 
0.4593539090680396 
-0.3259694364945145 
1.122838230542637 
1.864948276250812 
2.619690045515684 
3.741485516665965 
0.841978606074568 
0.1241346478202263 
-1.81465947279682 
-1.778118316352335 
-2.581640751208262 
4.314699682223193 
-1.259609678254899 
1.13932478933158 
0.4133748336766033 
6.402537789665506 
2.468757747116164 
3.410453952304255 
-0.717152287108597 
-1.351886162234061 
3.813214520276188 
-1.760090574002644 
-2.997825105768937 
-0.3862227077377674 
2.630748172370145 
0.2340862791360341 
0.5015349341611901 
0.2340862791360341 
0.3220049723584906 
4.838273928984799 
-1.613854109730857 
-1.583616843551506 
-1.595445194839239 
1.850004213800289 
-0.08892438097089034 
1.990522789809362 
1.212714135408675 
-0.3262563371294734 
-1.55590456777153 
-1.737915330160454 
0.2574437476272654 
1.049438015456843 
-0.5726813990619429 
0.2574437476272654 
1.099343556019484 
2.548645308738536 
0.5396225008071974 
0.8776752739232121 
2.572991110307898 
1.041060247521042 
-1.103310535134041 
1.714091054873395 
-0.1859418289134677 
1.712740520423328 
0.9916341069655795 
-3.158513181150899 
0.702483346476181 
3.857534194758859 
0 
3.137997619506568 
-0.1762101029337706 
0.02581532627414257 
0.3267416261532839 
1.065747632727915 
3.701964815696956 
-0.5528444243133089 
0.2267286672291382 
2.045744529795506 
0.3306952669844008 
2.280691556239958 
2.094932294183285 
0.613185169059339 
1.742541810225255 
2.799116621627329 
-3.812775933235686 
5.995738927413376 
0.2267286672291382 
-1.132887799305953 
1.957386253628886 
2.763912786218245 
1.209619709941802 
0.631867894468502 
-2.662125875366687 
-0.7380642262520053 
-0.8319119404372003 
-3.041118557138943 
1.6677735343689 
-0.62561820495645 
-0.5249513456235049 
-0.2411204720713967 
-2.486745357959242 
-2.360212954246008 
1.919836552285574 
1.99761609439706 
0.7639431912900587 
-2.8783049199119 
0.3784326335902082 
2.43055414914279 
0.2922220950833615 
-0.09322616978550836 
0.9686207918870778 
0.9909733501095994 
0.4349078462464538 
1.134866877030971 
-0.3172273478406449 
0.3353488779030346 
1.034934920468276 
6.601292629750212 
-1.119634232953088 
5.012074797045572 
3.673038080734197 
-3.394710147747281 
-0.5945882859796721 
3.517254695714611 
3.44681263401797 
0.8826097739387252 
-0.7074876304004755 
0.8826097739387252 
0.8826097739387252 
0.6821056517535266 
2.042302277980675 
1.739457276100411 
1.099854639193877 
1.099854639193877 
1.505345086410613 
-0.6345727658751767 
1.700675346673672 
1.297323684394651 
1.485486367453797 
0.4263313175333667 
-0.273043727991705 
0.2014084220018138 
0.4263313175333667 
0.06199068827656855 
-1.648125444224575 
-0.1023846526657085 
-0.1286709244418565 
0.3808664851759694 
0.4263313175333667 
2.074213933957651 
0.04557707499393715 
-3.373219508507474 
-3.123656296749649 
0.4263313175333667 
0.9578194944753833 
-2.120229840410978 
0.4263313175333667 
-0.5335573401906721 
3.198653603675054 
0.4864556837569227 
-0.4424618830283712 
-4.186253470923073 
1.706462663775795 
0.2569810925657725 
0.4864556837569227 
2.626867640538074 
0.4864556837569227 
-2.895578320285988 
-0.5631680315412115 
-0.06383778812391822 
0.4864556837569227 
-0.8038981540324186 
-2.761115309793976 
-1.00501467873844 
-0.7114583922656003 
0.3776570205277841 
2.025984485639354 
-1.190822098914663 
-0.5164747194408076 
1.586516298905589 
-0.1437477749289379 
-0.9301383747362226 
0.4299348852777971 
4.848041821196026 
-0.4164025295224501 
1.00337460956517 
1.188974094533359 
1.2641033851592 
2.015676306953825 
0.8781709437591398 
0.6271880709386695 
0.8781709437591398 
0.9751643146948614 
-0.1008154702350106 
-1.014022766359465 
0.003710593403920657 
1.744282343510805 
0.5902062032252452 
0.02528889088453 
0.5256675839519095 
2.503356179244733 
0.1440178280647575 
-1.652954038993138 
-0.2517145906874579 
0.9151144993364539 
-2.239894629893427 
1.376560309407215 
-1.302190352538519 
0.3361788512163192 
3.623950666412173 
0.326370345190531 
2.33767916844199 
0.6252541925048352 
-0.9642251620194171 
0.4143820219328365 
-0.689300095455026 
-2.5652426044977 
-1.61120749982392 
-1.753438880561475 
1.989857483692068 
0.4225217245940693 
1.071445579060141 
1.246535710238568 
0.3149960889010883 
0.6153750186745914 
-2.141829514599289 
0.09029093525325196 
-2.104614846460184 
0.5530225407178289 
2.35475418296979 
1.235052479232879 
0.4392360443058788 
0.26709040837605 
-3.493820734731718 
-4.110062412094758 
-5.472601069253554 
-0.3261351848996368 
-0.5160687293205573 
-0.1895889453918661 
-3.728515640187773 
0.9204462274718225 
4.397622342201689 
0.6543498122487267 
0.6543498122487267 
0.6543498122487267 
-0.1466505058243763 
0.691345614416824 
0.2809879933395101 
0.2809879933395101 
0.2809879933395101 
-0.4253816813339304 
0.2809879933395101 
1.239794851044943 
0.2809879933395101 
0.9416471214729062 
0.2809879933395101 
0.658354216905584 
0.6640955212159926 
0.2039577365411433 
-2.096071897028364 
-2.73940002248626 
-3.912957246156573 
4.658230583749039 
-1.032040159144179 
0.4562495601362379 
0.9247371245425824 
0.4562495601362379 
1.674852365809606 
-1.175818869211153 
0.7845337057945745 
1.373097533812439 
0.09025649683418113 
-0.9924518486833407 
0.959965278661186 
-3.050675780218652 
1.240555640735707 
-1.181317238732909 
0.5938985251204488 
0.9340303004687197 
1.427068643220933 
-1.311905894758342 
-1.291940467151762 
0.6545357282107555 
-0.7195665548603066 
-0.447588956385803 
0.9969496107941671 
1.77917864719154 
0.1986714784683655 
1.336208887361448 
1.335791904961931 
0.3852162871922385 
0.6919145728495771 
2.705058833095791 
-5.86480954223172 
-2.486717579098369 
-2.446065065634826 
-0.6272475586184201 
-0.210294235279783 
-0.794414665578532 
1.797035998307692 
0.5201046273590523 
0.853202076396175 
1.297315731315583 
-3.441581710891546 
3.26289774648501 
5.18424618691769 
4.931738067177799 
1.371614769340147 
-1.752559476643206 
1.88396237006703 
-1.30983535456954 
2.38524477946811e-18 
1.634496656256867 
3.204523136015459 
0.4142489630513621 
0.6180040915569164 
-0.7605168652873897 
0.4142489630513621 
6.199697631392775 
-1.61358154727401 
0.3869260466897651 
-0.7840160683353724 
5.392425181246175 
-0.2340711799498211 
2.534318563812954 
0.6608606006652853 
0.6608606006652853 
0.9958387818140286 
-1.648794083812544 
0.6608606006652853 
0.6608606006652853 
-2.940917174846571 
1.180194756694614 
0.02257006271332179 
1.023812963042874 
-3.327615725013187 
0.4547336504983766 
0.6309880700469213 
2.554333169177355 
-4.000231530291427 
0.8079666511166248 
1.281067914732998 
-2.166141048767766 
0.4740500624629 
-1.994444526224514 
-0.5076182700051342 
4.263335247260754 
3.819318607869567 
-0.7441806864670966 
1.760659972971791 
-3.783379291126434 
0.3910206437445147 
0.4895112145090662 
0.4895112145090662 
-1.526620928031779 
-1.768789593762844 
1.679435389927238 
-0.4854124205887108 
-1.64376943662885 
-2.52064279564261 
1.314491122805976 
0.7896692997752854 
1.095854146953874 
0.5822460980814024 
0.9636426297108526 
0.8692282330227443 
3.877340154843709 
-6.171428802578176 
-3.201436100122485 
-4.154471371796533 
0.6885089825282872 
1.036714794966245 
0.5324324279856731 
4.605922211459712 
0.801523454747382 
0.2862341365252711 
0.2862341365252711 
-1.849182193604047 
1.036818167083713 
-0.777995016128404 
3.539224322945289 
0.5065105640805097 
-0.955836693794636 
-0.8024497368026743 
0.07625156168120682 
8.363601881177418 
0 
0 
0 
0.3410746652649202 
-0.08885945443844771 
0.3716082397703265 
1.171012641669587 
0.2420026945236265 
1.065344676031918 
-2.908768271366255 
0.7532613295131585 
-0.2443925162538012 
0.3349781811487436 
0.3349781811487436 
0.3349781811487436 
0.3884229732800873 
0.7545001800644523 
-0.002539120260245667 
2.450045858179458 
0.3349781811487436 
1.120514296674326 
-2.995554486476759 
0.3223895547164693 
0.3223895547164693 
0.3223895547164693 
0.7884985436065688 
0.3223895547164693 
1.111732467372867 
0.3223895547164693 
1.895739918516305 
-0.3531987627582166 
-3.301635024090339 
0.464345971157358 
0.1154729339869549 
0.1932507314711225 
1.431439197484904 
0.464345971157358 
0.4692351808341276 
1.054689616046762 
0.7357964803497051 
1.566211853339612 
3.520367631391948 
0.5449922130443327 
0.5854290295379414 
0.441725395551931 
3.818003038354369 
0.441725395551931 
1.275829253885103 
3.308872660565558 
-1.257631888681889 
0.8878872099518895 
1.620711421864066 
2.120870453500222 
-6.938893903907228e-18 
1.115892674767716 
0.1094505773039318 
2.583606131051472 
-0.3600092601340503 
0.8602686817796924 
0.6883511055752576 
2.58009538811395 
-1.063763004146191 
2.259726003538354 
0.5767679764097087 
0.8380956275427255 
-1.346321954113616 
0.8351335508103586 
0.7065039859440734 
-0.0855279723578994 
-1.650235769334314 
2.010612048833172 
0.0913500411350415 
-0.2574993272002736 
0.8682426192590306 
0.02096575505389217 
3.329464919091792 
0.7365505945822568 
-0.265525503942639 
-0.08896375650687863 
5.230789428829454 
-0.6722412286613969 
4.639624661933164 
1.469567180098116 
2.261826093520409 
1.437927599086752 
1.030198784207115 
0.5842262978333079 
-0.1627810348510249 
-2.444626114791116 
-2.081212729623858 
-0.7391531070368883 
0.3231686649191652 
0.1751161077902762 
1.293524593043892 
-2.048911665738875 
0.3231686649191652 
1.13881125600731 
-0.317477864668528 
1.203264665928362 
0.3231686649191652 
0.3231686649191652 
3.86239595773115 
-0.1718844771693442 
0.3231686649191652 
3.080482445457271 
-3.27368128912747 
-1.526571973336428 
1.150464090600609 
-0.3374186436472575 
1.622952145442794 
2.201018601401049 
-1.516784166640165 
0.993993256832133 
0.6296444579901214 
0.2602949095870822 
7.786533662611526 
0.1416440217037348 
0.004694150678754683 
0 
0.8526611567991031 
-0.9488720169222535 
0.4262810511129545 
-1.02383910938441 
2.728278862878708 
1.242648235472888 
0.3020163164281654 
-1.647169053819515 
-0.5879419638444322 
-2.024287284425558 
1.699674044146968 
2.823152466691194 
1.680653380570868 
4.441411527478612 
0.6366086558728422 
0.6366086558728422 
-3.64843908035975 
0.155101988150656 
0.9243574220356355 
0.9243574220356355 
0.9243574220356355 
-1.762783299825861 
0.8523902372905235 
0.002831343457635918 
1.605812759759208 
-0.09767168780392091 
0.3786007958516915 
1.837499215544959 
0.813944236718795 
4.032722728136296 
1.326355667265085 
-2.422397296823324 
1.326355667265085 
-0.3088064348730002 
-0.04335273016014904 
-1.956861826873822 
1.295502460088161 
-1.420202485270417 
0.720077168304205 
-2.333362998777838 
1.048329415645856 
1.132057370476573 
-1.216115623044294 
0.09190625624174409 
0.09190625624174409 
0.09190625624174409 
3.827300260492343 
2.863368912475642 
3.083437874569165 
0.7918896392075416 
1.22130845594963 
3.085879360858485 
0 
2.054589482401587 
1.78511505985602 
0.2372794097933083 
0.4595941982284038 
-4.166859470253325 
-0.4944685447086 
0.1534532289345366 
-2.193876613405376 
1.165058262109094 
0.3163701376595827 
0.3163701376595827 
1.24829497867095 
0.6241474893354756 
2.481817055391504 
-0.3393689607207338 
0.3624520567030713 
-0.8516814669223063 
0.9026735380299912 
0.008210615230326812 
1.234570924370379 
3.602459191906884 
3.147962148599129 
-0.7736050834187156 
0.5329935611701302 
-1.852414507992655 
-0.0428887943898643 
-2.660468996580768 
-3.511038350276859 
1.256387077217679 
1.722271539962086 
3.69951211876152 
1.101763197218332 
-1.355930420122406 
-0.481165159653936 
1.307202305015015 
0.05953138329722381 
-1.046543401563103 
0.4945098664722221 
1.542396842410422 
-0.03582310566279218 
0.186841945635759 
3.989935480311441 
0.3596943261804657 
4.21487328122683 
1.200704134811951 
1.606249180523649 
-3.003792404555495 
4.738092242929654 
-1.553878947151932 
-0.1995313686039297 
-3.092453910884292 
0.6690724207826806 
0.5905622747316699 
1.227324318367288 
0.5777085892925006 
-1.57935341822814 
-0.6983493874230379 
2.354507036640679 
1.566525621115607 
-2.23448736233211 
5.232413427878846 
2.174549012822996 
2.534325961457854 
0.8826827883412216 
0.2162978080596962 
0.975154909094105 
0.9757482587341656 
0.5669183900180405 
-0.6931944139128947 
1.565033697076958 
0.6323584097948772 
-0.2145215177231956 
1.496043594771225 
0.6323584097948772 
0.5044603393766225 
0.5044603393766225 
0.5044603393766225 
-2.96549027888091 
2.531561805218996 
2.094615408207267 
0.9707088616691525 
-0.03225612953758834 
0.5356515393638815 
0.1101011304887596 
0.1247419181051445 
-2.295658847032743 
0.1065489786842323 
1.782939174007225 
3.235987124480789 
-1.333603644540346 
-2.49225584206605 
0.0542254126030265 
2.267263089833608 
5.176168506369415 
-1.603292526206923 
0.812432284379207 
1.921606850733442 
0.7974401021058465 
0.5646281362953642 
-0.4114852354260956 
1.976244852453107 
-0.03001992372053734 
0.8700358892489625 
2.879395004587527 
0.9237083741118433 
-1.756581498486322 
-1.454447175928604 
-0.3001696071910872 
2.298560676094801 
-0.670979098606294 
2.692611536894814 
-2.177617074967225 
0.5369319559443562 
0.5369319559443562 
-0.259816493754518 
0.5369319559443562 
0.5369319559443562 
1.983477979103399 
0.7091355180971863 
-0.6914610085877682 
-1.2058937521812 
0.557458451431376 
-1.137523237856274 
-0.7001806691113692 
0.9704325469745875 
-5.821516336481242 
1.259844136453837 
1.245857262183888 
3.776119753544135 
0.9704325469745875 
0.910037513444234 
0.4735913575718528 
0.4735913575718528 
-2.210237160192426 
2.641541524468257 
0.8567219582777053 
1.525521058255974 
0.649085687755664 
-1.64943093849324 
0.4176242917146971 
0.709705346168071 
1.099763048379103 
0.5175059241985338 
0.9636764141314048 
-0.7272227107816844 
-2.679479251102178 
0.3971326000944491 
0.3581996464856215 
0.09096787121209213 
-0.6312823205556234 
0.3638118359661258 
0 
3.696331799047402 
3.3519032476909 
1.105067594180485 
1.105067594180485 
1.392941129509821 
4.363264000145989 
1.411993377240117 
2.912711162875069 
-2.64670536327268 
-2.246598826425779 
0.9581405743101542 
0.3424484398342783 
2.088517509548496 
0.9822609324997207 
0.4515237133703507 
0.8053029998522856 
0.8352065684315448 
0.8352065684315448 
-0.5226243800849857 
1.086214368594745 
1.086214368594745 
1.086214368594745 
0.2373362464885067 
5.514585170218517 
0.3973868240329838 
0.2413660893332093 
4.64159247549324 
0.4796726087613418 
0.2098371961214202 
-1.256700058525344 
-1.26383544095333 
-1.801744580712393 
8.787355185955425 
1.435511316728955 
0.4454014985340933 
-1.746557270875735 
-0.128460220466731 
0.4454014985340933 
0.5784145981971629 
1.249656300327295 
0.4454014985340933 
0.4454014985340933 
-2.319740035749936 
-0.236451189514246 
1.866944329339471 
0.07141452219075682 
0.3782854216470208 
-0.09924729593060035 
0.1641709700986046 
-0.6267924798219673 
0.3174013446329707 
0.9947649107550176 
-0.3440467850941283 
0.3174013446329707 
-0.5837486556485575 
1.670045018617009 
-1.107033652054929 
2.553293079434805 
3.162016159712212 
2.04386526318935 
0.06997676533870012 
0 
0 
0 
0.8410021116468867 
2.285686765802968 
1.2933397233772 
-0.02564332033044563 
1.921348440432662 
1.921348440432662 
-5.040186514594548 
1.346290166419148 
1.354482747111099 
0.9924261280834588 
1.348850660151239 
2.9423857545657 
1.000894292825677 
0.1798072205362608 
1.153160338924329 
1.153160338924329 
0.3189372070678436 
0.6019806343163054 
1.252854307824243 
0.6964177355399206 
2.132664038886264 
1.823132546412463 
0.6497755754263657 
0.1163693867584728 
-0.2704253361674089 
-0.7330636031703562 
1.500252537457449 
2.40215893241796 
0.7219581087275014 
0.7219581087275014 
-0.850066697151896 
1.085615060340227 
0.3188416539563312 
-2.469554588079661 
-2.724216781520803 
3.472182368043006 
2.669960867220348 
2.105914313844022 
0.489299248848832 
0.489299248848832 
0.489299248848832 
-0.7742695046369481 
2.149888576552499 
0.5722773498674546 
0.5722773498674546 
-1.314829962741288 
1.104128657633777 
7.294192577641024 
3.925639813958504 
1.58732691730125 
3.21544378753386 
1.227039079464377 
-0.3619533739286842 
2.25647850461033 
0.7386818101872437 
1.600807648032912 
2.480563879103061 
1.121646005596332 
0.4064560462671174 
0.6422390177299949 
-1.994362481468635 
-2.62880170748965 
3.454737669847438 
4.970376970553236 
0.3752901633050794 
0.4800698064860591 
2.740899200060279 
-0.6074848956375986 
0.4208881273539042 
-1.056680123274226 
-1.516061226810291 
0.6794723774676764 
0.6794723774676764 
0.1296055452467 
1.58454902104248 
1.009335861641174 
1.898355846260049 
0.4909360524763212 
0.4909360524763212 
0.4909360524763212 
0.4909360524763212 
0.08321646636814793 
1.126103100657315 
0.8470339041324413 
0.1941037744123814 
2.323593002559129 
2.333032876382873 
1.818849476657573 
0.3272343510847011 
-1.305856514876812 
0.6011422049243274 
-1.826966637509413 
1.282608081208041 
0.0331385529654023 
2.851254154488571 
-1.538112431854397 
1.303462687009123 
-1.775909959980529 
0.6988054473089975 
2.979690882115293 
-0.193859863866988 
0.4260771578738618 
0.5731205400619337 
2.101907699214545 
-1.256149362432054 
0.4412765896059785 
0.4412765896059785 
1.903886151688432 
0.4412765896059785 
0.4412765896059785 
0.4412765896059785 
1.973077755374345 
0.4412765896059785 
-4.392593172157556 
1.335798755217519 
0.4412765896059785 
0.7734666596076679 
0.4412765896059785 
1.350595140984004 
2.01405783778527 
2.053112963061903 
-2.386145941016797 
-2.386145941016797 
0.7972155210529598 
0.709786411255491 
-2.061292012810473 
3.901889388141005 
2.497016946914437 
0.282736300306915 
0.4522807796366029 
3.243398150045811 
0.7512739280693257 
0.4629401332026673 
0.5247011980065521 
0.4629401332026673 
3.094263415713058 
5.213402064987251 
1.628746315023558 
-1.326213788886758 
-1.946663586307257 
0.3723569577170521 
1.742025237568824 
-0.3279904744181989 
1.435672799633776 
-0.658482113299542 
0.08533482822678032 
2.353722497158637 
0.3750078232839334 
1.544478153375407 
0.3750078232839334 
-0.1214252831381519 
0.1841087890026454 
0.1841087890026454 
0.1841087890026454 
2.926109101987596 
1.479360495504368 
1.086321673301093 
-0.7829724874817308 
0.1841087890026454 
-0.4342493286393057 
-3.440385068973768 
4.058524689434893 
0.7750509332458508 
2.335245498074972 
0.03597404231292192 
-4.655036278412384 
-2.693592826877403 
-2.072307395388482 
-0.8645606936794463 
1.953677815911281 
0.5124958195824398 
0.7322235814660014 
2.002488371388902 
2.683395178940761 
-1.793863534341978 
0.07483637429008412 
2.433919007356821 
0.9319677667364965 
-0.986261532398389 
3.353186194274342 
1.421549461796502 
-2.911147750195638 
-2.271169892444294 
-1.446511260572383 
-3.939800146435389 
1.627056826235991 
-0.5050413498317589 
0.4947752331427272 
-3.941592123276735 
0.4947752331427272 
0.5793720115733971 
2.325496008488929 
0.5793720115733971 
0.370030814406734 
3.630280852854475 
2.012543166265438 
0.6791416486882631 
0.9780972506107484 
-0.8788278420227295 
1.019940892363424 
-1.29924605752466 
0.4359124626407224 
0.4359124626407224 
1.552785593546045 
-0.3919229888252371 
-0.1856141406734056 
-0.689056557929081 
0.627943054331897 
0.5137016159731367 
0.5137016159731367 
0.8353062075351312 
-0.653451440539184 
0.4246528030265405 
1.168418262430276 
0.8353062075351312 
-3.585558362025928 
0.9816618310713475 
0.952069382474927 
1.082152299169523 
1.082152299169523 
-2.264822132071999 
0.03227198857194848 
-2.116849279504548 
-2.803021055041703 
-3.212360416850743 
0.05130789231347697 
0.282668369240713 
0.2409054858254718 
0.6322421326011193 
0.6322421326011193 
0.6322421326011193 
0.6322421326011193 
0.6322421326011193 
-1.852081142139504 
0.6322421326011193 
0.6322421326011193 
1.397244610114951 
0.6322421326011193 
2.987648175909164 
1.32985226239663 
0.4300096737063009 
1.934235647511987 
-0.2737311747135938 
1.830416165921072 
-0.2669533629448851 
0.08521304461103603 
-0.9827056859404522 
-1.71935091047941 
0.1261486330032172 
0.4331564787062384 
-3.533684884123317 
0.06438582519272151 
0.4331564787062384 
-0.7440913684840139 
2.634944979622702 
2.662634398978036 
0.5914291187881826 
0.3195698604615231 
0.09076093427725279 
-0.009661693656606197 
0.2802700691123068 
-0.8439215625934526 
0.7725485108216131 
-0.2836465452219937 
-0.9639906260286715 
0.1908588611925155 
1.724697695148264 
-2.466792970615437 
2.134798785409943 
-0.4941817928692954 
0 
1.10354067658467 
0.4771554577319431 
0.02341656790616697 
0.07127263082516948 
-2.193388878851283 
0.4828328538831042 
-0.2294583905615229 
-0.09490094513045474 
0.4828328538831042 
0.6299995387720583 
0.4828328538831042 
1.94679770324533 
1.932105232589605 
0 
-3.140627233360068 
-3.588865706324691 
0.5218630902254997 
1.027875503685896 
0.6881160269519038 
-4.522432857071997 
-1.108370151381807 
-1.320989674007809 
0.3224944112705866 
0.9714787751466222 
-1.1584471869258 
2.823240690890795 
-1.931880401182141 
0.5411107862717099 
1.062392804650123 
-1.463931159753713 
0.418156466936913 
1.592777602183082 
0.6012183732953303 
-2.165955646925322 
-2.412203752537095 
0.08217147650664963 
1.910816870563961 
0.6012183732953303 
1.378691953763317 
-0.2267939551815544 
0 
1.585376154862002 
-0.292241349764447 
0.2393872024082625 
-1.850448237976746 
0.4969543425882917 
1.613918682091652 
1.296146727802114 
-0.3094232587800531 
5.978942757893338 
-0.7160581416690771 
-1.551172881515746 
0.563501295812978 
-0.1924476887929751 
0.5891277894605588 
0.08143348032846495 
0.1975244225212877 
1.141795919095821 
1.141795919095821 
0.3716532322079444 
-0.7094929839335645 
0.1857885714711356 
-1.814472008717904 
1.458714278198275 
-0.6987767005828331 
-0.4600882417226526 
0.4860514171615798 
0.4860514171615798 
0.4860514171615798 
0.4860514171615798 
0.4860514171615798 
-0.1251301638920777 
-1.3432444229906 
1.481217457411269 
0.8686775216376832 
1.290270926443838 
-0.5200677977250667 
0.6825892623332102 
0.6210613317267922 
-3.139006618238637 
-0.09701974933534931 
1.73079211250932 
0.7441317071365707 
0.79993902071264 
0.79993902071264 
-3.986142421875855 
-0.9510314978573008 
1.689250223120077 
-1.003737768105533 
1.413778563957139 
0 
1.448709135934045 
3.82084252900741 
0.9216040846582942 
-4.610599042779948 
1.133956966116461 
-1.980873988123259 
-0.5985704058331963 
0.5595705195826601 
-2.104882037768776 
1.714326519960111 
-0.1107996054708443 
1.712163182847881 
-0.1108421350257297 
-1.660030537917756 
2.545340157487855 
-6.368955663805808 
1.134232998047185 
0.3940473620453128 
0.2390768767811817 
1.421145568269696 
0.860647968587599 
0.860647968587599 
0.860647968587599 
0.860647968587599 
0.07344533763733177 
-2.206495315204811 
0.859243204763898 
2.054394050206844 
0.662587611102634 
-0.3144416626402253 
-0.234979906884108 
1.349166366404245 
1.042179886652251 
0.6561815712090259 
0.2008831836785769 
-3.539569123749514 
0.11560281099018 
-0.08851994912310987 
3.780947310620402 
1.210054396261456 
0.8233180722936586 
-9.437628389218865 
0.1656037838026107 
0.1720693795373011 
-2.37212924360756 
0.09823455630896691 
0.4858920615607135 
0.07145905953287407 
0.4858920615607135 
0.3150257306281748 
0.983502980946366 
-0.7977212983261834 
-0.03767662835736959 
0.409113052128913 
1.214332940070877 
0.4462873403239688 
1.586360197360757 
1.234713897233236 
1.942797282663745 
-0.2604296836869621 
-1.024158744636374 
-0.4217188358769156 
0.2642760559257908 
0.2642760559257908 
0.1059315932173003 
1.175712506241598 
0.7141669958845662 
0.4859638566278926 
0.4213039872702566 
1.294661074855341 
-2.735047949058397 
0.4143769505134446 
0.6905688296129118 
1.338913368706503 
1.030563947953113 
1.145833033111173 
1.26926441665432 
1.26926441665432 
3.184596312371562 
0.4218177564585862 
0.9754351767062284 
4.180529891244391 
0.2543656540326402 
-0.3946194793863375 
0.6408311622596952 
0.28553212120527 
0.28553212120527 
-1.477490136402509 
0.8640733617272294 
2.522810284451129 
-0.6812770954064149 
2.884051689245058 
0.5880614353431557 
1.288662050435386 
-5.711522315207524 
-0.1462568567366419 
0.8871291549043374 
0.8871291549043374 
0.7729945348632828 
1.874102753351836 
1.829464337294268 
-3.761320413658209 
-0.8671193816876166 
1.330586586141126 
0.7728156678894342 
1.100820463005129 
1.100820463005129 
2.04210750104146 
0.305379833229937 
0.4985496987867891 
-0.3451757139057169 
3.33108690120811 
0.8862012310544345 
-1.38698973072147 
1.712154192871049 
0.248783593961307 
1.400499869221949 
1.618678269097798 
0.5245896008932166 
-0.7637933078790937 
0.5245896008932166 
-1.989258347063346 
-0.4809153076885642 
0.1395302600186041 
-2.066781300466574 
0.8704892274818813 
0.8704892274818813 
0.8704892274818813 
0.8704892274818813 
0.8704892274818813 
-5.230319974283068 
0.029446435822784 
-1.288459060031018 
-0.7007397806576312 
2.108253780766916 
0.3629426869581789 
-0.406448668168294 
0.3629426869581789 
0.8736198967404318 
-0.2384350186960058 
0.03988771993931424 
2.501492316273551 
-0.2561604866506516 
0.7078907375760034 
1.388975062802774 
-2.108322247333405 
3.034356032958843 
-0.09297534797930058 
1.039301863648254 
-0.8228858214334392 
0.2283781321902177 
0 
1.077850093738636 
-0.0971031491417356 
0.4780553274879344 
0.06422736168239428 
0.83162616936803 
0.4780553274879344 
0.4780553274879344 
1.517768683112519 
-2.393822416342632 
-1.366828708561193 
-1.414721743916689 
1.501107587452892 
2.836263975704905 
2.263011220207568 
-3.205216676951678 
-0.5806041465262174 
-1.959544306684302 
2.662957508500031 
0.9248593892013672 
0.6754372630827052 
0.1228341264358945 
0.961611369623476 
0.343647661565565 
0.961611369623476 
0.8262041547011915 
2.043744964704761 
-5.270539062470943 
-1.296087259220303 
-1.489939726049438 
0.5340349761406569 
0 
0.7607882179410573 
0.6132426101532175 
-1.363074292362811 
-1.676694221579409 
-0.6460143237492439 
0.5041494719909875 
-0.2803965214739738 
0.8689726825052192 
0.1327749957792479 
1.153195592826828 
-0.5243276510771785 
0.5445728190910457 
-2.498913804063807 
4.338666553159104 
0.1721894318497955 
-0.2744872720435535 
1.109591496445856 
0.799525504956303 
0.889165028168489 
-2.382054084352527 
0.9478613884642419 
2.887517020918966 
-4.129492562538918 
0.421435152638529 
0.1677433283083185 
1.38214656700051 
-3.406036584624081 
2.689558335275867 
2.202382494751373 
1.422943160705383 
1.530227998927782 
3.201461344196095 
-2.496433215861509 
0.8919675575094232 
-0.3493855913372282 
0.3114275953275347 
0.6866602258139294 
0.6866602258139294 
-0.6865385308072327 
-1.130618529728964 
0.9944892977373732 
0.1743120708257268 
1.08267218409023 
0.4618053944385486 
0.4618053944385486 
0.4618053944385486 
0.4618053944385486 
0.4618053944385486 
-1.483697969668141 
0.4618053944385486 
2.376493134716957 
0.4618053944385486 
0.4618053944385486 
2.462950967029385 
2.363865081732684 
0.07526776793028447 
-0.4510675057812842 
1.076323247445846 
1.155454051214227 
2.164347876059084 
0.3830416758639647 
0.681706558126831 
-0.09148178021581591 
0.1948429494275022 
1.914756951426771 
1.486957539587189 
0.2995880865947849 
0.0853216588538669 
0.8115641360100806 
-2.902757731566224 
0.5982672381383509 
2.966092299831141 
0.7310844407091985 
1.599623665842764 
2.131342173450829 
-4.050074656683948 
0.09796512504358985 
-1.270671745283771 
0.2641199417021504 
-2.917273761521967 
-1.379220090725316 
-4.565481015583764 
0.6954107788281993 
1.31066706856811 
4.671511206378192 
-1.515982453068167 
0.9237184349537582 
-0.8611838683784814 
1.45808740732085 
0.7257761560172827 
-0.2512519427985047 
3.570956710625452 
1.031738507921368 
-2.304131470880914 
0.329818620112844 
2.322686880592635 
-2.46744045666965 
-2.479713077576086 
1.128501421324764 
0.1723837224727221 
3.055534746635143 
3.561852928508748 
1.144484720137865 
-0.1259735864361283 
2.256888162874062 
3.106977799293826 
-1.452076825903584 
0.6369112730856512 
-0.4462509515165234 
1.018433107957679 
1.558245830167462 
-0.4009592114088665 
0.5092165539788396 
0.5092165539788396 
0.5092165539788396 
0.5092165539788396 
0.5092165539788396 
0.7658953495578331 
-1.985033777117527 
0.7658953495578331 
-0.04797206598678348 
-2.69205586900096 
0.7658953495578331 
0.8833757721786341 
-3.204851982755405 
1.323677321709666 
0.4708782230128918 
-4.177387508040121 
0.3523489488279805 
-3.103112334268854 
0.9402572138428118 
-3.791293548278136 
1.486073500361841 
-1.450797181221205 
0.5140524443488985 
1.523855629755548 
0.2435130127982941 
0.3570463467663511 
1.587830974221387 
0.3928948744966949 
-0.07958742165861769 
0.3928948744966949 
1.439520234257419 
0 
-1.483842016919252 
0.7289842119985913 
-0.3734660843348981 
0 
0.5136819658593329 
0.3639406669466832 
0.3639406669466832 
0.01161014793565366 
-4.32308274041392 
0.1215710281224492 
0.739376028342889 
-1.283179290874414 
-0.05161782061315325 
0.8459565323081406 
1.053878130542595 
-0.9370688522905419 
-0.7686001115341545 
-0.2938117573943276 
0.4659466726541268 
-0.01684256168173048 
1.052933024843536 
0.8593895948837696 
-2.706891955380668 
-1.504229716829302 
1.87660593644104 
0.2368657723149509 
-0.4458262084791679 
-1.375811898441782 
0.7239659170484524 
1.792245026854545 
-1.398312463815854 
0.2368657723149509 
-3.250142953505802 
3.96608610385768 
0.8385844840667552 
0.6005976503714447 
-1.041409887184705 
1.74856003080974 
4.163336342344337e-17 
0.3033073877936129 
0.3033073877936129 
2.399047331404295 
0.8482497099712895 
0.3033073877936129 
-1.461910101909964 
0.2584168442158379 
0.2584168442158379 
0.2561740845452322 
1.087124076071853 
0.7570046902094401 
1.239995667575635 
0.3461854195152196 
0.103965651022097 
-1.498963304679261 
-1.176327503578975 
1.021259425797296 
0.2553501018624968 
1.481815117075781 
1.024965587284257 
-3.254984219069851 
-0.278390232541037 
0.1555642795413466 
0.1555642795413466 
2.723199809779894 
-2.87854001645661 
3.269255782761129 
1.621193233605855 
1.23775520748544 
3.298582904801439 
-1.686809051940667 
0.4553237356113147 
-8.286913620993465 
1.516769549663723 
-0.5553420553003412 
0.7024292956044665 
0.3512146478022333 
0.7667357046700926 
0.3512146478022333 
0.7022710362286791 
2.008886789557498 
0.3512146478022333 
0.3512146478022333 
0.3512146478022333 
0.3512146478022333 
-2.152779022417607 
-1.709617867982315 
0.6872763112666052 
1.420316678340362 
0.2582119453124884 
0.6872763112666052 
-1.554416846711765 
2.722918551493393 
3.291084171807653 
1.198571031797836 
0.5840532926844971 
1.451243453897374 
1.667207873076034 
0.5840532926844971 
-3.605192317024504 
-1.036957086553835 
-1.786151247722814 
1.155786827268149 
0.5840532926844971 
0.5840532926844971 
-0.4382382687684328 
1.172003005287328 
0.03993647893944784 
-1.345096840883249 
1.18121597046647 
3.427647760472039 
4.34846471153612 
0.42015248223804 
-0.86216502885119 
1.517693838665231 
1.006864688753422 
1.006864688753422 
0.5066597335799653 
-2.200813234258455 
2.433566423210346 
0.5189866836700758 
0.6934245005776096 
-1.054063053250859 
1.789907394151132 
4.526408585643775 
0.7125394088308376 
0.1809080615526384 
0.1809080615526384 
0.1809080615526384 
1.94594838347539 
0.1809080615526384 
0.8691597616128844 
0.1809080615526384 
0.01609955318510604 
0.493162109843301 
0.2465810549216508 
0.2465810549216508 
-0.5953230773168769 
0.8977186539053044 
1.471459203874966 
-0.4109529594590509 
1.434450340457075 
0.7925987512464678 
0.728831440096316 
1.324063511125433 
1.929166260463393 
0.6267747797408287 
0.6267747797408287 
-4.72634757391396 
-0.3495000435190173 
0.3752560146438472 
0.3752560146438472 
0.3752560146438472 
1.301645212336756 
0.6997375185043833 
0.3752560146438472 
1.425924186658916 
-1.086894623869834 
-0.3621728269629931 
1.141321026880167 
-0.6694508292565786 
0.9795544701912745 
0.2678699975071632 
0.5432947127164638 
-3.02379556328271 
0.4293205173657443 
0.2678699975071632 
0.364238508174692 
0.5244763439766885 
2.024656785438043 
0.3459300106961269 
0.7882264260761401 
0.8795019671561912 
-0.8728237288630619 
0.06152793060641817 
0.6859400176135455 
-0.1807768976523628 
1.081745286941901 
0.7394820115833557 
0.7443904443607016 
1.229305416024793 
0.3851757473176265 
3.2588740958451 
-2.68326924610384 
0.427334911910863 
0.427334911910863 
0.7381304135899942 
-2.637075698407919 
0.7036974680754187 
-2.529929492289443 
0.6770679687416571 
2.408448663187104 
0.6770679687416571 
0.157153671735627 
1.488523302461252 
-1.482636613616415 
0.9274448016437559 
-0.8346101011292361 
0.3373300365229747 
2.629699879531469 
3.774659063517333 
0.4639368445490175 
0.9030062783999957 
3.878942791811307 
1.246159253947842 
0.7544720259546421 
0.7544720259546421 
3.566569536903311 
0.0659817003728054 
1.5626632658312 
3.821517820971785 
-0.5918021695040355 
3.79281752860272 
1.158460062030631 
-6.760773905858986 
0.8809109968318342 
0.6044980148288336 
-3.337578915331321 
0.8809109968318342 
1.943900362505599 
-0.7354303152336459 
-0.9101228862882189 
1.2560324498435 
-0.2038413172587427 
0.5325822470974987 
0.1947766834202428 
1.709644849493515 
0.3344465019398727 
1.137496708839947 
0.2882639710117753 
1.580730403049667 
-1.095465470684311 
0.1436018983592124 
-2.046078906633447 
0.4656282055515938 
0.4963510002834022 
-2.136240971428344 
0.8643167934831143 
0.4656282055515938 
0.4656282055515938 
0.4656282055515938 
0.1145567858199687 
0.1145567858199687 
-0.08747385225187901 
0.1145567858199687 
0.1145567858199687 
-0.5117472020425897 
-0.5398204335809554 
1.715167169075381 
1.984495021911354 
-0.4813092680705553 
1.184680533081893 
1.300907518985594 
0.4984927233515016 
0.9527920064908131 
0.4164814109496614 
1.417038961528495 
1.870909527969587 
3.619758613908648 
1.119219836568093 
2.776704995574249 
3.572343178352352 
1.387778780781446e-17 
-3.753863132146981 
0.3515438600801662 
-1.399633465908037 
1.189144798676953 
0.4996790073987352 
-0.08236824725383407 
0.6537304852640295 
-2.737846993154004 
-0.7077216929009271 
1.660046366377352 
0.7810245576468641 
0.7810245576468641 
0.7810245576468641 
0.7810245576468641 
0.7810245576468641 
1.998933785935249 
0.5672702511102199 
1.701810753330659 
1.449395390108862 
-1.006390355655043 
-3.196860053369121 
0.03009749993796008 
0.01739937046004571 
1.256569025776771 
2.184301348901574 
0.7963968853434614 
0.3603541412597611 
-0.3108952932150741 
1.943664618813034 
0.2189576625825002 
0.0270583551330362 
1.939918368939512 
0.2189576625825002 
0.3587600016303574 
0.09580876590737046 
0.1845727075079431 
-1.599930063449156 
0.9855711326674615 
0.2830251979347158 
1.110512269568949 
0.6933817194765135 
1.752494845427901 
3.405726719891736 
0 
1.441735009792602 
0 
0.5909357417373088 
1.139367802197483 
-3.484864716948794 
0.4368543255784612 
0.4368543255784612 
0.5404694670654605 
1.160459113316765 
5.81342740507697 
0.4134652516337257 
0.4134652516337257 
0.1870937751854602 
0.4134652516337257 
0.4134652516337257 
-1.969459664626173 
-2.32302413599425 
-1.48544958557766 
0.4134652516337257 
0.4134652516337257 
2.479461299793092 
1.849722516075085 
0.9516717284128603 
0.8826291413054649 
-2.658770581079866 
-1.264357639009311 
-0.6452103679223273 
-1.033222496375515 
-2.098905324366853 
-0.8553256630597866 
0.4739942484072178 
-3.246483785405262 
0.4963634431895637 
-0.399881930583778 
0.4963634431895637 
0.7048850472616572 
-0.6352409396840584 
0.7978378497013453 
0.7978378497013453 
0.8150718146868519 
0.8562663297696699 
0.1991633499491056 
0.1991633499491056 
0.1991633499491056 
-1.304348638564804 
0.4791112048321436 
0.3972724491146587 
2.269671419391241 
0.4791112048321436 
0.6759234634979747 
2.24705450049277 
0.4756183575909108 
0.2323094337798178 
0.06949064734883834 
-2.332738727080905 
-0.00968136546655941 
-1.224296265160102 
0.655156922767101 
0.02916918904497481 
-2.689316043142561 
0.2860430144326413 
1.68026632914562 
0.4692757322733606 
0.4692757322733606 
0.4692757322733606 
-0.2398840274686852 
0.3581079532292357 
-0.6007025678623492 
-2.750225196756466 
1.113569983477689 
-0.1405271773580073 
0.2899617748996114 
0.2899617748996114 
0.2899617748996114 
0.2899617748996114 
0.2899617748996114 
0.7366187906774866 
3.103379523530685 
-1.482077482588243 
0.6155372142170454 
0.313350589033182 
-0.9573486253375034 
0.7490114217875385 
0.6017804149480485 
0.151697597592874 
-1.610555863870436 
0.6846794626444092 
0.6017804149480485 
-0.3774531842630989 
0 
0.08880588756926054 
1.396961593359828 
0.7467652800961224 
1.97921785293453 
0.5750510030882853 
2.388930380958029 
1.299484451319422 
0.5750510030882853 
0.5750510030882853 
0.5750510030882853 
-1.987405920296146 
0.9945749963243352 
0.5750510030882853 
0.906339080138272 
0.8171076712853738 
0.7007610221771911 
0.7007610221771911 
0.535185747972831 
1.495833234321898 
-2.435298755711104 
0.535185747972831 
3.446730161907237 
1.379132373973543 
0.838512003501971 
-0.2138262674159148 
-0.5401954141141497 
0.9461057697711123 
2.761620347419448 
1.368542558057527 
1.683334113192198 
0 
0.5639473704816963 
1.235018047355984 
-0.3389623954795913 
0.9515839629500981 
-0.2643299217193392 
3.649537212563838 
-0.2743254934909582 
0.5066952792463889 
-0.4442572629773623 
1.0412885809617 
-2.981029979064221 
-0.9025875029806713 
0.3688520486310279 
0.3688520486310279 
0.6210042363083847 
-0.645377031314147 
-0.1478764172424102 
2.346985309062124 
0.3055934150249429 
-0.5484096783778275 
0.4925088344380202 
0.7904746686625342 
0.9905525232739053 
0.4169748492196819 
-4.675288695503556 
2.837493900607845 
-1.677125029229043 
1.974754927397852 
0.885661654340969 
-2.586304419810334 
0.4819999205235479 
-4.713271870373721 
1.664289839520752 
0.9747171380146671 
3.362999806348787 
1.203004100035875 
1.203004100035875 
1.826608229770763 
-0.5404759992425321 
0.03652482181377427 
1.348700531580549 
0.4333804304327468 
-2.440973578975004 
0.517499921291526 
-3.394256439655376 
-0.8854604727399193 
-0.7907007967619637 
0.8651810752791032 
0.9087659088967691 
0.9087659088967691 
0.9087659088967691 
0.9087659088967691 
0.9087659088967691 
-6.85019878523404 
-7.369348574347551 
1.214592176594566 
0.9087659088967691 
0.6899847933104221 
0.6899847933104221 
-3.596606899139909 
-0.9888539295035227 
0.3478604854469411 
-0.4524785027276538 
1.574899492298485 
1.470600318132836 
0.8642231808013801 
0.8642231808013801 
1.208294355697335 
1.208294355697335 
-1.002368728727323 
-2.957675207434009 
0.1117613723586253 
-0.0882694910609111 
-0.6065237929245252 
-0.752891308150168 
1.15932241863252 
1.15932241863252 
-0.9375214546633521 
1.01443826048208 
0.46358832677481 
1.192400540423067 
0.4632231934281731 
0.9976269620671336 
0.1252622979821613 
0.5450946955236976 
-3.204498326484003 
1.394300173027416 
2.215578626037278 
-0.315058621871541 
1.312407676484904 
0.9519890011365555 
-1.037687283299252 
3.862807944656285 
-2.208698489719653 
-1.909728713219012 
-0.9290171157241585 
2.626031104796496 
-0.04087287890728019 
6.430697768909754 
0.05715929686011604 
-0.315956504576394 
-3.043671539275649 
0.3624772966430567 
-0.08148885879513051 
-0.7738329405748436 
0.3624772966430567 
2.850558753064706 
0.3094343057894798 
1.126222323865813 
0.9093059048058039 
-0.3785654649338655 
-0.8041826175765695 
0.9093059048058039 
1.597906228280174 
1.297754270746396 
0.6737885264084729 
0.5154896656286505 
-2.161267720579604 
0.3526602991867943 
0.5982517085801311 
0.5982517085801311 
-2.977708994455266 
-1.578430854522726 
0.2256818096035684 
1.179469512241042 
-0.541543767700153 
1.249491698116781 
0.3354123315012227 
2.410592189947413 
-0.06757929561460725 
0.2801691649873665 
-1.135627457285692 
0.7432777604726577 
0.3651094965655644 
-0.7382624988516008 
0.7432777604726577 
1.379032399370171 
1.009611758026536 
1.415389391701736 
-1.216807857211608 
0.7425175256540631 
2.218317075419378 
-1.478657699430117 
0.5611827501737132 
-0.704524682439521 
1.453549997560353 
0.8815143789071402 
0.8193927404892248 
1.311162867662868 
0.8193927404892248 
0.8193927404892248 
0.8193927404892248 
1.230006196582893 
0.4795834410312101 
0.8566590828763845 
-0.08679405837376095 
-1.321469289786614 
0.2106131912502351 
-1.184280001020932 
-1.251781513210841 
1.806156189787971 
-0.0360903075777745 
2.093221952703823 
0.3365788560317522 
0.8044136232913802 
-1.101873430137363 
1.178804677235309 
0.4962637218475551 
0.7362497112881292 
-0.0007770926721905474 
-2.896917460448345 
-1.38511537403614 
-0.7642284369664147 
0.4062709342356905 
-3.15050881855073 
1.656949327921075 
-2.06024336093615 
0.7740255143285253 
1.656949327921075 
1.498669343221848 
0.5804610311585177 
-1.441905109791861 
0.5804610311585177 
0.381143888927421 
0.5804610311585177 
0.5804610311585177 
-0.9831499941640799 
-3.75500482273445 
1.119587223564816 
-1.131447691898194 
-0.5537348941842657 
1.442346284874856 
1.054961813728612 
0.9111617416814134 
1.138363751188866 
0.08414215005679057 
0.8371390746398701 
0.598929439518786 
-0.4923061609228185 
-0.2745443680872499 
-0.5600581222696074 
0.7274340175326114 
1.026292490471937 
0.3586693879708586 
-0.1677839083666006 
0.3586693879708586 
2.045081235809119 
-0.6077910062642584 
-0.4752531328377246 
-0.8220297912133191 
0.5096400911455445 
0.5096400911455445 
0.5096400911455445 
0.5096400911455445 
0.5096400911455445 
0.5096400911455445 
0.5096400911455445 
-0.9515580107086693 
3.072455208367337 
-1.386907934671519 
2.121713773908852 
-0.8389953303086246 
0.7628337074273528 
-0.8205144167299173 
0.4595176698056072 
3.845727240371727 
0.7423739849226153 
3.140356802330605 
0.1282143224413524 
3.101692936734137 
1.185522935570702 
-1.592784285956532 
-2.860991166480054 
4.165348400495466 
-3.312857482194116 
0.4918199966622238 
1.520487794428487 
0.1797874571913507 
-1.317137201168475 
-0.4758029108707912 
2.723918604808561 
1.465212849069331 
-0.3271522135008527 
-1.676791937867895 
-0.7441907963671275 
-0.3271522135008527 
-0.3271522135008527 
-1.109530642853323 
-0.1685193983610719 
1.398224339704045 
-0.2778835867099119 
1.871875911877765 
-0.7296573133982951 
0.3688976753100988 
0.6299078770646327 
1.682654595139005 
-2.559135976570925 
-1.670607529915243 
-1.913636105839232 
2.589517514764918 
0.7499630797362945 
-2.951635611857711 
1.284500081440078 
-2.60590787018704 
0.3933058941728739 
-2.5704617242937 
-0.2507509844214167 
0.04225570179156515 
0.04225570179156515 
0.04225570179156515 
0.04225570179156515 
0.04225570179156515 
-2.361562715556377 
1.924784370984557 
1.924784370984557 
0.439576772228472 
0.6158295135675086 
-0.3384978391862367 
0.09891526480054076 
0.09891526480054076 
4.352106910351206 
-0.3171163043073064 
-1.75803303008259 
-0.6219941588871933 
1.671506109780592 
0.5263791390528982 
-1.439714232669904 
1.316416636658712 
1.150682280769991 
0.2827871216963008 
-0.6108717899002494 
0.2827871216963008 
-0.752276156062807 
0.9551142584779257 
0.8873925377244212 
0.9313086194705776 
0.9296510273897619 
0.5840400835262449 
0.864203326971654 
-0.7805763856154535 
0.2470513491009329 
0.4053638248049168 
0.4053638248049168 
-0.7253732979997649 
-2.231599960422646 
2.871028096643179 
0.5766085140318785 
0.9067067738972511 
0.8978486949526326 
0.4986175161274302 
1.326756052590854 
1.210371291972343 
1.004660227297364 
0.6281409090320141 
0.6281409090320141 
0.6281409090320141 
0.6281409090320141 
3.9551726301345 
-0.7377654148932685 
-3.015800027279961 
0.772166247048794 
0.2050527654349706 
-1.354077180795243 
1.642654153806032 
2.513769509275498 
-1.081827699440865 
-0.5421960238857565 
-0.126682030510057 
5.05726283035779 
1.099637583274653 
-1.408372642069451 
-1.215199981325259 
0.9701240731707714 
1.782023036018271 
-2.112948722292856 
0.4820125058369197 
0.3915308155855751 
1.39377846187723 
0.07739872348159325 
3.043224648244431 
-0.8030060194216233 
-0.07279175177733578 
0.7580090611062752 
2.75581892633195 
-7.215813576121253 
-6.923871874142749 
0.9554651152684843 
2.198141307266121 
0.1498762021933117 
-0.2500957814576422 
0.1498762021933117 
0.351056388426446 
1.698026117737535 
0.351056388426446 
0.351056388426446 
0.6410212676863956 
2.350140972814412 
0.351056388426446 
0.351056388426446 
0.351056388426446 
1.293494636775369 
2.636987078756525 
2.029443033876601 
-0.7624213879487564 
0.7760518920490146 
3.333220488733524 
0.8255341361806154 
-1.938566095126479 
2.066778354466831 
1.791534264776022 
3.074534937814171 
1.517004562692971 
-0.8901285329475799 
-1.653482683150051 
-0.6895557895061994 
3.257707282181088 
1.082655729713889 
1.427303483379918 
-0.1068474312705828 
-1.490107750125067 
0.1629157865853156 
1.374717627987022 
1.307997426490507 
-0.03159612171720166 
0.1869523111569253 
0.5069232577524221 
-0.1370732732371285 
4.322788179661258 
-0.7573013593610259 
-0.06011499666078605 
0.634215730344584 
0.2955902396135051 
-1.516978038876772 
-0.1125553804786094 
-0.7407769592978529 
0.04614644971031471 
3.805139893843975 
0 
3.670555080507233 
0.24595819238952 
1.566656100871953 
1.633606977962246 
-1.383230651510778 
1.668855688492683 
1.181879952857278 
0.3634959645547918 
-1.970212632225117 
-0.2653125591852709 
0.75821108675889 
-0.2432431712505813 
0.8199932648532061 
0.4842209091175238 
0.4842209091175238 
1.13054145024378 
0.603267016971848 
0.4842209091175238 
0.4842209091175238 
0.4842209091175238 
0.4842209091175238 
-0.1152815186947211 
1.318953616292208 
0.4842209091175238 
-0.1861520940028698 
0.4842209091175238 
-0.3205622888808247 
3.733063321218288 
0.1789129369922691 
-0.09954802134379431 
1.30573983753394 
2.472468351031558 
0.564323203541045 
-2.85996252779376 
0.5468697089593493 
-1.089387093147411 
2.678884058845798 
0.5683792645405459 
0.4494695126528881 
0.5683792645405459 
0.5683792645405459 
0.5683792645405459 
4.165316891178762 
1.472465304545933 
2.307990453680272 
0.2939242256995728 
5.362162113113184 
0.2939242256995728 
0.2999611593487598 
-2.051127131286328 
1.023147732681781 
3.279606640624198 
3.016692037046992 
0.576382674259618 
0.1204612588870615 
0.8895759537418756 
0.406127683019136 
-0.2226461555607598 
0.576382674259618 
-0.2324600791658286 
-3.55313509625877 
1.258713708409574 
4.976438672259687 
-3.026213776270672 
-5.106573927797361 
-0.7051885559404978 
2.548994581982142 
0.9518297496576663 
4.416164899783802 
4.190984054324197 
0.9156203358517344 
3.247321981986136 
0.1102833115852227 
-3.126721210599854 
2.920367615892829 
2.30253394117098 
2.015151512218236 
-1.234316960811165 
4.365164483465307 
0.6917406397829851 
0.3365859414659279 
-2.509657361328237 
0.9903333920079178 
0.5726198589714778 
-0.4993017193064331 
1.553608314796283 
1.403544287737867 
-1.684254057159802 
2.469923609448897 
0.7119231512636613 
0.9282861704261958 
0.7119231512636613 
0.4638818820412797 
-0.4911031366259525 
2.056396586522769 
2.739984390132578 
1.302116782134739 
-0.2646543147517348 
0.4414530965840647 
0.4873883319971424 
-1.068483267243673 
0.4873883319971424 
0.4873883319971424 
0.4873883319971424 
1.441417292178421 
-1.31828828932681 
0.4873883319971424 
1.078799839003808 
0.4873883319971424 
0.796044607583189 
0.5360661912879939 
2.207807774793813 
0.4667016488246511 
-2.575274747822353 
0.5946039345660549 
0.4667016488246511 
-0.621281663920798 
2.589447001709954 
0.1074322545172463 
-0.07186974378328485 
0.3456079433566429 
0.967529559046997 
1.05862387556047 
0.2128370627756162 
0.2128370627756162 
0.2128370627756162 
0.2128370627756162 
-0.3023253697105189 
0.7138640979105413 
1.467185558190805 
2.385997203839697 
0.7138640979105413 
0.9951497896295297 
2.07191385034966 
1.334484804857601 
0.6543878381273807 
0.6543878381273807 
-1.225081629538166 
-0.9022389755402909 
0.6469722809404675 
0.7350183722028388 
-0.7330282448969621 
-0.4564574792985692 
0.5662140860708411 
0.8566847170896441 
0.2831070430354209 
0.2831070430354209 
0.831461316438894 
0.831461316438894 
1.675571911440181 
0.831461316438894 
1.296731420608653 
0.4947567700063511 
-1.330010595323856 
-0.5683201242012105 
1.939462762023444 
0 
0.51649707558598 
0.8260614859729226 
1.05657544364178 
1.722279857926964 
0.7130729202572461 
2.433598248298938 
-1.058429984729378 
1.604033045411591 
0.5409999161316449 
2.614694364725543 
-1.862594547709019 
1.008148934223877 
0.3012736366569842 
1.650733997848594 
-0.04182484161605646 
0.555022036521712 
-0.5149176347784339 
2.618412372869373 
-2.383181242383686 
1.786072836250837 
1.350889119468551 
0.4774167607445639 
1.294862708168526 
0.7082334688631101 
-2.73898189730312 
-2.49972930614234 
1.004305162342408 
0.8334223966145508 
-1.837148377576512 
-0.1208520402619477 
-0.8319763485431119 
0.9389907160628761 
3.151832696175959 
0.2432979836646131 
-2.10595465351645 
2.97226320100386 
2.657283478355539 
1.011509842735385 
1.216182618594025 
1.170013057738227 
1.458812234563263 
2.576764346414079 
0.8122238510035579 
2.269285244256236 
0.8122238510035579 
0.8122238510035579 
0.8540301567641941 
2.506872861484897 
-2.303708423359109 
-0.103105371268563 
1.761364214240689 
0.7654985538882133 
1.607145267920919 
-4.240135537261746 
-3.471000419413623 
-2.407630924332727 
-0.8709619749587001 
3.557566913478337 
0.736992541210952 
0.7038621406944064 
0.5355992439761519 
1.063881454609665 
0.6281128623895208 
-2.235514546432563 
0.2892850015323178 
1.813941220207581 
1.994591517655007 
-2.171308969014548 
-1.344156254951733 
1.812655824926799 
-0.5712629230251925 
0.7002464103092044 
2.339288116318822 
-0.195734749735481 
-0.9787220650953913 
0.002772795794939454 
1.462497972884696 
0.03377984582204323 
0.5200865088655554 
0.6774093200067136 
1.481178417542861 
-0.0348290551346649 
-0.4297346054557873 
1.107436714011993 
2.405428346523609 
0.3417408420984632 
-0.4780579716760708 
0.7444463596481063 
1.55518427429165 
0.3135504783133244 
0.3135504783133244 
0 
-0.2644061444293841 
1.590591110113853 
1.229289456880329 
0.6575169911244704 
0.5686935177971931 
0.7501403535609985 
-2.528274598778063 
0.5686935177971931 
0.5686935177971931 
-1.470760427280739 
-0.5283847006985852 
1.1493459008853 
0.6695569204165824 
0.6695569204165824 
0.6695569204165824 
0.6695569204165824 
0.9523506090015714 
-3.372437902237596 
0.7543084758525742 
-0.7656391593800063 
4.101154616098487 
0.4354583668525421 
0.4354583668525421 
1.985757394234876 
0.9554383555950577 
0.6116560086076763 
0.6116560086076763 
0.6116560086076763 
0.8738525829227337 
0.6116560086076763 
0.210907834484386 
0.8448154801922467 
0.9674036064051065 
-0.978102776387155 
0.5439690875067948 
0.5299483200685502 
-4.418382281942391 
0.4539484691376148 
1.696865281305364 
2.75999505636585 
0 
2.970847897335002 
1.009930125619643 
1.196426057487021 
0.7234795740634444 
-0.2012442852057914 
0.5135356875027826 
1.089662598983565 
0 
5.953809131575476 
0 
0 
0 
-0.1979555438008037 
0.6713178662097034 
1.240862310222338 
1.240862310222338 
-1.861292454206795 
-2.643830997941876 
-2.095470777792674 
0.4697990665484301 
2.927996457150702 
-0.821533180615714 
3.855435283555182 
1.662436691282496 
-0.4742993577209864 
-2.583632831036395 
0.5169209096595851 
3.333299859532548 
3.326158689391757 
0.8250523400560944 
0.8250523400560944 
0.8250523400560944 
-8.07801778446507 
2.937404864616459 
0.8250523400560944 
0.3948100390256132 
-0.1588140698778453 
-0.5643155653131418 
0.5232731463652225 
0.5232731463652225 
1.697086401605776 
-0.2378499177121098 
0.5232731463652225 
-0.1608499317180193 
-0.7806936566987241 
-1.787803912560969 
0.4422175184449955 
4.007568328604824 
0.4011757471430127 
1.241716221791324 
1.005225321654057 
1.316812270181305 
1.492927172887297 
0.9926532832435152 
0.4963266416217568 
0.4963266416217568 
0.4963266416217568 
0.4582041971483727 
0.9367280681587761 
1.542065181848784 
1.074320562968612 
1.983856490698233 
0.1888014059990952 
-0.3446945346074909 
0.03582645514008301 
0.3117776157358862 
3.838330725738828 
1.417023160491373 
3.331265228222558 
3.054706375031893 
3.755212454328282 
0.6968627915308252 
1.393323032988927 
0.2796681066031415 
0.8174163893981573 
1.401070299813262 
-4.574420129498022 
1.401070299813262 
2.402464782358471 
0.101615363787689 
-0.001729502321621318 
2.13180191304088 
1.582801427079756 
1.070707169700022 
-3.156604206192581 
1.484256229131746 
1.181982614135805 
1.568545365264568 
0.07977366987692304 
1.549845589640213 
2.30608860541639 
-0.2728530578728804 
-0.2642720835613921 
2.110466705845492 
-0.2968341377365982 
-1.759407126042476 
3.075284896682649 
0.1761660594684161 
0.5989366966087291 
0.3500878967339537 
0.3500878967339537 
0.3602983005909212 
4.506138515710553 
0.8153804261286508 
-0.0254614976149114 
0.8090346078056529 
0.1047641782686158 
1.459833939533419 
-3.408327742342689 
-2.316187128623054 
1.619826625684851 
1.59248887979147 
2.603426409104233 
-0.4979353551257409 
0.2287589748793007 
1.056534789781068 
-4.541627092481982 
0.8896838835107665 
1.116582469549146 
0.4369301271972047 
-0.2986919056984086 
3.885681599447638 
0.241315903157379 
-0.3046610373039011 
0.3173218550366909 
-0.6611389251010638 
-4.605714057680648 
2.311896646697891 
0.6538903385213504 
0.09329207131027331 
0.7577702359877198 
0.9471667489373082 
0.2838058479714377 
-4.513628427476666 
0 
-0.04363840139880776 
0.4776455497354519 
1.472267219592226 
1.607884007121758 
0.5842715582546762 
0.2814037099634903 
1.019009645857056 
0.3423282606606101 
1.121998691330238 
-0.6011191523042569 
0.6872156949266054 
-0.02666456942727775 
0.7990871797859803 
0.7990871797859803 
-0.4904929253171824 
1.785884091634853 
0.8454528426104631 
3.674054605177693 
0.2476949211609056 
0.7646206936536896 
1.402914427369635 
-1.767479991716862 
-0.3519897616620032 
-1.183483485052831 
0.4031630323751953 
0.382310346826846 
1.642919510421687 
-3.241356728892372 
3.192788511610419 
-3.709822882069941 
-1.278999328913125 
0.2583655744006501 
0.2583655744006501 
1.430972920225938 
2.309578556279634 
0.2583655744006501 
0.2583655744006501 
-0.587531966120848 
0.2583655744006501 
0.2583655744006501 
0.4045808992673085 
0.4045808992673085 
0.4045808992673085 
0.4045808992673085 
0.4045808992673085 
-1.753652707574846 
2.095931455253671 
1.782385387031384 
0.6206855813788025 
0.6206855813788025 
0.4198317323781826 
-0.6014864118548197 
0.3848385647103042 
0.06558448523422383 
1.121625299047206 
-0.9107188039757235 
2.10907846365607 
0.06558448523422383 
-0.7001291933875687 
-2.527780834611756 
0.4993951736971569 
8.7924278605245 
-0.5457239099901954 
0.8431118296932558 
0.6309038060713894 
0 
-1.641243461772443 
0 
-0.5610146678028973 
2.617600742008309 
0.3769422625573616 
-6.994242085073421 
-2.966716028306858 
1.381242079798827 
0.1299544427276961 
1.991800836944798 
0.7015521338857913 
2.250303151705194 
-1.170052886258022 
-2.272351637145048 
1.258873446204057 
0.08877216397995021 
1.322998646796961 
0.4641497383838151 
0.4641497383838151 
0.819588618214273 
0.1652528168154893 
1.134056759702703 
0.07032026740754675 
0.963672453214326 
0.963672453214326 
0.5485350417843746 
0.5485350417843746 
1.658617121692264 
-0.1222615368719562 
0.3961746902861233 
0.3961746902861233 
-0.4365803947750336 
1.685452849764547 
0.6302634335503348 
0.6510693290187274 
1.452766186616648 
0.6302634335503348 
0.6302634335503348 
0.6576892237270232 
1.858362746200969 
-0.5583294126240955 
0.7284076251674183 
1.494372082749655 
1.859554823714818 
2.799966628513873 
0.8702251306664042 
1.297670700324994 
-0.07586937032894535 
-3.920230723480077 
0.475344000363067 
0.4612976750480571 
0.4612976750480571 
-8.673617379884035e-19 
0 
0.7672369981562119 
0.7672369981562119 
0.3958570796984971 
-0.04250824741151284 
0.3679005334982973 
0.3140911530797366 
-0.7901532087396652 
-0.4552474547872156 
-5.963556329036956 
1.585914444200866 
3.208602028308889 
-0.02422997492483444 
0.9885340502133589 
0.6797871983782974 
0.5614357082914774 
3.877199659711042 
-1.110414146115297 
0.6797871983782974 
-0.1001339550225198 
0.01862831834648898 
0.01862831834648898 
0.01862831834648898 
0.01862831834648898 
0.6805510240596575 
0.7792675423654373 
1.843263561193628 
-0.4370373415660352 
0.6233260546901757 
0.3146120920904161 
0 
0 
0.5062338852754906 
1.297644862204555 
0.2252337092898324 
0.2258922925892521 
-1.397966456565291 
0.5433320261327417 
0.2258922925892521 
1.887418537768429 
1.38570960099177 
0.6533243309185663 
-3.073365742536081 
1.392327124513218 
0.6533243309185663 
-1.600895155145834 
0.6268082293171829 
1.363072979714659 
0.6268082293171829 
1.891492968295581 
0.3783921486955727 
0.3748307788226583 
-1.151956356075408 
0.7505387483015878 
0.7505387483015878 
-1.167427295437296 
0.02296582107099472 
0.4966396730895355 
0.5564462574666226 
0.4966396730895355 
2.522581461199024 
-2.776349898695244 
0.5343924995588529 
1.133613873980191 
0.9036314526854465 
-0.9371989919237143 
-0.06348382862935439 
-1.748204770363478 
-0.2568763949009166 
0.5609854602961183 
0.7018916734576904 
0.6054756753644345 
-0.5228996715331528 
1.491556271801068 
-1.69861900162465 
3.252693203843382 
-0.6749599357134615 
2.955636262249933 
-4.28568468580384 
-0.3457358615411043 
0.3845517022287661 
-1.177353626928417 
0.4412547365041711 
-0.2402225802111509 
-1.166962395701699 
1.074970470362628 
0.5351483472635807 
0.5351483472635807 
1.042966392561279 
0.4068127110962975 
0.5351483472635807 
-1.817107639965652 
0.5351483472635807 
0.5351483472635807 
0.5351483472635807 
0.5531016061487882 
1.40428384068752 
0.9723063634906626 
1.607305474921868 
0.9349305647120876 
-2.433533814245688 
0.6696549119116622 
-0.9088803574140784 
-0.336614857844521 
1.949639060238698 
-0.9683909183733981 
1.734723475976807e-18 
1.734723475976807e-18 
0.1311133284807759 
-1.214926846902261 
1.137816628100059 
2.652547271751776 
-1.069717843038278 
0.2785471512459201 
0.5023898256745808 
-1.290435833221083 
-1.431148045966942 
0.3070530898642068 
0.9415008036446557 
1.529021543826017 
-0.2398332289170149 
-1.575000809681963 
1.962887782395781 
1.16139504519608 
-6.071532165918825e-18 
2.896008441053799 
-1.176260284656811 
4.683527551281431 
1.756847052816761 
-1.688408972626947 
1.050019630948384 
1.682712931052127 
1.545605539859593 
0.3909326071935714 
0.9790066526756332 
0.8852871812709064 
-3.537597136179964 
0.9790066526756332 
1.077849601141007 
0.5434213846131092 
3.814953459254304 
0.8354672943645165 
0.4430555608285832 
0.4430555608285832 
0.4430555608285832 
-0.279308091124894 
1.168736460814667 
-2.807624062026636 
0.596589156191466 
1.083325760496737 
1.798035718550084 
0.596589156191466 
-1.180676361793927 
0.596589156191466 
0.01886930681161596 
1.21729109542121 
0.7732436456753944 
0.2347233813398938 
0.2347233813398938 
0.2347233813398938 
0.2347233813398938 
0.5603813989007348 
-0.4019023304181402 
0.7514970588267046 
2.073710831623132 
-0.5804949239409123 
1.213850714002825 
-0.5005548675015562 
0 
0 
0.8543703258768676 
0.8543703258768676 
1.087244911140654 
3.068337073907405 
0.848710464140211 
0.1127015332241359 
0.7105277033556283 
0.480202326731896 
-1.933175619531429 
-0.9702896754042691 
0.6415687882572322 
0.8388367176240675 
3.015814468718691 
-4.852484338626422 
-4.525088981236111 
2.421310462991822 
0.3160144079182778 
0.3160144079182778 
0.3160144079182778 
1.07168474481251 
1.041027234956727 
-2.892797631360282 
1.055799848277226 
1.0290589738382 
1.677251531333118 
1.313915130646415 
1.0290589738382 
-0.479706136751519 
0 
0.7164876944035545 
0.623717821200388 
1.080620018842164 
-0.4655642736476794 
0.4398508156049443 
0.4398508156049443 
0.4398508156049443 
-0.01651025918234124 
0.8051549213807102 
0.4744186174645457 
-0.4581978653245456 
-0.1429221573225569 
-0.0575160019723176 
0.4744186174645457 
0.4744186174645457 
0.4744186174645457 
0.4744186174645457 
1.435938429623665 
-2.508013116463556 
1.606394231128457 
-0.3473048962539984 
0.897083020887358 
0.8481740771899079 
0.6245797500699074 
-3.027606731782575 
1.827042373869396 
1.710566781724788 
0.3812658209613284 
0.9148037772359378 
-1.098567743951394 
1.557270357907653 
2.836015610465593 
0.866281640866145 
0.3939304638412984 
-1.45587460077821 
0.3445874671275935 
1.168478680555636 
1.400851554132545 
-0.09906948650774879 
2.749074807776974 
3.447904581808919 
1.970274383481039 
0.1200909255042038 
0.5111471723815932 
1.628619894953264 
1.696273172188746 
1.734723475976807e-17 
0.9210598542042731 
0.6473441766865028 
-0.5045724810297163 
0.6473441766865028 
0.6473441766865028 
0.9048223693506956 
-0.07110065904715943 
-0.7788250221628519 
1.325727115776867 
-0.2012661850208288 
0 
1.811683103818922 
0.6175615121119008 
0.7741307569923079 
1.093331061317987 
1.093331061317987 
1.093331061317987 
1.093331061317987 
0.2318124068694386 
-0.2754997334753048 
1.872191421611253 
-0.1424559329006804 
1.046185867871439 
0.4677657301416194 
-3.952345992678074 
0.5662208214659006 
0.6180540184949066 
-0.9781600182648654 
-2.590413306824328 
0.5701578591286619 
-2.092957783410904 
-0.3090566471008941 
-1.191001420373925 
0 
0 
0 
1.144816379537056 
3.033564347323669 
-0.4763349671836725 
1.530995414414689 
0.6380038426902507 
0.962239298760008 
0.157567199150501 
0.199611009107526 
4.061372895992987 
-3.307924145758167 
0.1887223107228758 
1.471563279733977 
0.06034969302828669 
-1.633099525907022 
-0.527485293767723 
0.06856814143129424 
1.049169900391525 
1.049169900391525 
0.05224707107510826 
0.379376884606539 
0.379376884606539 
0.379376884606539 
1.245652683594305 
0.0945134925557183 
1.140494072989564 
0.3793768846065391 
0.5079007919598644 
0.5079007919598644 
-0.8530403744553834 
0.699806716358108 
0.1882878380628034 
-1.46538189806661 
0 
-3.912176179715062 
1.441184813470928 
1.773475634399273 
-0.655378443474029 
0.6687388441162421 
0.2985136708490327 
0.4946680021136652 
1.147569588260305 
-0.7477414152216612 
1.260092531492114 
0.4787277114679628 
1.155412272768531 
3.035252708081506 
-0.3811640444792209 
-1.902178295789966 
0.3764277813952428 
1.737916210805071 
1.737916210805071 
-3.528940551129774 
0.9823168952353672 
-0.4436656699271284 
-0.1469767786697078 
-0.5582678614132227 
-0.1331709094371263 
0.729010244564491 
0.2686098285697561 
0.2686098285697561 
0.28794466712842 
0.2402600515479273 
0.2402600515479273 
0.9750095555651646 
-1.295750962791275 
0.4875047777825823 
0.4875047777825823 
0.4875047777825823 
0.9192432250795204 
-0.4098586802214715 
1.268872545317483 
8.359090539772232 
1.162887671287798 
0.4274471887107215 
1.002942000094585 
1.002942000094585 
1.002942000094585 
1.002942000094585 
-4.296014087785728 
-0.6018969408122363 
-1.32173885609865 
-0.6817784305599409 
0.1059033620563243 
-1.289094830802438 
1.708942601275488 
1.571832240018618 
0.3766754805859907 
0.3766754805859907 
0.3766754805859907 
0.3766754805859907 
1.134766878196403 
0.8838976646257963 
0.3636625979111739 
2.086367701040926 
0.6657919255593592 
-1.72175561056034 
-0.9822066785337462 
0.6136529294898491 
5.686471338213985 
-0.4452700538923475 
0 
0 
0.4663494915345207 
0 
0.7881093898402066 
1.213640552207943 
-0.689490875915721 
0.9046489065899451 
-0.8759867690071875 
-0.9076129935902284 
0.5733371424101608 
0.3278986883384338 
-4.585380002445224 
0.5678025149602571 
0.5678025149602571 
-0.03427988934687587 
0.03138674339051509 
0 
-5.331291602612286 
1.644639755394629 
-0.3527731637175444 
0.6653061920541011 
0.6653061920541011 
0.5509094176843069 
1.316160773598666 
-1.459720450364032 
1.262574336666652 
1.928542749060161 
0.4525870422241627 
0.6167787524993829 
-1.972049429143424 
0.7797431500407159 
-0.2109862286927166 
0.7797431500407159 
-0.3635574852169237 
0.6548784323915704 
-0.2517531145811897 
-1.040946934249487 
0.6474634953351901 
-0.8716287622689383 
-1.817022999685722 
0.6474634953351901 
1.123167022453444 
-1.182866697964559 
2.258170243475812 
-0.6169544025546334 
-1.290682651573362 
1.810011578554789 
2.313753795191892 
-0.4526465944814283 
0.9162892649365884 
0.7199081455111713 
1.766054032712917 
0.2361467605286668 
-0.8242967651806196 
0.8111169400451841 
-2.847645976523439 
-2.098057666300996 
1.220939130655517 
1.630761321265849 
2.635651239039019 
-0.1812894603948096 
0.5149030165597284 
0.5005226286095972 
1.609807261680773 
0.3484945399888608 
0.9691964792186047 
0.3484945399888608 
0.3484945399888608 
0.8159120814812246 
0.8159120814812246 
0.910886897346383 
0.6146786889973282 
-0.2873433402520508 
2.424248660356707 
-0.4385608222838699 
1.068239460746148 
2.017420733036717 
-3.300258346867408 
0.6283064767107581 
0.6283064767107581 
-0.8214278887261476 
0.6283064767107581 
2.653526371299581 
-0.8829386393808445 
2.080014653620377 
1.281595859901539 
1.206012780466439 
-0.1189180502878136 
1.549621833303799 
-0.8378828334743245 
-5.461811164020177 
0.3165617651575918 
1.363669318380619 
2.905807726478534 
0.6876001136070524 
1.088327185400712 
-0.2331827404879228 
0.02600212365580067 
0.1671771406452804 
0.3278882221378225 
2.057978488271024 
-2.085699598550621 
0.9343892801920678 
-1.058820159590978 
-0.2710844946099237 
0.6477273375581701 
-0.5673875577023382 
1.475117138516549 
-0.5170406263415538 
0.5724766988193283 
0.6477273375581701 
1.210349011807831 
-1.625982881486526 
0 
0 
-0.6229396212441014 
1.217901006701905 
0 
0.9495262360265168 
-1.820814398675275 
0.4240929396806122 
0.4240929396806122 
0.4240929396806122 
0.8584497488625407 
0.8584497488625407 
0.4709977841120687 
1.400687493915131 
0.6040060112623663 
-1.609570516101235 
0.04669859934212835 
3.890651131179032 
1.314807397877691 
4.38219955502931 
0.2526372422290584 
-2.9511834267983 
0.03547501034540808 
0.6976256810690851 
1.24628124737689 
0.3027006676801757 
0.4064598202879438 
4.253431342881274 
-1.599402293291861 
0.2309890983557979 
-3.299504403797693 
1.026669524361574 
-1.642986717272463 
-0.5457942419711799 
0.6100921451844317 
0.6100921451844317 
0.6100921451844317 
2.011019065678544 
0.6100921451844317 
0.632685228116067 
1.562956353970458 
0.2812649575100358 
0.2253502639248313 
0.8065347676841442 
-1.643264996476197 
1.854406113055119 
0.909027640658381 
0.8296118782017818 
1.951263994525704 
0.2917477384641859 
0.2917477384641859 
1.678705329861266 
0.2573512899804248 
0.8169736332057305 
0.2917477384641859 
0.2917477384641859 
0.2917477384641859 
0.2917477384641859 
0.03089838317369318 
-6.327822823305726 
3.713027684580181 
1.328885464418329 
0.5809128590885344 
1.210985006667996 
1.210985006667996 
1.210985006667996 
1.210985006667996 
-5.134675748330348 
1.210985006667996 
-0.7369917894044933 
0.5723197625193314 
0.5723197625193314 
0.4697411944022641 
-1.857867542338393 
0.465110270517086 
0.5582162491179058 
-1.189127436241164 
3.432404386351985 
-2.362239929772907 
0.4214412024276306 
-0.9047654603955523 
0 
1.047212697534076 
0.2297720359879401 
-0.936412831074718 
0.6411683779618468 
0.6411683779618468 
0.05774151536652544 
0.05774151536652544 
0.05774151536652544 
-1.032211481201714 
-0.1244949454619757 
-3.627923000676165 
0.6895729538004212 
-0.08766211766441516 
1.318634349362352 
2.723765945362225 
0.9665456384905182 
0.9665456384905182 
-2.191698270121944 
0.7975181713983762 
1.020451487414554 
1.123365677513289 
0.04087992204935452 
-0.9257747753006411 
-2.561913616631536 
0.507148169599378 
-1.011266468998908 
0.507148169599378 
-1.04858197113115 
0.6978974986987836 
0.6978974986987836 
0.6978974986987836 
0.6978974986987836 
0.3158955246553986 
0.3158955246553986 
0.3158955246553986 
0.2053326859489686 
0.2053326859489686 
-1.097187864420388 
1.176401931191071 
-1.708469235220923 
-0.561256335868378 
0.3847640026853727 
1.294523838301033 
0.3847640026853727 
0.4405837287449761 
1.396995173549519 
2.814682431921256 
-3.422620891370412 
1.160919980911316 
-0.925293005338214 
1.309960405796837 
0.5993794149121063 
0.652822586705698 
-5.737847136368075 
0.2619798294240858 
0.2619798294240858 
-0.7944489895343148 
0.2619798294240858 
-0.7568403142455299 
2.184908571095272 
0.9921765691089643 
0.3186167837192696 
-3.068538157339386 
3.676208983587515 
0.7195136333974498 
0.5018308250558023 
0.8158087490104458 
0.855939197685444 
0.876613313675493 
0.01310675955418133 
0.4817754631666392 
-0.7330986761220062 
0.4817754631666392 
-0.8882973457413962 
-1.774333739991426 
-2.76476826875366 
-0.3227505854811376 
2.376601444946407 
0.5083603869526989 
0.4427777927290975 
0.1963689531618047 
-0.6618811273328464 
0.474118057812031 
0.1963689531618047 
1.74687722942465 
-0.2140985114140912 
0.5594601986049853 
0.4794304993919982 
0.2530641350981805 
-1.059991478381914 
0.2680953753904814 
0.2680953753904814 
0.6732991045558928 
0.9733045645394077 
-1.682263187110943 
1.142736299492931 
-0.05918789178419931 
0.3295109837872542 
1.464306311721387 
0.3961932229679042 
0.1866015562216851 
1.297524867054668 
1.339495918548138 
4.45488535457693 
0.3696058216321265 
1.091690657857421 
1.091690657857421 
1.330224584168939 
-1.289765056179682 
-0.1062432573203228 
-0.3266856262055617 
-2.553534394904581 
0.4953735388481518 
-0.07258353990945531 
-1.705211894092876 
-3.486789835958999 
0.4953735388481518 
3.488094849862779 
-2.935068868334688 
-1.025162456948946 
-0.2959304402764196 
-3.144021681362883 
-1.69923071291114 
0.02714337407635735 
1.305960964301228 
0.702608952953695 
-0.01357738254799181 
0.4277544053242253 
0.4960768896486842 
0.3019697461592182 
-0.9047493251183087 
3.310379220118064 
0.3644789556565716 
-0.220470013930245 
1.924083152654088 
0.0308762148872469 
0.3275210917719855 
0.8643884345327318 
-2.188890779854704 
0.9581050255861836 
-0.8913143167618123 
-0.03746223122647924 
-0.6065847290166679 
2.288317796304475 
-1.080872151525254 
1.030797527228728 
-0.1006024077696746 
-2.248834922417571 
1.178210279084726 
0.418443764848625 
1.700698215429348 
-0.5559260795061541 
0.1788484091823765 
1.856030920500764 
-0.04178375858085437 
2.752757634122361 
-0.2020756976381967 
-0.7708688708125226 
0.6036514720544173 
0.6036514720544173 
0.6036514720544173 
0.6036514720544173 
0.6036514720544173 
0.6036514720544173 
0.6036514720544173 
0 
1.167737429418289 
0.9379024656449042 
-0.367355572275163 
-1.723738471902713 
0.5528641018599227 
1.627836865539656 
0.699765304131862 
0.7504665210896192 
0.4697727939878903 
0.4115362449152817 
-0.2623807205054271 
0.5941983077171452 
0.5941983077171452 
-0.2645052455910004 
1.082976977305556 
-1.455922758564173 
1.767651219722628 
1.050275228737997 
-1.929412235737365 
0.7246447384935285 
-0.2494772191153931 
0.5343967453461657 
0.5343967453461657 
0.5343967453461657 
0.5343967453461657 
0.5343967453461657 
-0.9553427819931826 
1.470265920026446 
0.221308226310836 
1.13861185330331 
0.2229298963091867 
1.144777807164219 
1.786571108785986 
-0.2867056941274037 
2.322143139878363 
3.425651028396635 
-0.8915600437500003 
-0.3474357751342684 
-0.5934514819177251 
-0.04948459754597514 
1.029889841767263 
0.3251645150826684 
0.3251645150826684 
-1.173614604189879 
0.2870063785808561 
0.2415795168313527 
0.8285814823929271 
0.8285814823929271 
0.7654605298360408 
0.7603542620073366 
0.7603542620073366 
0.7603542620073366 
0.7603542620073366 
0.7603542620073366 
0.7603542620073366 
0.7603542620073366 
1.389207972467662 
0.5995251661172758 
3.693370101618728 
-0.03489078558489359 
0.3972891782151401 
0.3972891782151401 
0.9844891681498691 
0.3972891782151401 
0.803532060462718 
-1.623589075458796 
0.1987397328513304 
0.1987397328513304 
3.074676421688883 
1.180071468779737 
0.1987397328513304 
1.006813540627829 
3.863572592650296 
1.12095112169209 
1.006894780000992 
1.661510294468841 
-1.738209758650875 
-0.8009358872529556 
2.763210014769942 
-0.4591297537804748 
0.4474576802744216 
0.4474576802744216 
-0.4823076565854362 
-2.946038781084964 
0.5652433644865811 
0.5652433644865811 
0.5612167968604109 
0.4323471364668007 
-0.8058226022577852 
1.199637663431523 
0.6242035608178399 
1.248281639896651 
1.097914795047394 
0.1692783484264016 
0.7551052577366518 
0.3895531701460267 
-6.778993946909549 
-0.5728717107515194 
-0.03774490373887929 
-1.010113522826317 
0.3149087007221792 
0.1079124842046918 
0.3215819377046634 
0.7656232075811984 
-5.17972060803539 
0.5692106278203369 
0.7882966445346312 
0.8817888141529808 
0.4616821702122683 
0.4616821702122683 
-6.909523835654107 
0.8816951325873711 
0.9324858529005131 
1.588770160272728 
1.400715907307435 
0.4662429264502566 
2.248439625428272 
0.8116061587872955 
-3.658003181936512 
1.760054190136719 
0.7608372351751047 
1.161765338220001 
0.9311784601616242 
0.8759746865074122 
0.8759746865074122 
-1.055121224381312 
0.5253801830022738 
-1.300906488068316 
1.47061268822241 
2.056439656984912 
0.2798029054676988 
-0.6927652347193071 
1.597029834297168 
0.1004195497445535 
0.1004195497445535 
0.2008390994891074 
0.1004195497445535 
1.331327932624246 
0.2972609686131066 
0.9328585350459948 
0.2168190720827659 
0.2168190720827659 
0.2168190720827659 
0.2168190720827659 
0.2168190720827659 
0.2168190720827659 
1.615780750660901 
0.458141755201286 
0.2168190720827659 
-1.836570160995084 
0.5356767767447264 
-1.545856251840065 
-3.481265784591788 
-0.2185083190427179 
2.006143941180325 
2.5495109505876 
-4.213073565525082 
-0.7467271856418006 
0.928349032618655 
0.3196194830835398 
0.1889994989527831 
0.3894213773965355 
-0.6616592993679423 
1.126784150971632 
0.3894213773965355 
0.3894213773965355 
1.386179467560176 
-2.493947258126043 
0.05200863437265921 
0.311801437941515 
0.5559389744526628 
5.086647708730782 
0.8097382664174091 
0.1224852874114319 
-0.4119472343881163 
0.4617185489792973 
1.657798994527539 
0.2572593167915382 
0.801279872462383 
-0.06983212663505338 
0.4212323953328811 
3.351836328233481 
0.9746640703831176 
3.918969257838958 
-0.3623939932574916 
0.2587439370467868 
0.2587439370467868 
0.2587439370467868 
0.2587439370467868 
0.2587439370467868 
1.401514395594066 
1.499451862341997 
0.6490461208358415 
0.6490461208358415 
1.787552522950854 
-1.215919742298589 
-4.28496021169302 
0.4742988527028641 
1.68781644342392 
0.7383812582662816 
0.5579987841708304 
0.04342968266456587 
-5.19805835254899 
-2.744289409025286 
0.5215831789496622 
0.6615932434961631 
0.8820663698947631 
0.09844586394935279 
-0.5424798502944232 
0.6043233716552093 
0.2087110356298804 
-1.521715556742797 
1.792448635132812 
-0.09521071140664387 
0.6729392304021872 
-0.4059187848686241 
-2.98834525680854 
0.4284122381889018 
1.338770056225894 
2.526126219317995 
0.5452275155687323 
1.020194528635301 
-2.992224309471495 
0.1610611605478964 
0.4158247394748109 
0.7354262520722289 
0.409192262038338 
0.409192262038338 
0.409192262038338 
1.044306906077268 
0.409192262038338 
0.08250081632251753 
-0.4644233793283468 
0.7411725385485723 
0.7411725385485723 
0.6546426647328452 
3.480004548462513 
0.7411725385485723 
0.7411725385485723 
0.7411725385485723 
0.9389934057070146 
-1.091052638803539 
0.9389934057070146 
2.018515013423903 
0.153339153304544 
1.826827204692242 
5.517816716287809 
0.4881161366623488 
0.4881161366623488 
-3.166974713344839 
0.4881161366623488 
0.4881161366623488 
0.4881161366623488 
0.8054389422290188 
0.6629000686311806 
-1.678260591960318 
-0.6642939687031036 
0.7506305607619342 
0.3307363039161644 
-3.782857759913719 
1.145488219879651 
0.3307363039161644 
1.067749248099719 
1.111521746413125 
0.3307363039161644 
0.3307363039161644 
0.7273714647129614 
1.088796492050368 
1.326977109804549 
0.3307363039161644 
-1.150783490762586 
-0.06125413567644585 
0.1311588713943696 
1.584054234729925 
0.1311588713943696 
0.1311588713943696 
-0.3196931726720856 
2.073937510143474 
-0.6944357390997147 
2.358212839043622 
2.509961378848467 
0.9518888779747341 
1.852220405163607 
0.9518888779747341 
1.044941447923197 
1.044941447923197 
3.360016171590451 
0.4221084261524836 
0.9554111878869411 
0.9256977901626633 
-0.03686187181437409 
-0.1572780581848045 
1.413342795917925 
0.4323552782384298 
1.001305083205992 
0.4349997379033892 
1.827426334103518 
-1.756216785226895 
-1.520646023001789 
0.7089694264046414 
0.1134161862681624 
1.05438144613828 
0.3282447390355013 
0.654707825494393 
0.3282447390355013 
-3.386833289813108 
0.56243954719833 
0.3179781858104463 
-1.19637100986616 
1.136064287156594 
-1.663941756721738 
1.057671317899006 
0.8891094663321142 
2.766725648275529 
1.156080420492261 
0.9949701542058885 
0.6845808790005694 
-0.65407891993655 
1.428747063170278 
-4.763087717853922 
0.3402861614822189 
-2.472831236688394 
-0.6019144170318127 
0.4308353725067747 
0.414780525367295 
0.2711202499789742 
3.131029719946315 
-0.3766120228397705 
0.2711202499789742 
-1.856827328683442 
2.626771510827068 
0.7978768640937605 
0.9018483274902843 
0.8457218343459437 
-1.390032331012806 
0.9283734686380438 
-1.777104550308623 
1.60457505837261 
1.607969900747412 
0.4126049867259675 
-5.771819288094138 
-1.603860535931896 
0.7322450247245739 
0.5663592572012839 
-0.2534386279834228 
-0.9261436962310049 
0.752169076859426 
-0.5857742184696337 
-0.1740825724713708 
-1.599165690869618 
2.360635237066058 
0.4421479580453779 
2.429200606120161 
-0.5836635158378621 
0.3938770432333802 
2.118568967972581 
1.205850382256649 
0.66118420853979 
0.9569390421574231 
0.04793954496889022 
-0.1454628211211895 
0.2489684667043326 
0.2489684667043326 
0.2489684667043326 
0.2489684667043326 
0.561374067437703 
0.1871246891459019 
-0.1824896562335153 
0.436630335421837 
-1.469061548850666 
0.4143127731449538 
0.4143127731449538 
-0.6756609493915351 
-1.632623804402844 
0.7400005778590724 
0.4191768966556289 
0.7400005778590724 
0.3672867894030051 
0.7865185477836685 
0.7823849073590133 
0.7823849073590133 
0.7823849073590133 
-0.1935192753993294 
-0.5493871272852459 
0.5343773564788191 
1.644425291609564 
1.163114124925932 
-2.165676283999859 
1.156433384728671 
-0.02706243004870546 
2.352249151843753 
-0.4863553418893031 
-0.7515261870667703 
-3.860749250230775 
-0.356268514031687 
0.5594436250870176 
0.3549288333078819 
0.4355014597886725 
0.9946345195150915 
0.9946345195150915 
0.6804294398371576 
1.292260998615762 
0.02459254698204145 
-1.705608812546604 
0.0920775911724087 
0.0920775911724087 
0.2937369008614105 
0.0920775911724087 
-0.4531552107128979 
-3.245891903734502 
0.5996725911529195 
0.5996725911529195 
-3.717346109449788 
3.022117835858912 
2.008950029382333 
0.3482900190206337 
0.3653932484104275 
0.5325785901310524 
0.5325785901310524 
2.67938339317357 
1.477399213802146 
2.630869477833365 
0.5961515560386901 
0.5961515560386901 
-2.815621480592135 
0.5961515560386901 
0.5961515560386901 
-0.1416079823977139 
-0.1853436889961003 
4.683995942432274 
0.5271221161634576 
1.065072472224686 
0.3526066670651297 
1.611588548266372 
0.2126950664357796 
2.088512250516378 
1.577842554033869 
1.512701755444039 
0.7707878053346403 
-3.628491280366895 
0.3834948856346574 
2.70226073077438 
0.3834948856346574 
0.4278419456688151 
-0.8785006748402163 
-2.280639576932471 
-2.631373963040845 
-1.104138355706788 
1.096396076018432 
0.614171052026864 
-0.7887709471069245 
-1.504979692505388 
1.096396076018432 
1.129424679449484 
-0.9665941823677012 
0.1086314808901933 
2.199074509637619 
1.231116814168133 
1.700064896078656 
-0.5323534088049453 
0.1399277176345834 
0.1399277176345834 
0.4642376876767773 
0.4642376876767773 
0.4642376876767773 
-1.769635754655723 
-0.2892946649047955 
-0.5604821608813831 
-0.4678193568671264 
3.508738690579533 
0.3631790337588393 
0.6629492993168923 
-0.4638323153814071 
0.9390910795860377 
0.8452852677780525 
0.8452852677780525 
2.39435137906283 
0.7139293928540004 
0.4674422218997347 
0.4674422218997347 
0.4674422218997347 
-0.1232055530643211 
0.4674422218997347 
0.4674422218997347 
-0.1947493520138761 
2.042651176200099 
1.156238441600179 
0.2057516678995475 
-1.95854509665398 
-0.5517749318106386 
0.8861757321054249 
0.2567519050180584 
-1.960677230097028 
0.3583449016024122 
-0.5539438357048133 
0.3583449016024122 
2.614681523280003 
0.812248809936122 
1.39135291539697 
0.6769544889824155 
0.6769544889824155 
0.6769544889824155 
0.4190525700121665 
-1.274692764789045 
-0.003247094687240523 
0.9841516484805276 
-0.1237218206450376 
0.9841516484805276 
0.9841516484805276 
-1.504208508230068 
-3.241206099499884 
1.79034351180914 
0.7883413035229802 
0.05579716579164518 
-1.306434287543468 
0.4571264774915796 
0.4571264774915796 
0.4571264774915796 
1.866580167957947 
0.5349159417827175 
0.9644844351091346 
-0.2791322199230087 
0.7403124924862438 
0.04010612751780477 
0.04010612751780477 
0.04010612751780477 
-0.1289185114694499 
1.302175854047388 
-2.642341267759086 
0.3719022061520195 
0.4433456947737974 
0.4433456947737974 
0.2309805319548441 
1.73343451063131 
1.310413663837972 
1.764637584023352 
0.8742528908132498 
-3.946885291018745 
1.76773296670207 
0.6706898743855267 
0.3684846130348266 
2.343318518587258 
0.39425560189226 
0.4449211484024187 
2.903022333440599 
-0.3742025970256657 
2.45005259426368 
0.6525612059390556 
0.7354704983328143 
0.7354704983328143 
1.473070572751549 
2.354582838395553 
-1.358967906822593 
-0.06807213137652132 
1.46240591119074 
0.3016512143248278 
1.013163314900517 
2.386331125497346 
0.5942282141583547 
-1.179533264097607 
1.503964804456269 
1.503964804456269 
1.503964804456269 
1.503964804456269 
0.5690793125444975 
0.5690793125444975 
-0.5311252031907284 
0.5690793125444975 
-1.082271839173495 
1.595216514504856 
1.066002359047415 
-2.992875684633602 
0.405273774111948 
0.7154105020935857 
0.7845329409153982 
0.4015328955310486 
-0.3701854787264919 
0.4015328955310486 
1.15657632725046 
2.263204172980079 
1.688580652911985 
-0.08902443581354991 
0.6886003234743705 
0.6886003234743705 
0.2103685159093832 
0.9806899136215251 
0.05731213083158361 
0.5563427744007401 
1.060769688320602 
0.0709989531088487 
-0.494008158238755 
