solver_type L2R_L2LOSS_SVC_DUAL
nr_class 2
label 1 -1
nr_feature 61765
bias -1
w
-0.4725382498576036 
-0.8844004103740422 
1.533896136741665 
0.6684539823714716 
-1.414041413499798 
-1.435262205967399 
-0.08560078021058672 
-0.2390104881931054 
-1.108811775295933 
-1.880163193499939 
-1.563429293625447 
-0.788747595693851 
-2.116943449499919 
-1.155812052303291 
-0.3608887234187 
0.6184745546279852 
-0.02693985466874445 
0.9301394341406023 
3.595026248696499 
-2.948792410654668 
-1.172496578609857 
-0.2492117469431064 
-0.2492117469431064 
-0.2492117469431064 
0.5544470014072471 
-0.4725382498576036 
-0.0249833912971068 
0.6879583572411863 
-0.7562415668643659 
0.6199547464852547 
0.1296501346971441 
-2.587715909230714 
0.005045999961251925 
-2.017340090415887 
-0.9799576632933557 
1.208661802252553 
-0.5812108573716179 
-1.039408389316791 
-1.006788531244365 
0.8950073044925269 
-0.06401813393975296 
-0.2636130918878618 
-3.035621149231446 
-0.7193525339570912 
-1.471072471600855 
-0.1473139496404955 
-1.031526077393005 
-1.091972204516595 
0.06505176804372062 
-1.801871606280685 
-0.2636130918878618 
0.07240892958361209 
-0.2636130918878618 
1.753545870692345 
1.528713699820279 
-0.2681958362384015 
0.2740132468791602 
-0.6067237975651725 
-0.2636130918878618 
-0.3265656608598121 
0.9972811783729724 
-0.8796668654809092 
0.00932749251037104 
-0.4141759790366515 
-0.6158538673263019 
0.7535850631632535 
1.044866981951156 
1.030911996559845 
-1.031832324178821 
-0.1566659465193785 
1.841062544012437 
1.69832107804114 
-0.7142929193937413 
-2.556176792291186 
-4.411032362287108 
0.9368431733581833 
0.7049553147965852 
0.1571782862929189 
0.8791755113772959 
-5.378117728617828 
0.006306947911771612 
-1.791766341325355 
1.206013470144789 
-5.293070208162003 
1.902861424114871 
4.296646472900422 
-0.3647679708971072 
-0.3588047970524669 
-0.3647679708971072 
-2.014912611119347 
-4.271783266408216 
-0.3285221346358854 
-0.2813951318032786 
-1.501061996095442 
0.3719448303088329 
1.401035724165002 
-3.655331195998154 
1.030371336848619 
1.563590932231586 
-0.229619993895539 
-0.6252006737751606 
-2.887370183651386 
1.067494033342531 
-0.3755753812436269 
0.5649281324540973 
-8.295316803840771 
-0.07348920673878051 
1.75009915985306 
-3.263548694837689 
-3.449353211934101 
-1.283242284690459 
-0.05912487433761262 
-0.3782335175312219 
-0.7385641962059156 
1.358221653127733 
-3.206441512256184 
-1.067961567067256 
0.792877534229076 
-5.812141617413131 
-0.5043828796823651 
-0.5043828796823651 
0.148460686048188 
-1.270315243567953 
0.5433254706489975 
0.275464433107286 
-2.291276119321074 
-1.74899887099226 
-3.660134945864551 
-1.498170744076494 
1.498278764569654 
-4.913098456039392 
0.3078074563132414 
-0.2559113916378244 
-0.2559113916378244 
-3.214339844973985 
-1.556633255305049 
1.486534101756838 
-0.4639352302899116 
-3.268676844010268 
-0.3260924354492739 
-1.809583192317054 
-4.42878162727588 
-1.00426731914136 
-0.4538301851554564 
1.242022384510711 
-0.7581215528763185 
-4.22529384622008 
-3.085988729185386 
-2.542293209187509 
-3.052350001367418 
0.4568112600189176 
-2.28323720565173 
0.7356634359101785 
-0.1332602480246128 
-3.650275476692013 
0.6012531432376667 
-3.552384535241101 
1.854529788706165 
0.3378331430767021 
-0.1308828907074547 
1.055787661107882 
1.843407058153975 
-1.115633357465223 
-1.240973939269858 
-0.5127075128598314 
-2.180381736662306 
2.619358611873905 
-0.642221443818447 
-0.5508401314582677 
0.1016272653619079 
0.06664179158797535 
-1.821116619933311 
1.743668986147327 
0.5614735541518019 
-1.887969573274003 
-0.6839697303981637 
2.819179302695273 
5.419835970364568 
1.975379898501828 
-3.50889492468077 
0.8479968893965908 
-0.3632970632507242 
0.4173944813336197 
1.366387218598658 
-0.3529755703439781 
0.6782846214527931 
-1.968862417123117 
5.669637115320309 
0.772734868049058 
-2.719723118868948 
5.295026867060376 
-1.147876394399605 
-0.463890819749839 
-0.5657226129108089 
-1.091085415412176 
0.6467976370703593 
-3.342686092884208 
1.926132266577071 
-5.728517150100578 
0 
0 
-0.2392592679142149 
0.07083185031201611 
1.360843215108633 
0.6317709456429135 
3.444078299585704 
-2.344159758545141 
2.836488457267141 
0.7916901565116364 
-2.984911632760358 
-2.783348227263903 
-4.5574791003246 
-0.5908558056378604 
-0.5908558056378604 
-0.348641814262364 
-0.4176979619511317 
-0.5908558056378604 
4.505395033208954 
-0.2010140154422171 
-0.6752089653070869 
-0.4357696317898666 
-3.553851476744637 
-4.201080453960399 
2.883240370881159 
-1.06695375890003 
-1.329762823523899 
2.39751811483671 
1.6556698016533 
-2.461910663467656 
0.5352462728715874 
-3.648021190615043 
0.5807543921346594 
0.8194934606727882 
-2.192826315951677 
-0.6855465957685029 
-0.2300500198472202 
1.126741735832034 
-0.2741249825765946 
0.2511286210015716 
1.540211531318129 
-0.1241668981747372 
-0.04865913492509702 
-0.9700698578814017 
-3.965053037673572 
-5.183328927779644 
0.1042100237482567 
-2.092682815487623 
-4.056373081030329 
-0.6749555006146833 
3.931428139987804 
-0.8812292784165813 
-0.2203843250696395 
-0.3636034104436434 
0.5138308047185972 
0.6244817858676164 
-0.6100677771332721 
-0.3577112010078087 
-0.9489762779159974 
-0.4395258888061589 
-1.137878856682912 
0.105714877493833 
2.660086892491332 
-0.4395258888061589 
-0.6972506401363 
-0.6611316035001602 
-1.756202268447272 
-1.272513657394214 
0.2179915598721245 
-1.158508467192034 
-0.4395258888061589 
2.299340042353211 
-0.7636056542799788 
0.05154714757041015 
0.7440023943875953 
5.494092592702607 
-2.528709740316086 
-1.551166893006698 
-2.502037103131943 
-2.868803987677494 
-0.7560693538805906 
-3.48185409733429 
-0.3901044736821256 
-0.5021114049359906 
-0.1498288526686505 
-0.1498288526686505 
-0.1498288526686505 
-1.560769494444886 
0.5848816828535066 
-0.4336942028479941 
3.588308169767435 
-0.2318248760161396 
-3.186282536466211 
-2.484592430507473 
1.98241660187667 
-2.308529235669548 
0.7812933423222153 
0.7119814488463725 
-0.5296195317613008 
-0.5831754306874165 
1.365068075556854 
-1.028585423789442 
-0.4427638442624716 
-1.917102857198528 
-1.07320799180512 
-2.561140966471154 
-3.136332132049009 
-1.592232780554235 
0.4574046591743094 
-0.09214255067465731 
-1.155646295442358 
-1.194840416087383 
-1.988494292112792 
-0.09214255067465731 
-2.139664432565629 
-3.420832045513261 
-1.179035522099954 
-0.5838591720070891 
-2.884453436917909 
0.7852970578465623 
0.3365724524912529 
-0.5838591720070891 
-1.490165526769325 
-0.173934598349966 
-0.5838591720070891 
-1.188353323316957 
0.247350466832129 
-0.852717763818525 
-0.4168531585448968 
1.680985746666189 
-3.165741485562698 
-0.4168531585448968 
-3.036621688636335 
1.537698647959397 
1.491749830096564 
-0.8712538460717407 
-0.4682852648431854 
1.457375507113145 
1.997114142824608 
-0.484307316330338 
-2.846297015689923 
-1.545750368999006 
1.164827587986819 
1.816010168075714 
-1.039474770353013 
0.357737905094298 
-2.526298067052585 
-2.874765983534463 
-1.519911196660737 
-1.039474770353013 
-0.3205974774952093 
-0.3205974774952093 
-0.3205974774952093 
-0.2138990077427491 
-0.3205974774952093 
-0.3205974774952093 
-0.6497184574024905 
-0.3205974774952093 
-4.129434273168815 
-1.355070627155653 
-1.002482615428271 
-1.586071129710624 
-0.4237570020667766 
-0.7288507474859652 
2.709123265186104 
-2.682929224190086 
-0.4237570020667766 
-6.308928859074564 
-0.5322823785917097 
1.624785051454681 
2.299762172455309 
-1.218482184432747 
1.228261319325946 
0.846349336770896 
-1.877911678996402 
-0.9994693354271634 
1.578952785634449 
-1.056531511798616 
4.537565664476971 
-0.8735937642569277 
1.315576951175668 
4.673516497336683 
0.4645155661315956 
-4.931653878860698 
4.289488798466409 
-1.829649088286412 
-0.8355053285519763 
-0.8355053285519763 
2.233403162202805 
-0.2450304341175656 
3.331190591610756 
1.538345028607459 
-0.5082364551698975 
-0.2450304341175656 
-1.494048593673897 
-0.2450304341175656 
-0.004504148223454438 
-1.124869120831073 
0.0584164915141041 
-0.2450304341175656 
-3.006997928586132 
-0.2450304341175656 
-0.590168981951729 
-1.777893942844816 
-0.2450304341175656 
0.4689685016631782 
-0.2450304341175656 
1.121751600096552 
0.6095532125407624 
-0.08273578391194568 
-0.4336135270743273 
1.746732580258319 
3.508510683885892 
2.685103494089791 
-0.9076392956567861 
0.5287587614819099 
0.0629781605442368 
-0.590935109731386 
0.9177897935199436 
-0.590935109731386 
0.9273682980076583 
-1.261727217991932 
-2.461829880849321 
-0.1066893328496012 
-3.646951172467139 
-3.70112391864864 
-0.7457181631445119 
-1.182556172818795 
-0.2326534202941623 
-0.3350015074824837 
1.200898064931389 
-0.4154718462868997 
-2.094027676153696 
-1.746962126791884 
-0.272556704419798 
-0.2326534202941623 
-2.703071854163734 
2.271933203314282 
-0.5334254124053623 
-0.5334254124053623 
-1.034007257852782 
-0.5334254124053623 
-1.627658139820391 
-0.5334254124053623 
-1.323690782140221 
-0.5334254124053623 
0.4660671531542001 
3.724766419386373 
-2.540306552713865 
-0.5092791024368469 
0.14265956748002 
-0.160106257167771 
1.38002654351921 
1.615411733038661 
2.995467421593894 
0.5427507406543002 
0.8264973043206959 
-2.377300797860059 
-0.4751131511113414 
-3.280517057968921 
-1.061875944300278 
-2.795597290794249 
1.011809474153752 
-0.2192815496198463 
-3.879635156719198 
-1.952378001540707 
-0.79295653717763 
1.290148494523595 
-1.453890565523303 
0.02334465057312392 
0.258838468550331 
1.229473556552239 
-1.042508708159574 
-3.964017562991287 
-2.335076489132141 
2.94483151296808 
2.6718459090027 
6.414155649089058 
0.9805110413682732 
-0.6081285095585034 
-0.07260298033437182 
1.37294116227627 
-5.345570961715246 
3.57299274821264 
-2.765522131304647 
1.448279302166442 
-2.900642023036177 
-1.539372863820197 
-1.506463052597627 
-1.047018459509368 
-0.8077673185842489 
0.3859539196509214 
-0.7552508502067912 
-0.2410657799744535 
6.732859153909043 
-0.7552508502067912 
4.679742139164521 
-2.078397279654987 
0.8707812110989535 
-0.7552508502067912 
2.172149050027378 
4.585626485017738 
0.1567710507138951 
0.6174681451245783 
-0.8252983481495977 
-3.196055293866723 
-2.114263666537983 
1.294979866068367 
-0.817891453488957 
-0.5151624452886651 
-1.139038986975468 
-0.5037866447455077 
0.7118246052716836 
0.2077114740281824 
2.414989520341375 
1.631012587711868 
1.748561128156048 
-4.78808638966523 
1.627503460357565 
-1.642305934864816 
-1.933423102405891 
-1.077808708692325 
3.461063970071494 
-0.9973060008811407 
-6.146522113799023 
0.3649741092545821 
0.8711459489793993 
-3.391451101744069 
1.139031968889857 
1.732853156462292 
4.175840142874655 
0.9078817370943025 
0.9277911884095812 
-0.6402050757541392 
-1.64516177823872 
-2.614669938448002 
-5.808132266963998 
-0.6579189294303692 
-1.662250662676338 
0.134080264611995 
-2.562777785261414 
1.046594593182922 
-1.032234790286978 
-0.1133869853803119 
0.592475178529455 
0.4915044045929895 
1.286649304273723 
-1.650106290280943 
-0.6044195839252188 
1.7239971852896 
-0.1933608291245777 
-0.0013593754225639 
-0.1350775925682011 
2.934918617437003 
-5.577433127416159 
-0.5618454571476225 
2.005385313269287 
4.154392833956448 
-0.1933608291245777 
0.08639109744254829 
-7.147060047719302 
-0.1933608291245777 
-0.3187951000423808 
2.395247418068712 
-1.597020756408052 
-1.644450438845574 
-0.1901329350979542 
2.718194244799465 
-5.65784949965359 
0.2737139284096491 
-2.660024682615985 
-0.7810077169605053 
0.1201247766288964 
-1.968331444215764 
-0.1759140782344009 
4.523168628261317 
0 
0.09340874214991965 
-0.4136864472521901 
0.5197373516700806 
-3.710674725932741 
-0.4438402187724467 
-0.3478447718209353 
-1.378644323390998 
-0.546028469200286 
-1.191324775689196 
-4.390499236545077 
-0.7649791141847035 
3.213987881810841 
2.120849850589857 
-1.291261058618197 
-0.5018689833153631 
-2.226635553331941 
-0.6271458859275574 
-3.398261006517019 
1.7518954826157 
-2.179674242958072 
-1.13730697047493 
-1.64014217685277 
-2.322920285687544 
2.75243707841086 
-0.1264617152100188 
-0.1264617152100188 
-0.7721859897504897 
-1.736913683767117 
-0.5370235548408784 
-2.037398724990204 
-0.1264617152100188 
-0.1264617152100188 
-3.410400702633771 
1.729531611745834 
-4.104507354671342 
-0.1790188008588343 
-1.946583876045537 
-0.05337669168431505 
0.666591590078277 
-1.054672777480023 
2.792725738894915 
-0.9205755651365582 
-0.8400812662772418 
6.337226758376177 
1.019953016420888 
1.079347394783504 
-0.8048570604076487 
0.03722533135387872 
0.5104121680398208 
-0.8101148123355824 
0.2115148698350166 
-0.4410688901625275 
-0.7910740901024822 
2.134647134772348 
-0.3566220814215397 
-0.5489198819962594 
0.5529109172078067 
1.143554967507876 
1.467077968382374 
-0.8495399941145949 
-1.707406687453142 
-1.681746137090781 
1.550823802313508 
2.128630719740928 
1.238373811876351 
3.732708381727375 
-1.487036567939833 
1.835379659751344 
-1.487036567939833 
0.485955743776656 
3.246247667914054 
-0.9136894417639041 
-0.3010148402792942 
0.8105687099441599 
0.2581980799421459 
-1.613518693900663 
-0.8962694684787997 
-4.502960720229155 
-1.946176745153368 
0.2398673195178105 
2.163786397883369 
-0.8780679686092555 
-1.635297322026274 
-0.9971486686123268 
2.374747857986434 
-0.6205359299562108 
5.580970261737369 
0.03803291985020672 
-2.523341016848783 
-3.1253365650392 
-0.7536338123463461 
-1.360659078495921 
-0.5217637126953217 
-1.023860134253588 
-0.4263059115468373 
-0.5217637126953217 
-0.5217637126953217 
-0.7048735485222439 
0.8995105708226216 
0.1144179069661344 
0.4973513796856071 
-0.8769855120294298 
0.6750904657948396 
1.158420211877614 
-0.1664105272276551 
-1.088854352417379 
1.188639661610773 
-1.482825018314672 
0.3444153323377191 
0.4841272369967452 
-0.5141678701612596 
-0.4930472617436567 
3.325077678576404 
-0.4930472617436567 
-0.4930472617436567 
-0.4930472617436567 
-0.4930472617436567 
-0.4930472617436567 
-0.4930472617436567 
-1.612138855879734 
-0.4930472617436567 
-2.541844877724562 
-0.4930472617436567 
-0.4930472617436567 
-0.795919290654685 
-0.795919290654685 
-0.7539797834794604 
-1.6788479136675 
-1.431137952814756 
-1.431137952814756 
4.717488716413178 
2.835141593525316 
1.144240638199688 
0.5074588976175474 
-0.4025345814015217 
-0.3600493304554871 
-3.539983534619338 
-1.834148821327609 
0.8390482389025316 
-0.0703591123762644 
-1.043141298196786 
0.9373145040869486 
-1.043141298196786 
-1.53339558811538 
0.9223101140018655 
-1.611967634349811 
1.181845438788115 
-6.720530543096656 
0 
0.2594235329100198 
-1.516894231261169 
-0.943365912377513 
3.84711991765542 
4.623309677357649 
-6.293105512171508 
0.2551723688039056 
-2.303546509398634 
0.5604117830462773 
-0.04878527810208876 
-0.2144979880442189 
2.077461090369268 
-0.02951999301132519 
-3.1182852553394 
-2.405999125819763 
-1.389060702782313 
-0.2193851105939981 
-1.123965692580607 
-1.537961761611829 
0.7694915915594637 
-0.2144979880442189 
-0.2144979880442189 
-2.160148028246231 
-0.5619322527948422 
0.7098657679092001 
-0.4621597668402307 
-0.7413457537998817 
-0.04334976120611756 
-1.564148971269833 
-2.069041217367828 
-0.5939040079332868 
-0.5939040079332868 
-3.345767332498656 
-2.280646068086934 
0.2293368002859532 
1.570065261700896 
-1.204337953234047 
-1.250549411471358 
3.188929299691464 
2.708063067585913 
-1.683890548978832 
4.578094457726514 
0.1535442014850051 
-1.156246005211271 
-0.1549381257462216 
-0.3613044833648452 
2.939933530736491 
-0.3834743503348914 
-1.243398823594851 
-0.3613044833648452 
0.5164390638028408 
-0.3613044833648452 
-1.102065993553992 
-1.067893607929439 
0.5440626955765486 
-0.210292964325213 
1.831871093422153 
1.136330213768058 
-3.032791305753562 
4.656430823167438 
-0.908561890028084 
-0.6202352012373591 
-0.2856629911930946 
0.1460343017228718 
-0.908561890028084 
-4.45964367260278 
-1.257239691159179 
-3.309359052120616 
4.136789650867231 
4.400983336065104 
-1.831175368330479 
-1.310548578017883 
1.994759195434154 
-1.591780477921234 
-2.563083100084447 
-3.071418940850535 
-0.2660916228303358 
-0.398952249395061 
-1.527784291728561 
0.5460929269989562 
3.949040511089413 
2.14414110846766 
0.01872675287765907 
0.1006983295127226 
-2.012130629251143 
-2.820476151227847 
2.439292069026581 
0.1086368056243514 
-0.2932177057769893 
-0.5544503337659863 
-1.406895661437161 
-0.2501359231487001 
0.1679599671865747 
-2.274178941447383 
-0.2889583958630595 
4.551471535711093 
3.817914052641726 
2.088990995649921 
0.03107630692299586 
-0.7105518207859023 
-0.3749727834342287 
-0.3749727834342287 
-0.7229212404524644 
-2.094332816209413 
-0.3749727834342287 
-0.3749727834342287 
-0.3749727834342287 
2.121185127191102 
0.05532864045382019 
3.168355143877981 
-1.825366750004315 
4.057012619571742 
-1.278821326171459 
-1.500077479750957 
-0.7123285275766038 
-2.581768230626194 
-2.358427211093625 
1.534376474030307 
-1.295173753117456 
-0.6295479238340841 
-2.929850214445196 
-0.7952755016940637 
-3.104165689993013 
1.400376355578542 
-3.167966652263932 
-1.509827896544795 
1.026171606519964 
-0.7684406212946562 
-0.9843157195699096 
-1.084171252653888 
0.04955229104581552 
-1.655281708985084 
-2.686196284366772 
-0.07807711907522052 
1.221223121168161 
-1.472495099282546 
-1.852920353527572 
-2.131142070068017 
2.558279619420084 
3.027011045891378 
-1.937227707751288 
0.5616102853091479 
-0.188266180725174 
-0.3217038376133985 
-0.5711578990176519 
-0.3966175344291671 
-2.118575812028599 
-0.3903828622485401 
-0.3166958511755806 
-0.3903828622485401 
-0.7068730155186188 
0.1862465131348161 
-0.07333834346606385 
2.100472402782909 
0.1231425057843334 
0.5173014789502844 
-2.148667284583299 
-1.81488427691688 
-1.387451495703605 
1.469168189342829 
-1.748072282123828 
-0.8415234451358522 
-0.4057658343835142 
0.6835714834515403 
0.3713517828666392 
-1.110822120538382 
-0.2116371325697809 
-6.180702331630426 
-1.315720509468042 
1.397107874548656 
-0.1772919228456495 
1.088812900103919 
-2.889107505740337 
-2.054741161771103 
-0.5062963456474769 
0.1852510139329016 
1.419953793731247 
-4.435225286611132 
-3.166601707110222 
0.09825498449944271 
-0.4072774599155436 
-1.366689631808952 
0.304120347614497 
2.916631584111342 
-3.402359940390834 
-0.6330300290148533 
-0.9456479919670305 
-0.6330300290148533 
0.8802076655673463 
-2.170610018360863 
2.128701943890431 
-1.786649854097492 
5.77064725926813 
0.8255263013178031 
-0.2480461791269921 
-5.87808871744799 
-0.2480461791269921 
0.5854963516735345 
1.340186599251443 
-0.114594688545563 
-5.991439108358038 
2.745522101283111 
-1.614884408960992 
-0.6768167576949271 
-0.9228256515591382 
0.2835212937261907 
-0.377766788722187 
0.211825133782048 
-0.87928855838648 
0.9697237648023236 
-0.6316696699707663 
2.631927150012194 
-1.013079429114289 
-0.3694453132588944 
0.8621999233576125 
1.202068174143341 
-0.7461742021875429 
-1.095529687131918 
-0.7634775219674658 
-3.365524549598602 
-0.6077985946748163 
-0.4038667397811593 
0.03729949121073321 
-1.701291141963817 
-1.374354145829188 
-3.998942662352038 
1.358732050801053 
-0.3798348531515591 
-1.483331221991253 
-5.211888947234243 
-0.8678965513610895 
-3.287069775966424 
1.348847861887147 
1.846821464923601 
-2.202046060768789 
0.4220302415745071 
3.927397888209843 
-3.745347463802331 
-0.9192710252742595 
-0.1040530036509593 
-0.765015461281736 
-0.1040530036509593 
-2.046858361038137 
-4.789790841685557 
1.080119469587557 
0.2728502393186548 
0.3297016198107957 
-0.9332708874243794 
-1.191163005598253 
-0.869648879132798 
-0.9978546147198235 
-0.3272246534556484 
2.603943568505663 
1.434680716780382 
-0.1623241875911338 
-1.686131683374084 
1.72934514144354 
-0.1623241875911338 
-0.1695033229520669 
-2.740726973319499 
-0.3121161322581796 
-0.699317020397579 
-3.016989765510392 
0.5340366021726808 
2.115045141784796 
-3.101060737481969 
-1.661722268194507 
-1.80273233830636 
-0.312674360393397 
2.423106591056084 
-0.6504300643648143 
-3.458007520872392 
-5.204170427930421e-18 
-1.279380265380343 
1.73238090092813 
-1.220450131892968 
-1.172419459961213 
0.2169726984053417 
-3.573217938142978 
0.57326231347888 
-0.3158453866839872 
-0.3876040653907531 
-1.269900907336878 
-0.8202108072003886 
-1.61074095658973 
-0.4810736225225851 
-2.077167652754289 
-3.05086832371461 
4.636341193279679 
-6.676505823849764 
-0.3158453866839872 
1.192463660964996 
-2.887765576386431 
-2.814598796204338 
-1.190242479572918 
-0.006678522083894919 
2.172996531993572 
2.406974768698462 
0.2833456927927838 
1.961501101738772 
-1.726416425312574 
0.07922947904670073 
1.191279923795461 
-0.8724142306597537 
2.013541398890484 
0.589373103378468 
-0.05812011839397129 
-3.368665430504439 
-0.3231286773723586 
2.595390770285963 
-0.3231286773723586 
-0.9428182968284942 
-1.467079425978789 
-2.287078777800779 
-0.2183229296518995 
-0.7186245628284063 
-0.6041597347845592 
-0.08225620827530943 
-0.8130456765309377 
-0.7082716393076816 
-1.393964763968419 
-6.057938096556231 
0.5786008205447035 
-4.384414416648626 
-2.465347426020315 
2.029370537726059 
-0.9597920718873766 
-1.92869162609783 
-2.709424834878338 
-0.7000977224839059 
0.6322946067748556 
-0.7000977224839059 
-0.7000977224839059 
-0.3249334261078091 
-1.038291424643346 
-1.925455815771436 
-1.018921927290782 
-1.018921927290782 
-1.201298077499277 
-1.348651496308054 
-0.8071877054305556 
0.10640596306599 
-0.9951829265244485 
-0.277148721348524 
0.5729366215745377 
-0.5339913774317903 
-0.277148721348524 
0.3235773126404618 
-0.3858085793487478 
0.2531286585844409 
-0.277148721348524 
1.31885623470827 
-0.277148721348524 
-2.204449782812241 
-1.24704699631938 
0.341138213657991 
2.627137316664876 
1.060762751111272 
-0.5754103978411087 
0.9366927057222895 
-0.277148721348524 
-0.859516800896131 
-3.386271704100952 
-0.1295167532292058 
-0.4092604034621711 
4.379667222539144 
-1.994836157249882 
-0.7761460884662325 
-0.4196834020655508 
-1.914133515051476 
-0.4196834020655508 
-0.8967712454370875 
0.01348028042454939 
1.124662315401648 
-0.4196834020655508 
1.126732506804488 
-0.8706600039608248 
0.1302195933971626 
0.5676154220765093 
-0.748542626738206 
-0.5427534282928207 
1.586441201216776 
0.8936608578603135 
-0.1704192307229468 
-1.150476532113365 
2.596808062212939 
-0.6146436584585072 
-2.205175405654192 
2.261188854342384 
0.1760318142845286 
-0.980635392116217 
-1.475880655718484 
-0.003254518654563135 
-0.8602007380209048 
-0.4352737199514735 
-0.8602007380209048 
-0.8574758287877382 
0.4479907933622964 
-2.350192191220436 
1.079452733336491 
-1.354287224704869 
-0.1983604377482193 
-0.6372662773122362 
0.3276703420912865 
-1.201910446355734 
-0.1034004339260545 
0.6809750338202093 
-0.7413196209355879 
1.583186792047426 
0.3116697244516312 
-2.480087309562217 
2.2194228572281 
-1.366432908717496 
-3.269595006368181 
-0.05060113986059896 
-3.972513897737734 
-0.5908570188496436 
1.119678760080697 
0.7109352465267086 
0.4443529956272038 
3.245341627020781 
-2.144640181837473 
0.04949278077909293 
-1.291409484630598 
-2.360069159090019 
-1.007040375480002 
-1.399184374636805 
-0.09806190698417157 
-0.3618326967616556 
1.276935337263098 
-1.36868787223223 
0.3593127420902003 
-0.9894638804699815 
-0.8349048989575919 
-1.1615003472875 
0.09159741446084324 
-1.053574562935744 
-2.773117034848833 
3.847424927415306 
6.393030289611903 
-1.154290972537054 
0.3796059935922058 
2.314529699298055 
3.594759293037463 
0.1383903572277211 
-5.790352839298384 
-0.6035794457254035 
-0.6035794457254035 
-0.6035794457254035 
-0.7677217239163149 
-1.302507091827287 
-0.3671128732131626 
-0.3671128732131626 
-0.3671128732131626 
0.6857068181966808 
-0.3671128732131626 
-1.300126332099958 
-0.3671128732131626 
0.2739398944871266 
-0.3671128732131626 
-0.4977469086828584 
1.610198898744383 
-0.7403858586881356 
1.608752987746564 
0.2081316627799962 
1.716609147928932 
-1.648108780836291 
1.235210798607134 
-0.5562201673669612 
-0.4476443269869287 
-0.5562201673669612 
-1.161558941927312 
0.2970851732668897 
-0.3720166094081733 
1.837204564363345 
0.06231960847284387 
0.5933013613650795 
-0.5820868637609162 
-1.268746022127933 
-1.10179246343549 
1.007525749254511 
-0.6819439345968668 
-1.145649767826895 
0.198235185367431 
-0.5789284736050297 
0.571149004465943 
-0.6734441630068057 
0.6615138244125491 
1.271893991473741 
-1.088613845113018 
-1.04278603358838 
1.311536370647659 
-1.565187200493977 
-1.270518010625849 
-0.3205729648255949 
-0.6876617079040011 
-2.505572480886381 
2.955877270833129 
2.595605015899743 
1.819889192644832 
-0.945385856978291 
0.3948130493900128 
-0.7040571871549762 
-0.7769638237803087 
-0.4083540641517001 
-0.02334894695553241 
1.094474256929737 
-1.581945394027938 
-2.803801676054657 
-4.243627376178445 
-3.698700893380208 
-1.788743258229585 
0.8030264753663501 
-2.065328039802369 
1.681480934257189 
-0.3642019762310177 
-1.817471931498528 
0.1525649626771106 
-0.397717560442036 
-2.301548303379071 
0.6097177665997285 
-0.397717560442036 
-6.633229621432501 
0.4377640956997479 
-0.610063549834408 
1.179016425489714 
-4.916971912856095 
-0.3875246610857059 
-2.709468580280537 
1.077302202076061 
-0.7332998899064812 
-1.088841866175841 
0.9780469718273404 
-0.7332998899064812 
-0.7332998899064812 
0.1234657380269225 
-0.589278672437986 
-0.3339920492380753 
-0.8150178531251989 
2.880786297152227 
-0.3020651369208651 
0.7953255939293163 
-1.509852657276938 
1.609077752738949 
-1.494228841358691 
-0.2919643280468476 
0.2650890875954093 
-1.615156661732309 
-0.144343194756791 
-0.543324656595759 
-3.020797769596645 
-4.679279958088794 
3.271181664107783 
0.1222871840034031 
0.3326924355839444 
-0.7601106340090367 
-0.3466240021074409 
-0.3466240021074409 
1.368229325287356 
1.763582511058472 
-1.704197040205479 
-2.312742488671386 
4.133822606699763 
-0.05107080130580374 
-0.9454631201031301 
-2.15937072445144 
-0.120407288485577 
-0.411961206459065 
-0.6120351695723679 
-1.973527395843979 
-1.90213000164733 
7.176286926653611 
4.406342896413674 
-1.32900173650518 
-0.1718634980051903 
-1.657476870419326 
-0.4184790065371009 
-3.29925543140748 
-1.24407328515358 
-0.1942706333274617 
-0.1942706333274617 
0.8902406201622564 
0.142928360117402 
-1.503450587270367 
-4.170146409686932 
0.02842197388275406 
2.857545530789189 
1.323936706909592 
-1.24372823994584 
-5.224775235370863 
0 
0 
0 
-1.018809258163373 
-0.03458872176584838 
0.5670183485035819 
-1.146489017565399 
-0.30612571716777 
-1.436908940073007 
2.907723562945174 
-0.6894103933799444 
-2.510068070531088 
-0.3555419762693604 
-0.3555419762693604 
-0.3555419762693604 
-0.8764188877927581 
-0.8482405974498585 
-0.4867534111047689 
-3.778398203744452 
-0.3555419762693604 
-1.150038312041865 
2.734593985322258 
-0.238928003125648 
-0.238928003125648 
-0.238928003125648 
-2.450431298456968 
-0.238928003125648 
-3.173520415435631 
-0.238928003125648 
-2.919803239272255 
0.6768599922894688 
3.34165455649516 
-0.3582189338411493 
-0.08530678030200869 
0.08698493026201587 
0.6033678941887575 
-0.3582189338411493 
-5.193434104639453 
-1.552703284125835 
-0.9419765508417689 
-0.3368693418086909 
-2.619079178799573 
0.8024088324213255 
1.889722303536004 
-0.5590387454875049 
-4.801739224169904 
-0.5590387454875049 
-0.9180770160430486 
-1.897860786529848 
0.7054836414789081 
-0.3275606523605836 
-1.623046033696173 
-2.340352715675607 
0 
-0.6141599471634771 
0 
0.8568631118416661 
-0.8601525877401982 
-1.044851726907453 
0.6500708252755225 
-2.454455548264952 
1.207055128825746 
-2.629374995908162 
-0.5466243946198749 
-0.4981525250953963 
0.2819322610766151 
-0.07028012609630929 
-1.48108976650875 
1.070091630641778 
0.5379085034860916 
-2.761381898626327 
1.743646069899225 
-2.317014886075852 
-0.6069360642637331 
-0.02476790462289783 
-3.196983235084073 
-0.6698797535934095 
1.561665926407566 
1.635083359621532 
-4.659414240637656 
1.654789489063422 
-2.698702945704915 
-3.326149488733714 
-3.255230582646023 
-1.131803234351316 
-0.2346879244558908 
-0.4008266270312805 
0.3629339722852398 
2.498541141875161 
-0.08897955261118518 
0.8715852493145502 
-0.4130098586174382 
0.856337947652833 
-0.7955478677041965 
2.242636960623396 
-0.4130098586174382 
1.427837679055964 
0.4901954485856396 
-1.774172205020007 
-0.4130098586174382 
-0.4130098586174382 
-3.014441498980104 
-0.283073619657108 
-0.4130098586174382 
-1.755569137536828 
2.766304639903114 
0.7115653978636827 
0.1799101033085619 
-2.190308860359329 
-0.8219221973806583 
0.187396859487071 
1.129983311044467 
-0.4344773380715919 
1.084567879598137 
-2.263953798938218 
-5.118420678654869 
-0.02808313840028727 
0.2192710331073164 
0 
-0.6601861047458462 
-0.8436774044087557 
-2.447572846336155 
-0.7238716545764315 
-3.194481051898469 
0.2668636635395871 
-0.007498824522231077 
0.7062298428928746 
-2.739628035802064 
2.470730637472021 
0.5561903739849282 
-2.543362025145537 
-1.456686541153407 
-4.759892807510527 
-0.3536090205875198 
-0.3536090205875198 
1.474288861902891 
0.09662718521336347 
-0.595156426481338 
-0.595156426481338 
-0.595156426481338 
-0.2386555589976829 
-0.5165264909500823 
-1.335185347956532 
-1.053369692545846 
0.1489366464724028 
0.940107830273657 
-1.647583481125763 
-1.306874743404875 
-3.793897853759693 
-0.7435714761418076 
-0.06884161046402422 
-0.7435714761418076 
-0.9227093759556552 
0.3106494774052285 
1.29590382412371 
-0.501747659790956 
0.1179062438517118 
-0.6747785283602294 
2.723982325782299 
-0.2413356648359291 
-1.28169925826613 
2.05780119659759 
-0.3601953058286724 
-0.3601953058286724 
-0.3601953058286724 
2.073653900453457 
-0.2981170318332419 
-2.763792489279057 
-0.3601953058286724 
-2.271392767999711 
-2.991961240076249 
0 
-1.597344744891516 
-1.333355609729651 
0.255391920384999 
-0.1654030577661087 
5.2786741641379 
1.361641398523188 
1.428225709788386 
2.806974529355147 
-1.946614360531598 
-0.2888822532441376 
-0.2888822532441376 
-1.14121817094154 
-0.5706090854707704 
-1.226785313572692 
0.9252726756944744 
0.7405499866158554 
1.655295735232457 
-2.530729356337305 
-1.414538112198097 
-1.278627906992243 
-2.31255515607833 
-3.600139987021352 
-0.2081623727430281 
-0.6523784785067097 
1.641126452237128 
-0.6523784785067097 
4.855217763552561 
3.332492425787594 
-0.2074977520141305 
0.1607627324716333 
-4.317849369906622 
-1.102788364365154 
-1.169829140316317 
-0.9976362316519164 
-1.182592754339023 
-0.5540224336032158 
2.529065205985512 
-2.670342553100058 
-2.072601778442675 
0.4657876840457092 
-0.4547253875701873 
-2.933643931480073 
-0.3482529689992711 
-2.409021895725035 
-3.063862149357646 
-1.084859639712822 
2.862484117141913 
-5.308572428562773 
3.030928595286588 
-0.08720090150301614 
3.475550721084881 
-0.3949551158453296 
-0.2768873307532461 
0.1444133595514154 
-1.662453450424677 
3.442597449382526 
0.8383601076058357 
-5.130640208965334 
-0.6175599872458652 
4.041852858595748 
-4.37386629941945 
-3.149711546595364 
-0.1887983060361608 
0.2926402404150388 
-0.2741739700160435 
-2.466951713558466 
-0.7511017547978399 
-0.5018762671088536 
0.9092933015601732 
-2.406219471702596 
-0.7517059051076977 
1.32499511778472 
-1.548701132458874 
-0.7517059051076977 
-0.6685110131466446 
-0.6685110131466446 
-0.6685110131466446 
3.839532048801523 
-0.4336899398491175 
0.05976856423899077 
0.600338607266101 
-0.3381787308246841 
-0.4573589597797446 
0.5745701356392992 
1.921138003392304 
2.978582959400601 
-2.210786335534135 
-1.69562195096871 
-1.923125744613456 
2.338632334448268 
3.57159257195296 
-0.1520179443401742 
-2.592432254489367 
-4.043250009421342 
1.189765805356858 
-1.134805000743369 
-0.7571765142523247 
-0.8587542217589585 
-0.4755937631321783 
-0.5332132350236157 
-4.62866737366733 
1.267277118640244 
-0.9132964432500769 
-0.4783411340705797 
-1.163658453291772 
2.167155117620227 
0.8133105825020976 
0.02317939086386417 
-2.389992623529763 
-0.946787460316566 
-1.288629383860421 
2.880113338003934 
-0.4690241581944324 
-0.4690241581944324 
-0.4690241581944324 
-0.4690241581944324 
-0.4690241581944324 
0.11962611689459 
-0.7566281391106453 
2.31060517257427 
-1.298191479176334 
0.6882148225483267 
1.279938429950086 
0.7013680232369081 
-1.132625039616145 
8.033624666643489 
-1.830533860129447 
-1.412970926418115 
-3.492164394583465 
-1.132625039616145 
-0.408391101244454 
-0.2413723170186176 
-0.2413723170186176 
-1.918407501296793 
-2.385658997007286 
-0.6966129497675549 
-3.364178800828818 
-0.1392250377152524 
2.755481826199099 
-0.3788382044944478 
-0.6631485521791179 
0.9699935302747756 
-0.7512274961281835 
1.272335072636169 
0.6991345122124053 
5.025121690601843 
-1.253351118307638 
-0.2572380025099695 
-1.254939784793082 
-1.242280898827001 
-1.497685898711616 
0 
-5.169374645732918 
-3.175854810098638 
-1.018693998585939 
-1.018693998585939 
-1.59722650575379 
-2.166689499281179 
0.4401354901203447 
0.2646954019349056 
1.92530820653327 
2.634245050572264 
1.820654799971468 
-0.4529222637805045 
-1.810553737439146 
-0.7031737063168192 
-0.1896757864948364 
-0.8281398941288481 
-0.924802232141535 
-0.924802232141535 
-0.7970549448610889 
-0.8455390562522507 
-0.8455390562522507 
-0.8455390562522507 
1.471289471007447 
-2.446950674098685 
-0.4841816972214038 
-0.4141065817176668 
-1.477834467241789 
-2.664846267594985 
1.080036341398574 
-0.8833410633539287 
2.457405560585832 
-0.1999593275517904 
-7.058334373100159 
-1.943439089367035 
-0.339950028554841 
0.5175217075593788 
-0.02539045234574706 
-0.339950028554841 
-0.6306138106205297 
-1.985191958877373 
-0.339950028554841 
-0.339950028554841 
1.649476388417844 
0.6036949755544491 
-1.725728945836843 
0 
0.03895909179532725 
-0.7732696530267698 
-0.3416062758650977 
0.6749540581039678 
-0.4275173388159406 
-1.02108259821296 
0.3239578483582106 
-0.4275173388159406 
-0.4849527796686588 
-0.7291890508971411 
0.01780056248971432 
-2.556222621898097 
-2.031619541431585 
-0.1976574700621072 
-0.1976574700621072 
0 
0 
0 
-0.9108105708453342 
-1.390012400213896 
-1.481185465925579 
-0.1093682260138423 
-1.439825700123805 
-1.439825700123805 
3.257930863783285 
-1.018714441409074 
-1.642783099434893 
-0.1272297008818667 
-1.304747278073318 
-1.72798669901961 
-0.7846380450484247 
-0.1953700730015049 
-1.225820563333829 
-1.225820563333829 
-0.3448771192711488 
1.712960775529806 
-1.08531419723307 
-0.4012914175352346 
-2.066680031426145 
-1.308327266798276 
1.299654769943097 
0.1308123856574919 
-1.060275043294435 
-1.403011303380153 
-1.952392853276889 
-1.538063545232214 
-0.9627957770885839 
-0.9627957770885839 
2.175836635467305 
-2.752831373267711 
0.7365574517235883 
2.468923431843448 
2.634892760634024 
-2.086910648012561 
-2.445003660533894 
-0.4087374963748445 
-0.7227402014625306 
-0.7227402014625306 
-0.7227402014625306 
0.8222554423534139 
-2.062279916016258 
-0.4882049354517032 
-0.4882049354517032 
-0.4882049354517032 
-0.3775425687477695 
-6.632388817778054 
-2.772548888929889 
-0.9619205054153375 
-1.17280222158571 
-0.009628011758288726 
2.942686754416871 
-1.610265231302762 
-2.149710406027256 
-2.541970491536569 
-2.249507188919668 
-0.43904289613819 
1.255491502020576 
-0.2354034892592012 
-0.145979303057823 
3.810458517026117 
-0.3946488426725921 
-3.752373170848909 
-0.4550053228266283 
-0.692218257415576 
-0.2251686996209193 
2.636694147477448 
-1.417186247481269 
-0.3747756941229183 
3.368500613350606 
-0.7425633266458171 
-0.7425633266458171 
-0.09827661966636267 
0.6273736503148261 
-0.992032308447665 
-1.859281563497505 
-0.4334623908980638 
-0.4334623908980638 
-0.4334623908980638 
-0.4334623908980638 
0.8849671791160388 
-1.243155653080639 
-1.081456254507427 
-0.4448326902863869 
-5.153211525591138 
0.40067091298415 
-1.381862282343121 
-1.046492151314747 
-1.377280320756771 
-0.3153448217333361 
0.8975423645060303 
-0.7475532048607835 
-0.2702756266497989 
-2.588435538499564 
1.733857220696561 
1.058783071717428 
-2.244260348876566 
-0.7196148803225731 
-1.369315682982484 
-0.06405363937164119 
-0.9859122221511787 
-0.3795000490914099 
-2.028398351408258 
-0.005582175510707458 
-0.5642189467236275 
-0.5642189467236275 
0.8538703769938113 
-0.5642189467236275 
-0.5642189467236275 
-0.5642189467236275 
-0.2704052207340769 
-0.5642189467236275 
4.631317204527262 
-0.3794583828166597 
-0.5642189467236275 
-0.9387799530780806 
-0.5642189467236275 
-1.134480756368176 
-1.855078542192927 
1.830660260660699 
2.168352460398972 
1.421079002852957 
-0.7522570356068826 
-0.2321510129942584 
0.8218880899445823 
-1.810844773337074 
3.702478555423433 
-0.5422564010759157 
-0.5515028050323462 
-2.986494824479065 
-0.4820189638840572 
-0.3359281840712469 
-0.3359281840712469 
-0.3359281840712469 
-0.9136047286565309 
-5.337562986718207 
-0.3881119924074858 
2.203116874377939 
2.826344173697512 
-0.4740977511719029 
-1.83681478231285 
0.2960658404816374 
-2.464224713958973 
0.6688841827813589 
-0.3683751421062493 
-2.703105068080285 
-0.3683751421062493 
-2.285299167587107 
-0.3683751421062493 
-1.357235962464554 
-0.270569983578829 
-0.270569983578829 
-0.270569983578829 
-2.566164892187909 
-2.407816038509677 
0.7859772096481589 
0.4115246508056982 
-0.270569983578829 
-0.183697177464318 
1.189435336235554 
-3.095061958978989 
-0.58159204887398 
-2.248431413715569 
-0.0007253527304903171 
3.552898922144243 
-2.724466627964531 
0.9694507772568224 
-0.6203246562409241 
-0.6437353984518812 
-1.852091910987677 
0.4346341755196335 
-2.147441658662094 
-1.866367595647865 
1.043741930007152 
0.2187648140312562 
-4.464984353159799 
-0.01434292302098528 
0.06691002168293592 
-1.473109081857304 
-1.772997472163275 
3.163016957415699 
2.713083945586966 
0.9898440754625005 
2.741386693614862 
-1.036681006273212 
-1.166397218385441 
-0.4547504775239131 
1.962774720480915 
0.548840543223326 
-1.816234641557251 
-1.816234641557251 
-1.816234641557251 
-1.230260180291518 
1.172545840810781 
-1.327612453889794 
0.4733362211041006 
1.095352922406478 
1.060920987076976 
-0.9113550193504281 
1.226998457017636 
-0.7209567208103589 
-0.7209567208103589 
-1.814614096292914 
0.2346563523414978 
-0.3645456802223465 
1.754238959396646 
0.1515694413387353 
-0.3419249913503021 
-0.3419249913503021 
-0.4929347920343348 
-0.4929347920343348 
-1.311720925056349 
-0.4929347920343348 
-0.4929347920343348 
-0.337751284963571 
-2.453546926883607 
-0.9395046312406088 
-1.234869884036794 
-1.234869884036794 
-3.319769280949084 
0 
0.9955103673739539 
1.826423668462517 
3.329173163492416 
-1.570495308230962 
-0.5734403520234739 
0.1610707974473617 
-0.5734403520234739 
-0.5734403520234739 
-0.5734403520234739 
-0.5734403520234739 
-0.5734403520234739 
2.054682730260868 
-0.5734403520234739 
-0.5734403520234739 
-0.7247309755975785 
-0.5734403520234739 
-2.47523977139359 
-1.549106307868249 
-0.4371716578754019 
-1.982205671379038 
1.863424374841589 
-1.852710028300536 
-0.545895315469626 
-0.5179874770119743 
2.547034016501026 
1.611592395523746 
0.3331597421987557 
0.8557875841686625 
1.265030907387912 
-0.8795763054634663 
0.1121466871518922 
1.084356106939845 
-3.057699927359286 
-0.7064721548408023 
-0.8767456716637617 
-0.3046409482201503 
-0.3832273188399747 
-0.784988671370815 
-0.4793623441116187 
0.5272356856982204 
-0.2545079595135784 
-0.06418639698801862 
-3.193856536566079 
-1.592046634152477 
-1.149281712193668 
-0.777432150310868 
-1.232367794535393 
0.3549065267120221 
-0.1533351036343244 
-1.134150496182484 
-0.6523605979144936 
-0.6556078549901674 
-2.463025434587139 
1.235559089861508 
-0.4177871183689687 
-0.2046982493667418 
-0.03460869254787032 
-0.4177871183689687 
0.5902758230406995 
-0.4177871183689687 
-1.349292617767622 
0.3103655671255529 
-3.469446951953614e-18 
0.2382008783137024 
1.025076028964387 
0.1624610072954774 
-0.8383610777906955 
-2.006308553054433 
4.365937525936907 
0.7902560948393906 
-0.03962396512449122 
3.794441726957704 
-0.6517558778954224 
0.5500801419636669 
-2.250810577327671 
1.073813651755862 
-1.090798753948619 
-0.7921417806903668 
2.403984003884401 
-0.3785636029120317 
-1.750785701365046 
-0.7241812445070615 
2.182018849518769 
2.923948163155325 
-1.560312980488587 
-1.384554520702477 
-0.7241812445070615 
-1.285451096208976 
0.2218014191118044 
0 
1.193129007577098 
-0.2252448501024787 
-0.5130555406110305 
-7.012531028947903 
-0.6104855924594339 
-0.5518878912884074 
-0.6104855924594339 
1.822085033114592 
-4.035940375545447 
2.137486135208114 
2.853398903693178 
-1.688584095602164 
0.3270030201574163 
-0.06117778484244015 
-0.1109928970193329 
-1.213421195782111 
-1.335892903881895 
-1.335892903881895 
-0.5461849195133061 
0.3920974764016564 
0.0569045011965582 
2.148908269807365 
-0.8176470075591232 
1.509907808944951 
0.8286174148342929 
-0.3179246883771858 
-0.3179246883771858 
-0.3179246883771858 
-0.3179246883771858 
-0.3179246883771858 
3.047844677643888 
2.037078779208304 
-1.445892228436953 
-0.8102076449867462 
-1.271595377887473 
-1.196736198675237 
-0.8736422676057102 
-0.7416270927274689 
3.17618643844639 
-0.2505660156764741 
-1.528133236365372 
-0.455465871197785 
-0.8755995520886808 
-0.8755995520886808 
4.490732625968771 
1.483222680872325 
-1.251598468530505 
3.5623320140569 
-1.741537007009885 
0 
-1.323258402897647 
-1.773813970315429 
-2.841036387606268 
6.483404472627006 
-0.7385257140484712 
1.158536581854805 
3.253949764138988 
-2.119254933194235 
-0.4152878659910803 
-0.4250678367870624 
0.4565320958802939 
-1.437321174611955 
-0.3693464565951342 
0.3655806855779213 
-2.397282869154731 
0.3493846935741289 
-0.9784221674707269 
-0.4395571953175869 
0.8042933598569061 
-0.5092127947588244 
-0.896798048859186 
-0.896798048859186 
-0.896798048859186 
-0.896798048859186 
1.276723944934486 
2.885190530015854 
-0.9737099677886959 
-1.480221793841964 
-2.083884659716208 
1.152041340617133 
1.053494432367033 
-1.29500352982948 
-1.052326051570097 
-1.082028850913845 
-1.770875943011742 
5.550236314549056 
-0.7698949913959041 
1.508826225820595 
-0.3653688396036996 
-0.6609347671410981 
-0.6609347671410981 
11.60135399513062 
0.6255111756269144 
-0.3180487027021721 
-1.062175126910165 
0.4736451481111826 
-0.7255369974391106 
-0.0695015199209066 
-0.7255369974391106 
-0.3919542951658915 
-0.6636934326655668 
0.8176013647170269 
-0.2251620078008393 
0.7370173204314998 
0.6045711025234471 
-1.027367327294706 
-1.60081501501928 
-0.3141191514063023 
-2.193148022650357 
0.8451272691969454 
0.2253816814228813 
1.047297540738907 
-0.3477105879141086 
-0.3477105879141086 
0.4524295250424885 
-0.04208102025696478 
-0.5471023042552973 
-1.172317285297807 
-1.58691770862108 
-1.033687145722198 
-1.970478614738643 
-0.4916196094213575 
-0.7280965269014574 
-1.672705951128522 
-1.951386500340901 
-0.7149983519259328 
-1.043455964489731 
-1.043455964489731 
-2.754602970435211 
-0.6000764132321973 
-1.007029986295945 
-4.428708266992841 
-0.3291209799072811 
0.2447003850393422 
-0.633701746463095 
-0.4098903196976056 
-0.4098903196976056 
2.230967362394999 
-0.7682913649268728 
-1.578893304353145 
0.2988960733780369 
-1.664163335540988 
-2.100325357536134 
-1.355408940264649 
4.292247346850882 
1.037513601422718 
-0.9672001530464075 
-0.9672001530464075 
-1.911721157206589 
1.019757139665073 
-1.297121146167175 
2.588890380889762 
-0.8399806049087024 
-2.17471145039428 
-0.7792867607846303 
-1.018439538396408 
-1.018439538396408 
-1.509330345689872 
-0.3543209234858283 
-0.3543209234858283 
4.198454006815872 
-2.001598184306036 
0.1205469627554192 
1.316016038424964 
-3.887241162421708 
0.1641979122930525 
-1.287363578610729 
-1.658580458358532 
0.9900450101420792 
-1.943979642624543 
-0.4399621342961293 
0.630058303592854 
-0.1398775968895218 
-0.04873846403045943 
0.2538535293492086 
-0.5417270550901019 
-0.5417270550901019 
-0.5417270550901019 
-0.5417270550901019 
-0.5417270550901019 
4.195687543168185 
-0.6427912019444992 
-1.507023391534292 
-1.569856871122215 
0.02528654903492664 
-0.5253503235960155 
-0.5253503235960155 
-0.5253503235960155 
1.256201754689825 
1.201552811273237 
0.7143790539317357 
-2.576340157748578 
-1.460919668145551 
-0.6162934746490435 
-0.5296084424384419 
1.253333565117262 
-4.019215573340198 
-0.331002031765025 
0.3082561542997783 
-0.8017577442201986 
1.782204003359745 
0 
-1.653423881397419 
-0.4364594179886086 
-0.4364594179886086 
-0.1605307329355929 
-0.4521998649192408 
-0.4364594179886086 
-0.4364594179886086 
-3.233247505794721 
-1.092507370779878 
0.232221220318919 
0.09545959844842884 
-1.72646143490771 
-0.6539492252508495 
-1.607392628118988 
3.373904745161754 
-1.108116785563732 
0.4840895479105801 
-1.392177269653444 
-0.7048111212089425 
-0.577222559379317 
2.009288367495053 
-0.9764408287631148 
0.920322657048724 
-0.9764408287631148 
-0.1343637119697162 
-1.321740992288364 
3.027379007312295 
1.147640104046163 
0.3761314626295681 
-0.3861256123213407 
-2.775557561562891e-17 
-0.8638711267033891 
-0.4922681628795154 
-1.116544816512452 
-1.786584460488698 
1.987942747877317 
-0.2186840696052412 
-1.836593678626063 
-0.2186840696052412 
-2.562040311669342 
-0.8693880116216041 
1.805166716073102 
-0.3310786579850032 
-1.110354676065033 
-2.054164983309946 
-0.7051699272627143 
-1.19584777141718 
-0.3253410624470865 
-0.6751897919002159 
-0.3614020987153334 
-0.3749143038519962 
-0.9209143746920192 
-2.231257598135976 
3.775818847499466 
-0.629901026976696 
1.711275903465785 
-1.339275654112264 
4.370922673075574 
-4.433172755893835 
-1.939530747124162 
-0.1330739412700387 
-2.710355828016775 
-3.750586735651049 
0.1056987305968134 
-0.7782606117445909 
-0.7782606117445909 
-3.022599961995732 
-0.7155907459290712 
-0.7155907459290712 
1.403628986236662 
0.6354517218233564 
-1.082086529593818 
-0.2263929149898406 
-0.8210155263770913 
-0.412130187875455 
-0.412130187875455 
-0.412130187875455 
-0.412130187875455 
-0.412130187875455 
0.7790520152831234 
-0.412130187875455 
-2.140612356112781 
-0.412130187875455 
-0.412130187875455 
-4.347404872070241 
-0.4057960315443042 
1.586601269818166 
-1.142447999608995 
-1.569787754167187 
-0.6077845504072297 
-1.516050823714743 
-0.3036200349137817 
-1.847154396891816 
0.4113821366020367 
-0.7050492287637266 
-3.328600567538927 
-1.596799513906033 
-0.3777439386583236 
-0.2077377780977625 
-1.065399641741929 
0.2228092169910547 
-0.4658566820997517 
-1.781859926105885 
-0.6273118380287594 
-0.6643566824536744 
-2.09935891582856 
-0.5709725069584564 
-0.04793700959127785 
0.9073707863509191 
0.8592686706106516 
1.895119488902733 
2.493718826952358 
-0.0041391973971885 
-0.5331640313804804 
0.2350059272648335 
-3.251368936592812 
2.226696392134317 
-2.006824560099469 
1.311905871758128 
-1.329283427910654 
-0.6309264282920524 
-0.518368066257209 
-2.11872367028219 
-2.571080976215695 
0.07442251834116979 
-0.4856033065613138 
-1.240459510312315 
-3.541632958095782 
1.223072648077659 
-0.5954472489589984 
-1.698492419651326 
-2.804304063740832 
-3.241447262694738 
-1.923494945193846 
0.4217064358621587 
-0.02654925305714702 
-1.36348149168636 
1.16975631677837 
-2.91282963613924 
-1.729000148568828 
-1.359099741085547 
0.9345041323799241 
0.4795119922778054 
-0.6795498705427736 
-0.6795498705427736 
-0.6795498705427736 
-0.6795498705427736 
-0.6795498705427736 
-0.6740929119996658 
2.266423585163667 
-0.6740929119996658 
-0.6740929119996658 
3.122491790060385 
-0.6740929119996658 
-0.6531990159855338 
3.883467701251349 
-1.930671551337858 
-0.4889781220073126 
-0.4160473139681354 
-0.2675837721833372 
-0.2384694736433957 
-0.8084945343998686 
-0.8616039908172131 
-0.858366397553886 
2.255958448794855 
-0.4071572398141068 
-1.611618182366534 
0.2098657052944714 
-0.4945622843383981 
-1.126781549659643 
-0.4876678507049582 
-0.0627017243482018 
-0.4876678507049582 
-1.351120254128946 
0 
0.8118540871175915 
-1.115652406400569 
0.9966329902199647 
0 
0 
-0.4237392304062266 
-0.4237392304062266 
-0.608344898678307 
4.656105644930722 
0.2822760486199823 
0.5789719218044388 
-0.3934540704858523 
0.4308394680847357 
-1.403936076579451 
-0.4821344318493465 
-0.1403121073583588 
-0.6903837779201966 
0.02197251161135163 
-0.4361660973091835 
0.06506042397856 
-0.8757508315588501 
2.693252085611072 
3.569070429545405 
1.161683205961337 
-0.8187599142362677 
-0.2829981852662325 
-0.2829981852662325 
1.457966490239058 
-0.7177126252934877 
-1.471884124053475 
0.6162954304200872 
-0.2829981852662325 
3.987028236567629 
-2.854982855015971 
-3.111910936391239 
-1.387778780781446e-17 
1.277259945117641 
-2.007459199192555 
-0.460926161489621 
-0.1415879320056858 
-0.1415879320056858 
-1.72079940476362 
-0.6268523216229334 
-0.1415879320056858 
1.489870402597655 
-0.3427419588249409 
-0.3427419588249409 
0.0003695325048378159 
-0.6264692903090816 
0.4067014282925375 
-1.713622090907319 
-0.06812915976702508 
-0.9060902602636032 
-2.031580172982778 
1.578703802527704 
-0.8701559794266203 
-0.1507280254068454 
-3.072442442534788 
-1.382112943575038 
-0.06773834043193036 
0.5285774102204874 
-0.1748653468538807 
-0.1748653468538807 
-0.530762424140384 
0.4355863451680064 
-1.238699248234258 
-1.32726686228462 
-1.172490675858838 
-2.787892308133721 
2.864440344005254 
-0.3697835485415354 
10.18513604398615 
-1.631214671751079 
0.09039218472798363 
-0.6613226574531618 
-0.3306613287265809 
-2.269033380984768 
-0.3306613287265809 
-0.5663023207820305 
-1.423778814386878 
-0.3866398344629065 
-0.3866398344629065 
-0.3866398344629065 
-0.3866398344629065 
0.1202299003023864 
-0.2883355488709595 
-0.7502110460892055 
-1.492576854654264 
1.299798136745161 
1.373749255212906 
-0.7502110460892055 
-3.538978011112118 
-3.210582456167425 
-1.087733932522088 
-0.5040218640303308 
-1.494122290685915 
-1.76274120524113 
-0.5040218640303308 
3.43246570021889 
-0.04660968023362431 
0.5791867545672084 
-1.029482144074743 
-0.5040218640303308 
-0.5040218640303308 
1.632727230081144 
0.2733943096868778 
0.9512872877896392 
0.5755765171603002 
-0.434856416340002 
-2.900773674597767 
-4.704957416655867 
-0.3424516981293604 
1.742501806571855 
-0.9472235792468773 
-0.9472235792468773 
-0.9472235792468773 
-0.9472235792468773 
2.920038994639683 
-2.119014345570303 
-0.4657722185526884 
-0.7621050202644619 
1.028089600022097 
-0.8147873838606378 
-6.63034298674839 
-0.2268714990986489 
-0.2268714990986489 
-0.2268714990986489 
-0.2268714990986489 
-2.448490960428993 
-0.2268714990986489 
-0.3233818094921815 
-0.2268714990986489 
-0.04902156326785027 
-0.5228930002499463 
-0.2614465001249734 
-0.2614465001249734 
2.476351179935462 
-2.449923603243717 
-1.314225762933508 
-0.5648277612402787 
0.6766541511843791 
-0.8514149285691781 
1.956482976353067 
-0.8514149285691781 
-1.84118140117491 
-0.6864220606906533 
-0.6864220606906533 
1.216535646349861 
1.438655969719151 
0.3051696523772287 
-0.2712999660171442 
-0.2712999660171442 
-0.6111759405176949 
-1.181440395147022 
-0.2712999660171442 
-1.278876049857326 
1.432633207333851 
-0.7196030742891258 
-1.175126047822161 
-0.05418164991577044 
-0.8119970100111554 
-0.3015465758941421 
-0.5818924626961123 
2.057628978853826 
-0.5965482821118941 
-0.3015465758941421 
-0.4107229409936065 
-0.490129668850904 
-2.648586206905338 
-0.1022373011391315 
-0.4026513569816781 
-0.4026513569816781 
-0.6678114993012416 
-0.1320151748782411 
-0.7015983930760066 
-0.8519466136139919 
-1.389188302724775 
-0.7134215151093994 
-0.6656114920228995 
-1.614939287410215 
-0.708611470023265 
-1.202411815641598 
-3.809937281332991 
-0.3445669252477572 
-0.3445669252477572 
1.011867088262704 
3.107768249206567 
-0.6567925770079471 
-0.8350161064293381 
-0.6919521903195973 
-1.868321395731333 
-0.6919521903195973 
-0.1953760219744329 
-1.28445314328856 
-0.6768444471603193 
-0.7289753742696403 
0.9216122283901726 
0.851101064255291 
-2.355154158282532 
-1.897569031040279 
1.005268352550215 
0.702555653304771 
-4.261703848459523 
-0.8234271107694376 
-0.8234271107694376 
-0.8234271107694376 
-2.851142183250436 
-0.1677061079571459 
0.7816126170766446 
-3.984124010497599 
0.3296068385036868 
-2.851877570700526 
-0.1270741889290085 
7.036088869518396 
-0.6750097569858254 
-0.1158368102042697 
-1.534887182554391 
-0.6750097569858254 
-1.043142785976586 
0.3998443668756731 
2.742665975720222 
-0.8310091518704883 
0.557387522355836 
-1.806789682981476 
2.439842399346735 
-1.597353148381982 
-1.494491626732826 
1.264489805347408 
-0.9239010499275958 
-1.949371676478619 
0.5129563713460477 
-1.372967495051816 
-1.213102107711829 
-0.3885058842904315 
-0.4837842862493639 
0.3682570032639787 
-0.5631562943850829 
-0.3885058842904315 
-0.3885058842904315 
-0.3885058842904315 
-0.2359741457657805 
-0.2359741457657805 
0.05575039504107119 
-0.2359741457657805 
-0.2359741457657805 
0.7005596782737534 
0.6139240478642143 
-0.5174395100900766 
0.03624334266658641 
-0.9051125188532593 
-1.272084406644064 
-1.792442915062975 
-0.6056180705029246 
-1.272084406644064 
-1.065451527994233 
-1.582972095036636 
-2.218725059553087 
-1.39422156900521 
-1.066931885999738 
-2.174306486744419 
-1.345119847099975 
0 
2.281525051464122 
-0.8835117339195155 
0.6091864138227907 
-0.19816552589456 
-0.6404532386880188 
-1.686155478886261 
-0.3757845527190281 
-0.6479082115931138 
1.283277548695748 
-1.184839091114491 
-0.8296812156392785 
-0.8296812156392785 
-0.8296812156392785 
-0.8296812156392785 
-0.8296812156392785 
-1.72519963757516 
-0.3962982101573098 
-1.188894630471929 
-1.196924081864555 
1.915628492870374 
2.561563200266445 
0.4851183095833485 
-0.0748073668190927 
-0.5243636055784526 
-1.007482438931093 
1.100989943543676 
-0.6560249044557016 
0.5188982446500666 
-1.747132322747692 
0.8534032076914158 
0.8489914147674829 
-1.782726021741259 
-0.4946403804667957 
-1.323702485782726 
0.2544795498096764 
-1.2386893695749 
0.7510852500707692 
-1.197388263960586 
-0.6267984633960204 
0.188875603151466 
-0.5276309168060255 
-1.445132761032423 
0.06183183184494183 
-0.2606600929734015 
-0.5091994604104151 
-0.2606600929734015 
-0.2285056348916237 
0.06446147012187603 
2.209545327784322 
-0.6352186621600709 
-0.6352186621600709 
0.4577355472781979 
-0.7695326108646491 
-4.323649200259664 
-0.3702869446890247 
-0.3702869446890247 
-0.3702869446890247 
-0.3702869446890247 
-0.3702869446890247 
0.6266885962251599 
0.4502393243278744 
-0.3949080119973795 
-0.3702869446890247 
-0.3702869446890247 
-2.489947520982789 
-1.951034505312543 
0.03788656919191947 
-0.7111692198490024 
2.924007728546938 
-0.02940644787563177 
-2.626864248820854 
0.7691275283759235 
3.054956944109197 
-1.455547522405716 
-2.910674503792592 
1.19122595705491 
-0.4551764271491877 
1.02968642833814 
-0.4551764271491877 
-1.078999768326176 
1.041768780533138 
-0.8270553179942227 
-0.8270553179942227 
0.1416511786443855 
-1.27661943733409 
-0.2229685169561659 
-0.2229685169561659 
-0.2229685169561659 
1.017162198995429 
0.08183709605676197 
0.7654992911275331 
-2.126318414020436 
-0.4776123178532397 
-1.332114279563217 
-0.7928668461833034 
-0.03304591210184212 
0.8605984632019683 
0.9097843919230687 
1.44990412366272 
-0.6360305284168242 
-0.2445345461364641 
1.213838976887312 
-0.7370921581184376 
3.228885322835654 
0.04778937034531872 
-2.929732527264889 
-0.5161652152567539 
-0.5161652152567539 
-0.5161652152567539 
0.4857611456980148 
-0.3641228938160093 
1.231077469251506 
1.276175221687386 
-0.9821529304865074 
1.137679822298685 
-0.3442779262202122 
-0.3442779262202122 
-0.3442779262202122 
-0.3442779262202122 
-0.3442779262202122 
-1.040868048096722 
-0.7369806366606185 
-1.718702442462519 
-0.4762953087341828 
-0.984022489934671 
1.944115112915359 
0.1088886994987522 
-0.5767474162140663 
-0.4242787380848415 
2.001750563999329 
-0.4769541392214437 
-0.5767474162140663 
-2.362753398603041 
0 
0 
-1.109869970540546 
-0.7788585327086955 
-0.05020009485802032 
-0.5999066001687461 
-2.492250879547943 
-1.471497505211133 
-0.5999066001687461 
-0.5999066001687461 
-0.5999066001687461 
-0.9439413676722908 
-0.8939366240516582 
-0.5999066001687461 
-0.6695241539765262 
-1.346994117819554 
-0.9203151885324671 
-0.9203151885324671 
-0.264160706940097 
-1.212319974682729 
-1.502416058600735 
-0.264160706940097 
-3.916266352059585 
-1.925003233153581 
-0.7397798083004553 
0.5052604106591946 
2.423214292630161 
0.1893268175922438 
-1.263242480398061 
-0.8627245919576003 
-2.547495509997185 
0 
-0.70735957346526 
-1.233398392589896 
2.003663931877743 
-0.800587012562865 
0.9771355890052842 
-2.649231899915049 
-0.9015152824830562 
0.3515445882966817 
-0.9671891063040701 
0.4636889114397482 
2.353388485648986 
1.005547078066131 
-0.5340795947359432 
-0.5340795947359432 
-0.7997938405699896 
0.6386534136458771 
0.1440807162138242 
-1.861121692564125 
-0.2837573963432364 
2.268929479892481 
-0.283109448530811 
-1.458999198506177 
-0.7343470325038023 
-0.2919258578905995 
0.6395799054573005 
-0.7947231126677746 
1.087527060997366 
-2.26281174739688 
-0.8490300824239958 
1.68497595764724 
-1.819892235710328 
2.345704437860757 
-1.425081937124713 
-0.8007329059309588 
-5.589430609108962 
-1.228193918065853 
-0.9610233790666237 
-1.454440113107949 
-0.3023629671056642 
0 
-2.071716905060491 
-0.5086256121387348 
-1.268628500401112 
-1.356173601222748 
2.655806827692827 
-0.9739300405697631 
1.240275140340608 
-1.695897486889983 
2.775557561562891e-17 
2.775557561562891e-17 
2.775557561562891e-17 
2.775557561562891e-17 
2.775557561562891e-17 
-4.166636775035514 
-6.413567070176271 
0.2407666038055411 
2.775557561562891e-17 
-0.7575752003161226 
-0.7575752003161226 
2.357304610202015 
2.103193855183393 
-1.083468090680193 
-0.7653613096194991 
-1.215861495733316 
-1.609975373699217 
-0.8110016598441643 
-0.8110016598441643 
-0.9234570987537171 
-0.9234570987537171 
2.645348817738477 
-0.6089810345391455 
-0.9772486175160313 
0.6762023333256494 
0.4387590816029671 
0.115541888793193 
-0.9505589278671417 
-0.9505589278671417 
-0.4893321350953662 
1.362534072897282 
-0.2884685556109416 
0.3263612598184614 
-1.03200001605946 
-0.802035554463677 
-0.1445645672930893 
0.6826049837974442 
4.387018660150252 
-2.323037741793336 
-1.083791439461286 
0.05753278618165763 
-0.5534858209547345 
-0.5875837471140891 
0.8538274088388619 
-5.211549584670795 
1.864615835746326 
3.473493976654387 
-0.7347854587777432 
-1.613649895510576 
-0.5337502658542439 
-5.318095186509186 
-0.2783603321238589 
-0.08080020102632589 
2.898553587548867 
-0.2820165628920931 
0.2877257299177118 
-0.06340022089405264 
-0.2820165628920931 
-2.590925380765067 
-2.206961914832104 
-0.3531193550509775 
-0.7880641234276633 
1.17946072068571 
0.8892050110818235 
-0.7880641234276633 
-1.404990219162751 
-1.108990483327023 
-0.5336783626917254 
-0.4079029530874377 
2.366152837520495 
-0.08720566842630767 
-0.5405335326200809 
-0.5405335326200809 
2.548735737027287 
0.9671444518691187 
-0.3789717009362898 
-1.091138581507725 
0.91777322209593 
-2.374407982182594 
-0.5089122076243806 
-1.309619085287265 
0.5252430155663307 
1.340107090616444 
-1.700333295784655 
-0.7353325263400283 
-0.3801026018404572 
-0.8656727119973658 
-0.7353325263400283 
-0.5925588376159087 
-0.8203873881043536 
-1.429043159797029 
-0.9112032638317776 
-0.5785711789944901 
1.353875034555258 
1.160098790379193 
-0.4538004001537229 
1.165828513924408 
-2.016810219847028 
-2.359444532505873 
-0.9130585500229971 
-0.782329779037901 
-0.9130585500229971 
-0.9130585500229971 
-0.9130585500229971 
-1.549700106408203 
-0.4344565186082496 
-1.456904149136581 
-1.969210110292214 
1.207066429283248 
1.340010382054531 
-1.475717212486716 
0.6123165188045978 
-1.623525068501616 
-1.303936592488806 
-2.497533211497142 
-0.6153669074525648 
-1.318986595302678 
1.108554197456774 
-1.889039818888551 
0.09006030910952842 
-0.5216586819055072 
-0.5231417118144777 
1.64179971310864 
0.1452693058964357 
-0.0831682946848169 
-0.1990931106838221 
3.118274934116231 
-2.224420757842116 
1.795797031257239 
-1.097019270773431 
-2.224420757842116 
-0.7398185218100576 
-0.4621021219013938 
1.868312253796769 
-0.4621021219013938 
-1.107935581829663 
-0.4621021219013938 
-0.4621021219013938 
-2.108624181909498 
4.035497520445292 
-1.939428399070911 
-0.006780430893414994 
0.3790960792763002 
-2.479216436114402 
-0.7708480830625373 
-1.010039154527494 
-1.259769140425374 
-0.7906877158857688 
-0.7906877158857689 
-0.4823280595252804 
-0.8118412139967623 
-0.08092247655571133 
-0.3514434731835632 
-1.336512815843321 
0.08710700250345804 
-0.3514434731835632 
0.2917105054408693 
-0.3514434731835632 
-3.09606925596972 
0.8249411408455946 
-0.0800901181600305 
0.4853160144080619 
-0.5529654141441916 
-0.5529654141441916 
-0.5529654141441916 
-0.5529654141441916 
-0.5529654141441916 
-0.5529654141441916 
-0.5529654141441916 
1.777978591196638 
-3.365496207784127 
1.514967499786557 
-1.433827250044018 
0.9576844365343461 
0.6893388592935655 
1.81582034696103 
-0.7102566028250296 
-1.317191619643101 
-0.4629064196024083 
-3.790342520372745 
-0.2860110970030176 
-0.2366710033094038 
-1.30326978167962 
0.439159279162239 
-1.214040410367667 
-2.219893285312664 
3.918808305596418 
-0.4486930035741162 
-0.07531767007283416 
-0.2802911687035591 
-2.162257061811954 
-1.022361016453396 
-2.294222333231819 
-1.314515242331457 
-0.3785096354648512 
-0.3686626493747535 
-0.3785096354648512 
-0.3785096354648512 
-0.3785096354648512 
0.4877172639564746 
-0.3785096354648512 
-1.519683685220929 
-0.7882416363405835 
-1.644660382616728 
-2.992420467297448 
-3.846179015487678 
0.3669643303606479 
-1.472838822722078 
1.567250699515752 
2.286134821790889 
0.1913189180667291 
-2.153604648267232 
-0.8795115511774211 
2.743503369481243 
0.548012397907615 
4.098035675042206 
2.078008855254766 
-0.08154872927332796 
0.5204681928054817 
-0.1408772411396626 
-0.1408772411396626 
-0.1408772411396626 
-0.1408772411396626 
-0.1408772411396626 
-1.316097719392572 
-1.314631701413715 
-1.314631701413715 
-0.3882762659096147 
0.4585949743895074 
-0.1629255092899263 
-0.1629255092899263 
-0.1629255092899263 
-1.962754624495295 
0.544381448446391 
-2.260746626175107 
-0.8222209708776361 
-1.245882707227115 
-0.5740070771406608 
-0.01707138938963996 
-1.331392844114986 
-1.392609183262752 
-0.3331968957417821 
0.5093791607637299 
-0.3331968957417821 
1.000991387758993 
-0.6874901253428841 
-2.386188303400304 
-0.9693820149079412 
-0.6253096113749653 
-0.2501648282062266 
-1.416780365535924 
-0.9682237417145043 
1.135565269808025 
-0.3113494333075991 
-0.3113494333075991 
-0.1904632884251869 
0.6029025458901497 
-2.159043662219797 
-0.5790952961442277 
-1.067610343228032 
-0.4104315855057198 
-0.6611831942698094 
-0.7861922532326476 
-1.100797940680041 
-0.04277574232764464 
-0.5115498046566096 
-0.5115498046566096 
-0.5115498046566096 
0.5580743530225633 
-3.729772787617347 
1.15297486332879 
-2.445468113791094 
-0.7260567690104551 
-0.7260567690104551 
0.9920990740324858 
-2.008392778729164 
-1.314246627236339 
-3.01592513022124 
0.5540285485871558 
-1.396780129147775 
-3.331731306121081 
-0.1062084736572251 
-0.5585192471697343 
1.400491046821667 
-0.06567944816576399 
-1.120188982791228 
0.8559530123728369 
0.07084688515039864 
-0.5785836014863617 
-2.160412453464424 
1.40118997159249 
-3.0853390931211 
0.9249783025509744 
-0.4585418283873045 
-0.1248422337379394 
-2.676833850562864 
4.355712146155924 
7.91519449355614 
0.05798879761693201 
-2.848415269832149 
-0.2334102511748153 
0.5964015132941671 
-0.2334102511748153 
-0.2356409920554496 
-2.814344497019816 
-0.2356409920554496 
-0.2356409920554496 
-0.6126468915283794 
-1.057739837945665 
-0.2356409920554496 
-0.2356409920554496 
-0.2356409920554496 
-1.321039351178206 
-2.443965090715291 
-0.08795508706854815 
0.7747592773170886 
-0.8075134264079118 
-2.598042759820187 
-3.583972787271453 
-1.152429638155193 
-1.965067914089141 
-1.387517729600702 
-2.317075397747859 
-0.3121220101003458 
1.621173777619817 
1.137098869939781 
0.9513615962446971 
-0.7964409839662887 
-0.8150851540404193 
-1.290097608390854 
0.2471852478058187 
1.89825428571924 
-2.595882808283786 
-1.194633923393126 
-0.7909047052854372 
-0.3964161508143191 
-0.278832176875633 
-1.039043745247791 
-0.3706937546572609 
-2.506814959120725 
1.689922441264703 
0.09453417982712181 
-1.635234745557371 
-0.2676318828910353 
-0.8315827195662138 
-0.9321625526188198 
0.1267153548386839 
-0.1670498831709762 
-3.989121415042089 
0 
-1.649403791722594 
2.279952169147279 
-2.380579308820317 
-0.2379112869615273 
0.7577016324068152 
-2.276811357228526 
0.5211353604309839 
-0.3620444536071233 
2.360349824115669 
-0.102144126562892 
-0.639610736242455 
0.5621005766540128 
-0.5466774115452595 
-0.5005509668966257 
-0.5005509668966257 
-0.9663851709421443 
0.2537538184632684 
-0.5005509668966257 
-0.5005509668966257 
-0.5005509668966257 
-0.5005509668966257 
1.000007029680801 
1.401203461405688 
-0.5005509668966257 
-0.5005509668966257 
-0.5005509668966257 
0.3632989507959661 
-2.276931485807334 
-0.192554522092613 
-0.8478713084148721 
-1.281300149098664 
-0.08368793700391293 
-0.6804919275692815 
1.90576227418555 
0.7564357872905914 
0.5240608281208275 
-2.68581714548467 
-0.6023825172091649 
-0.4255659271451303 
-0.6023825172091649 
-0.6023825172091649 
-0.6023825172091649 
-1.558171062474425 
-0.7673463433912266 
-2.136883684584875 
-0.3118856044829262 
-4.530036825459319 
-0.3118856044829262 
-0.2248824037095396 
-0.3595100646190564 
-1.041421968394425 
-3.347939717648355 
-2.504142112305437 
-0.5261297274138007 
0.05349677519013205 
0.2210170470988307 
-0.2482088625186452 
0.5007688901590954 
-0.5261297274138007 
-0.3084536945006848 
-0.210038865519541 
-0.247773202959826 
-1.978572744921638 
1.271046628290675 
5.943145516949555 
1.148618000819536 
-1.184788479427072 
-0.8593357044194289 
-1.923958024338076 
-5.033576037868336 
1.116970698305752 
-2.927724868190827 
1.86803894471803 
1.008556745736946 
-0.9883913475553173 
-1.550908962340936 
-1.08393535185552 
1.031004821285884 
-0.5167863679726439 
-1.452600542903181 
-0.2379677920880262 
-0.1858821695931786 
-2.412990438313381 
-0.2331693703850234 
1.502081807173962 
-0.2331693703850234 
-1.28205862055111 
1.628366465770505 
-2.34658907699344 
-0.3312952204530283 
0.2056373170382376 
-0.3312952204530283 
-1.381047434066929 
0.9159395866024539 
-1.788285919820238 
-1.654271038128715 
-1.096658250027491 
1.960656883125365 
-1.020771528264327 
-0.4604395589057353 
1.19515997298767 
-0.4604395589057353 
-0.4604395589057353 
-0.4604395589057353 
-1.168549130528068 
0.0936087828502995 
-0.4604395589057353 
1.437573388832419 
-0.4604395589057353 
-1.369868337341816 
0.2287153230514734 
-1.284072148467034 
-0.3431080744788703 
2.775563947491408 
-0.2900709400895419 
-0.3431080744788703 
-0.4069602875577306 
-2.369412631945163 
-0.7874998621824293 
-0.3826005607442152 
-0.123547550521505 
-0.9400579499110046 
-0.09384910514665655 
-0.3071578924320175 
-0.3071578924320175 
-0.3071578924320175 
-0.3071578924320175 
-0.3071578924320175 
-0.03157156064136332 
-0.806163166628674 
-1.751655658203092 
-0.6632188344917155 
-0.6600803672225131 
-0.5511745435965378 
0.1219975197897706 
-0.4180346185889682 
-0.4180346185889682 
-1.636947982492205 
0.6349425466871379 
-0.6314987066811304 
-0.08448917661506294 
1.035491449868832 
0.3109565448395872 
-0.7042182821236572 
-0.7945303156750316 
-0.352109141061829 
-0.352109141061829 
-0.817169283004528 
-0.817169283004528 
-1.707098157062806 
-0.817169283004528 
-1.532973836945033 
-1.049703736624546 
1.966969944093608 
1.263937076062947 
-1.113245843907252 
0 
-0.2826639783670571 
-0.9661841520749184 
-1.85989830896952 
-1.765913594298251 
-0.6478860160546555 
-3.868691011054874 
1.074442856127868 
-0.1289677900070005 
-0.5674615373505627 
-2.170741752255217 
0.1479801519193287 
-3.097622974596238 
-0.1798105657740888 
-0.1798105657740888 
-0.3146827664247759 
-0.6179098544110555 
-0.4870028858877871 
-1.554085380056783 
0.8674970402353909 
-0.6620339161986096 
0.5332799511775534 
0.9747167987294517 
-0.4225148558430848 
-0.6257946682710196 
-0.3524775916351814 
0.3066263786985832 
0.3157451921033047 
-0.505520360656264 
-0.2376537411128048 
-0.5197566601837065 
2.446508218258326 
-1.944435350937074 
-3.774796607999267 
-3.157588837112366 
0.8352311544266626 
0.4161082468513927 
-3.039725011686452 
1.602830070186963 
0.2124217763538152 
0.2629574619400787 
-2.17238621805831 
-1.809769326129981 
-0.5575706684909779 
-1.198451972869029 
-0.5575706684909779 
-0.5575706684909779 
0.213603709737735 
-2.237638022485229 
0.4824925786092374 
-0.8422506079562391 
-1.393623960143213 
-0.613836291683814 
-1.366881893939926 
4.046839379299223 
3.722772089185042 
1.283919713120087 
-0.2904034324956948 
-2.153667732367418 
-1.288699347567391 
-0.3057087759121918 
-0.4748152814957637 
-0.09293224403124448 
-0.8014189317638436 
0.9499454372046651 
0.122197935493398 
-3.457265492131879 
-1.78637862418913 
-0.5110368571931283 
1.582022630960626 
-1.264263857257416 
-1.16074959331243 
-0.7272576423468021 
-0.06791470338997897 
-0.05468124483501843 
-1.926545616661416 
-0.3733436237219681 
-1.169501438930433 
-0.5123293428287791 
-0.532886886914215 
-0.5924144361999345 
-0.5924144361999345 
0.08432868429701927 
-3.46424268096099 
-2.538036010657624 
-2.199182581021111 
-0.9769402179524503 
-0.08004819453654766 
-0.2350293472232819 
-1.887929019448268 
-0.6929523231624787 
-0.6929523231624787 
-0.03258540873540818 
0.2896872241800028 
-1.943375096054999 
-1.036135591239538 
0.5628157213233204 
-0.5118132770050449 
0.4254301557815797 
1.92167475845748 
-0.5118132770050449 
-0.5118132770050449 
-2.411252987225821 
2.020065500689946 
-0.1806346474703198 
-0.8852996425506263 
-0.8852996425506263 
-0.8852996425506263 
-0.8852996425506263 
-4.335884244229365 
1.720992200129949 
-0.4973099516126813 
1.548532764520465 
-1.093134600263983 
-0.3204817006302263 
-0.3204817006302263 
-1.867332592194448 
-1.333837161085634 
-0.6454055600416277 
-0.6454055600416277 
-0.6454055600416277 
1.352844141313039 
-0.6454055600416277 
-0.1903493559432814 
-0.7616594492246375 
-0.9327489519840458 
-2.553083580702361 
0.6614492941827801 
-0.531489263476671 
3.277430776941671 
-1.546593384505699 
-1.481048555822602 
-0.5939191951730359 
-0.09611712516374628 
-3.219664351812484 
0.08398175074937428 
-0.1726764676719924 
-0.4051389778807933 
-0.5459154164305027 
-0.08064930586254469 
0 
0 
-5.2134038489831 
0 
0 
0 
-0.7832832908589914 
-0.6985043233923043 
-1.327141756166657 
-1.327141756166657 
0.3273003858000389 
4.453677594338592 
4.927434162820592 
-0.4904954017321724 
-3.093306860639364 
1.153086871747906 
-10.69519336566928 
-1.562440307073713 
-0.001989550332250989 
4.198489608955559 
-0.441762159325945 
-0.622850477654105 
-0.7425984427914719 
-0.9382296557079249 
-0.9382296557079249 
-0.9382296557079249 
8.022327001363109 
-1.918521179791276 
-0.9382296557079249 
-0.6270783234862842 
3.774870709027449 
0.1274666560502425 
-0.57491866178991 
-0.57491866178991 
-1.703751178338216 
0.2673693458272541 
-0.57491866178991 
-0.3038642456497272 
-0.57491866178991 
2.158072769120106 
2.737180382120592 
-4.560930028356965 
-0.2178991668871091 
1.145756275407202 
-1.159760676242412 
0.353391548702711 
-0.1891321000315356 
-1.062597164177454 
-0.5312985820887262 
-0.5312985820887262 
-0.5312985820887262 
1.181234190003617 
-0.8819106196382366 
-1.11928398144022 
-1.119733344974518 
-0.06098239455007656 
0.8420064011120967 
0.520804736472509 
-0.3916937945195008 
-0.3916937945195008 
-1.646351568799987 
-1.387067393070947 
-3.22831253264257 
-0.9637441809089464 
-2.87578057967809 
-0.5686574582348453 
-1.133168745090416 
0.6929400069361896 
-0.8916578322087324 
-1.277755260168344 
3.830119149109126 
-1.614061414429587 
-2.286996151990286 
-0.4801470712189053 
0.05299380724237053 
-2.693817598192657 
-2.578387728535017 
-0.8622204572490699 
1.610182078761957 
-0.3367377678693783 
-1.224958584396528 
-0.9066763797618173 
-1.080576733107327 
-0.4497193965526565 
-2.190675602583903 
1.330276300699974 
-0.8249944744872273 
-2.661462441403995 
-0.6815958113998662 
-0.03849609586711129 
-1.89689319762751 
-0.02243845911362974 
-0.5075566230220999 
-0.4873834255101246 
-0.4873834255101246 
0.04316185369585204 
-4.312291564449667 
-0.7907788609385119 
-0.1562032009079696 
-1.702948959168083 
-0.4985073243927211 
-0.8306297506602266 
1.934456388557358 
-0.7072661807391191 
-2.43210276440032 
0.1805568718742309 
-1.392436224223921 
1.025597981929591 
1.249134820063177 
-0.6473245681259993 
4.78269834328431 
-0.9426679059595152 
-1.239816044454701 
-1.08995196024626 
-0.8819973809955892 
-2.367630679371151 
-6.938893903907228e-18 
-0.281359714404756 
-0.4055801179781068 
1.40220640460244 
5.958476965258587 
-3.037588756431889 
-0.720512928132678 
-0.5796981036653968 
0.4226006084696896 
-0.6407007202696259 
-0.6936091882407801 
4.815258001073396 
-0.03660608811747487 
0.1659982655193866 
-0.6302004993018675 
-1.315578031965427 
-1.28672259326533 
0.4235226902209259 
-0.1397984600364766 
0.4979908886138057 
-0.06979600025115149 
-0.3712813300104781 
0.9499737269198727 
-0.5629492718466301 
0.2221573745662316 
-0.6489860365951862 
-0.6489860365951862 
1.359527024278897 
-1.689107394012501 
-1.517005296491992 
-2.360931051199467 
-0.2545325491562868 
-0.4768429669008399 
-1.327902860404303 
1.00206979180119 
-0.7036013073432513 
0.3331964356870895 
-0.2384214834504208 
-0.2384214834504208 
-0.3192315567440088 
-0.9578356617901371 
-1.863294347858129 
4.912614937356245 
-0.984298921192265 
-0.3199246120397275 
-0.3199246120397275 
-2.046925093240025 
0.182127255150618 
-0.3199246120397275 
-0.3199246120397275 
0.2301340973415608 
-0.3199246120397275 
-0.3199246120397275 
-0.2863667300133988 
-0.2863667300133988 
-0.2863667300133988 
-0.2863667300133988 
-0.2863667300133988 
0.6796982026686467 
-2.205932387251619 
-0.8937478119150545 
-0.5284381070350231 
-0.5284381070350231 
-1.940856888456747 
-1.467292753752673 
0.679856829549861 
0 
-0.8092793774972156 
-2.432862604110718 
-2.136418441919892 
0 
0.2198909520252323 
4.944035379880776 
-0.3770229200215151 
-7.975037287673899 
1.060239153049123 
1.672869520969194 
-1.567202130520634 
-0.01157007589995502 
1.551680060623024 
-0.01157007589995502 
0.6694758885196803 
-4.0377619347618 
-0.2359703067287819 
4.947710543205699 
2.785009670120324 
-0.9937950210372414 
2.199412739619315 
-2.049811538446729 
-1.526729056219307 
0.7957586608643046 
0.6942485631621949 
2.00404640467334 
-0.8042283897072666 
0.4224081041435321 
-1.264063024496916 
-0.2538697383081459 
-0.2538697383081459 
-2.617704552153471 
-1.776240890700866 
-1.235683174525729 
-1.941890587513505 
-0.4380282484709913 
-0.4380282484709913 
-0.2117798006248575 
-0.2117798006248575 
-0.7640738240854429 
0.4951206862969076 
-0.3979650711041434 
-0.3979650711041434 
-1.647982405866274 
-1.080111539675248 
-0.6598743378944893 
0.7897301163009189 
0.1555483654378131 
-0.6598743378944893 
-0.6598743378944893 
-0.7931153453095087 
-1.501406023579414 
0.07985381742039233 
0.0106578357755841 
-1.020643229622641 
-2.09123495038879 
-1.383258610183685 
-0.6088545545332047 
-1.462394614393691 
-1.361931335297123 
3.103458950767107 
-0.2380647341770103 
-0.3672679860788398 
-0.3672679860788398 
-0.3300004829453551 
-1.387778780781446e-17 
-0.6356640944601998 
-0.6356640944601998 
-0.6458337259383452 
0.5217137914406561 
1.25243661975316 
1.028668775983012 
0.6956987116009963 
0.920024636682411 
5.034044242424637 
-0.3223768538117626 
-2.935647898319191 
0.1410149453563971 
0.5998175191920596 
-0.6622184896447213 
5.390029241399649 
-3.572454730645168 
-1.328981714178034 
-0.6622184896447213 
0.1330002666885795 
-0.1565773259059856 
-0.1565773259059856 
-0.1565773259059856 
-0.1565773259059856 
-0.7819761351977158 
-0.7719439922377883 
-1.566724352328647 
-0.07783464949062929 
-0.5080506994577444 
-0.5555656163903102 
0 
0 
0.07114298805775546 
-1.018146298718736 
-0.9303069320295737 
-0.2526729645441544 
2.314365478632816 
-0.3864092982434512 
-0.2526729645441544 
-1.454174183682964 
-1.789073274453623 
-0.6544299428958628 
4.754023949991591 
-0.7694553495411525 
-0.6544299428958628 
-0.2433735308501005 
-0.534999246881428 
-0.5952596940390756 
-0.534999246881428 
-1.531262767972377 
-0.2011243692349307 
-0.674032995475504 
-1.647138385603956 
-0.6438071464093127 
-0.6438071464093127 
2.485960226006819 
0.3233657331156637 
-0.3548854658216767 
-0.3548854658216767 
-0.3548854658216767 
-3.803486105223756 
2.239460551737013 
-0.5268737788495551 
-1.295111139918331 
-0.6621166156779755 
-0.3772992571713881 
-0.8050868655429672 
-1.636633671392545 
-1.213566046079275 
-0.5422869583834643 
-0.2509958727860611 
0.0281575499115033 
-0.1993437705416081 
-1.125280699339557 
-0.7164010370434293 
-4.326144457518135 
1.387268556559481 
-2.991812096222616 
3.374333820657866 
-0.7275481710201722 
-1.851860376092539 
2.453797353445804 
-1.752956131444109 
-0.3416205816862553 
1.292281314469373 
-1.153665283983495 
-0.6444331138584437 
-0.01304241124379521 
-0.6444331138584437 
-1.581836260650172 
-0.6444331138584437 
2.417776848085357 
-0.6444331138584437 
-0.6444331138584437 
-0.6444331138584437 
-0.7109952963167065 
-0.1887008510680477 
1.260512714142747 
-1.796954860936347 
-0.9110004520839973 
0.1605135990073948 
0.2663991293578808 
1.097597004686314 
3.116841936842885 
-2.284409123230041 
0.4144870972822391 
0 
0 
-1.048345403739288 
0.9506000990211145 
0.0730880617891921 
-2.720412045299017 
0.4997477289622707 
-0.2204620694068966 
1.227805369763568 
-0.3429980207750268 
1.498405040156347 
-0.1296389061417716 
-1.008350375767167 
-1.012862008211577 
0.373147619605985 
-1.760022705252505 
-1.681771316993999 
-0.7104741809350582 
-0.3185544443629125 
0.9483555364582444 
1.236401464172525 
-2.283207636484235 
-1.728052316543757 
0.8694462318577286 
-1.970876121516173 
-1.625042304606031 
-1.116841507795893 
-2.133968142173698 
-0.8892002230011705 
-0.7620151470088952 
4.296331909274191 
-0.8892002230011705 
-1.272170949251897 
-0.3211473285506936 
-3.126880800121004 
-0.5928628368046996 
-0.5056258701185792 
-0.5056258701185792 
-0.5056258701185792 
-0.0002288181321550593 
-1.074968473681234 
0.5245635979029259 
-0.6393361081552187 
-1.126403601336474 
-1.916993403909693 
-0.6393361081552187 
-1.149792036396864 
-0.6393361081552187 
-0.8796316140473295 
-1.119657230993896 
-0.6709298149958923 
-0.2785975489687896 
-0.2785975489687896 
-0.2785975489687896 
-0.2785975489687896 
-0.5139139686426243 
-1.439782411130273 
-0.06190742201075937 
-0.97899343286647 
1.43071233467953 
0.4600455018277302 
1.075076254568558 
-0.1912784853009687 
-0.1912784853009687 
-0.6127717772086516 
-0.6127717772086516 
-0.7905674024823276 
-1.394549787319951 
-2.330088841378394 
-0.9942791332177326 
-0.7221855484784384 
-0.4738197230048988 
1.995110998779206 
0.3547759997315186 
0.1029847467573106 
-0.5952866201886743 
-2.411663242382631 
-0.861266480756253 
4.930360603630243 
-2.412162770144773 
-0.05992049420890802 
-0.05992049420890802 
-0.05992049420890802 
-0.8822530114853594 
-2.413742068512152 
0.8526757983129436 
-2.749718899362883 
-1.059457773543467 
-1.059457773543467 
-1.059457773543467 
-1.059457773543467 
0.6427071062205315 
0 
-0.465530044898468 
-0.6707147807408186 
-2.481474286923012 
-0.465530044898468 
-0.5939329985544461 
-0.5939329985544461 
-0.5939329985544461 
0.3176463771444981 
-0.7836623328676594 
-0.5208769115233977 
0.3457278275398806 
-0.06822607326385455 
0.4315778609917095 
-0.5208769115233977 
-0.5208769115233977 
-0.5208769115233977 
-0.5208769115233977 
-0.9086582892855828 
3.306619706962339 
-1.599208854252439 
-0.8794330746891368 
-0.925081072023595 
-0.3697402873920672 
-0.7738434101396446 
3.551169436754975 
-1.292548256987961 
-1.529866005060707 
-0.08127528340372728 
-0.7790247521913477 
2.22262091210659 
-1.333635806012383 
-1.816668037027503 
-0.97738410927735 
-0.06877054343572241 
1.604220700356926 
-0.5722097734755756 
0.2285227601842486 
-0.597407311017585 
-1.115725720497952 
-3.076711025791227 
-3.966061615271367 
-0.4210855945802377 
-0.9127023725781654 
0.01951380425435972 
-1.839504740632776 
-0.8713416569340136 
1.040834085586084e-17 
-2.299177313944448 
-0.3995438856960956 
1.598114068164661 
-0.3995438856960956 
-0.3995438856960956 
-0.9042738666255699 
-0.0327751024115557 
0.9110965706022834 
-2.082485275611511 
1.395079044033833 
1.85940672581264e-17 
-1.578510802881754 
-0.5582901266726596 
-0.3406945794360799 
-0.9629723454614467 
-0.9629723454614467 
-0.9629723454614467 
-0.9629723454614467 
-0.2179798746827298 
0.741653591740368 
-1.724264848169379 
0.03888012369785217 
-1.40931992498356 
-1.678780918904317 
4.45038926731264 
-0.668481392720121 
-0.8137056803690111 
0.9824359563842555 
1.281904078409386 
-0.4787178877141723 
3.52352743093611 
-1.818620573287346 
-0.1140026024375368 
0 
0 
0 
0.007305220934791484 
-2.441754562461639 
-0.6484529127704788 
-0.498372821509469 
-0.8933798322484536 
-1.357377348783187 
-0.5903385866885957 
-0.1281377335757774 
-1.805306826496047 
1.150796659850268 
-0.6972394510774984 
-1.314230413795811 
-0.06564186884789551 
-0.4019368271928347 
1.837051462401547 
0.07929603999401512 
-0.6934064677288495 
-0.6934064677288495 
-0.6934064677288495 
-0.254926961595752 
-0.254926961595752 
-0.254926961595752 
-1.381348972105236 
-2.637749065279976 
-1.900611821247135 
-0.254926961595752 
-0.3751559788194002 
-0.3751559788194002 
1.932349877230791 
-0.6177296175585213 
-2.043895376760229 
-1.583521470603851 
0 
-0.9572785171064843 
-2.082275691761617 
-1.660273490519645 
0.3193511274602879 
-1.132965225244032 
-2.322249148754816 
-0.4729893372998708 
0.3293808887205183 
-1.54994685077738 
-1.199621838027313 
-0.2857258050881237 
-1.017688769751137 
-2.357894807392816 
0.9936476556021897 
0.5525245693847621 
-1.127282084613847 
-1.859007396925916 
-1.859007396925916 
3.978267003115723 
-1.009602528071671 
1.175952003044155 
1.509263888444127 
0.4271427555336338 
-0.4748142766716439 
-0.6341829356408251 
-0.2070486856575081 
-0.2070486856575081 
-1.441475534139912 
-0.1308845863417174 
-0.1308845863417174 
-0.7158266505900482 
-2.093099153267202 
-0.3579133252950241 
-0.3579133252950241 
-0.3579133252950241 
-1.440146406578326 
-1.562755127695831 
-0.4474907378390186 
-8.330600532967448 
-1.339056226253771 
1.836412232682838 
-0.8223304578182106 
-0.8223304578182106 
-0.8223304578182106 
-0.8223304578182106 
4.210684354496887 
-0.09073333453813208 
-0.463773102922631 
-0.03638525892498502 
-2.513442895959678 
-0.1277802984633549 
-1.60972527705806 
-0.5505758240450923 
-0.3179010824672057 
-0.3179010824672057 
0.3118743003804154 
-0.3179010824672057 
-1.866622859442424 
0.1083624054192101 
-1.251608955688744 
-1.800827191635922 
-0.9140098032452476 
1.15119466619511 
-0.5906056606604501 
1.126746269268046 
-0.2828710339691123 
0.3361794842415971 
0 
0 
-0.3841291385414323 
0 
-1.183859125996767 
-0.3215879006474023 
0.2371798200164638 
-0.5981738136081679 
1.302993217993244 
-0.5733228826902633 
-0.578752125514407 
-0.06027426861441083 
3.172041331714407 
-0.5614286960996512 
-0.5614286960996512 
-0.4149242497290866 
0.008605299835821823 
0 
2.659429667703328 
-2.07732440602943 
0.646592140020676 
-0.1653122109075069 
-0.1653122109075069 
-0.493293625020912 
-1.076831023805447 
0.543972576009348 
-1.221132701123034 
-1.045843501256808 
-0.5322485038902626 
-0.5929633075541835 
2.147079174385441 
1.228592452011461 
1.119223562452555 
-0.936649420960074 
0.3719833072853163 
-2.215237054623081 
-0.9093639629171878 
-0.445665778321334 
-0.4622703590660088 
-0.5263308693340001 
2.113030331782061 
-0.4622703590660088 
-1.570295270266536 
2.606294115101214 
0.719741956571684 
0.4886909058437371 
1.788911626602342 
-1.918392335946085 
0.1881993599731273 
1.70925829214689 
-0.8863611437466785 
-0.6601861047458462 
-0.08908077633121451 
-0.6601861047458462 
0.7295183019267869 
-0.7064150710331648 
0.8077632900480615 
2.364862537946048 
-1.051050779355147 
-1.395686487677129 
-2.534563431625413 
-1.181629583888169 
0.5633867486535474 
-0.4050372926479404 
-0.8905937011723698 
-0.0500326010311053 
-0.530353723869782 
-0.0500326010311053 
-0.0500326010311053 
-1.215255646925104 
-1.215255646925104 
2.644854252851973 
-0.4255587187774745 
-0.2284097228200777 
1.425029462479441 
-1.212926819481735 
1.92275931170327 
-2.35289268405704 
3.483068414443322 
-0.6224509858710454 
-0.6224509858710454 
-0.1641929958243334 
-0.6224509858710454 
-2.56695410826024 
1.593559562376316 
-1.187693873805376 
-0.704489935584434 
-1.297684330792036 
-0.9214987533653506 
-0.7639319344238289 
0.0247425412615157 
3.524772845564748 
-0.2535705943471568 
-0.1497261316737218 
-2.400678354493616 
-0.6247901090082797 
-0.7511693652789215 
-2.665389284589687 
-0.3710094477696017 
-0.07922566716085916 
1.657768471922764 
-1.405627615580011 
0.5581242174974208 
-0.5078298287599954 
-1.571976686003482 
0.8310152002951772 
-0.5643007779751068 
0.9731121144488202 
-1.870277529078878 
0.381315507446751 
-1.955437805424609 
-0.5643007779751068 
-0.142237443099424 
-1.609984025701569 
0 
0 
0.9856411192259835 
-1.400566666117151 
0 
-0.02152804874296401 
-1.314692727840349 
-0.3796856424137585 
-0.3796856424137585 
-0.3796856424137585 
-0.7604945995803311 
-0.7604945995803311 
-1.64079681472006 
-2.322058785105289 
-0.1733021038197914 
-0.8121676150123628 
-0.08714713780123845 
-3.258351288607305 
-0.5825579544620194 
-3.537385816554365 
-4.134054610590978 
3.125136439376698 
-0.1733795218688908 
-0.5535714748428376 
-1.296915419302506 
-0.1926980369882581 
-0.4780881251625583 
-4.320444322124521 
1.576761645601586 
0.1192947555858312 
-1.355601562484404 
0.06741565703591797 
2.78841910752764 
0.7406849697164871 
-0.651553594596992 
-0.651553594596992 
-0.651553594596992 
-1.026374176968023 
-0.651553594596992 
0.07669874018204072 
-0.166918564716028 
-0.2855667659701721 
-0.4613877329007259 
-1.206506426462457 
0.7984584461945707 
-1.19258754035878 
-0.9250574613665161 
-0.07390109884548871 
-0.882228369557806 
-0.2718069014524791 
-0.2718069014524791 
-1.591199311475141 
-0.6815875570534352 
-0.8995751593583097 
-0.2718069014524791 
-0.2718069014524791 
-0.2718069014524791 
-0.2718069014524791 
0.1401531410856324 
5.352567101004615 
-4.483047953680019 
-1.253861124237035 
-0.1132787779872518 
-1.305632004616566 
-1.305632004616566 
-1.305632004616566 
-1.305632004616566 
6.473704167512312 
-0.2272086277486428 
2.069544316180861 
-0.643463584658386 
-0.643463584658386 
0.1352960627688673 
-2.79235274362344 
-0.0482467834880092 
-0.7442709069029114 
0.7371739667017805 
-3.614484907877642 
1.021724642169357 
-0.5415810150230277 
0.03563569055547237 
0 
0.08336177874786817 
-0.1509138567628975 
1.604103983596588 
-0.5005858162954231 
-0.5005858162954231 
-0.04954346327483565 
-0.04954346327483565 
-0.04954346327483565 
1.56449033888726 
-0.231693101710253 
4.780191158284606 
-0.9197315185757772 
-0.9962419658924185 
-1.122877495616025 
-1.830308655847461 
-0.5909777084583144 
-0.5909777084583144 
0.439609708825092 
-1.52775773796077 
-0.7702879576984132 
-0.6967733870941087 
-1.648389945262008 
1.337459248933086 
-1.118746075909541 
-0.3628074876849673 
1.326592193109184 
-0.3628074876849673 
1.221944521538779 
-0.7847357405563331 
-0.7847357405563331 
-0.7847357405563331 
-0.7847357405563331 
-0.3726688731225325 
-0.3726688731225325 
-0.3726688731225325 
-0.07259745437436987 
-0.07259745437436987 
0.6253410462188616 
-1.976525404606003 
0.4721792065387638 
-2.555668981718945 
-0.1025026460931471 
-1.122306728833453 
-0.1025026460931471 
-0.8088372770367465 
-1.820491435253792 
-1.41090699833782 
4.75770855300792 
-1.031282273623909 
-1.903513115266751 
-0.9559894077310066 
0.425319967074224 
0.4996734610932901 
-0.9662702293072025 
-0.07120961687292902 
-0.07120961687292902 
0.7814538573260511 
-0.07120961687292902 
-1.125883343303478 
-1.190197032443212 
-0.4242662947770126 
1.223596672116434 
0.3423091369911649 
-3.816666302837778 
-1.412864789813259 
0.598206488754558 
-1.199405297906909 
-1.410180281034185 
-0.6728464246386786 
-0.414781983498719 
-0.414781983498719 
-0.07860249925712209 
-0.414781983498719 
-3.115681985543497 
1.216055712227807 
2.492214713863591 
0.4661208624363994 
-1.775287020195712 
-0.05507439997306853 
-0.1828035750702798 
-0.1828035750702798 
-0.3027525329466451 
-0.1828035750702798 
-0.1828035750702798 
-1.793092223758668 
-0.7778662300566259 
-0.4325364347246183 
-0.1275117991132398 
-0.7015846231370995 
0.6755976070019069 
-0.2056766818373811 
-0.2056766818373811 
-1.398860341101487 
-0.7502263764241812 
-1.659568210313353 
-0.8479908260285606 
-0.2943848030233917 
-0.4466098539891334 
-1.356005800224058 
-0.5227105831591996 
-0.8127635371168168 
0.2720564800454813 
-1.375916412540643 
-2.418927653689563 
-0.5396750659556248 
-1.139460691200172 
-1.139460691200172 
-0.9181346758759341 
1.533206284196486 
0.2781893999342702 
-0.3708130491056166 
1.608217950913662 
-0.2568929691724205 
-1.03486906036982 
1.531416387570794 
0.9613918918149595 
-0.3708130491056166 
-1.150205665959917 
-1.031539796756545 
0.9903150151990849 
0.3125933937265837 
-0.7959554722095814 
2.50508035806454 
-0.1107537805696868 
-0.9188939331305482 
-1.773739878979239 
0.2840111464682125 
-0.7206138634167092 
-0.3839467363425824 
-0.2527489383508345 
2.808678833975231 
-3.084800519403244 
-0.6451796311297495 
0.3788739569715077 
0.1888487629393837 
-0.5944532299427415 
2.248644769897786 
-0.4029486081740144 
-0.4955655047387012 
-1.856507820359625 
1.155425678204598 
-1.949368453635956 
2.271501781981507 
-0.7801579399057652 
-0.2258865943683901 
-0.8282336932039859 
0.1022085151184215 
0.6011940025998631 
-1.093397952413965 
-0.559247791433171 
-1.583841720176404 
0.09949487366711728 
-1.065860919381893 
-1.414259298105973 
0.5033015288757093 
-1.137643312106891 
0.01045006514851592 
-0.0212503444154319 
-0.6346879070913025 
-0.6346879070913025 
-0.6346879070913025 
-0.6346879070913025 
-0.6346879070913025 
-0.6346879070913025 
-0.6346879070913025 
0 
-1.636824534643949 
-0.1855086897269602 
-0.2895844794256948 
0.2809383906208441 
-0.9857928327232439 
-1.147057813468017 
-1.121145045931097 
0.4231489507286895 
-2.317844030087297 
-0.2214554782080248 
-2.816705691144959 
-0.5207345103724466 
-0.5207345103724466 
0.6418919182208601 
-0.698712815732352 
-0.698712815732352 
-1.69473293502784 
-1.296345613721663 
0.9935283094067102 
-0.6847736686626616 
2.400597154815065 
-0.6322604308728532 
-0.6322604308728532 
-0.6322604308728532 
-0.6322604308728532 
-0.6322604308728532 
1.185671762788268 
-1.305176779384285 
1.425298055514018 
-1.209024087828613 
1.688816117724342 
-0.7891972278169996 
-1.322727029339695 
-0.464242750113347 
-0.9847608932429693 
-0.6262803885869893 
0.5752247323631481 
0.7194086844000745 
1.519080332943682 
-0.4656494647217122 
-0.5855426691433684 
-0.3197438058359253 
-0.3197438058359253 
1.22284789255689 
-0.9515049572632874 
0.2228227931997048 
-0.9194869608492592 
-0.9194869608492592 
0.2543079916931513 
-0.8131044366268292 
-0.8131044366268292 
-0.8131044366268292 
-0.8131044366268292 
-0.8131044366268292 
-0.8131044366268292 
-0.8131044366268292 
-1.125690641754041 
-1.009646204082288 
-1.803511589367139 
0.2048705213464752 
-0.3449018051133759 
-0.3449018051133759 
-1.270527736544149 
-0.3449018051133759 
-0.8341636101414974 
0.7866612409804918 
-0.2111610875047328 
-0.2111610875047328 
-2.359783299981215 
-1.076369815982559 
-0.2111610875047328 
1.751212535268433 
-2.508811606608339 
-1.156254282399467 
0.9995293339232485 
-1.716762061766945 
0.9052072465542708 
0.9118261324824669 
-1.838299795279942 
0.3833208160503611 
-0.4801201169112858 
-0.4801201169112858 
2.083700007583718 
3.390270771178575 
-0.4280543043404114 
-0.4280543043404114 
-0.9657643692612855 
-0.2715540884278103 
-1.218581940254449 
-1.252711642225616 
-0.4473535206837884 
-0.4291232735571244 
-0.6683707479736762 
-1.71696421785468 
-0.6683707479736762 
0.03959308649860089 
4.210126047382023 
0.3413556011475045 
0.1857597967110576 
0.5490258138212062 
-0.3341247275488528 
-0.8878235621392233 
-0.1552261315548383 
0.5623644661564321 
2.593053413837987 
-0.3958367939536429 
-0.5738916400192209 
-0.8177572644116732 
-0.4304193339993146 
-0.4304193339993146 
5.856770371526522 
-0.4826670532552063 
-0.7575733645899214 
-1.922042426250635 
-1.181425939359969 
-0.3787866822949607 
-0.3306901637244016 
-0.09160446516679008 
3.805476898313181 
-1.921888275516072 
-1.02282482826815 
-0.5485871788503902 
0.2304272745361473 
-0.8970488680268777 
-0.8970488680268777 
1.635274792687473 
-0.2601889091395879 
2.175164733690267 
-1.310636088929417 
-0.7731890241538665 
-0.1383177423940008 
0.2173443576627072 
-1.638124766773672 
-0.2268981747653275 
-0.2268981747653275 
-0.4537963495306556 
-0.2268981747653275 
0.2984199213701818 
-0.4417093677944053 
-0.8686083840159111 
-0.2906650436515579 
-0.2906650436515579 
-0.2906650436515579 
-0.2906650436515579 
-0.2906650436515579 
-0.2906650436515579 
-1.598533668504724 
-0.2906650436515579 
-0.2906650436515579 
2.243365819349114 
0.3875593513637769 
-0.5377905019959303 
2.731003917000661 
-0.2027785733583736 
-1.866486922207783 
-2.416838240273565 
3.290824963369559 
-1.401754570620684 
0.5596478679251037 
-0.1134485093135358 
-0.1928321772864085 
-0.1336860629948279 
-0.04385116524204546 
0.1376310446890373 
-0.1336860629948279 
-0.1336860629948279 
-0.8186672177279044 
1.800812800640468 
0.222869334031363 
-0.8896667528870463 
0.1417712306154033 
-3.199791702730503 
-0.7070956656876084 
-1.323018293643827 
0.4462243069902843 
-0.2700091485401551 
-1.037958843822976 
-0.2200531148601265 
-1.369037504542332 
1.399982792792789 
0.6322524331028407 
-3.068588989458515 
-0.7224282096127317 
-3.557191132458376 
-0.4227953762613438 
-0.2512106696237656 
-0.2512106696237656 
-0.2512106696237656 
-0.2512106696237656 
-0.2512106696237656 
-0.788201302085155 
-1.417201230271386 
-0.6507039420163633 
-0.6507039420163633 
-1.545456923507574 
1.403867375530489 
-1.435470546298994 
0.01053988729010117 
-1.283914811113558 
-0.473434379779843 
-0.497146907462292 
-0.4917024791956663 
4.228692182724288 
3.172361272981941 
-1.434865503638142 
-0.6412662926049667 
-0.2688463242312725 
-0.1840078899798936 
2.479128036872387 
-0.4962776194538235 
-0.2277263137134802 
0.9315276661779126 
-1.584132012392842 
-0.4841585170309937 
-0.4187795576559653 
0.3820603311350866 
-0.8234163753943317 
-0.6422931027370602 
-1.005245428520978 
-1.577109862193023 
-0.6389404560095865 
-0.9382284931892475 
1.932640384427991 
-1.158760124518071 
-0.423297230280605 
-0.2655122241814145 
-0.2655122241814145 
-0.2655122241814145 
-0.2655122241814145 
-0.9005229811945712 
-0.2655122241814145 
-3.996311341692805 
-2.233861976022578 
-0.6253059031895385 
-0.6253059031895385 
-0.5496585061023821 
-3.138309740265607 
-0.6253059031895385 
-0.6253059031895385 
-0.6253059031895385 
-1.019471848934814 
-0.2997770153747121 
-1.019471848934814 
-2.00351859262759 
-0.374396728340328 
-4.458939813633462 
-0.1153178575089735 
-0.4461258139958864 
-0.4461258139958864 
3.72270541187004 
-0.4461258139958864 
-0.4461258139958864 
-0.4461258139958864 
-0.4461258139958864 
-1.902111277180392 
-0.9370149256662802 
-0.7958135524851877 
-0.6427769186895331 
-0.2627854213442617 
4.490917427178616 
-0.9700833110298719 
3.086890794697878 
-0.7553981263032755 
-0.2627854213442617 
-0.2627854213442617 
-0.2627854213442617 
-0.621303700361645 
-0.9608704494341173 
-0.7405181244669061 
-0.2627854213442617 
1.487521109187827 
0.600088882019521 
-0.1021257038269043 
-1.219623904783791 
-0.1021257038269043 
-0.1021257038269043 
0.5330066566091427 
-1.905084087930308 
3.983031344806426 
-0.7518519294686421 
-2.574392958390638 
-0.907138460907162 
-1.438539238574265 
-0.907138460907162 
-0.9986686480728579 
-0.9986686480728579 
-2.1712654070477 
1.015305118126155 
-1.005841490221209 
-0.897216845438469 
0.510945306120178 
0.3797508076355893 
-1.544148627728111 
2.517910108811711 
0.3062825590022822 
0.0563027827614759 
-0.9838883703147004 
3.12220157577077 
-0.5072286061125911 
-0.6337484339318318 
0.01194156895559758 
0.4188302501434695 
-0.3474950224438374 
-0.6611170161531699 
-0.3474950224438374 
-0.06903914718691061 
-0.3474950224438374 
1.71427531678518 
-0.3474950224438375 
-0.3474950224438374 
-2.790743971814474 
-1.240891263654765 
-0.477845777706256 
-2.644431920196465 
-1.24680224266756 
-0.3917045150169796 
-0.7944716730635765 
2.276632006318995 
2.828754480236404 
1.772109965796951 
-0.3683845886159216 
2.564365566847457 
0.3599674487538971 
1.769262603785478 
-0.2588221369392434 
-0.4863319481703675 
0.009616785558373165 
0.1580313139549743 
-0.4863319481703675 
3.238773016392096 
-2.453262108330311 
-1.1542135072907 
-0.716569622441945 
0.6456754872732954 
-1.531681638008328 
-0.6441308147448428 
2.397030216970404 
-1.238775705654844 
-1.760229142446348 
-0.533538612045473 
9.749915938787911 
-0.6482253657018692 
-0.5335019136440654 
0.006162247219180877 
0.4649194709932984 
1.379914945141068 
-0.801525520903358 
-0.0976513950813233 
-0.195519845569228 
1.983005134375719 
-1.857732648951287 
0.1035327508935343 
-2.443276128525592 
0.313783035017568 
-0.3731528488072261 
-1.448899485471497 
-0.7513521460396844 
-0.2728644428375892 
-0.6349678500295596 
-0.05806771004328928 
-1.51157113098483 
-0.3156480446815702 
-0.3156480446815702 
-0.3156480446815702 
-0.3156480446815702 
-0.467875631410518 
0.4073167974478361 
-1.554842925305121 
-0.4600712312302181 
1.157547908944072 
-0.4296326679116768 
-0.4296326679116768 
1.707346253532104 
2.575256665554951 
-0.7013651706345495 
-2.406930745130363 
-0.7013651706345495 
-0.38061576909795 
-0.8025275799370127 
-0.72929500924804 
-0.72929500924804 
-0.72929500924804 
0.5378266773393168 
-0.7118868052031266 
-0.7841316751508423 
-0.6968318861945636 
-1.235058757334001 
0.2958325378150317 
-1.092280801675488 
0.365478867936875 
-2.053408764967977 
0.5841031505555598 
0.1643629094890468 
4.621117359169559 
0.9556746867003426 
-0.5616139373280392 
-2.470011410594386 
-0.4286976978713611 
-0.2428322448746537 
-0.7620359784011331 
-0.1432048552963248 
-1.690477747467846 
-0.1281975767574395 
-1.924349948979972 
-0.08704784616515543 
-0.08704784616515543 
0.8772426405669643 
-0.03192417151755522 
1.622084467171946 
0.8912977124582158 
-0.5689574646186519 
-0.5689574646186519 
0.06115743479276407 
-2.459917233136374 
-0.3200271310411228 
-0.5913695220026279 
-0.9615730913644208 
-0.5913695220026279 
-0.5913695220026279 
-1.635085528289044 
0 
-3.919207599220114 
-0.390775758582208 
-0.390775758582208 
-1.066836645572068 
-0.390775758582208 
-0.390775758582208 
-1.455111971560814 
-0.4883359212070228 
-3.031145787547225 
-0.4883359212070228 
-0.2974258403395466 
-0.2974258403395466 
-1.337722748862558 
0.3800035595183465 
-1.64502577153142 
-0.913710217468827 
-0.9910745112454585 
-0.5796553152301874 
0.8760203083313534 
-0.3890442629154289 
-2.370445847334434 
-0.3890442629154289 
-0.4668619727450554 
-3.335519167439311 
3.907606026815516 
0.2511933836615026 
1.598610398001387 
-0.9806514794066354 
-1.984647509877329 
-0.1362680741239399 
1.219493933343558 
-0.9806514794066354 
-0.9119471758881357 
1.327514952887074 
-0.2486358087941414 
-0.3652316408708524 
-1.249156133085636 
-0.9069855956628492 
2.110952480678113 
-0.09062357331517475 
-0.09062357331517475 
-0.422794982037815 
-0.422794982037815 
-0.422794982037815 
-1.038678991557982 
1.667137965949979 
-0.2799840893770458 
0.3084049650329759 
-2.607895263877867 
-0.4985294108295085 
-0.7033356671929052 
2.295643489509706 
-1.100766114074565 
-0.7257630067098895 
-0.7257630067098895 
-1.691409364306724 
-0.390029914094995 
-0.3463366153078855 
