solver_type L2R_L2LOSS_SVC_DUAL
nr_class 2
label 1 -1
nr_feature 62869
bias -1
w
0.4303306389331738 
-0.7786497840870313 
0.08700519856036509 
2.426987513151674 
0.296342970104311 
-2.095631342240867 
0.04363060465886138 
-1.582869678228402 
-2.52632966276582 
0.1476193531000065 
4.20496125667085 
2.236953326716923 
4.830029260292096 
-2.758234401489871 
-0.8690912637321651 
1.594809072023142 
-0.12082055770727 
-0.9483167360177714 
-3.877853119463536 
2.371121288526147 
0.822666089584874 
-0.6538003431033204 
-0.6538003431033204 
-0.6538003431033204 
-2.467250275203819 
0.4303306389331738 
-0.2312742316284628 
0.06308159182946331 
-0.3490433796012621 
0.8258281888889892 
-0.08165295376715351 
0.07387445331019572 
-0.5647698147184327 
-1.961304435547738 
1.52915000848316 
2.288148468839645 
-1.006717675984763 
-1.151769332236168 
-1.362194762031443 
-1.16560292016106 
0.777807488163023 
-0.3808497400749547 
-3.496229926439426 
1.158912246709854 
-0.9602213358348475 
0.2364826345498918 
-0.5812725438342621 
0.1130233744848372 
-1.147651233181526 
-1.03176006063055 
-0.3808497400749547 
-0.1717798572437524 
-0.3808497400749547 
1.353944349094445 
2.26968011942962 
-0.04547069707565957 
0.4063737822837131 
-0.967564362847192 
-0.3808497400749547 
-2.284492813233355 
-0.3477638239405616 
0.28089636245333 
1.069842724970458 
-0.6427680418967715 
2.276686887178223 
1.512493184390053 
-3.405345046761339 
-1.034007678241372 
-0.9245817317459621 
1.038684928935732 
-0.1553336173393587 
1.760682867147358 
-0.3494676673154279 
-0.2083128720349028 
-4.487649649736007 
0.2169466267412063 
-2.875785034893567 
-0.7986133338343807 
0.2400374939099917 
-3.469654841910518 
-0.8633048204632847 
-0.791637747107134 
0.3654769020832788 
-2.326114762224072 
0.06929180784733631 
-1.318516348998818 
-0.2923595134212437 
-0.02117045128845919 
-0.2923595134212437 
-0.4438684055840972 
-3.147515423263623 
-1.604388348449985 
-0.99669859679817 
1.418699435485696 
1.316357399214741 
3.747789846212577 
1.727926663192463 
1.108294762450466 
0.7995631508692613 
1.954912858335395 
-0.6819093806862255 
2.002425378527813 
-0.6466449074171848 
-1.980614060855828 
-0.3512904977151945 
-6.738033989879666 
-0.09274590378585737 
-3.305981911205072 
-1.892605780545426 
-1.766812869074594 
1.041797858947859 
-2.243389582576825 
-2.289121134199072 
-1.0806330723452 
-3.105150827277125 
-3.827764792805415 
-0.9049684866413763 
-2.010542156263628 
-3.868572492220873 
-0.09099858243631372 
-0.09099858243631372 
4.012368934155262 
-0.3469871308718918 
0.6629561027100461 
-3.445484820531845 
1.744699858425442 
-0.2001845366546549 
-2.381030287992203 
-0.1888373738312751 
0.003181750889705818 
-3.198831332945452 
-0.2139687057362167 
-0.7987317371556851 
-0.7987317371556851 
-3.593203462265268 
-0.9074525746774195 
1.693579761184405 
-0.7522689010126007 
-4.857793862094595 
0.2821171396359279 
0.4958661537711315 
-5.802399100275537 
3.676723398614988 
-0.07161276445222242 
1.691248074875189 
-2.855864114870342 
-5.521154063480514 
-3.400912845741543 
-2.750550121340175 
-0.03036013078702494 
-0.554269040494292 
-0.6237670169595025 
0.4893528182081769 
2.993207843707311 
-4.804592987127851 
-0.6239217917942513 
-3.779759613364424 
-1.175140983566771 
-1.366487143548385 
-0.1775471374512388 
-1.348213995817362 
2.436137402538207 
-0.5620729841810175 
-0.8054311094078003 
0.2403325534811818 
-3.167385916026391 
1.900335071099235 
0.5619298155535842 
-0.4252258644789449 
-0.005480077263849236 
-0.2686887229638315 
-1.114861556990347 
3.901223718717572 
1.325639197650768 
0.2318174034515583 
-0.4028479679292701 
2.490899545268755 
1.200132430356881 
3.679585198023993 
0.4376928058917048 
-0.04525038193031408 
-2.492537251725119 
1.5303676226573 
3.635159471141903 
0.2208073031915706 
0.7440491584721198 
1.333712231728829 
1.357242921621477 
0.6138655635963121 
-2.745837260918203 
-1.059833334672889 
-1.062730308136351 
-0.9382781308703523 
-0.1582705151589873 
-0.5516768926488379 
-0.235970350725644 
2.042833748397569 
-0.06293222038958471 
-0.914496911173555 
-0.06293222038958471 
-0.06293222038958471 
0.4664744978156147 
-1.241440415451462 
0.8794321952619721 
-0.6116206691490904 
-4.890656477273248 
1.385835174462986 
-1.041803556741507 
-0.9456133521646154 
-0.7499817477865481 
2.665936279292893 
-2.06033417385878 
-0.27261466187606 
-0.27261466187606 
-1.728469977630767 
-0.6389848985532074 
-0.27261466187606 
0.5156065503608893 
-1.681391903438241 
0.6888270906687269 
-0.5962207048394115 
-0.972042021387692 
-2.325201349290541 
-0.2894484751821102 
-0.5788969503642212 
-0.2894484751821102 
3.064566091119239 
0.6338130227727612 
-1.164760181948875 
-2.34006371527659 
-2.85377903602815 
-0.2422963671007453 
-1.933864288630411 
-2.383204761946994 
-2.407024004579018 
-1.781406504955905 
-1.613735826623804 
-1.613303319933626 
-0.34442752548865 
-0.3676930212078336 
0.4703139135829159 
0 
-0.5280087951186542 
-2.035267077188148 
-3.622761994820546 
-1.34593710096075 
-2.789883342506854 
-0.4917965248158465 
-0.2154015298918611 
0.4769952688436278 
-0.3314601264313091 
-3.204318554825 
0.8691898041204774 
0.5793104414319448 
0.6636919356409033 
0.3522297351424202 
0.6387776014620058 
-2.106973372627517 
-0.6013622635965169 
-2.110390642778966 
0.294572387009074 
3.634154194084074 
-0.6013622635965169 
0.9352391923663065 
-0.5382392983966096 
0.2838091156655694 
-2.282887984471892 
0.8233357709280081 
1.237265460047334 
-0.880149680229205 
0.8250512205765057 
-0.6013622635965169 
-2.811873238770762 
1.386109170501145 
-1.461953286747287 
0.9627748580504224 
-2.033128938625916 
-0.1940818903498535 
1.169656025045786 
-0.5454298512938893 
-3.766971870528188 
-1.336553291435906 
-1.142995922872402 
-1.050266329701329 
-0.414098032006126 
-1.050266329701329 
-0.2299302126322231 
-1.402965712594681 
6.938893903907228e-18 
-1.560570199298295 
-3.373724895595619 
-2.778590081592574 
1.270004799355381 
-0.0528078763090615 
-2.660948669040227 
0.8734399382451871 
-1.0809667309352 
1.44124619627577 
-0.8516578399918516 
-0.3551985740229849 
-1.302313278756845 
1.31183181158308 
-0.331082292384187 
-3.022623390148541 
0.5521668692066908 
-2.575582299503989 
-1.820433114314731 
-1.12664654557117 
-1.444569747658998 
-0.7621374960759326 
0.5855693652782634 
-2.147307331742619 
-1.544937824688488 
-2.016620252011553 
-5.552799893528493 
-2.317249962949196 
-0.8513304492399034 
-0.2242615333973387 
1.205422668158239 
0.7978519477464109 
-0.8513304492399034 
-1.115516184773211 
1.015059374117776 
-0.8513304492399034 
-3.688389734069919 
-1.628100254862029 
-0.9599541460051868 
-0.3905398279206855 
1.751980144449117 
-2.63038922732868 
-0.3905398279206855 
1.945021929288817 
-0.1541565418796862 
-0.2478405689321415 
-1.128676741144874 
-0.7711531255531283 
0.688798885896672 
-1.304972178008838 
-0.9297075787308502 
-0.8737368031462173 
-0.4621432337708306 
-1.959334589174301 
-3.175058153680732 
-0.4621432337708306 
-2.697430680685148 
-2.932682307952047 
0.824252499985763 
-0.8688220979897289 
-0.4621432337708306 
-0.4900759014118597 
-0.4900759014118597 
-0.4900759014118597 
-0.9470235307916176 
-0.4900759014118597 
-0.4900759014118597 
-0.04142679581775438 
-0.4900759014118597 
0.5003871631585822 
-1.506439320936002 
0.6194875255918734 
-1.040210744061749 
-0.4437635793252429 
-0.9161029748547588 
-1.455392618533459 
-1.812800394758394 
-0.4437635793252429 
-3.656178008695546 
1.77362180281431 
-0.5757163930302285 
-1.650260626073689 
-0.6979375479339121 
1.166091682101972 
-0.7082517882176258 
-2.203154598715676 
-0.8791063474431431 
0.05289276165623066 
-0.4900474308276503 
-0.5910730473064952 
0.250090662475957 
1.262104453919506 
1.147489755650626 
-0.4015899463780934 
-1.259322766885286 
1.847223237688691 
2.049541883538058 
-0.3506630148308084 
-0.5855210704586377 
0.06955324512078738 
-0.5582345883635403 
-0.2275738573806243 
0.7744332426994731 
-1.094525341092991 
-0.5582345883635403 
-1.39598427986266 
-0.5582345883635403 
3.87895918172411 
0.4498867660468839 
-0.8251471870873442 
-0.5582345883635403 
1.307761719098439 
-0.5582345883635403 
0.5176606173529325 
2.494813092034927 
-0.5582345883635403 
-0.1216182508926306 
-0.5582345883635403 
0.4083980346862336 
0.4462427842592037 
-2.162120398589935 
-0.5582345883635403 
-0.5405355930637072 
1.255272305207149 
-0.3282620504290548 
-0.6960273442817174 
-0.5405355930637072 
0.02733790817278762 
-0.3098593985023061 
-3.719140647057734 
-0.3098593985023061 
1.16749771171194 
-0.2270299698484986 
-1.285527015604071 
-2.278007177225383 
-2.410175695975054 
-4.081761384773799 
-0.8920223946105842 
-4.194372711141713 
0.9364631535083315 
-0.1030966158436378 
-3.797627250760895 
0.02032810228294486 
-0.4741722244153143 
-2.078962006911715 
-1.158068888604108 
0 
-3.16255426392458 
1.15950381585601 
-0.6334681889206427 
-0.6334681889206427 
-2.812634176614176 
-0.6334681889206427 
-2.243894599421453 
-0.6334681889206427 
10.10492378217911 
-0.6334681889206427 
-1.246726538407181 
0.9237036839475536 
-0.359542537220727 
-2.060238502354275 
0.2921450548844337 
-4.185164973065872 
-0.7508040667829375 
2.62461894239987 
-0.0222125853309231 
-0.4703311231150272 
2.577168320812731 
-3.465303161384902 
-0.6585392409798666 
-2.995217946063377 
1.709137020969867 
-3.049679357464369 
-0.7779101209010753 
0.6622754365608656 
-0.5673073327158292 
-0.9177590824153845 
-0.7943965389963176 
-1.652742980956787 
-1.411590588858152 
-1.210811162194304 
2.480288298230796 
-1.609888101769109 
0.401996798866079 
-4.647575702954552 
2.984822009942203 
-1.17532230162215 
1.699290436013468 
-4.405313791349669 
-2.283951394646744 
-0.6517850515096919 
0.03535177140147162 
-2.403887522055927 
0.4060335615305086 
-0.2285811583613263 
-3.785193581175518 
0.01535002629855949 
-0.6257918273807176 
1.472468370859472 
-0.3987745220869497 
0.4587806230907926 
1.486639769494744 
-0.04349186671616277 
-0.6936373478207166 
-0.4440334748293022 
-2.122022392200225 
-0.6936373478207166 
0.4870614563983324 
0.6221964497365006 
-1.728661628189089 
-0.6936373478207166 
1.772823591383313 
2.851099508985139 
-1.052245273467234 
-2.391244426001137 
1.345769687347216 
-2.686108378300523 
-1.615387796986721 
-1.355011045935406 
2.388466770911194 
-0.5913820245049456 
-1.82428837300244 
-0.7076264406863202 
0.7525398177598792 
-0.8655160920982702 
-1.536619992315599 
4.736344309781487 
0.2263827837929611 
1.214373117000694 
-0.2421802517894097 
-2.676360532210726 
3.385109895400346 
-2.069134974934901 
5.461326578877376 
-2.856286572446824 
-4.875163020760207 
-2.310805447145435 
-1.111441858279723 
-1.304993294349406 
0.1442791834391549 
-2.143257156118421 
0.1527621544284711 
3.824432775129144 
-1.836922181395626 
1.012549642363775 
-1.478961903361193 
-0.5434440477342571 
-0.4853488122544006 
-3.88997489813613 
-3.389846359902274 
1.005881245382574 
-1.832862370239685 
2.149698201794444 
-0.8361886788103696 
-0.1651514068624616 
-0.6887004191948225 
-0.4597027704217025 
1.247875656225688 
-0.4276443847826062 
-1.745050016799116 
-3.125917847093953 
-0.3914717650287735 
0.5697814849014723 
0.8337351141532181 
-0.1980008281375361 
-0.9917711655084303 
-1.408980957165654 
-0.1166898161434107 
0.1745819662066438 
-0.3914717650287735 
0.9872665330361323 
-2.791241044056034 
-0.3914717650287735 
0.0008428119362158128 
2.236332744881217 
3.70170586699116 
4.326424493463289 
-0.3037241136972894 
0.05948055370477934 
-4.353682072440916 
2.544647653180154 
-2.695526400862741 
-0.4343267369671501 
-0.0386877777273231 
0.3657538434800733 
-1.332395254726668 
-4.645991612659943 
0.25372819368293 
0.1676715662636045 
-0.258145116754468 
-0.7251415261623927 
-2.481016709689471 
-0.6615423632055087 
-0.1135644086886463 
0.9145759939394505 
1.426998638686626 
2.583565774797187 
-2.363185077968535 
-0.4855993500665572 
-0.3166805468537557 
-3.743681763674781 
-2.340127153990352 
-1.767889351166763 
-0.6227761329612974 
-1.628233885726126 
-0.07004630633277206 
-2.578490577298366 
-2.788859920512216 
-3.568948316632674 
-2.001386934483417 
2.990635214820753 
-1.420836161072948 
-0.5508118984005607 
-0.5508118984005607 
-0.2797674592837522 
-0.6850649025503993 
-1.015646463585624 
-0.9932961962837665 
-0.5508118984005607 
-0.5508118984005607 
-0.8611757461112618 
0.9076050842379357 
1.417297874443712 
-0.3290343538548807 
0.9228752266423197 
1.074179664695567 
0.625096908305743 
-2.042462107113536 
1.326762441740504 
0.2420163319825828 
-0.344098610895314 
-6.157810647994156 
-1.031547534941962 
1.195547778434902 
-3.059655820406352 
-0.344098610895314 
-0.6738471775496631 
-2.091391136273864 
0.6433583103205084 
-0.2057388116508258 
1.420128384243637 
-3.132085577353838 
-4.382544086310813 
-4.42150014276277 
-0.1575464697825289 
1.200053514646399 
-1.939435174032091 
-0.7893494504496971 
-0.3171185118492663 
-1.672815539840741 
-0.3914355747771157 
1.619602833654842 
2.092402131831222 
-2.236184540174073 
-1.048789424805156 
-0.5840310420980347 
-1.048789424805156 
-0.5161278769555823 
1.976699863753867 
-0.8374454036889015 
0.08542370243869805 
-0.08281840217168272 
-0.4854114140134229 
-1.316201803713674 
-0.08369237055471253 
-2.740281041012651 
-3.252156538373022 
0.2253846980531926 
-0.5927073588089204 
0.2449102683602735 
1.749673485964304 
-0.09051768096321872 
0.4388946571528085 
-1.179459797694503 
-1.803059887825433 
2.693490682720479 
2.970688598680199 
-0.5130859608066624 
0.1733967364762662 
-0.6500447001480859 
-0.6500447001480859 
-0.7246862297564186 
-1.240061417401755 
-0.6500447001480859 
-0.6500447001480859 
1.597611566596406 
-2.031531434600381 
-0.6500447001480859 
-1.370058994051521 
-0.9339518167683002 
0.4177133723932062 
0.8947868630792821 
-2.054241185131975 
-1.684363316278906 
0.1877585899258618 
0.8665522690964282 
0.3990227534502291 
-1.508006189452933 
-0.4265296096107835 
-0.6807892611566242 
0.5836469786854853 
-0.6807892611566242 
-0.6807892611566242 
-0.6807892611566242 
-0.6807892611566242 
-0.6807892611566242 
-0.6807892611566242 
-0.5673056102139616 
-0.6807892611566242 
3.014008150909538 
-0.6807892611566242 
-0.6807892611566242 
-0.4248964432101131 
-0.4248964432101131 
1.349684666729259 
-2.213354462254435 
-0.5674277493988785 
-0.5674277493988785 
0.85447439335752 
-1.961828048331514 
-0.265610684142547 
-2.322256991879236 
1.910385878101906 
-1.177080091165306 
-1.553758981426538 
-2.365095647526922 
0.9659881207662464 
1.446164993017036 
0.6691194663769324 
2.54360758740513 
-1.53122943305916 
-1.022040849898049 
-2.541859480436994 
-0.7608941999164711 
1.404511925045255 
-2.348421881561355 
-1.037805638680011 
1.33796499686336 
-1.133546752972548 
-2.436497267489254 
1.138126708422917 
-1.445190884795797 
-3.83401596701277 
-0.6025688266463592 
1.551484765637308 
1.129517868894701 
-1.041526662594472 
-0.3197127437156201 
0.4244266147754625 
-0.585430260537083 
-0.7061477161261102 
-1.962711483878292 
-0.3197127437156201 
-0.9904967776653674 
-0.3197127437156201 
-1.932428239470176 
-1.318908065198302 
-0.3197127437156201 
-0.3197127437156201 
-1.240322515020493 
0.7131022579674627 
-3.173768816621637 
-1.171612178154426 
-0.2359971027523661 
-1.296504212277483 
-0.1841062616722129 
0.5305300185857509 
-0.1784005858738456 
-0.1784005858738456 
-4.565019383299579 
1.012917818144669 
-0.6090163396894024 
-0.5567344013240584 
-0.1784005858738456 
-0.215077897258978 
-4.39496112365066 
0.2108560528187488 
-2.147469665398404 
0.5407150332991576 
0.9839105150001983 
-1.118003236185285 
-0.5448355101206198 
-0.3158971035576746 
1.291341391724973 
-0.3974222009047794 
-1.124219728149833 
-0.3158971035576746 
0.656793240140733 
-0.3158971035576746 
-5.823645651660105 
1.345762241415297 
5.320440276520618 
2.046137160374156 
0.9797671514373391 
2.058919185994513 
0.9585635046513248 
1.432199697869297 
-0.9434568514921582 
-1.450254875501755 
-0.8902796354365683 
-0.3618125952871704 
-0.9434568514921582 
6.645077535093906 
0.07888616328574732 
-3.616461006451727 
2.21167658527961 
-2.315616287818475 
-2.72218636560604 
-2.94364319322229 
1.9472577106985 
-1.330509172986591 
3.313761831662625 
-2.16120779823894 
-1.458676359402699 
-2.035556378878921 
0.4849653348558448 
-2.428655513400241 
3.796915656007132 
-3.892170873357638 
-0.3133816127566654 
0.3374900523492202 
-3.323955364193702 
0.5295474631132787 
-1.317335355639853 
-1.204435685941142 
-0.6974847179472526 
-0.6974847179472526 
-0.8930312189620329 
-0.243707584944075 
1.705276586539989 
1.133562713375702 
-0.07135581491469632 
-0.5644384544967733 
-0.2203490901418226 
2.734703912256048 
-0.5241599444912113 
0.6154013690635364 
-0.3454523671824274 
-0.3454523671824274 
-2.222858742327741 
-0.7443531457554821 
-0.3454523671824274 
-0.3454523671824274 
-0.3454523671824274 
-0.1876895422734161 
-5.220440799437638 
2.296497652704153 
1.266508744480123 
-2.823126199460191 
-0.9178457315587808 
-2.967701007877626 
-1.220600414222106 
1.54098279389028 
-3.470162802431102 
1.581252070623284 
-1.770263642861268 
-0.2582464551232874 
1.730022799494903 
-3.465347268330162 
-2.193343776013942 
0.1669440261951875 
3.697295525499212 
-2.70846296324194 
-0.899091053608018 
-3.333022012977153 
0.1790760790924305 
-1.178501623231121 
-2.224146312226839 
-0.7239433874038165 
-0.4593998905483928 
2.115855776240051 
-1.548943971230627 
-1.178501623231121 
-0.4094383669324193 
2.14022511210294 
0.3216409495014461 
-1.980576854452412 
-0.9935683995385314 
2.307659664873144 
-1.194666729279381 
0.03269405164754124 
2.129436175683979 
-2.163869442742099 
-0.5729393802451888 
-0.4505254949040217 
-0.8001929194176911 
-0.4505254949040217 
0.1674624644529802 
-2.37969636378329 
0.2423699857553726 
-0.3199565044963211 
-0.3766189295426159 
0.6655017792056614 
0.6568793626263428 
-2.083426356645061 
-3.333854705633382 
-0.2191307001913143 
-1.876738208669309 
-1.045175183768212 
1.253884334254991 
-0.992771670443541 
2.848462367009852 
2.912985325835968 
-1.334109710616568 
-5.154150318912327 
-2.470611364612189 
0.4955232018853631 
0 
-0.7059606748706431 
-4.469528947384048 
-2.600686923684747 
-2.806138810676255 
4.364674328840298 
-0.1885347600121949 
-3.215439662733687 
-0.6626568613794009 
-0.9608338087588475 
-0.8678826751953683 
1.265278852086105 
0.756018733907089 
1.547317036500555 
-3.537379549076642 
-0.99477301397314 
-2.383072005915737 
-0.99477301397314 
-0.3714218214899463 
-2.122216916065574 
-2.808407761869749 
-1.167044051369772 
-2.709955966058345 
-1.934698898051837 
-0.3216173774051846 
-1.907133864423287 
-0.3216173774051846 
-0.6924011088309039 
-0.9395287218255104 
-0.5593058185528588 
-3.21017795995659 
0.4405499949246204 
0.08236659573530734 
1.808630505346795 
0.525584792726587 
-2.045118094876539 
0.4633535687989647 
-2.47198168629732 
-0.4163218611309915 
-1.165731306690411 
1.558051782166543 
-3.546172983669312 
-1.06745041457794 
-1.794496175677623 
0.4072992410891994 
-4.562539532505999 
-0.5142233531620231 
-2.066929444578641 
-2.360911594414633 
-2.124378468683383 
-0.7362650161957051 
-0.2247100751075926 
4.193395231345178 
1.431946323923359 
0.9427309476136994 
-2.170462994430034 
-0.4874104521858271 
-3.307504984972045 
3.516287153447629 
1.74049752643584 
-2.896440155230085 
-2.307617226010057 
-4.360355574863737 
0.1152090988335999 
1.145626796578702 
3.724458120738676 
-0.7900220551874527 
1.91151096468798 
-0.7900220551874527 
-0.3027271170880541 
-0.1899572868670272 
-0.3027271170880541 
-1.790136421810828 
-1.713240124805283 
-0.9221014920438408 
1.487724091778728 
2.203061315516934 
0.8363066861760805 
-2.710598755943576 
2.004080975652512 
-1.159864378884346 
3.466417166277363 
-1.332206841554997 
-0.7368843380736234 
-0.1910593147743894 
-1.55377666732447 
-0.8778689571262748 
-0.1910593147743894 
-2.498620754440565 
-2.220550140694785 
-0.4925177654651764 
-0.1593805843046031 
-4.13903664109904 
-1.705888742123786 
3.17553349399835 
-2.008292644680007 
-1.49309351120357 
2.666245665740114 
0.1759630977039615 
2.595228001042888 
0.9586577005550186 
-4.120844599099095 
-0.4076909210130468 
-0.8909450156738081 
0.05167177469958371 
2.84335655091812 
4.822859792631029 
-0.08822682844755454 
0.7164970132811471 
-1.349489524785532 
-0.008928342953389701 
-3.615701324322158 
-1.572513980829865 
-2.260144441366441 
-2.676682526900312 
-0.5652507863280867 
-2.371683265809926 
-3.208430442201621 
0.2545380265484953 
-3.254159636376479 
-0.3254821580561497 
-0.1008849314201834 
-1.972064937806931 
-1.601804600093175 
-0.8487842539281535 
-2.381798719335708 
2.672853414885362 
1.483923771481392 
0.8716721274880276 
2.618804532522697 
-0.0332684821018405 
-3.674779792232268 
3.082092454493729 
4.280764904551161 
-1.686336740482913 
0.5393829112205565 
0.205261027764208 
0.9610240511581082 
-0.3454940711062641 
1.896031328186906 
-0.3454940711062641 
-5.000484470302871 
-0.3578590930618189 
0.9268790454644616 
-0.1789295465309098 
1.585020181369705 
-0.2506285268047331 
-2.060887683476603 
-0.2506285268047331 
-2.734014963520561 
-2.159512449121638 
-7.784192206678925 
-2.470686969048796 
-4.627946238083573 
-2.603067757248774 
1.879425784926775 
-0.2354532527904202 
-0.3578148374098081 
-2.208533664251244 
-0.500147417665226 
1.915241988054575 
-0.500147417665226 
-0.500147417665226 
-0.500147417665226 
-1.482461614538026 
-0.8097242262527657 
-1.620209427569803 
-1.620209427569803 
-2.491834686964979 
5.172569288950287 
-0.6290774987612721 
-2.518161405848995 
-2.559650710659768 
-0.4867433704966849 
-0.2578546745662538 
-0.482684772519001 
-0.4867433704966849 
-1.859357199350893 
-1.457251791770335 
-3.406682558668263 
-0.4867433704966849 
0.7108557834984573 
-0.4867433704966849 
1.394949064650812 
-1.015567809213531 
3.353716087370263 
1.58425353399043 
-0.5268466073324698 
-0.4867433704966849 
3.100414063793986 
-0.2386493940950563 
1.63268658024107 
1.209889560217568 
-0.3513361484806176 
-0.5797099214567725 
2.467119708458751 
-0.2217801792581394 
-1.034673529320052 
-0.3513361484806176 
-1.41514878062933 
-0.3513361484806176 
0.7129967686622017 
-0.8103454392948137 
-1.731180953424979 
-0.3513361484806176 
-0.3513361484806176 
3.370039589849464 
-0.04347784504815221 
1.539389833980724 
-2.09929531849606 
-2.791833947214082 
1.761879303989003 
2.839971264734953 
-3.228980459154913 
1.93888342093222 
-2.512925731804457 
0.2906038369195295 
-0.1934270160994169 
-1.065954289218496 
-0.2323684209932928 
-3.393835526290878 
-2.12490891282334 
0.4679213780745292 
-1.214799155732986 
-2.257579637885836 
-1.214799155732986 
-1.421527560823203 
0.6200714342155054 
1.933247617223961 
-6.541171632567247 
-1.556502400135147 
0.195106816688066 
-1.336244057262975 
-1.930918422297453 
-1.700189106254983 
0.1879813105591744 
-0.2492485050744729 
-0.04543474075958038 
-3.371174634589707 
1.261414136521505 
1.438142989432521 
-0.2849572019530606 
3.346243870927013 
-3.216025096466379 
-0.5305989111653935 
0.8240596736906048 
-0.6740075196362412 
2.370660817434165 
-0.6740075196362412 
3.242173733570271 
0.5296111924913713 
0.3806259730782484 
3.868653237902512 
0.385998780793614 
-1.011856193239495 
-1.137299466551397 
-4.347199117868061 
-0.3706369859837261 
-0.3205783522710517 
1.958287135470101 
-0.3706369859837261 
0.36091641484093 
-1.710427907557832 
-2.811563004106644 
-0.8643812791903902 
-1.672316238951113 
-1.630758227705373 
2.688863536350012 
1.265327157445636 
1.224245316909869 
-0.126756375485011 
-1.07685501410393 
-0.3839519714641952 
-4.381360750465117 
-0.6300133560371279 
-1.665788320300532 
-0.3083944960823121 
-0.3083944960823121 
-0.3083944960823121 
1.469250948469134 
-0.3413565628619448 
-0.3756322175300303 
-0.3756322175300303 
-0.3756322175300303 
-1.563318795934604 
2.704341971867176 
-2.124006263864945 
-0.3756322175300303 
-0.2734425077864019 
-0.3756322175300303 
-0.6974340673474628 
-0.3201385920684267 
-2.926965132599454 
0.8049323205770004 
-0.3401211454465335 
0.4850175114091534 
-0.5454659355212201 
-1.4910407430213 
-0.5478219687750577 
-1.575688839334014 
-0.5478219687750577 
-1.614098129535654 
2.831997679924241 
2.29638728700498 
-0.2207186064139845 
-0.7572275243775852 
-2.564558372614131 
0.0473213142854356 
1.280661175606211 
-0.3987503081160323 
-0.6750244010379917 
-1.832364762519203 
2.920471074617458 
-2.384684800739891 
0.4998449371419815 
0.9147570506769881 
-1.016653932950998 
2.479050160280754 
-0.587821830840852 
-0.2014843283885935 
-0.2253988939313901 
1.707747291486746 
-1.00918369979355 
-1.168235297174904 
-0.3716563073604905 
-1.14452048946686 
-6.685782951328279 
1.624493850193757 
-0.8953063058345957 
0.4271536376244133 
0.3388785982255696 
-1.338592772397147 
0.5155328482356272 
-1.58538148171447 
-0.8746868206066213 
-0.4970951192550164 
0.08308355307566596 
1.96561091134652 
-2.483936638709703 
-5.268246681054771 
-4.580750092786603 
-3.287564695645401 
0.003071295937977685 
-0.4993450049775722 
-2.225575161603984 
-1.201941812750946 
-2.396475959283433 
-0.6850554154621972 
-0.2608665049184049 
-0.1428286552535455 
-2.394622251197315 
-0.2608665049184049 
-5.049929779152118 
2.14680000309583 
1.362741627245068 
-1.12878451931564 
-1.533043161109127 
0.9173711153791624 
2.070550707279168 
-0.2205657611078076 
-0.5158318584657097 
-0.9235628848710377 
-1.017374698681331 
-0.5158318584657097 
-0.5158318584657097 
1.191596296124483 
0.1794382159422678 
0.3964989202224209 
-0.9890317491600418 
0.5623916569298198 
1.340938700879443 
0.2371724491062519 
-1.603639661149258 
-1.34313589567462 
2.505072930125595 
-1.603639661149258 
-0.9062728699951583 
-2.389217607600038 
-0.2964453790942584 
-0.2839728173497111 
-4.791478310896106 
-2.808952977869389 
-0.9063082436003359 
-0.5659848029681575 
3.492459831455213 
0.2746615693703784 
-0.2845468899839143 
-0.2845468899839143 
0.8652433134479049 
0.5152387200557684 
-0.7899492824475275 
-1.532710402000284 
2.359064395863811 
-0.7935295376856442 
-1.535947244904916 
1.438858491712416 
-0.9494764668778102 
-0.6644333684370831 
-0.8162821245443861 
2.536460722097214 
-0.7015762743680479 
-1.636658891200297 
-2.788773728436794 
5.734431683554999 
-1.481191485005348 
-1.473340152200663 
-0.408141062272193 
-1.811389147065922 
-2.327557925112503 
-0.2361269941284998 
-0.2361269941284998 
-1.769221383923485 
-0.2361269941284998 
3.104251920504432 
-3.742385905628334 
-0.6818261817671708 
-0.1465431229459277 
-3.317694323901721 
0.7106060994835351 
0.947545090244303 
-0.7056371587499947 
-0.7056371587499947 
-0.7056371587499947 
-3.1441106883869 
-0.5774334439604537 
-0.7388854345349527 
-2.102216125129567 
-0.3709300551638861 
-0.6750164616403628 
0.9884788354268564 
-0.5913541491686153 
-0.6963829516741127 
-0.4077310264053279 
-0.4077310264053279 
-0.1196649783628803 
-1.488855101184825 
-0.4026025782159535 
-0.6436626590133194 
-3.159956543163315 
-0.4077310264053279 
-0.9473505890343772 
1.261322958406931 
-0.2526581451451568 
-0.2526581451451568 
-0.2526581451451568 
-1.445132507822366 
-0.2526581451451568 
-0.1568549855832072 
-0.2526581451451568 
-1.723882414483088 
-0.4801387732250885 
0.6165978727654322 
-0.3980010945060188 
-0.3980010945060188 
-0.9542011398300886 
-1.946792341406602 
-0.3980010945060188 
3.428654573600682 
-0.1576452992406808 
-0.4982856572129111 
-0.4982856572129111 
-0.4982856572129111 
-0.200620266222311 
1.946063702020305 
-0.8386567022915652 
-0.9328903210595196 
-0.8386567022915652 
3.362530586212471 
-2.481725077722312 
0.06499545469478735 
-0.4373399930057826 
-1.404251617189903 
-2.399634950874568 
-0.4874270403070372 
-1.372081671552669 
-0.9872454252707659 
-2.349684518181494 
4.971067720481385 
-1.031494314269292 
0.8402830140162159 
-2.760900645625512 
-0.8952404698115773 
-1.367967892877036 
-0.4357493593701875 
-1.027506937167169 
-0.856874114855121 
-1.261614976126791 
2.429535618393737 
-1.124283731755313 
-0.6316079579617818 
-0.6947138833816073 
-5.016049176767263 
1.877685825891937 
-0.01578688099261704 
-0.3908299309875231 
-2.882466470096661 
2.118603927492596 
2.202440439671622 
-2.074994586087358 
-3.51427138945846 
-1.125959667198671 
1.091331911698332 
-2.223494831845186 
-2.907291654396457 
-0.3831848473028399 
-0.6780066803382014 
0.4875820524783441 
-1.318646565661143 
-0.9775624928041444 
0.2371537940121895 
0.678459604611828 
-0.6536029390874226 
-0.6880163576868484 
-0.6536029390874226 
2.810928798674177 
-0.6536029390874226 
-0.9832968463107314 
-0.1874300827629288 
-1.20977845034752 
-0.6536029390874226 
-0.6536029390874226 
1.18581542999906 
-0.9624454711285652 
-0.6536029390874226 
-2.525673723226344 
-0.7160130339851175 
-0.5219455321865124 
-0.3499251232652498 
1.802125921831838 
-0.7001631746729394 
0.4807354541420534 
2.708221598969196 
-2.748827036954278 
0.6581105703324014 
-2.067279166435521 
-7.305748944136188 
-0.6139895073904806 
0.2129015982613052 
-0.9210404090240081 
-1.782583133955618 
1.196800889010148 
-0.8147941288177674 
-0.03306700939040186 
-2.967915092608424 
-0.9037412963461912 
-0.4208368739081716 
-0.5829583979476055 
-0.8159692023795854 
-0.2026239399510978 
-1.008203324037436 
-2.895040625761625 
-0.5541237804146256 
-2.575554878571078 
-0.3004790773666768 
-0.7766726760096042 
2.164759189301471 
2.128833289075414 
-1.136904135072753 
-1.136904135072753 
-1.136904135072753 
0.9189015788306178 
3.559450425278385 
-0.04371629615551599 
-3.893410110380741 
-0.5205670601694959 
-0.5266777928583021 
-3.817535506848042 
-0.5927555393714603 
-1.415466421368497 
-1.557136195402259 
5.156108824072642 
-1.557136195402259 
-0.4925468798390715 
-1.212416788671302 
0.9405795813211251 
1.339730101337217 
1.581444423484699 
-0.9307542352542059 
-0.9307542352542059 
1.688719528413559 
1.363566966137146 
-1.36787699241671 
-0.5846132581111472 
-0.5846132581111472 
-0.5846132581111472 
0.648490162047219 
-0.4022261827204808 
-1.058377510453081 
-0.093733436253107 
-0.05609931905235652 
-4.011538447765347 
-0.3655301015426697 
-3.232616737042933 
-0.3924048563840649 
-1.772481761217531 
-1.066830520779626 
0.6944962895877415 
3.223524027705942 
1.362924940698824 
1.607366027515526 
0.3841293719395668 
-0.4291701754339525 
-0.4291701754339525 
0.8086318234624135 
-0.4291701754339525 
-1.160720730057105 
2.069913783501489 
-1.04074938912594 
1.906544546852848 
0.5746206383110513 
0.1046739825789972 
-0.5899263335004905 
-1.317959379391721 
-1.873581013058093 
0.913737206913478 
-0.3625884256233053 
-1.387567319331112 
1.449553007351865 
3.869295160392816 
-2.119705548849148 
-3.654771622492405 
1.65649089521391 
-6.974209917067274 
-0.3599270930875353 
1.094836256281504 
1.370329623553956 
0.3039885705856117 
-0.8891868317392004 
1.020607576685718 
0.7363704728986038 
-2.566492150648039 
-2.188001154632377 
0.7166781063690394 
-2.774253382113308 
-0.4182738348097424 
-1.125565809445291 
-0.8196714975640583 
-0.05819976046844264 
0.5208877026670902 
-1.27060747749254 
-0.5691294259964976 
-0.6570107536869101 
-3.106165909440995 
-0.456455452008565 
1.264695346466049 
-0.8000632433337322 
-0.5067843184149263 
-3.477871770534153 
0.5814895326965854 
1.088861445845238 
-2.599812480984183 
-5.336444261919205 
-1.098230590665565 
-1.369296890896724 
-0.1007579718522554 
-1.025399993924408 
0.5391792737539876 
0.6757698741391097 
-1.438722044227757 
-0.9627495767644745 
-1.45470751746436 
-2.296643717828768 
-0.3843105529525175 
-1.624974511269163 
-1.124500463535424 
-0.3843105529525175 
-0.102762801793001 
-0.102762801793001 
-0.102762801793001 
1.241739137823484 
-4.815831979853625 
-0.6182491957274204 
-2.625509289297687 
-1.172276687569155 
-0.4568537106136625 
2.004808446228312 
-0.5154415892520822 
2.341314737296579 
0.8588537757471321 
1.446531895731398 
-1.82536369002889 
1.299504585398481 
-2.810346664423758 
-0.3317715647018106 
3.862887146877473 
-4.946721815222252 
0.4510376981070642 
-5.977842902065505 
-1.365789442875815 
-0.517630520268803 
-0.5649339475563108 
-0.1853699482833815 
-0.8971402878323393 
-0.6317919085702598 
-0.6711580348770549 
-4.357284186417292 
-1.916351349129107 
1.488610276339109 
-0.9295256329531956 
0.9015150286248137 
0.2787023860592333 
1.998684281299395 
-0.9655901962642511 
0.7953834481683041 
-0.4879373628215162 
-0.4879373628215162 
0.6347273653466503 
-0.4879373628215162 
-0.4879373628215162 
-1.021158321116943 
-0.4619079984991372 
1.24953393007115 
1.354954390472034 
-1.105930853664088 
2.223059950369065 
-0.9948701699716801 
-0.5143909335746819 
-3.213613351649707 
1.589664031024714 
-0.5143909335746819 
-4.440579230812982 
-0.5143909335746819 
1.071830573851927 
-0.4316823830968813 
-0.4316823830968813 
0.6433760786969767 
-2.809734180448746 
-0.7023596791052881 
0.7286408871230536 
-0.2845083703860516 
-3.171281857082742 
-0.2110306855396877 
-0.2978498593063944 
-3.381456094598216 
-0.7852220075747484 
-0.35712511556719 
-2.258101242888066 
0.77812992195464 
-0.4803646944696721 
-1.242583403382599 
3.26605239615164 
-0.2961231127950143 
-0.1491006567997029 
-0.2961231127950143 
-1.401273475908411 
0.05627193947485793 
-1.620099321941428 
-1.620099321941428 
-0.2784840205064607 
-2.790894268098268 
-3.268829838732823 
-0.4817677382179872 
-0.7969019082445656 
-0.2975573472375402 
1.232354544135688 
-0.3695174161470858 
-3.078853456910946 
-0.04890302942078601 
-0.2318327350562641 
-1.679571551996981 
-0.9884600684789129 
-0.9884600684789129 
3.483138584600303 
-1.740046602163067 
-1.740046602163067 
-1.740046602163067 
-3.527521299552756 
-2.652279363128162 
-0.5016980100519374 
-0.1948609892964569 
-0.7962659064176506 
-1.696412945125073 
-2.199006111884926 
1.757167442523615 
-8.163747866803529 
1.86702569797251 
-4.119492513565931 
-3.039732857019704 
-0.557949862072105 
1.413600044933581 
0.02110124053108562 
-0.557949862072105 
-0.7945748247037819 
-0.4109172905445425 
-0.557949862072105 
-0.557949862072105 
4.343301249701601 
-1.064118808141287 
-2.749144738471055 
-0.2278819992915608 
-0.2278819992915608 
2.146065358667617 
0.1790552053911569 
1.96223334755704 
-0.5741522244777162 
0.1179437686169958 
-1.153807415675238 
-0.5741522244777162 
1.667392772537651 
-0.08347507220693778 
2.399056903708927 
-0.6955393914535195 
-2.253477619444601 
-0.618902110662361 
-0.04673787004359276 
-0.1522570575709987 
-0.1522570575709987 
-0.1522570575709987 
2.543008355959783 
-3.620084478142368 
1.357733378713622 
-0.1733295569770664 
-2.784310042345056 
-2.784310042345056 
1.092987468896209 
-1.162899786998571 
0.6766514803789446 
-2.357455524452635 
-1.896048103994471 
-3.552473096444224 
-1.389210408818643 
-0.6983781089199296 
-0.4662949404425475 
-0.4662949404425475 
-0.4519899373340451 
-0.1652483394384509 
-1.598894714715158 
-0.5230484215706032 
-0.5067768552135444 
-0.4652684972778393 
-1.24623598745657 
0.4507857903341615 
-2.068424977960067 
-1.416912389198231 
1.370336480198953 
-1.973401355010375 
-1.324034333484466 
-1.324034333484466 
0.3695765451910111 
0.4823102722554316 
-0.5532031739220311 
-0.7172242661658564 
-0.6766526155193269 
-1.892258181929973 
-3.806224624732169 
1.399269834147768 
-0.277414864795684 
-1.30269798122698 
-1.30269798122698 
1.365724197630473 
0.03649281271088016 
-0.8151624631991359 
1.672349841577354 
-1.225012373838558 
-2.879479910488662 
-1.326881261051958 
-1.301417607509811 
-2.277194473384194 
-1.690590595465816 
-4.718765936535755 
-1.568841801038956 
-3.473596448276751 
-2.026711316390931 
-0.889105806490583 
-0.6977649231611126 
-0.4568032306282407 
-1.234226690786268 
-1.500114260271638 
3.693861256129935 
-1.046012657025149 
-2.82441015398247 
-3.517610282146452 
-0.6333609357799839 
-0.2984869649888051 
-3.802090218373556 
-2.120566547241794 
0.8829192300688544 
0.8581274272483065 
0.2311302910453725 
-0.468046658598295 
-0.468046658598295 
-0.3679553793710665 
0.5109313351379983 
-0.3424686950326069 
-2.387454763286093 
-0.3934777173380573 
-0.3934777173380573 
-0.3934777173380573 
-0.3934777173380573 
-1.770879448145089 
-0.614756176790618 
1.621621629561684 
-2.086556148675835 
-3.233541316475341 
0.3499984750944261 
-1.334889594290748 
0.9465140669987944 
-0.426247018970166 
-1.064105521414543 
-0.8322749717624823 
-1.064105521414543 
0 
-1.81205749943212 
-0.7736896746596807 
-1.122244042781918 
-0.02591388284755358 
-0.6382449972556168 
1.863028399159283 
0.6644930019475589 
-3.308408252430873 
-0.6531077594983259 
-1.341315434169587 
-0.6513867957019489 
-0.4865638287024323 
-0.4865638287024323 
-1.442855091050211 
-0.4865638287024323 
-0.4865638287024323 
-0.4865638287024323 
0.4982407360559147 
-0.4865638287024323 
0.4694815498315401 
-0.4865638287024323 
-0.4865638287024323 
-0.8830644917291343 
-0.4865638287024323 
-1.055204313628259 
-2.377284878115975 
3.262909655740187 
-0.4756506585217692 
-0.4756506585217692 
0.3129314595893936 
-0.6431504062345736 
-1.105929976294639 
1.711652673624965 
-0.1345324527220165 
-2.810508037367056 
-0.4071576336694339 
-1.393646999585289 
2.418688350209285 
-0.581247309133948 
-0.581247309133948 
-0.581247309133948 
-0.6569325987529987 
-3.99037706456116 
-5.367493694825895 
-0.3810511544468575 
-0.8775193969114525 
-0.4557917252802488 
-4.215765180496665 
-2.037056037131623 
-0.9259907883971958 
-0.2314642385975386 
-0.2752902911888178 
-0.1237217713446111 
-0.2752902911888178 
-1.473371656709607 
-0.2752902911888178 
2.610160554260531 
-0.3008663493872665 
-0.3008663493872665 
-0.3008663493872665 
-4.222074682093136 
-0.5753221234015838 
-0.7097726304023594 
0.7843999392581709 
-0.3008663493872665 
-0.1010908963850387 
-1.787305997958801 
-1.046566945493193 
-0.3767997915849183 
-1.643752252052634 
-0.1999382704660354 
0.7385779128221993 
-0.1800736041448288 
-3.420981039772866 
-1.881266197260629 
1.624709067561743 
-0.4728524607040949 
-4.267942275904669 
-3.02112103873502 
-2.429665166608226 
-0.3707374535096558 
-0.3707374535096558 
0.6513403328489737 
0.01553046263695573 
-0.7841926375704099 
-4.01171940512059 
-0.3907305443827589 
-0.1240678975777501 
1.131841251458805 
3.760527748282497 
0.9761600906830425 
3.260936418156758 
-1.163331856181553 
-0.223244586486627 
-2.40099936167009 
-0.223244586486627 
-0.7567321198393102 
-0.7567321198393102 
-0.7567321198393102 
-0.606143965302281 
-1.815896667114074 
1.830936383219369 
-0.2134182990712789 
-2.511733599066487 
-0.2214692871447295 
-3.383165293028437 
-0.4249992577733736 
-0.2021035331517674 
-0.2021035331517674 
-1.304381259846831 
2.468101243213789 
4.267169646398932 
-2.6485112108058 
-0.9469785584923199 
-0.4942223803789584 
-0.4942223803789584 
-0.9862125218664581 
1.361180144236022 
-0.2712455038795299 
-0.9862125218664581 
-0.07488979446481077 
3.007563557427287 
-1.475512159860479 
-0.00987985220735446 
-0.09251875110322476 
-0.7717138021973116 
1.877931696176302 
-0.3868209890765992 
1.934522655570102 
-0.08326373472761768 
1.213057761429152 
-1.795273861234823 
0.2883802178567883 
-2.830092133875739 
-0.4091076393454035 
-0.4091076393454035 
-0.4091076393454035 
-0.4091076393454035 
-0.4091076393454035 
-0.02157886289908458 
-0.4091076393454035 
-0.4091076393454035 
-4.018063911876394 
-0.4091076393454035 
-4.671317115426454 
-0.9906981255390179 
-0.4768053777167013 
2.191011258976968 
0.1651944640681469 
-3.033098361933053 
-0.9167383631629226 
0.07207672272198082 
-2.429242434568702 
-0.3939743346970732 
0.2858320498803463 
-0.4463170197517895 
2.110735727209103 
2.041129376333852 
-0.4463170197517895 
3.738207387314953 
-1.706722626729357 
-0.8150986362228614 
-1.131025121978534 
-0.6324365495968407 
-0.4063817326075749 
-0.2885849927744514 
-1.038322442646292 
0.6863131122702031 
-0.4020836915215641 
-0.8413915307638429 
0.9745704187849764 
0.9440174607180842 
-0.4339236434774969 
2.228188755680086 
-1.836839106964347 
-0.782495324723696 
-0.1954155628925276 
-0.6848925638921036 
0.1250192509300292 
-1.311458613521086 
0.9488093652084891 
2.826262120830652 
-0.3535560213950862 
0.2095664932968453 
-0.3535560213950862 
-0.3535560213950862 
-1.503820798336116 
-0.02420600013609615 
-1.060654026623981 
-2.385456674519956 
0 
3.596364103922864 
0.9365886873672588 
0.9304863986293638 
-0.6295587730352932 
-0.5382230980306322 
1.510054425087598 
2.141933134162846 
-2.745807213749194 
4.110543736251167 
-1.179757189406609 
0.3620472047221489 
-1.59281952862097 
3.469288621866549 
-1.289086705465871 
-0.6529267238536601 
0.1858049377311055 
-0.6133383683119962 
-0.6648120180654523 
-0.4411464113784115 
-0.8830738959735179 
-1.915798206020499 
1.823907712202501 
-0.9911539493317104 
-0.02503670161259107 
-0.3031896617460183 
0 
0 
0.2453354379801783 
-1.096345912511736 
-1.814116203196042 
3.464565303910583 
-0.9638132430847802 
-1.315025758465894 
-0.9638132430847802 
-0.7739240795021924 
-5.820366444631823 
2.121523251373993 
3.644124007110152 
-0.3430402771165997 
-1.504225270066604 
-0.5941327891715567 
-1.159011547662091 
-1.335639572846789 
-2.173881993040366 
-2.173881993040366 
-0.6548754393853362 
2.427688903893546 
-0.4195045264359004 
0.098042088225106 
-0.1192476200292695 
1.048614295974909 
-0.9070851638020977 
-0.470733536016461 
-0.470733536016461 
-0.470733536016461 
-0.470733536016461 
-0.470733536016461 
1.334126873397951 
0.7726002976736707 
-1.124397645511884 
-0.5621988227559411 
-0.8090093952884485 
-0.5621988227559411 
-0.3916781406937746 
-0.3916781406937746 
-3.121728698703242 
0.6316855394903192 
-0.2350289807464085 
0.2341419591126683 
-0.4026304852602123 
-0.4026304852602123 
-0.6474798294114961 
2.744338007310636 
-0.05897183910633445 
-4.871285800225066 
3.509518586981852 
0 
0.3025325371095091 
-0.6344589471009797 
-0.8335128919288165 
-3.131651445450784 
0.1037919375556255 
-0.4687017224839589 
2.564616492388831 
-0.3066800897286421 
1.12577279750374 
1.142610035372292 
0.7353365911873961 
-2.66788401088619 
-3.012781783328481 
-1.166736990539302 
-0.9260653666628605 
-1.292126615445863 
-0.5776833948076141 
-0.5955117332014364 
2.592013419565027 
2.027373647782306 
-0.4681572513953112 
-0.4681572513953112 
-0.4681572513953112 
-0.4681572513953112 
-1.33050442820517 
0.8990370853794034 
-0.6015563006452784 
-1.695605068336989 
-2.100402152018089 
-0.8702445566582395 
-0.5187603209870186 
-2.243277727252002 
-1.020223895263979 
1.743598082737251 
-1.787429350360608 
1.115548876716079 
-2.812388152358231 
-0.1566882283790033 
-2.099065529487172 
-0.4359204519795594 
-0.4359204519795594 
-6.802121575703696 
0.8572005421598328 
-0.07071491761498479 
-1.383219887256915 
1.503958899839843 
-0.4778020456430006 
-3.038156476274052 
-0.03826133741139079 
-2.173981739008263 
-3.020267101783814 
2.243214452241209 
-0.05130440826434478 
-0.4254268194106121 
-2.411253092514424 
1.143433932854053 
-1.340181724913452 
-0.9421993968233913 
1.426043072677578 
1.759048963892584 
0.3103828151782683 
-0.05379735995327733 
-0.2816173864572752 
-0.2816173864572752 
0.9514682532860604 
0.08271454593654747 
-0.7397659813931912 
-0.08249359154001465 
0.7057038455485092 
-0.6295267682304412 
0.7618441278652445 
-1.122135543942619 
-0.6095425464058108 
-0.6967525154883187 
-0.3530482617987157 
2.423099356582501 
-1.597236690583281 
-1.001307879326433 
-0.7040286077065582 
-1.05174043731649 
-1.004383896842371 
-0.6554044592039697 
-0.5037657675544368 
-0.6103449929213897 
1.14199101753068 
-0.2766362519531667 
-0.2766362519531667 
-0.24072044431779 
-0.7188799873364876 
-1.254896169046483 
-2.560074190612261 
-0.6126466155963241 
1.268357275292838 
-0.5503022047142402 
-1.473302685361899 
-0.8862112878412461 
-0.2900714186535496 
-0.2900714186535496 
-3.402629311191031 
-1.32529067732944 
-0.5304023688909724 
-2.558446314515228 
-0.8290304071716577 
-0.5037398946920236 
-0.516572505606006 
-1.62255704584181 
-1.62255704584181 
0.8961299560979318 
-0.4036896472501751 
0.7370289700988382 
-0.545728434717174 
0.4236699506507701 
-1.834479962742547 
0.3303053062824752 
-0.4619317823864113 
-1.564941202531156 
-1.463154283799956 
0.5211103611286421 
-0.285673103819179 
-1.793877559683689 
-0.285673103819179 
0.6385471450887841 
-0.3144643388311421 
0.6806106482399978 
-0.06024029362407753 
-0.4660191987111829 
-0.4660191987111829 
-0.4660191987111829 
-0.4660191987111829 
-0.4660191987111829 
2.29790071945332 
-0.4250491574875176 
-4.407640999887985 
1.214294292143798 
-1.684511477277633 
-0.2003368396589618 
0.5627564044889843 
-0.2003368396589618 
-2.290850312862509 
-2.155021419053899 
-0.0582240151669102 
-3.717239018794662 
-0.2310084914491123 
0.4360314471943368 
-0.266457824571784 
0.4471005851024214 
0.7849983193501041 
-2.605334114372235 
-0.8240942088651593 
2.090943422254087 
-0.5924843024775684 
-0.06811289175087583 
-0.4828614666842407 
-0.5530981772754155 
-0.5530981772754155 
-0.5530981772754154 
0.6398730716624355 
-0.5530981772754155 
-0.5530981772754155 
-0.3562438470534487 
2.116117650249383 
2.528753901943865 
-0.2420479585168932 
-2.008917462804453 
-1.375066458684032 
-1.642106623142648 
-0.6443155421520632 
-2.82847258741057 
-1.710885920791795 
0.6367410261280874 
-1.331363154393959 
-0.7254597322939486 
-0.0448000097654617 
-0.916992737381519 
1.140867602595784 
-0.916992737381519 
1.132564315517469 
-1.206456206048144 
3.165444133340946 
-3.166066353557162 
1.468388883807953 
0.1596876074471141 
-0.2464205419611657 
0.2031312409147545 
0.635559386480447 
0.2521356690549053 
0.5686662393142232 
-2.228404324006525 
-0.4183821856091577 
3.4895137622429 
0.2675934723082235 
-0.07240952642053133 
0.4896790839408155 
-2.534934839198848 
-0.4699169928915125 
-1.005406547583343 
-1.343596915268293 
-1.576460001599653 
0.2857425267995278 
-1.530685861027028 
-0.5875418469495504 
-1.404274838729784 
-0.5952908546832518 
-0.5149540844155031 
-2.607926060497276 
2.965887460528852 
-0.399985929092079 
2.731072501327746 
-0.6799553480524601 
-2.155195895452449 
0.8928347259065103 
-3.248254391655994 
-1.697004799240154 
-1.115208980309485 
-1.662137525453201 
0.840907228248758 
-1.264058171600452 
0.5210915857411325 
1.62114298242303 
-0.4155110091777132 
-0.4155110091777132 
-0.3260881638749065 
1.4960429801076 
-0.009647816328377731 
1.682248064716731 
-0.1385628397471059 
-0.2532187820794607 
-0.4138747433683794 
-0.752013421241406 
-0.752013421241406 
-0.752013421241406 
0.7581902868014471 
-0.752013421241406 
-0.3831185051805558 
-0.752013421241406 
-0.752013421241406 
-0.895237011481421 
-0.9679249927098889 
-0.3095828264495065 
-0.03926951456306353 
2.442160031011905 
1.048633524972075 
-1.253327945369821 
-0.337981119536025 
0.3093729497057094 
-3.228377527913611e-06 
-0.5325491820755267 
1.793281354169815 
-3.374129645482779 
-1.091040153618499 
-1.29743180123025 
0.9047181312590794 
3.472723644186413 
-0.02542003112132217 
-1.325122461955939 
-1.265395301285012 
-0.3229851881678192 
-1.916035094935073 
-0.3788932610620636 
-0.628553479653321 
2.590948570812832 
3.418278261743074 
-4.076777640965019 
-3.358167275131613 
1.481891200055141 
-0.6400052947226719 
-1.949993007621479 
-3.242420719292383 
1.018325540593223 
-2.574410119699706 
-3.507582882914919 
1.540513060755982 
-0.1573199246279102 
-1.90042224055313 
0.4612796470820847 
0.4891229432243628 
-0.5200823764552588 
-0.491730771379077 
-0.9229360610202472 
1.288207480681987 
1.555255408118455 
-1.401940188577325 
1.039200514655549 
-1.605830977568735 
-2.438543722979864 
-0.4607665616213674 
-2.340479299563539 
-0.5628248329229862 
-0.8402818620448679 
-1.626951148947069 
1.050079018790766 
0.8378801778119511 
0.2988617078597582 
0.6741394423199462 
0.1268437270090049 
-0.7005023590480168 
-0.7005023590480168 
-0.7005023590480168 
-0.7005023590480168 
-0.7005023590480168 
-0.8912326230798501 
0.2748388593877182 
-0.8912326230798501 
-0.6739598984287213 
3.025202629023044 
-0.8912326230798501 
-0.5463903491342452 
1.471382932748954 
2.189019244628195 
0.2698409138569048 
0.2049331100705308 
-0.5463903491342452 
1.830564675125953 
0.2198950638119364 
3.625142953812636 
-2.47975862058456 
-3.82708502644899 
-0.05653790416863728 
-2.777250377716461 
-0.9308998736761027 
-0.3240048077074003 
-0.3240048077074003 
-0.3331935485588188 
-0.3331935485588188 
-0.3331935485588188 
-0.9728607487318895 
-1.387778780781446e-17 
-2.326239920413171 
0.831286036486295 
-0.6023126485929148 
-0.2310325594166192 
-1.605139571004378 
-0.2611709907509211 
-0.2611709907509211 
-1.320248547130771 
2.057222020906052 
-0.4625300380037152 
-0.1721703180208375 
-0.5839874000351387 
0.4553091308846913 
0.6792405724737253 
-2.190536381062957 
-2.739177012532084 
-0.7815650378928476 
0.8593852891206 
-0.3690127504867903 
0.05896035358554752 
-0.3690127504867903 
-1.311076277720179 
0.8738818577092017 
-0.6559742047797312 
-1.161317108522345 
-0.1810473916551064 
-0.1810473916551064 
2.574946006345918 
0.238305215268049 
-1.40752359503222 
0.5037227563159868 
-0.1810473916551064 
-0.5717998436002418 
-0.9812835923200872 
1.622603844955057 
-1.316525351021645 
-0.7172905428069464 
-0.8748106563115788 
0 
-0.36861939422336 
-0.36861939422336 
-1.466894335700373 
-0.7550207200985047 
-0.36861939422336 
2.466013036299594 
-0.2030582469900135 
-0.2030582469900135 
2.547916802161116 
-0.5431102506168786 
-3.116184705372119 
-1.298471808725674 
-1.806617744069435 
2.566256834802779 
-2.68923500660532 
1.1820309200281 
0.9737021176936691 
-0.1990539448278366 
0.5910967007125322 
-0.692152778974372 
0.2951391749322164 
0.5296264989213899 
-0.7379166658902505 
-0.7379166658902505 
-0.6801462643437957 
-2.671201077805152 
-0.4567636043141406 
-1.232653687649387 
-0.2923928670482411 
-1.702251138954352 
0.5512802801173765 
-0.2923928670482411 
-3.62414629078228 
-0.5797510080431547 
-1.252265410464173 
-0.954351801362359 
-0.8971108114868478 
1.788758782523264 
-0.4771759006811795 
-1.016795463310228 
-3.355038759022776 
-0.4771759006811795 
-0.4771759006811795 
-0.4771759006811795 
-0.4771759006811795 
-0.009671035138585145 
1.966541439222107 
-0.6446125809467331 
-1.499443091279809 
-0.3946369956906543 
-0.6446125809467331 
3.056867789600802 
-1.400496048556074 
-2.133885323029222 
-1.106391968734914 
-0.6217743287192931 
-0.03036054676198809 
-2.824470443477886 
-0.6217743287192931 
-1.885598360950297 
1.851213962140518 
0.07926704267469277 
-0.6217743287192931 
-0.6217743287192931 
-0.6217743287192931 
-2.005208291564567 
1.857718567321687 
-1.12268298229062 
1.418658054137315 
1.663704784048879 
-3.441710180049864 
-2.402771234487087 
-0.3758037031853654 
-2.993729811349747 
-0.3318851318445761 
-0.9455202510269517 
-0.9455202510269517 
-0.4111219252616745 
-0.9501910210704632 
-1.685014999751225 
-0.8753522867601864 
0.2608672996160127 
-3.364823876394713 
-1.765579097437999 
-1.239418213334858 
-0.6438095332156819 
-0.6438095332156819 
-0.6438095332156819 
-0.6438095332156819 
0.5286191008875512 
-0.6438095332156819 
-0.5309210841015914 
-0.6438095332156819 
-1.192547583579781 
-0.7155557405269075 
-0.3577778702634542 
-0.3577778702634542 
-0.1058213620479685 
1.187780889555269 
-2.471143057915707 
1.805427887021013 
-0.8856368961467309 
-0.8440230162919804 
-0.4149737582815524 
-0.8440230162919804 
-2.762035057767856 
-0.5758095458659547 
-0.5758095458659547 
2.456837650440155 
-1.299288408875062 
-0.3641903669291914 
-0.3641903669291914 
-0.3641903669291914 
-0.09003469111498182 
-0.3641903669291914 
-0.3641903669291914 
-0.9001555003321621 
-0.2616766256964345 
-1.217999158051102 
1.722675683879445 
-2.462996496883538 
-0.413371430979932 
-0.413371430979932 
-0.413371430979932 
0.5481313813714305 
-0.8571034791121018 
-0.413371430979932 
-0.3192224565998519 
0.3020141391630161 
2.313709738459361 
-0.5378871137374477 
-0.8685312379728461 
-0.8685312379728464 
-4.609424310704178 
0 
-0.4598462766609486 
4.3201486833201 
-0.5227693377541942 
-0.5097782709954231 
-0.8240806250725259 
-1.487563619850133 
-0.2050717513636067 
2.486041700783677 
0.0851973597977923 
-0.3095772878752203 
-0.3095772878752203 
1.75471485195946 
0.8042894971215636 
-0.3286825844993772 
2.923316468406305 
-1.038073015295886 
-0.5508424438270032 
-1.038073015295886 
-0.1911778479072062 
-0.5151460730400175 
3.503219979919066 
-2.163694697171543 
0.1634167730797375 
-0.2482431952398196 
-2.311230979596335 
-1.596028816414181 
-2.123221606564017 
-0.2482431952398196 
-1.703524685362741 
-0.577683394807614 
-0.577683394807614 
-0.577683394807614 
-2.492448634755947 
0.5507304607896075 
1.290202137940163 
-2.655326790922485 
-1.524544365362139 
-0.06185862167014262 
0.6679050211656157 
1.550605567536494 
-0.6196654485894114 
-0.6196654485894114 
1.839763301420122 
-0.6196654485894114 
-1.975848308828292 
-1.865424496957164 
-1.494408209002255 
0.4704755422271412 
-1.457445323070764 
-0.0647087843184625 
0.01683571565914345 
0.6173563040506038 
-2.087182499168908 
-0.6465081798871145 
-0.5289601764701433 
-2.003575998991861 
1.734970741315695 
1.322785005867786 
-1.060833368249796 
-0.6124661692666595 
-0.8447299114040088 
-0.6124661692666595 
-1.081427891004021 
-0.6124661692666595 
-0.6124661692666595 
-0.6124661692666595 
-0.4509437681123181 
-0.4509437681123181 
-0.1281808471933881 
-0.4509437681123181 
-0.4509437681123181 
1.223227550826281 
-0.0782318827480997 
0.9270466025361059 
0.5985653955165438 
-0.1735499129169207 
-1.568028861533333 
1.380769035021537 
-0.05461296251490222 
-0.8896707061096656 
0.043521429753561 
-0.5768097337758787 
-1.758638705565628 
-1.706767935984344 
-1.228508701901574 
0.5943092554842035 
0.04770880439880958 
-0.6104050544762687 
0.6034698095172886 
-0.3064736516142513 
0.5536781273211437 
-0.3064736516142513 
-2.260751905210733 
0.908998307254716 
-0.3064736516142513 
1.07742821071862 
-0.3064736516142513 
-1.727035158268484 
-0.6855341996052476 
-0.6855341996052476 
-0.6855341996052476 
-0.6855341996052476 
-0.6855341996052476 
-2.744481417779735 
-0.4545015084972122 
-1.363504525491636 
0.5082819516514043 
-0.236327873022067 
5.361054918830574 
0.1992164597284659 
0.6404479447270359 
-1.51616074307252 
-2.759606413992143 
0.003419289108340107 
-0.2675290272849373 
-0.9970139574701822 
-2.471005875687365 
-0.264049738785274 
1.623653845301675 
0.2691919604376209 
-0.264049738785274 
-1.220864460472911 
1.725637284744014 
-0.5631022102517153 
2.494048066532294 
3.577751431695364 
-0.9856079035012556 
-1.674192553288819 
-0.5331910188270745 
-0.5331910188270745 
-0.2806389319989195 
-0.2136797890640046 
-1.732460900168078 
1.867691357207206 
-3.202864618151308 
-1.156318051699019 
1.24399515239771 
-0.1425313061887654 
-0.1425313061887654 
0.5233193259895301 
-1.070337726880619 
-3.540872249299359 
-0.3950104484865117 
-0.3950104484865117 
-0.3950104484865117 
-0.3950104484865117 
-0.3950104484865117 
2.681941604819103 
1.311906047953011 
-0.3014931965936116 
-0.3950104484865117 
-0.1119245628522609 
1.108585571036782 
-2.97562387972512 
0.2480057908000379 
-0.5551340769068576 
-0.03471579196458546 
-1.053648156284156 
-3.254193079112235 
4.074126204530788 
-0.999373108006794 
1.546932976669712 
4.485903817966106 
0.8485874113417498 
-0.37225711175355 
2.443312120450127 
-0.37225711175355 
0.004965480383677352 
-0.6521956469337565 
-0.7244396588989309 
-0.7244396588989309 
-0.7244396588989309 
-1.401341590118093 
0 
0 
0 
-1.66759385342312 
-0.7723235412286408 
-0.01554342696419442 
-0.796821050603697 
-0.7723235412286408 
-0.5778612304940882 
-1.5221536503808 
-2.179602461944883 
-2.558398225122791 
-0.1344137709428334 
-0.799417342700995 
0.5225651353963934 
-0.2988594610351337 
-1.649359050410306 
-0.2988594610351337 
0.9092375409953722 
-0.7181248700023133 
-0.4789206785639257 
-0.2829629075407559 
-0.2829629075407559 
-0.2829629075407559 
2.654404756373525 
-0.5010508595633001 
1.368187505553357 
1.113178816336752 
-1.093346325205146 
0.4616721007852749 
-0.590932085324547 
-0.590932085324547 
-0.590932085324547 
-0.1503952714826645 
-0.590932085324547 
-1.343205854661528 
-0.1577350162895466 
-0.7400360124015927 
-0.2888550604066513 
0.0760517817361941 
-2.736621756605558 
-0.2888550604066513 
-0.6825661791645657 
-0.6825661791645657 
2.28237142055086 
-1.65557538972177 
-0.6825661791645657 
0.248234894259198 
-0.0663671754630544 
-0.7858730390133566 
-0.6812709397382297 
1.337285656108237 
1.84711617266779 
-0.5284956362207536 
-2.146051243897384 
-0.8171164013994495 
-0.5284956362207536 
-0.5284956362207536 
-0.5284956362207536 
2.000729757017501 
-0.5284956362207536 
-0.5284956362207536 
1.515504898994975 
-0.829692438609498 
-0.6276927663861824 
-0.6276927663861824 
-1.384941050451566 
0.07550505677218089 
3.995902031502904 
-1.384941050451566 
-1.328858337098082 
-0.7901172567030743 
-0.8259235887466099 
0.7395255494520018 
-1.875431810211275 
-1.337112530633563 
-1.314276190567011 
-1.314276190567011 
0.4394857585126986 
-0.1456349707043063 
-0.8658168065493178 
-0.8658168065493178 
-0.6980681817612485 
0.293750989548411 
-0.6047026914037396 
-2.793933573271175 
1.439311153392872 
-1.422980485485323 
-1.170610014125271 
-1.422980485485323 
-0.726367566139535 
0.1564752764895573 
-0.3112287200414598 
-0.3112287200414598 
-1.152464213597488 
-0.7740303903530792 
0.5321634502639834 
-0.7557530038681861 
-0.1869944753968326 
0.09163151858403087 
-0.2288711100728869 
-0.5652869311910631 
-0.5023040926444413 
-0.5023040926444413 
3.59680437695964 
-0.5932946556651507 
1.838698782545481 
1.042789827973564 
-0.5208638280286542 
-0.4253394466493721 
1.363347376749162 
0.1654780242109851 
-1.281667801004965 
-0.8396273178039917 
-0.09515042322883752 
-1.641743993715212 
-1.641743993715212 
-2.549014184493974 
1.241436911860167 
-0.2880500396840034 
-0.5641154411586815 
-0.5641154411586815 
1.811260766791377 
-0.5167066188736339 
1.435632366574082 
1.541238906543915 
-0.5641154411586815 
-0.7626770680409594 
-0.411942500921632 
-0.411942500921632 
-0.411942500921632 
-0.411942500921632 
-0.411942500921632 
1.476327742020894 
0.1163247365326715 
-0.3734456966649342 
-0.411942500921632 
-0.6267987120914628 
-0.08129913481093901 
-0.02717168755822454 
-0.9380681266738077 
-0.6267987120914628 
-1.513175172733183 
-0.1211090711980095 
-0.6716858838169345 
-0.406011883092787 
-0.406011883092787 
-0.8625154146520163 
-0.8625154146520163 
-1.381969100649372 
-0.4116109724257317 
2.425258929407481 
-0.5292548275936377 
0.6354498715009871 
-0.6428128352526949 
-0.6235044531991965 
-0.6235044531991965 
1.851577099541909 
0.7820122371639442 
-0.5091964661943024 
-0.4323453520413916 
-5.139073212128593 
0.5564583972928783 
-1.158160490728822 
-0.3018785282012415 
-4.287533273361166 
2.747855564129002 
-0.8319510274259321 
3.450647362218624 
-2.121579222213591 
-1.145729567332357 
1.246859737316476 
2.086622190047913 
2.252362492854751 
3.06806488926247 
-0.3466986659364579 
2.996967771714108 
0.01409943743613491 
-5.467005459104889 
-0.1284699238696448 
-1.091325912945772 
-1.506431508391074 
-0.3706758474511226 
-0.3706758474511226 
-0.1125611892131677 
-0.3706758474511226 
-1.628501790858757 
0.3598884439497764 
-0.3381247314731189 
-0.9551800340983663 
-0.6605188463942379 
0.6388213145215426 
-0.9551800340983663 
-1.480873149640553 
-1.806974675612508 
-1.992133270114751 
-0.969040061209959 
1.524835823641058 
-0.969040061209959 
0 
0 
-2.728274453267516 
0.273572998767697 
0 
-0.8751204270993023 
0.05412124637816547 
0.4248717839833657 
-0.1701085435878385 
-0.6311154534646842 
0.05403040922525069 
-1.038349898741734 
-0.6894719223137338 
-0.6311154534646842 
-0.2641487706590789 
1.740725085242768 
-0.6311154534646842 
-0.5247728304879039 
-0.6228805243178793 
-1.239635690354863 
-2.24346513415178 
-0.4849863076417155 
-1.469896625223795 
0.6052104672027132 
-0.5390373179442051 
-1.61074125785439 
0.2203490782431686 
-0.551492935829208 
-0.6667419152297007 
-4.00022197065849 
-0.6667419152297007 
-0.6667419152297007 
-0.6667419152297007 
0.3740459148781403 
-0.3736383661369155 
5.394995504837208 
0.1315937291751124 
-0.8095797898909032 
-0.9506467450624053 
-1.130975800246057 
-0.8968690533245337 
-1.698630009956496 
1.892166495591452 
-2.532902865448026 
-2.939223811583939 
0.2943548132161848 
0.1398624607407271 
-0.9504941620172784 
0.9547199249316697 
-0.9028027623083911 
-0.02922556336751802 
2.941401729963856 
1.155893942330033 
0.6162645472602731 
0 
-1.531718983243943 
-0.5065271151014631 
-2.077022812109651 
-2.334094560203575 
-0.2131257429123181 
-4.335747090965913 
-0.4541296964795504 
0.1471188112053121 
-0.4541296964795504 
-0.1122021524397967 
-0.4541296964795504 
-0.4541296964795504 
1.762633129205479 
0.6684587566154219 
-0.499478302407639 
4.028733228385733 
0.3687114093950177 
-1.67041390991858 
-0.4109924501641942 
-0.8148166817668345 
0.4382117118865219 
-0.6964162209322741 
-0.6964162209322741 
0.1748644105409866 
-0.5344082745342121 
-0.2180798899045694 
0.9493611931304005 
-1.330408581991446 
-1.025286209703681 
-0.3518717432933489 
-2.14168357324166 
-0.3518717432933489 
2.174621309986934 
-0.3518717432933489 
-1.554689596886151 
-0.97174966654386 
-0.464240877820921 
-0.464240877820921 
-0.464240877820921 
-0.464240877820921 
-0.464240877820921 
-0.464240877820921 
-0.464240877820921 
-0.518103427566451 
-1.232920178611858 
0.39960494362587 
0.5119561938580915 
-1.046906831378774 
-1.088923810644203 
0.9512117396643187 
1.467341601996916 
-4.293820350146023 
0.4828659262959007 
-2.067049019365643 
0.08095287774203454 
-2.029584526855693 
0.9674510210063546 
-1.934796774277146 
0.6289166967291951 
-2.698719807559832 
-0.9996971955834349 
-0.2216291087283531 
-1.945507385916527 
-1.223282483905327 
2.339636979313554 
0.1316690040830337 
-2.451650913603738 
-2.471183301211961 
0.5411771578609992 
2.811549124297589 
0.2815862083837871 
0.2815862083837871 
0.2815862083837871 
0.9394026925153854 
-0.3241898856276855 
-0.6636556582468416 
-1.023665350933134 
-0.6636556582468416 
1.100120233128173 
-1.588952883378486 
-0.8658035257780956 
-0.7891662122029738 
0.8055084878134806 
-0.03575823359025482 
-1.529288986676325 
-0.2097103042157639 
1.726426399652339 
-0.864904780698957 
-2.390926511820254 
0.7585263208247035 
0.400499144150841 
2.74535016554713 
-3.982231926756242 
-0.1065059336222845 
-0.1065059336222845 
-0.1065059336222845 
-0.1065059336222845 
-0.1065059336222845 
0.2073870343934067 
-0.6991194955963485 
-1.762911699874146 
-1.770335120187228 
-0.7078805159348723 
0.2812123729300088 
-0.3925156735594207 
-0.3925156735594207 
1.657723525451493 
0.9977168220575789 
-0.1983139373599023 
-0.582673578765064 
-2.820940537312739 
-0.2822691610468462 
-0.3680742495584207 
-0.6446924236949152 
-2.721015199536132 
-0.4287763095109552 
0.2146534962221482 
-0.4287763095109552 
-0.7353948620825678 
-1.297518865642063 
0.665648551932956 
-0.403292569895889 
-0.6711976894303687 
-0.07319055959873468 
0.6698599324023351 
-2.472068414183784 
-0.917332722393069 
-0.2612081995876586 
-0.4497292271179357 
2.955665519098379 
2.602401430493404 
-1.607956612307026 
-0.8921512336596263 
-1.407496250049157 
-2.900343013612757 
-0.1685336880909955 
-0.7398106171363125 
0.6000359959628022 
-0.7606892936606751 
-0.6157492636648171 
-0.6157492636648171 
-0.6157492636648171 
-1.141715533098168 
-3.57722999148218 
-0.9652108812970092 
0.6424643130570494 
-0.3580291796716046 
0.50492485050831 
0.07245872470697037 
-2.014677602730718 
0.8401386621832888 
1.323307030218146 
-0.4979263111750646 
1.274056641527201 
-2.619245348254265 
0.3457201629291036 
0.608889466828739 
0.3386014512191636 
-0.633403127633997 
-0.8170919264055122 
0.8961659367523631 
-0.6975605281560682 
-0.495887891407334 
-0.0681993751273836 
0.3011626338039093 
-1.458930873791618 
-0.9997205124541847 
0.134654963787915 
-0.7588956401607844 
-2.260931085721273 
-3.927522490273751 
-2.035271491540174 
0.07852894646529981 
0.417054061128843 
-0.1091015755965864 
-0.9729420423088233 
-0.1091015755965864 
-0.06381438969345965 
-1.536677157431452 
-0.5396195626290492 
-0.5396195626290492 
-0.5396195626290492 
-1.674586463250649 
0.09439932835435129 
-0.5396195626290492 
-0.5396195626290492 
-1.043965233775753 
-1.261991746428397 
0.3801654034786277 
-1.287543698763327 
0 
1.281960198397743 
1.4266015494588 
-1.011178732875678 
-1.818762008518902 
-1.011178732875678 
-2.134058400954031 
-1.031856828371706 
1.483886722079773 
0.7654145746951847 
-0.1555683961428882 
-0.9497910256919609 
-0.9234256084568893 
-0.9234256084568893 
-0.9234256084568893 
-1.840093900822704 
0.2996798512003288 
-1.613950076465075 
-1.328831809719178 
-1.125999595430601 
-0.4225687608377519 
0.0631914735262471 
2.191976081840842 
-0.1733095844101913 
-1.181066234903845 
-0.8128651542112509 
-0.6842698893472359 
-0.3169152986752257 
0.872376685115991 
-0.5562852044548074 
-0.6645640013579922 
-1.18455140156817 
-0.256730988221208 
0 
-1.867714244563841 
-0.28702153492398 
-0.2591360034118566 
-0.2815368489685723 
0.9071120787019312 
3.144817284548673 
-0.38642987350613 
0.4051111059130997 
-2.931814258092759 
-0.3372386434056531 
0.9475120504812347 
-1.30201633329479 
-0.9941075197118922 
-0.7479413351600017 
-0.7479413351600017 
-1.139722143170951 
0.9757299894164324 
-0.7479413351600017 
-0.7479413351600017 
-0.7479413351600017 
-0.7479413351600017 
2.215404846751427 
-1.537688761888006 
-0.7479413351600017 
-0.267753124369246 
-0.7479413351600017 
-0.07869258511904534 
-0.5901856044463049 
-0.1119737340097566 
-2.878808802878716 
-1.938898213093726 
-0.3391040005913971 
-1.592899532132815 
0.1520376394960388 
-0.5700276866309695 
0.0207981378358582 
-1.772593462991093 
-0.181705697368052 
-0.7209751362459246 
-0.32346398739135 
-0.32346398739135 
-0.32346398739135 
-4.009564020574035 
-2.189276881772241 
-0.8812063920034678 
-0.3285207278833089 
-4.142473462140012 
-0.3285207278833089 
-0.436568554034357 
2.049752964531032 
-1.282563417828024 
-0.9568323421495619 
-1.353600404489763 
0.1684039079450018 
-0.7450288792651416 
-2.082821514438987 
-0.149933620526239 
0.4275642896533907 
-0.7450288792651416 
0.2187966191359935 
-1.531641262039759 
-1.546379905930965 
-2.725292309675922 
0.3272666631965135 
-7.264787630484169 
-1.424638815807656 
-0.6615574583957065 
-0.6860839619211655 
-2.195544271673042 
-0.5212506546932815 
-2.08154927237878 
-4.287281497602563 
2.872397216469558 
3.742816223319369 
-1.484086416907868 
-1.259000414198533 
-1.983477754975098 
0.6480833253511042 
-0.4976175889954566 
-0.9271074024394765 
-0.3440887116774309 
2.712180812109817 
-3.342022902055264 
-0.8275079968871354 
-1.180419027853367 
0.1330538355547546 
-0.8506413492236146 
-1.101146993600411 
-0.286787260987641 
-0.7366223645830571 
1.709328956235829 
-0.7366223645830571 
-2.370166120162137 
1.486369859093053 
0.3725430573816489 
-4.696281170739987 
0.4683360079751694 
2.494837499290453 
-0.8748324213997039 
-0.6960837023193167 
-1.151421478682738 
-0.6960837023193167 
-0.6960837023193167 
-0.6960837023193167 
-0.481942933555115 
2.353977408146879 
-0.6960837023193167 
0.2547463774195426 
-0.6960837023193167 
2.782243259242296 
-0.5833033858127231 
-1.591430726949934 
-0.254233521087801 
-4.41649088915149 
-0.5135714664029777 
-0.254233521087801 
-1.980100672085094 
-2.097992156580435 
-0.287065418095878 
-1.055281758216988 
-1.065221244351075 
-0.6862177680229744 
-0.121953782632449 
-0.1613163635630417 
-0.1613163635630417 
-0.1613163635630417 
-0.1613163635630417 
0.6798644953369174 
-0.583385802031459 
1.342582962214 
-0.583385802031459 
-0.583385802031459 
-0.5943624580283976 
-2.974203352369928 
-0.7649680945106346 
-0.6024506496738544 
-0.6024506496738544 
2.830736323675476 
-0.3513152818480942 
-0.572871956623262 
-0.6077949686164398 
0.1833794780891076 
-0.04254192056785989 
-0.6260228188173471 
-0.372502412693382 
-0.372502412693382 
-0.372502412693382 
-0.6254858095341351 
-0.6254858095341351 
-2.186916513584896 
-0.6254858095341351 
-3.246570006383409 
-0.04312704419907392 
-1.207728681324867 
-1.517218065946287 
-2.352230109592341 
0 
-0.4961071257919626 
-0.983211011234018 
-0.6070521345547244 
-1.367066888139873 
-1.930060607979625 
-1.768966114271012 
-0.666499553223856 
-1.201719197444848 
-0.666499553223856 
-2.855972738342331 
0.166765917349315 
-1.49983725207931 
-0.4899876878866053 
-0.4899876878866053 
-1.808314530099778 
-0.5311617750577131 
-0.6293606971309016 
-3.190084346295919 
0.4791088800821751 
-0.01762169798704224 
-2.977932120459213 
1.693187186845255 
1.004064818343342 
-0.6134701233822302 
4.222574743911135 
1.93404485993975 
-1.010390266027559 
-0.7402277804235491 
2.316678892701191 
-0.8676877265360232 
-1.007972472687336 
-1.058946766457894 
-2.62423712012577 
0.3651511936656133 
-1.000734498145242 
-3.393076528681194 
-0.7213794867731717 
-0.6676161305820797 
-1.32465692695869 
0.0882261091045741 
-1.278885795654471 
-0.5499909392549416 
0.2197163167288838 
-0.7001710982410873 
-1.17866640315544 
-1.17866640315544 
-0.261912089079367 
-0.449474262454756 
0.1734706918874841 
-0.9796457809371836 
0.7367948493009966 
0.7367948493009966 
-1.264168979685881 
-1.795791189691648 
3.184001556849799 
-1.748558763889727 
-1.23218845830054 
-2.233095290270786 
-0.4389980846052916 
-1.402595459456601 
-0.06332371926768844 
-0.06332371926768844 
-0.06332371926768844 
-0.3243753890349675 
-1.715471022351383 
-1.556928027758377 
-0.5852048441893857 
1.804400874119931 
0.9901691532575969 
-0.1398439074558261 
0.4659458521154115 
-0.3895252349424353 
-1.59022277983235 
1.908756035467778 
3.096283859981124 
-0.4200725453816874 
-1.517931820088875 
0.8919756279693466 
-0.4569245367351795 
-0.2421759509152779 
-0.2421759509152779 
-0.9071215019160216 
-1.046739613874361 
-2.592206173363334 
-2.392492149399101 
1.578990447006343 
0.7526154893645184 
0.4585458573334142 
0.8983368500161818 
-0.2210503700539964 
-0.2210503700539964 
-0.1562113387427258 
-0.6209886849209089 
-1.665625610301679 
-0.7352738860176038 
0.6758585028379944 
-0.4488358508334022 
-2.103944812108634 
1.363157611442188 
-0.4488358508334022 
-0.4488358508334022 
1.055830544316631 
0.5935632456877373 
-1.351150801929451 
-0.41028476178176 
-0.41028476178176 
-0.41028476178176 
-0.41028476178176 
-1.999552176460136 
0.475666250807907 
-0.7545398067009884 
-0.5705608448033594 
-2.557543283390219 
-0.6782249926934578 
-0.6782249926934578 
2.706246273190309 
-0.9747595930160187 
-0.9747595930160187 
-0.9747595930160187 
-0.9747595930160187 
-1.515743673511116 
-0.9747595930160187 
-0.2296801551348348 
-0.9182874648531586 
-0.9065713295288371 
-0.09431577653956551 
-0.6775279227190172 
-0.3994629459093735 
2.350537094421924 
0.6379686263611239 
0.4015632467399725 
-0.597613789340268 
-0.05807747631985728 
-1.44217994491686 
-0.7619434554500553 
-1.757184599644627 
-1.356750031613875 
-2.277962273853328 
-2.664373507833043 
-1.410505018055196 
-0.1974984839807874 
2.029446270571606 
-0.1974984839807874 
-0.1974984839807874 
-0.1974984839807874 
0.7264331002949886 
-0.8647591978642746 
-1.055250714296353 
-1.055250714296353 
-0.4372259840128197 
0.5957357090732339 
-2.222223000590843 
-0.4260216152805817 
-2.43796200809427 
-1.665280048446778 
-0.1194742631159848 
-0.5855773503314249 
-5.070274602427709 
0.2470153959259844 
-0.2927886751657124 
-1.23024061638702 
-1.709127292502849 
-0.3148182508616605 
-0.3148182508616605 
-0.3148182508616605 
-8.629057988583776 
-4.584796449372562 
-0.3148182508616605 
-1.233034880394432 
1.469339741287466 
-0.2004112080776231 
-0.4982383322643759 
-0.4982383322643759 
-0.8628424544294161 
1.637502613801028 
-0.007710148393198648 
-1.069090629868735 
-0.4982383322643759 
-0.7679341260780836 
-2.487087895729381 
-5.070574113202668 
-0.7337898428501726 
0.1841118483279901 
-0.5919449061708337 
0.541047507806893 
-2.225851536199395 
-0.8253822070707951 
-0.7633773559116759 
-0.2607294102383019 
-0.7633773559116759 
0.1605346338072581 
-1.177206853249011 
-2.331986291797069 
-0.635032808608999 
-0.7942195372596992 
-0.9999370539832118 
2.4217152548029 
-0.3737071291340476 
-0.5066879857238121 
-0.9718329785580425 
-1.537842233713576 
-2.634443361558774 
-3.280203688108941 
-1.056278402431461 
-0.5997985076096306 
-0.5997985076096306 
-0.8186054138381126 
1.623474349681429 
-1.09887188261931 
1.996280922734328 
-1.09887188261931 
-3.32712645040589 
0.6469463771862006 
0.001619615407444187 
-0.5353380587558202 
-0.4755335190861982 
-0.6656103842602156 
-1.591066687557706 
-1.137922481840728 
0.424039252921228 
0.8053178458185348 
-1.647349082532535 
-1.952681367501262 
-0.5059849967931878 
-0.8181596388036511 
-1.691965509067141 
-0.7451680846973391 
1.973586636003537 
-0.4366694129476384 
0.2660087056882136 
-0.6189121622855147 
-0.6189121622855147 
-0.9398396105647668 
-0.9398396105647668 
-0.1993015147716463 
-2.871311717235867 
0.6574839835417636 
-0.4139847735565831 
1.105059001231952 
0.03293198496416049 
1.591960758995988 
-0.0683781425258906 
0.1414315896305435 
-1.28355610394522 
-1.747117537912624 
-1.747117537912624 
-0.6871014514531999 
-1.092171374857913 
-0.9070425814744237 
1.581408116198195 
-0.4884532261751052 
-0.5749772226098593 
-0.5902269912684243 
-2.733813139728668 
-0.368815976783834 
-0.3487263207935055 
-0.3050545433555802 
-0.07758314405069168 
0.7997465909780329 
-1.155596874265497 
0.4465814700311331 
-0.5025661592049415 
-0.5025981968919069 
1.470379846497661 
0.1804279832344533 
-0.2318268788167755 
0.9866046500062398 
-0.3876624430327094 
-0.6458316841801345 
-0.6458316841801345 
-2.470507980355802 
-1.009825403113259 
-0.498917057366414 
-0.498917057366414 
0.3021817546506054 
0.2887418358632632 
0.1980072292009393 
0.9104335882758129 
-0.2443681431881936 
-1.079509123655481 
-0.8750297718605938 
-0.8750297718605938 
1.863230120486767 
-1.42143439451211 
-1.383558021566706 
-2.413254000352794 
0.468088349599433 
1.028815884285931 
0.3722595327929867 
-2.234091375492018 
0.2217973447786019 
-1.292515462546963 
-0.4256922400353306 
-0.4256922400353306 
3.204693219874271 
6.878211043730164 
-4.936089984602481 
-0.6813626017172588 
2.462552573580147 
-0.8258656167566034 
0.1980413807215836 
1.42710554128471 
0.8899834735512022 
-0.8258656167566034 
-0.8258656167566034 
-0.4269846733183791 
-0.8258656167566034 
2.629890924791996 
-0.5714747504042678 
-0.5714747504042678 
-0.5714747504042678 
-0.5714747504042678 
-0.5714747504042678 
1.843903818440723 
-1.522252337260881 
-1.673607272518422 
-0.5060842929748378 
-0.5060842929748378 
1.309498509163829 
0.4933709620855966 
-3.558992764605934 
-0.3757879275692084 
2.251856671457863 
1.546936382379159 
-3.907730774234132 
-0.09633730319112177 
0.01228868852378166 
-1.203499668411976 
-0.5000045966058499 
-1.198688284320578 
0.01862660588168009 
-2.377494118074693 
-0.4705678489422409 
-0.04610395804475936 
0.917252475331705 
-0.04610395804475936 
-0.422951636793248 
3.698985507561728 
-0.422951636793248 
1.091801261786815 
2.366240420719291 
-0.7773857264833152 
0.100477207234883 
0.1456796012462295 
-1.358829333023803 
-2.169827018365905 
-2.096333756011529 
2.70784674311696 
-1.655787503252034 
1.155446316803766 
0.2327534644303473 
-0.5089406326518896 
-0.5089406326518896 
-4.730142598520529 
-0.06851239444521379 
-1.13524785500311 
-0.9032907464209126 
-1.13524785500311 
-1.13524785500311 
-0.1832392787441323 
-0.1832392787441323 
-1.464160729943202 
0.1587578769687711 
-0.3782490892766889 
-0.3782490892766889 
0.432782452038341 
-0.8084924008460272 
0.3619381040059484 
0.08095696783486792 
-1.200660668076254 
-0.5966889379616069 
-0.5966889379616069 
-0.8430150499322283 
-0.2355537422436159 
-2.15525207886887 
0.1402417976449082 
-2.736743428609926 
-2.906862123983511 
-4.536904721112068 
-0.8255938790203594 
2.145859675762026 
0.2135146997118971 
0.845856905006888 
-1.260642700045062 
-0.2124526514198991 
-0.2124526514198991 
0.2762938052674305 
-0.238588399085503 
-1.423308335270347 
-1.423308335270347 
-0.5279134619162964 
-1.731273619587086 
-0.9774457367802005 
0.3406865567010703 
-0.592414944882063 
-0.4909537229236718 
0.8102647313174733 
-1.50395154611271 
0.6426911556882525 
2.34800032570948 
-0.6283847573335936 
-0.6986773896962575 
1.333508418050377 
-2.085252493164454 
2.498094267557048 
-0.6986773896962575 
0.6249091902620366 
-0.0197675108111216 
-0.0197675108111216 
-0.0197675108111216 
-0.0197675108111216 
0.9318010598508992 
-0.6109238955125637 
-1.094543294737682 
-0.8436398458213179 
0.1337030765925443 
-0.477141445493329 
-0.5983668335701305 
-0.5983668335701305 
-0.5222982747002858 
-0.3997374038086201 
-2.295533795538166 
-0.4692964932816648 
-1.946040660629597 
0.04463545158253797 
-0.4692964932816648 
0.8052708400330111 
-1.397719291707878 
-0.4847667427042627 
-0.5468969878854968 
0.2094644582678711 
-0.4847667427042627 
-0.930579445166647 
-0.3426983317138514 
-1.819405423884977 
-0.3426983317138514 
-2.289215192075359 
-0.6871962495753022 
-0.7350905460841566 
-0.1287698747774443 
-0.5902402393401394 
-0.5902402393401394 
-0.1130616485160529 
0.04442502055150663 
-0.6017624827759411 
1.468983828968223 
-0.6017624827759411 
-0.5380425964406111 
0.9319468542150909 
-0.3030310438113125 
-1.148223281993154 
-0.3971525865942838 
0.1577095812245904 
-0.8807634121012706 
2.153444390859185 
0.305016988227577 
-0.2910845650924747 
-0.7943654653564853 
-1.252834307212668 
0.3155651128513213 
-0.967680736446043 
-0.01636752580557054 
-3.702561986116911 
-0.8470469066431863 
-4.859995923131069 
3.024390947233788 
1.761279674085317 
-0.4358715833002507 
-2.707158148478835 
-1.659162226281396 
-0.3000342041543318 
1.883115965505752 
-0.8761921694131876 
-0.6304973466155933 
-0.2705758436762458 
-0.6304973466155933 
-2.07102936976084 
-0.6304973466155933 
0.7655675976092666 
-0.6304973466155933 
-0.6304973466155933 
-0.6304973466155933 
-0.6304973466155933 
2.189807616233473 
-1.103129386340562 
-2.503483430477738 
-0.579621501773088 
1.665946432508901 
-2.706222062535858 
0.4626144692883121 
-0.3046543330535517 
-0.4621981888295275 
1.429349477266972 
-0.3054573037912123 
-0.3054573037912123 
2.855638272761718 
0.9370726392356363 
-0.4166440385501512 
-1.719444628712387 
1.193634964775325 
-0.3028727724790732 
-2.171976463773749 
-2.293763015154057 
-0.2505869432499085 
0.3092333725230316 
-0.08938438172948207 
-1.571015007163171 
-0.2484305887962844 
-0.5290573367581153 
-1.567420396812983 
-0.5001064039044875 
-0.475171739362136 
-0.8372782614368116 
1.562560275722045 
-2.942540102113323 
-1.238132503264775 
-2.058584341616737 
-2.501594633060504 
-1.975648251904433 
0.3048624181237329 
-0.6435244018010554 
-0.8165052638383677 
-0.8840689533166129 
-1.352722707532974 
-0.8165052638383677 
-1.688538530775077 
-0.6675558839672977 
-1.464466066596298 
2.624547118920088 
-0.3101245160243636 
-0.3101245160243636 
-0.3101245160243636 
1.097790302455546 
-0.7729276491616573 
3.72466309151981 
-0.4569476293797577 
-0.4569476293797577 
-1.21189782386903 
-0.4569476293797577 
-0.8353294917081134 
-0.4569476293797577 
0.5494739034721289 
-1.275955768890148 
-1.512325293310073 
-0.3577899364553888 
-0.3577899364553888 
-0.3577899364553888 
-0.3577899364553888 
-0.4862135581020288 
-0.6175889245252358 
-1.871528759905049 
-1.390089009066599 
-1.450608890284435 
-0.5218705286422083 
0.2092917622049899 
0 
0 
-0.9905900167559415 
-0.9905900167559415 
0.7878278992560401 
-0.5718842323800137 
0.4701491048689189 
-0.393320450225919 
0.7980077962972941 
-0.3936615119171926 
-1.988579670088232 
-0.0332076599184904 
-0.2678551656326696 
-0.2678551656326696 
-2.294675158220647 
3.370251833784742 
2.510181530371969 
-1.949973531872592 
-0.5768781780263276 
-0.5768781780263276 
-0.5768781780263276 
-1.007045284373667 
2.99307801989802 
1.67721740171012 
-0.2745735253574381 
-0.6685687107004005 
-0.6685687107004005 
-0.4279206583923389 
-0.6685687107004005 
-0.5513777099964451 
-0.006992943442310158 
-0.5759897926286345 
-1.508422281500435 
-0.02017223950620737 
-0.5759897926286345 
-0.3046851896669188 
-0.3046851896669188 
-0.3046851896669188 
-0.3046851896669188 
-1.099745476594632 
-0.6146618415836943 
1.407109446334431 
-0.6146618415836943 
0.3278545904635473 
-0.6146618415836943 
-0.6146618415836943 
-0.6146618415836943 
-0.6146618415836943 
-2.48927737188044 
-2.092291131632869 
-0.5991148124366533 
-0.6545367477972818 
-1.670072210419476 
-2.070121538083021 
-1.015535462622194 
0.9100784298881072 
-1.153126081819911 
-1.992289505224353 
-0.5501233008306533 
-0.06721530358629345 
3.103765180879822 
-1.396217192856124 
-2.285296538527659 
-0.499054766626933 
-2.103990353432624 
-0.2558736358665329 
-3.805867895203374 
-1.753205745762557 
1.078838202779492 
0.1005682023389199 
-2.477966959033664 
-2.148839252923116 
-2.636525668140858 
1.543217513656611 
-2.029520392129064 
-1.014052365577729 
-1.187262083153798 
-0.3120939667245091 
-1.154072102849286 
-0.5203555695863969 
0.6766529527036865 
-0.5203555695863969 
-0.5203555695863969 
-1.84910151078483 
-1.918994748738664 
-1.819192648020216 
0.3610175680293263 
-1.32694397819326 
-0.01411121387813404 
-1.994037461863337 
-1.001309550686678 
-0.3523377707147806 
-0.5321954099137901 
-0.5321954099137901 
-0.5321954099137901 
-0.5321954099137901 
-0.1294582157610613 
-0.1361074044503214 
-2.166523358919973 
-0.05773751592986216 
1.044016579839335 
-0.590237296594826 
4.375655551437111 
-0.07694880744945738 
-0.6069416653921642 
-0.951696566940217 
-0.4742587228052639 
-1.106169671192117 
0.3221527908821531 
1.881108269668393 
1.500921856158656 
-0.2282738802241635 
-0.2282738802241635 
-0.2282738802241635 
-2.18951419901133 
-2.836199151081567 
0.7505589972092902 
-1.332087586290445 
-0.7127421085485189 
-0.7127421085485189 
0.5481938093609938 
-0.3918601876601929 
-2.310145657145341 
0.2709240787963615 
0.4018864783522234 
-2.470097035579735 
0 
1.724224755083546 
-2.511594546610147 
-1.193207084831299 
-0.3597874310813095 
-0.3597874310813095 
2.808550681924828 
-0.4064364231658169 
-0.4064364231658169 
-0.4064364231658169 
1.900456449215556 
-0.2357056137718968 
0.03982389971890241 
-0.4064364231658169 
-0.6361030058944428 
-0.6361030058944428 
2.479041022560805 
-0.6768572375436519 
-1.159194316261025 
0.1278892186302087 
0 
4.232159347571841 
-1.773332147474419 
-1.0156978305901 
-1.525915339161665 
0.526655136462605 
0.8581846592659264 
-0.3449406091941157 
-0.3449406091941157 
0.8606491794684534 
0.7924862191745737 
-0.5816255612958522 
-0.03845601691834311 
-2.280716708601198 
-1.271725790206443 
-3.430078226829527 
-0.3199676491582606 
-0.8065287659241986 
-0.8065287659241986 
4.172565132292301 
-0.5712897123103692 
-0.671257341090156 
-2.324890141829019 
-0.1531832382430643 
0.5378035760846451 
-0.5342689391069666 
-0.4284163852665115 
-0.4284163852665115 
1.093147849449681 
-0.1822905857003101 
-0.1822905857003101 
-0.4724330702987816 
-0.4724330702987816 
-0.2362165351493908 
-0.2362165351493908 
-0.2362165351493908 
-1.925133853907051 
0.1249388417739926 
-1.082095840073864 
-7.713872444775115 
-1.785271970892476 
0.337627424248052 
-0.6749791011822734 
-0.6749791011822734 
-0.6749791011822734 
-0.6749791011822734 
0.6495211393215125 
-1.714021588510142 
-0.2761799908004313 
0.8844609312474623 
-0.1817134028445328 
2.89574231516428 
-0.8284182549449496 
-1.886930757280452 
-0.3740869378328957 
-0.3740869378328957 
-0.3740869378328957 
-0.3740869378328957 
-0.1376064158570071 
-1.409266266861718 
1.136958195984213 
-1.38369858991023 
0.5683658079665457 
-0.2263237002553242 
-1.002502167925085 
-0.9805332200128399 
-1.341885557432802 
-0.6282095852036448 
0 
0 
-0.8102302467261567 
-0.2324626876482177 
2.097419016246968 
-0.002705588519219767 
1.41473213337147 
0.5191772624149019 
-0.4820636234587658 
1.187884320369431 
-0.3256786165096352 
-1.085534670343621 
0.5519885303041128 
-0.4358456379066468 
-0.4358456379066468 
-0.4545299210070639 
-1.230507903800119 
-0.205358389707546 
6.581565874758522 
-1.08834637962976 
0.1983884720578247 
-0.7096758077146342 
-0.7096758077146342 
-0.7167402165950199 
0.1955985275838884 
0.3575505084704504 
-1.945418498968967 
1.450956274633837 
-0.5200803936732303 
-0.5129176210886769 
0.1264449421003276 
-0.657625544103577 
-2.148421820653845 
-0.657625544103577 
-0.2594035073819277 
-0.290506770831733 
-0.8697243253211936 
-0.2895680482987967 
-0.4579718876664594 
-0.4579718876664594 
-1.345929014432802 
-0.4579718876664594 
0.3464768703136669 
-5.599697232074752 
-1.469954411245411 
-0.08674210485870137 
-2.529889608813377 
-1.012740437506765 
2.508092875420262 
-2.716666974631355 
-0.8213132324768116 
-0.490805271421955 
-0.7565765571086972 
-0.490805271421955 
-0.6724547216104836 
-0.6659409837314106 
2.776095072055449 
-0.9558097506123662 
-0.9558097506123662 
-1.245678517493322 
-1.487191063017047 
-0.860945337718713 
-0.33301582984659 
-0.3899110787154633 
0.8835000463264313 
-0.523019459113133 
-1.342027598623523 
-0.523019459113133 
0.4341601116558242 
-0.6410415044974367 
-1.076453711592037 
-0.7800422672557767 
-0.4642626508126062 
-0.4642626508126062 
0.03512476847091069 
2.726726584573234 
1.189622773854579 
-1.214542805440623 
-2.669242504623531 
-0.5547008582861417 
-0.5547008582861417 
-0.1558118835682537 
-0.5547008582861417 
-0.5547008582861417 
1.358206770465176 
2.465229780985778 
-1.030318703349603 
-0.2542522811074604 
-0.2542522811074604 
0.7130536264509686 
1.709299098286201 
1.070985923522296 
-0.3324546266793694 
0.1918302229979066 
-0.9772861875593553 
-1.276767014248675 
-0.128401360404876 
1.601540550638629 
-0.7072127040100646 
-0.1579619693109568 
-4.715998928111709 
-2.800147113409933 
2.068416708048729 
-1.150041896910856 
-0.01661075917548566 
1.213445143902886 
-0.4509420006699749 
-0.4509420006699749 
-1.340291769795757 
-0.2787640401194822 
0.5397500094356249 
-0.4509420006699749 
-1.050571604334303 
0.7195030806255985 
-0.0586053679843316 
-0.0586053679843316 
-0.2508832688100365 
-1.778673436241643 
0 
-0.6835007658383299 
-1.252117885843898 
-0.3551028898762401 
-0.3551028898762401 
-0.3551028898762401 
-0.7065893006819732 
-0.7065893006819732 
1.131441328632912 
-1.41573042618309 
-0.2603398100002541 
0.8909326142558005 
-0.5071918950624444 
-2.544423628893073 
0.1971455485871492 
-1.010153450748881 
-0.04293858133573744 
-1.480715135792638 
-0.4862522735676702 
-0.4862522735676702 
-1.097951434430322 
-0.1946233541137388 
-0.2281834172263163 
-2.169949934382024 
-1.419238238216371 
-0.8909065584251424 
2.998151409943743 
-2.478511188909946 
0.8829266287625086 
-1.033977079295815 
-0.8856211606897546 
-0.8856211606897546 
-0.8856211606897546 
-0.8856211606897546 
-0.8856211606897546 
-2.49845221096235 
-1.268204655353518 
0.5444970389795317 
-0.2468105725325076 
0.5594209150144946 
1.395321953921817 
-1.226779489395293 
-0.1098032073186028 
0.4244758980527426 
0.6970388479051 
-0.3797236590193126 
-0.3797236590193126 
-1.238836383794337 
-0.3332802984187257 
-1.826058070098964 
-0.3797236590193126 
-0.3797236590193126 
-0.3797236590193126 
-0.3797236590193126 
-1.517785651640406 
0.639221095870539 
3.046761956045826 
-1.42449342255349 
4.372832778963255 
0.4885542250220672 
-0.1416497745057063 
-0.1416497745057063 
-0.1416497745057063 
-2.599815428521051 
-0.1416497745057063 
0.6860463289493028 
0.4655887799149181 
-0.2856527950093906 
-1.13967273080994 
-0.186379235146164 
-0.569240087674924 
-0.5302170976738524 
-1.342629986060613 
-2.387612319541239 
-0.5887564344047684 
-0.3084732187123654 
0.6055689343513267 
-0.02526660298852933 
0.1528237007411266 
-0.1626764917669429 
0.8945379675827951 
-0.5634069234747895 
-0.5634069234747895 
-0.08781366245254565 
-0.08781366245254565 
-0.08781366245254565 
-4.375751525417872 
-1.007458008544891 
0.6919346788236549 
-0.5503946679788561 
1.013273214453391 
-1.499795513625827 
-0.4793017119227442 
-1.186015805604185 
-1.186015805604185 
-0.3478753607558082 
-1.187782979566255 
-1.407045892616312 
-2.588159479822912 
4.325730880633811 
-0.3780010478473924 
-1.701151539696023 
-0.3780010478473924 
1.022840820384142 
-0.3780010478473924 
2.916966861251264 
-1.104179446580441 
-1.104179446580441 
-1.104179446580441 
-1.104179446580441 
-0.6917332296214576 
-0.6917332296214576 
-0.6917332296214576 
-1.145249674561324 
-0.7223716725750438 
-1.450157434770312 
0.1963785558776454 
-0.2288015398162983 
-1.142535560213799 
-0.3669722934659044 
-0.5172532781138761 
-0.3669722934659044 
-1.825684677782362 
-0.5775816905404922 
-1.391966202068574 
-0.5566687218228699 
0.239124747250267 
-1.036673581988815 
-1.189308085307176 
0.4512933225140979 
0.05810904380252069 
-0.6920800511279598 
-0.3673193036959312 
-0.3673193036959312 
-1.078385916436609 
-0.3673193036959312 
0.4221718827953146 
-2.07022896040814 
-1.076251229697043 
-0.1289076538244278 
-0.07221850953431462 
-1.488229511038686 
-0.4872877686146194 
-2.767578747215378 
-1.473143669246411 
-1.201681522147209 
-0.5679184208655036 
-0.1976615932104509 
-0.1976615932104509 
1.121487998100351 
-0.1976615932104509 
0.1050304768478168 
-0.9122151243466131 
2.291157679827853 
3.343400728006069 
-0.1403410173278316 
0.09537480769567561 
-0.594814518338598 
-0.594814518338598 
0.1712377863209502 
-0.594814518338598 
-0.594814518338598 
1.476031549815545 
-2.497401269624265 
-0.3737567346467373 
-0.007031969776330542 
-1.673329594999257 
0.6007545141317283 
-0.2429628186313976 
0.8145585150490381 
-1.230351109029008 
-2.071134974638806 
4.555363871695237 
-1.376493145908831 
3.361559712592968 
-0.4760126216549161 
-0.6143531760877177 
0.2739652357172095 
2.146781226981293 
0.5582458722565606 
-0.5074056077344832 
-2.076288693763134 
-1.75738483556885 
-1.468600384693554 
-1.468600384693554 
-0.8643604646214135 
-0.9037264228240668 
-0.9080313888682889 
-0.4221113623609178 
3.173386012446344 
-0.2463952039383306 
-0.9610131465916859 
2.627169923067131 
0.4240026767718514 
-0.4221113623609178 
-1.865369657544736 
2.03337222013411 
0 
0 
-0.6443292373551397 
-2.130146412027964 
0 
-1.441906566685254 
-1.948678532071898 
-0.2135188829402811 
-0.3230837501346677 
-0.2606652599916757 
-0.4095742550588481 
0.7269437488556328 
-0.9190598191629682 
-0.08741399037922273 
-1.018900352130575 
-0.06255159537810763 
3.267685401354377 
1.464522010541757 
-0.6820412669815028 
-0.2143841752756283 
1.338696707284704 
-3.691300136602056 
-1.428706993287544 
-0.05524757451640989 
-3.119663015868126 
-1.439152129149897 
0.4046101631748272 
-1.328785600964532 
0.1230698339364376 
0.3070446862057297 
-2.93319280887864 
-1.212134009620727 
-2.470370067511 
-0.2527768115280248 
0.6032895140149274 
-0.7929102330904767 
0.2858019666140224 
0.5699699401920632 
1.316924057785885 
-0.5268459938519237 
-0.5268459938519237 
-0.5268459938519237 
-0.5268459938519237 
-0.5268459938519237 
-0.5268459938519237 
0.1541419948435153 
0 
-0.7108765725173366 
-0.258730884420609 
-2.175539771749771 
1.351826525165859 
0.004045315330693514 
-1.606609145385203 
-0.7379738288952725 
-0.5738125472835446 
-0.9357861017336254 
-0.558732702428935 
0.1587419479362006 
-0.4331309297603149 
-0.4331309297603149 
-1.689769822017636 
-1.871460622824024 
1.38581689184805 
-0.1874308699579929 
-0.383108340868317 
4.817010910995627 
-0.4599509676973261 
0.4162536799539752 
-0.5108019307017084 
-0.5108019307017084 
-0.5108019307017084 
-0.5108019307017084 
-0.5108019307017084 
-0.8734858829188843 
-2.469716694038282 
0.103862341385896 
-1.036323881222186 
0.3344164904268364 
-1.755415346930279 
1.201708500381137 
-0.3769247901776849 
0.3613260944789202 
-1.505340171385982 
-3.537234946391097 
-0.5867321934293418 
-0.6470567055726061 
-0.07921772086544679 
-2.00922038760766 
-0.2548687724872209 
-0.2548687724872209 
4.901165496643557 
0.5569002081763346 
0.02062658128691312 
-0.2078789887610841 
-0.2078789887610841 
-0.2078789887610841 
-0.6385966638485694 
-0.6385966638485694 
-0.6385966638485694 
-0.6385966638485694 
-0.6385966638485694 
-0.6385966638485694 
-0.6385966638485694 
-0.9222701076770291 
-0.9959836969998089 
-1.197964885974414 
-0.7871392769658192 
-0.4035169877784928 
-0.4035169877784928 
-0.5395719424697011 
-0.4035169877784928 
-0.6376079010058621 
3.192942283247518 
-0.3125645826817703 
-0.3125645826817703 
-2.100234784330655 
-1.638019688996655 
-0.3125645826817703 
0.2798838775889446 
-2.363976490849486 
-0.4562789438215514 
-0.08870515980484699 
-2.256288073525087 
0.1802073563701173 
-0.6728572806827539 
-1.605757594598234 
-0.6904147645668017 
-0.2533356572868838 
-0.2533356572868838 
-2.202895270068986 
-0.6398404316293669 
-0.4734505048487506 
-0.4734505048487506 
0.3470401167859582 
-1.392521076732742 
-1.251022376458733 
-0.346702274601853 
-0.4955229082707831 
-0.3384203995310124 
0.3508166342856789 
0.1835946641334595 
-0.7086807372447682 
-0.7086807372447682 
0.902701818831647 
0.1773454629658968 
-0.7933546383956092 
0.8287304633247873 
0.7819523913255734 
-0.5054971297283872 
-0.5076388817591805 
-0.5328309449021232 
7.636130247037928 
-0.963792043573932 
-0.6118683645038445 
-0.9145717396676563 
-0.4237216662550736 
-0.4237216662550736 
-1.548952275485488 
-1.073714303376875 
-1.199715774446204 
-1.589650089347793 
0.3663582459722844 
-0.599857887223102 
1.276942431187577 
-0.1530112432380306 
0.9766790701038726 
-0.5874948490140233 
-0.3430177750055768 
0.4772916893669469 
-3.049140391117781 
-0.5271923708344818 
-0.5271923708344818 
-1.524188391301084 
-0.7156381128037564 
-0.193295626039888 
-2.470498905304166 
0.8348751229433934 
-0.2621262684669292 
3.233887964269802 
-1.65710410950686 
0 
0 
0 
0 
-0.1961887180180017 
-0.1961887180180017 
-0.7718431905757055 
-0.2413114151252352 
-0.2413114151252352 
-0.2413114151252352 
-0.2413114151252352 
-0.2413114151252352 
0.119265856818414 
0.2427221350618613 
-0.2413114151252352 
-0.2413114151252352 
-1.402995558293713 
-0.170964015330826 
-0.5670221729903946 
-2.025258294397083 
-0.4993940393325304 
-1.904927464513623 
-1.904927464513623 
1.115576328546371 
0.69554623840867 
0.4019257202743862 
-0.8330512753409479 
-0.7591821212396807 
-0.4353028684973593 
-0.4353028684973593 
-1.176183669190536 
-0.4353028684973593 
-0.4353028684973593 
-1.293026045785991 
2.224391896509274 
-0.4239008690228939 
-4.455342047977278 
-0.4591974778127591 
-2.384758875943998 
-0.7361070221917084 
2.425175551777352 
-1.390683730873685 
-0.7361070221917084 
-1.505787679850237 
2.287392894318709 
0.3679476924270927 
0.7967078968901333 
-0.5696756571135257 
-2.842780845066676 
-0.8133046528475824 
-4.022622989285484 
-0.8594703921487682 
-0.2542729847545841 
-0.2542729847545841 
-0.2542729847545841 
-0.2542729847545841 
-0.2542729847545841 
-0.3116839068424568 
-2.257715138549061 
-0.356048224280509 
-0.356048224280509 
-0.356048224280509 
-2.869149481259032 
-0.06771534770389767 
-0.5606047514140013 
-0.4039175168480577 
-0.5606047514140013 
-0.3264647720468353 
-0.1269816954161135 
3.776473614399174 
-1.453147497673558 
-1.381100803662711 
-0.4092925025171122 
-1.110335668066166 
-0.3598127629053662 
2.187409208036833 
-0.3598127629053662 
-1.322724522340121 
2.005939776419897 
0.5847664064932556 
-1.866974916351347 
-0.5933848453491303 
-2.022384956896445 
-0.03576770643851798 
-0.8134965438267419 
0.4718756700518421 
-6.069364257949584 
-0.6066534817474742 
-0.3582194173770732 
-0.3582194173770732 
-0.7453341909711594 
-1.64851329606079 
-0.4192363890194779 
-0.4192363890194779 
-0.4192363890194779 
-0.4192363890194779 
-1.483776409753179 
0.02910731033110138 
-1.484595462416563 
-1.114641933249497 
-0.7584579949104593 
-0.7584579949104593 
-1.908627698290905 
-1.189602894094054 
-0.7584579949104593 
-0.7584579949104593 
-0.7584579949104593 
-0.7984293308819643 
-0.6256951834571245 
-0.7984293308819643 
-2.25418624811101 
-0.4026409423277437 
-2.841683874321039 
4.087552577801501 
-0.5371398057555133 
-0.5371398057555133 
-0.9747439195009004 
-0.5371398057555133 
-0.5371398057555133 
-0.5371398057555133 
-0.5371398057555133 
1.989884384161536 
0.6467688384686167 
0.1447881333030921 
-0.5373786764287887 
-0.4850836350109389 
-0.4850836350109389 
0.05956613381581654 
1.065611793594591 
-0.06122692838394493 
-0.4850836350109389 
-0.4850836350109389 
-0.4850836350109389 
-0.4850836350109389 
0.2084564179703962 
-0.4850836350109389 
-0.4850836350109389 
-0.8919293297677433 
-4.482722104368056 
-0.3482838251609808 
0.7422570270115709 
-0.3482838251609808 
-0.3482838251609808 
-0.8367697273622514 
-1.348455910891873 
-2.304485571502415 
-0.3063793855306953 
-0.9081359158375906 
-0.928679071780246 
-2.481040282920611 
-0.928679071780246 
-0.8590266009793607 
-0.8590266009793607 
-1.919492923835001 
-1.469463588454694 
-0.9705177810257447 
0.415407589227949 
1.355604318254428 
-0.8926096259840238 
-0.6399065980809917 
2.121921379492659 
-0.6399065980809917 
-2.657930551679297 
-2.638186279315375 
2.383890085987632 
3.460140282670189 
-0.08358517905164929 
-0.8888527062565933 
-1.36355692046262 
-0.3171376719217588 
-0.5394084016422467 
-0.3171376719217588 
-0.403720709436135 
0.09958186811023775 
-0.5670079167987279 
-0.3171376719217588 
-0.3171376719217588 
0.9090957815364098 
-1.500551857044383 
0.09227566204417657 
-1.154865031475896 
-0.7401021043416102 
0.5584651186451753 
-0.583686099132533 
0.5729282931045785 
-0.3225111861545057 
-3.655179663813247 
-0.2919061590810478 
1.887985311472081 
-1.930683270796716 
-2.344660331340925 
-0.8793057156206063 
-0.5749026653630618 
-0.7109123931098511 
-0.0951632653068884 
-0.5749026653630618 
0.346422216435014 
-1.655522226710519 
-0.6883755149551122 
-1.30376705453813 
-0.5390910284129783 
2.057461203931356 
-0.1853698640649674 
0.5386405819183014 
-1.286909233682174 
-1.457091259360888 
-0.2815349370803971 
-3.301089909959805 
2.685348173738368 
-0.8715138764678322 
0.7653356517770737 
0.4252750865017474 
1.0393309325639 
-0.369390312013645 
0.4851937922635844 
-0.5724563997053845 
0.979963199961966 
-2.463646256617358 
-1.863359752069282 
-2.441897538754212 
0.7202974895183293 
-0.3479872866374215 
-3.420152148342628 
-2.501505250246683 
0.1151942374867904 
-1.373246881602696 
4.98732999343332e-18 
-0.5348533656079557 
-0.5348533656079557 
-0.5348533656079557 
-0.5348533656079557 
-0.5348533656079557 
-0.6476629298399827 
0.5201206403941886 
1.446108161118114 
-0.5064731893072016 
-1.300215258652704 
-0.2449276001248907 
-0.2449276001248907 
0.055848657256424 
2.042695373567596 
-0.4757656185174256 
-0.316384157001485 
-0.4757656185174256 
-0.09773795845916064 
-0.88086206988682 
-0.8177940229581193 
-0.8177940229581193 
-0.8177940229581193 
-0.2814326201001959 
2.096600848869108 
-1.306995714580632 
0.2436294426740689 
-0.8734426887174686 
1.991571728452342 
-0.2846277450421734 
-1.078884000837476 
-3.123349733419805 
-0.009785576348041091 
-0.8426911224467201 
1.675209084797528 
-0.8426911224467201 
-0.8426911224467201 
0.1787759496550537 
1.506845397795044 
-1.362549219781065 
-1.362549219781065 
1.779759954269644 
1.229512960426773 
-0.841874645402197 
1.649133947470171 
-0.2035234066483715 
-0.2035234066483715 
-0.3851975423495294 
-0.2035234066483715 
-1.98163485668113 
-0.6764686091871254 
-0.9203332345355376 
-0.9203332345355376 
2.231597910985327 
-0.9719129458645793 
-1.210627051978815 
-0.3165243932634429 
-0.3165243932634429 
-0.3165243932634429 
-0.3165243932634429 
0.06716377490828586 
-3.005785806857702 
-4.517652750307807 
-0.4301714553639663 
-0.4301714553639663 
-1.514908954733059 
-0.4301714553639663 
-0.4301714553639663 
0.7377196057611163 
-0.6753637955307065 
-2.561199785173332 
-0.6753637955307065 
-0.6753637955307065 
-0.6753637955307065 
-0.3956865383096737 
-0.689824551095445 
-2.405030281670038 
-2.405030281670038 
-1.040574825905707 
-0.5552665999431686 
3.034332132932699 
-0.4983761779266494 
-1.238055000005004 
-0.4983761779266494 
-0.4837670978378642 
-0.5771060117840087 
2.47804677473126 
0.9409555827767283 
-0.9369320656654644 
-0.8801845597387066 
0.228069087806468 
-0.08438600720771323 
-0.2699368458283994 
-0.8801845597387066 
-0.6797203161678932 
-3.4347763434326 
0.4274893190578053 
-0.408340821404746 
-1.74429194257562 
-0.8886897772241965 
